target_word,V2,V3,V4,V5,V6,V7,V8,V9,V10,V11,V12,V13,V14,V15,V16,V17,V18,V19,V20,V21,V22,V23,V24,V25,V26,V27,V28,V29,V30,V31,V32,V33,V34,V35,V36,V37,V38,V39,V40,V41,V42,V43,V44,V45,V46,V47,V48,V49,V50,V51,V52,V53,V54,V55,V56,V57,V58,V59,V60,V61,V62,V63,V64,V65,V66,V67,V68,V69,V70,V71,V72,V73,V74,V75,V76,V77,V78,V79,V80,V81,V82,V83,V84,V85,V86,V87,V88,V89,V90,V91,V92,V93,V94,V95,V96,V97,V98,V99,V100,V101,V102,V103,V104,V105,V106,V107,V108,V109,V110,V111,V112,V113,V114,V115,V116,V117,V118,V119,V120,V121,V122,V123,V124,V125,V126,V127,V128,V129,V130,V131,V132,V133,V134,V135,V136,V137,V138,V139,V140,V141,V142,V143,V144,V145,V146,V147,V148,V149,V150,V151,V152,V153,V154,V155,V156,V157,V158,V159,V160,V161,V162,V163,V164,V165,V166,V167,V168,V169,V170,V171,V172,V173,V174,V175,V176,V177,V178,V179,V180,V181,V182,V183,V184,V185,V186,V187,V188,V189,V190,V191,V192,V193,V194,V195,V196,V197,V198,V199,V200,V201,V202,V203,V204,V205,V206,V207,V208,V209,V210,V211,V212,V213,V214,V215,V216,V217,V218,V219,V220,V221,V222,V223,V224,V225,V226,V227,V228,V229,V230,V231,V232,V233,V234,V235,V236,V237,V238,V239,V240,V241,V242,V243,V244,V245,V246,V247,V248,V249,V250,V251,V252,V253,V254,V255,V256,V257,V258,V259,V260,V261,V262,V263,V264,V265,V266,V267,V268,V269,V270,V271,V272,V273,V274,V275,V276,V277,V278,V279,V280,V281,V282,V283,V284,V285,V286,V287,V288,V289,V290,V291,V292,V293,V294,V295,V296,V297,V298,V299,V300,V301
white,-0.19715,-0.12519,0.00961,-0.055395,0.34123,0.099503,-0.14716,0.14411,0.46427,0.2464,0.23744,0.20562,0.13032,0.083103,0.12855,-0.77133,-0.41973,-0.39347,0.23554,0.014824,-0.18547,-0.21547,-0.28117,0.12786,-0.42449,-0.13228,0.42216,-0.17228,-0.17921,0.47009,-0.029723,-0.066241,-0.13589,0.023469,-0.03785,-0.086476,-0.18013,-0.096724,0.20085,-0.19814,-0.074632,-0.2459,0.073168,-0.14777,-0.06528,-0.39014,-0.070199,-0.29635,0.035384,0.012683,-0.1598,-0.26847,0.053073,-0.13128,-0.063223,0.2026,-0.064107,-0.024536,0.1335,0.14205,0.045253,0.085473,0.39912,-0.16868,-0.1112,-0.082377,-0.33417,0.20628,-0.16812,-0.020505,-0.31671,-0.13137,-0.31551,-0.34965,-0.15855,-0.34274,0.11547,-0.32399,0.12057,-0.034248,0.11002,-0.23983,-0.29511,-0.0029299,-0.32675,-0.26875,-0.22029,0.10583,0.23549,-0.028014,-0.14689,-0.089973,-0.05997,-0.31603,0.23745,0.07347,0.01583,0.25536,-0.22076,0.25009,-0.16051,0.14759,-0.081932,0.14066,-0.018035,0.24031,0.061604,0.11235,0.21167,-0.20419,-0.22758,0.13587,-0.17419,-0.32129,0.062424,0.26075,0.16081,-0.067148,0.18381,-0.065383,0.28491,0.0056119,0.20376,0.12931,0.15856,0.21961,-0.15694,0.10704,0.25686,-0.057818,-0.14283,0.14744,0.080156,0.21209,0.2951,-0.2784,0.27268,-0.6534,-0.3814,0.0096262,0.23473,0.32749,0.47479,0.08105,-0.018965,0.062945,0.0025841,-0.15537,-0.52082,-0.073623,0.16423,-0.35291,-0.5084,0.0064966,-0.2848,0.30149,0.11739,-0.063725,0.46006,-0.022221,0.50731,0.32448,-0.29515,0.31589,0.17502,0.12045,-0.19607,0.10097,0.32135,0.066267,0.086831,-0.31326,-0.46834,-0.094428,-0.24051,0.04495,-0.11833,-0.34708,0.249,-0.13005,-0.043594,-0.20396,-0.22689,0.22355,-0.071881,0.25764,-0.020255,-0.099165,0.35901,-0.077119,0.31437,-0.30528,0.20509,0.08213,-0.20954,0.051099,-0.053483,0.22416,-0.0068322,0.0073657,0.40324,-0.048293,-0.29939,0.16282,0.51037,-0.38358,-0.33166,-0.099602,0.08002,-0.090493,-0.093195,0.12665,-0.084589,-0.072416,0.20605,-0.40084,-0.23458,-0.4495,-0.18794,0.066237,-0.3659,-0.33695,-0.21707,0.52509,0.1557,-0.1758,-0.36253,0.035561,-0.1914,-0.17272,0.16239,0.32624,0.037851,-0.14848,0.26522,-0.3565,-0.12663,0.12991,-0.19104,0.19651,-0.08218,-0.054942,0.014179,0.04856,0.0415,-0.1211,-0.14465,0.053884,-0.11096,0.30055,0.17159,-0.042273,0.040582,-0.1498,0.11884,0.24798,0.47725,-0.29942,-0.023593,0.2385,0.17872,0.18204,0.22321,-0.18295,-0.17629,-0.3539,-0.15122,0.44031,-0.018143,-0.08455,-0.38916,-0.26958,0.08085,0.034847,-0.21575,-5.2357e-4,0.21318,-0.22761,-0.28572,0.15525,0.17327,0.26112,0.1786,0.44704,0.63607,0.19834,0.18238,0.56454,-0.37673,-0.080037,0.19882,-0.19796,-0.26265,0.12439,0.038235,0.22087,0.18572,0.27587,-0.22359,-0.23321
black,-0.33801,-0.0010778,-0.0075271,0.10554,0.15904,0.27644,-0.05565,0.36161,0.56068,0.30735,0.23045,0.039258,-0.033031,0.23953,0.32671,-0.38086,-0.48357,-0.13469,0.22164,0.35089,-0.2009,-0.12313,-0.29999,0.10977,-0.37443,-0.067335,0.44976,0.23795,-0.12694,0.64655,0.06585,-0.04149,0.0031993,0.037071,-0.25591,-0.33712,-0.053973,-0.12063,0.19745,-0.32109,-0.08077,0.080905,0.081647,-0.078554,-0.1712,-0.22763,-0.052252,-0.36557,0.17135,0.018393,0.042346,-0.11775,0.0061512,0.11596,-0.38128,0.24884,-0.17698,0.064872,0.49143,0.092233,0.070682,0.12065,0.40182,0.06856,-0.19965,0.1824,-0.22119,0.0056101,-0.097819,-0.065739,-0.20873,-0.37577,-0.21803,-0.30614,0.20829,-0.32535,0.20231,-0.3336,-0.062543,0.096474,-0.026469,-0.19639,-0.33173,0.20712,-0.048246,-0.10409,-0.2228,0.20256,-0.055281,0.049559,-0.18825,0.22306,-0.035158,-0.053979,0.12343,0.077387,0.051955,0.11607,-0.060532,0.33165,-0.16571,0.053671,-0.083431,0.34591,0.11372,0.10301,-0.0018385,0.2268,0.13725,-0.18999,-0.094508,0.28361,-0.32256,-0.29232,-0.069019,-0.020835,0.10265,-0.09187,0.071597,0.19906,0.32399,0.057289,0.061081,0.014949,-0.10624,0.12968,0.13887,0.22587,0.0395,0.06106,-0.35053,0.31962,0.17077,0.22434,0.042005,-0.42589,0.26496,-0.43472,-0.33795,0.17445,0.13808,0.015228,-0.014015,0.10635,-0.26883,0.17379,-0.16973,0.011167,-0.18597,-0.071213,0.045304,-0.513,-0.50854,0.029805,-0.18746,0.29374,0.20791,0.063389,0.40398,-0.04595,0.30902,0.19768,-0.28313,-0.043023,0.20862,0.082713,-0.15714,0.081304,0.70272,0.26507,0.012481,-0.19703,-0.62594,0.025286,-0.29465,0.032673,0.13902,-0.30187,0.057932,0.0013998,-0.0034666,-0.090331,0.13076,0.070176,-0.1216,0.0060229,0.058296,-0.12481,0.21156,0.080274,0.14107,-0.51304,0.32165,0.056771,-0.037266,0.082643,-0.21811,0.11125,-0.29809,0.086337,0.4462,0.20966,-0.088817,0.12123,0.29079,-0.19556,-0.076392,-0.28428,0.087804,0.012048,0.20055,0.14995,0.18527,0.19346,0.043697,-0.0024271,-0.42561,-0.40245,-0.08716,0.072631,-0.41922,-0.37676,-0.23107,0.50403,0.1259,-0.31836,-0.24203,-0.15594,0.25542,-0.18304,0.25221,0.56304,-0.13979,-0.14244,0.092171,-0.47476,0.14039,0.18236,-0.34961,0.16444,-0.12196,0.15716,0.11465,0.011861,0.10332,-0.21245,-0.28384,0.061195,-0.14878,0.4043,0.087752,-0.022189,-0.010594,-0.15678,0.18003,0.23671,0.14699,-0.45556,0.073758,-0.067777,0.14762,-0.069588,0.068336,-0.31624,-0.22635,-0.49991,0.18523,0.46085,0.18075,-0.27369,-0.23531,-0.31673,0.12597,0.15596,-0.10124,0.17376,0.30253,-0.077761,-0.38857,0.021279,0.18978,0.21372,0.46533,0.025171,0.34765,0.19649,0.20473,0.18482,-0.41359,0.031477,0.23794,-0.14254,0.15955,0.24115,0.21869,0.17404,0.1738,0.19978,-0.05539,-0.041608
red,-0.1397,-0.19608,0.44096,0.084868,0.28052,-0.16625,0.21707,-0.25217,0.38182,0.31135,0.36728,0.025981,8.6035e-4,-0.056946,0.42681,-0.038768,-0.44806,-0.40775,0.12509,0.33304,-0.18079,-0.19826,-0.39046,-0.095871,-0.10124,-0.32382,0.073163,-0.26469,-0.30121,0.17423,0.030348,0.31439,0.13998,0.32872,0.10476,0.035078,-0.34023,-0.11485,0.33944,-0.31054,-0.13628,-0.059198,0.034101,0.2696,-0.078278,-0.40515,0.10135,-0.067055,0.10643,0.17901,0.16979,-0.48534,-0.24541,0.096183,0.21221,0.11069,0.038908,-0.13226,-0.013102,0.1002,0.0098221,0.097488,0.43482,0.061886,0.013697,0.083183000000000007,-0.31587,0.19045,-0.025096,0.072761,-0.3491,0.14653,0.13922,-0.40901,0.28042,-0.037875,-0.062586,-0.15995,-0.30987,-0.19218,0.15254,-0.015975,-0.41725,0.096396,-0.29933,0.032147,-0.1326,0.13956,0.19835,-0.4082,-0.076848,0.21226,-0.25411,0.37966,0.26029,0.0836,0.15182,0.37335,-0.28057,0.16127,0.068423,-0.1484,-0.27119,0.12576,-0.27263,-0.3436,0.21394,0.12946,-0.13145,-0.11167,-0.10737,-0.23454,0.12739,0.03597,-0.060059,0.048722,0.20964,-0.038243,-0.1379,-0.22487,0.35956,-0.011622,0.058344,0.09916,0.12139,0.32307,-0.0035153,0.17284,-0.24221,2.4583e-4,0.1595,0.35485,0.099914,0.23481,-0.24372,-0.061035,-0.0026034,-0.65479,-0.27708,0.34839,-0.14142,0.61913,0.1209,-0.10125,-0.025256,0.52423,-0.28878,-0.009969,-0.17651,0.051339,8.1239e-4,-0.70559,-0.49295,-0.15648,-0.030506,-0.056029,-0.14955,0.32918,0.20531,-0.33114,0.62744,0.14798,-0.49909,-0.077926,0.14668,0.048877,-0.25209,-0.034639,0.54631,-0.066707,-0.09848,-0.33583,-0.13586,-0.0017125,-0.071714,0.12245,-0.057049,-0.27742,0.094564,0.11065,-0.31493,-0.073349,-0.28387,0.0077796,-0.0039406,-0.071689,-0.09654,0.053847,0.17467,0.0038026,0.34043,-0.41729,0.4997,0.32705,-0.5236,-0.36265,-0.1958,0.053633,-0.41911,0.11976,0.1243,-0.25585,0.11287,0.311,0.34561,-0.26262,-0.53753,-0.076221,-0.27197,0.17838,-0.082639,0.25741000000000003,-0.19358,-0.25886,0.47806,0.20258,-0.30476,-0.1774,-0.030877,-0.057238,-0.35567,-0.12072,-0.10432,0.19229,-0.037777,-0.23027,-0.19568,0.07154,0.24444,-0.18281,0.14356,0.084038,0.10874,-0.27019,0.046303,-0.47618,0.20205,-0.12581,-0.31114000000000003,0.20039,-0.088377,0.083716,-0.056324,-0.12529,-0.16888,0.078496,0.2189,0.2129,0.007768,-0.1232,0.2032,0.03014,-0.093485,-0.12751,0.29964,-0.083504,0.097126,-0.2416,0.44406,0.25689,0.21818,0.29237,-0.28174,-0.019995,-0.23476,-0.18135,-0.05493,0.29243,-0.1288,-0.46428,-0.12794,-0.21535,-0.26473,0.015243,0.042705,-0.086866,0.45472,0.21919,-0.20069,0.17187,-0.011451,-0.31734,0.036694,0.085431000000000007,0.7677,-0.23879,0.30408,0.37109,-0.40264,-0.48163,-0.049746,-0.088077,0.09688,0.13178,-0.14316,-0.2952,0.35474,-0.2043,-0.06245,-0.080208
light,-0.24597,0.014407,0.39069,0.29618,-0.010681,0.20788,-0.18473,-0.045366,0.25365,-0.063404,-0.15867,0.37818,-0.38285,0.18505,0.4144,0.061641,-0.32957,-0.21528,0.16761,0.17566,-0.21887,-0.13394,-0.28868,-0.20131,-0.14543,-0.18004,-0.16347,0.095459,4.127e-4,-0.17441,0.1068,0.35424,-0.28361,0.42371,0.20921,0.12008,-0.16158,-0.52346,0.083191,0.1538,0.004263,-0.0021566,-0.19685,-0.066828,-0.0079957,-0.069484,0.030874,-0.027425,-0.11556,0.39272,-0.034005,-0.061926,-0.14061,-0.22631,0.13433,0.14733,-0.19952,0.26939,0.14785,-0.17579,-3.6767e-4,-0.16046,-0.13456,-0.0041234,-0.18567,-0.16547,0.029042,-0.058785,0.080172,0.42072,-0.56744000000000006,0.092744,0.045264,-0.081859,0.088417,-0.45881,0.12421,0.40376,-0.13385,0.053172,0.0057109,0.30892,-0.28846,-0.056571,-0.21612,0.28807,0.069482,0.17528,0.21922,0.081717,0.024727,0.031819,0.20679,-0.058988,0.1512,-0.17557,-0.090395,-0.057402,-0.34647,-0.0080356,0.0033007,0.09986,-0.1788,-0.081322,-0.23419,0.057484,-0.39364,0.38356,-0.2436,0.23889,-0.14811,-0.052502,0.17049,-0.22273,-0.062192,0.13735,0.099471,-0.21317,-0.10792,0.12202,0.40342,0.16152,0.0046085,0.040095,-0.24929,0.013894,-0.14713,-0.018606,0.48936,0.02813,0.35965,0.11517,-0.4833,0.21276,0.16776,0.0087083,0.43798,0.022208,-0.025094,0.44261,-0.083083,0.34499,0.28003,-0.19512,-0.053359,-0.15709,-0.27778,0.31762,-0.19866,-0.11588,0.46685,-0.28255,-0.115,0.22436,-0.1938,-0.2096,0.097006,0.13024,0.32298,-0.1644,-0.021759,-0.033652,-0.15565,-0.014096,0.36889,0.066353,0.20389,-0.035758,-0.051091,0.16995,0.0016447,-0.022721,-0.19767,0.1085,0.14541,0.42665,0.021103,0.017936,0.37822,-0.44671,-0.18877,-0.023095,0.33228,0.43164,-0.024397,0.064678,0.29091,-0.06445,0.32522,-0.10208,-0.020888,-0.33621,0.35075,0.056203,-0.05153,-0.057368,0.62941,0.42882,-0.15243,-0.10706,0.084153,-0.30042,-0.098808000000000007,0.059386,0.1502,-0.67159,-0.17147,-0.08327,0.0062912,0.34399,0.25934,-0.01021,-0.021515,-0.15977,-0.3198,-0.46694,0.012472,-0.36332,-0.064033,0.11689,0.013625,-0.24403,-0.01845,-0.081659,-0.10787,-0.098993,-0.26663,-0.26239,0.21041,0.16524,0.030583,0.23483,0.10496,-0.28235,0.2697,0.19816,0.26041,0.051708,-0.44297,0.26949,0.072446,0.1311,0.17406,0.15162,-0.36053,0.11935,-0.22003,-0.0053714,-0.059786,-0.2674,-0.42671,0.086698,-0.18684,-0.09035,0.13528,0.24855,-0.2035,0.080825,0.088259,0.16276,0.075146,-0.053498,-0.067879,-0.21053,-0.13378,-0.55587,-0.01649,0.47381,-0.19072,-0.43823,-0.20319,-0.20689,-0.050604,0.12787,-0.12013,-0.51502,0.14828,0.38951,0.24348,0.23024,0.16739,0.23934,-0.34644,-0.1389,0.52687,-0.19347,-0.060049,0.16732,-0.48249,0.025725,0.03056,0.0095948,0.0025178,0.33181,0.1383,-0.10193,0.18,0.14729,0.23671,0.13166
gold,0.25166,-0.19858,-0.055456,0.11968,0.16737,0.45659,0.087572,-0.13409,0.051608,0.020717,0.5268,0.074633,0.30162,-0.12902,0.47721,-0.31151,-0.11624,-0.16902,-0.3237,-0.094326,-0.026571,-0.086648,-0.24905,0.35541,-0.22447,-0.13956,0.49795,0.22547,0.403,0.3821,-0.30766,0.63075,0.043942,-0.024984,-0.20672,-0.098946,-0.045442,0.097348,0.50334,-0.28583,0.075434,-0.2028,-0.044869,0.11025,0.15658,-0.24814,-0.17109,0.1037,0.03399,-0.2462,-0.024433,0.044706,-0.12966,0.5567,0.071859,-0.44444,0.28098,0.17904,0.010439,-0.24134,-0.054916,0.03352,0.023584,-0.57184,-0.028758,0.085518,-0.2472,-0.1185,-0.35097,0.11095,0.39147,-0.11401,0.21281,0.041102,0.30489,-0.40165,0.34766,-0.19199,-0.3299,-0.023146,0.029838,-0.081509,-0.13243,0.18139,-0.37166,-0.072694,-0.11774,0.057626,-0.10593,-0.18666,0.066555,-0.14816,0.063771,-0.24274,-0.06353,-0.036958,0.26765,0.084503,0.072884,-0.17329,-0.019409,-0.3117,-0.41308,0.38117,0.33394,0.14282,0.012546,0.63986,0.045518,0.11719,0.047242,-0.2127,-0.048644,0.35703,0.092849,-0.17297,0.31851,0.10156,0.06771,-0.096702,0.42212,0.33393,0.08847,0.12951,-0.14104,0.020084,0.53028,0.069762,0.63064,-0.18577,-0.037445,0.24676,-0.091795,0.0064399,0.12666,-0.075894,0.6237,-0.097285,-0.15713,0.3468,-0.052898,0.28445,-0.033561,-0.16062,-0.027489,0.56704,0.005291,0.1685,-0.11544,-0.28391,-0.0096416,0.024013,0.0014292,-0.0089628,3.5745e-4,-0.10481,0.056549,-0.18685,-0.23382,0.11193,-0.3655,0.38763,-0.40669,-0.40646,0.27635,0.18561,-0.036797,-0.1483,0.54867,0.057199,0.01835,-0.32631,-0.34433,-0.3673,0.38261,0.37289,0.078269,0.2485,0.39892,0.062491,-0.034416,-0.71362,0.21726,-0.22609,-0.30405,0.36556,-0.076566,0.4206,0.021239,-0.17841,0.045909,-0.12055,-0.16709,0.20198,-0.42502,0.14645,-0.074773,0.21499,0.14848,0.035456,0.23427,-0.19772,0.20893,0.032286,0.11607,-0.022519,-0.21022,-0.10027,0.60391,0.22933,0.47719,-0.11105,-0.1756,-0.17295,0.052786,-0.32504,0.29547,-0.0091914,0.081965,0.56651,-0.43095,-0.16126,0.097443,0.41139,-0.038942,-0.09028,-0.16802,0.1768,0.2501,-0.2953,-0.18102,0.32972,0.18814,-0.048957,0.28304,-0.51446,-0.1678,-0.15439,-0.24162,0.14043,0.052214000000000003,-0.31971,-0.25679,-0.21823,0.20216,0.044519,-0.046001,0.12912,0.1122,0.11066,0.2249,-0.11793,0.24172,-0.27553,0.16648,0.3152,0.062961,-0.1065,-0.0419,0.20126,-0.059655,0.33097,0.43932,-0.15686,-0.55212,0.1022,-0.053638,0.20264,-0.058649,0.049443,-0.65065,-0.072361,0.24046,0.084285,-0.22163,-0.11195,0.27369,0.39041,0.032326,-9.7217e-4,-0.014491,-0.40374,-0.174,-0.16365,0.16105,0.21717,0.43152,0.28215,-0.47164,-0.18701,0.33369,-0.267,0.15807,0.3048,-0.028648,-0.060987,-0.0051013,0.65884,0.38687,0.30086
blue,-0.2883,0.079628,0.30243,0.22484,0.20882,0.066049,-0.0062499,0.24581,0.28714,0.29333,-0.064435,-0.082464,0.11365,0.019219,0.45458,-0.13182,-0.35714,-0.21366,-0.065841,0.38738,-0.27036,0.10991,-0.33516,0.091049,-0.20285,-0.040818,0.19723,0.17796,-0.31047,0.37503,-0.1111,0.19867,0.17353,0.31775,0.2855,0.20667,0.014539,-0.086601,0.11074,-0.15871,0.27125,-0.27316,0.037311,0.31645,0.18417,-0.17449,0.23858,-0.27161,-0.1957,0.25768,-0.10045,-0.3813,0.0076697,0.053007,0.29122,0.15532,0.0087897,0.10395,0.34414,0.24796,0.29537,0.48592,0.34677,-0.40648,-0.17688,0.046051,-0.04522,-0.1609,-0.31794,0.34872,-0.26105,0.11527,-0.16466,-0.13128,0.062972,-0.063522,0.20182,-0.10454,-0.030845,-0.1489,-0.10106,-0.11285,-0.42183,0.16302,-0.061562,-0.083713,-0.081621,0.092857,-0.091846,-0.33779,-0.13176,-0.033711,-0.12508,0.11903,0.089374,0.23382,0.028817,0.16473,-0.012714,0.27105,-0.0055281,-0.16747,-0.2388,0.35387,-0.32795,-0.31544,0.17631,0.25803,0.0345,-0.031299,0.23629,-0.37528,-0.07539,0.086166,-0.22267,0.0014569,0.36415,-0.27865,-0.15735,-0.21528,0.4294,-0.21059,0.07628,0.020623,0.27312,0.08343,-0.074569,0.22467,0.030605,0.10583,8.2576e-4,0.42409,0.084343,0.12564,-0.076624,0.16867,0.28231,-0.37941,-0.49457,0.2182,-0.083418,0.57173,0.20741,0.053998,-0.077816,0.24402,-0.2654,-0.030042,-0.46959,0.084006,0.18709,-0.45413,-0.33674,-0.18772,-0.00207,0.069685,0.12319,0.33797,0.17347,-0.039717,0.4188,0.051546,-0.48884,-0.21623,0.23938,0.28287,0.049389,-0.11418,0.4432,0.13258,-0.042389,-0.3614,-0.22936,-0.25815,0.054678,0.11886,0.40558,-0.27054,0.036649,-0.065719,-0.19288,-0.2085,-0.24389,-0.17538,0.21411,-0.0016637,0.30763,0.24885,0.15102,-0.053167,0.1381,-0.34705,0.52474,0.18966,-0.13914,-0.27085,0.14774,0.29781,-0.60254,-0.21303,0.25049,0.12093,-0.17307,0.35032,0.50889,-0.055021,-0.070635,-0.062552,0.15919,0.066438,0.062732,-0.0063476,-0.13577,-0.19351,0.17301,-0.20055,0.010786,-0.083802,-0.098356,-0.2039,-0.29888,0.067121,-0.0092883,0.27226,-0.13474,-0.32713,-0.40193,-0.13589,0.061931,-0.030891,0.21996,0.24613,-0.012704,-0.28478,0.084047,-0.20186,0.26755,0.22305,-0.18167,0.21229,-0.012095,-0.0301,-0.21933,0.0072767,-0.2173,0.095645,0.26997,-0.10002,0.113,-0.27073,0.25479,0.10783,0.12082,0.0079136,0.29662,0.060289,-0.028686,-0.03945,0.052182,0.085889,0.15125,0.14992,0.064254,-0.23086,-0.2123,-0.41582,-0.025412,0.71794,-0.15356,-0.23402,-0.44613,0.077989,0.16595,0.18692,-0.1154,0.10101,0.31257,0.099774,-0.36709,0.10862,0.04213,0.044438,0.058522,0.2434,0.54887,-0.090048,0.34932,0.35273,-0.72134,-0.026885,0.13321,-0.42384,-0.050063,0.19843,-0.012735,-0.071897,0.19402,0.096129,0.22765,0.087603
brown,-0.15571,-0.24861,-0.10368,-0.065375,0.25209,-0.17167,0.29768,0.17686,0.36463,0.29296,0.3438,-0.042426,-0.15532,0.099752,0.31676,-0.20059,-0.3902,0.032709,-0.17701,0.43122,-0.20604,-0.1166,-0.050333,0.22152,-0.23278,-0.2945,0.14823,-0.011495,0.066412,0.19499,0.13964,-0.15418,-0.057035,0.15449,0.21561,-0.19211,-0.076851,-0.32675,0.35001,-0.10265,-0.14081,-0.060161,-0.13316,0.2052,0.032099,-0.25222,0.11207,0.029422,-5.7476e-4,0.13769,0.06031,-0.29964,0.29521,0.14434,0.1334,0.16946,-0.082566,0.054728,0.23719,0.20626,0.12106,-0.24204,0.19051,-0.16573,-0.15483,0.059299,-0.26912,-0.051531,-0.34958,0.07051,-0.33471,-0.25205,0.005768,-0.40723,0.28633,-0.30843,0.37573,-7.7461e-4,0.27957,-0.027217,0.10529,0.010733,-0.21117,0.0088651,-0.16308,-0.28588,-0.061924,0.075922,0.27959,0.39513,-0.053161,-0.34773,-0.1969,0.08573,0.12399,-0.10853,0.43386,-0.14077,-0.19643,-0.1718,-0.098312,0.15034,0.11174,0.23463,-0.44307,0.11292,-0.23932,0.10086,-0.033803,-0.47654,-0.17112,0.26472,-0.12763,-0.20203,-0.15977,0.25645,0.021813,-0.19142,-0.14395,0.18002,0.20786,-0.30941,0.082829,0.045391,-0.081844,0.34143,-0.40914,-0.14593,0.25068,-0.17195,-0.018961,0.075026,-0.14702,0.23889,0.12917,-0.0171,0.099562,-0.41721,-0.25804,-0.058265,-0.13174,0.22815,0.15633,-0.02749,-0.20669,0.27493,-0.072827,-0.1487,-0.41103,0.1424,0.23127,-0.005834,-0.39937,0.052296,-0.12286,0.014372,0.020632,0.040017,0.6408,0.19723,0.2313,0.20345,-0.55627,0.0484,0.11904000000000001,0.24581,0.081734,-0.067793,0.58647,-0.15104,-0.24146,-0.21476,-0.28596,0.0074349,0.21798,0.12812,-0.19074,-0.18483,0.17285,-0.31074,-0.03254,-0.41981,0.032189,0.047823,0.037373,0.1043,0.12395,-0.13971,0.36541,-0.14128,0.017729,-0.073178000000000007,0.16739,-0.17759,0.033092,-0.041786,0.45259,0.29569,-0.22389,-0.014367,0.41215,0.3834,0.081382,-0.20801,0.20668,-0.56241,-0.10344,0.012701,0.24824,-0.038514,0.16056,-0.11618,0.29827,-0.33871,-0.12439,-0.11136,-0.24768,-0.22353,0.0066171,0.0099807,-0.44806,-0.2345,-0.24918,0.21701,0.093278,-0.24155,-0.34323,-0.17102,0.032337,0.054071,0.32474,0.23477,-0.27553,0.015148,0.22897,-0.050833,0.015923,-0.030123,-0.39245,-0.23485,-0.28132,0.12412,0.30801,0.058641,0.065707,0.042319,-0.49445,-0.17636,-0.25639,-0.0022847,0.17966,-0.17108,-0.30908,-0.023098,0.13359,0.039723,0.1817,-0.18001,0.11516,-0.010705,0.37017,0.83005,0.082775,-0.28463,-0.021603,-0.22459,0.21866,0.686,0.023232,-0.28971,-0.18726,0.016588,0.23734,0.13391,-0.33128,-0.11789,0.12787,-0.17273,0.077901,0.30418,0.4076,0.068126,0.012959,0.46558,-0.0062527,0.11026,-0.04942,0.29383,-0.72039,-0.21165,0.15233,-0.25788,-0.12723,-0.12773,0.22476,-0.26973,-0.05976,0.20386,-0.44497,-0.16645
dark,-0.28351,0.081063,-0.012977,0.20657,0.16865,0.25524,0.15559,0.35272,0.36195,0.31728,0.13478,0.56361000000000006,-0.097195,0.19668,0.67216,-0.11482,-0.47141,-0.042906,-0.075888,0.34261,-0.50188,-0.10162,-0.34931,0.10834,-0.35169,-0.3327,0.24937,-0.19945,-0.14442,0.096614,-0.078776,0.33665,0.01903,0.20505,0.12019,0.11733,-0.11822,-0.22096,0.20912,0.059015,-0.15215,-0.0093372,-0.35896,0.096615,-0.26025,-0.3636,-0.2775,0.12218,0.02305,0.01078,-0.18774,-0.16618,0.22119,0.066561,0.1411,0.31851,-0.081217,0.036934,0.28427,0.015325,-0.085739,0.10659,0.16514,0.040797,-0.27481,-0.0081183,-0.28754,0.24616,0.044788,0.10717,-0.22572,0.042022,-0.051441,0.042444,-0.094207,-0.13593,0.14127,-0.056157,0.12616,0.0079805,-0.37428,0.043457,-0.12132,0.23351,-0.16265,0.35412,0.020949,0.16725,-0.070537,0.29784,-0.25102,-0.23045,0.093536,0.12496,0.039566,0.12806,0.16174,0.043931,0.0209,0.27125,-0.057348,0.036525,0.11601,0.26304,-0.18801,-0.063875,-0.35623,0.22753,0.14314,-0.37177,-0.078824,0.20235,-0.37219,-0.19297,-0.093492,-0.1567,0.021558,-0.14965,-0.068121,0.19186,0.42616,-0.16902,0.41413,0.23136,0.0073441,-0.10534,-0.28351,-0.002442,0.14598,0.19226,-0.011829,0.2271,-0.36536,0.30809,0.082825,-0.1516,0.40302,-0.30601,-0.24965,0.17579,-0.078022,0.22148,0.24449,0.049425,-0.1572,-0.13905,-0.11269,0.17724,-0.17723,-0.045077,0.55843,-0.27389,-0.56579,0.13174,0.060555,-0.0021534,-0.096507,0.08395,0.49173,0.10088,0.0024224,0.099913,-0.12815,0.0025555,0.090191,0.29027,-0.15716,0.1278,0.38234,0.14729,0.020096,-0.41577,-0.096455,0.24166,-0.025216,0.30556,0.082762,-0.19144,0.052274,-0.27976,-0.13042,-0.25182,0.41875,-0.029794,-0.10093,0.047141,0.37662,-0.0816,0.22804,0.04653,0.062148,-0.59586,0.56095,-0.019734,0.074482,-0.073357,0.047236,0.14165,-0.18713,-0.044868,0.14195,-0.20901,-0.012656,0.12531,0.34122,-0.76624,-0.14777,-0.034374,0.18348,-0.1202,0.36138,-0.010369,-0.048661,-0.15408,-0.030256,-0.13941,-0.048276,-0.24417,-0.4033,-0.12993,-0.4116,-0.2128,0.15792,0.32044,0.21432,0.091665,-0.30005,-0.097648,0.0186,-0.20154,0.031982,0.46422,-0.096029,-0.1206,0.39187,-0.10538,0.37416,0.17263,-0.049928,0.1671,0.17122,0.24047,0.0028424,0.0045425,0.028551,0.1609,-0.36598,3.9989e-4,-0.31813,0.2178,-0.045376,0.35359,-0.16937,-0.20784,0.06492,0.018398,0.022724,-0.23246,0.29915,-0.1419,0.36475,0.28488,-0.057265,-0.15145,0.1344,-0.2729,-0.041442,0.52211,0.015297,-0.23537,-0.17035,-0.11864,0.32455,0.18448,-0.28201,-0.29734,0.018556,0.23125,-0.26963,0.25494,0.41412,-0.043034,0.22539,0.026887,0.088139,0.052482,0.21528,0.26706,-0.38639,0.090302,-0.083461,-0.15956,-0.31293,-0.040085,0.25666,0.11412,0.1469,0.088394,0.080029,0.076316
yellow,-0.53007,0.0015919,0.19376,-0.01574,0.18699,-0.19785,0.3559,0.029096,0.41195,0.20625,-0.030368,0.13583,0.15742,0.030147,0.429,-0.45907,-0.31126,-0.29546,-0.09352,0.36835,-0.0845,-0.28997,-0.23544,0.14838,-0.2512,-0.37049,0.082402,-0.2683,-0.57556,0.25834,-0.089617,0.11438,-0.036453,0.4406,-0.093029,-0.012199,-0.18309,-0.10431,0.39976,-0.1133,0.061451,-0.60261,-0.024422,0.28547,0.047109,-0.17984,0.3175,-0.086767,0.27919,-0.15743,-0.20883,-0.50537,-0.095305,0.047983,-0.10575,0.11763,-0.010157,-0.037558,0.14586,0.11419,0.16017,0.4505,0.28791,0.046779,-0.20672,0.31577,-0.37237,-0.24783,-0.25949,0.13377,-0.26616,-0.17464,-0.023547,-0.20032,0.010072,-0.12215,0.2181,0.22309,-0.052067,0.11286,-0.11295,-0.12844,-0.37503,-0.1313,-0.11551,0.28535,-0.12755,0.22031,0.12335,-0.25089,-0.14083,-0.13584,-0.22866,-0.18326,0.26937,0.011946,0.17385,0.27544,0.12604,0.30157,0.27466,-0.24549,-0.15127,0.29277,0.0087956,-0.2985,-0.061543,0.046695,-0.24578,-0.36929,-0.37576,-0.043852,0.027446,0.046166,-0.044591,-0.19438,0.23481,-0.21719,0.046014,-0.19996,0.35187,-0.12987,0.27201,-0.064172,0.2308,-0.094599,-0.0095245,0.091331,0.12248,0.19175,0.037279,0.21726,0.16084,0.11651,-0.066551,-0.18609,0.013292,-0.44853,-0.1589,0.063054,-0.26686,0.48168,0.26539,-0.15515,-0.12257,0.20994,-0.59614,-0.053016,-0.10496,0.16565,0.19956,-0.36098,-0.088484,0.10134,-0.16435,0.011539,0.08484,0.12168,0.16221,-0.15893,0.32326,-0.046638,-0.4397,0.29926,0.079474,0.24888,0.13097,-0.2091,0.81446,-0.23134,-0.1141,-0.30946,-0.32195,-0.22318,0.44042,0.25745,-0.013783,-0.46351,0.43306,-0.15459,-0.3603,-0.12595,0.001265,-0.070785,0.31028,-0.092137,0.27657,-0.078659,-0.075127,-0.017369,0.23457,-0.40087,0.3831,0.088525,-0.34,-0.26908,0.24012,0.11565,-0.45352,-0.10435,0.10408,0.058442,-0.18712,0.24083,0.88357,-0.3294,-0.056548,0.098895,0.033173,0.25289,0.0051198,0.18137,-0.054109,-0.16973,0.053361,-0.20937,-0.10402,-0.052615,-0.14487,-0.36354,-0.53009,-0.020703,-0.064083,0.51862,0.18821,-0.20496,-0.54303,0.15732,0.098255,-0.1789,0.18541,0.27054,-0.28664,-0.16974,0.18443,-0.46812,0.22215,-0.32163,-0.21186,0.16693,0.02158,-0.25512,-0.0018154,-0.071639,-0.099165,0.13279,-0.088229,-0.21573,-0.20785,-0.15425,0.43337,0.016288,-0.098452,-0.23055,0.46377,0.068724,-0.083636,-0.30058,0.048417,-0.039018,0.18739,0.34947,-0.02782,-0.20505,-0.44319,-0.4205,-0.58367,0.46648,-0.17429,-0.47076,-0.42956,-0.19249,0.17314,0.11467,-0.22297,-0.012985,0.23164,0.10951,-0.25086,0.074207,0.15846,-0.087453,0.0061486,0.37468,0.51178,-0.027967,0.43622,0.13827,-0.48214,-0.50833,-0.093442,-0.60007,-0.041085000000000003,0.20953,-0.39476,0.044758,-0.05523,-0.034284,-0.098353,-0.2647
neutral,-0.61453,-0.026839,0.18029,0.29723,-0.31305,-0.46877,-0.41908,-0.12235,-0.055369,0.34412,-0.26213,-0.016875,-0.52773,-0.32974,0.2323,-0.19361,-0.081515,-0.21072,0.31563,0.36231,-0.061192,-0.12268,-0.025777,-0.11606,-0.059481,-0.08611,0.20533,-0.097953,0.10387,0.081518,-0.083566,0.061364,0.038026,0.41859,-0.28907,-0.35326,0.020619,0.28395,0.2511,-0.53181,0.13248,0.023915,-0.38936,0.14881,0.28825,0.33598,0.16741,0.24699,-0.10401,-0.25856,-0.10555,-0.34137,0.037193,-0.31609,0.0095412,0.055148,-0.03078,-0.053836,0.0063122,-0.15443,-0.090878,-0.10729,-0.21257,0.14607,0.014622,-0.38026,-0.37527,0.15195,0.17271,0.020486999999999998,0.12051,0.066159,0.22657,0.092027,-0.42635,0.34981,0.36186,0.090146,0.037306,0.25766,-0.085032,0.24251,0.21485,0.01704,-0.029235,0.14894,0.4702,0.14318,0.017104,-0.15999,-0.10236,-0.24799,0.17974,-0.39463,0.078064,0.40432,0.1309,0.39285,-0.10272,0.11534,0.13746,-0.047294,0.40229,-0.23534,-0.10706,0.15004,-0.011927,-0.0034817,0.099642,0.038351,-0.10455,0.17823,-0.13537,-0.091165,0.26056,-0.12304,0.0266,0.36269,0.10353,-0.17457,0.20272,-0.096078,0.063089,0.48406,-0.42937,-0.58984,0.13636,0.086719,-0.22832,-0.047011,0.33662,0.1246,-0.15326,-0.16351,0.45652,-0.20376,0.019458,0.12536,0.20367,0.40179,0.10311,0.30467,0.44272,-0.019845,0.081147,0.024529,-0.051034,-0.11185,-0.14494,0.027249,0.27425,-0.24199,-0.021933,-0.3593,-0.10572,-0.20036,-0.11212,-0.029688,0.45464,0.29651,-0.19143,0.36646,0.051975,-0.19219,0.059742,0.089258,-0.10738,-0.18818,0.25836,-0.19349,0.0059749,0.02134,0.0062015,0.10511,-0.3066,-0.10993,0.3286,0.082237,-0.040722,-0.46509,-0.091729,0.020999,0.42885,-0.028655,0.050463,0.27742,0.062934,-0.017397,-0.024643,-0.0097488,-0.21428,-0.31905,0.18064,0.26035,-0.054577,-0.034386,0.21316,0.011842,-0.44579,0.21462,0.070359,-0.11869,0.083433,0.14375,0.27919,-0.11186,-0.53778,0.096162,-0.22008,0.36641,-0.097481,0.13656,-0.10827,-0.078781,-0.072401,-0.40172,-0.17457,-0.15955,-0.27183,0.18252,-0.17285,0.033343,0.12103,-0.029437,-0.13506,0.26114,-0.19841,0.2627,-0.57721,-0.42288,0.45601,-0.15986,0.29486,-0.17385,0.10312,0.093081,0.29695,0.20376,-0.38634,0.031429,0.3077,0.37436,0.48169,0.24128,-0.090758,-0.11386,0.32607,0.35137,-0.085433,0.15078,0.11112,-0.24293,-0.15082,0.26674,0.027305,-0.048415,-0.028732,-0.29211,0.17259,0.019684,0.089475,0.28925,0.51912,-0.21671,-0.41165,-0.17713,-0.28131,0.36815,-0.24118,0.23543,0.13305,0.21331,0.68576,-0.061458,-0.089048,-0.26843,-0.10687,0.27096,-0.27063,-0.096041,0.1842,0.24446,-0.059738,-0.11176,0.16502,-0.67935,0.52078,0.3505,-0.41347,0.031294,0.088062,0.17089,-0.17689,-0.049733,0.11179,-0.23531,-0.34204,0.057423,-0.026358,0.10617
multi,-0.030577,0.15814,0.39597,0.52216,0.14346,0.056778,0.18813,0.059207,-0.34714,0.047366,0.0077601,0.093528,0.070917,-0.15277,0.1323,-0.21055,-0.21464,-0.1254,0.38867,0.26094,-0.17863,-0.21774,0.011862,0.30822,-0.37858,0.099989,-0.27538,0.28725,0.25478,-0.077474,-0.01522,-0.054575,-0.018363,0.062292,0.28719,-0.16159,-0.034699,-0.031764,0.016845,-0.26516,0.033838,0.010031,0.094479,0.36695,0.043589,-0.15135,0.14644,0.33581,0.14054,-0.19199,-0.16994,0.22261,-0.24992,0.26544,0.21975,0.050557,0.11948,-0.054874,0.10338,-0.16377,-0.26656,-0.25562,0.17166,-0.38242,-0.22557,-0.1824,0.18564,-0.025094,-0.15737,0.27897,-0.0046934,-0.26868,0.62943,-0.37094,0.14644,-0.099563,0.13435,-0.62169,-0.046458,0.27123,-0.14197,0.0098362,-0.25134,-0.3029,0.092704,-0.18314,-0.0199,-0.20227,-0.077005,-0.13947,0.25525,-0.087339,0.19997,-0.31138,0.14815,-0.2484,-0.018937,0.14104,0.17713,0.1415,-0.227,-0.30209,0.9739,0.074658,0.037031,0.012496,-0.24651,0.13048,-0.012185,0.63001,0.22672,0.11651,-9.1124e-5,-0.52694,-0.17821,0.02211,0.11789,0.025482,0.31388,0.36958,0.3394,0.07534,0.018052,0.25517,0.17363,-0.17127,0.42687,0.22402,-0.1285,0.30313,0.47779,0.0020844,0.086926,-0.36672,-0.21846,-0.0026883,0.14236,0.016225,0.19509,0.50942,-0.065026,0.11036,0.25348,-0.088254,-0.23223,0.51542,-0.24021,0.084574,-0.0088506,-0.16508,0.026133,-0.03961,-0.0058956,-0.12087,-0.055248,-0.054847,0.50532,-0.46068,0.32599,-0.038216,0.15676,-0.038652,-0.13163,0.28006,0.67037,-0.19746,0.31238,-0.18614,0.065008,0.23761,-0.090069,-0.08226,0.11207,0.13688,-0.19793,0.29011,-0.0029792,-0.16218,0.10271,0.038999,0.080553,-0.0025016,-0.074113,-0.002166,0.14621,0.29865,-0.13589,0.15032,0.15693,-0.22634,-0.35694,-0.77458,0.24984,-0.072913,-0.064008,-0.075571,-0.061863,0.42554,-0.1601,0.19902,0.17604,0.094169,0.23875,0.18109,-0.05266,-0.20224,-0.1568,0.38697,0.094715,-0.014335,0.23628,-0.027586,0.14392,-0.46881,-0.069773,-0.25132,-0.087659,-0.4136,-0.0021128,0.34517,0.033796,-0.017087,-0.079301,0.21278,-0.11016,-0.30197,0.16244,0.27595,-0.021767,0.23696,0.31457,-0.18163,-0.058304,-0.063431,-0.23037,-0.016098,-0.11641,0.004136,-0.18246,-0.23817,-0.23122,0.11485,-0.31223,-0.01503,0.0057197,-0.2182,-0.16996,0.0031627,0.004077,0.067044,0.1701,0.016177,-0.20069,-0.059037,-0.45975,-0.041626,-0.16216,-0.14664,0.48397,0.076155,-0.23072,-0.0051872,-0.14944,0.2421,-0.25426,-0.018822,-0.27567,-0.16934,0.39045,-0.12459,0.0031083,0.24267,-0.012712,-0.33429,-0.5677,-0.3113,0.021291,0.41312,0.45127,0.37087,0.1746,0.21809,0.096706,-0.18504,0.26606,0.16656,0.17356,0.10197,-0.57759,0.16894,-0.40185,0.26596,0.19498,-0.11736,0.088655,-0.09291,0.20299,0.19928,0.70867,-0.70797
orange,-0.20818,-0.008439,-0.10222,-0.1664,0.035406,-0.34909,0.038918,0.21465,0.15655,0.24186,0.45252,-0.12921,0.11893,-0.24667,0.22711,0.22605,-0.40268,-0.14925,-0.14787,0.41705,0.055747,0.030423,-0.24747,0.072806,-0.46576,0.046393,-0.19109,-0.57152,0.036231,0.10463,-0.59516,0.20575,0.142,0.18659,-0.08124,-0.11775,-0.21691,-0.14366,0.18986,-0.2338,0.023698,-0.15202,-0.19538,-0.13468,0.24509,0.0057344,0.063321,-0.22228,-0.14411,-0.14219,-0.17561,-0.15469,-0.41499,0.11473,-0.21904,0.25652,-0.021783,0.37884,0.61805,0.113,0.045459,0.41792,0.23088,-0.2385,0.030828,0.057883,-0.33007,0.14134,-0.24882,0.020653,-0.33313,-0.074879,-0.13292,-0.22732,-0.038479,-0.15015,-0.031236,0.24146,0.0064065,-0.12475,-0.14285,0.20411,-0.46884,-0.19326,0.31153,-0.037367,0.30372,0.44539,0.1903,-0.44859,0.087202,-0.069971,-0.36574,-0.039411,0.3885,-0.12374,0.05831,-0.069789,0.26747,0.098021,-0.10911,-0.084531,0.27244,0.094107,-0.20176,-0.054238,-0.12032,-0.024125,-0.13944,-0.18595,-0.47904,0.078621,-0.061642,0.049781,0.10627,0.05572,-0.19465,-0.28246,-0.38032,0.30621,0.55717,-0.1649,0.36856,0.18422,-0.10548,-0.2246,0.050124,0.046646,0.10106,0.34437,-0.29992,0.28474,0.066447,0.15237,-0.37312,-0.20683000000000001,0.041924,-0.58057,-0.054362,0.17074,0.31924,0.68522,-0.30436,-0.047289,-0.19838,0.38314,-0.41532,-0.094204,-0.24129,0.17019,0.018822,-0.52046,-0.48797,0.027998,0.078686,-0.15116,-0.058652,0.0024066,0.52239,0.465,0.36292,0.11046,-0.7347,0.24291,0.50221,0.23716,-0.15223,-0.18198,0.36346,-0.30207,0.035095,-0.62871,-0.40142,-0.43173,-0.047129,0.33332,-0.0021667,-0.25113,0.19504,0.14805,-0.42431,-0.0018838,0.20289,-0.014939,0.068778,-0.0081019,0.20232,-0.057349,-0.097247,-0.14194,0.09343,-0.33447,0.28864,0.0071038,0.13176,0.0027334,0.17683,0.24176,-0.19935,0.077757,0.25574,-0.10277,-0.2859,-0.099454,0.61823,-0.43032,-0.25868,0.28154,0.17327,0.032705,-0.086836,0.22105,-0.51133,-0.46239,-0.085818,-0.09262,0.2939,-0.014769,-0.059096,0.087859,-0.43524,-0.3755,-0.12757,0.22072,0.24404,-0.17698,-0.23659,0.065872,0.27957,-0.44167,0.030452,0.20348,-0.20312,-0.11982,0.28464,-0.48641,0.28702,0.20017,-0.36569,0.22038,0.016334,0.14198,0.0021101,0.13817,-0.23971,-0.15197,-0.048438,0.040728,-0.1044,-0.16518,0.27434,0.094167,0.0099997,-0.55277,0.1923,-0.0020351,-0.011756,0.15045,0.089228,0.057693,0.23,0.26531,0.20164,-0.086874,-0.47264,-0.60636,-0.38227,0.53159,0.014027,-0.010674,-0.3577,-0.43637,0.036598,-0.027161,-0.1111,-0.067923,0.24487,-0.27767,-0.21606,0.2682,0.28572,7.2846e-4,0.0063654,0.18852,0.16209,-0.028763,0.15669,-0.121,-0.58679,-0.48721,0.07229,-0.77044,0.12324,0.11623,-0.18208,-0.17735,-0.46251,-0.14701,0.18081,-0.18725
grey,-0.12408,-0.30154,0.015979,0.14929,0.56312,0.21748,0.3369,0.080794,0.41242,0.49922,0.073234,0.30196,0.049586,-0.16436,0.51955,-0.093239,-0.65955,-0.026408,-0.57497,0.61315,-0.32296,0.12869,-0.15833,0.35805,-0.44056,0.18847,0.66353,-0.13595,-0.26798,0.20839,0.071025,0.68099,0.40132,0.06005,0.19547,-0.12839,-0.33434,0.028145,0.18402,0.04769,-0.35367,-0.05771,-0.198,0.047433,-0.18185,0.10335,-0.31088,-0.2016,-0.23949,0.062733,-0.18925,-0.49475,0.070623,0.3545,0.31394,0.15509,0.080708,-0.14199,0.48506,0.33152,-0.043574,0.27019,0.4339,-0.09438,-0.33216,0.18361,-0.22829,0.037498,-0.58119,0.30593,-0.40019,-0.16895,0.0067853,0.06343,0.29506,-0.23422,0.56293,0.5459,0.21818,-0.369,0.065412,-0.20011,-0.29226,0.078703,0.10918,0.24517,-0.0022629,0.20028,-0.12727,-0.26998,-0.68657,-0.22815,-0.0028415,0.23327,0.047167,0.020336,0.063248,-0.2421,0.043935,0.41402,-0.14982,0.27212,0.094805,0.21657,-0.29954,-0.038222,-0.27271,-0.034453,0.017671,-0.41651,-0.43619,0.15421,0.030018,-0.30961,0.46974,0.12737,0.12489,-0.30911,-0.31477,0.44585,0.3464,0.10548,0.73953,0.31606,0.026249,0.29231,-0.059009,-0.28435,0.56119,0.1636,-0.014569,0.31285,-0.19769,0.21657,0.032081,0.10174,0.19465,-0.1838,-0.20558,0.1906,-0.096228,0.54269,-0.088416,-0.12582,-0.14838,0.16741,-0.08303,-0.02933,-0.33454,0.077625,0.15774,-0.22555,-0.82665,-0.19198,0.007814,0.13386,-0.20758,0.28754,0.3646,-0.39936,0.4879,0.26315,-0.27892,0.22847,0.14289,-0.029131,-0.34573,-0.1235,0.61813,0.031725,-0.19507,-0.35629,-0.48197,0.10151,0.041974,0.014897,0.043727,-0.23395,0.077231,-0.31394,-0.19522,-0.207,0.15908,0.19611,0.16063,0.011343,-0.032163,-0.14997,0.076127,0.045976,0.30547,-0.44216,0.20377,0.23545,0.21425,0.06788,0.25158,0.037123,0.095674,-0.14358,0.18099,0.21219,0.089166,-0.071871,0.5058,-0.42448,-0.13203,-0.043805,-0.039132,0.33352,0.33915,0.28516,-0.16767,-0.07799,-0.018226,-0.019592,-0.020915,-0.04909,-0.23449,0.03567,-0.29237,0.11907,-0.039222,0.12902,0.13278,-0.19036,-0.35322,-0.054977,0.17004,-0.43524,0.23831,0.23508,-0.15232,-0.05113,0.32064,-0.056775,0.17359,-0.16409,0.090234,0.15803,-0.5249,0.37502,0.24318,-0.24803,0.09729,0.17825,-0.48211,-0.13794,-0.18502,0.49818,0.24913,-0.38317,-0.28115,0.32008,0.63386,0.19923,0.25984,-0.29745,0.24,0.058718,0.052986,0.16763,0.07955,-0.24743,-0.048486,-0.22623,-0.28694,0.59628,0.26968,-0.28942,-0.47146,0.080288,0.15062,0.025429,-0.21058,0.018584,0.12281,0.040029,-0.20724,0.2853,0.076741,0.04417,0.12816,0.051486,0.070097,-0.139,0.027504,0.53718,-0.78997,-0.30245,0.060178,-0.10917,0.051991,0.17097,0.16553,-0.26516,0.026533,0.29692,-0.2222,0.1207
gray,0.12454,-0.15779,0.14653,-0.089831,0.14851,-0.12482,0.54504,0.12875,0.33723,0.58046,0.2607,0.020915,0.13325,-0.40983,0.14271,-0.21067,-0.31528,-0.016053,-0.21465,0.45619,-0.42597,-0.036107,-0.18438,0.091863,-0.31637,-0.092104,0.19161,0.1723,-0.11858,0.43094,0.2517,0.36498,0.16941,0.15652,0.15299,-0.32497,0.019962,-0.1175,0.22755,-0.37689,0.0096659,-0.12768,-0.13364,0.18843,0.20453,0.014075,-0.03961,-0.44527,-0.34249,-0.13828,-0.049979,-0.34226,0.20173,0.22281,0.19976,0.084978,0.19756,-0.13137,0.48934,0.39346,-0.072177,0.25888,0.52294,-0.35433,-0.09846,0.044238,0.022456,-0.041208,-0.18781,0.055395,-0.51417,-0.21003,0.032824,-0.19261,0.36119,-0.34866,0.6256,0.36133,0.44796,-0.44075,-0.15865,-0.26294,-0.26492,0.035598,-0.081533,0.12125,0.21358,0.26282,0.21565,-0.093067,-0.53768,-0.16488,0.01465,0.33826,-0.02885,-0.23536,0.29254,0.073996,-0.1105,0.12491,-0.23334,0.016141,0.066801,0.33018,0.077516,0.0046343,-0.22148,-0.026978,0.11545,-0.28937,-0.11605,0.4499,0.16834,-0.25932,0.10065,0.095753,0.13389,0.0019141,-0.32405,0.17806,0.21645,0.062884,0.34977,0.3167,-0.040704,0.47621,-0.023308,0.23845,0.12421,0.10942,0.14742,0.24785,-0.24851,0.36475,0.18848,-0.12425,-0.078213,-0.41186,-0.39652,-0.093242,-0.042202,0.15402,0.13324,0.12191,-0.40786,0.29094,-0.19852,-0.10613,-0.55695,-0.25698,0.23983,-0.018284,-0.71006,-0.15568,0.10254,0.037067,-0.17218,-0.0092584,0.047454,0.0068186,0.36312,0.47844,-0.40704,0.12205,0.30353,0.10239,0.21913,-0.38924,0.14205,0.1271,-0.38879,-0.38872,-0.30356,0.15352,0.1226,0.3274,-0.31821,-0.24855,0.105,-0.039284,-0.30624,-0.36043,0.24144,0.048612,0.2519,0.075967,-0.12984,0.073167,0.0065548,0.27756,-0.049286,-0.24686,0.1115,0.2332,-0.10331,-0.060104,0.28118,-0.33501,-0.20522,-0.3282,0.36465,-0.046453,-0.05487,0.42102,0.56745,-0.25636,-0.14271,-0.1282,0.21847,0.22679,-0.1849,-0.082111,0.37883,-0.13455,-0.34538,0.18572,0.32126,-0.21409,-0.26979,5.7212e-4,-0.45613,-0.10156,-0.22689,0.086965,0.30234,-0.082013,-0.16387,0.017452,-0.15731,0.017513,0.26715,0.076406,-0.15568,0.014067,0.28285,-0.26293,-0.052013,-0.030797,0.024131,0.14833,-0.083902,0.32995,0.0093834,0.38722,0.18685,-0.083083,-0.61018,-0.23367,-0.3475,0.29574,0.18452,-0.3271,0.092447,0.39481,0.31565,-0.090401,0.31543,-0.085418,-0.064167,-0.083941,0.29246,0.20814,-0.020402,-0.35873,-0.035157,-0.34639,-0.082559,0.48405,0.1045,-0.17806,-0.35586,0.085776,0.23225,5.4578e-4,-0.052022,-0.083955,0.30449,0.081458,-0.1533,0.40447,0.1071,-0.081917,0.45993,0.25505,0.42845,-0.041808,0.12755,0.59138,-0.72046,-0.31076,0.14308,-0.12641,0.043315,0.060894,0.17955,-0.10353,0.037483,0.30908,-0.37774,0.075115
medium,-0.092129,0.31345,0.21357,0.31581,0.32729,0.11909,0.05489,0.060018,0.17456,0.60581,0.042435,0.63578,-0.032439,0.13571,0.3091,-0.11725,-0.3478,-0.18521,0.74103,0.46577,0.014163,-0.16676,-0.14629,-0.1481,-0.27796,0.028757,0.055523,-0.09851,-0.26385,-0.15926,0.051938,0.32973,-0.36759,-0.038354,0.053987,0.1281,0.053076,-0.073175,-0.11924,-0.093517,0.29646,-0.028542,0.084231,0.19261,-0.025763,0.21168,-0.11175,0.040039,-0.11835,-0.017466,-0.48164,-0.10617,0.31144,-0.083071999999999993,0.12996,-0.1398,0.098993,0.19436,0.19535,-0.064222,-0.11095,-0.36288,0.060858,0.10279,-0.19236,-0.31069,-0.27317,0.033885,-0.011997,-0.029414,-0.32963,-0.24424,-0.02101,0.19531,0.0057989,-0.059905,0.46407,0.17428,-0.083287,-0.21904,-0.34367,0.15961,-0.048965,0.055978,0.23344,-0.36718,-0.11023,0.29068,0.084082,0.15219,0.038225,0.18277,0.29787,-0.23428,0.24468,0.06021,-0.18236,-0.090602,-0.31218,-0.045514,0.13075,-0.25523,0.3312,-0.049483,0.40934,0.11967,-0.26914,0.53568,-0.2267,-0.21698,-0.065093,-0.11476,-0.1169,-0.14386,0.36933,0.14814,-0.06963,-0.32796,-0.24663,0.16252,0.19743,0.098866,-0.28317,0.1839,-0.32758,-0.023708,-0.19785,-0.27578,0.086784,0.082743,0.15444,0.053729,0.061962,0.36162,-0.017916,0.12881,-0.16312,-0.33661,0.035978,0.36144,0.16499,0.11774,0.14908,-0.35291,0.5061,0.17296,-0.13935,-0.19996,0.061319,-0.0092583,0.51112,-0.24961,-0.64663,-0.3415,-0.10179,0.2138,0.4497,0.10558,0.30833,-0.34517,-0.42571,0.29179,-0.019064,-0.41449,0.40988,-0.2907,0.43493,-0.085246,0.29723,0.38293,-0.091681,-0.12703,-0.033506,-0.29672,0.36481,0.47346,-0.12791,-0.31942,0.091922,0.098411,0.052697,0.36224,-0.37712,0.36097,0.47375,0.083443,-0.2011,0.17885,0.47525,0.089109,0.0055097,-0.19306,-0.042498,-0.23828,-0.32193,-0.092603,0.31889,0.38847,-0.30186,0.17716,-0.02462,0.4184,-0.011753,-0.080776,0.013793,-0.40886,-0.084735,-0.025518,0.25086,0.23051,-0.0014735,0.20029,0.42336,0.15311,-0.29654,-0.020839,-0.10924,-0.45821,-0.4481,-0.18091,0.16577,0.54689,-0.24614,-0.010014,-0.13902,-0.40067,-0.8674,-0.36112,-0.26574,0.054575,0.29711,-0.12087,0.22752,-0.039431,-0.1842,0.21631,-0.013278,-0.45975,-0.23627,0.05674,0.33508,0.25913,-0.10948,0.022924,-0.12128,0.054187,-0.32927,-0.076214,-0.50801,0.27644,-0.16319,0.073363,-0.63339,-0.064442,-0.10209,0.0857,0.31372,-0.16797,0.45355,0.12533,0.11975,-0.17766,-0.21438,-0.41632,-0.22467,-0.18415,-0.44365,0.10972,0.36088,-0.15101,-0.27717,-0.070806,0.0046,-0.036354,0.32003,-0.12726,0.21042,0.30461,-0.16905,-0.21086,0.052981,0.52212,-0.012951,-0.12718,0.37701,-0.27969,-0.18912,0.21741,-0.47041,0.13666,0.045413,-0.038316,-0.087799,-0.12425,0.28473,-0.28262,0.099859,0.31595,0.18493,0.098854
pattern,-0.019951,0.11744,-0.20672,0.59347,0.039422,0.13688,0.45348,0.10169,0.082014,-0.03195,0.17624,0.28228,-0.37025,0.18098,0.58193,-0.35411,-0.24746,0.20089,0.20117,0.26981,-0.25648,0.0045629,0.007325,-0.14778,-0.014685,-0.067093,-0.0091602,0.29271,0.30962,0.29443,-0.023305,0.26102,0.039004,0.11488,-0.092741,0.0065676,-0.083464,0.26727,-0.2249,0.20192,0.04969,-0.17599,-0.017517,0.095751,-0.1652,0.066676,0.28525,-0.13603,0.1283,-0.26271,-0.15105,-0.36544,-0.24067,-0.35009,-0.056846,0.30192,-0.22212,0.26317,0.084419,0.0021509,-0.11072,-0.19841,-0.32785,-0.43869,0.17628,0.036123,0.11271,-0.06457,-0.2139,-0.16094,-0.24579,0.21719,0.028077,-0.030842,-0.16391,0.20728,0.33629,0.040904,-0.061103,0.21099,-0.030358,-0.47616000000000003,-0.16422,-0.39935,-0.24791,-0.12084,-0.38469,0.49999,0.04123,0.21946,0.3511,0.057152,0.50476,-0.013144,-0.21862,-0.39568,0.048031,-0.12424,0.0095803,0.06393,0.01171,-0.21412,-0.045377,0.060566,0.22326,0.098336,-0.21041,-0.0595,-0.047979,-0.11327,0.20813,0.11058,-0.17385,-0.28656,-0.1329,-0.41527,0.12485,0.13172,-0.049083,0.49347,0.25004,0.42233,-0.071703,0.10391,0.038289,0.23616,-0.056985,0.056831,0.25362,0.33784,0.058679,0.14296,-0.13565,-0.34257,0.018567,-0.33986,-0.11919,0.10283,-0.16149,0.13741,-0.28063,0.3279,-0.052797,0.034528,-0.18479,0.15618,-0.18069,-0.17797,-0.54996,0.27268,-0.098353,-0.36786,-0.13349,-0.54328,-0.26595,-0.090873,0.52193,0.19301,0.41078,0.12322,0.097247,0.096216,-0.4885,-0.135,0.23974,0.182,-0.20578,-0.49897,0.25618,-0.025712,0.18639,-0.10759,-0.1811,-0.12931,0.098955,0.28669,-0.19353,0.017318,0.066162,-0.2241,0.35375,-0.35002,0.26364,0.091368,0.15586,0.17825,-0.059943,-0.073077,0.03265,0.3691,0.17974,-0.0054281,0.023512,0.075289,0.28508,-0.1138,0.18733,0.3247,-0.058457,-0.084929,0.012987,-0.088621,0.15813,-0.10804,0.3502,-0.31117,-0.0014498,-0.02441,-0.084573,-0.10458,0.069537,0.34729,0.10252,-0.32902,0.26129,-0.16993,0.2977,-0.32264,-0.3846,-0.034203,-0.02404,-0.14135,0.10527,0.35044,0.090787,0.2352,-0.30192,-0.0096906,0.066878,-0.037826,-0.078651,0.059779,-0.26263,-0.071566,0.11363,-0.12724,0.25935,-0.28225,-0.18742,0.37229,-0.12015,0.053992,0.15055,-0.16508,0.15069,0.26365,0.12239,0.27113,0.15542,0.05181,-0.21292,0.06697,-0.011244,0.17398,-0.085244,0.17539,0.013396,-0.074366,-0.084356,-0.2098,0.12195,-0.0075114,0.10663,-0.01076,-0.1077,-0.28061,0.027916,-0.14026,-0.019692,-0.051279,-0.29031,-0.29482,0.033245,-0.26963,-0.29462,-0.25148,0.021549,0.15155,-0.069732,-0.085134,-0.059841,-0.046989,-0.072773,-0.10522,0.014943,-0.4815,0.34212,0.24538,-0.62524,-0.12653,-0.036561,-0.03382,-0.13753,0.38404,-0.088109,-0.15946,-0.20699,0.19099,0.38392,0.074039
bat,-0.38396,-0.17499,0.27971,0.43251,0.16578,0.14274,0.39866,-0.38347,-0.077535,0.29013,-0.31762,0.18043,-0.023254,-0.0098113,-0.0082332,0.071276,-0.45021,-0.57945,-0.32228,0.47561,-0.30954,-0.35049,0.1755,-0.38968,-0.11151,-0.087709,-0.063131,0.17386,-0.050246,-0.044625,-0.26959,0.53528,-0.46517,0.054404,-0.24084,0.16388,0.17055,-0.41755,0.10794,-0.1313,-0.44186,-0.79517,-0.19778,0.20684,-0.28728,0.078737,-0.16869,0.029451,0.73025,0.12869,-0.052242,0.10875,0.1852,-0.3213,-0.17224,0.11855,0.042407,0.13252,-0.14419,0.41821,-0.043802,-0.020689,0.036738,0.30734,-0.38573,-0.016887,0.20289,0.31854,0.014412,0.0243,0.24201,-0.088135,-0.23634,-0.41549,-0.30794,-0.30742,0.48944,-0.1661,-0.24974,-0.17125,-0.13764,0.052595,0.092646,0.25675,0.1447,-0.0080444,-0.52172,0.34868,0.58733,-0.021557,-0.48286,-0.24871,-0.055502,-0.35547,-0.13088,0.40751,-0.31932,0.11904000000000001,-0.20438,-0.063817,-0.24853,0.038543,0.12049,-0.036705,0.31839,0.22968,-0.34751,0.083012,0.057388,-0.31558,0.4212,0.10049,0.40297,0.021296,-0.040185,-0.82485,0.015918,-0.25036,0.061532,0.01942,0.055373,-0.08013,-0.11579,0.4628,-0.0049418,0.13664,-0.089751,0.05234,-0.49077,0.30712,-0.62527,0.27953,-0.50213,0.51329,-0.12459,0.33484,-0.1949,-0.28095,-0.28889,0.070374,0.40025,0.76576,0.46092,0.27835,-0.18084,0.47658,-0.24864,-0.22156,-0.035644,-0.2132,0.92859,-0.4397,-0.07191,0.2461,-0.12315,-0.047411,-0.015694,0.43139,-0.12468,-0.32455,-0.18624,-0.194,-0.15841,-0.2236,0.4598,0.23569,-0.23408,-0.039839,0.037122,-0.014862,-0.40476,0.14487,-0.094576,-0.45516,0.56369,0.46781,0.44698,-0.03826,0.18642,0.073704,-0.59879,-0.10382,0.0024246,0.20427,-0.42678,-0.79157,-0.28492,-0.047136,0.19056,-0.11746,-0.10455,0.13003,-0.32731,0.57085,-0.74882,-0.19927,0.16494,-0.16841,-0.60013,0.10854,0.66993,-0.059141,0.1694,0.017672,0.33531,-0.40744,-0.38774,0.29277,0.13288,-0.45058,0.36261,-0.35361,0.08176,-0.53184,0.38063,0.52727,-0.081711,-0.13301,-0.20522,0.11129,-0.39597,0.30369,-0.2316,0.25359,-0.011194,0.043449,-0.32864,-0.11655,-0.47512,-0.012324,-0.16024,0.21165,-0.070821,0.080449,0.05852,0.69382,-0.31375,-0.091128,-0.34211,0.49994,-0.64199,0.042687,-0.18701,0.44616,0.09993,0.068831,-0.53801,-0.42944,-0.17276,0.12542,0.29132,-0.5256,-0.06429,-0.45869,-0.51901,-0.029318,0.21125,0.12617,-0.16908,0.14281,0.24161,0.54254,-0.42274,0.17765,-0.42746,-0.12819,-0.0053704,0.10909,0.49381,-0.16474,-0.55829,0.10251,0.12739,-0.29525,0.011812,-0.55201,0.1107,0.3789,0.28058,-0.12193,0.56295,0.20601,0.074343,-0.90041,-0.12865,-0.57617,0.68818,0.38706,-0.24233,-0.31021,-0.828,-0.23866,0.29373,-0.058117,-0.11295,0.37248,-0.25688,0.085564,0.18172,0.59812
pink,0.0077019,0.043254,-0.045317,-0.14893,0.41375,0.22782,0.39685,0.16133,-0.088748,-0.091209,0.05279,0.18014,0.034278,-0.21552,0.24957,-0.24259,-0.56888,-0.088741,-0.24856,0.032002,-0.017497,-0.05674,-0.25347,0.040997,-0.44013,-0.22299,-0.18208,-0.084703,-0.22282,0.3083,-0.20006,0.064729,-0.042257,0.27134,-0.2281,0.13298,-0.087554,0.21445,0.15857,-0.10943,-0.18472,-0.40886,-0.028451,-0.073025,0.12364,0.098206,0.36758,-0.29387,-0.086838,0.19519,0.19649,-0.25346,0.23702,0.16315,0.11184,0.43317,0.1098,0.013292,0.25729,-0.089593,0.19048,0.5324,0.16623,0.038222,-0.10092,0.19544,-0.23356,-0.0096131,-0.31923,0.077023,-0.68822,-0.059418,-0.27639,0.10646,-0.14804,0.054391,0.15782,-0.057062,-0.18283,-0.1856,-0.24472,-0.088433,-0.43896,-0.12534,-0.15155,0.086107,0.16888,0.0887,0.30992,-0.22878,0.0045564,0.13646,-0.20853,0.033054,0.095626,-0.071191,0.030914,0.56942,-0.16566,-0.023642,0.19701,0.12876,-0.26673,0.22968,0.082751,-0.25741000000000003,-0.14926,0.21712,0.089391,-0.55601,0.14088,0.025172,0.22693,-0.098916,-0.099384,-0.12324,0.015205,-0.20513,0.056202,0.27949,0.28199,0.088826,0.080934,0.054753,0.36281,0.15399,0.14415,-0.060705,0.16673,0.50426,-0.095747,0.26889,-0.11686,-2.3341e-4,0.081506,-0.15372,-0.10877,-0.50199,-0.33733,0.18829,0.13184,0.38958,0.3371,-0.14009,0.079892,0.080044,-0.21927,0.10155,-0.31527,0.076351,-0.076601,-0.38157,-0.47815,-0.2158,-0.27773,-0.028177,-0.30406,0.045866,0.36146,0.070017,0.44283,0.26664,-0.30391,0.17046,0.20995,0.39942,0.22617,-0.36494,0.5589,0.025787,-0.0040666,-0.6033,-0.076052,-0.30293,-0.019454,0.2678,-0.32839,-0.37981,0.12569,0.22443,-0.27185,-0.27344,0.002504,-0.26983,-0.0037676,0.11036,-0.18593,-0.16426,0.15679,-0.13554,0.14647,-0.34598,0.37774,0.21007,-0.18766,-0.14906,0.044483,0.0047576,-0.3872,-0.080201,0.25461,0.13442,0.075956,0.38599,0.77238,-0.34297,-0.34869,-0.36469,-0.080604,-0.076458,0.14823,0.011252,-0.45181,-0.36131,0.15888,-0.28016,-0.077027,-0.50705,-0.26696,-0.035213,-0.63608,-0.25745,-0.41572,0.31219,-0.0015911,-0.25694,-0.24542,0.065289,-0.062682,-0.33226,-0.05682,0.28709,-0.086824,-0.15371,-0.022185,-0.29535,0.038663,0.20432,-0.30958,-0.13488,0.32278,-0.047117,0.060918,0.15004,-0.16171,0.14232,-0.22128,0.13817,0.15416,0.054725,0.29333,-0.073247,-0.36008,-0.067009,0.50223,-0.093876,-0.18926,-0.068361,0.25343,-0.27089,0.3501,0.088079,-0.095667,-0.3283,-0.03505,0.034413,-0.48002,0.39103,-0.44705,-0.2206,-0.52718,-0.14,0.40582,0.061918,0.10099,-0.15576,0.73541,-0.20227,-0.45146,0.3697,0.55696,0.15961,-0.055432,0.53324,0.3512,0.14107,0.14017,0.20632,-0.26564,-0.11594,0.094268,-0.51998,0.12902,0.03125,-0.16069,-0.30219,0.17577,0.25428,0.032635,-0.14528
lion,-0.18828,0.041055,-0.31649,0.15709,-0.42116,0.31583,-0.26752,-0.15146,0.36217,0.40021,0.21764,-0.034484,-0.076791,-0.33782,0.22025,-0.14431,-0.45291,-0.0042954000000000004,0.096049,-0.086197,0.06798,0.048914,-0.63081,-0.24998,-0.17732,-0.045143,-0.07589,-0.38644,0.091971,-0.2297,0.2029,0.40593,0.14206,-0.14989,0.18974,-0.2242,0.062163,0.02759,0.042283,-0.27478,-0.31228,0.15374,0.065771,-0.15324,0.22407,0.072032,-0.50761,0.031464,0.022938,-0.26517,-0.079822,0.48632,-0.36817,0.15114,0.39337,0.40493,0.11559,-0.098094,-0.17303,0.20966,0.21019,0.23312,0.084375,0.29696,0.028516,-0.12341,0.73945,0.44407,-0.17168,-0.11945,0.34969,-0.15547,0.023026,-0.1887,-0.26858,-0.18089,0.32145,0.50377,-0.12945,-0.24011,0.083544,-0.28507,-0.35807,-0.019225,0.11818,0.14426,-0.46132,0.82422,0.36545,0.26836,0.1059,-0.38297,-0.045979,-0.079078,0.061715,0.2526,-0.13644,0.26032,0.29923,0.25291,-0.46637,-4.5397e-4,-0.59405,0.14886,-0.32214,-0.020771,0.31301,0.37123,0.19279,0.103,0.10929,-0.16607,-0.21181,-0.2674,-0.27422,-0.3404,0.33286,-0.10799,-0.065282,0.13442,0.15498,0.041931,0.32699,0.17713,0.16716,0.13739,-0.099502,0.49214,0.10218000000000001,0.20514,-0.41935,0.12454,0.013911,0.18425,-0.0046696,0.0027498,0.22037,-0.27877,-0.30237000000000003,0.41977,0.15366,-0.029415,0.19992,0.17977,0.1622,0.48762,-0.088988,-0.12308,0.17659,0.2162,0.39682,-0.32444,-0.3578,0.044422,-0.38067,0.31382,0.2806,-0.0044461,-0.1219,-0.17679,0.27206,0.27834,-0.11376,-0.43437,0.33586,-0.17938,0.22404,-0.038621,0.12525,-0.0070643,-0.33252,-0.32832,-0.13088,0.14654,0.018123,0.28164,0.073401,0.46716,-2.4009e-4,0.25348,-0.06284,-0.47487,0.53989,-0.41114,-0.12404,0.1179,-0.29287,-0.16203,0.12738,0.12656,0.18622,-0.24819,0.053789,0.31539,-0.034978,-0.12602,0.086023,-0.02543,-0.20431,-0.55312,0.3468,0.36717,-0.054163,-0.099764,-0.028289,-0.050726,-0.5797,-0.067283,0.36903,-0.091715,0.11627,0.28067,-0.61098,-0.32286,0.10518,-0.24853,-0.033745,-0.26776,0.31242,-0.17619,-0.075492,-0.15349,-0.38462,0.44406,-0.31471,0.22064,-0.26012,0.018863,-0.24178,-0.072796,0.20678,0.35015,0.0090967,-0.075188,0.23849,0.10501,-0.082158,0.12411,-0.059738,0.17294,-0.11196,0.0082726,-0.22313,-0.11087,0.12663,0.074062,0.10377,0.26868,0.010126,0.1782,0.085837,-0.20845,0.11878,-0.039787,-0.31899,0.090754,-0.22953,0.31445,0.2416,-0.10894,-0.17686,0.36554,-0.14641,-0.013697,-0.75295,-0.044442,-0.13419,-0.01559,-0.2911,0.02245,-0.28222,0.27688,-0.23364,-0.028194,-0.099805,-0.67152,0.33062,-0.053084,0.27757,0.10149,0.05994,0.088454,0.058592,0.26805,0.19976,0.061199,0.05153,0.33051,-0.59298,-0.35438,0.066992,-0.42581,0.039304,0.3124,-0.20624,0.041252,-0.11796,0.30196,0.027357,0.32362
bright,-0.18055,0.08351,0.094297,0.1115,0.13126,-0.15353,0.21465,0.29407,0.18295,0.26593,0.35738,0.49309,0.061547,0.22232,0.31245,-0.26664,-0.12747,-0.074382,-0.04287,0.16817,-0.056507,-0.0053522,-0.23664,-0.16192,-0.15564,-0.1327,0.28133,0.03158,0.06097,-0.0082124,-0.15636,0.43359,0.07594,0.24757,0.0034402,0.065596,-0.21332,-0.18177,-0.12623,-0.086806,-0.078739,-0.30748,-0.37282,0.011182,-0.18413,-0.16975,0.11112,0.30269,-0.15038,-0.046474,-0.12374,-0.26149,0.051544,0.085719,0.10782,0.1579,-0.13879,0.38061,0.29227,-0.0086799,-0.12123,0.41907,-0.11861,-0.22601,-0.20377,-0.21726,-0.13316,0.087404,-0.041397,0.047016,-0.31396,0.28198,-0.0087688,-0.24407,0.12253,-0.055329,0.025715,0.19882,0.13723,-0.026715,0.012222,0.018974,-0.25766,0.011137,-0.12051,0.16114,0.054575,0.17982,0.051853,0.024819,0.13857,-0.041605,-0.054935,-0.17397,0.15455,-0.31963,0.46692,0.06835,-0.11878,-0.048495,0.07175,-0.079886,-0.034891,0.11506,-0.32321,0.15586,-0.20321,0.19209,0.16255,0.021502,0.018735,0.063312,-0.28867,0.05599,-0.026205,-0.037596,0.13779,-0.11093,-0.21926,0.083437,0.24296,-0.1807,0.15097,0.13571,0.049943,-0.078539,-0.20951,-0.16243,0.13426,0.062382,-0.010731,0.40488,-0.22464,0.20802,0.34499,-0.40519,-0.047842,-0.10164,-0.30256,0.23442,-0.17013,0.4189,0.29895,-0.20994,-0.041552,0.12268,-0.35346,-0.025451,-0.16223,-0.30187,0.17181,-0.10037,-0.151,-0.13374,-0.16114,0.025331,-0.040965,0.067794,0.25207,0.10764,0.41151,0.097487,-0.18342,0.14239,0.17879,0.34623,0.21315,-0.033789,0.34883,-0.10801,-0.12271,-0.36811,-0.38643,-0.27929,0.044899,0.48719,-0.18519,-0.24783,0.1876,-0.077474,0.037526,-0.18856,0.096162,-0.10462,0.23315,0.14778,0.21974,-0.070006,0.27036,-0.16789,0.29915,-0.22893,0.52668,0.12139,-0.12193,-0.048524,0.34983,0.47379,-0.29074,-0.07235,-0.0028903,-0.38753,-0.12003,0.20236,0.42353,-0.43657,-0.066443,-0.09178,-0.031587,0.17519,0.13805,-0.048666,-0.062147,-0.48132,0.16947,-0.12099,-0.17756,-0.2219,-0.13813,-0.036813,-0.041876,-0.066761,-0.1237,0.075583,-0.03078,0.11539,-0.45161,0.10641,0.15553,0.13916,-0.033986,0.34996,-0.072666,-0.031326,0.091427,-0.20492,0.14749,-0.12937,-0.095377,0.13542,0.086179,-0.056471,-0.14089,0.081607,-0.098572,-0.0057399,-0.12021,-0.23112,-0.023639,-0.12515,0.099867,-0.098329,-0.31977,-0.10405,0.26063,-0.006156,-0.29044,-0.22754,-0.0050336,0.25944,0.24254,0.24778,0.098278,-0.31079,-0.04807,-0.62988,-0.35365,0.47368,-0.11165,-0.38438,-0.26772,-0.081979,0.14648,0.051364,-0.21601,-0.33354,-0.0037611,0.17355,-0.38756,0.26742,0.20253,-0.1589,0.086123,0.2627,0.14314,-0.11213,0.37063,0.39657,-0.2965,-0.1187,0.025006,-0.15119,0.11607,0.17179,0.070026,-0.004008,0.18312,-0.34689,0.39693,-0.0010768
patterns,0.14928,0.13794,-0.34694,0.54833,-0.098826,0.2328,0.48541,-0.0046102,0.081123,-0.060417,0.33631,0.44629,-0.54846,0.045784,0.45099,-0.32133,-0.090551,0.098062,0.29296,0.18194,-0.16133,-0.17103,0.18172,0.066969,-0.057447,-0.19828,0.18368,0.26646,0.27877999999999997,0.28034,0.0036852,0.18913,-0.094374,0.11058,0.051894,0.2296,-0.035353,0.50397,0.0069941,0.00103,0.11179,-0.24105,0.28561,-0.004957,-0.15528,0.011243,0.17276,-0.10275,0.2353,-0.22824,-0.28793,-0.25134,-0.32194,-0.48561,0.078415,0.22432,-0.18965,0.44937,-0.2164,0.047302,-6.8361e-4,-0.20277,-0.11167,-0.45522,0.18617,0.11818,0.10466,0.064806,-0.27754,-0.24877,-0.35102,0.34566,0.06089,-0.013603,-0.069951,0.098142,0.3222,-0.21359,0.022381,0.074401,-0.1534,-0.24314,-0.25852,-0.33988,-0.27506,-0.062223,-0.22199,0.36821,0.078474,0.23541,0.3025,0.29377,0.62906,-0.074288,-0.33028,-0.43658,0.23952,0.0073123,0.014204,0.28211,0.10142,-0.13131,0.013242,-0.14637,0.13761,0.14321,-0.11865,0.026321,-0.0047156,-0.023829,0.11205,-0.082859,-0.042048,-0.19047,-0.13171,-0.39369,0.19,0.041765,-0.26043,0.52142,0.12298,0.36082,-0.18746,-0.11772,0.08927,0.22825,-0.22332,-0.021738,0.17752,0.46349,-0.21769,-0.07733,-0.10294,-0.22411,0.078752,-0.3796,-0.16763,0.24286,-0.22906,0.21628,-0.155,0.43563,-0.1554,0.052092,-0.16123,0.40752,0.0079804,-0.23402,-0.45989,0.057844,0.030527,-0.46517,-0.12079,-0.52972,-0.21034,-0.14021,0.1014,0.12067,0.1984,0.098679,0.030041000000000002,0.10713,-0.18842,-0.15992,0.29004,0.092178,-0.12941,-0.51981,0.61106,0.087537,0.21132,-0.19096,0.02032,0.17629,0.022404,0.25712,-0.10402,-0.010501,-0.017883,-0.067958,0.35884,-0.092413,0.2612,0.046514,0.23382,0.094697,-0.019366,-0.12983,0.032056,0.24223,0.24523,-0.18857,0.18978,0.030454,0.19273,0.10816,0.15183,0.23633,-0.1802,-0.0073512,0.12541,-0.057309,0.02886,-0.19756,0.2566,-0.4922,-0.021899,-0.01153,0.012901,-0.10229,0.19729,0.29794,0.29193,-0.36328,0.19453,-0.20424,0.087785,-0.45572,-0.48303,-0.084183,0.024135,-0.46538,0.2801,0.41413,-0.17203,0.2201,-0.15316,-0.1263,0.059966,0.039244,-0.18118,0.02321,-0.3624,-0.10905,-0.13459,-0.080647,0.24188,-0.251,-0.1675,0.39856,0.027244,0.27939,0.075553,-0.33532,0.027605,0.23149,0.088827,-0.096072,0.40025,-0.055488,-0.05217,-0.15611,0.23013,0.04328,-0.16247,0.16259,-0.16704,0.026775,-0.17357,-0.12292,0.1913,0.17447,0.017996,0.011288,-0.063676,-0.28875,-0.1162,-0.16092,0.056833,0.083544,-0.42388,-0.24547,0.14303,-0.26917,-0.30296,-0.043896,-0.083947,0.30418,-0.20399,-0.094362,0.013118,0.016967,0.0054866,0.10901,0.046395,-0.37704,0.356,0.30051,-0.58436,-0.038926,-0.32984,0.003286,-0.14933,0.14462,0.15304,-0.23337,-0.13677,0.17029,0.55198,0.13781
spots,0.010503,-0.083559,-0.18498,-0.038607,-0.12938,-0.02044,0.38119,0.33405,0.25858,-0.07853,0.1508,0.28012,0.14356,0.13262,0.45099,-0.34647,-0.29651,-0.09952,-0.15263,0.29709,0.085739,0.16681000000000001,-0.09063,4.6015e-5,-0.085783,-0.20424,-0.035251,-0.3914,-0.197,0.092904,-0.075348,0.23852,0.030785,-0.065283,-0.1527,-0.10729,0.048765,0.46888,0.30848,-0.22116,-0.13643,-0.19609,-0.27283,0.089158,-0.13475,-0.0048017,0.057126,0.12434,-0.039165,0.15651,-0.20243,-0.36537,-0.082335,0.24166,-0.46157,0.05349,-0.0082276,0.32891,-0.032512,0.13129,0.0032139,-0.19882,0.027704,0.11368,-0.3385,0.41635,-0.3505,0.17322,0.20447,0.22443,-0.45189,0.097402,-0.045518,-0.12218999999999999,0.020168,-0.057649,0.22934,0.2725,0.19901,-0.059019,-0.086645,-0.3284,-0.22617,-0.03475,-0.20353,0.076309,-0.11192,0.0325,0.21359,0.019969,0.09182,-0.022605,0.1831,-9.113e-4,0.27894,-0.031571,0.217,-0.046224,-0.24385,0.12545,0.10867,-0.015637,0.28576,0.16979,-0.28638,0.19216,-0.11087,0.42937,0.071959,-0.070368,-0.35893,-0.2441,-0.13017,-0.19816,0.18506,-0.16037,0.228,0.17508,0.12722,0.09141,0.47541,-0.081789,0.44496,0.019414,0.2103,0.40295,0.028294,0.042258,0.52704,0.054043,-0.091164,0.11952,-0.19285,0.38995,-0.15546,0.15502,0.2696,0.20628,-0.031427,0.23012,0.048886,0.54923,0.16888,-0.12002,-0.12653,0.11671,-0.03067,0.096122,-0.066199,0.067424,0.3291,-0.18106,-0.26173,-0.13061,-0.037102,0.32259,-0.059134,0.17139,0.64021,-0.16989,0.53154,0.032429,-0.26884,0.062262,0.32196,0.040152,-0.45564,-0.098415,0.50268,-0.15822,0.15358,-0.033203,-0.15169,-0.31595,0.21648,0.45986,0.26978,-0.16887,-0.095174,0.025549,-0.22343,-0.16669,0.37979,0.012637,-0.15473,0.017392,0.010427,-0.054243,0.019846,-0.011866,0.09021,-0.018329,0.43476,-0.052165,0.24469,-0.067625,0.061289,0.027661,0.0043532,-0.098423,-0.17428,0.14225,0.31179,0.075521,0.25567,-0.46409,-0.044908000000000003,0.082654,0.1866,0.29637,0.050341,-0.22402,0.014258,-0.17992,0.12761,-0.33994,0.092026,-0.76,-0.032976,-0.36095,-0.3777,-0.06652,0.12575,0.0045928,0.14246,0.2354,-0.60188,0.0095635,0.14993,-0.073971,-0.13607,0.24978,-0.17582,0.093817,0.10325,0.10506,0.19449,0.12571,0.10714,0.13238,0.17465,-0.062015,0.061727,0.097077,-0.032764,0.57218,-0.16557,-0.37572,-0.11436,-0.068048,0.30884,0.043461,-0.24869,-0.23312,0.19449,-0.045898,0.29482,-0.50335,0.0022769,0.017933,-0.050573,0.48701,0.25361,-0.41241,-0.40789,-0.25975,-0.28116,0.24381,-0.20875,-0.23492,-0.43958,0.51399,0.19223,0.16615,-0.70819,-0.077309,-0.15241,0.28072,-0.38626,0.012458,0.36173,-0.0025586,0.19092,0.11724,-0.030907,0.407,-0.0069567,0.15935,-0.63045,-0.15869,-0.31146,-0.088663,-0.34113,0.11426,0.32697,0.2388,0.026575,-0.01306,0.024742,0.15425
sheep,0.20632,0.007802,-0.41413,0.35235,-0.091981,0.33777,0.32978,-0.035345,-0.0075871,-0.14512,-0.047224,0.34835,0.21031,-0.13277,0.16599,-0.11027,-0.14524,-0.13644,0.22866,-0.2456,0.14111,-0.12248,-0.34732,-0.15558,-0.20424,-0.1888,-0.01653,-0.070584,0.051232,0.14175,0.59011,0.52928,-0.38048,-0.061164,0.51399,-0.052386,0.18588,-0.12228,-0.065534,0.086143,0.28047,0.10172,0.16352,-0.0052407,-0.0099588,0.24306,0.19811,-0.35562,0.0035438,0.064459,0.66668,-0.15749,-0.25665,0.0073478,-0.49381,-0.071864,0.36397,-0.016381,-0.2017,0.36496,1.4731e-4,-0.099461,0.24942,0.059693,0.15251,-0.68156,-0.091536,-0.22068,0.2483,0.0059264,0.13054,-0.060123,0.63174,-0.39033,-0.13025,-0.20399,0.55042,0.46226,-0.18167,-0.18557,0.13811,-0.25943,0.069461,-0.064137,0.092959,0.11606,0.21426,0.53239,0.53302,0.42862,-0.078588,-0.27782,0.12698,-0.090281,0.081896,0.22822,-0.30693,-0.061636,-0.37161,0.0060873,-5.4471e-4,0.12423,-0.12494,-0.17744,-0.20389,0.3022,0.10823,0.14218,0.062568,0.057469,-0.14581,0.18336,-0.18925,0.27079,-0.16205,0.19436,0.13233,-0.35193,0.40903,0.005647,0.19721,-0.080134,0.22383,0.14806,-0.21742,0.24981,0.089891,-0.29032,0.11912,0.16359,-0.4093,0.18202,-0.060389,0.55516,0.098444,-0.20025,0.11858,0.036306,-0.65321,0.34732,-0.16362,0.72702,-0.10606,0.2309,-0.10357,0.48942,-0.19603,0.043633,0.092633,0.32329,0.25883,-0.20599,-0.19799,-0.14371,-0.45111,0.14818,0.2651,0.077651,0.28482,-0.37886,-0.2465,0.37452,-0.17116,-0.05082,0.27133,-0.1334,-0.072028,-0.14574,0.4061,0.13069,-0.084725,-0.51366,-0.67137,0.060342,-0.071447,0.36155,-0.36372,-0.10332,0.078325,0.013434,0.24177,-0.756,0.052494,-0.1618,-0.10414,-0.29764,-0.13906,-0.51159,0.41433,0.20635,-0.030554,-0.18026,-0.14269,0.22044,-0.010677,0.15983,-0.23703,-0.30963,-0.29277,-0.17237,-0.3437,0.41667,-0.46792,0.12222,0.024111,0.18326,-0.62451,-0.066955,0.018189,0.041885,0.25333,0.13634,0.27121,0.19801,0.15028,0.061718,-0.26161,-0.12912,-0.20921,0.096922,-0.29699,-0.3429,-0.1745,0.33277,-0.079574,-0.14458,-0.18158,0.31656,-0.31235,-0.01764,-0.098049,-0.047406,-0.18849,-0.048464,0.18559,-0.43163,0.070209,-0.011129,0.17364,0.012778,-0.3438,0.061414,-0.012204,-0.10063,0.010337,0.31681,0.26992,-0.33653,-0.19668,0.023143,0.092971,-0.42099,0.28816,0.43671,0.16931,0.33099,-0.16498,-0.35854,0.16999,0.21346,-0.01992,0.26991,-0.10217,-0.024637,-0.42178,0.39926,-0.080506,-0.1765,0.14885,0.072432,-0.11638,0.11014,-0.11443,-0.13224,0.015215,-0.53212,0.15305,-0.12328,0.056827,-0.22102,0.38549,0.046478,0.27727,0.44478,0.1651,-0.15506,-0.12363,0.059157,-0.26555,-0.18954,0.24742,0.027922,0.56262,-0.20983,-0.058315,0.50235,0.11303,0.40214,0.20774,0.66012
deer,0.16816,-0.030747,-0.19285,0.13411,0.3347,-0.027601,-0.015381,-0.47719,0.31717,-0.11031,0.11697,-0.069534,0.21179,-0.30321,-0.1362,-0.055783,-0.26044,-0.036159,0.15689,-0.057206,0.021156,0.10936,-0.42875,-0.18976,0.083248,0.075837,-0.12231,-0.015171,0.056256,-0.22444,0.33848,0.67599,-0.44696,0.22398,0.57979,-0.05622,-0.085009,-0.085227,0.33142,-0.19253,-0.33411,-0.14645,0.32676,0.50387,0.16723,-0.033538,-0.113,-0.24114,0.025161,0.24685000000000001,0.069685,0.24916,-0.16542,-0.019639,-0.26554,0.076668,0.10611,0.27957,-0.24229,0.63019,-0.13178,-0.32516,0.13938999999999999,0.096096,0.08034,-0.29664,0.2456,0.30549,0.076715,0.13789,0.11986,-0.083599,-0.010105,-0.62366,-0.25508,-0.49447,0.53243,0.2842,-0.13841,-0.14993,0.03277,-0.20715,0.095596,-0.013121,0.15765,0.33195,-0.061138,0.19516,0.42511,0.39058,-0.21112,-0.23019,0.21746,0.17646,0.24463,0.18411,0.18596,0.39622,-0.50618,0.25974,-0.016545,0.13051,-0.095255,-0.071915,-0.29537,0.35317,-0.061286,0.094253,0.15159,0.072081,-0.3152,-0.1545,-0.24792,-0.32922,0.3556,-0.054563,0.11532,0.041814,0.069408,0.020665,0.29476,-0.072451,0.17038,0.3582,0.19197,0.36673,-0.17345,0.0613,0.073334,0.36392,-0.65757,0.1481,-0.12218,0.53539,0.19074,0.15277,0.27495000000000003,-0.25793,-1.0027,0.39822,-0.18902,0.3651,0.3674,0.10866,0.13487,0.59267,0.085867,-0.18382,0.47133,0.27353,0.42563,-0.38838,0.16691,-0.12783,-0.29012,0.25286,0.14079,0.35101,0.075998,-0.33985,0.56268,0.32823,-0.37442,-0.095345,0.068491,-0.56535,-0.37623,-0.0011081,0.21998,0.12063,-0.39891,-0.25889,-0.67395,-0.03765,-0.35339,0.29915,-0.15273,0.20212,0.19935,-0.18191,-0.29039,-0.096451,0.014871,-0.12918,-0.22683,-0.29248,-0.361,-0.14065,0.14389,-0.061149,-0.022406,0.042888,0.076334,0.2199,-0.34163,0.27629,-0.24878,0.12513,-0.56323,0.019877,-0.11595,0.21855,-0.42673,0.21843,-5.0276e-4,-0.1869,-0.1648,-0.27968,0.060414,-0.09416,0.31733,0.1766,0.18275,-0.028213,0.20618,-0.1111,-0.22159,0.01632,-0.024057,-0.23697,-0.086039,-0.073998,-0.097291,0.50609,-0.15407,-0.2075,-0.014245,0.31938,-0.26269,-0.47119,-0.10616,-0.21597,0.11642,-0.03362,0.29299,-0.18077,0.075927,-0.55052,0.020146,0.38789,-0.29982,0.13402,-0.31742,-0.14371,-0.15394,-0.21961,-0.011063,-0.43878,-0.20803,0.24901,-0.021581,-0.65828,0.19698,0.18796,0.11652,0.42176,-0.16006,-0.23008,0.20147,-0.13785,0.19562,0.42442,0.046992,-0.069829,-0.26238,0.022417,0.0066847,0.08874,-0.053238,-0.10932,-0.24132,0.37536,-0.17826,-0.3187,0.066733,-0.083814,0.37451,-0.041605,-0.013454,0.046703,0.036749,0.22221,-0.075568,0.1575,0.61368,-0.1264,-0.27303,0.21343,-0.66202,-0.43419,-0.13026,-0.09707,0.40319,-0.26048,0.026696,0.11209,-0.061699,0.55026,0.34729,0.0061282
tan,0.64923,0.22046,-0.45417,-0.069142,0.19459,-0.34494,0.067697,0.18653,0.39223,-0.19753,0.23731,-0.18935,-0.57216,-0.0083029,0.49597,-0.7153,-0.17741,-0.27463,0.10738,0.060585,0.038915,-0.14232,-0.33483,0.20013,0.29289,-0.024419,0.24541,0.11806,-0.6724,0.068167,0.026322,0.089381,0.24894,0.32557,0.0037457,-0.23706,0.0090179,-0.19495,0.15445,7.0957e-4,-0.69002,0.26838,-0.21252,-0.067654,0.020964,0.10534,-0.20783,0.01036,0.2242,-0.081423,-0.19523,-0.20388,0.079617,0.1055,0.076375,0.079748,-0.13473,0.19935,0.30427,-0.13674,0.043361,0.087433,0.069653,-0.14043,0.097034,-0.0092891,0.13175,-0.16589,-0.50786,-0.25049,-0.3171,-0.13352,0.25478,-0.44984,-0.17255,-0.38679,0.33421,0.40278,0.36441,0.080658,0.36748,-0.13515,-0.389,0.069234,0.26071,0.14612,-0.20925,0.13874,0.37474,0.16361,0.07648,-0.30355,-0.17995,-0.068981,0.52665,0.24671,0.03758,0.25861,0.13463,0.045939,-0.0015512,-0.06756,-0.029979,0.06896,-0.056573,0.086287,-0.063164,-0.14134,0.21085,-0.3668,0.32186,0.13938999999999999,-0.0079528,0.26974,0.13641,-0.15634,-0.36144,0.0056924,0.01067,0.15933,0.55414,0.19267,0.44942,0.089973,0.37019,8.2927e-4,-0.053096,-0.0088249,0.10516,-0.34604,0.029711,0.14683,-0.083361,0.047283,0.46767,0.26407,-0.096859,-0.34695,-0.12671,-0.25539,-0.53711,0.23377,-0.49201,0.32819,-0.07083,0.22358,0.011337,0.27022,-0.0090429,0.126,0.1463,-0.27469,-0.64379,-0.36053,-0.094033,0.30272,0.057849,0.36566,0.35478,0.32863,0.19212,-0.011172,-0.42528,0.25528,0.55941,0.28541,0.17998,0.06782,0.25546,0.22684000000000001,0.22711,0.028859,-0.41317,-0.16779,0.09921,0.23394,-0.0031639,-0.31334,0.14416,-0.2952,-0.15944,-0.56053,0.27028,0.21075,0.16592,0.41866,-0.18676,-0.40707,0.57746,-0.057381,-0.1031,-0.33281,0.25013,-0.0059695,-0.36202,0.14407,-0.08007,-0.0096984,-0.3196,-0.05238,0.5578,-0.14384,0.23018,0.10243,-0.12087,-0.18265,-0.16452,-0.096743,0.02874,0.90784,0.37313,-0.11437,0.5035,-0.38107,-0.27721,-0.30972,0.06656,0.2301,-0.27399,0.16967,-0.20865,-0.50784,0.094246,-0.0072901,0.36209,-0.019737,-0.67042,0.44658,0.16257,0.47553,0.21363,0.12744,-0.37071,0.019813,0.1509,-0.39454,-0.08724,-0.18888,-0.067633,0.031279,0.030442,0.34223,-0.051915,-0.040368,0.43925,-0.23388,-0.14307,0.054009,-0.49285,0.15686,0.57379,-0.28096,0.0052898,0.020452,0.40683,0.15077,0.028236,-0.0070129,0.4074,-0.23712,0.17362,0.28781,0.087302,-0.20902,-0.43418,-0.53728,0.25473,0.35162,-0.19276,-0.069224,-0.34713,0.032101,0.29875,-0.006157,-0.34479,-0.76843,0.38799,0.20466,0.26496,-0.14169,0.21563,0.26768,-0.44085,-0.062329,0.36993,0.1569,0.033398,0.13669,-0.51697,0.07199,-0.12899,-0.6546,0.037786,0.12392,0.22917,-0.025603,-0.1363,-0.075999,0.20497,0.045551
swan,-0.51435,-0.11028,-0.42079,0.48486,0.1081,0.40913,-0.045028,-0.077023,-0.066267,-0.17476,0.13681,-0.063394,-0.25912,-0.24562,0.17144,-0.26097,-0.26456,-0.2447,0.030405,0.23202,0.12819,0.33206,-0.06238,-0.30563,-0.22059,0.077166,0.023029,0.056746,0.28112,0.45825,-0.049933,0.066269,-0.25723,0.0073632,0.32153,-0.19804,0.028176,-0.13252,0.26601,0.18878,-0.35466,-0.030821,-0.4168,0.10492,0.27839,-0.15162,0.28051,0.06351,0.37164,0.10787,0.29954,-0.031456,-0.12071,0.11726,0.26973,0.26093,-0.029831,-0.12612,0.34485,0.6217,0.31621,-0.086386,0.3382,0.26135,-0.017456,0.060927,-0.28914,0.065269,-0.013016,-0.31324,0.19505,0.0067306,0.08193,-0.47335,-0.1828,-0.087192,0.6908,-0.0061232,-0.028281,-0.21775,0.24857,-0.29161,-0.0074003,0.25489,-0.17417,0.24366,0.13562,0.069392,0.05571,0.11535,0.26275,-0.24532,0.14275,0.21012,0.1696,-0.21649,0.046463,-0.20434,-0.53431,0.092702,-0.13456,0.12404,-0.32018,0.24101,-0.26841,0.35368,-0.17363,0.075187,-0.028182,-0.26578,0.031074,0.19858,-0.2585,-0.17561,-0.24307,-0.079511,0.076383,-0.01595,-0.11219,0.33911,0.51211,0.30965,-0.13711,0.018634,0.3598,0.081551,0.015143,0.14737,0.19881,0.51195,-0.055436,0.13838,-0.075627,0.2605,0.31035,0.042842,0.35564,-0.17148,-0.32749,0.044516,-0.17725,0.26075,-0.20901,-0.18744,0.26637,0.46696,-0.091248,0.069548,0.19726,-0.18301,0.13517,-0.08656,-0.011502,-0.176,0.039971,-0.1286,-0.1274,-0.075503,-0.08246,-0.021344,0.019421,0.3465,0.073536,0.36598,-0.052224,-0.088387,-0.22278,0.046468,0.3915,0.4995,-0.21612,-0.18129,-0.39838,-0.02227,-0.16282,0.12298,0.075624,0.21729,0.46573,-0.24708,-0.33852,0.15626,-0.1656,-0.24242,0.012824,-0.10094,0.15805,-0.033278,0.41736,0.15138,0.34905,-0.25878,0.080957,0.078498,-0.12517,-0.076461,0.0020712,0.59516,0.068198,-0.082864,0.1701,0.46978,-0.23139,0.062884,-0.50844,-0.5417,0.08547,0.12662,0.17195,0.11792,-0.11561,0.050586,0.004291,-0.31232,0.37161,-0.23338,-0.095344,-0.17862,-0.48611,-0.16624,-0.022174,-0.018054,-0.286,0.40886,-0.04472,-0.27215,-0.15827,-0.05488,0.35591,0.077684,0.29639,0.58339,0.29797,-0.14227,-0.059312,-0.2409,-0.40017,-0.0023834,-0.3955,-0.17253,-0.11579,-0.057666,0.0079712,0.023863,0.18048,-0.25962,0.032096,0.091085,-0.17005,0.13417,0.33059,-0.30293,0.071355,0.029419,-0.23578,0.1743,-0.16344,-0.01565,-0.020571,0.35927,0.30411,0.12406,0.3412,-0.09924,0.15202,-0.27677,-0.059114,0.16985,0.17285,0.019894,-0.20473,0.35785,0.33721,0.10106,-0.15624,-0.01895,0.17027,0.3459,-0.15389,0.52857,0.075592,0.10691,-0.33463,0.31102,0.02834,0.18794,0.50975,0.51429,-0.11963,-0.18324,0.12055,0.31677,0.29028,0.38908,-0.29363,-0.14266,0.085565,0.28741,0.14239,0.2568
elephant,-0.21309,-0.2394,-0.4446,0.46373,-0.21898,0.26599,-0.26842,-0.27095,0.25669,0.16602,0.49901,0.047464,-0.040986,-0.0014746,0.040678,0.0039467,-0.23273,-0.38948,-0.049024,0.054491,0.24459,-0.0079956,-0.20415,0.044815,-0.32739,-0.14208,-0.12263,-0.17056,0.1618,-0.082454,0.070992,0.21964,-0.37567,-0.18492,0.19309,0.012777,0.28537,-0.0879,0.23359,-0.30664,-0.2376,-0.28861,0.14411,-0.33916,0.096447,-0.0027532,-0.27767,-0.52275,0.20604,-0.022381,-0.15889,0.5448,-0.074235,0.060435,0.21529,0.14024,0.079913,0.12114,0.021616,-0.048739,0.40289,-0.20042,0.26178,0.25462,-0.011991,-0.29986,0.29528,0.5096,0.15641,0.096691,-0.0091537,-0.094672,0.11517,-0.46871,-0.35834,-0.15028,0.27889,0.60103,-0.497,0.11504,0.50142,-0.44024,-0.117,-0.17997,0.25043,0.14919,-0.32699,0.28785,0.70094,0.23652,0.2761,-0.20282,0.17054,-0.042281,0.25604,0.21148,-0.050684,0.27739,-0.35207,0.21954,-0.27285,0.19145,-0.24824,0.23439,0.039012,-0.07936,-0.034052,0.65698,0.19733,0.076859,-0.002165,-0.021312,-0.27905,-0.19505,-0.12327,0.0034035,0.18852,0.085334,0.0172,-0.052582,0.27979,0.20404,0.12768,0.41714,0.097374,0.50381,-0.14517,0.3524,0.22016,0.38005,-0.26918,-0.10578,0.21445,0.24863,-0.17221,0.010419,0.10698,-0.43261,-0.062802,0.073005,0.20313,0.087979,0.30101,0.22676,0.14309,0.18874,0.021955,-0.16713,0.30543,0.28207,0.22601,-0.42745,-0.25707,-0.29918,-0.36824,0.247,0.23817,-0.069772,0.11853,-0.24242,0.43656,0.11687,-0.045308,0.066045,0.40373,-0.074482,0.10877,-0.10361,0.26853,-0.01358,-0.44172,-0.32802,-0.049956,0.10219,-0.092232,0.30655,-0.052625,0.099223,-0.12747,0.025156,-0.050388,-0.10678,0.40354,-0.21597,-0.16803,-0.36942,-0.089255,-0.096166,0.28302,-0.095488,0.04893,-0.14773,0.10372,0.30346,-0.14648,-0.17795,-0.30484,-0.12072,-0.27709,-0.42308,0.036652,0.41733,0.17947,0.34958,-0.069537,-0.37136,-0.61207,0.11583,0.2701,-0.44659,0.17861,0.18553,0.12939,-0.28591,0.2211,-0.5731,-0.036465,-0.21054,0.15512,-0.092176,-0.28177,-0.18221,-0.047688,0.39599,-0.34711,0.20694,0.14544,0.1539,-0.40458,0.13586,0.060376,0.22306,0.13414,-0.2457,0.12901,0.041291,-0.40349,0.11217,0.22768,0.02285,-0.035353,0.083452,-0.29609,0.24286,-0.093605,-0.18061,0.069621,0.16866,0.13088,0.29392,0.18126,-0.036601,-0.050496,0.097311,-0.0070387,0.08628,-0.22381,0.14047,0.31027,-0.25082,0.088186,0.031439,-0.3031,0.020316,-0.45039,-0.41186,-0.0385,0.093132,0.023726,0.21663,-0.037047,0.20104,0.13863,-0.23531,0.030697,-0.43095,0.37793,-0.19021,-0.21873,-0.13418,0.30241,-0.069763,0.19073,0.34358,0.22932,0.14101,-0.012035,0.31467,-0.11557,-0.13961,-0.0797,-0.33215,0.16243,-0.28125,0.01662,-0.20705,-0.3496,0.49833,-0.045259,0.38726
shark,-0.024571,0.18972,-0.65691,0.37398,-0.46212,0.33295,0.10419,-0.32715,-0.30397,-0.075656,-0.16954,0.43545,-0.069368,-0.24243,0.26852,-0.051618,-0.16161,0.011546,0.14224,-0.11157,0.1237,0.17486,-0.085624,-0.27586,-0.075733,-0.09955,-0.030155,0.16811,0.48193,-0.024865,-0.12756,0.19956,-0.10041,0.11679,0.25299,0.47496,0.47032,0.083651,0.12382,-0.37852,-0.27678,-0.22255,-0.18488,-0.21105,-0.077086,0.0058709,-0.41136,-0.16216,0.13253,-0.076153,0.0058241,0.060888,-0.1661,0.26013,0.1334,0.16598,0.18343,-0.15174,-0.061986,0.30565,-0.011699,-0.29398,0.30527,-0.063185,-0.58506,0.087885,0.10484,0.10889,0.33311,0.10844,0.020662,0.10388,-0.045786,0.0027439,-0.32636,-0.223,0.46723,0.42427,-0.094561,-0.24827,0.13472,-0.23836,0.23764,-0.038868,0.042584,-0.23431,0.0038684,0.51766,0.12893,-0.20016,-0.076491,0.30144,0.17862,0.057223,0.3182,0.1929,-0.17295,-0.072973,-0.16946,0.066137,-0.13052,0.0056691,-0.62245,0.42783,0.26378,0.18416,-0.20703,0.48051,-0.080406,0.11684,-0.24175,0.12229,-0.39819,-0.16092,0.0076019,-0.18012,0.3761,0.16439,0.10761,-0.073605,-0.0079776,-0.18193,0.29198,0.42607,0.011776,0.16444,0.051332,0.23579,0.071812,0.096128,0.054078,0.20617,-0.28466,0.32243,-0.063236,0.18115,-0.17087,-0.26718,-0.2689,0.17216,0.2235,0.08378,-0.053277,-0.20498,-0.23534,0.38319,-0.30275,-0.14791,0.3344,0.14176,0.37,-0.60745,-0.74873,-0.68465,-0.32728,-6.6217e-4,-0.23722,-0.16498,0.22423,-0.4594,0.60221,-0.10301,-0.14007,0.14711,0.14569,0.098791,-0.18394,-0.011179,0.60986,0.021333,-0.30152,-0.098398,-0.074138,-0.35739,0.12352,-0.10349,-0.0046423,-0.06227,-0.047775,-0.24747,-0.46637,-0.28247,0.1607,-0.30058,-0.2963,0.27249,-0.26063,0.35793,0.032029,0.46397,-0.19576,-0.45206,0.30169,0.39452,-0.094079,-0.024755,-0.125,0.69517,0.014456,-0.33504,0.074617,-0.1213,0.17665,0.50618,0.010013,-0.41614,-0.086396,-0.25698,0.37647,-0.26697,0.089243,0.26354,0.37491,-0.74537,-0.23452,-0.011616,0.17137,0.12211,0.52037,-0.18865,-0.099261,0.12641,0.079859,0.30063,-0.23191,0.0066901,-0.18837,0.29299,-0.3387,-0.11811,0.065073,0.14084,-0.22583,-0.14841,0.17539,0.23219,-0.37402,0.5426,0.035195,0.26066,0.21087,0.10658,0.39697,0.38955,0.21376,0.47236,0.21999,-0.11195,-0.15105,-0.06882,-0.1775,-0.41253,-0.3902,0.45267,-0.17047,-0.16188,0.12281,0.1012,0.040025,0.205,-0.015463,0.65984,0.043125,-0.82777,-0.39068,-0.25077,0.40277,0.10544,-0.18587,-0.04134,-0.14009,0.052921,0.36499,0.14987,-0.4728,0.05343,0.50154,0.03668,0.21308,-0.083342,0.79459,0.3032,-0.15401,-0.086442,0.5091,-0.017059,0.36868,0.06045,-0.34476,-0.19545,-0.42343,-0.115,0.22108,0.29961,0.11248,0.026241,0.095628,0.3317,-0.066363,0.026669000000000002
pig,0.056327,0.36307,-0.41751,0.18754,-0.23449,0.21291,0.038528,-0.18666,0.3031,0.10978,0.060157,0.04867,0.09896,-0.39181,0.11213,-0.36525,-0.20938,0.026163,0.0077449,0.18801,-0.21145,-0.041615,-0.075031,-0.11543,0.14966,0.2075,-0.14316,0.12021,0.032095,0.010124,0.17683,0.15285,-0.55404,0.10556,0.19173,-0.27983,0.11756,-0.2003,0.0078633,0.034881,-0.033555,-0.28885,-0.32317,0.21144,-0.063714,0.32523,-0.16069,-0.25579,-0.20725,-0.057792,-0.047676,0.16836,-0.054862,-0.24847,-0.024803,0.20855,0.62411,0.0058376,-0.050024,0.12288,0.42875,-0.42676,0.28619,0.17913,0.12275,-0.43795,-0.11944,0.17561,0.22724,-0.12283,0.33718,-0.40363,0.13317,-0.15711,0.03992,0.025833,0.034754,0.22752,-0.17376,-0.11111,0.14457,-0.070341,-0.26619,0.054023,0.21969,0.21785,-0.17351,0.72827,0.54516,0.13771,0.13255,-0.066927,0.23921,0.11894,0.1999,0.52326,-0.37825,0.35946,-0.45826,0.13499,0.10926,0.12209,-0.51371,0.14323,0.059587,0.059074,0.082328,0.26019,0.37001,-0.25862,-0.33578,0.093171,-0.23604,0.22324,-0.072589,-0.22921,0.055364,-0.12354,0.27445,-0.099338,-0.28674,-0.32095,0.18942,0.42723,0.082441,0.0018068,-0.009951,-0.4716,0.212,0.23435,0.046942,0.3837,-0.11952,0.53423,0.23763,0.13157,-0.28909,-0.18344,-0.56794,-0.095751,-0.067164,0.3982,-0.042774,0.11213,-0.31082,0.41312,0.035251,-0.071328,0.18825,0.29756,0.1841,-0.13403,-0.2161,-0.0021709,-0.27397,0.33129,-0.19982,0.17939,0.10715,-0.60107,-0.014083,0.35791,-0.49065,0.075984,0.36154,-0.13949,-0.078004,-0.15582,0.23021,0.0050566,-0.33415,-0.54491,-0.012737,0.10716,-0.14379,0.29011,-0.25861,-0.16305,-0.21806,-0.081839,-0.11979,-0.35141,0.50476,-0.29536,0.067762,0.19097,-0.17007,-0.1705,-0.034185,0.27508,0.10354,-0.22588,-0.14532,0.33052,-0.46396,-0.38667,-0.090601,-0.091024,-0.36416,-0.054161,0.13756,0.3541,0.099224,0.16174,-0.074362,0.13309000000000001,-0.33371,-0.095761,-0.024289,-0.0585,0.57987,-0.35186,0.041959,-0.019313,0.33735,-0.13751,-0.13957,-0.20711,-0.15873,0.13814,-0.48516,0.076387,-0.23726,0.50283,-0.66553,-0.40048,-0.13126,0.21678,-0.28616,0.23365,-0.10102,-0.1685,0.096767,0.16676,-0.009781,0.052609,-0.3336,-0.12628,0.12554,0.078884,-0.088867,0.010943,0.084222,-0.068745,-0.23363,0.29722,0.34402,-0.062138,-0.0079422,0.10135,-0.14505,-0.16163,-0.12627,-0.092528,0.024564,0.18206,-0.27131,0.019191,0.3353,0.21148,0.36933,0.32768,0.01642,0.32592,-0.32369,-0.074617,-0.068478,-0.26053,0.13127,0.10025,-0.3445,0.16503,0.15,-0.074073,0.13344,-0.49841,0.48203,0.05032,0.13721,-0.062684,0.61617,0.1322,0.11013,0.14866,0.13021,0.12691,0.12326,-0.11301,-0.41332,-0.11369,-0.031757,-0.27934,0.30955,-0.10921,-0.11676,0.20951,0.1128,0.13718,0.061129,0.53235
beaver,-0.22507,-0.15675,-0.51585,0.083625,-0.083326,-0.34747,0.17879,-0.073114,0.40146,0.051464,0.41778,0.040845,0.19948,-0.55515,0.011591,0.25902,-0.10558,0.21341,-0.46098,0.1847,-0.32966,0.46347,0.032947,-0.10165,0.23562,-0.0077221,-0.13471,0.16791,0.06483,-0.37939,0.034774,0.44446,-0.50434,0.14406,0.1844,-0.11789,-0.074954,-0.30834,0.38469,-0.30361,-0.10292,0.1181,-0.32117,0.50143,0.059253,-0.015526,0.36119,-0.20138,0.29636,-0.29978,-0.21287,0.14939,-0.36693,-0.060681,-0.046643,0.38838,0.45823,0.26982,-0.19803,0.39905,0.013936,-0.11697,0.4219,0.04475,0.27349,0.18836,-0.087441,-0.10752,-0.55438,-0.041249,0.24885,-0.3548,0.2027,-0.20941,-0.23419,6.1499e-5,0.34407,-0.073847,-0.16806,0.072395,-0.12818,-0.027139,0.054848,0.18444,-0.24364,-0.19147,-0.0076625,0.34184,0.11344,0.16165,-0.23445,-0.019895,0.20958,0.12205,0.40688,0.34441,0.039561,0.48541,-0.43321,0.13464,-0.20856,0.08012,0.073192,-0.27704,-0.44243,-0.12418,-0.10967,-0.095387,-0.044681,0.027226,-0.013855,-0.21868,-0.032364,0.24047,0.049759,-0.27375,-0.032177,-0.055404,-0.12447,0.27484,0.44486,-0.06181,0.10697,0.3579,0.3081,0.21021,-0.26304,0.17676,0.15053,0.19746,-0.41477,0.11456,-0.35382,0.22274,-0.30927,-0.0049208,0.23471,-0.1579,-0.69472,0.38759,0.28685,0.12841,-0.03281,0.22453,-0.088249,0.47305,-0.0053351,-0.060202,0.11803,0.18425,0.049429,-0.1811,-0.17901,-0.20008,0.20439,0.20787,-0.18837,-0.18991,0.086165,-0.19105,0.17853,0.32993,-0.55027,0.30989,0.24896,0.0045921,0.12001,0.21102,0.15111,0.47719,-0.48504,-0.14658,-0.93013,-0.42347,-0.089064,0.064717,-0.23059,0.39445,0.4444,-0.35675,0.058368,-0.15754,0.23793,-0.55454,-0.34866,-0.12359,-0.33557,0.062204,-0.16089,0.014695,-0.25021,-0.2422,-0.10483,0.087038,0.048074,0.2,-0.021533,0.24842,-0.18008,-0.043625,0.21079,0.51586,-0.43048,-0.31458,-0.13561,-0.31286,-0.24501,-0.31762,-0.083759,-0.35493,0.31552,0.02112,-0.025263,-0.062308,0.42596,-0.46992,0.086847,0.025849,0.11525,-0.067365,0.1864,0.35341,-0.22325,0.43165,-0.070095,-0.25287,0.027264,-0.074078,0.090532,0.22153,-0.028828,-0.33849,0.01939,0.034495,-0.034685,-0.12804,-0.26728,-0.27667,0.007916,-0.0010921,-0.45042,-0.17107,0.20081,-0.055084,-0.079576,0.20487,-0.25491,0.051691,-0.02044,0.04609,0.086705,-0.35347,-0.07872,0.12587,-0.11747,0.38845,0.10959,-0.092818,0.0077534,0.098209,-0.0049287,0.31703,0.24365,-0.012019,-0.46001,-0.15812,0.026644,0.3609,-0.13663,-0.15072,-0.26899,0.18848,0.19557,-0.13975,-0.30791,-0.11161,0.16391,-0.15141,-0.087835,0.17518,-0.23513,0.23772,-0.21878,0.21277,0.31466,-0.0034296,-0.13896,0.14818,-0.57346,-0.24421,-0.21485,-0.15379,0.13763,-0.11306,0.23475,-0.16001,0.28377,0.18137,-0.053533,-0.19293
crow,-0.3928,0.0087407,-0.11822,0.17514,-0.21992,0.44693,0.15096,0.14638,-0.021156,0.090614,0.13075,0.46916,-0.10499,-0.4824,-0.22365,-0.38675,-0.13216,-0.21048,-0.082441,-0.024564,-0.41313,0.29894,-0.056435,-0.096377,-0.25637,0.13119,0.16048,0.0089288,-0.024954,-0.047318,0.1967,0.30354,0.14576,0.28179,0.24184,-0.15688,0.1952,-0.55249,0.18037,-0.045179,-0.064231,-0.0036651,0.028674,-0.11771,0.022102,0.068351,-0.11944,0.15324,0.34199,0.12612,0.26097,0.31037,-0.050022,-0.086982,-0.29433,0.52329,0.26945,-0.20906,0.20793,0.57607,-0.05337,-0.45114,0.42941,0.11462,0.044527,0.3175,-0.22451,0.054159,0.016989,0.31173,0.0034556,-0.59609,0.489,-0.50141,-0.24704,-0.10358,0.17934,-0.027745,-0.18425,-0.17321,-0.35425,-0.27695,0.12852,0.29545,-0.094309,-0.069136,-0.60325,0.31565,0.24031,0.12298,0.14389,-0.0098466,0.055464,-0.15254,0.079276,0.39203,0.37113,-0.12267,-0.31562,0.045501,0.15708,0.30287,0.28891,-0.026799,-0.068791,-0.018043,-0.13284,0.1203,0.18142,0.28017,-0.28525,0.024074,-0.13836,-0.62603,-0.32498,0.16528,-0.22641,-0.148,-0.089295,0.17287,0.17205,0.13304,0.0010427,0.39071,0.42415,0.42965,-0.14238,-0.015001,0.10505,0.57018,-0.56652,0.32499,0.020818,-0.040272,0.1224,-0.12706,0.06145,-0.34489,-0.31893,-0.0075773,-0.15954,0.076081,-0.13811,0.31217,0.087136,0.27483,0.026318,-0.6226,0.092559,-0.47042,0.12906,-0.13531,-0.078752,-0.12459,-0.12376,0.46791,0.19046,0.11037,-0.31996,0.060895,0.37619,0.011758,-0.38725,-0.23257,-0.0057308,-0.052404,-0.16453,-0.12994,0.080183,0.054484,-0.1065,-0.030246,-0.45089,-0.48402,-0.2796,0.038249,-0.45273,-0.003545,0.345,-0.30257,0.1214,-0.21005,0.21451,0.05118,-0.15675,-0.17553,0.16652,0.049851,0.15314,0.14208,0.26241,-0.53178,0.21152,-0.028631,-0.27399,0.10526,0.046389,0.18051,-0.25518,-0.12546,-0.01492,0.35348,-0.33464,0.41551,-0.31063,-0.054132,-0.11121,-0.20343,0.23397,-0.3588,0.53484,0.25212,0.066172,-0.24303,0.32847,0.061871,-0.26004,-0.12318,-0.4951,-0.086626,-0.076297,-0.16475,-0.37079,0.30721,-0.4085,-0.16592,-0.12213,0.0040305,-0.027395,0.037825,0.14259,0.2519,0.085654,0.26121,0.036128,-0.015116,-0.062546,-0.071325,-0.22537,0.053998,-0.068977,0.060066,0.079061,0.27000999999999997,0.10086,-0.31218,-0.27053,0.0083673,0.10933,0.173,0.39701,-0.32133,0.14343,-0.47381,0.058606,0.16197,0.067901,-0.14219,-0.060379,0.21327,0.20638,0.41251,0.13375,-0.087033,0.11237,-0.36205,-0.30054,0.20597,0.082944,-0.12613,-0.31982,0.11926,0.16409,-0.22634,-0.11427,0.075536,0.23427,-0.15453,-0.12031,0.47042,-0.077747,0.14848,0.024986,0.346,0.48227,-0.20154,0.48337,0.14184,-0.33765,0.17128,-0.079528,-0.21763,-0.040128,0.14076,-0.3279,-0.1037,0.16291,-0.087487,0.087898,0.10779
amber,0.38393,0.19649,0.060318,0.060121,-0.10122,0.29986,-0.34679,-0.13552,0.55405,0.066292,0.2292,0.21353,-0.35504,0.21507,0.15022,-0.15234,-0.14643,0.17017,-0.063458,0.34669,-0.050344,-0.2076,0.081774,0.10454,-0.30008,0.24396,0.078224,0.26336,-0.13596,0.11585,0.20513,0.31877,-0.17988,0.15625,0.48437,0.25583,0.089949,0.15984,0.24077,-0.086488,-0.052739,0.033745,-0.46799,0.48041,0.14644,-0.35229,0.084826,-0.18812,0.11984,-0.06716,0.27236,0.08594,0.21986,0.29163,0.30995,0.16491,-0.37081,0.18307,0.13968,0.084427,0.25849,0.077586,0.17836,-0.27571,-0.058132,-0.29136,-0.35752,0.055105,-0.091338,0.23818,0.29395,-0.07196,0.30046,-0.25475,0.25115,-0.11378,0.071269,0.50335,-0.087356,-0.11626,-0.14642,0.092198,-0.091523,0.17568,-0.08223,0.16766,-0.039841,-0.41266,0.34675,0.15607,-0.0095504,-0.12012,-0.5948,0.62553,-0.066942,0.17049,0.13625,0.026538,0.33075,0.14392,0.055037,0.22578,-0.16331,-0.04898,0.23111,0.023367,-0.23555,-0.051092,-0.20076,0.37264,0.40258,-0.52539,-0.19223,-0.034882,0.15052,0.078431,0.22777,0.16624,-0.27945,0.17451,0.30534,0.13529,-0.044722,0.15027,-0.010444,0.44375,0.22036,0.078991,0.31959,0.034536,-0.56172,0.13918,-0.36697,-0.12192,0.1098,-0.020126,0.153,-0.032304,-0.36102,0.53954,-0.42918,0.39893,0.17935,-0.33601,0.21775,0.25555,-0.0018699,-0.36184,0.24016,-0.44339,0.58964,-0.54021,-0.2547,-0.28043,-0.20374,-0.12076,-0.02802,-0.12836,0.72323,0.1988,0.16369,-0.074812,-0.7235,-0.30483,0.57051,0.24176,-0.14019,-0.2779,0.24406,0.19854,-0.13767,0.09456,-0.084132,0.13586,-0.29993,0.015281,-0.050979,0.142,0.30452,-0.044711,0.01319,-0.066775,0.10995,0.12141,0.086242,0.095682,0.36459,0.253,0.21528,0.20377,-0.032762,-0.51522,0.35001,0.14352,-0.12496,0.40063,0.087711,0.2463,-0.13986,0.18729,0.12668,-0.22008,0.021976,-0.18952,0.64796,-0.38587,-0.68156,-0.34948,0.41889,-0.19842,0.24701,-0.31676,-0.11215,-0.57134,-0.14335,-0.13719,-0.06629,0.042842,-0.0039457,0.20388,0.12981,-0.32368,0.20982,0.36786,0.017442,0.17995,-0.72376,-0.10931,-0.10161,-0.063185,0.06271,-0.14464,-0.1029,-0.47676,0.042084,0.17962,0.22894,-0.21831,-0.30118,-0.024953,-0.25254,-0.019939,-0.15039,-0.15747,0.19879,0.2748,-0.46148,0.2409,-0.40441,-0.31245,0.15726,0.14025,-0.03562,-0.27756,-0.16447,0.072937,0.11413,0.0094813,0.14859,-0.20976,0.078143,0.081022,0.12644,-0.53437,-0.16423,-0.39137,-0.34663,0.22356,-0.11821,-0.51883,0.23257,-0.23324,0.32134,-0.074146,-0.13631,-0.13824,0.43689,0.089196,0.3652,0.5792,0.48352,-0.065917,-0.50104,0.29752,0.054937,0.26225,0.11596,0.24141,0.24094,0.22684000000000001,0.044541,0.010736,0.0092378,0.46149,-0.14016,-0.16899,0.20873,0.2921,0.21933,-0.018543
stripes,-0.18235,0.27075,0.30939,0.47704,0.029321,-0.17468,0.32312,0.60627,0.27452,0.31895,-0.14506,0.31558,-0.37419,-0.087886,0.45752,-0.38946,-0.59163,-0.45709,0.11751,0.19848,-0.22268,-0.36639,-0.30528,0.22884,0.0036475,-0.19205,-0.037922,-0.20881,-0.11627,0.38366,0.0077001,0.10984,0.010773,-0.10189,-0.1294,0.34419,0.36254,0.16025,0.051131,-0.35044,-0.35076,-0.29957,-0.076748,0.060693,0.008228,-0.21651,0.014432,-0.49046,0.24545,-0.48434,-0.15009,-0.38467,-0.15882,-0.17726,-0.14667,0.27622,-0.049395,0.12073,-0.14838,0.2473,0.12658,0.46729,0.17149,-0.19585,-0.046867,-0.17908,-0.41121,-0.058326,-0.061145,0.16528,-0.23772,-0.21616,-0.010767,-0.030643,0.15131,0.1067,0.01687,-0.13041,0.048709,-0.096837,-0.16628,-0.20965,-0.57337,-0.048293,-0.29469,-0.12759,-0.34223,0.4321,0.1337,0.076542,-0.0012937,-0.32618,-0.0025193,0.15107,0.22865,-0.098933,0.30554,0.0033994,0.039959,0.2091,-0.2278,-0.45887,-0.29301,-0.12051,-0.0717,0.12169,-0.15225,0.10051,0.27313,-0.24729,-0.011605,0.10593,-0.065239,-0.0060464,0.11633,-0.060726,0.46896,0.18779,-0.026601,0.57444,0.34362,-0.0056774,0.053762,-0.19447,0.020722,0.23025,-0.21231,0.17301,0.19086,0.35349,-0.16701,0.25891,0.10238,-0.13918,0.10366,0.092448,0.41659,-0.45832,-0.20742,0.17291,-0.43696,0.031895,0.3641,0.053426,0.0090765,0.32831,-0.1897,0.17342,-0.25743,0.099042,0.03779,-0.0052787,-0.5113,-0.43565,-0.19964,0.22494,-0.17812,0.48594,0.62372,-0.0077945,0.28161,-0.090494,-0.22895,0.24964,0.37161,0.31857,0.12232,-0.49208,0.39601,-0.41312,-0.021323,-0.48067,-0.15439,-0.01799,-0.012554,0.47609,-0.098861,-0.10278,0.13625,-0.09738,0.056092,-0.38683,0.15206,0.024039,-0.093631,-0.0089686,0.027032,0.10921,-0.045383,0.33161,0.18755,0.036539,0.32143,0.11323,-0.149,-0.094938,-0.028332,0.21775,-0.26217,-0.34843,0.16189,-0.11426,0.014083,0.10122,0.86752,-0.23194,0.22168,-0.13798,0.3696,-0.043444,-0.018244,0.36187,0.046238,-0.31614,0.35716,-0.15421,-0.2587,-0.58479,-0.080748,-0.073198,-0.3715,-0.29234,0.10068,0.16954,0.21032,0.11703,-0.11493,-0.27159,-0.0015815,-0.25846,0.24536,0.34809,0.0046729,-0.41782,0.16172,-0.24377,0.06494,0.11002,-0.38608,0.041773,-0.074859,0.0062922,-0.12664,0.06799,0.081455,-0.017148,-0.0086569,-0.29561,-0.074483,-0.069968,0.43824,0.0083733,-0.086788,-0.22688,0.42374,0.37449,0.20554,-0.5179,-0.19331,-0.30442,0.11997,0.299,0.20976,-0.21611,-0.50161,-0.3283,-0.42409,0.59931,-0.096335,-0.28746,-0.43145,-0.14677,0.43764,0.39576,-0.70499,-0.25186,0.080534,0.047932,-0.41085,-0.036805,-0.052181,-0.09189,0.087364,0.13181,0.44122,0.10971,0.028309,0.1618,-0.7286,-0.085453,-0.046981,-0.34959,-0.15218,0.46877,0.38992,0.050823,-0.056586,0.237,0.041302,0.18506
goat,-0.086481,0.16819,-0.15843,0.21271,0.082696,0.2813,0.028108,-0.21218,0.43149,-0.054649,0.21769,0.12476,0.2963,-0.28927,0.19829,-0.14449,-0.1788,-0.08441,0.0073065,-0.17689,-0.15899,-0.24612,-0.21302,-0.065879,-0.1429,-0.17606,-0.26583,-0.073092,0.012951,-0.12977,0.22047,0.46434,-0.46889,-0.23774,0.32031,-0.17722,-0.10983,-0.073048,-0.20633,0.18102,-0.0065495,0.19297,0.0078841,-0.058564,-0.16713,0.3072,-0.028659,-0.23906,0.078189,0.096614,0.56423,0.091109,0.06658,-0.044098,-0.11073,0.17027,0.27242,-0.047671,-0.02008,0.39032,0.38409,-0.26563,0.057345,0.12972,0.085942,-0.43638,0.061775,0.010755,0.0179,0.21043,0.28715,0.037749,0.39114,-0.53949,-0.018321,-0.12562,0.22706,0.45233,-0.11655,0.0094193,2.3503e-4,-0.30616,-0.090116,0.05101,-0.10232,0.23445,0.029217,0.56905,0.47431,0.16535,0.13485,-0.28017,0.15933,-0.10529,0.10979,0.43155,-0.32617,0.21966,-0.31428,0.064595,-0.16415,0.27865,-0.25158,0.042299,0.26237,0.018208,0.089817,0.30808,0.2188,0.15807,-0.10899,0.059291,-0.0076224,0.037735,-0.19797,-0.20605,0.11018,-0.36561,0.37634,-0.22979,0.051386,-0.067647,0.12905,0.32837,-0.11539,0.27382,-0.15294,-0.32037,0.081252,0.09787,-0.21419,0.32141,0.098822,0.56319,0.097042,-0.47468,0.079503,-0.24744,-0.45793,-0.0064095,-0.15953,0.52535,0.26255,0.41061,-0.24398,0.6977,-0.32096,-0.0015912,0.11819,0.59713,0.16432,-0.26673,-0.040854,-0.35239,-0.41641,0.35042,0.39125,0.058469,0.40414,-0.26768,-0.015465,0.2007,-0.33683,-0.028148,0.24736,-0.23484,0.0029583,0.24634,0.098245,0.10649,-0.17132,-0.51579,-0.44195,0.16273,-0.35907,0.31824,-0.17015,-0.034452000000000003,0.079262,-0.055507,-0.12319,-0.41971,0.36618,-0.1884,-0.036314,-0.15768,0.0035982,-0.39288,0.061698,0.25876,0.25201,-0.069623,0.068028,0.36261,-0.25117,-0.24723,-0.2038,-0.34623,-0.44087,-0.13856,-0.28467,0.47016,-0.14009,0.050875,-0.25738,-0.15494,-0.36744,-0.13311,0.24208,-0.1422,0.40997,0.26344,0.25834,0.22406,0.42246,-0.0094243,0.023284,-0.34049,-0.24397,0.11213,-0.24997,-0.22918,-0.42375,0.32186,-0.43653,0.10662,-0.027808,0.17206,-0.1904,-0.092101,0.14493,0.011924,-0.062184,0.008257,0.095002,0.0066743,-0.23973,-0.045535,0.1972,0.19045,-0.2662,0.36535,-0.11973,0.055779,-0.20687,0.32787,0.18283,-0.03308,-0.12993,0.080104,-0.084186,0.037646,0.063513,0.02904,0.063569,0.32908,-0.12104,-0.44519,0.2771,0.022943,0.05376,0.38906,0.27248,-0.14813,-0.2912,0.029755,0.066409,-0.075438,-0.058885,-0.12397,-0.019899,0.042347,0.067232,-0.095324,-0.096334,-0.45102,0.41874,-0.0021666,0.061695,-0.023544,0.62213,0.025954,0.19859,0.24194,-0.083634,-0.11531,-0.20667,0.0075623,-0.23854,-0.25335,-0.18741,0.089096,0.3925,-0.19138,-0.10869,0.595,0.35827,0.29863,-0.11136,0.3949
panther,-0.41965,0.094167,-0.38162,0.10812,-0.16372,0.238,-0.20076,-0.1041,0.17854,0.45933,-0.035671,-0.0073184,-0.084972,-0.044096,0.46196,-0.10731,-0.59555,-0.047077,0.26507,0.46776,-0.085138,0.071046,-0.36716,-0.432,-0.056659,-0.20015,0.080073,0.24963,0.25843,0.068599,0.41412,0.089151,-0.19632,-0.10094,-0.019204,-0.30352,-0.080569,-0.0038593,0.30934,-0.36385,-0.22336,-0.24811,-0.1574,0.17245,0.03381,0.080823999999999993,-0.17154,-0.33081,0.24209,-0.30031,0.27687,0.18173,0.040399,0.24056,0.033859,0.25572,0.2851,-0.25608,-0.0062862,0.29206,0.25836,0.046513,0.0091563,0.28451,-0.1644,0.29891,0.27222,0.21047,-0.027365,-0.039161,0.30198,-0.075496,-0.20566,-0.1795,-0.23505,-0.26082,0.28292,-0.061342,-0.17823,-0.10272,-0.15765,0.12821,-0.50859,-0.16084,-0.34388,-0.35645,0.027981,0.35213,0.23236,0.044367,0.095041,-0.067555,-0.0057712,0.2111,0.14207,0.25959,-0.15368,0.27879,-0.10501,0.12482,-0.3159,0.39401,-0.082995,0.0060075,0.041643,-0.16391,0.17917,0.1927,0.15524,-0.32773,-0.11786,0.088354,-0.58977,-0.31276,-0.12165,0.020147,0.23211,0.0042128,-0.059768,0.38775,-0.016608,-0.036967,-0.30724,0.29677,0.20926,-0.0012565,0.035255,0.25383,0.21599,-0.065019,-0.66906,0.4283,-0.02685,0.0075406,-0.38295,-0.070224,0.023286,-0.30794,-0.70855,-0.041911,0.15678,-0.19984,0.36026,0.16664,0.48796,0.44746,-0.1466,0.018668,0.23963,0.22464,0.061133,-0.27306,-0.049516,0.11518,-0.1178,-0.0050552,0.14474,0.21397,-0.24433,-0.0061825,0.43481,-0.019077,-0.10768,-7.3407e-4,0.095702,-0.1409,0.20659,0.47952,0.18075,0.22417,0.17415,-0.15877,-0.034221,-0.16158,-0.23588,0.14611,-0.025902,-0.076447,0.20324,-0.065503,-0.094468,-0.057711,0.26366,-0.30807,-0.28104,0.45955,-0.083328,0.078187,-0.025903,0.15557000000000001,0.16187000000000001,-0.47311,0.034085,0.14595,0.10502,0.10753,-0.05486,0.46912,-0.18272,-0.34617,0.48033,0.28367,0.26279,0.32324,0.23965,-0.053703,-0.40302,-0.58464,0.41363,0.15858,0.25988,0.19869,-0.29233,-0.33727,-0.084565,-0.19403,0.14636,-0.30061,0.36349,-0.26849,-0.59467,-0.065286,-0.25722,0.49213,0.020769,-0.38166,-0.13701,0.051557,0.11046,-0.047368,0.44979,0.42166,-0.42355,-0.27663,-0.12638,0.082211,-0.24582,0.092742,-4.3632e-4,0.080626,0.26465,0.14173,0.32847,0.20307,-0.14367,-0.23025,-0.079956,0.12542,0.066164,0.054272,0.075373,-0.089174,-0.38919,-0.15397,-0.23825,-0.22126,-0.30386,-0.33791,0.096806,-0.28855,0.047062,-0.0065388,0.084557,0.16409,-0.2093,-0.26226,0.001592,0.11235,-0.13358,-0.42647,-0.61113,-0.061236,-0.020838,0.22901,-0.28986,-0.37106,0.38911,0.08164,-0.075564,0.22682,0.44309,0.31885,0.067884,0.26085,0.49872,0.17974,0.087385,-0.11568,-0.49963,-0.1201,-0.18061,-0.61111,0.39874,0.15776,0.44461,-0.087589,-0.16863,0.39728,-0.099508,-0.073959
pigeon,-0.053859,0.33281,0.043694,0.50357,0.13188,0.32193,0.1549,-0.065743,0.23085,-0.41738,0.12138,0.37055,0.11355,-0.22463,0.44217,-0.020697,-0.40082,0.19184,0.019205,0.49276,-0.1141,0.46184,-0.22195,0.24642,-0.15168,-0.070662,-0.028592,-0.217,-0.062678,0.42445,-0.081392,-0.27979,-0.51698,0.18325,0.065376,-0.27311,0.034889,0.0030547,0.26544,0.17743,-0.26497,-0.13471,0.016521,-0.046707,0.34553,-0.043763,0.3068,-0.42204,0.094687,0.061996,0.097964,0.4064,-0.52106,0.010696,-0.0076228,0.18723,0.37118,-0.028913,0.24055,0.25042,-0.14421,-0.50096,0.1976,0.42282,-0.11123,-0.21874,-0.35703,0.20415,-0.081042,0.36805,0.46466,-0.30192,0.22327,-0.57666,-0.31335,0.24321,-0.026173,0.54435,-0.12042,-0.070846,-0.034507,0.0053497,0.24716,0.47325,-0.036318,-0.23646,-0.0092582,0.28462,0.28453,0.54315,-0.11406,0.11125,0.11742,-0.12603,0.31638,0.53832,-0.46012,0.20396,-0.54913,0.03805,0.17262,0.30209,-0.43469,0.17703,-0.12075,-0.317,-0.34481,0.22335,0.14957,0.16729,-0.55803,-0.069235,0.0066403,-0.45701,-0.18378,-0.49398,-0.044446,-0.42094,-0.14395,-0.15899,-0.036186,0.053005,-0.014699,0.22372,0.10929,0.55244,-0.040779,-0.21627,0.22665,0.30832,0.017315,0.34698,0.24398,0.50813,-0.12811,0.40072,-0.36002,-0.1932,-0.45514,0.02176,-0.026166,0.44016,-0.096448999999999993,0.41939,0.20699,0.59558,-0.1922,-0.096522,0.30148,0.3471,0.27918,-0.67658,0.16306,-0.024151,-0.080585,0.28276,0.18772,-0.27821,0.23002,-0.1396,-0.0051008,0.38246,-0.42375,0.20688,0.099888,-0.047183,-0.15773,-0.083786,0.41326,-0.17831,-0.072405,-0.38218,0.14683,-0.35142,-0.25832,0.57871,0.076475,-0.031228,0.1513,-0.50857,-0.21999,-0.13755,0.45101,-0.030277,0.48819,-0.21606,-0.20113,0.011267,0.048916,-0.33596,0.043322,-0.40085,0.031792,0.20317,-0.25094,-0.57463,0.18332,0.36225,-0.17302,-0.14513,-0.26294,0.7512,-0.24401,0.086735,-0.20789,0.24745,-0.11563,0.14122,0.072183,-0.55875,0.59391,-0.11675,0.41879,0.066539,-0.31748,-0.248,-0.28199,-0.30944,-0.49644,-0.014801,-0.28443,-0.091058,-0.35666,0.031801,-0.35363,-0.71096,-0.035829,-0.037633,-0.20784,-0.64115,0.0063149,0.12326,0.201,-0.13944,-0.029115,-0.0094594,-0.21232,0.3045,-0.10498,0.20071,-0.061045,-0.11149,-0.007262,0.16791,-0.23858,-0.12598,0.076904,-0.017946,-0.13172,-0.26184,0.35409,-0.6349,0.063679,-0.37726,0.37632,-0.16539,0.10421,0.21129,0.14694,0.16229,-0.049345,0.38502,-0.035184,0.11146,-0.042741,-0.28791,-0.36863,0.48022,0.57751,-0.23103,-0.38023,0.037595,0.16916,0.032098,-0.069149,-0.048595,0.1264,-0.092876,-0.084259,0.34476,-0.20558,0.42197,-0.25656,-0.11229,0.28121,-0.1013,0.2591,0.1472,-0.36775,-0.34852,-0.23852,-0.233,-0.076089,0.24398,-0.65277,-0.14104,0.019564,0.35029,0.19099,0.22368
dolphin,-0.36021,0.29442,-0.14671,0.33937,-0.17696,0.18096,-0.087079,-0.30067,-0.25906,-0.054959,0.054064,-0.0015692,-0.049,-0.28567,0.14842,-0.031891,-0.064424,-0.33868,-0.1842,-0.072868,0.067853,0.12031,-0.25249,-0.065229,-0.26949,0.055999,-0.070746,0.12452,0.17944,-0.035533,-0.11821,0.088138,-0.50671,-0.0012501,0.59094,0.15498,0.021542,-0.046869,-0.18897,-0.2223,-0.13043,-0.40699,0.23781,-0.14123,0.46601,0.013138,0.0088937,-0.072627,0.0467,-0.21916,0.18218,0.28624,0.028593,-0.17298,0.33628,0.3585,0.25611,0.18785,-0.15636,0.25865,-0.045504,0.013118,0.15094,-0.51987,-0.24847,-0.24446,0.16934,-0.075725,-0.34611,0.30973,0.12383,0.45812,0.14303,-0.26384,-0.14906,-0.38243,0.46299,0.54167,-0.05494,0.0011741,0.16149,-0.35873,0.21174,0.03647,-0.16486,-0.33321,-0.19281,0.76675,0.31231,-0.15028,0.083797,-0.42624,0.47591,0.014068,0.31738,0.19039,0.025719,0.12186,0.03141,0.04462,-0.61782,0.15529,-0.48753,-0.041957,-0.067349,0.041668,-0.11734,0.37142,0.22792,0.19159,-0.33197,-0.015257,0.05765,-0.31612,-0.10135,-0.68711,0.61046,0.15566,-0.24531,0.1362,-0.1889,-0.47823,0.21438,0.19251,0.37034,0.068168,0.17076,-0.021707,-0.11628,0.54914,-0.10363,0.15945,0.1773,0.11476,0.014977,0.18004,0.036856,-0.2516,-0.1021,0.41623,0.053946,-0.14548,0.44705,-0.076369,-0.093526,0.4414,0.14637,-0.20875,0.24172,-0.16133,0.19416,-0.42474,-0.55107,-0.2974,0.11342000000000001,-0.19105,-0.16164,0.19012,0.37142,-0.029436,0.34925,-0.013885,-0.072885,-0.055986,0.34111,0.063834,0.2733,0.14159,0.1863,0.50856,-0.15375,-0.032131,0.22156,-0.36886,0.28814,-0.054417,0.47757,0.0071478999999999996,-0.11188,-0.076335,-0.11798,0.026027,0.13299,-0.53368,-0.11318,0.38255,-0.55632,0.083298,-0.011987,0.51453,-0.02122,-0.054029,0.15142,0.26674,-0.12763,-0.36464,0.13589,0.10122,-0.072341,-0.22405,-0.20419,0.40601,-0.093948,0.13928,-0.23926,-0.38046,-0.1384,0.11471,0.48586,-0.36789,-0.13002,0.21865,0.18083,-0.43854,-0.084159,0.2543,0.26827,-0.30029,0.072899,-0.45883,-0.30694,0.39673,-0.080347,0.47278,-0.42678,0.011423,-0.3125,-0.15575,-0.24196,-0.23125,0.21265,-0.098019,-0.191,-0.51801,0.19667,0.21561,-0.2319,0.11368,-0.53317,0.27859,-0.089262,-0.25805,0.1616,0.12387,-0.11778,0.046011,0.03246,-0.018196,0.057433,0.022634,-0.065858,-0.76684,-0.21445,0.12388,-0.21624,0.15467,-0.0034018,0.2049,-0.092956,0.27629,0.31688,0.39695,-0.21173,-0.34057,-0.29207,-0.17347,-0.10832,0.43672,0.21596,-0.12745,0.13995,0.21536,0.16749,0.18304,-0.21972,0.11833,0.54834,0.18311,0.17955,-0.039615,0.60257,0.092888,0.13256,0.41589,0.32218,0.0040498,0.36977,0.19789,-0.42324,-0.36511,-0.85838,-0.19305,0.27841,0.26007,0.1503,-0.16563,-0.49732,0.3105,0.21191,0.018129
