target_word,V2,V3,V4,V5,V6,V7,V8,V9,V10,V11,V12,V13,V14,V15,V16,V17,V18,V19,V20,V21,V22,V23,V24,V25,V26,V27,V28,V29,V30,V31,V32,V33,V34,V35,V36,V37,V38,V39,V40,V41,V42,V43,V44,V45,V46,V47,V48,V49,V50,V51,V52,V53,V54,V55,V56,V57,V58,V59,V60,V61,V62,V63,V64,V65,V66,V67,V68,V69,V70,V71,V72,V73,V74,V75,V76,V77,V78,V79,V80,V81,V82,V83,V84,V85,V86,V87,V88,V89,V90,V91,V92,V93,V94,V95,V96,V97,V98,V99,V100,V101,V102,V103,V104,V105,V106,V107,V108,V109,V110,V111,V112,V113,V114,V115,V116,V117,V118,V119,V120,V121,V122,V123,V124,V125,V126,V127,V128,V129,V130,V131,V132,V133,V134,V135,V136,V137,V138,V139,V140,V141,V142,V143,V144,V145,V146,V147,V148,V149,V150,V151,V152,V153,V154,V155,V156,V157,V158,V159,V160,V161,V162,V163,V164,V165,V166,V167,V168,V169,V170,V171,V172,V173,V174,V175,V176,V177,V178,V179,V180,V181,V182,V183,V184,V185,V186,V187,V188,V189,V190,V191,V192,V193,V194,V195,V196,V197,V198,V199,V200,V201,V202,V203,V204,V205,V206,V207,V208,V209,V210,V211,V212,V213,V214,V215,V216,V217,V218,V219,V220,V221,V222,V223,V224,V225,V226,V227,V228,V229,V230,V231,V232,V233,V234,V235,V236,V237,V238,V239,V240,V241,V242,V243,V244,V245,V246,V247,V248,V249,V250,V251,V252,V253,V254,V255,V256,V257,V258,V259,V260,V261,V262,V263,V264,V265,V266,V267,V268,V269,V270,V271,V272,V273,V274,V275,V276,V277,V278,V279,V280,V281,V282,V283,V284,V285,V286,V287,V288,V289,V290,V291,V292,V293,V294,V295,V296,V297,V298,V299,V300,V301
light,-0.14523,0.13647,0.42869,-0.15241,0.61311,-0.068528,-0.15343,-0.088077,0.14435,-0.0090152,-0.10003,0.03979,0.33817,0.062419,0.19482,-0.32433,0.48231,0.034725,0.05294,-0.25979,-0.36316,-0.14317,-0.2642,-0.20598,0.23085,0.14648,-0.41093,0.27708,-0.1363,-0.33215,0.21048,0.030455,0.24556,0.090495,0.097892,-0.021064,-0.11363,-0.17455,-0.03957,0.51195,-0.062662,0.023981,0.29896,-0.17031,-0.0086219,0.26707,0.012058,-0.35709,-0.51429,0.01062,0.045022,-0.17465,0.50202,-0.22635,-0.56173,-0.013075,-0.2396,-0.10987,0.15507,0.068362,0.0025112,-0.20367,0.19293,0.086947,-0.033625,0.024536,-0.39694,0.11971,0.37817,0.18397,-0.0037839,-0.14416,0.1759,0.0048713,-0.36413,-0.064483,0.15561,-0.0069667,-0.34584,-0.14644,-0.0072923,-0.01437,-0.37771,-0.087864,-0.0051392,0.030861,-0.068003,0.16128,0.069412,-0.35313,-0.55793,0.023653,-0.11626,-0.13825,-0.2751,-0.37131,0.047424,-0.15418,-0.25225,-0.1404,-0.10323,0.14126,0.033504,-0.052241,-0.091964,-0.15201,0.32456,-0.32367,0.35066,0.22702,0.075723,-0.49651,-0.34348,-0.2656,0.23854,-0.26011,-0.039085,-0.05411,-0.099385,-0.12233,0.22056,0.20902,-0.034419,0.086412,-0.4655,-0.091356,0.3555,-0.24902,-0.0064413,-0.21506,-0.18547,0.13479,0.36699,0.20519,0.030245,0.019862,-0.31468,-0.11471,-0.18486,-0.24627,-0.15082,0.062002,-0.25195,-0.37255,-0.25221,0.32271,0.12369,0.30641,-0.34896,-0.14987,-0.48774,-0.062043,0.34146,0.29705,-0.022323,0.0091622,0.19906,-0.48146,0.072235,0.1268,-0.25736,-0.11544,0.37177,0.1806,0.34758,0.4631,-0.24357,0.037069,-0.26427,-0.12153,-0.10541,0.29515,-0.07913,0.060421,-0.095026,0.32765,0.23608,6.2027e-4,-0.07121,0.086521,-0.0052932,-4.7156e-4,-0.076974,-0.034006,-0.040587,0.35725,-0.10162,-0.16343,0.044326,0.27755,0.13561,-0.33082,0.22264,0.035794,0.036189,0.18124,0.48887,-0.18123,0.0056439,0.41393,0.08274,-0.066417,-0.006887,0.022484,-0.11439,-0.041848,-0.071667,0.19365,-0.16035,0.33146,0.090862,-0.52928,-0.25861,0.30591,-0.63569,0.38852,0.3136,-0.23279,-0.12195,0.042937,-0.0073687,-0.28599,0.43607,0.069018,-0.078149,-0.29958,0.046485,-0.088818,0.21794,0.26886,0.022816,0.54756,-0.12092,-0.15099,0.021678,-0.37657,-0.31156,0.26076,0.26872,-0.69897,-0.15464,-0.51776,-0.13359,-0.10494,-0.17254,-0.17511,0.50851,-0.2649,0.45314,-0.058599,-0.18223,-0.26245,-0.28509,0.16565,0.076381,-0.18895,0.034295,0.0030983,-0.20145,-0.20652,-0.25544,-0.22221,0.35478,0.12186,0.099761,0.027483,-0.23212,0.0813,0.18881,0.025563,0.43266,0.16147,0.043022,-0.48771,0.29349,0.082683,0.25903,-0.18897,0.47652,-0.078123,0.19612,0.055794,-0.062404,-0.087936,0.16907,0.030398,0.35944,0.0038741,0.35282,0.49045,-0.12561,-0.18015,0.31066,-0.13577,0.10963,0.031201,0.053736,-0.18473,0.36064,-0.098341
black,-0.17111,0.41105,0.31278,-0.059321,0.595,0.41698,0.19795,-0.21684,0.035838,-0.22275,0.11065,-0.20066,-1.4689e-4,0.10089,-0.26482,0.088207,0.044129,-0.16986,0.55178,-0.2745,0.037581,0.35903,0.22895,0.14885,-0.091062,0.016246,-0.4151,-0.077987,-0.38247,-0.5799,0.16424,-0.0079441,0.40428,-0.053195,0.28956,-0.1247,0.16767,-0.2429,-0.11892,0.47852,-0.032642,0.080004,0.062463,0.18367,0.14095,-0.050653,0.25608,-0.20714,-0.16544,-0.20419,-0.19093,0.21763,0.28771,-0.03788,-0.26778,-0.023721,-0.18036,0.13083,0.033672,-0.17515,-0.026948,-0.13551,-0.097235,-0.26311,0.034409,-0.15259,-0.24675,0.15877,-0.15006,-0.096974,0.30682,-0.12119,0.15918,0.18152,-0.43691,-0.10766,-0.15628,0.44454,-0.19506,-0.057366,0.34894,0.063113,-0.33669,0.065559,0.10297,0.30129,0.10676,-0.27863,0.16267,0.11423,-0.43716,-0.24104,-0.14495,-0.07057,-0.13981,-0.092208,-0.21929,-0.19289,0.10121,-0.25972,-0.23174,0.17232,0.50862,-0.20614,0.41936,0.17406,-0.0044733,-0.34304,0.16355,-0.090019,0.23716,0.006457,-0.25503,-0.11757,0.151,-0.067924,0.10139,-0.34935,-0.15535,0.04183,-0.041395,-0.016816,0.080473,0.21338,-0.17012,0.32078,0.42831,-0.050257,0.13629,0.23225,0.10808,-0.0030721,-0.11074,-0.32524,-0.036559,-0.28316,0.13978,0.42899,0.094336,-0.18764,0.26018,0.094391,-0.0033926,0.23343,0.20651,0.12611,0.040644,0.52729,-0.021334,0.23721,0.18246,-0.050706,-0.059604,0.1431,-0.10621,0.48197,-0.056557,-0.14122,0.22523,0.076344,-0.21468,-0.14995,0.026899,-0.015188,0.068749,0.24149,-0.34965,-0.17554,-0.61149,-0.17992,0.10422,0.51072,0.33469,-0.24559,0.062615,0.014262,0.15759,-0.14012,-0.2908,0.096848,-0.38299,-0.01091,-0.0028502000000000002,0.027609,-0.11797,0.21843,0.33343,0.29634,0.18183,-0.096722,0.25297,0.38696,0.51529,0.056389,0.31933,0.22012,0.37496,0.20369,0.016386,0.39225,0.14629,-0.2633,-0.23012,-0.21748,-0.027099,0.17189,0.10461,-0.046828,-0.050427,0.19793,-0.20135,-0.4149,-0.16164,0.10385,-0.21001,0.17165,0.36387,-0.1455,-0.37621,-0.016392,0.24233,-0.14461,0.24194,-0.31448,-0.12701,-0.058157,-0.26651,0.10737,0.10607,0.044486,-0.16546,0.1406,0.13972,0.0064993,-0.13545,0.14104,-0.02421,0.014011,0.04109,-0.016593,-0.22555,-0.07557,0.038026,0.20631,-0.088243,-0.11799,0.14909,-0.68307,-0.1405,0.2545,0.03951,-0.072863,0.038824,0.10727,0.22342,-0.37085,-0.23887,0.18016,0.04052,0.204,-0.14458,-0.25317,0.22156,-0.18703,0.0411,-0.088862,0.067214,0.10628,0.13291,0.034583,0.18066,0.28302,-0.078891,-0.73059,0.3151,-9.9689e-5,-0.033167,-0.2925,0.19036,-0.29255,0.32043,-0.038898,-0.31388,0.15091,0.063185,0.11704,-0.19631,-0.12741,-0.18969,0.23226,0.40087,0.079117,0.41028,0.028438,-0.15183,0.020186,-0.30436,-0.12233,0.19771,-0.34541
white,0.090485,0.44881,0.40771,-0.2427,0.47322,0.10168,0.21084,-0.17675,0.37275,-0.13,0.0017895,-0.14004,0.12284,0.35446,-0.19587,0.11617,-0.33263,-0.22188,0.31532,-0.3361,-0.19849,0.47937,0.2252,0.10519,-0.17606,-0.001885,-0.41291,-0.065022,-0.28973,-0.4673,-0.068487,0.13334,0.51184,-0.3578,-0.051722,-0.25714,-0.069511,0.077163,0.13313,0.25729,0.0097362,0.098014,0.16808,0.17347,-0.23865,0.067769,0.12846,-0.10994,-0.19344,-0.23826,-0.097493,0.14825,0.29457,0.0066032,-0.25558,-0.034012,-0.41146,-0.25582,0.14825,0.013042,-0.18634,-0.30727,-0.30095,-0.21577,0.14004,-0.08459,-0.35068,0.085053,-0.22584,-0.026845,0.5546,0.11339,1.3528e-4,0.065086,-0.31852,-0.12306,-0.30293,0.29671,-0.033282,-0.078368,0.25067,0.02238,-0.25949,-0.047755,0.084183,0.087756,0.0022688,-0.32046,0.47209,-0.020547,-0.31985,-0.19308,-0.14618,0.18445,-0.3782,0.14098,-0.4836,-0.082075,0.27123,-0.10072,-0.31241,0.033416,0.2277,-0.25741000000000003,0.43355,0.36637,0.083976,0.0068673,-0.069526,-0.14752,0.1891,-0.18129,-0.45124,-0.12019,0.12212,0.056821,0.059052,-0.26541,-0.026327,-0.02776,0.014263,-0.0095616,-0.10967,0.25556,0.026062,0.20236,0.50266,-0.15372,-0.12548,0.0833,0.29173,-0.066049,-0.1354,-0.26789,0.023089,-0.16589,0.24358,0.13001,0.18549,-0.19547,-0.17288,0.017346,-0.18772,0.29685,0.29329,0.11253,0.10284,0.43707,-0.16211,0.22817,0.18037,0.13076,0.15765,0.062238,0.23324,0.38762,-0.19032,-0.16017,-0.032792,0.030516,-0.27045,-0.24325,-0.095089,-0.0011144,0.38748,0.12369,-0.44884,-0.15901,-0.58969,-0.17986,0.097467,0.065551,0.23872,-0.1429,0.32189,0.10555,-0.080181,-0.0047994,-0.23935,-0.031133,-0.073291,0.18703,0.055553,0.15641,-0.10778,0.14858,0.4673,0.20331,0.25576,0.045449,0.16205,-0.045097,0.59686,0.085523,0.33045,0.30669,0.22057,-0.025904,-0.18702,0.2411,-0.0013719,-0.18871,0.056543,-0.1817,-0.10948,0.035791,0.15642,0.32509,-0.12973,0.24078,-0.20905,-0.19549,-0.35566,0.12659,-0.29614,0.12992,0.55272,-0.24517,-0.17031,-0.096999,0.11362,-0.075012,0.22333,0.049126,-0.093022,-0.066099,-0.29467,0.05914,0.21727,0.15286,-0.47071,0.020655,0.35157,-0.065288,-0.13662,-0.055372,-0.11018,0.15261,-0.033631,-0.20075,-0.0071969,-0.029986,0.020559,0.11493,-0.18274,0.012385,0.16003,-0.33598,0.31337,0.46236,0.036115,-0.16068,0.14233,-0.18747,-0.039034,-0.27474,-0.24629,0.10709,0.1516,0.094013,-0.0015312,-0.2295,0.22253,0.11658,-0.007036,-0.14571,-0.088552,-0.070281,0.39109,0.070486,0.53901,0.2511,0.11462,-0.35587,0.57798,0.096748,0.083521,-0.1877,0.20475,-0.028706,0.26812,0.12693,-0.15477,0.0089895,0.42035,0.29563,-0.13695,-0.3109,-0.27635,0.33811,0.42182,0.015065,0.47845,0.04069,-0.026885,-0.20611,-0.35181,-0.18956,0.1194,-0.15025
red,-0.43155,0.14461,0.54633,-0.09994,0.65186,-0.14602,0.29243,-0.19296,0.20946,-0.32669,-0.42043,-0.13075,0.26302,0.30706,0.06804,0.11264,0.2517,-0.14212,0.50394,-0.29588,-0.27529,0.32736,0.34888,-0.022309,0.29632,0.27425,-0.75526,0.26172,-0.084544,-0.20969,-0.031016,0.079561,0.63209,-0.1228,-0.2433,0.066292,0.06808,0.10887,-0.036937,0.3022,-0.58734,-0.033044,-0.1741,-0.27279,-0.044595,0.13838,-0.17183,0.033384,-0.18998,0.0072504,-0.39767,0.27746,0.26345,0.10194,0.0497,-0.30524,-0.45065,-0.13502,0.11691,0.039759,-0.44858,-0.46429,-0.31028,-0.15974,0.56347,0.267,0.20631,0.11364,-0.30139,0.17849,0.23869,-0.17486,-0.12356,0.10527,-0.28338,-0.17722,-0.41358,0.311,-0.0012967,-0.17105,0.40531,-0.36656,-0.51253,-0.54134,0.10882,0.39333,-0.10627,-0.16092,0.11925,0.2516,-0.26077,0.42839,0.047262,-0.053958,0.27669,0.081136,-0.13978,0.056937,-0.052126,-0.049403,-0.12535,0.25875,0.50597,0.1051,0.36394,0.38436,0.099185,-0.18931,0.10845,-0.24489,0.19493,0.18103,-0.45263,-0.3016,0.28527,-0.046931,-0.06503,-0.2682,0.014793,-0.17788,0.58912,0.25921,-0.40876,0.39127,-0.068259,0.29716,0.31533,-0.075445,-0.29555,0.080643,0.010546,0.12964,-0.14294,-0.014662,-0.1459,-0.40822,0.17146,0.19658,-0.096015,0.17358,-0.033151,-0.1915,0.17429,0.18611,0.022906,0.068269,0.25666,0.30739,-0.75411,0.26826,0.12412,-0.053779,0.11638,0.2919,-0.013076,0.22483,-0.090884,-0.15204,0.081606,-0.27048,-0.072519,0.094956,-0.14132,0.11307,-0.1899,0.17423,-0.43706,-0.083155,-0.38191,0.048681,0.014961,-0.12632,0.40995,0.0020957,0.62658,0.32822,0.044228,-0.35204,0.2759,0.084086,-0.055803,0.26969,0.35002,0.46343,-0.084932,0.42565,0.29601,-0.16648,-0.051576,-0.0030771,0.37592,-0.3413,0.45287,0.46365,0.32487,0.20384,0.1365,0.042129,-0.07698,0.42498,0.041478,-0.37155,-0.30505,-0.015068,0.048777,0.11888,0.013438,0.32626,0.23393,0.10962,-0.11731,-0.65491,-0.27622,0.26459,-0.32835,0.25862,0.24595,0.17525,0.054949,-0.22833,0.027878,-0.010916,0.33489,0.33696,-0.22162,-0.28808,-0.30733,0.23309,0.48816,0.25083,-0.3541,-0.02444,0.17765,0.14426,-0.049184,0.17216,0.10766,0.068047,-0.19778,-0.36559,-0.34056,0.040236,-0.26293,0.31992,-0.70863,-0.045662,0.42151,-0.36903,0.5094,-0.046458,-0.43399,-0.42411,-0.011516,-0.32602,0.072642,-0.55944,-0.14441,0.31571,-0.024566,-0.24413,0.087614,0.33747,0.48015,0.10049,0.56368,0.12847,0.22518,-0.40265,0.57537,0.19734,0.57353,0.21031,0.065707,-0.78174,0.3661,0.38751,-0.2605,-0.034302,-0.088587,-0.031074,0.52387,0.46577,-0.20811,-0.10506,0.44415,0.073155,-0.043531,-0.10158,-0.022784,0.25155,0.11945,-0.070873,0.54009,0.1878,0.40747,0.61642,-0.5046,-0.25902,0.49229,0.058013
dark,-0.46976,0.19226,0.60553,-0.19163,0.55588,0.089314,-0.026196,-0.36377,-0.14052,-0.16964,0.029085,-0.24873,0.22209,0.22267,-0.21545,-0.30125999999999997,0.35973,-0.087147,0.16424,-0.22485,-0.05499,0.025825,0.088753,-0.30941,-0.11415,0.0071173,-0.043102,-0.19161,-0.075226,-0.64694,0.039161,-0.058887,0.24578,0.083587,0.21776,0.16944,-0.12032,-0.19092,0.01925,0.5834,0.044748,0.11579,0.12294,-0.19764,0.15822,0.15399,0.29458,-0.04826,-0.36729,-0.023075,0.09828,0.18466,0.20929,-0.10966,-0.31966,-0.2008,0.0478,-0.20735,0.27045,-0.25236,-0.043008,-0.26182,0.039271,0.033784,0.24742,-0.30918,-0.12852,0.24482,0.29486,0.09159,0.14706,0.19066,0.11352,0.023525,-0.37427,0.023364,-0.31982,0.105,-0.26209,-0.11738,-0.0028339,-0.06749,-0.15062999999999999,0.25108,-0.21948,0.034761,-0.12344,-0.29246,-0.033165,-0.032348,-0.58181,-0.12895,0.11179,-0.27713,-0.45792,-0.64813,-0.066732,-0.39914,0.12792,0.16697,-0.26614,-0.23156,0.1016,-0.30472,0.10209,-0.15073,0.26051,-0.40013,0.07712,0.23685,-0.046163,-0.20085,-0.12942,-0.26483,-0.23659,-0.32633,-0.039696,-0.38013,-0.16433,0.070049,-0.042737,0.039478,0.38112,-0.01462,-0.098841,-0.37501,0.29106,-0.15665,0.020992,-0.15481,0.28178,-0.11012,0.1295,-0.16779,0.085175,-0.16089,-0.11612,0.024376,0.015318,-0.13077,0.18171,0.11808,0.084135,0.063273,-0.12905,0.34692,0.42846,0.2956,-0.077706,-0.09844,-0.38062,-0.16004,0.31555,0.061893,0.072494,0.1499,-0.096552,-0.36692,0.30368,0.2038,-0.035807,-0.13229,0.2243,-0.025006,-0.15078,0.18907,-0.16999,-0.13841,-0.2392,-0.38818,-0.23721,0.35987,0.22531,-0.23722,-0.33993,0.11727,0.15139,-0.030993,-0.33563,0.0071907,-0.12827,-0.0302,-0.19109,-0.015117,0.037062,0.25635,0.048232,0.085525,0.3147,0.1554,0.045002,0.050821,0.47926,0.26335,0.0016813,0.30069,0.33657,-0.098337,-0.1376,0.28842,0.1041,-0.29794,0.16411,-0.39884,0.25631,-0.13727,0.056728,0.15889,-0.26405,0.25496,0.15557000000000001,-0.39406,-0.10478,0.34044,-0.30716,-0.13842,0.39693,-0.45718,-0.34456,-0.0029387,0.16391,-0.25338,0.5861,-0.21389,-0.047811,-0.53341,-0.17314,-0.35656,0.14347,0.10013,0.17802,0.69713,-0.21596,-0.046095,-0.14459,0.34904,0.0060909,0.16469,0.4289,-0.42445,-0.13504,-0.066951,-0.43292,0.31107,-0.019149,-0.17026,0.020101,-0.50959,0.11769,0.3691,-0.4051,-0.25419,-0.057114,-0.13505,0.36522,-0.15674,0.092206,0.64687,-0.062675,0.024582,-0.1725,-0.37711,0.24897,-0.063357,-0.061852,0.001247,-0.10935,7.8249e-4,-0.072262,-5.5245e-4,0.15798,0.45117,-0.19156,-0.56398,0.15259,0.097686,-0.048653,-0.18536,0.18969,-0.11475,0.47548,-0.085065,-0.21391,0.11818,0.13238,0.021519,-0.21729,-0.34858,0.18106,-0.19419,0.36537,0.13372,0.22132,-0.16031,-9.0303e-4,0.046905,-0.21312999999999999,0.45322,0.37529,-0.15143
blue,-0.28886,0.26061,0.49051,-0.12243,0.19054,-0.14641,0.22187,-0.31673,0.30691,-0.24685000000000001,-0.56512,-0.28837,0.26884,0.28792,0.27593,0.22581,0.0081236,-0.10961,0.16962,-0.31653,0.026958,0.099539,0.21819,0.042073,-0.12869,0.04603,-0.35168,0.058465,0.21755,-0.74053,0.10697,-0.0023995,0.051325,-0.18357,0.091203,-0.38815,0.067285,-0.13456,0.079119,0.19595,-0.28821,0.094199,0.21744,0.028898,-0.02246,0.15289,0.1826,-0.17241,-0.25006,0.019498,-0.20814,0.0049571,-0.01254,0.19019,-0.30577,-0.27186,-0.20812,-0.18156,-0.049767,0.085605,0.10649,-0.27179,-0.12466000000000001,-0.14948,0.1872,-0.11415,0.095322,0.030097,-0.082005,0.038708,0.35364,0.3122,0.29369,0.059688,-0.021425,-0.20373,-0.20498,0.32978,-0.10093,-0.079225,0.15711,-0.2213,-0.32828,0.10716,-0.24403,0.23602,-0.263,0.14423,0.13479,0.33722,-0.62231,0.058041,0.12606,0.040189,-0.11981,0.083071999999999993,-0.14497,-0.044455,-0.35531,0.022019,-0.22685,0.087915,0.58779,-0.32746,0.26072,0.12526,0.19025,0.018673,0.36146,-0.0081113,0.15435,0.099527,-0.41075,0.057783,0.094952,-0.4241,0.2174,-0.39013,0.020821,0.13066,0.039559,0.094587,-0.37646,0.31647,0.082894,0.41619,0.29643,-0.17754,6.0102e-4,-0.0037365,0.045396,-0.12745,-0.14361,-0.4165,-0.032382,-0.31977,0.35324,0.23199,-0.24969,-0.051172,-0.01674,0.19279,-0.17551,0.12727,0.21571,0.059559,0.2546,0.55187,-0.083614,0.38929,0.12866,0.016939,0.34406,0.13463,0.090723,0.50417,0.039284,0.11024,-0.024083,-0.16887,-0.12177,0.065599,-0.12977,0.42434,0.17095,-0.21736,-0.56417,0.039269,-0.28505,-0.1371,-0.10102,0.31124,0.25058,-0.10207,-0.027955,0.11416,0.098661,-0.29778,-0.038911,0.022382,0.12309,0.38704,0.2924,0.25223,0.10389,0.13225,0.35652,0.20221,0.14646,-0.22218,0.31196,-0.11114,0.52755,0.032393,0.15043,-0.17763,0.088936,0.18638,-0.093929,0.40807,0.21104,-0.13882,0.053936,-0.14794,4.0068e-4,0.10943,0.092812,-0.15895,-0.16277,0.29881,-0.053142,-0.45174,-0.15751,0.11854,-0.63552,-0.028747,0.49252,-0.40213,-0.23798,0.058573,0.30363,-0.063268,0.37781,-0.18577,-0.12495,-0.65417,0.18318,0.18408,0.23208,0.44343,0.0074663,0.23407,-0.05497,0.025398,0.074967,0.0086741,-0.10268,-0.010615,0.24586,-0.46722,-0.14177,0.047698,-0.083506,0.28338,-0.6688,-0.15818,0.14059,-0.24005,0.41731,0.054614,-0.37771,-0.20071,0.032503,-0.26192,0.1835,-0.10933,0.16704,0.189,-0.11674,0.0049292,0.039841,-0.18051,0.35786,0.016659,0.057612,0.19906,0.010519,-0.16283,0.37246,0.028099,0.35418,0.37409,-0.084808,-0.4826,0.26464,0.11806,-0.085148,-0.021797,0.10995,-0.077058,0.42891,0.095605,-0.30262,0.060164,0.15533,-0.14311,-0.19736,0.14573,-0.12369,0.18274,0.44024,-0.20362,0.42469,0.092364,0.29358,-0.054004,-0.38373,0.14514,0.21877,0.12529
gold,-0.080333,0.19906,0.22733,-0.22998,0.083095,0.1598,0.44421,-0.11911,0.13751,-0.17281,-0.024706,-0.12909,0.23945,0.59053,-0.040197,0.075528,0.12863,-0.22878,-0.021409,-0.23869,-0.15857,0.14807,-0.26033,0.35298,0.33686,0.061663,-0.25701,-0.29855,0.089182,-0.61589,0.23173,-0.64374,0.11139,-0.27636,0.22034,-0.25525,0.19633,0.011705,-0.068787,-0.17738,-0.20575,0.5374,0.10842,-0.16078,0.09479,-0.20476,0.044009,0.019052,0.19394,0.12917,0.074002,-0.077309,0.13307,0.028428,0.042486,-0.4325,-0.20752,0.21933,-0.064868,0.18993,-0.07548,-0.28209,0.10413,-0.018355,0.19406,0.04286,0.17076,0.16755,-0.10306,0.11127,0.042371,0.063814,-0.033292,0.035781,0.010694,-0.41274,-0.049495,0.66087,-0.25914,-0.57735,0.27184,0.043365,-0.056255,-0.16594,0.050402,0.049599,0.17033,0.074858,-0.022271,0.25576,-0.10692,-0.058027,-0.47671,-0.13003,0.038533,0.33364,-0.2586,-0.24411,-0.066555,0.020457,-0.49214,0.025839,0.23298,-0.31646,-0.035725,-0.076777,-0.15423,-0.56814,-0.0098214,-0.052542,-0.35898,-0.18267,-0.41426,0.049903,0.20522,-0.29949,-0.0050401,-0.46736,-0.11219,0.10768,0.12726,-0.18955,-0.2256,0.3049,-0.029113,0.1228,0.60114,-0.29338,-0.012642,0.29904,-0.2134,-0.043467,0.12048,-0.36896,0.45028,0.018025,0.27538,-0.4337,-0.21427,-0.29012,-0.1294,-0.035129,-0.32189,0.43219,0.31671,0.15903,0.36439,0.1581,-0.15264,-0.19119,-0.12411,-0.1876,-0.10029,-0.0086635,-0.33842,0.39463,-0.17954,0.20461,-0.11728,-0.039905,-0.087239,-0.21822,0.097227,0.10462,-0.055072,0.2017,-0.26808,-0.12201,-0.15538,0.13463,0.046574,0.5692,0.29333,0.17121,-0.32688,0.59359,0.092082,0.044076,-0.14685,0.071045,0.27018,0.31335,-0.21955,0.32897,0.0012329,0.055292,0.56266,-0.44661,0.12859,-0.79827,-0.15918,-0.20393,0.52538,-0.1616,0.17608,-0.15936,0.25986,-0.41065,0.18348,-0.024674,-0.047311,-0.013326,0.036404,-0.333,-0.2556,0.0078859,0.17498,0.14905,-0.035371,0.088632,0.24709,-0.1272,-0.059628,0.30083,-0.41801,0.40519,0.14754,-0.12902,0.10153,-0.23568,0.37302,-0.36943,0.35092,-0.1096,0.084987,-0.0076593,-0.19001,0.26789,-0.12224,-0.025965,-0.12527,0.22012,0.10111,0.12275,-0.3612,-0.11015,0.082112,-0.095917,0.25533,-0.035132,-0.29089,-0.35795,-0.20959,-0.067793,-0.22367,0.18521,0.26748,-0.79263,0.12962,0.32917,0.017754,-0.5808,-0.044652,-0.14034,0.16036,-0.2226,0.01876,-0.10779,-0.25779,0.14016,-0.055397,0.0021546,-0.05363,0.18715,-0.039887,0.26734,-8.8294e-4,0.23531,0.33881,-0.17662,0.12647,0.20473,0.0011832,-0.16223,0.18979,-0.38953,0.023128,-0.075522,0.16251,-0.14798,0.19511,-0.13668,-0.28899,0.341,0.37184,-0.1479,-0.046834,-0.14274,0.082234,0.06817,0.24878,0.049672,-0.088961,-0.38149,0.32027,0.26946,-0.089499,-0.12167,0.54106,-0.062007
brown,-0.40794,-0.063566,0.32713,-0.055343,0.43146,0.066854,0.16922,-0.32566,0.13924,-0.068324,-0.17492,-0.0092121,0.18662,0.18744,-0.080685,0.18535,-0.077354,0.29674,0.29733,-0.17717,-0.0058385,0.41393,0.21314,0.20297,-0.088706,0.32368,-0.44763,0.054699,-0.033728,-0.47516,-0.11006,0.047009,0.41067,-0.40812,-0.17559,-0.21204,-0.0080817,-0.047499,0.19216,0.63747,-0.19922,0.33983,0.14024,0.17639,-0.23746,-0.18229,0.32036,-0.2479,-0.21539,0.4086,0.0062705,0.16368,0.33172,-0.26868,-0.14727,0.13883,-0.085738,-0.29347,-0.062036,-0.022511,0.17464,-0.28073,0.28601,-0.074269,-0.0019283,-0.030347,-0.18012,-0.12747,0.13218,-0.15441,0.10239,0.0028654,-0.026395,-0.073532,0.13724,-0.034097,-0.41093,0.38744,-0.05667,-0.35026,0.19533,-0.067601,-0.41079,-0.17856,-0.32104,0.6696,-0.31721,-0.20873,0.35858,-0.078431,-0.40194,-0.37144,0.12484,-0.24808,-0.085939,0.021684,-0.0039116,0.068375,-0.19702,0.3323,-0.23985,0.030519,0.27399,-0.28713,0.26638,0.11494,0.27837,-0.11678,0.04745,-0.16847,0.27514,-0.19197,-0.18085,0.13996,-0.12604,-0.048516,0.48361,-0.040392,0.15602,-0.18521,0.17974,0.14431,0.22005,0.24224,0.11277,0.053243,0.44672,-0.20037,0.16703,-0.15755,-0.12403,-0.042396,-0.084888,-0.3517,-0.39039,0.039707,0.1062,0.046718,-0.039708,-0.21392,0.18689,0.16531,-0.0063979,0.14125,0.0080316,-0.10056,0.33481,0.66993,-0.43518,-0.06158,0.1352,-0.099355,0.3566,0.18761,-0.021239,0.33972,-0.20168,-0.43875,0.20398,-0.03412,-0.12524,-0.32772,-0.11513,0.27041,0.19864,-0.1324,-0.22759,-0.31376,-0.58547,-0.10056,0.1051,0.46011,0.043508,0.070427,0.065781,0.052008,0.069454,0.071622,-0.1922,0.12455,0.0067309,0.39269,0.25566,-0.0038752,-0.008861,0.23413,0.18079,-0.10667,-0.11681,0.02077,0.22116,0.009905,0.37599,0.32219,0.39727,0.49763,0.19473,0.052529,-0.13998,0.42991,0.11895,-0.45729,0.19228,-0.14946,-0.32307,0.10388,0.2391,0.065677,0.13189,0.24286,-0.42698,-0.30871,-0.23175,0.058316,-0.31576,0.20591,0.43938,-0.28559,-0.15066,-0.19019,-0.051367,-0.14151,-0.1211,-0.11861,-0.15821,-0.13943,-0.16718,0.10624,0.2417,0.35545,-0.75779,0.41409,0.024789,-0.2337,-0.083889,-0.039044,0.27089,-2.3487e-4,-0.099282,-0.19876,-0.065499,-0.077302,0.019893,0.30751,-0.16312,-0.23822,0.040663,-0.5107,0.69404,0.27155,0.037546,-0.30811,-0.16312,0.016817,-0.12267,-0.31933,-0.23397,0.19473,0.15646,0.12499,-0.14102,-0.069535,0.43673,0.19114,-0.13548,-0.1488,0.27277,0.0065754,0.023139,-0.30161,0.43871,0.36402,0.083106,-0.37389,0.094165,-0.17379,-0.070592,-0.25971,0.26468,-0.020909,0.29272,-0.028379,-0.33967,0.099844,0.06863,0.015841,0.15672,0.20005,0.026118,-0.12324,0.3433,0.094227,0.35483,0.048485,-0.12111,0.0015927,-0.43087,0.095114,0.37665,0.24409
pig,-0.47247,0.15534,0.39357,-0.37073,0.058693,0.334,-0.39037,-0.075925,-0.3032,0.2345,-0.27587,0.59616,-0.24622,0.25711,-0.51263,0.069082,-0.043918,-0.3958,0.19196,-0.26183,-0.090389,0.065352,0.23111,-0.513,0.33335,0.24668,-0.23643,-0.17676,-0.22606,-0.26146,-0.34215,-0.28214,-0.10122,0.30057,0.099816,0.28335,0.18998,0.33077,0.0036145,0.2515,-0.37451,0.52772,0.06279,0.044595,0.18209,-0.083969,0.319,0.36213,0.10528,-0.42303,0.0063595,0.2404,-0.018326,-0.38127,-0.13133,0.077977,-0.12972,-0.18326,0.0044687,0.067155,-0.2009,-0.27557,-0.10246,-0.082829,-0.36913,-0.036793,-0.21424,-0.045123,-0.11747,0.20449,-0.19692,-0.2876,0.012157,-0.18202,-0.16539,-0.11141,0.25897,0.18443,0.076657,-0.085595,-0.021552,-0.19052,-0.46183,0.36301,-0.30661,-0.29956,-0.0321,-0.18443,-0.010938,0.39938,-0.33754,-0.28175,0.20123,0.27416,0.13026,-0.41912,-0.05201,-0.060376,-0.16023,0.14829,-0.14926,-0.072607,0.28413,-0.15361,0.215,0.17946,0.14647,0.092156,-0.17429,-0.4974,0.12325,0.30712,0.063764,-0.16576,0.17975,-0.16083,-0.074811,-0.2067,0.40389,0.20612,-0.16496,0.444,-0.17331,0.39176,0.29032,-0.14406,0.23537,0.16757,0.20017,0.50336,-0.18451,0.20724,0.15267,-0.52601,-0.10985,0.29305,0.40614,0.11943,-0.0055244,-0.097347,0.013432,0.25484,-0.22529,-0.17792,0.62664,0.23996,-0.0687,0.60056,-0.13551,-0.33806,-0.17226,0.094017,0.26385,-0.16688,-0.12034,0.01888,-0.066707,0.14745,0.029551,-0.16627,-0.10822,-0.46455,-0.11766,0.057587,0.031821,0.06357,-0.34381,0.19272,-0.16954,-0.12438,-0.16814,0.094365,-0.022311,-0.33511,0.096405,0.03651,-0.026717,0.15742,-0.38443,-0.56674,0.10492,-0.056934,-0.087208,0.50534,0.27195,-0.020723,0.17869,-0.017103,-0.065162,0.10725,0.10786,0.21657,0.37616,-0.23118,0.099656,0.30115,0.30483,0.19709,-0.084107,0.20887,0.25446,-0.15229,0.091545,-0.056552,-0.32816,-0.091019,0.084618,-0.10127,-0.0045707,-0.024714,-0.30763,0.33576,0.30873,0.22269,-0.50609,0.34166,-0.17907,0.14277,-0.13249,0.17509,0.19674,0.11128,-0.026018,-0.15344,0.17597,-0.029988,0.15753,0.44078,-0.20984,0.48615,-0.041461,-0.13201,-0.10135,-0.042656,-0.20244,-0.21367,0.12575,0.28813,0.096851,0.10555,-0.31243,-0.15959,-0.19761,-0.12546,-0.028426,-5.5113e-4,-0.19379,-0.54864,0.16017,-0.2069,-0.26648,0.40162,-0.0023522,0.077683,0.34594,-0.1159,0.16556,0.025066,-0.25759,0.13884,-0.0039427,-0.097053,0.16439,0.37027,0.064093,-0.35211,0.19306,-0.097536,0.34038,-0.1383,0.10412,0.25381,0.026086,0.14094,0.18016,-0.44239,-0.039147,0.24744,0.16557,-0.19169,0.037767,-0.24944,-0.45353,0.18997,0.17203,0.21574,-0.17687,-0.16444,0.11991,-0.10078,-0.32081,0.045679,0.46102,-0.52901,-0.26594,-0.034226,0.11625,-0.23701,-0.089345,0.25943
bright,-0.16042,0.16914,0.73744,-0.57774,0.75854,-0.057381,0.34196,-0.20486,0.50531,0.020915,-0.031556,0.027113,0.099416,0.3093,0.28243,-0.18942,0.20971,0.031681,-0.21841,-0.0033145,-0.42339,-0.23649,0.13712,-0.093229,0.38568,0.16492,-0.059575,0.16229,0.09744,-0.52566,0.17724,-0.24986,0.49337,-0.34433,0.048857,-0.088006,-0.14196,0.20071,0.19149,0.73927,-0.2612,0.17118,0.16783,-0.078105,-0.16728,0.29061,0.20045,-0.39879,0.10882,-0.2777,-0.013524,0.34385,0.63271,0.29851,-0.50962,-0.40423,-0.10812,-0.11783,0.19706,0.35159,0.16052,-0.13221,-0.17593,-0.10813,0.23232,-0.091254,-0.16781,0.35064,0.15648,0.27228,0.099407,0.08147,0.29829,-0.11348,-0.29201,-0.22715,0.19956,-0.24575,-0.46514,-0.34134,-0.175,-0.1326,-0.24,-0.21216,0.26789,0.21145,0.093216,0.1661,0.062438,0.1814,-0.35035,0.18859,0.048125,-0.18258,-0.26414,-0.087361,-0.010844,-0.1486,-0.39162,0.26676,-0.47185,-0.13917,-0.17106,-0.33361,0.42714,0.043787,0.52942,-0.30721,0.054253,0.22813,0.13092,-0.3546,-0.17849,-0.163,0.054069,-0.35988,0.17565,-0.074356,-0.1453,0.27724,-0.02738,0.28034,0.0966,0.074973,-0.24983,0.091627,0.090205,-0.20758,-0.19063,-0.23199,-0.19975,0.19271,0.080113,0.20762,-0.023119,0.016856,-0.14147,0.20589,-0.26943,-0.27466,-0.23619,0.44904,0.016476,-0.11058,-0.17286,0.08672,0.52131,0.25919,-0.49048,0.39902,-0.28277,-0.044267,0.2988,0.35378,-0.016329,0.43984,0.01383,-0.065141,0.0029675,0.059726,0.11287,-0.43627,0.082599,0.25903,0.1297,0.09006,-0.47926,0.10474,-0.12216,0.30997,-0.078845,0.17593,0.26219,0.059687,-0.30504,0.16541,0.18439,-0.62329,-0.39446,-0.072346,-0.014733,-0.20266,-0.13475,0.421,-0.094541,0.25389,0.13674,-0.056948,-0.12781,0.41416,-0.0037744,-0.50112,0.060956,0.28072,-0.05086,0.34924,0.23457,-0.22939,-0.21912,0.38066,0.22516,-0.060056,0.42483,-0.48741,0.16535,-0.091482,-0.095505,0.09182,-0.11761,0.025547,-0.16435,-0.36827,-0.27663,0.094563,-0.45891,0.061207,0.39377,-0.052709,0.15541,-0.058995,0.20446,-0.28246,0.20849,-0.029591,0.11651,0.16933,0.25284,-0.13386,0.15866,0.61441,0.15815,0.60993,0.14768,-0.012189,-0.21144,-0.19112,-0.22228,0.075559,0.12685,-0.39715,-0.0058958,-0.252,-0.095614,0.10874,-0.16971,0.018828,0.18752,-0.28038,0.3692,-0.34026,-0.34295,-0.30411,-0.18736,0.30068,0.074972,-0.32302,-0.13247,-0.16406,-0.30035,0.28625,0.19977,0.071601,0.062824,0.20314,0.19996,-0.13317,-0.26809,-0.037103,0.084654,0.0636,0.095309,0.41469,-0.010901,-0.54561,0.33464,0.16398,0.12558,-0.28067,0.25639,-0.30529,0.10172,0.044967,-0.24014,0.078173,0.19768,-0.14952,-0.23491,0.32834,0.055009,-0.22906,0.40195,0.12461,0.26058,-0.14918,0.16667,0.087247,-0.56325,0.0060301,0.54853,-0.038292
yellow,-0.13571,-0.019656,0.50128,-0.31683,0.54199,-0.32527,0.085547,-0.48324,0.50863,0.0094791,-0.17488,-0.18448,0.29439,0.51323,0.01736,0.11034,0.075517,-0.27631,0.34278,-0.34021,-0.062676,0.35487,0.21569,-0.14398,0.41585,-0.19618,-0.3986,-0.13457,-0.15289,-0.42747,0.16058,0.072279,0.25917,-0.16763,-0.068995,-0.24612,0.18184,-0.045618,0.011629,0.3991,-0.32458,-0.10301,0.18753,-0.22943,-0.2046,0.26429,0.1457,-0.017343,0.17603,-0.12887,-0.28094,0.27417,0.011857,-0.036582,-0.27958,-0.19206,-0.31672,-0.097928,-0.09586,-0.14942,0.27398,-0.37158,-0.32012,-0.071588,0.20153,0.14655,0.052695,-0.094662,-0.16685,0.24354,0.31837,0.054386,0.3018,0.046711,-0.27602,0.20333,-0.12394,0.25254,-0.047184,-0.031075,0.30801,-0.1999,-0.11676,-0.12646,-0.15911,0.13794,-0.0061924,-0.069544,0.009847,0.22524,-0.43802,0.39204,-0.1141,-0.027321,-0.40151,0.012822,-0.12605,-0.0086514,-0.28249,-0.025532,0.087509,0.18556,0.64638,-0.27777,0.015211,-0.0744,0.090932,-0.18619,0.10389,-0.28577,0.082591,0.18774,-0.30526,-0.12673,0.35098,-0.41397,0.024176,-0.44929,0.04354,-0.040551,0.20873,0.11789,-0.030416,-0.1645,0.38025,0.26351,0.31357,0.24228,-0.041598,0.018493,-0.35637,-0.11553,-0.087171,-0.41568,-0.32475,-0.36087,-0.04768,0.013106,-0.35815,-0.10206,-0.056519,0.097903,-0.072357,0.19197,0.047122,0.28401,0.24566,0.34458,-0.38565,0.15195,0.25212,0.37474,0.26067,-0.014122,0.12274,0.4043,0.08846,0.23477,-0.10089,-0.14767,-0.11195,-0.30763,-0.064437,0.10128,-0.045363,0.026299,-0.51155,0.05274,-0.41305,0.030688,-0.20667,0.21914,0.047858,-0.31169,0.085953,0.18922,-0.20021,0.011105,-0.16491,0.13427,0.053047,0.60192,0.01064,0.38836,-0.0162,0.01611,0.57674,0.12197,0.030456,-0.12879,0.21636,0.064171,0.6235,-0.044895,0.27828,-0.17371,0.2566,0.16327,-0.042491,0.57366,-0.033962,-0.26838,-0.050676,-0.35872,-0.048267,0.11744,0.26888,-0.020808,-0.018309,0.042538,-0.12615,-0.34261,-0.21399,0.097032,-0.52571,0.0183,-0.048594,-0.20188,-0.12377,-0.24212,0.15203,0.1186,0.18715,-0.060506,-0.15335,-0.14554,0.24263,0.27313,0.46189,0.044589,-0.28662,0.49334,0.0089709,-0.27738,-0.085396,0.035452,-0.14272,0.0097325,-0.011095,-0.4281,0.1464,-0.018015,0.063979,0.07652,-0.46887,0.071948,0.12549,-0.28692,0.36568,0.084485,-0.54629,-0.22043,-0.32912,-0.20894,-0.044525,-0.31925,-0.2562,0.021203,-0.17456,0.26981,-0.032146,-0.12977,0.3349,0.15945,0.065426,-0.067643,0.34396,-0.037579,0.3596,0.17877,0.21104,0.25641,0.23728,-0.5598,0.47507,0.050569,-0.047003,-0.20527,-0.080631,-0.27074,0.24725,0.076836,-0.16264,0.025873,0.072631,0.31445,-0.33351,-0.050196,0.048729,0.24394,0.23993,0.065082,0.53158,-0.036574,0.21255,0.36789,-0.54949,0.16171,0.45096,0.055882
pink,-0.22834,0.16047,0.55002,-0.40274,0.46317,-0.10873,0.19692,0.0435,0.275,-0.12241,-0.40005,-0.29356,0.087526,0.27145,0.20146,0.44969,0.032783,-0.35866,0.2808,-0.5255,-0.088775,0.51381,0.28531,0.059022,0.31272,-0.17042,-0.39004,-0.21382,-0.20347,-0.43134,0.085554,-0.063352,0.03348,-0.26888,-0.059256,-0.40505,0.25844,-0.36733,0.37763,0.60808,-0.071718,-0.028274,-0.078376,0.080317,-0.21619,0.10209,0.45273,-0.025507,-0.14042,0.13494,0.18961,0.22227,-0.044303,0.080959,-0.05129,-0.28763,0.027873,-0.33091,0.13945,0.012516,-0.040079,-0.24513,-0.25052,-0.36007,0.11886,0.16451,-0.084499,-0.20762,0.088228,0.38459,0.071714,0.26865,0.32459,0.12224,-0.21287,0.19468,-0.1545,-0.019204,0.057199,-0.13646,0.40723,-0.028526,-0.39354,-0.087527,0.016706,-0.046457,-0.29494,0.083113,0.018705,0.49133,-0.4608,0.25993,-0.10982,0.12078,-0.24408,-0.14211,-0.028394,-0.0018494,-0.090475,0.030497,0.14632,-0.16251,0.13781,-0.26176,0.41889,0.0091108,0.37098,0.12511,0.088594,-0.3754,0.037278,0.1738,-0.38972,-0.031647,0.2253,-0.29012,0.18116,-0.57557,-0.099135,-0.10769,-0.059111,0.31563,0.094592,0.40573,0.10331,0.024958,0.20441,0.095683,0.22053,-0.14851,-0.35259,-0.12862,-0.096173,-0.11359,-0.088395,-0.13115,0.19405,-0.29024,-0.038948,0.05161,-0.12903,0.29722,-0.30721,0.32417,0.29622,-0.0095757,-0.18125,0.34263,-0.053507,0.13289,0.09515,0.25784,0.58072,-0.22943,0.14548,0.49212,0.29631,0.017804,-0.02604,-0.17715,-0.043519,-0.28893,0.056506,0.35162,0.33048,-0.21517,-0.33112,0.29088,-0.49147,0.0039183,-0.14123,0.38497,0.058816,0.056710000000000003,0.062448,-0.070769,-0.081043,-0.061704,-0.23356,0.046805,0.22527,0.38377,0.18362,0.28383,-0.22089,0.1328,0.43327,-0.20072,-0.097688,-0.41432,0.43478,-0.18381,0.57209,-0.28526,0.44632,-0.12516,0.1038,0.066467,0.016597,0.44227,-0.019795,-0.062238,-0.16049,-0.23019,-0.26855,0.22472,0.15753,-0.013779,0.10123,-0.10961,-0.025515,-0.38861,-0.097317,0.17036,-0.58571,0.24533,0.0049167,-0.53198,-0.30494,-0.23141,0.1086,-0.08818,0.23889,0.13019,0.03092,-0.25653,0.031578,0.31453,-0.1755,0.16997,-0.25398,0.22113,0.018772,-0.36862,0.11195,0.10186,-0.3056,-0.0027693,0.29559,-0.36252,-0.13038,-0.3656,0.22358,0.41088,-0.35053,-0.054956,0.092074,-0.13773,0.21074,0.23529,-0.26143,-0.091025,0.10498,-0.10859,-0.15103,-0.36233,0.05287,0.16229,0.06632,0.16194,-0.090524,0.0067879,-0.038963,0.23731,0.028711,-0.022741,0.075817,-0.19875,0.37803,-0.043218,0.057458,0.29552,0.22698,-0.40358,0.16646,0.018468,0.19967,0.2811,0.13865,-0.11507,0.32191,-0.053384,-0.5845,-0.14916,0.22881,0.050334,-0.33645,0.029211,-0.20811,0.19121,0.46164,-0.15218,0.77683,0.083862,0.19945,0.13925,-0.35004,-0.14363,0.24275,-0.16304
bat,-0.47969,-0.10534,0.18921,0.082128,0.37012,-0.058174,0.014564,-0.16221,-0.12936,-0.27141,-0.4291,0.11387,-0.17541,-0.15543,-0.33256,0.14396,0.60292,-0.38776,0.18039,-0.37954,0.076862,0.42202,-0.11901,0.037528,0.14165,0.13764,-0.08877,0.26667,-0.26636,-0.35777,0.11518,-0.076958,0.63988,-0.30168,-0.17422,0.075127,-0.28784,0.50123,0.17717,0.34027,-0.046319,-0.0040829,-0.20796,0.011087,-0.4918,-0.0022255,0.022543,0.25675,-0.16692,-0.40764,0.053284,-0.23089,-0.21932,-0.16404,-0.15011,-0.14708,-0.14684,0.36365,-0.18212,0.24921,0.2938,-0.39836,0.2024,0.27964,-0.40525,-0.22246,-0.094359,0.033706,0.015322,0.083955,0.17382,0.54684,0.016887,0.069933,-0.2273,-0.21693,-0.11707,0.10755,-0.15854,-0.13293,0.34436,0.061037,-0.57563,-0.22885,-0.43296,-0.21466,-0.03554,-0.063578,-0.11635,0.10726,-0.47411,-0.56722,-0.22088,-0.085533,0.097844,-0.47764,0.25743,0.055422,-0.035679,0.039488,-0.15242,0.010338,0.5054,-0.13638,0.37347,0.22112,0.15363,0.13457,0.13724,-0.11591,0.022993,0.26799,-0.41344,-0.44695,0.62342,-0.45003,-0.029002,-0.39092,0.41396,0.22522,-0.017287,0.29878,-0.12852,0.083727,0.19104,0.057987,0.16407,-0.10982,0.22135,0.6158,0.16456,0.056861,-0.074922,0.59345,0.1923,-0.14472,0.074235,0.31803,0.13044,0.39909,-0.19581,-0.11662,0.088033,0.31348,0.10906,-0.021874,0.25105,0.25284,-0.33919,-0.10479,0.058776,0.15251,0.50336,0.21766,-0.32934,0.3888,-0.20896,-0.38755,0.22216,0.055014,0.30591,-0.23313,-0.28637,0.25907,-0.1984,0.093365,0.0064568,0.29887,-0.43149,-0.059085,0.064682,0.26874,0.096465,-0.41672,-0.10711,0.2235,0.37098,0.20203,-0.2394,-0.17218,-0.1988,0.27371,-0.21924,0.10422,-0.013145,0.35138,-0.10161,-0.42842,-0.22253,-0.23271,-0.012511,-0.012895,0.15489,-0.19686,0.21575,-0.12015,0.34543,0.24337,-0.2758,0.91898,0.43511,0.097941,-0.22646,-0.17176,-0.35042,-0.21474,-0.49151,0.34831,0.054045,0.12079,-0.25965,-0.22393,0.013974,0.20581,-0.31029,0.34883,0.11615,0.015305,-0.050662,0.056393,0.19243,-0.32395,0.60623,-0.13044,-0.33285,-0.12571,-0.21178,0.041061,-0.20416,0.37724,-0.27371,0.12866,-0.01264,-0.012798,-0.41908,-0.71083,-0.44516,0.036246,0.21698,-0.029201,-0.15854,-0.16176,-0.29629,-0.33967,-0.024476,-0.044448,0.13878,-0.46762,0.28375,-0.44448,-0.33451,0.023152,-0.17488,-0.11808,0.207,-0.26055,-0.03757,0.184,0.0040693,-0.45487,-0.06466,0.0097715,0.2466,0.18944,0.13842,-0.1903,0.12392,0.15765,0.064722,0.40469,0.089136,0.22427,0.39225,-0.14937,0.29357,-0.047566,0.09549,-0.33933,-0.069048,0.097583,0.24282,-0.34321,-0.17857,-0.22149,0.042041,-0.20794,0.30604,0.13145,-0.098765,-0.076913,-0.23453,-0.4286,0.091185,-0.11274,0.46416,-0.056288,0.33284,-0.042789,0.14765,-0.2304
orange,0.010238,0.13075,0.7468,0.017199,0.55997,-0.20624,-0.14655,-0.21677,0.3662,-0.18379,-0.2427,-0.28524,0.1941,0.16114,0.079663,-0.055706,-0.14698,-0.2075,0.2857,-0.19087,-0.0020136,0.37491,-0.059553,-0.093571,0.1834,-0.0046306,-0.44692,-0.11406,-0.58308,-0.144,-0.13975,-0.4766,0.61197,-0.30026,-0.16034,-0.19842,0.28369,0.063837,0.23373,0.54836,-0.23076,-0.26821,0.30658,-0.071798,-0.43287,0.10612,-0.052507,0.064776,-0.16526,-0.096968,-0.30654,0.26545,0.062046,-0.095481,0.18357,0.17846,-1.2196e-4,-0.031916,-0.10005,0.17503,-0.13047,0.062854,0.20594,-0.030176,-0.088038,0.39909,0.17794,0.13658,0.23496,0.16909,0.0607,-0.015172,-0.23954,-0.20245,-0.10384,-0.20755,-0.31059,0.16964,-0.080124,0.24159,0.19055,-0.37486,-0.099458,0.18705,-0.30673,-0.14794,0.040256,0.13479,0.31089,0.38681,-0.26882,0.10583,-0.20332,-0.020189,-0.25048,-0.0082758,-0.014239,-0.13124,-0.18375,0.15841,0.0080791,-0.28994,0.45537,-0.41238,0.21975,-0.22063,0.19215,0.025794,0.00535,-0.18158,0.072041,0.14593,-0.62785,-0.19796,0.30976,-0.29238,0.25175,-0.51177,0.14569,-0.12147,0.14515,-0.054139,-0.019504,0.31849,0.25579,-0.10297,-0.17805,-0.31047,-0.21126,-0.24483,-0.23003,-0.10208,-0.17085,-0.34809,-0.28382,-0.28582,-0.36287,0.081816,-0.11596,0.022879,0.12407,-0.042115,-0.37197,0.27619,0.45182,0.079508,0.2278,0.51853,-0.58663,0.03243,0.14254,0.18826,0.44318,-0.028545,-0.05103,0.43892,0.045682,0.16221,-0.049535,-0.25488,-0.13467,-0.47711,0.13609,0.2732,0.4166,-0.067019,-0.63545,0.27164,-0.16524,-0.27671,0.0826,0.47702,0.026215,-0.13373,-0.039183,-0.24,0.19585,-0.15826,-0.0091805,0.27548,0.1173,0.22126,0.33719,0.39709,-0.13702,0.28348,0.4129,-0.23414,-0.049544,0.10999,0.59436,-0.16622,-0.0078566,-0.15715,0.24223,-0.18517,0.37774,0.21042,-0.19499,0.29382,0.21522,-0.062282,-0.087142,-0.16604,-0.19588,0.34064,-0.088268,0.15587,0.1012,0.065632,-0.061427,-0.51173,-0.13921,0.020389,-0.44509,0.31849,0.11676,-0.38724,-0.32094,-0.45815,0.13947,0.12473,0.25173,0.22813,-0.142,0.31583,-0.064468,0.024521,0.31146,0.049848,-0.16307,0.17711,0.20047,0.03396,-0.077086,-0.16347,0.31943,-0.14691,-0.015728,-0.30715,-0.0045716,-0.26344,0.13943,0.17176,-0.18745,-0.24322,-0.0093931,-0.018562,0.10274,0.19934,-0.25714,-0.12946,-0.27855,-0.21425,0.017639,-0.14572,-0.13541,0.23666,-0.04976,-0.34553,-0.32212,-0.039807,0.37895,-0.055311,-0.27564,0.14702,-0.046239,0.065221,0.44388,-0.050869,-0.12676,0.36588,0.060858,-0.39264,0.024109,0.14099,0.33126,-0.17752,0.19207,0.19126,0.26601,-0.012574,-0.49705,-0.11504,-0.13789,0.19339,0.099475,-0.10411,0.06553,0.082372,0.054108,0.48177,0.19416,0.0072031,0.0027167,-0.082646,-0.65518,-0.036098,0.19596,-0.25129
gray,-0.59312,0.43545,0.55899,-0.15762,0.14137,-0.13149,-8.4021e-4,-0.34047,-0.063974,-0.38369,8.1128e-4,0.07142,0.36589,0.17606,-0.27207,0.15464,-0.024713,-0.2249,-0.019539,0.010337,0.070368,0.39599,0.26961,0.084035,-0.39045,0.035212,-0.69719,-0.14611,0.088077,-0.4845,0.25835,0.051858,0.34747,-0.27843,0.046294,-0.21278,0.2456,-0.22335,0.19887,0.34743,-0.0057109,7.7775e-4,0.39869,0.09687,-0.057747,0.1017,0.24557,0.19465,-0.26255,0.13791,0.05212,0.091229,0.019189,0.24631,0.013128,0.0017024,-0.35082,-0.13889,-0.04482,0.39888,0.11895,-0.45806,-0.19824,-0.21965,0.082491,-0.12613,-0.22723,0.081611,0.0061439,0.3496,0.25977,0.0081627,-0.18296,-0.20147,-0.29241,-0.17741,-0.32952,0.10897,-0.23862,-0.0040319,0.1182,-0.14044,-0.099414,0.42564,-0.24064,0.26063,-0.088285,0.052387,0.015661,-0.28869,-0.69328,0.11077,-0.056258,-0.035881,-0.20654,0.134,-0.24566,-0.11509,0.16446,-0.0063177,0.25172,-0.10808,0.22172,-0.18487,0.54914,0.29926,0.14255,0.062924,0.072139,0.28786,0.54138,0.14614,-0.531,-0.063049,-0.22272,-0.61005,0.0084302,-0.31778,-0.079084,-0.041286,-0.072172,0.10098,0.18637,0.44059,-0.026096,-0.10177,0.4066,-0.24662,0.25166,0.20445,-0.26147,-0.11717,-0.10706,-0.62234,-0.013483,-0.19158,0.33404,-0.012079,-0.12234,-0.20551,0.42957,0.40857,0.14842,0.33046,0.26947,0.1781,0.64435,0.25409,-0.23989,-0.26833,0.32093,0.13724,0.11234,0.16001,0.2869,0.51864,-0.27072,-0.31001,0.29647,-0.28469,-0.23903,-0.21326,-0.20849,0.18269,0.14803,-0.084668,-0.14216,-0.1232,-0.50373,-0.045906,0.12764,0.47036,0.086393,0.26082,0.30484,-0.22235,0.15115,0.039156,-0.19216,-0.087647,0.50647,0.26786,-0.023147,0.18267,-0.047326,0.18085,0.3252,-0.12482,-0.037853,-0.15181,0.44339,-0.1215,0.57973,0.37324,0.12685,0.34083,-0.025449,-0.15914,-0.14299,0.15256,0.28869,-0.13931,-0.03647,-0.10838,-0.027909,0.38702,0.13588,-0.073662,-0.031748,-0.01979,-0.29741,-0.45525,-0.19664,0.11166,-0.19351,0.046458,0.52711,-0.415,-0.14275,-0.14537,0.19002,0.072012,0.096347,-0.10834,-0.25586,-0.16964,-0.21737,0.24809,0.3391,0.42141,-0.19929,0.14826,0.126,-0.12481,0.024598,0.1701,0.34523,-0.13452,0.191,-0.41443,-0.024396,-0.14611,-0.39212,0.38064,-0.3182,-0.31189,0.087601,-0.52429,0.56831,0.23793,-0.21394,-0.29669,-0.24394,-0.35871,0.24185,-0.19007,-0.058705,0.21228,-0.020807,0.034684,-0.058431,-0.32968,0.037295,-0.067392,0.20822,-0.15483,0.28144,-0.085579,0.036703,0.039169,0.21937,0.48772,-0.17116,-0.45455,0.22291,0.096217,-0.053295,-0.051203,0.06043,-0.11597,0.46191,-0.25426,-0.24633,0.24511,0.12517,-0.024564,-0.112,0.21377,0.21166,0.15973,0.69893,-0.087289,0.50518,0.076828,-0.019645,-0.13124,-0.47952,0.0052507,0.24487,0.049059
lion,-0.13856,0.050917,0.29088,-0.030266,0.5101,0.37239,0.17685,-0.32483,-0.058457,0.28061,-0.13362,0.088671,0.0039634,0.19973,-0.82253,0.10046,-0.083483,-0.29264,0.17219,-0.178,0.098208,0.34446,-0.006934,-0.015576,0.09429,0.19112,-0.39329,0.35637,0.21791,-0.33135,-0.084294,-0.28685,0.42091,0.43337,-0.25221,0.50719,-0.27969,0.094786,0.026735,0.45921,-0.034942,0.27807,0.12815,-0.063882,0.056618,0.15711,-0.0233,0.40477,-0.010802,-0.084538,0.24763,0.22793,0.15016,0.043211,-0.34006,-0.087793,0.03207,0.17971,0.031533,-0.14489,-0.092062,0.051374,-0.26964,0.46721,0.14916,-0.0033172,0.096568,-0.062112,-0.4974,0.078848,0.011156,0.19986,-0.0091715,-0.19376,-0.38127,-0.1662,0.10988,-0.09124,-0.011188,-0.038569,0.084169,-0.22369,-0.84039,0.37784,-0.13329,-0.28695,0.13463,0.10274,-0.0072223,0.10173,-0.073105,0.085781,-0.054941,0.41986,0.20744,0.14591,0.043903,0.12228,-0.34977,0.2249,-0.50617,0.25613,0.17951,-0.15322,0.42287,0.07703,-0.29562,-0.5237,0.22383,0.011068,-0.026346,-0.14891,0.038065,-0.34959,0.7241,-0.24238,0.21548,-0.33509,0.19704,0.20466,-0.40092,-0.31108,-0.33186,0.25645,-0.21343,-0.17387,0.58672,-0.20333,0.096543,-0.081016,0.068703,0.43751,-0.18312,-0.30304,0.44511,-0.018831,0.14423,0.059911,0.015769,-0.068329,-0.090655,-0.41817,0.28272,0.29345,0.22031,0.45669,0.10233,0.037401,-0.2313,0.30620000000000003,-0.1578,0.13746,0.26712,0.18624,-0.078832,0.042198,-0.25043,-0.27025,-0.050706,0.25711,-0.37382,-0.073525,-0.040914,-0.15996,-0.1935,0.068419,-0.24679,0.043277,-0.36637,-0.40277,0.10162,0.12494,-0.19383,-0.070805,-0.07664,0.32992,-0.21781,-0.20433,0.11345,-0.031355,-0.011853,0.21672,-0.26553,-0.13388,-0.047168,0.28134,0.25037,-0.33936,-0.15735,-0.069975,0.21676,0.18364,0.33397,0.1007,0.37194,-0.13059,0.30558,-0.049956,-0.17517,0.38963,-0.096279,0.063328,-0.086292,-0.21669,-0.27979,-0.58863,-0.23743,0.16897,-0.053187,-0.0046161,-0.29962,-0.1176,0.48885,0.38209,-0.45003,0.22377,0.353,0.24858,-0.35247,-0.29954,0.34931,0.012379,0.029318,-0.032854,-0.042753,-0.27203,7.8755e-4,-0.10375,-0.28384,0.43841,-0.22238,0.024759,0.26005,0.31761,-0.41698,-0.5627,-0.021318,-0.3955,0.11665,0.0043824,0.031278,-0.26378,-0.40134,-0.021819,-0.042975,-0.20858,0.40305,-0.65252,0.14524,-0.48954,-0.3453,-0.22499,0.075429,0.03909,0.019333,-0.45598,0.17354,0.37742,-0.2857,-0.085364,-0.4898,-0.21983,0.10235,0.12181,-0.20894,0.33786,0.096879,-0.332,0.14309,-0.028511,0.70023,0.033802,-0.43711,-0.20837,0.44801,-0.43628,-0.20141,0.085093,0.030922,0.26242,0.1732,-0.41132,-0.023339,0.47214,0.46993,-7.0698e-4,0.050185,-0.24755,0.037246,0.058849,0.0056436,-0.14372,0.54515,-0.081064,0.033439,0.54223,-0.24613,-0.016874,0.46396,-0.012565
pattern,0.27661,-0.14463,0.094251,-0.10901,0.79185,-0.33295,0.3529,-0.36824,0.2381,-0.029777,-0.16575,-0.29336,0.055102,0.012283,-0.047764,0.030198,0.64283,0.02256,-0.024711,-0.12441,-0.013501,0.27514,-0.19847,0.072445,-0.045541,-0.17603,-0.16751,-0.0069187,-0.44883,-0.35074,-0.2846,0.075403,0.30364,0.0042064,0.19307,-0.44064,0.52312,-0.20248,0.29867,0.19212,0.0033931,0.40092,-0.052103,-0.0052364,-0.3507,0.59845,-0.1953,0.12003,0.082779,0.048347,-0.39867,-0.044634,0.20154,0.15718,0.19668,0.070232,-0.33023,-0.10084,0.03062,0.29681,0.18247,-0.37083,0.13035,0.12198,-0.41643,-0.039132,0.037154,-0.13949,-0.10199,0.23434,0.25266,0.15935,-0.1182,-0.15664,-0.3534,-0.0079632,0.16922,-0.23935,-0.09804,-0.17123,0.16192,-0.46364,-0.42977,0.12403,0.38125,-0.42628,0.21469,-0.19094,-0.17518,-0.15815,0.16839,-0.041594,-0.0062558,0.18927,0.034128,-0.37546,-0.17175,-0.2418,0.037804,-0.058016,-0.1107,-0.22108,0.047073,0.044253,0.28371,-0.19981,-0.46168,0.42396,0.0025979,0.1775,0.06686,-0.38045,-0.53268,-0.2515,0.27818,-0.17685,-0.0068413,0.26805,-0.043906,-0.39071,-0.11684,0.029354,0.020617,-0.060136,0.010569,-0.0011645,0.39059,-0.077084,-0.58532,-0.13444,0.42734,-0.17056,-0.069748,0.022413,-0.19578,-0.34744,0.2203,0.26449,-0.048112,-0.29676,-0.029758,0.12345,0.053767,0.11681,-0.027423,0.047176,-0.096572,0.18923,-0.19201,-0.079327,-0.53937,-0.19183,0.29876,0.56953,0.074597,-0.19423,0.089022,0.14742,0.035089,0.10118,0.20224,0.03157,-0.34708,0.06317,-0.36341,-0.18613,-0.34821,0.15198,-0.19194,-0.26912,0.014412,0.55665,0.39036,0.020518,0.1801,0.23096,-0.52197,0.32271,0.033418,-0.041974,0.022091,0.50127,-0.26735,-0.13159,0.054133,0.10894,0.18672,0.091773,-0.34908,-0.26478,0.3047,0.096263,0.217,-0.08885,0.18682000000000001,0.050582,-0.017933,0.063077,-0.46311,0.25651,0.045857,0.27678,-0.039436,0.099264,-0.13369,0.42408,-0.082376,0.12587,-0.025055,0.36206,0.042372,-0.55112,0.0070915,0.15064,-0.56639,-0.11476,0.55971,-0.019192,0.17024,-0.16134,0.05682,-0.50243,-0.15285,-0.35721,0.184,-0.10285,0.23804,0.066296,-0.27023,0.31941,-0.035098,0.29537,0.10599,0.75167,-0.20713,0.013553,0.10008,0.26639,0.19999,-0.39233,-0.54554,-0.47914,0.19713,0.19925,-0.29658,-0.069819,-0.073226,0.1046,0.24226,-0.29924,-0.39118000000000003,-0.34216,-0.3305,0.3491,0.36138,-0.063658,0.087184,0.10718,-0.078683,-0.34432,-0.30265,-0.30185,0.16894,-9.2595e-6,-0.30279,0.25295,-0.084323,-0.27192,0.4169,-0.0045337,0.27548,0.39355,0.31025,-0.50362,0.041886,-0.26324,0.045184,0.2357,0.32322,-0.48789,0.33351,-0.33649,-0.22179,-0.2229,0.073553,-0.20545,-0.26167,0.29499,-0.2909,0.08845,-0.02655,-0.079234,0.042394,-0.18818,-0.18211,0.1946,-0.24786,-0.13998,0.016375,0.089597
sheep,-0.6364,0.56025,0.5483,-0.35794,0.35039,0.33917,-0.0577,0.10168,-0.21685,0.48891,-0.52749,0.54812,-0.09156,0.14835,-0.027861,-0.10416,-0.050563,0.03296,0.40063,-0.2064,-0.0014638,0.13591,0.041854,-0.20545,0.017344,0.20811,-0.09851,-0.14089,-0.08385,-0.32052,0.083426,-0.24772,0.08884,-0.069893,0.26868,0.20951,-0.036566,0.10806,0.12655,0.1701,-0.19332,0.36646,0.1513,-0.16924,0.44893,0.0017944,0.24215,0.12094,-0.074223,-0.12001,0.22459,0.092869,0.42077,0.047956,-0.26334,-0.22889,0.018242,-0.13378,-0.20101,-0.22275,0.054217,-0.16148,-0.27431,0.16138,-0.62859,0.078269,-0.3238,-0.40589,0.02771,-0.052927,-0.0037088,-0.063424,-0.0091721,-0.13775,-0.32219,-0.23032,0.073722,0.086735,-0.36329,-0.11323,-0.066741,-0.18252,-0.61125,0.17773,-0.057186,-0.18537,0.10669,0.0037341,0.049664,-0.042548,-0.22408,-0.17456,0.22009,0.35236,0.21815,0.25452,-0.0076859,-0.35653,-0.29814,0.050169,-0.10116,0.39316,0.3437,-0.37005,0.4503,-0.14462,-0.052043,-0.14018,0.15133,-0.46563,0.018584,-0.20282,0.060938,-0.37903,0.25009,-0.12309,0.013981,-0.40768,0.25221,-0.029227,-0.32208,-0.23948,0.042455,0.2127,0.23967,0.15798,0.045728,0.014244,0.15582,0.48852,0.12753,-0.11625,0.035263,-0.37868,0.059225,0.31854,0.32501,0.093044,-0.050249,-0.048759,0.12465,-0.041969,0.41632,0.037983,0.35458,0.33327,-0.062472,0.24881,-0.071688,-0.18144,0.17589,0.33184,0.43169,-0.092524,0.31568,-0.065575,-0.091548,-0.3194,0.12864,0.12213,-0.25926,-0.21238,-0.18859,-0.040906,0.0036309,0.23517,-0.0359,0.079568,-0.38324,0.078071,-0.042854,0.1353,0.077277,-0.2661,0.22191,-0.0080314,-0.1848,0.34343,0.060472,0.19615,0.24935,-0.031379,-0.14169,0.21009,0.087772,0.40195,0.5001,-0.51184,-0.27801,0.079993,0.79571,0.1679,0.41122,0.11628,0.086991,0.061586,0.083387,0.22867,-0.07915,0.34348,0.4113,-0.19941,-0.26879,-0.096112,-0.072283,0.064788,0.19737,-0.25248,0.038513,-0.34411,0.071203,-0.0019536,0.66837,0.4706,-0.39498,0.29612,0.27682,0.21631,-0.14413,0.44361,0.49593,0.034194,0.16922,0.030937,-0.25442,0.044505,0.12004,-0.20328,-0.093526,0.34601,-0.056492,-0.01304,0.28466,0.45302,-0.12618,0.04073,-0.018292,-0.19667,0.30771,-0.18067,-0.11206,-0.072896,-0.22717,-0.42727,-0.017502,-0.092986,-0.05488,-0.5456,-0.16652,-0.11172,-0.2577,0.31101,0.26223,0.10669,-0.17656,-0.033377,0.043124,0.060243,-0.18552,0.0032569,0.28451,-0.63578,0.11428,0.079048,-0.055043,-0.13203,-0.031684,0.073448,0.26903,-0.40814,0.45357,-0.28337,0.10605,-0.083536,0.50955,-0.7528,-0.027474,0.10154,0.39953,0.26268,0.094656,-0.45101,-0.057206,0.030131,0.20422,-0.42989,0.033939,-0.28295,-0.20192,0.24152,-0.098384,0.1788,0.17206,-0.52918,-0.083469,0.16385,-0.18276,-0.38252,-0.057492,0.28774
grey,-0.41238,0.388,0.87155,0.065795,0.52409,-0.0064718,0.37859,-0.33065,0.045157,-0.30263,-0.010207,-0.027677,0.27259,0.061488,-0.35004,0.0012184,0.044003,-0.51795,-0.15084,-0.25261,-0.13356,0.39258,0.26166,-0.25567,-0.35329,0.16198,-0.67355,-0.15949,0.012579,-0.25986,0.016422,-0.099644,0.2616,-0.39229,-0.0036225,0.0027785,0.18378,-0.51872,0.35076,0.35671,-0.011929,0.30105,-0.0078063,-0.25608,0.28561,0.065236,0.19443,-0.023047,-0.081137,0.093337,0.019205,0.39803,0.209,0.31761,0.058539,0.039103,-0.33294,-0.25595,0.04624,0.057399,0.038172,-0.49345,-0.14194,-0.024474,-0.041076,0.069584,-0.32317,-0.18232,0.35818,0.47828,0.25166,-0.023674,-0.20533,-0.33914,-0.30303,-0.14153,-0.14517,-0.32294,-0.38313,0.031724,-0.051748,-0.013329,-0.064079,0.2372,-0.16246,0.2656,0.029236,0.17332,0.081132,-0.32436,-0.42439,0.15184,-0.0039527,0.05867,-0.12147,0.11354,-0.27838,-0.53739,0.10903,0.068185,-0.11231,-0.074883,0.29922,-0.41056,0.38123,0.16537,0.16635,-0.082053,-0.064269,0.259,0.49401,0.017619,-0.7338,0.069712,0.014752,-0.59955,0.20811,-0.30017,0.093962,-0.035903,-0.084869,0.17948,0.15027,0.44652,-0.021032,0.11676,0.30716,-0.15833,0.33984,0.34623,-0.35434,-0.14702,0.010118,-0.49948,-0.011673,-0.2324,0.42401,-0.029578,-0.25258,-0.064044,0.22528,0.069934,-0.30749,0.40792,0.20295,-0.065321,0.51975,0.44474,0.065945,-0.22146,0.30186,0.091152,0.23578,-0.013933,0.37781,0.55759,-0.32858,-0.12624,0.14315,-0.12774,-0.42667,-0.059453,-0.10652,0.11849,0.30188,-0.064119,-0.27663,-0.11789,-0.46907,-0.13004,0.10068,0.051774,0.17308,-0.25417,0.46127,-0.25653,0.27283,0.035383,-0.26438,0.021388,0.34736,0.28931,0.008238,0.28352,0.226,0.33985,0.15806,-0.2473,-0.21314,-0.042834,0.24197,-0.19321,0.52384,0.23894,-0.016488,0.17434,0.020375,0.14292,-0.073189,0.34511,0.19594,-0.011402,-0.29872,-0.053765,-0.13837,0.29421,0.068983,-0.12433,-0.31136,-0.20655,-0.35325,-0.16197,-0.16617,-0.0917,0.066997,0.096991,0.60774,-0.30781,-0.16323,-0.12455,0.011902,-0.03224,0.45326,-0.18066,-0.077652,-0.16962,-0.1574,-0.016063,0.51143,0.2114,-0.21015,-0.092631,0.12992,-0.23116,0.076019,0.25204,0.19706,-0.35336,0.2243,-0.62534,-0.13995,-0.34999,-0.601,0.34331,-0.29072,-0.43741,0.17951,-0.24393,0.26108,0.16428,-0.066736,-0.3831,-0.19745,-0.40236,0.11997,0.017191,-0.11344,0.53838,-0.14451,0.25961,-0.17547,-0.34068,0.30837,-0.043397,-0.10658,-0.20216,0.18153,0.074979,-0.088124,0.024565,0.43283,0.57331,-0.44655,-0.37752,0.30605,0.0041668,-0.25982,0.1655,0.026601,-0.12137,0.38072,-0.17093,-0.44497,0.16298,0.26332,-0.14621,-0.24893,-0.025891,0.062687,0.0078458,0.56232,0.12175,0.62612,0.18834,0.013756000000000001,-0.19911,-0.25351,0.13218,0.35854,0.12581
shark,0.26381,-0.2553,0.02047,0.039628,0.47224,-0.020819,0.16973,-0.33481,-0.33021,-0.069498,-0.75872,-0.078219,0.11401,0.13525,0.22171,0.1092,-0.25119,-0.17319,0.17159,-0.047,0.29585,0.068084,0.36548,0.30344,-0.22742,0.027821,-0.19524,-0.063966,-0.16853,-1.4408e-4,-0.16537,-0.2976,0.3044,0.27585,4.5466e-5,-0.044112,-0.055777,0.1952,0.2839,0.24341,-0.0022172,0.12959,-0.13258,-0.10263,-0.18446,0.015506,0.021064,0.20469,-0.18721,-0.089881,0.21326,-0.070359,-0.18913,-0.33428,-0.35271,0.27524,-0.041637,-0.12206,-0.30482,0.0045214,0.18777,-0.14684,0.11736,0.2746,0.37742,-0.11411,-0.071961,-0.077653,-0.14613,0.37309,0.18852,0.28137,0.22212,-0.12516,-0.07929,0.22077,-0.03294,0.52473,0.12211,0.0018434,0.38845,-0.33638,-0.16444,0.30304,0.10201,-0.10379,0.34184,-0.3836,0.031813,0.062831,-0.14059,-0.30181,-0.29805,0.50146,-0.2064,-0.25588,-0.47944,-0.37713,-0.43713,0.2128,-0.56971,0.36965,0.33669,-0.003262,0.34874,-0.069967,-0.2187,-0.086802,0.55018,-0.19728,0.54834,0.065532000000000007,-0.077708,0.18225,0.29739,-0.5099,0.25608,-0.47704,0.25089,0.16666,-0.12641,0.20071,-0.38854,-0.017101,-0.13276,-0.4199,0.37216,-0.39172,0.2868,-0.13637,-0.23442,0.041241,-0.14981,-0.077815,-0.080695,0.11266,0.31392,0.48653,0.038266,-0.0010586,0.038399,-0.26171,-0.03576,0.22648,0.45188,0.33168,0.37653,0.46394,-0.028634,0.28905,0.29751,0.36592,0.35006,0.2711,0.061618,0.049427,-0.21805,-0.32675,0.112,-0.065098,-0.233,-0.35207,-0.18085,-0.16473,0.061155,-0.18439,-0.0040853,0.3102,-0.12847,-0.44853,-0.18265,0.62012,-0.10738,-0.17855,0.25582,0.14419,0.010484,-0.030221,-0.16273,-0.42161,0.053639,-0.20677,-0.11051,-0.30248,-0.037247,0.20564,0.3792,-0.067698,0.026985,-0.050646,0.13323,0.012565,0.42897,-0.50134,0.064989,0.25602,0.22458,0.080039,-0.34824,0.34801,0.53237,0.60753,0.041813,-0.45715,-0.1648,-0.17363,0.033805,0.19162,-0.02089,0.20645,-0.28486,0.41448,0.069207,0.28127,-0.16072,0.37985,0.2765,0.0033651,-0.081837,0.255,0.19861,0.091096,-0.061093,0.15726,-0.19403,-0.41573,-0.24431,-0.2385,0.033549,0.10957,-0.27528,0.013244,0.18673,0.3034,-0.1396,-0.30089,-0.0905,0.25644,0.1995,0.22156,-0.15222,-0.31644,0.24772,0.29331,-0.38379,-0.19731,-0.028575,-0.34745,0.087955,-0.6725,-0.067818,-0.1703,0.25811,-0.5133,0.36544,-0.5163,-0.036125,0.23013,-0.31006,-0.4216,-0.35585,-0.16339,-0.21608,-0.063021,-0.52397,0.18764,0.26296,-0.092082,0.22188,-0.12118,0.42553,-0.17482,-0.30224,-0.32757,0.068493,-0.14976,-0.31272,0.029975,0.20109,-0.20876,0.28313,-0.60148,-0.43405,0.36284,0.28678,0.0090844,0.064214,-0.13961,0.39055,-0.10472,0.19891,-0.29207,0.45187,-0.22236,0.47052,0.23718,-0.079032,-0.13194,0.32473,-0.034419
goat,-0.41353,0.18688,0.3063,-0.30361,0.20734,0.26738,-0.30862,0.11081,-0.064063,0.4212,-0.25381,0.35604,-0.30233,0.24367,-0.0050429,-0.24212,-0.11351,0.015943,0.54479,-0.17107,0.010286,0.15651,-0.083178,-0.574,0.33679,0.12308,-0.49479,0.15592,-0.087838,-0.03025,-0.24916,-0.43797,0.35762,0.20326,0.093534,0.25273,-0.03888,0.14468,0.056829,0.20591,-0.22305,0.30916,-0.0020009,-0.30105,0.21456,-0.088687,0.17453,0.32759,-0.001879,-0.51844,0.072382,0.39735,0.034604,-0.078735,-0.27969,0.1484,0.33006,-0.21593,-0.075655,0.07733,-0.10992,-0.050895,-0.19664,-0.096056,-0.40292,0.013333,-0.16037,-0.045401,-0.10582,-0.041803,0.040277,-0.12026,0.0080053,-0.24504,-0.22225,-0.43028,-0.090273,0.30776,-0.07723,-0.15744,-0.23682,-0.037109,-0.22484,0.2598,-0.3318,-0.20801,-0.073087,0.07622,0.15524,0.47271,-0.36575,-0.11682,-0.29534,0.38493,0.17283,0.11504,0.039113,-0.20527,-0.11219,0.077425,-0.083675,-0.05123,0.16818,-0.43068,0.10788,-0.070067,-0.22347,0.072651,-0.18702,-0.29153,-0.053876,-0.047091,0.16739,-0.14133,0.35826,-0.17773,-0.049327,-0.30466,-0.019661,0.24201,-0.23624,0.24161,-0.23775,0.43445,0.3161,-0.13799,0.33785,-0.086385,0.19674,0.33848,0.11104,0.21114,-0.051003,-0.37606,-0.20991,0.32031,0.18936,0.24824,0.31862,0.051265,0.50423,0.067946,0.47677,0.29974,0.34863,0.17896,-0.23587,0.51575,-0.37213,-0.14907,-0.11533,0.007492,0.18006,-0.16707,0.2126,-0.10383,-0.20008,-0.18427,0.1474,-0.18065,-0.35026,-0.3266,0.16978,-0.073291,0.045044,0.27875,-0.30944,0.16002,-0.22717,-0.44038,-0.027365,0.42431,-0.22669,-0.19014,-0.1996,0.063917,-0.0037603,0.19332,0.017743,-0.17921,0.17813,0.06234,-0.18781,0.13153,0.17035,0.34768,0.43678,-0.28597,-0.48057,0.011756,0.28165,0.28984,0.042107,-0.029917,-0.080609,0.41105,0.22745,0.16631,-0.034952,0.099889,0.31404,-0.1275,-0.3348,-0.37111,-0.16004,-0.079736,0.33838,-0.037667,-0.20715,-0.29939,-0.16791,0.054862,0.32759,0.25821,-0.58681,0.020089,0.14992,-0.18303,-0.071371,0.14617,0.15995,0.26358,-0.064327,0.25595,-0.433,0.0067959,-0.072583,0.069965,-0.36613,0.65478,-0.15219,0.11327,0.15676,0.040878,-0.32355,-0.34812,-0.24359,0.036008,0.10249,-0.062849,-0.20412,-0.17236,-0.4666,-0.082829,0.20521,0.089316,0.22444,-0.50479,-0.17082,0.044076,-0.032141,0.39397,-0.010939,-0.026249,0.047094,-0.067156,-0.028944,0.097151,-0.16498,0.14168,-0.031202,-0.40975,0.15855,0.20446,-0.011216,-0.2642,-0.14583,-0.052505,0.19158,-0.13774,0.35573,-0.26805,-0.052497,-0.21525,0.33006,-0.23523,-0.001964,0.048469,0.40589,0.13641,0.26647,-0.46316,-0.16573,0.21437,0.023122,-0.14038,0.24933,-0.33374,-0.072237,0.11913,-0.11508,0.062621,0.46019,-0.42852,0.18052,0.037289,0.21727,-0.21018,0.0016517,0.12522
elephant,-0.1256,0.089172,0.32285,-0.2784,0.11669,-0.041089,-0.020633,-0.012534,-0.12436,0.2484,-0.1442,0.098076,-0.1161,-0.071552,-0.36429,0.073494,-0.3145,-0.18715,0.063697,-0.24231,-0.23392,0.25102,0.066698,0.19993,0.098136,-0.083048,-0.27518,-0.1269,-0.24382,-0.22726,-0.20929,-0.51814,0.27285,0.16728,-0.2866,0.088271,-0.1631,0.26352,0.16493,0.34922,0.14607,0.27735,0.22551,-0.15625,-0.086076,0.13641,-0.21503,-0.026613,0.10265,-0.21831,0.016592,-0.11102,0.24036,-0.14022,-0.33862,-0.10097,0.09767,-0.16893,-0.021812,-0.056043,-0.29547,-0.035078,0.10739,-0.13078,-0.13011,0.024006,-0.070082,0.298,-0.21489,0.0064457,-0.093001,-0.028851,0.2447,-0.35254,-0.4103,-0.18127,0.057114,0.1543,0.27127,0.023589,0.037982,0.10665,-0.3593,0.064114,0.31816,-0.48696,0.074393,0.046423,0.10293,0.26668,-0.13966,0.10233,0.089688,0.2892,-0.14644,0.16925,0.10141,0.12877,0.049493,0.31441,-0.092868,0.095075,0.31481,-0.08771,0.096064,-0.072697,-0.17427,-0.26458,0.40167,0.062967,-0.10185,-0.023538,-0.059634,-0.18493,0.33998,-0.47798,0.12769,-0.38617,0.15347,0.38092,-0.41347,-0.062834,-0.050294,0.5597,0.42937,-0.10524,0.4039,-0.31735,0.34921,0.098916,0.048299,0.30293,-0.10227,-0.34735,0.33128,0.045255,-0.041651,-0.31687,0.31294,0.019365,0.084923,0.026097,0.29356,0.46399,0.055673,0.43276,-0.36027,0.69271,-0.018319,-0.1755,0.30718,0.34019,0.37039,-0.18095,-0.28542,0.073002,0.024994,-0.19341,-0.077676,0.11534,0.1921,-0.13539,-0.028293,0.020458,0.23277,-0.40592,-0.21465,0.10227,-0.33213,-0.47294,0.1954,0.52536,-0.63853,-0.23515,0.072515,0.055576,-0.023804,0.35547,0.15968,0.092347,0.41815,-0.019662,-0.28483,-0.11896,-0.089267,0.01161,0.46039,-0.048428,-0.31143,0.067582,0.25084,0.47072,0.33482,-0.17816,0.11085,0.20397,0.36153,0.015705,-0.16576,-0.078509,-0.099782,0.094239,0.083877,-0.16821,-0.11164,0.067134,0.3415,-0.15639,-0.039962,-0.17841,-0.30751,-0.17128,0.014777,0.1356,-0.68844,0.13754,0.022562,-0.12729,-0.021788,-0.039878,0.32788,0.042868,0.42319,-0.1244,0.010084,-0.37197,-0.25491,0.045043,-0.42714,0.20827,-0.23669,-0.01091,-0.019059,0.23107,-0.28722,-0.36367,-0.044658,0.011667,0.20717,-0.23798,-0.099826,-0.30556,-0.27062,0.13633,-0.10639,-0.36468,0.23229,-0.39736,-0.15183,-0.41289,-0.37643,0.15026,-0.011905,-0.3136,-0.031494,-0.55656,0.24888,0.057542,-0.050083,-0.012869,-0.22722,-0.070562,-0.16807,0.030792,-0.20579,0.031772,0.0092684,-0.23719,0.068433,0.01758,0.48856,0.077276,-0.25784,-0.20145,-0.045549,0.066806,-0.19715,0.18797,0.014849,0.44844,0.31454,-0.37735,-0.32674,0.26158,0.29837,0.28686,-0.10364,-0.018952,0.12343,0.20662,-0.11946,0.23044,0.4498,-0.21376,-0.046641,0.23785,0.087755,-0.22646,0.23875,-0.092045
amber,-0.15539,-0.071796,0.25038,0.085407,0.29396,-0.164,0.22912,-0.12631,0.22688,-0.2683,-0.22224,-0.046812,0.005553,0.31861,0.15521,-0.17092,0.096261,-0.13768,0.13428,-0.33691,-0.41039,-0.11726,0.19746,-0.29556,-0.07744,-0.21376,-0.62403,0.1046,0.13234,-0.075414,0.11303,-0.32337,0.32668,-0.071867,0.13707,0.13097,0.20203,0.19782,0.14107,-0.15413,-0.095898,-0.097328,0.19175,-0.032281,-0.059432,0.069696,0.043775,-0.57314,-0.399,-0.048067,0.33624,0.36424,0.20405,-0.017439,0.13014,0.17605,-0.00543,0.16494,0.1813,0.13295,0.026848,-0.63607,0.21702,0.14836,0.4191,0.28196,0.22188,-0.0408,-0.037768,0.06953,0.41142,0.55333,-0.069183,-0.19879,-0.053052,-0.38486,-0.31381,0.19908,0.054496,-0.41463,0.39258,-0.024698,-0.23275,0.29525,0.072315,-0.26662,-0.096874,-0.011153,-0.016578,0.12292,-0.20865,0.15418,-0.25886,-0.11542,5.9423e-4,-0.045934,-0.11583,-0.080114,-0.24406,0.42881,-0.4286,-0.11171,0.15225,-0.074542,0.18331,0.083585,-0.052255,0.17809,0.26978,-0.059707,-0.26109,0.083904,-0.22528,-0.078251,0.5416,-0.28661,0.18285,-0.081942,1.6181e-4,-0.20421,0.10895,0.11009,0.14611,0.45496,-0.53443,-0.036241,0.50815,-0.53079,-0.02702,-0.10226,-0.057395,-0.32353,0.12004,0.11522,-0.061558,-0.076151,-0.066718,0.12383,-0.19038,-0.097352,-0.28049,0.29303,-0.2515,-0.065728,0.23947,-0.24932000000000001,0.022933,0.39515,-0.16627,-0.10538,0.185,0.073334,0.56123,-0.04942,-0.21547,0.033128,-0.36645,-0.18863,0.092523,-0.20554,0.087883,-0.44291,-0.18415,0.13079,-0.001095,-0.20393,-0.13835,0.14083,-0.15288,-0.066034,0.29037,0.29891,0.20033,0.20995,0.20466,0.11197,0.22004,0.17051,-0.1345,-0.044667,0.17613,0.21891,-0.30195,0.3472,0.1506,0.092077,0.43749,-0.17061,0.18973,-0.50342,-0.058051,-0.076324,0.39364,0.18236,-0.022737,-0.21856,0.57719,-0.45935,-0.4063,0.18291,0.36725,-0.10211,-0.11872,0.098522,0.10155,0.33204,0.28575,0.051103,-0.15039,0.27536,-0.1317,-0.029749,-0.50516,0.24244,-0.32453,0.19973,0.068036,0.016161,0.18601,-0.23152,-0.040115,-0.16746,0.26928,0.18625,-0.062579,-0.068813,-0.036953,-0.11896,-0.2556,0.066377,8.9836e-5,0.16234,-0.0098437,0.002824,-0.19573,-0.15217,0.049663,0.053889,0.10327,-0.65638,-0.060199,-0.15748,-0.13139,0.10256,-0.22082,-0.13746,-0.074705,-0.22486,0.50852,-0.048327,-0.1547,-0.46475,-0.20269,-0.42038,-0.032569,0.15304,-0.23066,0.39099,-0.12584,0.22333,-0.26734,0.17703,0.18498,-0.19392,-0.3413,0.10173,-0.20062,0.020754,0.29878,0.6125,0.12979,0.29927,0.070994,-0.43355,0.17236,-0.18557,0.053552,0.17624,0.13267,0.42513,0.47555,0.1814,-0.56582,0.3056,0.27666,-0.34631,-0.03057,0.14047,0.21874,-0.16763,-0.27238,0.15079,0.47794,0.091891,0.093155,0.042307,-0.063559,0.091893,0.34613,0.068221
deer,-0.64411,0.35728,0.37982,-0.070869,0.69985,0.3278,0.03549,0.12684,-0.0037291,0.025017,-0.52616,-0.2763,-0.3754,0.021256,-0.34654,0.061962,0.13676,0.086667,0.045752,-0.23163,-0.013043,0.0068995,-0.020756,0.11028,0.1443,-0.097677,-0.17299,-0.061402,-0.086465,-0.49646,-0.081708,0.105,0.27972,0.068737,-0.46688,0.29158,-0.035537,0.42562,0.07371,0.42985,-0.16328,0.33499,0.031522,-0.17269,0.038595,0.14245,-0.23861,0.078115,0.098588,-0.24599,6.9072e-5,-0.038281,0.088551,-0.24976,-0.023471,0.19725,0.15873,-0.13745,0.013927,0.064723,-0.24065,-0.28989,-0.070671,0.18119,-0.3049,-0.46063,0.16986,-0.12204,-0.033553,0.25216,0.35693,0.39813,0.28252,-0.32173,-0.057795,-0.024758,-0.17225,-0.25085,-0.2775,0.0472,-0.12215,-0.073711,-0.44094,0.26868,-0.16632,-0.37829,0.034283,0.039556,0.53495,0.22943,-0.29205,-0.1322,-0.25296,0.26263,0.028312,0.15474,0.032753,0.085219,-0.19977,-0.11452,-0.21758,-0.03083,0.36615,-0.12376,0.46462,0.2329,-0.091167,-0.0216,0.081433,-0.0037626,0.1594,0.011484,-0.077454,-0.27151,0.54941,-0.27314,0.12235,-0.44423,0.33637,0.25394,-0.23969,-0.39912,-0.2364,0.24527,0.18301,-0.42514,0.24676,-0.058519,0.037066,0.31972,0.034723,0.0016607,-0.25693,-0.49433,-0.14905,0.21918,-0.1363,0.021752,0.067472,0.42221,0.010375,-0.32639,0.089891,-0.070791,0.1696,0.28086,0.30615,0.51829,-0.71516,0.43272,-0.28702,0.11908,0.50469,-0.0041971,-0.035813,-0.07404,-0.1972,-0.21534,-0.0088102,-0.16855,-0.17321,-0.31509,0.10207,0.03935,0.15283,-0.10344,-0.050948,0.11757,-0.37807,-0.3633,-0.056075,0.30282,-0.58145,0.26539,0.59445,-0.12931,0.14786,0.14846,-0.24541,-0.23739,0.48516,-0.33626,-0.3362,0.078864,-0.07223,0.12377,0.43366,-0.31451,-0.027185,0.39487,0.37615,-0.025165,0.29862,0.42249,0.21777,0.30357,0.16983,0.053894,-0.029634,0.15468,0.24377,0.23499,-0.12078,-0.20164,-0.21582,0.18609,-0.07714,0.19394,-0.052453,-0.032874,-0.35508,-0.11952,-0.012874,0.63876,-0.73534,0.37113,0.42547,0.24661,-0.064399,-0.35656,0.62483,-0.32666,0.21746,0.12911,-0.28982,-0.041389,-0.036804,-0.12342,0.33959,0.66962,0.081866,0.18158,0.024996,0.28175,-0.37184,-0.30107,0.12342,-0.06712,0.43256,-0.42469,0.038871,-0.21692,-0.62488,-0.060038,-0.20684,-0.3908,0.24122,-0.60795,0.024366,-0.27995,-0.18444,-0.0067018,-0.12444,-0.11058,0.14154,-0.29341,-0.11327,-0.15479,-0.14204,-0.015276,0.043441,-0.12742,0.085233,-0.059604,-0.11498,0.035866,0.39863,-0.40779,0.31277,-0.060395,0.57434,-0.3783,-0.037895,-0.23324,-0.20049,-0.49178,-0.25388,0.3675,0.28684,0.75679,0.49917,-0.10372,0.0031755,0.16961,0.33103,-0.19696,0.084278,-0.43031,-0.055089,-0.12663,-0.43488,0.11975,0.40695,-0.44363,0.17361,0.24615,-0.10345,-0.16306,0.27544,0.074539
spots,-0.099578,0.10441,0.39389,-0.14273,1.0387,0.16917,0.25605,-1.2446e-4,0.046435,-0.15752,-0.46909,-0.13203,0.09047,0.052812,0.090477,-0.17167,0.62886,0.058221,0.14624,-0.16371,0.1433,-0.028998,0.36026,0.22976,0.026315,-0.024734,-0.097412,-0.086372,-0.51429,-0.77883,-0.24081,0.28849,0.40539,0.036932,-0.37625,-0.042971,0.40296,-0.011857,0.078009,0.38385,-0.27632,0.030636,0.30638,-0.21088,0.054113,0.074039,0.13658,-0.33603,-0.13054,-0.049017,-0.23219,0.039088,0.19251,-0.22964,-0.090371,-0.11379,-0.12976,-0.034218,-0.22155,0.33902,-0.32229,-0.30969,-3.1623e-4,-0.113,-0.19063,-0.16271,0.019347,0.43585,0.084864,0.26275,0.61408,-0.034914,0.094705,-0.23567,-0.22242,0.1054,0.10283,0.15879,-0.15502,-0.16416,0.46996,-0.23529,-0.21047,0.50177,0.1982,-0.26942,-0.018351,-0.022134,-0.083319,-0.062975,-0.023184,0.12139,-0.18529,-0.24813,0.12775,-0.019343,-0.16465,-0.2556,-0.17654,0.11998,-0.38195,-0.046396,-0.20138,0.0318,0.20097,-0.19785,-0.2846,-0.17161,-0.078281,-0.28453,0.30345,0.17954,0.0031815,-0.069142,0.2766,-0.28179,0.19318,-0.46304,-0.13577,-0.28062,-0.10293,0.38742,0.072113,0.076127,-0.012649,-0.15468,0.58617,-0.066918,0.23309,0.33218,-0.16957,0.2121,0.31429,-0.1513,-0.57749,0.096653,0.41317,0.16396,-0.056897,-0.21925,-0.19426,-0.11837,0.002375,-0.12016,0.25625,-0.1566,0.48088,0.28112,-0.14296,0.16883,-0.20264,0.11504,0.05597,0.32784,8.8347e-4,0.57163,0.55125,-0.24155,0.58812,-0.21896,-0.093585,0.16344,-0.1681,0.34084,0.19791,-0.15317,-0.33794,0.19916,-0.26183,-0.12247,-0.30934,-0.053482,0.046742,0.032019,-0.20031,0.27514,0.0080102,0.21935,-0.34119,-0.31257,0.36648,0.10566,-0.13467,-0.034819,0.10675,0.11233,0.38531,-0.18872,-0.052206,-0.37987,0.17167,0.0023129,0.55958,0.16531,0.35453,0.12181,0.18716,0.058086,0.13301,0.36172,0.13518,0.17454,0.12478,-0.1496,0.52642,0.20614,0.18924,0.13093,0.09629,0.10523,-0.11797,-0.57099,0.13974,0.3053,-0.34697,-0.057618,0.43231,-0.10054,0.015865,-0.26846,-0.16251,-0.25787,-0.058304,-0.42486,-0.10442,0.3911,0.041189,-0.036647,-0.012713,0.079673,-0.0039368,0.24848,0.12469,0.23037,-0.0015457,-0.23466,-0.13796,-0.35309,0.12958,-0.04159,-0.31189,0.10251,-0.3492,0.10955,0.16144,-0.43185,0.45118,-0.098329,0.040257,-0.037569,-0.13723,-0.31922,0.0068507,-0.03465,-0.2455,-0.16991,-0.23109,-0.033215,0.14454,-0.12914,-0.051918,-0.046008,0.35752,-0.15687,-0.027455,0.16292,0.13889,-0.31712,-0.16329,0.51586,0.37202,-0.0015643,0.0664,0.030787,0.17413,0.0024891,0.25475,-0.024584,0.16692,0.088063,0.44657,-0.27226,-0.27319,0.020637,0.1218,-0.2313,-0.059125,-0.23821,-0.1366,0.014594,0.15887,-0.057343,0.31344,-0.52561,-0.092228,0.21142,-0.16549,0.31213,0.22139,0.30371
medium,0.24947,0.42195,0.28412,-0.090771,0.4842,-0.1013,-0.17988,-0.23616,-0.16308,0.33954,-0.32236,0.064032,0.20236,-0.1988,0.04756,0.0376,-0.13808,-0.12823,0.19872,-0.11401,-0.12612,0.45246,-0.16155,0.13753,0.20169,0.38282,-0.19782,-0.012424,0.045308,-0.11396,-0.67314,0.03881,0.065613,0.20295,0.050237,0.082465,0.0094469,0.28685,0.19491,-0.094638,-0.44308,-0.087106,-0.21481,0.35757,-0.20166,-0.015808,0.15545,0.2134,-0.10914,0.070972,0.21434,-0.41622,0.33623,-0.064184,-0.11686,0.26884,0.43111,-0.447,-0.010719,0.39393,0.35293,-0.27798,-0.1135,-0.20805,0.24964,0.02294,0.12385,-0.33002,0.059864,0.10569,0.078895,0.19933,0.0074052,-0.23522,-0.12602,0.0238,0.069088,0.014543,-0.056462,-0.55271,0.48434,-0.1194,-0.17407,0.35002,-0.30013,0.40237,-0.22836,-0.14102,0.40629,-0.38903,-0.22844,-0.30033,-0.09226,-0.46441,-0.1565,-0.21046,-0.24683,-0.36006,-0.05605,-0.21589,-0.10012,0.36051,0.0019321,-0.2586,7.8129e-4,0.057739,-0.17805,0.29579,-0.22387,-0.081021,-0.16296,0.3853,-0.17688,-0.31669,-0.33248,-0.17166,0.12355,-0.50435,0.078045,0.086668,-0.16405,-0.092069,0.12492,0.3751,0.046822,-0.11642,0.34716,0.17375,0.30709,0.14101,-0.15412,0.22885,-0.07272,-0.24523,-0.37865,0.033519,-0.53136,0.31148,0.16777,-0.21751,0.14517,-0.13742,-0.16535,0.14154,0.14282,0.025508,0.050678,0.40013,-0.13765,0.16272,-0.11789,-0.30513,0.11068,0.50594,0.11475,0.12759,0.026837,0.01849,0.14599,0.077571,0.052408,-0.13534,-0.12404,0.15938,0.57097,0.098654,-0.29368,0.0044721,-0.11395,-0.34663,-0.17283,0.42549,0.19274,-0.059629,0.070862,-5.5156e-4,0.082835,0.090604,-0.092533,0.57159,0.14942,-0.088196,0.28103,-0.19893,0.082048,0.057879,0.063554,0.17951,0.42913,0.089738,-0.030957,-0.59818,0.12743,-0.20922,-0.019331,0.60699,0.045646,0.23006,0.013754,0.09784,0.41832,-0.33705,-0.3876,0.019464,0.053256,0.03217,0.043573,0.35027,0.25825,-0.018275,-0.32502,-0.25341,-0.29519,-0.065794,-0.66691,0.25711,0.77827,-0.27332,0.12041,0.035384,0.28864,0.35203,0.23891,0.095835,-0.14258,-0.74054,-0.25884,0.21031,0.04431,0.091999,-0.48693,0.4399,0.1411,0.078644,-0.032078,-0.058362,0.13115,-0.055725,-0.040213,-0.083931,0.073056,-0.28358,-0.1325,0.10144,0.016105,-0.21518,-0.017449,-0.15655,0.14503,0.17029,-0.34383,-0.10528,0.14587,0.38709,-0.059452,-0.179,0.016597,-0.18448,-0.10196,-0.27788,-0.43044,-0.25185,0.11939,0.30441,-0.041162,0.34713,0.094303,0.023479,-0.21944,-0.50367,0.11372,0.53995,-0.22951,-0.24078,0.20696,0.36827,-0.25868,-0.1149,0.52018,0.081702,0.01887,-0.22517,-0.1927,0.099994,0.29624,0.15367,-0.038478,0.16221,-0.10474,0.1251,-0.1528,0.067076,0.35094,-0.41944,-0.27278,-0.23719,-0.11553,0.41835,0.093963,-0.077763
tan,-0.39348,0.10187,0.51557,-0.14697,0.76248,0.2589,-0.056751,-0.50176,-0.097167,-0.31213,-0.30561,-0.37994,-0.17772,-0.10819,-0.077258,0.117,0.49306,0.34067,-0.18414,-0.25906,-0.043116,0.24693,-0.20441,0.23225,0.092058,0.18613,-0.45518,0.29967,-0.0069305,-0.22984,-0.047059,-0.15523,0.1269,-0.19274,0.24822,-0.36428,0.30451,0.4995,0.28518,0.40534,-0.47093,0.10395,0.059743,0.20416,-0.28158,-0.054255,0.010952,0.033677,-0.001543,0.49056,-0.045708,0.0037543,0.33464,0.39973,-0.24339,0.20588,-0.29328,0.48764,-0.20856,-0.062802,-0.39299,-0.2316,-0.15175,0.057896,-0.30503,-0.20696,0.28567,0.26399,0.088872,0.17594,0.62895,-0.13375,0.22432,-0.32235,-0.018089,-0.26543,-0.58448,0.25619,-0.15634,-0.10215,0.17493,-0.53561,-0.26538,0.10124,-0.60979,0.058376,-0.40356,-0.080896,-0.0078158,-0.20074,-0.31711,0.095865,-0.031282,-0.23781,-0.34385,-0.041056,0.077901,-0.044512,-0.21709,0.15925,-0.2707,0.41056,-0.11852,-0.19642,-0.082464,0.064753,-0.15259,-0.24413,0.15605,0.009727,-0.5262,-0.5763,-0.5547,-0.062165,0.51507,-0.53874,0.4153,-0.50418,-0.12987,-0.16672,0.042205,-0.016414,-0.34782,0.17732,-0.24282,-0.15793,0.49299,-0.067786,-0.2873,0.2838,-0.080119,-0.2454,0.24932000000000001,-0.51581,-0.42471,-0.41731,0.011804,0.059235,0.21561,-0.38796,-0.091439,0.63461,-0.04478,0.24848,0.36517,0.30812,0.24135,0.2579,-0.17164,-0.33312,0.16937,-0.14112,0.52414,0.2173,-0.012009,0.62517,0.0054063,-0.2157,0.36549,-0.10461,-0.25606,-0.2062,0.23516,-0.085928,0.31287,0.17855,-0.58216,0.19153,-0.28557,-0.44366,-0.24359,0.34023,0.25303,0.27886,-0.13838,0.051995,0.098008,-0.0064517,-0.33729,-0.32169,0.05547,0.080645,-0.041345,0.41682,0.27772,0.52858,0.17045,0.21749,0.25115,-0.20855,0.15742,-0.10215,0.46697,-0.50915,0.44008,0.35834,0.031788,0.099473,-0.34091,0.56005,0.56189,0.5242,0.43875,-0.13022,0.019141,-0.086831,0.19152,-0.022726,0.29771,0.48482,0.033683,-0.49303,-0.4174,-0.22606,-0.32341,0.20239,-0.16368,-0.035977,-0.55066,-0.24483,0.43613,-0.14976,0.4976,0.17613,0.043973,-0.078713,-0.1095,-0.066023,0.26111,-0.22295,-0.47801,0.26184,0.12147,-0.028447,-0.30272,-0.42779,-0.014551,0.068405,0.1542,-0.27559,0.28203,-0.17696,-0.086094,-0.0079984,-0.38712,-0.26034,0.014664,-0.23664,0.47686,-0.14325,-0.012058,-0.32198,-0.50179,-0.10278,-0.018876,-0.21692,0.069963,0.12623,0.23066,0.24926,0.26874,-0.16244,0.08898,-0.33602,-0.36989,-0.41178,0.097836,-0.33501,0.70469,0.20845,-0.045331,0.13251,-0.23833,-0.61477,0.095358,-0.19106,-0.30632,0.16197,-0.34963,0.01253,0.11507,0.091418,-0.24013,0.66223,0.11869,-0.14997,-0.041587,-0.3699,0.043782,0.15173,0.47325,-0.19537,0.34224,0.084517,-0.19193,0.11271,-0.48237,-0.20667,0.52344,0.083611
crow,-0.10839,0.18775,0.54754,-0.23319,-0.031991,0.16864,-0.026263,-0.27863,-0.022925,-0.023732,-0.2711,0.17249,-0.025635,-0.30981,-0.51391,-0.10464,-0.017795,0.16429,0.22888,-0.18831,0.21295,0.26675,0.13171,0.14746,-0.11477,-0.11289,0.0034961,0.02052,-0.31886,-0.063509,0.04825,-0.22514,0.79432,0.34498,0.052061,0.15538,0.022172999999999998,0.2385,-0.0029403,0.49844,0.019079,0.70839,0.22224,0.087388,-0.28255,0.14097,0.063832,-0.064482,-0.27663,-0.35496,-0.12241,0.30295,-0.0054937,-0.20718,-0.62993,-0.058885,-0.18228,-0.27941,0.08669,0.041134,0.030706,-0.014251,0.19835,0.31674,-0.18984,-0.090096,-0.2585,0.13345,0.5175,0.021048999999999998,0.12045,0.11729,0.043357,-0.41551,-0.23055,-0.1275,-0.18334,0.18526,-0.46302,-0.19658,0.11596,0.23555,-0.34642,0.22266,-0.22351,-0.083719,-0.10147,-0.19337,0.087265,-0.020046,-0.54015,-0.0033838,-0.30742,0.34568,-0.2016,-0.36484,-0.14913,-0.18342,-0.12514,-0.16789,-0.22407,0.27548,0.23082,-0.05458,0.51159,-0.091369,-0.5981,-0.1984,0.59387,-0.32187,0.062679,-0.05141,-0.39647,-0.23315,0.71508,-0.48735,-0.028052,-0.20564,0.26012,-0.11495,-0.238,-0.093171,0.023507,0.075444,0.20636,-0.042532,0.57331,-0.010424,0.12855,0.3475,-0.016516,0.55572,-0.086526,-0.46218,0.092109,0.249,0.38538,-0.28973,0.075708,0.35793,-0.44126,-0.12802,0.39401,0.067084,0.021127,-0.36389,0.24228,0.35985,-0.44122,-0.093962,-0.06169,-0.018678,0.04632,0.14378,-0.26066,-0.16244,-0.063135,0.030684,-0.055723,-0.014823,-0.02891,-0.39305,0.078327,0.010835,-0.033203,-0.12135,-0.1622,0.0049498,-0.22655,0.032952,0.078749,0.32147,0.18804,0.011558,0.015948,0.0086559,0.36054,0.1449,-0.21128,0.28238,-0.11366,-0.17099,0.19258,-0.43992,-0.027883,0.12274,0.43483,-0.12481,-0.15541,-0.039061,0.10126,0.09049,0.25264,0.0053803,0.47823,0.094358,0.38384,-0.20704,-0.20584,0.63188,0.20091,-0.11144,-0.12097,0.094668,-0.23365,-0.096909,-0.051025,0.074106,-0.47251,-0.073986,-0.47647,-0.25619,0.13516,0.27392,-0.4795,0.44427,-0.0061664,0.23372,-0.3343,0.093917,0.31641,-0.43182,0.012832,-0.18251,-0.26486,-0.20419,0.089549,0.37246,-0.57396,0.48476,-0.33194,-0.062172,0.087524,0.10302,-0.33145,-0.58307,0.16332,0.43328,0.59638,0.26507,0.060417,-0.51876,-0.8315,0.037766,-0.2607,-0.1511,0.07608,-0.020421,0.15913,-5.3429e-4,-0.20228,0.04003,-0.25966,0.21426,-0.42131,-0.63382,-0.12723,-0.028491,0.019194,-0.16758,0.10649,-0.26215,0.0072869,-0.13233,-0.053774,-0.052124,0.053292,0.40405,0.11554,0.007951,0.40739,-0.08891,-0.084166,-0.39825,0.042743,-0.48389,-0.025113,-0.14129,0.37048,0.066743,-0.088263,-0.39976,-0.34548,0.42843,0.11496,-0.051603,0.081975,0.029765,-0.24898,0.00909,-0.12723,0.024679,0.47059,-0.15061,-0.14012,0.0011986,-0.052844,0.45277,0.35282,0.20214
patterns,0.086211,0.16206,0.20082,-0.042995,0.74209,-0.29474,0.17854,-0.23936,0.10673,0.12308,-0.35878,-0.47764,0.18883,0.1598,0.03893,-0.16871,0.53096,0.078829,-0.28942,0.030464,-0.32152,0.20032,0.1456,0.19068,-0.011968,-0.29844,-0.033292,0.042191,-0.3614,-0.41132,-0.26952,0.16003,0.27113,0.03195,0.45396,-0.32689,0.5673,-0.26011,0.43369,0.15632,0.11259,0.34296,0.044454,-0.14674,-0.13518,0.58952,0.10537,0.54564,-0.082285,0.082621,-0.47709,-0.0020739,0.041408,0.11448,0.09396,-0.20224,-0.22404,-0.020567,-0.061671,0.41216,0.23733,-0.50686,0.061018,0.074456,-0.21534,0.0046601,0.1692,0.12836,-0.10979,0.32784,0.38253,0.084562,0.096872,-0.054384,-0.074636,-0.22118,0.27474,-0.013452,-0.22178,-0.64615,-0.25546,-0.3196,-0.32045,0.082861,0.55241,-0.32451,0.30933,-0.20937,-0.10674,-0.39373,0.22851,0.0050878,0.042233,0.18511,0.13205,-0.14119,-0.48858,-0.30528,0.17114,0.18284,-0.19278,-0.15407,-0.14966,0.072257,0.28317,0.088142,-0.40945,0.33014,-0.0013401,0.062378,0.24666,-0.08797,-0.22707,0.048675,0.34095,-0.17923,0.16995,0.038776,-0.05886,-0.41532,0.1406,0.13865,0.17828,0.061439,-0.29842,0.1144,0.32399,-0.032444,-0.36247,0.085602,0.39908,-0.095662,-0.28391,0.029224,-0.32079,0.057668,0.07915,0.27156,-0.024767,-0.41313,-0.10329,-0.014154,0.084453,-0.13965,-0.18783,-0.091141,-0.14277,0.42756,0.093662,0.092526,-0.55331,0.016348,0.19308,0.53593,0.25672,-0.17935,0.38738,0.06388,0.031004,0.1862,0.40253,0.047293,-0.47491,-0.050411,-0.14871,-0.22904,-0.36371,0.2198,-0.41711,-0.10944,-0.19083,0.010684,0.04225,0.018367,0.17364,0.38028,-0.51931,0.3157,0.070806,0.053565,0.18124,-0.023922,-0.30743,0.012151,-0.042382,0.16945,0.402,0.039713,-0.24979,-0.17294,0.40031,0.26719,0.36581,-0.22614,0.20595,0.16002,0.012409,-0.029291,-0.41448,0.46281,0.19956,-0.0096004,-0.1575,0.2071,0.092898,0.44267,-0.36869,0.065483,0.27804,0.22445,-0.048581,-0.60357,0.23795,0.37271,-0.64659,-0.27708,0.67943,0.10996,0.36395,-0.39715,-0.097481,-0.46676,-0.1459,-0.41322,0.046646,-0.085697,0.2012,-0.061268,-0.27499,0.27881,-0.14805,0.32747,0.231,0.76088,-0.26217,-0.10775,0.25911,-0.078488,-0.0084219,-0.34782,-0.54412,-0.62471,0.10842,0.14538,-0.093596,-0.16624,-0.11642,0.21919,0.22229,-0.37959,-0.50855,-0.16167,-0.25686,0.21105,0.27827,-0.01577,-0.052858,0.09071,0.09408,0.19852,-0.29702,-0.40966,0.16806,-0.0064294,-0.24996,0.36304,-0.16435,-0.20279,0.46019,0.3098,0.27613,0.53435,0.2783,-0.29096,0.073862,-0.22433,1.1175e-5,0.24245,0.31208,-0.44401,0.42667,-0.35336,-0.28442,-0.43864,0.13641,-0.31733,-0.25106,0.016833,-0.18291,0.12544,0.09152,0.18454,0.10949,-0.5176,-0.54705,0.086296,-0.3663,-0.19322,0.039615,-0.017036
swan,0.11472,-0.027319,0.22757,-0.070034,0.71847,0.30629,-0.13151,-0.083525,0.31091,0.026713,-0.10843,-0.0034392,-0.07802,0.12261,-0.40152,0.021897,-0.25196,-0.066444,0.31393,-0.39653,-0.23548,0.19489,0.29625,-0.31674,-0.23542,-0.021653,-0.25587,0.1023,-0.33765,0.16597,-0.3335,-0.18012,0.10299,-0.05398,0.21244,-0.14561,0.094724,-0.29148,-0.38662,0.44305,0.31612,0.25955,0.0032412,0.29743000000000003,0.23289,-0.22777,-0.2036,0.18511,0.11933,-0.25167,0.05039,-0.023677,0.14241,-0.091832,-0.1393,-0.03691,0.092173,0.035795,-0.17745,-0.16727,0.24432,-0.082519,-0.46474,-0.027693,0.28023,-0.38744,-0.22144,-0.015387,0.51197,-0.051262,0.3079,0.39892,-0.042751,-0.21996,-0.11176,-0.061785,-0.07559,0.15312,-0.17113,-0.36417,0.26571,-0.031036,-0.017208,0.15137,0.2846,-0.2928,0.21821,-0.057419,0.065665,-0.19922,-0.46171,-0.54078,-0.26197,0.24805,-0.20716,-0.57867,0.10088,0.047249,-0.25663,-0.045098,-0.40697,0.13337,-0.011352,0.14358,0.31208,0.25145,-0.15566,-0.14445,0.36159,0.01653,0.13397,0.13682,-0.048841,0.28274,0.50545,-0.40496,-0.31688,-0.47355,0.53739,0.2885,-0.18587,0.15388,0.48367,0.66047,0.080454,0.098867,0.26567,-0.13372,0.24825,-0.47773,-0.49191,-0.073512,-0.020262,-0.18387,0.28748,-0.33841,0.36382,-0.12957,-0.033738,-0.039771,-0.20186,-0.13544,0.049644,0.21736,0.41483,-0.19017,0.017587,0.66131,-0.38191,-0.19774,0.22902,-0.027386,0.14623,-0.36561,-0.36271,0.43226,-0.075275,0.027003,-0.018351,0.019803,-0.19028,-0.19395,-0.2013,-0.10635,0.34418,-0.26744,0.14987,0.23699,-0.155,-0.3427,0.02755,0.301,0.2223,0.015282,0.17863,0.30648,0.28441,-0.012917,-0.46263,0.16004,0.19693,0.085566,-0.073742,-0.19021,-0.10819,0.34856,0.027478,0.089226,-0.2331,-0.039725,0.24578,0.059625,0.015305,0.09369,-0.18208,0.39713,0.30559,-0.35914,0.16923,0.40361,-0.086326,0.14716,-0.13134,-0.0087944,-0.51402,-3.4781e-4,0.12566,-0.21008,-0.35095,0.10315,-0.5099,0.21372,-0.14897,0.16365,0.054046,-0.0028886,0.66118,-0.44323,-0.21792,0.0043355,0.44998,-0.819,-0.10123,-0.024917,-0.43427,-0.41115,0.14348,-0.017487,-0.078554,-0.11508,0.10876,0.26291,-0.19138,0.19443,-0.32825,-0.038389,-0.01136,0.063017,0.39128,-0.086068,-0.15816,0.18532,-0.41965,0.50343,-0.054619,0.0058489,0.044496,-0.61071,0.15441,0.21295,-0.30864,-0.090898,0.090631,-0.086897,0.044855,-0.11347,-0.089812,-0.0108,-0.25012,0.044043,-0.038461,-0.20655,-0.096608,0.15776,-0.0086075,0.3454,0.027112,0.095674,0.29656,0.063737,0.29954,-0.048958,-0.22555,-0.28756,0.10676,-0.37417,-0.19319,-0.2263,-0.22242,-0.26462,0.34954,-0.30564,-0.49406,0.1768,0.18712,-0.10558,-0.053386,0.39698,-0.2557,0.11588,0.49208,0.19305,0.2493,0.23616,0.14411,0.35386,0.34495,0.1308,0.12895,0.091494
pigeon,-0.034914,-0.010957,0.43478,-0.15831,0.48597,0.50306,-0.39641,0.058652,0.078688,0.059375,-0.261,0.21426,-0.042214,0.047351,-0.49141,0.041654,-0.18205,-0.04499,0.092089,-0.029558,-0.074782,0.28099,0.13301,0.13951,0.038046,-0.22744,-0.50133,0.019858,-0.29945,-0.14385,-0.075351,-0.20035,0.28511,-0.04958,-0.29859,0.14443,0.31417,0.16939,-2.2807e-4,0.44538,0.059065,0.27608,0.37351,-0.10764,0.052024,-0.046272,0.068532,-0.050576,0.052797,-0.32554,0.058308,-0.02391,-0.63448,-0.53083,-0.46863,-0.22894,-0.078271,0.099517,-0.087591,-0.0022714,0.25484,-0.30753,-0.17127,-0.18371,-0.40042,-0.2007,-0.33419,0.4135,0.17943,-0.0014265,0.206,-0.020252,-0.077618,-0.010502,0.039737,-0.055097,-0.35611,-0.22174,-0.078554,0.18544,0.14097,0.13603,-0.41667,0.35438,-0.21242,0.043606,0.11853,-0.0059048,-0.032169,0.14277,-0.24459,0.24814,-0.25365,0.11539,-0.19819,-0.25322,0.095985,0.15204,0.096456,-0.15204,0.25852,-0.070763,0.28284,0.089818,0.10166,-0.36435,-0.52035,0.14941,0.14538,-0.22782,0.19647,0.15674,-0.06704,-0.033899,0.53965,-0.26072,-0.12178,-0.15369,0.49088,0.20974,0.13899,0.20036,-0.2356,0.47028,0.30381,-0.26303,-0.21117,0.026336,0.30466,0.27592,0.23895,-0.17901,0.26814,-0.84926,-0.0090413,0.14213,0.085609,0.26669,-0.0010767,-0.16225,-0.2163,-8.912e-4,-0.14308,0.064342,0.171,-0.18979,0.23945,0.56431,-0.31728,0.1197,-0.15567,0.15807,0.66183,0.1054,-0.24949,-0.084994,-0.19517,0.28104,0.063851,-0.37526,-0.1544,-0.4158,0.023214,0.27625,0.12513,-0.014697,0.1442,0.1498,-0.31743,-0.0049011,-0.042887,0.34628,-0.31061,-0.15932,-0.20849,0.012215,0.08549,-0.075545,-0.048841,-0.025627,0.44772,0.10254,0.4368,0.080752,-0.050433,0.12735,0.31766,-0.20442,-0.23789,-0.44168,0.070943,-0.038467,0.42126,0.10322,0.18972,0.17715,0.12387,0.15368,-0.11341,0.41647,0.055747,-0.067092,-0.089096,-0.21108,-0.29094,0.186,0.22239,0.24655,-0.26661,-0.18778,0.056512,0.13823,0.17845,0.46702,-0.2413,0.44681,-0.11234,-0.079169,-0.14222,-0.17782,0.37844,-0.23128,0.011188,-0.03939,-0.070826,-0.46742,0.030092,0.21897,-0.34127,0.14387,-0.25335,0.093628,-0.04145,0.2807,-0.2539,-0.65548,0.22858,0.51648,0.23008,0.19484,0.26225,-0.12357,0.14033,-0.19891,-0.061378,0.56108,-0.23987,-0.27952,0.038909,-0.1979,-0.58478,0.18725,0.020076,-0.19389,-0.25169,-0.56138,0.014462,-0.19228,-0.13058,-0.010774,0.18858,-0.16431,-0.13945,0.3176,0.15481,0.16284,0.20794,0.1631,0.33051,-0.15889,0.021667,-0.49809,0.015849,-0.040662,0.26103,-0.26076,-0.14455,-0.42622,0.27605,-0.24351,0.039989,-0.15222,-0.2916,-0.030148,0.25714,0.0010398,0.059356,0.22728,-0.25921,-0.1343,-0.47172,-0.32465,0.38107,-0.015479,-0.41247,-0.11841,-0.27568,-0.036072,0.038116,0.049621
neutral,-0.36413,-0.16142,0.12253,-0.067158,0.26493,0.081637,0.21395,0.20371,0.26736,-0.0084244,0.27704,0.070247,0.51014,0.16699,-0.1401,-0.21868,0.29909,-0.20099,0.43656,-0.18696,0.053955,0.39249,-0.13212,-0.24437,0.30376,-0.12616,-0.070409,-0.031001,-0.17931,-0.079906,-0.1664,-0.22739,0.31152,-0.073879,0.41062,0.16205,0.47879,0.11652,-0.23748,0.23694,0.33789,0.25947,0.079981,-0.28677,-0.34433,0.13904,-0.15842,-0.34906,-0.37617,0.12899,0.067685,0.127,0.20131,-0.25842,-0.22772,-0.29741,-0.40891,0.17668,0.069231,0.29675,-0.11239,-0.08519,0.086155,-0.18979,0.23376,-0.18785,-0.0062449,-0.25783,-0.050206,0.34591,-0.15834,-0.28389,-0.48663,0.18719,-0.20588,0.097972,0.15986,0.047405,0.24825,-0.1485,-0.12114,-0.21636,-0.030404,-0.16633,0.18391,-0.31339,0.35181,0.010589,0.076086,-0.52392,7.3829e-4,0.10868,0.26781,-0.2604,-0.16772,-0.35701,0.14177,0.26559,0.045448,0.47747,-0.19359,0.17429,-1.9272e-4,-0.35664,0.14145,-0.0050968,-0.15258,-0.19184,0.33041,-0.23645,0.11858,0.1132,0.16267,-0.19922,-0.57434,-0.2539,-0.098486,-0.30701,-0.021952,-0.31342,0.090258,0.61334,0.12463,0.20079,0.08708,0.1172,0.089327,-0.42784,0.31126,0.31184,0.14825,-0.027663,0.16799,0.13288,-0.64745,0.1705,-0.4185,0.35819,-0.30415,-0.40196,-0.31927,0.059068,-0.39684,0.32954,0.56208,0.15195,0.76513,0.38084,-0.17287,0.10187,0.38821,0.026284,0.36033,0.18205,-0.30402,0.16042,0.23455,0.13364,0.2274,-0.39996,0.35475,-0.30649,-0.27803,0.2083,-0.37693,0.14406,-0.65057,0.040882,-0.34418,-0.293,-0.16747,0.39272,0.17381,-0.058814,0.090642,-0.12014,0.12871,0.80788,-0.53888,0.1648,0.38417,-0.091061,0.061369,0.13734,-0.11077,0.077231,-0.067483,-0.092657,-0.076861,-0.037509,0.032905,-0.21558,0.34583,0.16132,0.25694,0.12713,0.036627,-0.095445,-0.25185,0.14802,0.18719,-0.21049,-0.17996,-0.70109,0.16462,-0.032302,0.10316,0.079999,0.17533,0.29909,0.39522,-0.33658,-0.062407,0.055616,-0.18915,0.32992,-0.35103,-0.15234,-0.0092998,0.034552,-0.2831,-0.23849,0.45512,-0.19233,-0.0073998,-0.81343,-0.16782,-0.25548,0.31718,0.26704,-0.1158,0.2039,-0.4303,0.17056,-0.34283,0.39726,-0.10288,0.14695,0.22094,-0.22122,-0.15941,0.27611,-0.26005,0.24776,-0.08183,0.11936,0.15509,0.13717,-0.2504,0.31431,-0.16515,0.09223,0.32445,0.084838,0.097499,0.19961,-0.11091,0.40451,-0.029746,-0.051984,0.50737,-0.096205,0.085007,-0.04284,-0.056919,0.44097,0.065965,-0.60527,0.17268,-0.034555,-0.10919,0.7261,0.04729,0.19665,0.47008,-0.085166,-0.028966,-0.40478,0.20746,-0.32165,0.35556,0.11555,-0.14524,0.08095,-0.24215,0.13439,0.048221,-0.049675,0.24195,0.35769,-0.33082,-0.20626,0.14566,-0.35742,-0.054201,-0.12897,0.038736,-0.10724,0.18793,-0.22795
gorilla,-0.11731,0.18271,0.16722,-0.15001,0.32829,0.15302,0.032882,-0.10386,-0.18395,0.14861,-0.38026,-0.26346,-0.13382,-0.0072201,-0.26827,0.033151,-0.063599,-0.45118,0.078995,-0.25942,0.3006,0.45214,0.011715,-0.020125,-0.13924,0.054374,-0.21114,0.10086,-0.2972,-0.050367,-0.090401,-0.42466,0.13397,-0.072689,-0.012138,0.030368,7.4887e-5,0.038257,0.42623,0.19113,0.01648,-0.029588,0.10038,0.11786,-0.1517,0.053789,0.065611,0.34977,-0.061455,0.099829,0.22859,0.055402,0.019366,-0.17927,-0.40838,-0.22565,0.41503,-0.026726,0.092536,0.093893,-0.11577,-0.29632,0.4766,0.058795,-0.15577,-0.010825,-0.30522,0.16232,-0.10447,0.25782,-0.14134,0.012014,-0.011418,-0.15264,-0.39112,0.2666,-0.028261,-0.18503,0.080697,-0.30084,-0.063325,-0.059022,-0.66771,0.04906,-0.32726,-0.11162,0.082706,0.14471,0.16778,0.60722,-0.25659,-0.30742,0.23655,0.19644,-0.013102,-0.31048,-0.11123,0.068388,-0.12639,-0.24095,-0.14406,0.038771,0.3468,-0.34231,0.25845,0.076633,0.12976,-0.040687,0.17844,-0.14871,0.21547,-0.13999,-0.10564,-0.10158,0.18566,-0.42351,0.223,-0.47225,0.42343,0.39071,-0.33345,0.12947,-0.077473,0.34948,0.26549,-0.16954,-0.11874,-0.10419,0.19076,-0.085015,0.29379,0.16669,-0.49115,-0.035112,-0.022648,0.17993,-0.040083,-0.11233,0.46761,0.194,-0.12868,0.14095,0.058684,0.22407,0.44871,0.14004,-0.18543,0.42707,-0.059878,0.1249,-0.30894,0.30109,0.52962,0.11522,-0.11372,-0.12268,0.069806000000000007,-0.3069,-0.020168,-0.0033696,0.23311,0.092924,0.090881,-0.1666,0.072812,-0.26485,-0.2312,-0.028137,-0.29089,-0.27433,0.0056569,0.51523,-0.32369,-0.24667,0.51746,0.010982,-0.11473,0.13871,-0.012931,-0.25586,0.10438,-0.23417,-0.24361,0.083406,-0.096647,0.22018,0.17408,-0.28954,-0.38554,-0.21676,-0.067502,0.076013,0.39786,-0.063409,0.037886,0.10425,0.091203,0.1052,-0.2061,0.26685,0.12415,0.12637,-0.16323,-0.33095,-0.25163,0.15767,0.0375,-0.06202,0.03987,-0.033418,-0.4862,-0.024533,0.53373,-0.030883,-0.25754,0.021151,0.073276,0.24804,0.2121,0.020819,0.076254,-0.033518,0.33261,-0.078087,0.078499,-0.36499,-0.48824,0.13926,-0.07128,0.20487,-0.27387,-0.087427,-0.10589,0.18593,-0.34893,-0.35589,0.04108,-0.28894,-0.044045,0.092421,0.14818,-0.12578,0.15077,0.12729,-0.20115,-0.24105,-0.055424,-0.35241,-0.12245,-0.20703,-0.29488,-0.087018,0.13085,-0.4301,0.10157,-0.28568,0.14547,0.31792,0.08141,0.036606,-0.44446,-0.04119,-0.018213,0.4251,-0.36821,0.0020417,0.34127,-0.19127,0.11977,-0.11814,0.05945,-0.0020662,-0.16612,-0.19672,-0.013437,-0.33135,-0.07017,-0.14933,0.26629,0.0058364,0.14012,-0.017654,-0.24345,0.30247,0.47612,0.12976,-0.21743,-0.29278,0.14624,0.20344,0.13141,-0.028969,0.63961,-0.42701,0.11895,-0.0086689,-0.079019,-0.63855,0.64405,-0.032288
stripes,-0.21134,0.28465,0.59601,-0.34232,0.98947,0.13328,0.53274,-0.19937,0.82724,0.12641,-0.22917,-0.10458,-0.20363,0.64305,0.37736,-0.20372,0.17057,0.071083,0.19593,-0.047378,0.21224,0.34839,0.3633,0.073877,0.2369,0.058795,-0.22182,0.19724,-0.55043,-0.4914,0.26933,-0.072844,0.52744,-0.50645,-0.13337,-0.30055,0.39785,-0.10918,0.29461,0.35631,-0.32363,-0.30326,0.43152,-0.12068,-0.18228,0.33856,0.51908,0.10381,0.16272,0.12231,-0.17141,-0.17215,0.49126,0.12193,0.0091853,-0.51579,-0.44438,-0.26608,-0.10716,0.10783,-0.19593,-0.27346,-0.36519,-0.17569,0.081566,-0.086566,-0.070023,0.27276,0.35594,0.041804,-0.037509,-0.091244,0.13565,-0.079154,-0.26534,0.099869,0.33527,0.21055,-0.4235,-0.23318,0.43348,-0.090426,-0.38289,0.16123,-0.14126,0.025994,-0.16328,0.069445,-0.29909,-0.12103,0.057628,0.061535,0.13257,0.029389,-0.12045,-0.052721,-0.68022,-0.096575,-0.32135,-0.032995,-0.14688,0.026428,0.24595,-0.22429,0.62913,0.1811,0.044239,0.043873,0.027965,-0.09675,-0.18047,-0.54071,-0.40829,0.057354,0.24176,-0.31152,0.27613,-0.26009,0.015965,-0.10844,-0.064926,0.21529,0.16925,-0.033683,0.16079,0.24773,0.25052,-0.11769,-0.012531,-0.037009,-0.25682,0.21125,0.3427,0.1595,0.15135,-0.1494,0.29801,0.21954,0.052579,-0.10542,-0.024157,0.2576,-0.26154,0.36257,-0.12413,0.22455,0.0074653,0.44859,0.29467,0.2626,-0.12906,0.51882,0.14751,-0.094923,0.20385,0.38183,-0.084385,0.11197,0.012201,0.34687,-0.009441,-0.20682,0.073631,-0.091968,0.12145,-0.002969,-0.40445,0.23861,-0.2592,-0.081316,-0.0066478,0.096253,0.095943,0.042455,-0.043289,0.60771,-0.090032,-0.084882,-0.26609,0.24185,0.48513,0.084845,-0.10524,-0.099501,-0.2188,0.21429,0.31106,-0.16528,0.31593,-0.12822,0.44685,-0.1509,0.56526,0.1257,0.70416,0.38705,0.2642,-0.27857,0.2029,0.49808,-0.36337,0.18801,0.13148,-0.23425,0.11999,0.23818,0.1641,0.092733,0.11507,0.075341,-0.19653,-0.53361,0.1192,-0.18884,-0.23208,0.27673,0.2993,-0.3386,-0.22709,0.04639,0.21196,-0.22071,0.12031,-0.24911,-0.24559,0.070146,-0.056688,0.12986,-0.38833,0.65452,-0.36971,0.07104,-0.19226,0.30439,-0.17743,-0.16667,-0.0026574,-0.03728,0.61747,-0.28036,-0.6239,0.052654,-0.042053,0.38532,-0.33891,-0.021691,-0.048716,0.013003,0.31455,-0.10233,-0.047443,0.084345,-0.27214,0.24939,-0.25618,-0.30744,0.30115,-0.10657,0.13679,0.0066534,-0.23734,-0.26886,0.2521,-0.069488,-0.25937,0.22752,0.13748,-0.3248,0.43344,0.075981,0.41309,-0.17473,0.18151,-0.36554,0.44781,-0.14395,0.23492,-0.18483,-0.38717,-0.20624,-0.16506,0.081835,-0.24805,-0.1496,0.48626,0.036169,-0.077618,0.34942,-0.41882,0.008136,0.28309,0.51032,0.66044,-0.028186,-0.24236,0.15124,0.047135,0.062388,0.62578,0.030416
panda,0.15951,-0.15317,-0.035551,-0.14311,0.77499,0.37346,0.037539,0.12272,0.21487,0.093096,-0.34074,-0.26306,-0.13373,0.10829,-0.0041806,0.40634,-0.16486,0.043912,-0.28071,-0.71585,-0.05817,0.1742,0.24573,0.14268,-0.38796,0.091521,-0.27749,0.042556,0.072406,-0.29037,-0.031265,-0.033927,-0.017302,0.38542,-0.18129,0.22119,0.15985,0.25208,-0.12161,0.19282,-0.27936,-0.036683,0.37807,-0.16486,-0.063161,-0.11506,0.23078,0.15739,-0.12029,-0.11516,0.40263,-0.31424,0.057805,-0.086005,-0.4004,0.22873,-0.064988,0.37128,-0.29482,0.083682,-0.22405,-0.31695,0.10088,0.059096,-0.13651,0.0060807,-0.089914,0.14491,-0.40595,0.085859,0.068964,-0.041318,0.0068299,0.0029448,-0.20787,-0.15743,0.22742,0.02692,-0.10648,0.27029,-0.22799,-0.062741,-0.5185,0.017583,0.088681,-0.17902,0.02146,0.11223,0.14169,0.4742,-0.33042,-0.26777,-0.13242,-0.17252,0.090303,-0.14949,0.013647,-0.10833,-0.025233,0.29224,-0.35625,-0.021995,0.23522,-0.22387,0.17202,0.15986,-0.14536,-0.23217,0.46932,-0.035685,0.026692,0.17941,-0.39102,-0.4359,0.63135,-0.62778,0.49577,-0.075854,0.43649,0.32445,-0.27941,-0.048313,-0.13444,0.34902,-0.29767,-0.41444,0.50733,0.1194,0.47337,0.17055,-0.33252,0.19657,-0.036047,-0.37451,-0.023991,0.029074,0.14071,-0.3,0.61466,0.0051052,0.028688,0.17642,-0.0029576,0.13619,0.37203,0.69253,-0.23565,0.43698,0.02036,-0.10422,0.16763,-0.36122,0.31107,-0.075164,-0.15722,0.095292,0.063022,0.091769,-0.36872,-0.14295,0.16513,0.11059,0.088213,-0.15924,0.24474,-4.1909e-4,-0.26543,0.010867,-0.25722,-0.2656,-0.12907,0.033153,-0.4551,0.28632,0.25104,-0.32826,-0.3127,0.29833,-0.067359,0.15902,0.043571,-0.22563,-0.23328,0.18072,-0.16853,0.57012,0.052494,-0.39872,-0.1573,0.021846,0.15591,0.47177,0.13571,-0.4343,0.11686,0.13874,-0.211,0.0031038,-0.11326,0.6182,0.32377,-0.18285,-0.15554,0.052681,-0.073361,0.23366,0.30603,0.32604,0.088809,0.23334,-0.8274,-0.32888,-0.26243,0.64459,-0.50961,-0.01592,0.050776,-0.28863,-0.059013,-0.66482,0.54978,0.026478,0.16136,-0.067116,-0.025963,0.11668,-0.093734,-0.0085548,-0.30405,0.21698,-0.1146,0.13329,0.17465,-0.01152,-0.72751999999999994,-0.15096,0.28347,-0.11075,-0.075134,0.33004,-0.36581,-0.5321,-0.055454,-0.080542,-0.2454,-0.10563,-0.26151,-0.67069,-0.27825,-0.34666,-0.15689,0.093045,0.027956,-0.15512,0.24297,-0.27046,0.086082,0.2859,0.052862,-0.048766,-0.28687,-0.41102,-0.27965,-0.23196,-0.54618,0.22523,0.028809,-0.36148,0.31402,-0.16593,0.34883,-0.30031,-0.48938,-0.2328,0.23546,-0.33449,-0.1995,-0.15487,0.033775,0.23029,0.36217,0.12638,-0.24148,0.29622,0.45493,0.43279,-0.60317,0.093308,-0.059084,-0.036165,-0.017063,0.12916,1.143,-0.29616,0.014001,0.69881,0.01976,-0.12424,0.36611,0.066704
beaver,-0.35273,0.19973,0.30053,-0.16735,0.31641,0.44479,-0.14278,0.095638,-0.34378,0.20833,-0.01996,-0.19679,-0.11606,0.35897,-0.012139,0.19589,0.092071,-0.16849,0.15669,-0.13269,-0.16108,0.39113,-0.20455,-0.31239,-0.024251,0.047366,0.041341,0.11105,0.0068061,0.022522,-0.21934,-0.29422,0.21745,-0.2237,-0.05254,0.2071,0.013717,0.27631,0.46851,-0.045956,0.26077,0.33175,0.084372,0.25752,-0.10348,-0.11907,-0.51519,0.038969,-0.010276,-0.0050097,0.18077,0.050967,-0.032667,0.22874,-0.3215,-0.20343,0.007885,0.018461,0.066976,0.52046,0.08662,0.093954,0.042216,0.010302,-0.021046,-0.25121,-0.057487,0.1144,0.31402,0.068995,0.18642,-0.23312,0.064123,-0.19819,-0.26227,-7.4183e-4,-0.18039,0.15004,-0.038033,0.19398,0.39512,-0.17673,-0.44195,0.2109,-0.216,0.035125,0.23748,-0.37155,0.46273,-0.033602,-0.18307,0.15124,-0.15855,0.22822,-0.1675,-0.10657,-0.097695,-0.066425,-0.17981,0.028293,-0.30502,0.18209,-0.12812,-0.29581,0.4306,0.10762,0.024861,0.058175,-0.068562,0.19755,0.12701,0.076541,0.14526,-0.14544,0.39415,-0.33545,0.55329,-0.33574,0.7421,0.0951,0.22736,5.4533e-4,0.016138,0.10608,-0.14133,-0.43016,0.22631,0.028917000000000002,0.14722,0.15013,0.060058,0.13309000000000001,-0.27518,0.02557,0.045685,0.59738,0.46993,-0.091361,0.017772,0.31532,-0.030128,0.26975,0.3327,0.022235,0.35674,0.15875,0.41039,0.3648,-0.42948,-0.13524,-0.17441,0.16656,0.36274,-0.34627,-0.23685,0.38574,-0.11543,-0.42797,-0.083092,0.20252,-0.052658,-0.084512,-0.16618,0.060043,-0.039011,-0.11368,0.0344,0.10159,-0.11551,-0.225,0.14325,0.29402,-0.15161,0.027726,0.27957,0.21404,0.15184,0.14879,0.11375,0.065471,0.23247,0.0043928,0.1303,-0.020363,0.019035,-0.1273,0.64959,-0.21401,0.060242,0.080353,-0.14443,-0.093732,0.26027,0.23359,0.37491,0.19273,0.081375,0.38726,0.07162,-0.022604,-0.013208,-0.088994,-0.17549,-0.25794,-0.044305,0.1374,0.054877,0.2383,-0.084066,-0.22572,-0.41573,-0.0027136,0.25704,0.37928,-0.60979,0.62247,0.1605,0.051202,0.19412,-0.14289,0.55249,0.16111,0.18413,-0.33178,-0.010091,-0.052011,0.22155,0.20936,0.019399,0.40064,-0.2361,0.2091,0.10182,0.26292,-0.38104,-0.010139,-0.14347,-0.24084,0.32012,0.20889,0.18252,-0.061827,-0.27311,-0.039452,-0.065161,-0.22818,0.27081,-0.84492,0.26635,-0.20883,-0.080411,-0.27541,-0.12036,-0.52347,-0.13377,-0.10629,0.14184,-0.16021,0.13229,0.13425,-0.11839,-0.051869,-0.093297,0.19287,-0.2367,-0.24881,0.097163,-0.38308,0.42929,0.15633,0.34196,0.19104,0.13909,-0.26054,0.17195,-0.34912,-9.8001e-4,0.18879,0.15488,0.10231,0.075363,-0.010861,-0.1944,-0.043706,0.31352,-0.060197,0.062504,-0.11784,-0.031809,-0.27763,0.12951,0.23907,0.39988,-0.28484,0.030764,0.2006,-0.40787,0.11013,0.21131,0.22193
multi,0.41803,0.29611,0.047389,0.13884,0.87347,0.012201,0.20043,-0.24119,-0.43918,-0.14731,-0.29121,-0.42383,0.19874,0.032136,-0.26761,0.16726,0.08525,-0.098782,0.062136,-0.3873,0.034059,0.15379,-0.15102,-0.17979,-0.17949,0.3688,-0.69387,-0.043609,-0.42775,-0.67941,-0.72693,-0.28734,0.22319,0.0054732,0.36828,0.045202,0.28764,0.08766,-0.34535,0.18349,-0.16685,-0.17926,-0.032934,0.095396,-0.23863,0.0060903,-0.32969,0.032917,0.2574,-0.27767,-0.087119,-0.34071,0.072111,-0.17134,0.19181,0.28342,-0.10904,-0.24726,-0.055783,-0.33363,0.66902,0.16293,0.16127,0.40448,0.23608,-0.029852,-0.40386,-0.16924,-0.18401,0.26299,0.035072,0.23738,0.3468,0.057703,-0.053795,0.031737,0.47311,0.090904,-0.11013,-0.37955,0.14682,0.18571,-0.04883,-0.19351,0.34681,-0.22488,0.083219,0.428,-0.41991,-0.28497,0.34685,-0.23312,-0.19004,-0.048921,-0.15571,0.09693,0.097382,-0.42633,-0.15138,-0.094903,0.33723,-0.40618,-0.26415,-0.42642,0.63084,0.1268,0.23071,-0.14184,0.24398,0.20444,-0.23179,-0.24101,-0.48799,-0.12102,-0.085,-0.40769,0.26727,-0.28345,-0.0091222,-0.1392,0.17833,0.0049347,0.037822,0.24876,-0.093448,-0.067151,-0.036298,0.13928,-0.051864,0.10686,0.18154,0.088131,-0.15198,-0.23408,-0.035501,-0.094338,-0.036045,-0.3137,-0.61601,-0.59965,0.045949,-0.49544,0.24749,-0.034094,0.18509,-0.018545,0.33691,0.12855,0.0054873,0.16518,-0.066923,-0.024474,0.027181,0.20314,-0.10175,-0.10886,-0.054206,0.5478,-0.26626,-0.072904,0.45939,-0.19702,-0.30336,0.095876,0.19838,-0.073758,-0.046349,0.31829,-0.53761,-0.31265,0.044252,0.57413,0.10179,-0.072034,2.1656e-4,0.51015,0.17824,0.31386,0.054302,0.0055992,0.33542,0.15009,0.13707,-0.060661,-0.060373,-0.32117,0.21806,0.20232,-0.23371,0.092595,0.23455,-0.17818,0.40671,-0.45758,-0.23724,0.23311,0.67457,0.0074524,-0.46646,-0.12257,0.31891,0.074645,-0.39118000000000003,-0.40862,0.30283,-0.074952,0.30897,0.33702,0.23882,0.090821,-0.57203,-0.33775,0.056832,0.052066,-0.5095,0.29673,0.29503,-0.34598,0.22107,0.24984,-0.072767,-0.29025,0.35236,-0.15659,-0.16426,-0.11017,-0.217,-0.059735,0.16593,-0.016889,0.10826,0.4168,-0.23639,-0.15119,-0.27178,-0.53476,-0.10114,0.077364,-0.062982,0.23778,-0.14797,0.36041,0.4259,-0.10429,-0.43933,0.30219,0.027807,-0.046449,0.086177,0.12081,0.19616,0.091201,0.16961,0.61211,-0.28432,-0.013894,-0.19063,-0.20078,0.093371,0.46636,0.13388,0.14851,0.43115,-0.49664,-0.18142,0.4794,0.34967,0.14562,0.23471,0.15056,-0.34498,0.65379,0.33624,-0.18645,-0.034787,-0.37982,0.033701,-0.14218,-0.12868,-0.51797,0.26743,0.05132,0.10525,0.43511,-0.13376,0.21162,-0.013553,0.16624,0.14518,0.16865,0.12975,-0.19884,0.34596,-0.31772,-0.37387,0.45632,0.04537,-0.29395,5.3507e-4,-0.34577
