target_word,V2,V3,V4,V5,V6,V7,V8,V9,V10,V11,V12,V13,V14,V15,V16,V17,V18,V19,V20,V21,V22,V23,V24,V25,V26,V27,V28,V29,V30,V31,V32,V33,V34,V35,V36,V37,V38,V39,V40,V41,V42,V43,V44,V45,V46,V47,V48,V49,V50,V51,V52,V53,V54,V55,V56,V57,V58,V59,V60,V61,V62,V63,V64,V65,V66,V67,V68,V69,V70,V71,V72,V73,V74,V75,V76,V77,V78,V79,V80,V81,V82,V83,V84,V85,V86,V87,V88,V89,V90,V91,V92,V93,V94,V95,V96,V97,V98,V99,V100,V101,V102,V103,V104,V105,V106,V107,V108,V109,V110,V111,V112,V113,V114,V115,V116,V117,V118,V119,V120,V121,V122,V123,V124,V125,V126,V127,V128,V129,V130,V131,V132,V133,V134,V135,V136,V137,V138,V139,V140,V141,V142,V143,V144,V145,V146,V147,V148,V149,V150,V151,V152,V153,V154,V155,V156,V157,V158,V159,V160,V161,V162,V163,V164,V165,V166,V167,V168,V169,V170,V171,V172,V173,V174,V175,V176,V177,V178,V179,V180,V181,V182,V183,V184,V185,V186,V187,V188,V189,V190,V191,V192,V193,V194,V195,V196,V197,V198,V199,V200,V201,V202,V203,V204,V205,V206,V207,V208,V209,V210,V211,V212,V213,V214,V215,V216,V217,V218,V219,V220,V221,V222,V223,V224,V225,V226,V227,V228,V229,V230,V231,V232,V233,V234,V235,V236,V237,V238,V239,V240,V241,V242,V243,V244,V245,V246,V247,V248,V249,V250,V251,V252,V253,V254,V255,V256,V257,V258,V259,V260,V261,V262,V263,V264,V265,V266,V267,V268,V269,V270,V271,V272,V273,V274,V275,V276,V277,V278,V279,V280,V281,V282,V283,V284,V285,V286,V287,V288,V289,V290,V291,V292,V293,V294,V295,V296,V297,V298,V299,V300,V301
no,-0.2643,0.034339,0.0466,0.1818,0.077419,-0.31439,-0.0055325,-0.16168,0.010331,-0.070391,-0.0293,-0.013119,0.14472,0.10077,0.15029,0.11151,0.12948,-0.078568,-0.038936,-0.069117,-0.02862,0.19472,-0.018243,-0.05659,-0.21891,0.42935,-0.19713,0.020947,0.12544,0.061052,-0.085741,0.23646,0.047816,0.12213,-0.14506,-0.27841,-0.036634,0.052511,4.4411e-4,-0.24736,0.2888,0.17881,-0.15564,-0.10495,0.10472,0.081415,0.32859,0.081788,0.1091,-0.18074,-0.15581,-0.31819,-0.11834,-0.0038618,-0.38857,0.082629,-0.17706,-0.0015596,-0.19932,0.37683,-0.35489,0.044217,0.46263,-0.047725,0.047667,-0.28284,0.18534,-0.027313,-0.052813,0.18889,-0.049962,0.18343,-0.028636000000000002,-0.049944,0.14916,-0.10098,0.21242,0.16436,0.26371,-0.10826,0.077146,-0.039786,0.25458,-0.1046,-0.079576,-0.019773,-0.30416,0.13349,-0.1003,-0.069873,-0.189,0.072886,0.12898,-0.18529,-0.052076,-0.17322,-0.1696,0.24536,-0.14722,0.18812,-0.040378,-0.43597,-0.044428,0.18643,0.16435,0.008577,0.0029248,-0.18135,0.10601,-0.21964,-0.4862,0.090768,0.01968,0.25073,0.018652,-0.15171,0.47005,0.14804,-0.10247,0.14386,0.68539,-0.027273,0.17492,0.086974,0.15731,0.026635,-0.14577,0.21314,0.05424,0.23508,-0.029212,-0.35641,0.024078,0.31589,0.16009,-0.013141,0.019247,-0.33484,0.092813,0.035008,-0.19227,-0.090595,0.01931,0.28161,0.13771,0.21892,-0.1286,0.16683,-0.021937,0.13536,-0.27862,-0.020338,0.024459,-0.18298,-0.24355,0.06391,0.16413,-0.14908,-0.13719,0.27537,-0.20374,0.24959,-0.13618,0.17088,-0.41502,-0.13784,-0.11341,-0.12433,-0.13826,0.32331,0.23585,0.075066,-0.58236,-0.1011,-0.15315,-0.18672,-0.15112,-0.16722,0.12736,0.015317,0.070823,-0.079822,0.018665,0.43254,-0.3767,0.20951,0.098743,-0.29383,0.21868,0.27414,-0.18187999999999999,-0.3688,-0.29828,-0.13399,-0.3173,-0.18554,0.0018321,0.17532,-0.70552,0.15625,0.059171,-0.0079576,0.26087,0.034321,-0.098771,-0.486,-0.35527,-0.039002,0.075376,0.34163,0.48625,-0.53015,0.064528,-0.35176,-0.27263,-0.082661,0.082817,-0.35417,-0.1888,0.0075962,-0.044557,-0.20698,-0.017113,0.14535,-0.13753,0.10438,-0.17524,0.028008,-0.047275,-0.12366,0.28077,0.19532,-0.13123,-0.049223,-0.096767,0.56907,0.26118,0.0877,-0.2188,-0.1295,0.1385,0.03949,-1.2694e-4,0.30245,-0.069872,0.40636,0.21411,0.093625,0.10418,-0.069236,-0.048681,-0.30863,-0.088241,0.062921,0.33313,0.18371,-0.49342,-0.16211,-0.17221,-0.037731,0.079831,0.063734,-0.1324,-0.046848,-0.20139,0.12814,-0.13614,0.0047057,0.037959,-0.10353,-0.1395,0.19528,0.36036,-0.049478,-0.17034,-0.14192,-0.027111,0.08613,0.034346,-0.16021,0.12881,-0.13749,-0.34138,-0.2616,0.345,-0.20288,0.23539,0.40727,-0.27571,-0.0046924,0.19462,-0.18622,-0.30724,0.084037,-0.15362,-0.54617,-0.13526,-0.051155,-0.090351,0.05143
two,-0.042787,0.021008,-0.010656,0.23691,-0.10914,0.11364,0.08104,-0.08963,0.028048,0.16725,0.32177,0.014753,-0.039365,-0.095328,-0.037779,-0.11079,0.0078022,-0.09653,-0.039211,0.019009,-0.14289,-0.067665,-0.34326,0.02377,-0.22682,-0.0052578,0.062593,0.10703,0.10139,-0.14003,0.047672,-0.055667,-0.027452,0.035716,0.14919,-0.256,-0.096558,-0.022734999999999998,0.14314,-0.10151,0.3243,-0.32188,-0.15951,-0.068555,0.2172,-0.018742,0.015399,0.012097,0.084811,-0.13626,0.17574,-0.034163,-0.097007,0.13696,-0.23878,-0.0048385,-0.20212,0.19474,-0.44843,0.033639,0.14343,-0.21568,0.37218,-0.061451,0.0052274,-0.016064,-0.46722,-0.063281,0.020195,0.0057661,0.017295,-0.054501,0.12815,-0.22245,0.17331,-0.015966,0.25723,0.18674,0.053006,0.085951,0.14655,-0.17434,-0.40286,0.031242,0.098365,0.0053966,-0.14235,0.12383,0.10627,-0.26348,-0.15905,-0.36249,0.42316,-0.052531,0.15393,0.19552,-0.044145,-0.087237,0.056422,0.041022,0.11276,-0.096793,0.25266,0.024655,-0.14485,-0.27368,0.025269,0.16717,-0.085138,-0.16551,0.071062,-0.071654,0.017143,-0.15519,0.059725,-0.31675,0.05084,0.25471,-0.076676,0.31278,0.19897,0.1971,0.015398,0.44906,0.025087,0.1328,0.13571,0.3868,0.039457,0.41141,0.25284,0.083078,-0.17362,-0.098972,-0.052513,0.044958,-0.014746,0.018752,-0.0074413,-0.17854,-0.055522,0.036895,0.18334,0.24002,0.070781,0.22418,0.12459,0.082402,-0.12498,0.043271,-0.042265,-0.30769,-0.085772,-0.12223,-0.059418,0.055032,0.12957,-0.060091,0.27064,0.090178,0.015734,0.11379,0.22206,0.13828,0.15071,-0.051125,-0.019157,0.16602,-0.099245,0.018354,0.15507,-0.036933,-0.15022,0.012889,-0.0063673,0.1328,0.065317,0.17652,0.21467,-0.11954,-0.047375,-0.064448,-0.28786,0.08574,9.5687e-4,0.011876,0.023093,-0.037074,0.14286,0.028145,-0.038296,-0.19369,0.20076,0.12741,-0.021669,-0.039393,0.19729,0.32449,0.0034347,-0.19453,0.083832,0.018411,0.23358,-0.042907,0.021384,-0.20332,0.053472,0.20244,0.19168,0.15364,0.22217,-0.23451,-0.17831,-0.0028738,0.043552,-0.075121,-0.11484,-0.31365,-0.1264,0.056606,-0.015147,-0.089829,-0.10168,0.19851,-0.15027,0.10947,-0.028821,-0.063026,0.16191,-0.03954,0.20144,-0.18327,0.012342,-0.30748,-0.017691,0.046173,0.070848,-0.18618,0.016241,0.01985,-0.010055,-0.11585,-5.5453e-4,0.0509,-0.017426,0.33063,0.056454,0.07248,-0.098034,0.10158,0.021076,-0.071201,-0.44674,-0.1579,-0.071079,0.14169,0.061102,-0.026971,0.0041137,-0.07955,0.048669,0.13761,-0.13862,0.16066,-0.046004,-0.064986,0.01452,0.036494,0.064753,-0.12347,-0.05979,0.11379,0.043553,0.048641,-0.20961,-0.13571,0.084118,0.11034,0.011665,-0.061593,0.18993,0.092665,0.052162,0.033093,0.21433,-0.032212,0.14639,0.11366,-0.28801,0.36854,0.060341,0.051004,0.1612,0.27889,0.13875,0.1754,0.15241,0.15995,0.13901,-0.028607
four,-0.05818,-0.17638,0.10552,0.24917,-0.04244,0.054686,0.019205,-0.06134,0.093564,0.16868,0.33541,0.14217,-0.020506,-0.21018,-0.10696,-0.19919,-0.15696,-0.011327,-0.036018,0.14278,-0.12317,-0.12547,-0.4385,0.0021168,-0.35901,-0.12357,0.012187,0.055976,0.18719,-0.31629,0.017964,-0.072092,-0.015123,0.11934,0.16854,-0.36266,-0.060758,-0.057196,0.015795,-0.18815,0.33404,-0.45843,-0.19292,0.10574,0.36346,-0.017123,0.127,0.016163,0.05151,-0.15682,0.056396,-0.12932,-0.044884,0.28298,-0.14954,4.7287e-4,-0.073003,0.27274,-0.32099,0.049865,0.18296,-0.070466,0.3736,-0.15204,-0.0045027,-0.029998,-0.4196,-0.11245,0.22237,-0.050834,0.076868,-0.11906,0.071824,-0.098513,0.38963,-0.1475,0.45298,0.13832,0.0058869,-0.11039,0.13461,-0.2382,-0.44218,0.077921,-0.019503,0.081028,-0.15767,0.12826,0.15397,-0.15741,-0.31623,-0.27865,0.36102,-0.1856,0.098228,0.1273,-0.12897,-0.14425,0.067701,0.024285,0.13682,-0.10807,0.18948,0.072517,-0.17279,-0.21628,0.068552,0.21764,-0.25477,-0.21974,0.13455,-0.21173,0.055347,-0.031955,0.058383,-0.36589,0.16909,0.21559,0.044815,0.27525,0.21879,0.078341,-0.080463,0.43926,-0.055235,0.095334,0.069058,0.43106,0.03875,0.54285,0.21737,0.18499,-0.013442,-0.15756,-0.060813,0.067914,0.061279,0.09623,0.015023,-0.029727,-0.071428,-0.0018358,0.068161,0.0057095,0.08229,0.34806,0.13093,0.061658,-0.20351,0.067325,-0.057982,-0.21573,0.13627,-0.069273,-0.041381,0.10864,0.030025,0.034746,0.21401,0.071361,-0.1236,-0.014727,0.15171,0.16972,0.21514,-0.18659,0.11775,0.21829,-0.1193,-0.087601,0.1849,-0.075244,0.010199,0.012771,0.12834,0.15612,-0.11422,0.11253,0.18964,-0.22483,-0.028585,0.022921,-0.42369,0.076506,0.010563,0.046685,-0.11206,-0.067608,0.118,-0.11765,-0.078566,-0.2757,0.23683,0.15152,-0.035141,-0.014103,0.19339,0.32402,-0.066721,-0.19703,-8.8272e-4,0.048248,0.16886,-0.24595,0.19315,-0.29633,0.13334,0.15418,0.3157,0.21429,0.42187,-0.31378,-0.17303,0.013802,0.041063,-0.11199,-0.16906,-0.041519,-0.056856,0.028511,-0.0015953,0.12821,-0.21432,0.27253,-0.20243,0.13896,-0.10482,-0.037878,0.24229,0.043585,0.060753,-0.094366,-0.022634,-0.4073,0.0092085,-7.5993e-4,0.052079,-0.35612,-0.053446,-0.053312,0.064113,-0.0076072,0.039402,0.026145,0.021192,0.26179,-0.012783,-0.093913,-0.14134,0.077138,0.12864,-0.054543,-0.27639,-0.26273,-0.15922,0.18724,-0.01614,-0.14866,0.061426,-0.27097,0.098478,0.14896,-0.17097,0.11984,-0.076362,-0.065816,0.096439,-0.15033,0.10709,-0.15933,0.023361,0.25713,-0.10692,0.076324,-0.33478,-0.14446,0.060253,0.11405,0.016823,-0.14712,0.074844,0.1451,0.10034,0.084816,0.27225,0.029653,0.1513,0.073596,-0.33861,0.35967,-0.032901,-0.099834,0.184,0.2098,0.17041,0.033219,0.063605,0.0036995,0.21078,-0.06506
long,0.075172,0.11115,-0.093394,0.28195,0.28358,-0.11757,0.11484,-0.09394,-0.073221,0.2678,0.22019,0.27348,-0.48801,0.023957,-0.024272,-0.33948,-0.21071,-0.085382,0.044486,0.037774,-0.17761,-0.20097,-0.27725,-0.062598,0.066034,-0.063025,0.13032,-0.062603,0.29658,-0.15041,-0.303,0.15193,0.031429,0.11181,0.22166,0.17469,0.096073,-0.42762,0.25469,-0.15188,0.077658,-0.19006,-0.10748,0.21393,-0.31198,0.035879,0.12369,0.046453,0.12383,-0.031646,-0.21512,0.051674,0.094816,-0.19905,-0.12299,-0.098337,0.05979,-0.077961,-0.080053,-0.010476,-0.26511,-0.10447,0.20258,-0.083996,0.0091845,-0.20078,-0.27478,0.34118,-0.20559,0.068529,0.069029,0.061262,-0.049723,-0.31611,-0.14489,0.057819,0.59147,0.14519,0.023382,-0.0063874,0.11642,-0.33673,-0.071293,0.020046,-0.052932,-0.074815,-0.24145,0.1647,-0.0012631,0.11038,-0.026885,0.30542,0.27851,-0.10066,0.28922,0.021093,0.3175,-0.17904,-0.1218,0.23553,-0.084797,-0.18247,0.29869,0.03275,-0.065962,0.017532,-0.030883,0.061002,0.21308,0.18301,0.081398,0.060461,-0.13232,0.24025,0.27378,-0.15728,-0.27727,0.060029,-0.044251,0.1618,0.25126,-0.048801,0.02565,0.14108,0.12787,-0.073377,0.31179,-0.282,-0.16025,-0.11543,0.070952,0.3199,0.085118,-0.12794,-0.13236,0.027052,-0.1519,-0.37468,-0.057073,0.034968,-0.0090938,0.26461,0.18609,0.36877,0.10708,0.094679,-0.40976,-0.27762,-0.16034,0.23316,0.04536,-0.14707,-0.13481,0.012826,-0.18125,-0.26562,0.043292,-0.047216,0.26881,-0.018445,0.030717,0.1141,-0.46047,0.1483,0.040342,-0.37786,-0.059437,-0.098422,-0.12357,-0.21027,-0.11144,-0.64807,-0.051617,-0.18735,0.09316,0.33275,-0.084282,0.15706,0.073642,-0.50811,-0.11287,-0.056822,-0.079244,-0.041958,0.24413,0.12841,7.2619e-4,-0.26509,0.041002,-0.034196,-0.3102,-0.33293,0.20231,0.10393,-0.095028,-0.042931,0.30296,0.19261,-0.054879,-0.039993,-0.1026,0.10911,-0.24292,0.22518,-0.391,-0.30721,-0.042943,0.064123,0.22477,-0.093349,0.15416,-0.33146,-0.032069,-0.27171,-0.1814,-0.1691,-0.023226,-0.30293,-0.11621,-0.046212,-0.15708,0.029193,-0.26482,0.025531,-0.037069,-0.064344,-0.018758,0.090355,-0.079829,-0.22625,-0.077298,0.25484,-0.082326,-0.2242,-0.14765,-0.064052,0.41082,-0.25137,0.107,0.1184,0.1594,0.047955,0.40244,0.15597,0.20865,0.093399,0.011533,0.079227,-0.2717,-0.13274,0.05812,0.0052927,-0.47019,-0.15038,-0.1544,0.014563,-0.16567,-0.0017802,0.20818,0.16779,-0.087154,0.21119,-0.028631,-0.21292,-0.039959,-0.046695,0.053627,0.21187,-0.10199,-0.14719,-0.13119,0.17595,0.33596,0.051268,0.14866,-0.092284,0.34478,0.12432,-0.19105,-0.068926,-0.017874,0.032981,-0.15788,-0.45502,0.033714,-0.15991,0.079826,0.13659,0.051632,0.36711,-0.15171,-0.25436,0.063772,-0.22616,0.024395,-0.2679,-0.23825,0.053452,0.36792,0.17894
small,-0.044569,0.12975,0.30620000000000003,0.32749,0.090697,-0.15,0.28065,-0.019646,0.30794,0.25797,-0.14262,0.32599,-0.038048,0.57164,0.0089733,1.0294e-4,-0.057224,0.14873,0.106,-0.10305,-0.1499,-0.16604,-0.21642,-0.039211,-0.12086,-0.10131,-0.19782,-0.10773,-0.066765,0.16736,-0.029736,0.10794,-0.33281,0.012935,0.25162,-0.27114,0.12538,0.12269,-0.080379,-0.18021,0.08317,-0.097463,-0.027181,0.21669,-0.26765,0.24207,0.26535,0.073196,0.030083,0.052547,-0.3171,-0.090868,-0.11781,0.050549,-0.1715,0.10071,0.17369,0.19917,-0.014242,0.19281,-0.17533,-0.36261,0.26716,0.21643,0.013055,-0.52927,-0.31796,0.051683,0.17658,-0.19161,-0.32743,-0.055909,0.063444,-0.099898,0.011311,0.14648,0.033394,0.027594,0.094831,-0.23824,-0.043386,-0.055104,-0.18777,-0.13356,0.53811,0.24552,-0.015779,0.19209,0.060077,0.089273,-0.13558,0.28525,0.11295,-0.3677,0.38141,-0.21998,0.22991,0.054199,-0.12284,0.035177,-0.10606,-0.04837,0.029296,0.10901,0.2383,0.14716,-0.34044,0.35985,0.19649,-0.083531,0.028103,0.041879,-0.10193,0.023573,-0.015741,-0.10354,-0.10312,0.028958,0.12745,-0.052247,0.41358,0.026284,-0.12177,0.31586,0.011817,0.089758,0.0068711,-0.032406,0.18483,0.18165,-0.080425,0.407,-0.19332,0.13577,-0.17561,0.11747,0.025311,0.029125,-0.029527,-0.11396,0.13333,0.16254,0.13706,-0.0041846,0.31038,0.39834,-0.072155,0.027716,0.18289,-0.0076417,0.15409,-0.28368,-0.41852,0.12342,-0.23123,-0.022124,0.14865,-0.1496,0.18531,-0.014967,-0.11009,0.36141,0.086561,0.13253,0.32016,0.12984,-0.26087,-0.1715,0.28792,0.25821,-0.31841,-0.013635,-0.33478,-0.31903,-0.14617,0.26159,0.26867,0.2398,0.1457,0.15355,0.36423,0.18399,0.21432,-0.03854,0.49918,-0.037003,-0.17154,-0.031331,0.21834,-0.064746,0.094334,-0.21948,0.24398,0.072238,-0.15773,-0.21922,0.25398,0.35433,-0.12586,-0.11469,-0.070634,0.31751,-0.078949,0.19969,-0.13124,-0.34434,-0.23322,-4.1517e-5,-0.18244,0.089794,0.058073,0.005757,-0.083403,0.034293,-0.021519,-0.33497,0.022108,-0.12273,-0.15881,-0.081191,0.030885,0.15625,-0.21388,0.25294,-0.023764,-0.10212,-0.36302,-0.061991,0.032348,0.02118,0.012433,-0.26231,-0.17642,0.062744,-0.1097,-0.15441,0.051102,-0.464,0.13666,-0.0027866,-0.13489,0.13598,0.17063999999999999,-0.14508,-0.29246,0.30355,-0.11461,-0.029563,-0.051961,0.12573,0.28605,-0.10489,-0.3172,-0.084766,-0.050732,0.2584,0.073971,0.035762,0.33204,-0.09897,-0.13807,-0.035295,0.065375,-0.23819,-0.4795,0.23289,0.10896,-0.028577,-0.2213,0.073417,-0.13726,0.1555,0.025867,0.043997,-0.1268,-0.19367,0.23954,-0.097004,-0.051667,0.020588,0.11556,-0.068946,-0.049027,0.091017,0.263,0.24099,0.066722,0.15059,-0.14058,0.16871,0.34739,-0.0052584,-0.0075259,0.045862,-0.01217,-0.0083114,0.065184,0.19666,0.11711,0.073492
large,-0.062511,-0.066697,0.21379,0.43437,0.11874,-0.10864,0.36341,-0.12906,0.18657,0.28984,-0.081471,0.35158,-0.089531,0.39506,0.11405,-0.25831,-0.21729,0.19034,0.10088,0.015033,-0.12368,-0.18593,-0.16813,0.13682,-0.040543,-0.11604,-0.046597,-0.027122,0.041852,0.059228,-0.013492,0.21835,-0.17179,0.15288,0.096897,-0.20595,0.067629,-0.058064,-0.027537,-0.25257,0.016957,0.011656,0.0017333,0.31275,-0.12809,0.012371,0.18426,0.11083,0.070507,-0.059526,-0.46843,-0.15431,0.03836,0.048061,-0.067524,0.16511,0.041977,0.18943,-0.29754,0.14189,-0.14808,-0.24673,0.22039,0.055644,-0.047589,-0.31039,-0.28532,0.073924,0.094283,-0.22485,-0.30745,0.031535,-0.015129,-0.142,0.13737,-0.026987,0.10329,0.035217,0.034029,-0.26688,0.18893,0.1172,-0.27628,-0.10457,0.35781,0.024622,-0.065767,0.29268,0.18483,0.06511,-0.12072,0.22719,0.27139,-0.37157,0.1499,-0.2375,0.25706,0.059879,-0.15107,0.13895,-0.31311,-0.13008,0.38067,-0.0019006,0.14487,0.097327,-0.33109,0.28475,0.0012873,0.070352,0.079799,8.3186e-4,-0.12251,-4.1497e-4,0.17301,-0.1217,0.0086643,-0.078221,0.046337,0.02213,0.14251,0.051154,-0.11317,0.1851,0.037988,0.098474,-0.0057566,-0.097598,0.11565,0.34061,-0.04427,0.17753,-0.17148,0.015183,-0.18182,-0.090778,-0.19093,-0.003819,-0.032067,0.085141,0.006394,0.032768,0.1537,-0.070469,0.10838,0.2835,-0.27604,0.17746,0.047815,0.085306,-0.048823,-0.40739,-0.26188,0.036905,-0.055676,-0.17861,0.19105,-0.24622,0.19712,-0.14621,-0.095998,0.31143,6.6527e-4,0.11031,0.31425,-0.081083,-0.14004,-0.027252,0.5666,0.19669,-0.18341,-0.05884,-0.22191,-0.1808,0.0048956,0.15364,-0.01225,0.16647,0.061099,0.060902,0.16055,0.19074,0.007639,-0.13174,0.40498,0.03335,-0.15201,-0.075764,0.29588,-0.12603,0.11008,-0.41403,0.14857,0.041717,-0.023311,-0.044052,0.19413,0.3013,-0.34246,0.092852,0.18099,0.27729,0.019723,0.17474,-0.19809,-0.62601,-0.11701,0.10776,-0.15667,-0.14053,0.048897,0.027052,0.043172,0.059152,0.093688,-0.16419,-0.14328,0.02038,0.031993,0.10539,-0.14331,0.065362,-0.089488,0.42424,-0.11862,-0.098016,-0.16773,-2.1927e-5,-0.18074,-0.10562,-0.025507,0.011383,-0.10396,0.17216,-0.10337,-0.16347,0.12327,-0.34933,0.23965,0.1685,-0.28656,-0.012263,0.12383,-0.10524,-0.22462,0.028629,0.0092135,-0.078556,-0.1223,0.091183,0.27743,-0.13462,-0.094522,0.18907,-0.3013,0.26837,-0.037695,0.052037,0.22121,-0.10228,-0.19975,-0.072037,0.022224,-0.11823,-0.6185,0.21504,-0.025095,-0.26455,-0.28094,0.044558,0.010211,0.1157,-0.048414,-0.066464,-0.14247,-0.10451,0.22092,0.18197,-0.063033,-0.030584,0.14765,-0.15383,0.03173,-0.075678,0.15699,0.16556,0.0089302,0.15833,-0.1972,0.22338,0.31323,-0.13383,0.01827,0.14302,-0.1251,0.042386,-0.031876,0.30571,0.2078,0.086019
water,-0.16701,0.030612,-0.39748,0.5635,-0.16118,-0.3211,-0.16044,-0.2913,-0.13533,0.22399,0.31188,-0.10033,-0.007989,0.055669,-6.6792e-4,-0.39806,-0.27308,-0.19445,-0.0095867,0.20317,-0.12401,-0.072215,-0.20168,-0.031345,-0.37312,-5.1905e-4,-0.086971,0.084112,0.22065,-0.033995,0.17358,0.065796,-0.4306,0.10222,0.041514,-0.27326,0.050611,-0.14215,0.14753,0.043295,0.57478,0.30119,-0.17501,-0.21804,-0.12052,0.01933,0.24735,-0.088416,-0.1986,0.14755,-0.039644,0.21167,-0.051076,-0.051579,0.087261,0.33209,-0.31423,0.28111,0.18101,0.088896,-0.025882,-0.31381,0.10762,0.141,-0.10321,-0.31382,-0.43689,-0.0186,0.18202,-0.2582,-0.49344,-0.045028,0.16251,-0.10514,-0.15507,-0.33348,0.24976,0.23355,-0.19559000000000001,-0.34231,0.14377,-0.098884,-0.11876,-0.45676,-0.44711,0.044567,0.12266,0.2406,0.033981,-0.11278,0.12584,-0.15682,0.015718,-0.30494,0.11015,0.18433,0.11296,0.40802,0.31357,-0.19576,0.13874,-0.14988,0.012902,-0.054052,-0.1676,-0.28166,-0.19501,0.32681,-0.37797,-0.13605,-0.12425,0.21847,-0.29823,0.054856,-0.15621,-0.010963,0.0044965,0.35625,0.073339,-0.07967,0.70851,-0.0082197,-0.10723,-0.25052,0.037914,-0.21163,-0.16295,0.0098381,0.011845,0.34591,0.13112,-0.12089,0.043184,0.19453,-0.16858,0.012589,0.20329,0.047862,-0.27793,0.4795,0.27543,0.41895,0.080839,0.079837,-0.24906,0.38114,0.042408,-0.04442,0.31511,0.062159,0.2558,0.12664,0.12942,-0.32405,0.2308,-0.3724,0.13999,0.29302,0.052071,-0.094624,0.099278,-0.063578,-0.073797,0.13648,-0.0057952,-0.15844,-0.31775,0.12701,0.035195,0.1487,-0.55284,0.012927,-0.14215,-0.077873,-0.26371,0.19843,0.09895,-0.20428,0.23702,-0.40222,-0.35731,-0.0012671,0.20021,-0.055924,0.11491,0.4362,0.35259,0.33374,-0.057249,-0.51094,0.096425,-0.33275,0.018862,-0.049202,-0.55995,-0.018614,0.084737,0.17997,0.0052331,0.053891,-0.31689,0.0017684,-0.21048,-0.026728,-0.16363,-0.59544,-0.39699,-0.32731,0.27961,0.15486,0.22943,-0.12462,-0.099092,0.049996,-0.02855,-0.11211,-0.18077,-0.70986,0.58645,-0.096562,-0.10095,-0.10217,0.26266,0.01753,-0.0391,-0.050455,-0.14493,-0.34627,0.024104,0.088407,-0.12549,0.14452,-0.29333,0.079703,0.18572,-0.23172,-0.23825,-0.24031,0.14928,-0.082676,-0.020378,-0.023303,0.131,-0.19944,-0.14017,0.45213,0.069311,-0.036384,-0.53156,-0.33848,0.05832,-0.33043,-0.0054136,0.2038,-0.077548,0.32716,0.13558,0.19114,0.12243,-0.014424,-0.035825,0.084551,0.021735,-0.64139,-0.3978,0.065516,-0.43963,0.080403,-0.27154,0.16853,-0.043351,0.11055,0.013304,-0.12911,-0.09875,0.074742,0.31042,0.19571,-0.21005,-0.0049948,0.42519,0.44362,0.053787,5.7846e-4,0.21748,0.00435,0.076921,-0.13583,-0.41646,0.087406,-0.067914,-0.11728,0.50962,0.058151,-0.52419,-0.038826,-0.13373,0.40681,0.43671,0.66428
little,-0.070176,-0.12594,-0.06899,0.18618,0.062957,-0.059487,0.1144,-0.047421,0.40555,0.19931,0.07112,-0.14596,0.046156,0.11019,0.078155,-0.03042,-0.071138,-0.13767,-0.3743,0.0083613,-0.28015,-0.14625,0.042557,-0.077876,-0.35156,0.084489,-0.18931,0.10488,-0.12009,0.1435,-0.13449,0.30278,-0.2632,0.3074,0.2637,-0.17971,-0.13899,-0.19607,-0.0028823,-0.2471,0.028929,-0.048728,0.018273,-0.04235,-0.10356,0.2309,0.38348,-0.046,0.044249,-0.16119,-0.024462,-0.042958,-0.16423,-0.12569,0.029066,0.097105,0.0023598,-0.089905,-0.22097,0.042074,-0.13187,-0.1614,0.1246,0.13538,-0.045749,-0.2108,-0.058593,0.095015,0.21836,-0.093522,0.046554,0.12419,0.061111,-0.23997,0.0033371,0.2335,-0.0441,0.29353,-0.15192,-0.21403,-0.12338,-0.060916,-0.087034,0.014679,-0.12123,0.20909,-0.12839,0.21692,-0.05927,-0.041824,-0.12536,0.063098,0.30865,-0.080033000000000007,0.16908,-0.028839,0.0754,0.074236,-0.4032,0.21125,-0.035739,0.021585,0.22245,0.13957,-0.092063,-0.17703,-0.1403,-0.079518,0.04834,-0.35623,-0.31204,-0.28582,-0.023023,0.0037119,-0.0017854,-0.24591,-0.027905,0.027655,-0.37706,-0.018682,0.40924,-0.1613,0.084903,0.33475,0.35177,0.28835,-0.14404,-0.010673,-0.017448,0.011539,-0.063981,0.12689,-0.16891,0.20051,-0.12201,0.062833,-0.023536,-0.07099,-0.14705,-0.013918,0.23706,0.19161,0.24433,0.20337,0.30477,0.27808,-0.29919,-0.068657,-0.15584,-0.093411,-0.050344,-0.060756,0.079153,-0.02029,-0.024225,-0.039815,-0.16581,-0.059962,-0.061402,0.016266,0.22272,0.1453,3.6358e-4,0.0026645,-0.075754,0.25604,-0.19251,-0.067973,0.3966,0.067069,-0.12278,-0.15034,-0.51732,-0.57311,0.14218,0.16054,-0.045662,0.24871,0.021397,-0.34181,0.26344,-0.09601,0.10362,0.10413,-0.10173,0.0069283,-0.34309,-0.28539,0.32084,0.13428,-0.17754,-0.21179,-6.6993e-4,0.2195,-0.20364,-0.22843,0.091405,0.045548,-0.4615,0.095484,0.17539,0.20303,-0.047575,-0.042392,-0.35701,0.013114,-0.2699,-0.35251,-0.11535,0.14792,0.35702,-0.052904,0.053143,-0.1975,-0.45084,-0.31647,-0.13067,-0.30195,-0.36875,-0.21376,-0.010032,-0.288,-0.22567,-0.046019,0.012033,-0.2161,-0.23563,-0.053446,0.0018815,0.20799,0.27426,0.17844,0.27208,0.023814,-0.17901,0.20167,-0.070598,0.01628,-0.065171,-0.078847,-0.074503,-0.036623,0.30157,-0.04015,-0.10814,0.17244,0.10171,0.26465,-0.025056,0.19974,0.22176,0.099005,-0.095512,-0.084352,0.29087,0.16755,-0.083587,0.19354,0.13254,0.33374,0.17464,0.15108,0.027105,-0.355,0.17828,0.13818,-0.1732,0.51601,-0.086509,-0.20473,-0.43637,0.062035,0.21812,0.18074,0.10743,-0.066524,-0.024647,0.018381,-0.12027,-0.12757,0.43759,-0.073749,0.094879,0.1521,0.32558,-0.024596,0.076744,-0.01184,-0.096515,0.13966,0.11527,0.048922,-0.1799,0.27598,-0.20529,-0.12317,0.12786,0.12984,0.078637,0.21209
short,0.097098,-0.01967,-0.14618,0.074745,0.40361,0.015012,0.16508,-0.019278,0.17962,0.15455,0.22342,0.39953,-0.22136,0.20719,-0.23297,-0.1158,0.23185,0.18792,0.20075,0.17867,-0.2481,-0.05414,-0.64404,-0.12739,0.11285,-0.08899,-0.090676,-0.086828,0.38214,0.028772,-0.2579,-0.18448,-0.072599,0.032165,0.53079,0.088418,-0.21769,-0.17804,0.43935,-0.24837,0.066292,-0.14636,-0.095796,0.1848,-0.26171,0.0094729,0.14957,0.097332,0.23785,-0.10283,0.11897,-0.17765,0.17814,-0.20659,0.02985,-0.22519,0.19479,-0.12054,0.079845,-0.095394,-0.40254,-0.0898,0.19911,0.16587,0.032689,-0.16632,-0.48361,0.49832,-0.1354,0.076966,0.10341,-0.056782,-0.06075,-0.12526,-0.23274,-0.12973,0.24047,0.13922,0.035077,0.12699,-0.059879,-0.16016,-0.10215,0.18842,0.16459,-0.10807,-0.158,9.8146e-4,0.052507,-0.27487,0.012289,-0.047737,0.46222,-0.19281,0.28736,0.05619,0.18055,-0.067957,-0.27139,0.44284,0.036046,-0.13615,0.13667,0.16445,-0.066612,0.092253,0.090053,0.25531,0.25616,-0.13442,2.8502e-4,0.14037,-0.27642,0.083957,0.11207,-0.21114,-0.21736,-0.0078808,0.047368,0.27924,0.24525,-0.17656,-0.023321,0.2169,0.10562,0.15269,-0.016803,-0.21727,0.17251,-0.12615,0.22608,0.26204,-0.093561,-0.24361,0.077368,0.040125,0.040136,-0.15851,-0.15454,0.14842,0.33924,-0.022246,0.29735,0.3076,0.055754,0.058552,-0.42827,-0.46177,0.082509,0.24597,-0.11191,-0.22141,-0.29462,-0.080793,-0.18407,-0.025548,0.13782,0.034828,-0.0078262,0.11394,-0.014537,0.23119,0.028972,-0.075916,0.13609,-0.27131,-0.29924,-0.14383,-0.021519,-0.015554,-0.31184,-0.157,-0.2284,-0.3045,0.020289,0.65648,-0.12419,0.19336,0.1499,-0.38461,-0.051577,-0.14624,0.074982,-0.36391,0.10713,0.22077,-0.072524,-0.090753,0.061198,0.29026,-0.20433,-0.15191,0.14526,0.050326,-0.069554,-0.080421,0.035305,0.19693,-0.17821,0.013634,-0.089311,0.12891,-0.10237,-0.23647,-0.089852,-0.39339,-0.1367,0.26576,0.096708,0.015162,0.15043,-0.30049,-0.007939,-0.082912,-0.22246,-0.20639,-0.1262,-0.12082,-0.43959,0.034892,-0.16039,-0.12927,-0.26245,-0.065208,-0.022228,0.050129,-0.1372,-0.12645,-0.092489,-0.083411,0.15857,0.16524,0.026536,-0.14225,-0.29399,0.14725,0.36728,-0.13015,-0.20127,-0.29844,0.11889,-0.036183,0.28814,-0.088462,0.059604,0.15733,-7.7061e-4,0.071024,-0.27723,-0.004847,-0.26428,-0.020695,-0.45186,-0.28522,-0.087012,0.087815,-0.26515,0.082955,0.18703,0.31524,-0.0078002,-0.19639,-0.082201,-0.031808,-0.1699,0.021233,-0.12046,0.10213,-0.21367,-0.34241,-0.49774,0.11707,0.082211,0.042772,-0.068834,0.076443,0.22622,0.12577,0.016524,0.1962,0.1119,0.25698,-0.13583,-0.5125,0.36058,-0.014774,-0.12439,0.041087,0.12148,0.12256,-0.11093,-0.44618,0.1405,-0.069282,-0.013511,-0.22971,-0.18098,-0.021225,0.24582,0.21006
round,-0.32678,-0.17783,-0.026308,0.53413,0.16707,0.017496,0.025234,-0.20467,0.14242,-0.22399,0.17298,-0.43417,-0.0046775,-0.22136,0.045041,-0.081677,-0.52993,0.30647,0.096271,0.13161,-0.095844,-0.14771,0.13779,0.0019657,-0.014778,-0.076083,-0.19853,-0.27935,-0.17272,0.49234,0.28202,-0.1716,0.04854,0.29263,0.14467,-0.16645,-0.049953,0.20861,0.22083,-0.37479,0.33247,-0.087483,0.014615,-0.051938,0.35599,0.1471,0.58637,0.38695,-0.26399,0.302,0.04434,0.034382,0.14603,-0.33519,-0.28651,0.17893,-0.20959,0.30831,0.095252,0.30267,0.19051,-0.35473,-0.060397,-0.12004,0.32904,0.31453,-0.34219,0.41808,-0.13319,0.31923,-0.34442,-0.095859,-0.16488,0.20593,0.15948,-0.085476,0.45998,0.29564,0.045008,-0.021961,0.26917,-0.11025,-0.15416,0.54233,0.17417,-0.16501,-0.042403,-0.50915,0.31346,0.035431,-0.082469,0.022706,0.37457,-0.16912,0.15538,-0.13248,0.2856,-0.2676,-0.39639,0.020984,0.19752,-0.024046,0.29566,0.081483,0.36294,0.83034,-0.065829,0.29212,0.33531,-0.070931,-0.23657,-0.25626,0.21594,0.010339,0.1365,-0.15073,-0.03509,0.2236,0.019914,-0.37124,0.46938,-0.060475,-0.12754,0.20031,0.11945,0.054301,0.5591,0.4085,-0.14227,0.43892,-0.14262,0.50962,0.0023079,0.16189,-0.042971,-0.070022,-0.17829,-0.64766,0.0069303,0.56342,-0.047188,0.24043,0.46005,0.15156,0.0019545,0.17422,0.046774,0.065937,-0.30831,0.1483,0.6814,-0.01206,-0.15856,0.11418,-0.29477,0.18296,0.12395,0.048987,0.13718,-0.051345,0.49951,-0.16278,-0.10075,0.06933,0.29921,0.22453,-0.43016,0.36654,0.057649,0.044379,-0.18131,-0.23428,0.22154,-0.10652,0.47068,0.61001,-0.29335,0.40593,-0.041826,-0.12774,0.43304,-0.4065,0.10329,0.12083,-0.04857,0.22255,-0.059988,-0.13202,0.13146,-0.41703,0.19853,0.088166,0.26551,0.21376,0.015523,-0.31423,-0.029153,0.28249,-0.036275,-0.021022,-0.053855,4.518e-6,0.17819,-0.1655,0.20357,-0.45447,-0.23143,0.15314,0.41275,-0.027578,0.809,-0.1346,-0.081155,0.18951,-0.17203,0.13717,0.10185,-0.23253,0.16357,-0.36355,0.045318,-0.35351,0.12727,0.29885,0.22334,-0.11459,-0.4214,-0.014811,-0.35683,0.19921,-0.35681,0.10878,0.11049,-0.14332,-0.58502,-0.12172,-0.24537,-0.001433,0.24075,-0.41424,-0.23232,0.064373,0.22537,-0.013171,0.013378,0.16478,0.1863,0.050943,-0.14726,-0.04605,0.14858,0.06331,-0.32235,-0.3239,0.4129,0.13425,-0.17634,-0.29357,-0.036517,0.26061,-0.015385,-0.072171,0.23242,-0.35823,0.07179,-0.038329,0.63201,-0.21332,0.1417,0.27705,-0.25676,0.027194,-0.54003,-0.0049044,-0.36953,-0.29796,0.24446,0.56984,0.026128,-0.156,0.18278,-0.041724,-0.12674,-0.12303,0.37939,-0.12575,0.20037,0.23283,-0.39815,-0.082432,0.24766,0.036945,0.10073,0.64756,-0.087828,0.086313,-0.071621,-0.52599,0.10847,0.14682
low,-0.064916,-0.001979,0.12379,0.54373,0.26853,-0.28408,-6.2813e-4,-0.12833,0.46706,-0.38323,0.20546,0.27114,0.10023,-0.072018,0.62815,-0.10505,-0.092849,-0.018771,0.34421,0.17287,-0.10445,0.04938,0.0082441,-0.11391,-0.25134,-0.025196,-0.36659,0.37955,-0.1368,0.57104,-0.29149,0.36503,-0.31768,0.085363,0.058465,-0.082337,-0.026661,-0.14765,-0.024943,-0.16589,0.42632,-0.20249,-0.29343,0.13752,-0.13607,0.16895,0.11518,0.46138,0.50684,0.043595,-0.076646,0.11384,0.004429,-0.19525,0.16052,0.15349,-0.045485,0.53351,-0.50502,0.047488,-0.14119,-0.071151,0.35518,-0.2232,0.026348,-0.27114,-0.08124,0.40924,0.27927,-0.22973,-0.082091,0.1111,0.13018,0.23869,0.094366,0.5061,0.50647,-0.017867,0.082962,0.071949,-0.29864,0.090069,-0.30848,-0.30048,-0.14178,0.14315,-0.27569,-0.06521,0.21779,-0.0065358,0.17146,0.28009,0.039974,-0.25859,-0.15237,-0.026836,0.073408,-0.28186,-0.25108,0.13111,0.12222,0.14127,0.46083,-0.42433,-0.059923,-0.068448,-0.27946,-0.0057264,0.16878,-0.15328,-0.2788,0.4463,-0.26189,-0.14828,-0.17114,0.010816,-0.05726,-0.13071,0.32152,-0.27684,0.18008,-0.29016,-0.26819,0.31953,-0.025783,-0.24399,-0.15584,-0.18189,-0.10966,0.16583,0.11052,0.11962,-0.075335,0.60031,0.057124,-0.16508,0.18465,0.23279,-0.1141,0.061963,0.036226,0.40326,-0.34491,0.17247,0.07198,0.26934,-0.27481,0.23693,-0.048579,0.19607,-0.052218,-0.13235,-0.90272,-0.25216,-0.156,-0.18077,-0.13971,-0.2134,-0.078883,0.12059,-0.10557,0.55132,0.24823,-0.11855,0.14428,0.028373,-0.023478,-0.11989,0.12305,0.13721,-0.31347,-0.064775,-0.31101,0.19347,0.062703,-0.17878,-0.35161,0.075326,0.15622,-0.064307,0.3765,0.23491,0.029437,-0.1156,0.022212,0.39648,-0.12754,0.014651,0.22094,0.16571,-0.32741,-0.51145,0.071002,0.34057,-0.1181,-0.23501,0.052973,-0.01264,0.15919,0.23021,-0.1684,0.0049916,-0.22285,0.17118,-0.064319,-0.34543,-0.019268,0.12645,0.4582,0.18005,0.56314,0.019291,0.12935,0.11824,-0.34669,-0.025119,-0.0096187,0.095507,-0.069798,0.089515,-0.19552,0.38932,-0.16224,0.12055,0.0092283,0.13385,-0.59428,-0.30337,0.06983,0.051239,-0.094692,-0.19652,-0.054792,-0.23942,-0.092584,-0.11664,-0.15565,-0.064431,-0.12921,0.47119,0.18372,-0.09619,0.24781,-0.17245,-0.12806,0.15102,-0.24637,-0.26683,-0.095468,0.15907,0.1139,-0.20884,-0.164,0.1883,-0.32614,-0.41257,-0.10098,-9.0181e-4,-0.17472,0.24481,-0.36436,-0.087009,0.043611,-0.47163,-0.42003,-0.13056,-0.17469,-0.095596,-0.34736,0.02645,-0.49133,0.28425,0.12746,0.02394,0.20638,-0.20857,-0.066103,0.18744,-0.53924,-0.1138,0.038648,0.0071328,-0.036476,-0.1844,0.41343,-0.13558,0.51367,0.072949,-0.14265,0.25557,0.11804,-0.061818,-0.1233,-0.081251,0.084023,-0.33164,0.065516,0.17819,-0.040397,-0.17088
big,-0.2314,0.13571,0.13531,0.25824,0.29848,-0.13418,0.31073,0.037205,0.085655,0.20119,0.072292,0.18932,0.066805,-0.0030104,0.057518,-0.025484,0.074611,0.31994,-0.34865,-0.052772,-0.12806,-0.03918,-0.11932,0.0060012,-0.15317,-0.029907,-0.46896,0.036502,-0.21694,-0.23554,0.089287,0.41403,-0.3922,-0.07513,0.29354,-0.030262,0.37723,0.035178,0.2241,-0.48227,-0.10688,0.081858,-0.022583,0.30691,0.061787,-0.019672,0.034031,-0.067204,0.022545,-0.18749,-0.19568,-0.1454,-0.05408,0.10841,-0.17927,0.29228,0.11774,0.30193,0.19436,-0.14741,0.22037,-0.092765,0.27252,0.31716,-0.27216,-0.24673,0.31766,0.24178,-0.06204,-0.10768,0.17735,0.056376,0.016435,-0.24618,0.074764,0.20285,-0.041939,0.069634,-0.28201,-0.1801,0.05821,0.01137,-0.44696,0.22934,0.05065,0.15227,-0.21096,0.19161,0.22267,-0.25275,-0.086356,0.21443,0.37849,-0.13378,-0.016154,0.090827,0.0070305,0.018177,-0.28684,0.20738,0.13095,0.082508,0.14822,0.4379,-0.45205,0.22812,-0.23521,0.35593,-0.012342,-0.31361,0.28133,-0.16375,0.03,0.21168,-0.004593,-0.18454,0.083471,-0.33559,-0.24087,-0.044155,0.33894,-0.33139,-0.17003,0.15878,0.27029,0.15647,0.14481,0.15597,-0.077836,0.04735,-0.12667,0.24227,0.14251,0.20472,-0.21842,-0.092964,-0.28766,-0.0090475,0.097534,-0.054085,0.038496,0.087083,0.19091,1.0182e-4,0.30422,0.218,-0.21731,7.4879e-5,0.14324,0.10888,0.15461,-0.2797,-0.03349,-0.083644,-0.13807,-0.068095,0.0019613,-0.24732,0.023551,0.07395,0.31462,-0.067874,-0.14909,0.21084,0.25317,-0.003225,-0.29929,0.11057,0.29197,9.8003e-5,0.0011719,-0.16608,-0.40619,-0.55635,-0.10353,0.021428,0.0047612,0.12692,0.18698,-0.2869,0.31109,-0.085552,-0.083114,0.16429,-0.13833,-0.0017504,-0.059454,-0.1186,0.015071,0.14802,-0.021533,-0.49066,0.16365,-0.030048,-0.23854,-0.018394,0.10623,-0.077374,-0.79191,-0.20202,0.42304,0.24666,0.21757,-0.086974,-0.25072,-0.019731,-0.34241,-0.27227,-0.064008,-0.24358,0.2535,-0.10129,-0.073567,-0.3065,-0.15113,-0.53301,-0.12019,-0.36907,-0.10488,0.20566,-0.29105,-0.11373,-0.41124,0.42229,0.23366,-0.14621,-0.12907,-0.30016,0.030548,0.095745,-0.0097842,0.081908,-0.15751,0.18252,-0.13805,-0.074987,-0.29878,0.16128,0.30035,0.25638,-0.23846,0.13086,0.085669,0.44357,0.13958,-0.053569,0.29437,0.047815,0.24795,0.10319,0.21857,0.042936,-0.23371,0.049747,-0.11043,-0.089242,-0.073786,0.055392,0.30627,0.079045,0.12329,0.21707,0.30414,-0.48554,-0.30165,-0.097502,-0.15396,-0.064809,-0.13752,-0.12058,-0.19079,0.29851,0.12915,0.090833,-0.019179,-0.13337,-0.017495,0.019122,-0.11419,-0.014133,0.13298,-0.045744,-0.11197,-0.15475,0.13828,0.36662,0.43099,0.42543,-0.28782,-0.029019,0.22898,-0.098065,0.41113,0.094122,-0.10278,0.18914,0.037976,-0.24534,0.014488,0.062297
body,0.25932,-0.10101,-0.17153,0.28572,-0.16664,-0.019197,-0.12041,-0.086787,0.0076738,0.20211,0.026143,0.035107,0.20656,0.12902,0.11273,-0.35027,-0.25002,-0.33772,-0.12974,0.3803,-0.26548,0.15633,-0.43652,-0.10273,0.17851,-0.16168,-0.20425,-0.1881,-0.036319,0.11131,0.23643,0.40235,0.12977,0.046937,-0.091894,0.24641,0.047856,0.026887,0.072074,0.052625,0.035937,-0.21131,-0.0039373,0.17671,-0.021467,0.04311,-0.040831,-0.10568,0.41144,-0.32017,-0.10047,-0.33648,-0.27993,-0.17741,-0.11184,-0.26478,0.10964,0.15115,0.33714,0.36541,-0.11957,-0.254,-0.11094,0.062831,-0.37494,-0.38693,-0.38341,0.010464,0.29524,0.012731,-0.22964,-0.15024,-0.15862,-0.12991,0.1507,-0.18361,0.27513,0.091951,-0.13907,-0.12057,-0.0097046,0.029305,-0.19746,-0.16512,0.0035832,0.051514,0.16787,0.19881,-0.30753,-0.058499,0.024533,0.11419,-0.25079,-0.26144,0.13449,-0.23408,0.19854,-0.16349,0.0040361,-0.22675,-0.41985,-0.43469,0.26465,-0.2048,0.31796,-0.07823,-0.34253,0.14564,0.025165,-0.05648,-0.10716,0.48577,-0.24616,-0.021658,0.70857,0.091133,-0.11581,0.075838,0.28596,-0.067609,0.22605,-0.15723,-0.13076,0.22257,0.30553,0.47891,0.026501,0.085679,-0.21311,0.13655,-0.12322,0.38294,-0.37787,-0.073167,0.45546,0.011638,-0.0063386,-0.22509,-0.14661,0.36674,-0.15028,0.12503,-0.01218,-0.53775,-0.043805,-0.059058,0.027084,-0.15488,0.004313,0.36183,0.1611,0.020694,0.24684,-0.1867,-0.17948,0.36663,-0.14767,-0.077224,0.30226,0.012564,-0.26361,0.13799,-0.17578,0.311,-1.2076e-4,-0.085056,0.045085,0.046833,0.26922,0.0089472,0.16515,-0.52245,-0.14667,0.13429,-0.098255,0.26428,0.11556,0.005552,-0.10154,-0.094308,0.046521,-0.28825,-0.14313,-0.06041,0.18221,0.23311,0.17853,0.12669,0.40184,-0.28426,0.0086011,0.22159,0.35523,0.1219,-0.37604,0.073268,0.090186,0.22985,-0.17786,-0.071923,0.1848,0.021636,-0.42092,-0.1422,-0.21623,-0.66946,-0.12315,-0.18363,0.58421,-0.19213,0.37844,0.31074,0.33413,-0.18398,0.2361,-0.062246,-0.09119,-0.44814,-0.026527,0.1994,-0.36059,-0.17966,0.1856,0.19908,-0.37358,0.068173,-0.31823,-0.27744,0.11695,-0.29427,0.44555,-0.12061,-0.047557,0.076674,-0.19776,0.61195,-0.26318,0.34414,-0.048708,-0.14832,-0.2031,-0.072445,0.19157,-0.02412,0.080354,0.28978,-0.24229,-0.24632,-0.32974,-0.13588,-0.074007,-0.076359,-0.074471,0.011323,-0.0897,0.090214,-0.04767,-0.19798,-0.25136,-0.32199,0.33175,-0.15758,0.0055248,-0.34482,-0.20027,-0.15698,-0.079063,0.18971,0.016638,-0.060948,-0.19528,-0.023885,-0.01391,0.042613,-0.29579,-6.271e-4,0.34936,-0.12891,-0.17134,-0.20225,0.41914,0.33375,0.048832,-0.26702,0.1388,-0.13435,-0.028465,-0.28563,-0.66528,0.27508,-0.0096863,0.063976,-0.16903,0.23571,0.087434,0.16728,-0.15002,0.13221,-0.21876,0.29892
size,-0.24211,0.35949,0.28722,0.34656,0.27694,-0.063805,0.029272,-0.17278,0.1896,0.39564,0.13753,0.32985,-0.2202,0.30565,0.083279,-0.19557,-0.29829,0.31002,0.14295,-0.13226,0.14822,-0.061063,0.053038,0.046062,-0.41903,-0.082437,-0.059436,-0.028455,-0.046068,-0.040208,-0.090317,0.41999,-0.31269,0.15838,-0.43721,-0.29778,0.60576,0.35487,-0.55387,-0.17959,-0.14407,0.066703,0.050871,0.23055,0.13605,-0.017301,0.13978,-0.022578,0.39556,-0.01222,-0.35375,-0.44249,-0.30274,-0.17346,0.14006,0.58897,0.24325,9.0675e-4,0.04836,0.085723,0.049475,-0.038922,0.55037,-0.30425,-0.25231,-0.32221,0.15091,-0.14372,-0.028249,0.080814,-0.65042,-0.2889,-0.2596,-0.019565,0.025008,0.58811,-0.037257,0.37303,0.18508,-0.09786,-0.044198,0.27495000000000003,0.0095298,-0.086685,0.2482,0.099069,-0.0099295,0.28083,0.31184,-0.47345,-0.21093,0.59115,0.12919,-0.66569,0.26475,-0.29348,0.16954,-0.24716,-0.31367,-0.1096,-0.010136,-0.32469,0.13981,0.04741,0.43688,-0.049147,-0.050584,0.37268,-0.092033,0.082367,-0.042229,0.22622,-0.36634,0.20274,0.46395,-0.063561,-0.30607,0.22043,-0.082624,0.49929,0.17498,0.22357,-0.23022,0.23935,0.2347,0.12974,0.0099685,0.031125,0.37867,0.055925,-0.071838,0.075588,0.21824,0.043395,0.20327,0.0086825,-0.16705,-0.11137,-0.34016,0.44093,-0.0043528,0.028354,0.42542,0.44156,-0.2006,0.13304,0.25581,0.008155,-0.2037,0.43603,0.21539,-0.090326,-0.031647,0.15815,-0.19942,0.10803,-0.05137,0.2237,-0.029054,-0.0093708,-0.23387,0.36399,0.31502,0.36424,0.17963,-1.6851e-4,-0.28942,-0.19847,0.33493,-0.093496,-0.17847,-0.36651,-0.23207,-0.18041,0.23537,0.22429,-0.10573,0.015012,-0.047039,0.095923,0.13647,0.15284,-0.031792,-0.1802,0.11458,-0.18269,-0.36171,0.29154,0.33966,0.078941,-0.21745,-0.36565,0.16314,0.08392,-0.2111,0.16464,0.061526,0.22467,-0.13906,0.14455,-0.14815,0.17259,-0.14691,0.0061415,0.42868,-0.18513,-0.23052,0.063658,0.17102,-0.34566,0.12128,0.33698,0.37186,-0.06157,0.17976,-0.46856,0.33352,-0.35719,-0.2322,0.19463,0.10066,0.19418,0.014832,0.46974,0.25748,-0.29168,0.1479,-0.37852,0.19147,-0.040052,0.41713,-0.0056524,0.17657,0.056224,0.045626,0.099663,-0.1368,-0.67796,0.41207,0.046196,-0.42709,0.22632,0.2144,0.019572,-0.35332,0.27724,-0.19176,-0.30857,-0.62994000000000006,-0.010116,0.078159,-0.13333,-0.35424,-0.052055,-0.23066,0.074796,0.45129,-0.0039599,-0.063858,0.16447,0.16439,-0.15511,-0.095205,-0.083108,-0.65184,0.16577,-0.40631,0.033521,-0.050594,0.11366,-0.10199,0.38312,0.11751,-0.25036,-0.13137,-0.16622,0.19714,0.26021,0.18528,-0.14077,0.54282,0.035671,0.088125,-0.24479,0.12824,0.31636,8.8186e-4,0.45338,-0.56031,-0.11715,0.3956,0.16241,-0.19078,0.013529,0.021233,-0.34585,-0.15547,0.31951,0.18116,-0.15093
standard,0.082558,0.20861,0.033465,0.36673,-0.0062839,-0.080014,-0.22479,-0.23011,0.21776,-0.23356,0.23785,0.024816,-0.011782,0.12137,0.4012,-0.4699,0.012966,0.12983,0.26466,0.32799,0.096327,-0.14238,-0.044368,-0.045022,0.28167,0.013376,-0.21557,-0.023061,-0.01259,0.13983,-0.23266,0.16665,-0.03435,0.2909,-0.14589,0.17319,0.042376,-0.28192,0.016822,-0.11656999999999999,-0.062245,-0.012384,0.080928,0.0504,0.089357,0.021296,-0.32174,0.24201,-0.078943,-0.17738,-0.19102,-0.1773,-0.017137,0.083759,-0.054748,0.025709,0.1353,-0.10984,-0.011101,0.095986,0.26745,0.14597,0.061364,-0.50068,0.021341,-0.34371,-0.0093522,-0.084892,-0.11567,0.41447,-0.058293,-0.11149,-0.11671,-0.22277,-0.01028,0.16796,0.057206,0.14375,0.15236,0.074534,0.49901,0.15412,-0.38943,-0.15937,-0.20255,0.14159,0.15824,-0.055053,-0.1139,0.37349,0.089549,-0.030234,0.40711,-0.37447,-0.14074,-0.035671,-0.085857,0.15684,0.016662,0.048784,0.16355,-0.14615,0.13747,0.21433,-0.024084,-0.032632,0.1478,-0.1062,-0.12206,-0.094483,0.017552,0.11135,-0.52729,-0.0041899,0.12621,-0.19058,0.41773,-0.076344,-0.049658,-0.1746,0.046534,0.021994,-0.26268,0.42648,0.4303,-0.20146,0.38708,-0.060144,0.0056268,0.19384,0.66194,0.31876,-0.0063143,0.097174,0.44354,0.14728,0.053507,0.068169,0.3027,0.16158,0.018963,0.51381,0.11357,0.035414,0.07535,0.4433,0.20468,-0.022432,-0.22167,0.21002,-0.011235,-0.035263,0.047497,-0.021084,-0.093204,0.074007,0.26872,0.15596,-0.058887,0.10782,-0.24732,0.40893,-0.19293,0.099393,0.29474,-0.0015967,-0.031646,-0.23026,-0.045545,0.14687,-0.074103,-0.061684,-0.06136,0.0893,-0.12135,0.16731,0.10966,-0.099777,-0.070536,-0.17427,-0.13327,0.09661,0.32602,0.10721,0.077502,0.28354,-0.12743,0.026871,-0.23313999999999999,0.34792,-0.18642,-0.33068,-0.03732,0.10425,-0.10596,-0.34263,0.1552,0.05116,-0.13375,-0.46135,0.18322,-0.14794,0.10295,0.056052,0.13987,0.1131,-0.045234,-0.35478,0.49778,-0.22411,0.1991,0.28466,0.0013305,-0.039364,0.071716,-0.17043,-0.20657,-0.085458,-0.47939,0.072492,0.32649,0.040494,0.01874,0.017608,0.2873,0.1894,0.0090096,-0.052797,-0.22211,-0.1528,0.13653,0.18395,0.065538,-0.35032,-0.023615,0.16196,0.23334,-0.30516,-0.28127,0.099231,-0.039511,-0.030212,0.29223,-0.26125,0.025633,0.31645,0.090264,-0.1496,-0.080145,0.23385,-0.14998,0.082634,-0.18419,0.15146,-0.15918,0.27595,0.29191,-0.22551,0.19654,0.33459,0.24297,-0.16532,-0.20312,0.21837,-0.75133,-0.39119,0.0048575,-0.15988,-0.12243,0.021603,-0.31651,-0.023449,0.15904,-0.02569,-0.35669,-0.12034,0.36006,0.24793,0.19966,0.10282,-0.26587,-0.061205,-0.034675,-0.1757,0.27815,-0.42718,-0.051323,0.090855,-0.42725,0.040756,0.073852,0.070666,0.24608,0.27867,-0.1824,-0.60007,-0.50706,0.014917,0.23272,-0.12841
strong,-0.33694,-0.045637,-0.093706,0.5804,-0.1206,0.023686,0.087435,0.16119,-0.125,0.2296,0.044908000000000003,0.16344,-0.14673,0.097621,0.34856,-0.11872,0.09897,-0.065502,0.3079,0.27726,0.27494,-0.078838,-0.033114,-0.088898,-0.23211,-0.025215,0.085625,0.20288,-0.018021,0.025554,-0.14693,0.27898,-0.010151,-0.088272,-0.024664,-0.010481,-0.25484,-0.13601,0.094403,-0.27287,0.32758,0.36933,0.2229,0.27539,0.10837,0.20313,-0.02421,0.15444,-0.13636,-0.30506,-0.23775,-0.058113,0.088169,-0.015851,-0.19628,0.097957,-0.048579,0.079778,0.058119,-0.12597,-0.054472,-0.081285,0.14865,-0.15044,-0.22679,-0.41969,-0.2091,0.11925,0.15226,0.012323,-0.04701,0.10221,0.20303,-0.34063,-0.16656,-0.13084,0.22613,0.16645,0.083869,0.21385,0.18423,-0.12664,0.18074,-0.05562,-0.040056,0.1883,0.003427,0.17845,-0.1254,-0.022795,-0.071507,-0.16889,0.15379,-0.3882,0.19848,-0.1277,0.1254,0.044809,0.044818,-0.14951,0.24509,0.013608,0.41738,-0.34,-0.088179,-0.15284,-0.030607,0.15013,0.26482,-0.30307,-0.14576,0.11061,0.04736,0.10831,0.33847,0.38634,0.081338,-0.013423,0.032503,-0.12124,-0.073728,-0.20988,0.1158,0.37935,-0.060739,0.018443,-0.24259,-0.092663,-0.095127,0.19058,-0.30519,0.016454,-0.21379,0.053692,-0.14015,-0.28636,-0.18544,-0.3121,0.19387,0.2116,-0.080577,-0.019588,0.28293,0.098765,0.20981,0.085255,-0.0042016,-0.070599,-0.22226,0.084887,-0.28342,-0.35034,-0.12589,-0.017525,-0.028181,-0.17757,-0.16902,-0.11679,0.25533,0.064035,-0.23464,-0.086572,-0.17663,-0.079101,0.15819,0.30135,0.0069932,-0.011384,0.41017,-0.22131,0.19263,0.087607,-0.062889,-0.0061106,0.026857,-0.11115,0.029107,0.28169,-0.0094374,-0.31275,0.29968,-0.074094,0.44129,0.24891,0.10046,0.25534,-0.12932,0.047311,0.18063,0.20696,-0.18845,-0.22485,0.21494,0.26773,0.051206,0.045716,0.13239,0.19601,-0.20003,0.27469,0.26052,-0.19246,-0.044619,0.17305,-0.14728,-0.4514,-0.22127,0.058655,0.089613,0.23235,0.37866,-0.096711,-0.18605,-0.29831,-0.18314,-0.20981,-0.13953,-0.47905,-0.13501,-0.15447,-0.218,0.011202,-0.34855,0.052691,-0.28439,0.19559000000000001,-0.21876,-0.016591,-0.17568,-0.11229,0.064028,-0.012926,0.058716,-0.41409,-0.10162,0.21197,0.55846,0.10611,0.23833,0.17501,0.12427,0.1152,0.095076,0.30442,0.081282,-0.054257,-0.010794,0.054305,-0.057015,-0.13683,0.026798,-0.11831,-0.095595,0.007883,-0.36876,-0.016599,-0.094633,-9.8821e-5,0.1277,-0.054245,-0.23974,0.32242,0.21849,-0.4148,-0.32189,-0.12331,0.076239,-0.018498,-0.27091,-0.0097262,-0.38521,-0.29212,0.31985,0.06962,0.13217,0.0023071,-0.22114,0.15112,-0.19051,0.043258,0.30776,-0.15146,0.12333,-0.14211,-0.051509,-0.088147,0.0068449,0.11572,-0.19328,-0.19768,0.37042,-0.18248,0.10483,0.18295,-0.35054,-0.22621,0.14369,-0.0013608,0.23168,-0.15721
features,0.12513,0.085767,-0.16813,0.19377,-0.21354,0.14781,-0.14618,-0.035695,0.051717,0.035868,0.239,0.38489,0.16106,-0.051288,-0.034272,0.069239,0.13696,0.045261,-0.16987,-0.012103,0.12807,0.20225,-0.11356,-0.088801,0.19614,-0.040051,-0.015203,0.044049,0.2082,-0.17775,0.14792,0.28283,-0.046756,-0.021459,0.030153,0.12227,-0.056272,0.359,-0.033026,-0.21524,-0.011859,-0.11524,0.20902,0.34453,-0.19246,0.097228,-0.26173,-0.13232,0.29541,-0.061732,0.23833,0.30385,0.10876,0.11413,0.10774,0.32716,0.0065036,-0.14594,-0.40123,0.52313,0.1181,0.094714,-0.011827,0.010899,0.090305,-0.030068,-0.16359,0.39783,0.18708,0.027722,-0.059854,0.088862,0.10521,-0.10937,-0.10623,0.11275,-0.20175,-0.19399,0.26105,-0.21971,0.18266,-0.14121,-0.093709,0.19108,-0.052616,-0.20648,0.28623,-0.074055,-0.004853,0.29949,0.18535,0.30461,0.49243,-0.20613,0.29639,-0.043298,0.18578,0.068548,0.024427,0.073845,-0.01056,-0.23858,0.17527,0.11185,-0.23352,0.011888,-0.21033,0.38282,-0.029314,0.067867,0.11266,0.14977,-0.33367,-0.21581,-0.052187,-0.067877,0.11579,0.20834,-0.0026074,0.43061,0.20797,-0.21198,-0.097458,0.29688,0.079627,0.25751,0.26653,0.46277,0.27291,0.47711,0.12599,0.15958,-0.12031,-0.19875,0.11488,-0.25441,-0.071647,0.20958,-0.023338,-0.043758,-0.0030977,0.19178,0.1194,0.20544,-0.10771,0.38363,-0.030756,-0.055974,-0.07141,-0.060525,0.037753,-0.13555,-0.1149,-0.10981,0.063852,-0.078639,0.062818,-0.025127,0.05584,-0.18097,0.20684,-0.060913,-0.14679,0.057762,0.38777,-0.12537,-0.30477,-0.35492,0.2942,-0.25856,0.037266,-0.035681,-0.21686,0.1903,-0.044942,0.1224,0.19647,-0.1863,0.061167,-0.037549,-0.011282,0.021057,0.34455,0.13039,-0.0034574,0.40361,0.07266,-0.26692,-0.070159,0.075978,-0.055008,-0.27229,0.53602,0.051874,0.091646,-0.094339,-0.026908,0.11468,-0.020601,-0.06035,0.074611,0.049675,0.10905,0.0097717,0.32212,-0.13384,0.054271,0.011927,0.29674,-0.12407,0.58121,0.055357,0.16867,-0.34332,0.13171,-0.13377,-0.03459,-0.4399,-0.20203,-0.1997,-0.024302,-0.10364,-0.042858,0.32564,0.11548,-0.32728,-0.31171,-0.21171,-0.028238,0.10999,-0.11505,0.094582,-0.18181,0.088712,-0.39601,0.11531,-0.049207,0.038939,-0.30273,-0.024519,-0.14457,0.054734,-0.10474,-0.23765,0.11204,-0.050463,-0.18053,-0.19637,-0.050241,0.0043642,0.15502,0.22405,0.041875,-0.18432,-0.10325,-0.023811,-0.10135,0.026802,0.0491,0.052955,0.2296,0.053688,0.18533,0.21844,-0.21484,-0.075769,-0.36192,-0.083449,-0.13155,0.082435,-0.31554,0.22479,0.22956,-0.04172,-0.1723,-0.23212,0.16114,0.55795,-0.016156,0.050689,0.24415,-0.027308,0.27749,0.043528,0.10882,0.14609,-0.13188,0.40859,-0.35769,0.0064007,-0.22428,-0.19464,7.5568e-4,0.13973,0.14556,-0.42909,0.10081,0.11634,0.28714,-0.13108
hand,-0.016532,0.17107,-0.26112,0.31318,-0.030094,0.046409,-0.15992,-0.26362,0.38553,-0.013824,-0.067134,0.0051643,-0.013413,0.26622,-0.015194,-0.31973,0.18382,-0.02347,0.20555,0.30974,-0.054257,0.043007,-0.18234,-0.34644,-0.062145,-0.16183,0.023165,-0.090744,-0.1432,0.058258,0.18752,0.20074,-0.14583,0.05349,-0.22329,-0.065837,-0.15165,-0.20269,0.11108,0.12483,0.33054,0.27327,0.011537,-0.33106,-0.03238,0.16403,-0.10573,-0.0050296,0.18796,0.062767,-0.22182,0.086775,0.014403,0.02389,-0.2108,-0.0042702,-0.20562,0.036366,-0.21748,0.15159,-0.23266,-0.072923,-0.0047179,0.15845,-0.035962,0.28446,-0.10937,0.064597,0.087921,-0.096537,0.072577,0.1149,0.14103,-0.26447,-0.088606,-0.01046,0.21958,0.11051,-0.31397,0.14502,0.048088,-0.12942,-0.22852,-0.098245,-0.13045,0.11895,-0.13808,0.012062,0.09726,0.041281,0.22654,-0.080898,0.088052,-0.27767,0.093153,0.008429,-0.088286,0.009211,-0.18945,0.10616,0.021447,-0.12772,0.14098,-0.039672,0.1994,-0.10078,-0.3036,-0.02691,0.054076,-0.013204,0.061756,-0.12976,0.2317,0.094024,0.40207,-0.1462,0.16191,-0.105,0.1837,-0.030166,0.064316,0.22986,-0.083849,0.23399,-0.079238,0.27007,0.21142,0.23357,-0.14258,0.11521,0.15392,0.1047,-0.094709,0.1386,-0.14462,0.062051,-0.0044305,-0.12854,0.13822,-0.031655,-0.16951,-0.13677,0.13136,-0.27627,-0.1914,0.3059,0.017079,-0.26803,-0.31864,0.030445,0.36518,0.018409,-0.10121,-0.046727,-0.012619,0.03288,0.015477,-0.12748,0.044692,-0.040222,-0.031499,0.15057,0.087017,0.013379,0.22745,0.31456,0.10697,-0.34113,0.31509,-0.041167,-0.19168,-0.2439,-0.32715,-0.10505,-0.057614,0.22935,0.17688,0.18418,0.31733,-0.079088,0.032775,-0.20194,-0.052135,0.13065,0.19201,0.1734,-0.04504,-0.10405,0.31385,-0.089062,0.090679,-0.13201,0.10344,0.12913,-0.20056,-0.22014,-0.051094,0.10944,-0.30063,-0.054659,-0.0038813,0.043466,-0.0010636,-0.18851,0.06139,-0.2651,-0.13951,-0.067348,0.16481,-0.35108,0.33661,0.081198,-0.11354,-0.34761,0.39734,0.28147,-0.030592,-0.41293,-0.23565,0.29746,-0.20452,-0.056399,-0.022485,0.074853,-0.28391,0.22833,-0.1343,-0.023902,0.18629,0.01221,0.078796,-0.17959,0.22874,0.10658,-0.11569,0.19017,0.089497,-0.16119,0.15488,0.076524,0.09044,0.10952,0.13582,0.24983,-0.20861,0.20769,0.1985,-0.10464,-0.017264,0.31611,-0.189,-0.10696,0.0014526,-0.13256,-0.074418,0.21595,-0.16058,0.10704,-0.023452,0.014238,0.070366,0.25888,-0.076633,-0.019612,-0.060788,-0.2178,-0.37373,0.1071,0.29582,0.074902,-0.21083,-0.064668,0.089532,0.2278,-0.08369,-0.12969,0.068052,0.41461,-0.11221,-0.18959,0.35602,-0.087693,0.024068,0.022313,0.21792,-0.32112,0.16061,0.37667,-0.20788,-0.16479,0.075151,-0.0041485,0.10918,0.099523,0.072038,-0.070936,-0.075382,0.043562,0.228,0.33048
ground,-0.47824,0.11417,-0.20524,0.38444,0.086589,-0.026528,-0.1117,-0.39039,-0.084582,0.38345,-0.092879,0.031778,0.19778,0.020017,0.29329,-0.025886,-0.37617,-0.3131,0.41815,0.21872,-0.063002,-0.23176,-0.63302,0.11824,-0.17221,-0.010209,0.25723,0.22954,-0.38653,0.33876,0.17365,0.02341,-0.098918,0.075397,0.12876,-0.15045,0.33274,-0.15362,0.47108,-0.053678,0.19166,0.49239,0.017469,0.012736,-0.022821,0.19455,0.2641,0.052994,0.29532,0.021468,-0.16987,0.20608,0.1367,0.061577,-0.34056,0.38614,-0.21982,0.11825,-0.2451,0.63845,-0.066138,-0.59877,0.095763,-0.068937,-0.18797,-0.31862,-0.04281,0.29997,0.11856,0.27404,-0.32844,-0.174,0.10149,-0.071495,0.13319,-0.015998,-0.09549,-0.047014,-0.037199,-0.23131,-0.19988,0.10915,-0.29875,-0.42925,-0.07532,0.17933,-0.049415,-0.14526,0.0488,0.052309,-0.11236,-0.37638,0.1188,-0.13206,0.36913,0.58462,0.02481,-0.062012,-0.031808,-0.31389,-0.025644,-0.40534,0.45157,-0.42348,0.094008,0.15675,-0.39583,0.2274,0.10262,-0.24578,-0.011858,0.13216,-0.15037,-0.21745,-0.090709,-0.2357,-0.033864,0.1198,0.039619,0.088339,0.5702,-0.092731,-0.088793,0.068774,0.15556,0.37053,0.11612,0.021101,-0.079132,0.1169,-0.038748,0.11176,-0.29119,0.18269,0.16002,-0.027104,-0.068144,0.17519,0.20937,-0.060719,0.09886,0.31393,0.064525,0.049596,-0.3642,0.017409,-0.26663,0.14729,-0.123,0.35906,0.072359,0.11578,-0.26222,-0.022835,0.40972,-0.091268,0.0080626,-0.14342,0.38842,-0.079562,0.12587,0.12339,-0.34884,0.0052562,0.39912,2.945e-4,-0.034498,0.16492,0.28273,-0.17075,-0.10317,-0.2448,0.083714,-0.025902,0.086078,0.44885,-0.44877,-0.27554,0.13072,-0.17371,-0.21891,-0.0054658,0.17927,-0.096205,0.14147,-0.20873,0.11001,0.29318,0.36051,-0.20601,0.051092,-0.15818,0.066818,0.27756,-0.24,-0.0011404,0.084348,0.16039,0.067311,-0.020128,-0.16608,0.18115,-0.22128,0.21631,-0.077882,-0.39397,-0.13397,0.21145,0.19441,-0.082813,0.18321,0.17114,-0.17649,-0.17609,0.097722,0.24055,-0.10583,-0.57031,-0.3721,0.030791,0.09364,0.17955,-0.22089,-0.31151,0.20429,-0.027697,-0.36345,-0.14521,-0.28084,0.1636,0.16292,0.060283,-0.087355,-0.054784,0.23339,-0.3117,-0.32918,0.31084,-0.18294,-0.18443,-0.30943,0.11354,-0.37632,0.0056333,-0.093363,-4.2509e-4,-0.084052,0.18812,-0.14967,0.14612,-6.7896e-4,-0.29276,0.032,-0.1887,-0.20164,0.41042,-0.16595,-0.080763,-0.28234,-0.036081,-0.10687,0.27894,-0.29584,-0.24864,-0.085276,-0.10145,-0.38541,0.1525,0.39419,0.021978,-0.26955,-0.10637,-0.17347,-0.23173,-0.42339,-0.17641,-0.18841,0.41983,0.28498,0.12134,-0.093538,0.17848,-0.10917,-0.067337,0.070131,-0.45147,0.058234,0.11312,-0.30187,0.10684,-0.050448,-0.17126,-0.10802,0.06231,-0.10692,0.053556,-0.26646,0.24992,0.010662,0.20604
square,-0.29353,0.051414,0.141,0.15558,-0.11754,0.16262,-0.09731,-0.0014352,0.35293,0.058302,0.07168,-0.18276,-0.19719,0.14202,-0.086703,-0.021144,-0.48775,-0.30620000000000003,0.39367,-0.0059704,-0.22718,0.2429,0.25182,-0.082564,-0.2246,-0.15183,0.55074,-0.10927,0.098741,0.26846,-0.0055965,0.36639,-0.0067733,0.092674,0.0052309,0.031386,0.012991,-0.20365,0.14547,-0.11605,0.085933,-0.076904,0.031712,-0.083833,0.47253,0.15932,-0.11077,-0.28011,0.089969,-0.21909,-0.10904,-0.027286,-0.26145,0.049829,0.32313,0.45793,0.01733,0.053674,-0.24026,0.11133,-0.0031763,-0.46521,0.33107,-0.1579,0.1554,0.12194,-0.17158,-0.087407,0.14917,-0.17636,-0.087463,-0.088515,-0.0093631,-0.29882,-0.02212,-0.33993,-0.062617,-0.1931,0.045611,-0.088285,0.22682,0.0063777,-0.17066,-0.33096,0.021478,0.42757,0.14863,0.2697,0.025431,-0.085911,0.43301,-0.13172,0.10114,-0.25252,-0.030624,-0.26982,0.54503,0.10896,-0.31958,0.023322,-0.26149,-0.13938999999999999,0.4785,0.169,-0.34852,0.058749,-0.12243,0.21542,0.48154,0.18081,0.035312,0.14346,0.16299,-0.57478,-0.35211,-0.2153,0.28779,0.063054,0.2071,0.68202,0.29857,0.20328,0.1789,0.25756,0.12922,0.20969,0.60256,0.44002,-0.16382,0.070057,0.087221,0.24955,0.30845,-0.18961,0.13073,0.068333,0.31106,-0.15709,-0.22566,0.48552,0.26748,0.018165,0.13256,0.30107,0.045058,-0.010671,0.30979,0.096743,-0.2384,0.26189,-0.058168,0.41125,-0.36874,0.3864,0.031265,-0.58666,0.16802,0.3936,0.15402,-0.31612,0.34013,0.14827,-0.38418,0.22971,0.038761,-0.23047,-0.40162,-0.10893,0.10698,0.034228,-0.14164,0.079978,-0.3117,0.19224,-0.17334,0.25875,-0.6003,-0.37962,-0.19695,0.19502,0.25568,-0.41653,-0.12922,-0.26445,0.029366,0.026485,-0.37436,-0.41834,0.061444,-0.21005,0.38603,-0.4349,0.38157,0.22551,-0.32692,0.078805,0.53382,0.54137,-0.36207,-0.21936,-0.03263,0.03464,0.20728,-0.16447,0.2052,-0.38694,-0.16005,0.4001,0.45365,-0.42005,0.52303,-0.11897,0.46515,-0.050665,-0.34808,-0.29594,0.074392,-0.39368,-0.083552,-0.2774,0.093344,0.35947,-0.38438,0.59147,-0.0077161,0.32851,0.23411,-0.031496,-0.25895,-0.26322,0.17412,-0.37312,-0.01321,-0.28026,0.32716,-0.49373,0.12697,0.18092,-0.046319,0.086718,-0.31392,-0.31553,0.081303,0.084428,0.040257,-0.037132,0.39252,-0.18069,-0.23114,-0.095793,0.45967,0.021361,-0.41883,-0.042715,0.079139,0.23207,0.65024,0.054969,0.16481,-0.15019,0.11708,-0.20397,0.17658,-0.10808,-0.053222,-0.061181,0.19936,-0.2294,0.041109,0.48071,0.06617,-0.23573,-0.26769,-0.015903,-0.41916,-0.48368,0.81104,0.53508,0.26668,0.11949,0.042854,0.028648,-0.31997,0.61573,-0.065884,-0.022571,0.34921,0.13442,0.1776,0.30052,0.11254,-0.064999,-0.14,-0.056402,-0.49236,-0.025026,-0.52547,0.18187999999999999,-0.10647,0.5017
wide,-0.46255,0.063432,0.079261,0.19232,0.015012,-0.13604,0.2464,0.13547,0.36027,0.14532,0.083798,0.58826,-0.079026,-0.042494,0.60824,-0.32993,-0.37574,-0.27038,0.04992,-0.14701,-0.18327,-0.22877,0.15883,0.10863,0.12836,0.12349,-0.14098,-0.16461,0.38256,0.19617,0.041444,0.42396,-0.079516,0.27379,0.40005,0.20084,0.10557,0.058039,-0.024461,-0.03992,-0.022219,-0.28514,0.11321,0.34223,0.023667,0.45727,0.13123,0.005983,0.15896,-0.33931,-0.50183,0.10656,0.33798,-0.16245,0.074173,0.14611,-0.23971,-0.080083,0.093017,0.22832,-0.09705,0.049024,0.47667,-0.1295,-0.10977,-0.24793,-0.22334,-0.16102,-0.13028,0.028865,-0.34811,-0.10988,-0.37349,-0.18839,0.013392,-0.051462,0.44604,0.14919,0.078824,-0.020006,-0.0054205,-0.19372,-0.25194,-0.1042,-0.026608,-0.067106,0.010677,0.026298,0.021988,0.2806,0.051938,0.14751,0.42741,-0.45976,0.21454,-0.25832,0.60307,0.049838,-0.025779,-0.035182,-0.38351,-0.082946,0.63762,0.13532,-0.14117,0.23112,-0.050647,0.10892,0.039445,0.16212,-0.31055,0.10856,0.049393,-0.026457,-0.083452,-0.14592,-0.086197,0.16517,0.34409,0.20711,0.2264,-0.21369,-0.23185,0.051406,0.033921,0.094427,0.36801,0.027468,0.19945,0.054903,0.058873,0.19773,-0.27338,-0.047846,-0.22429,-0.14175,-0.35804,-0.15787,0.036777,0.23469,-0.28127,0.18436,0.34814,-0.010939,-0.030387,0.39389,-0.005074,-0.018308,-0.25212,0.30327,0.033205,-0.39864,-0.24563,0.16868,0.04937,-0.03535,0.11814,-0.081574,0.19724,0.2186,-0.24841,-0.15205,-0.017916,-0.020012,0.11571,-0.058748,0.17453,-0.17995,-0.065348,-0.078731,-0.25561,-0.3752,-0.10899,0.15388,-0.25096,0.21888,-0.056273,-0.028605,-0.15242,-0.16671,0.032886,0.03098,-0.28975,-0.17249,0.16609,0.1448,-0.20542,-0.28251,0.25694,0.057016,-0.03667,-0.12664,0.7537,0.11783,0.18679,-0.070975,0.19374,0.27941,-0.16511,0.02717,0.18758,0.0016459,-0.19284,0.10237,-0.2679,-0.33621,-0.0048884,0.064543,0.25645,-0.093492,0.56867,-0.083792,0.066104,-0.017458,-0.30772,-0.051573,0.028263,-0.20853,0.030354,0.20464,0.041559,0.030943,-0.21023,0.38936,-0.079778,-0.27516,0.11844,-0.23652,-0.15041,-0.10134,-0.23979,0.047813,0.010492,-0.04462,0.038406,-0.048316,-0.023801,-0.41116,0.1511,0.079601,-0.052786,-0.059508,0.20047,0.14329,-0.12562,-0.010702,0.053965,-0.22512,-0.23167,-0.020448,0.22898,-0.19805,-0.11465,-0.40144,0.082484,-0.056123,-0.32286,-0.014451,0.25477,0.45031,-0.076094,0.18766,-0.10277,-0.013888,-0.44247,0.010784,-0.30953,0.13779,-0.32612,-0.050325,-0.10297,0.049697,0.11865,0.13277,-0.35156,0.067429,0.15382,0.52589,-0.28429,-0.11832,0.10748,0.022524,-0.23821,-0.023796,0.0073279,-0.20873,-0.10638,0.22666,-0.10782,0.45727,-0.041565,-0.0016682000000000001,0.36007,-0.16232,0.27798,-0.53133,0.069312,-0.18455,0.0035454,0.10394
larger,-0.10236,0.24095,0.26735,0.42463,0.25641,-0.16368,0.14894,-0.21043,0.26494,0.48592,-0.18284,0.14589,-0.0241,0.18739,0.012537,-0.13365,-0.27191,0.18466,-0.0055062,-0.13554,0.20016,-0.25419,0.096544,-0.029826,-0.33507,-0.22722,-0.088813,-0.018602,0.043491,0.12592,0.053041,0.15184,-0.43452,0.25148,0.0088336,-0.30354,0.16653,0.087716,-0.29454,-0.16209,-0.079554,-0.067846,0.14668,0.1495,-0.040297,0.056212,-0.11553,0.20138,0.27707,-0.14292,-0.16438,-0.12639,-0.15008,-0.086388,-0.049798,0.18045,0.016281,0.30452,-0.23283,0.32148,-0.045793,-0.25099,0.12849,0.1341,-0.0062287,-0.16647,-0.29288,-0.23034,0.008846,-0.022178,-0.39656,0.064558,-0.22211,-0.13722,0.22256,0.35,-0.063001,0.19269,0.038537,-0.2798,0.11777,0.1418,-0.32625,-0.0012971,0.2584,0.11492,0.092312,0.1689,0.15956,-0.17995,-0.093962,0.079296,0.20095,-0.34612,0.29626,-0.27985,0.15047,0.13215,0.011484,-0.036403,-0.25109,-0.33624,0.39603,-0.035722,0.108,-0.043083,-0.087185,0.27817,0.015571,0.24744,0.055873,0.15304,-0.22145,0.027073,0.17452,-0.18646,0.027328,0.032606,-0.15042,0.06309,0.26799,0.11867,-0.40084,0.20499,-0.03053,0.032401,-0.025287,0.017818,0.22984,0.29498,-0.051883,0.024267,-0.03731,0.22279,-0.28406,-0.071729,-0.22574,-0.041026,-0.34958,0.22887,0.014344,-0.097938,0.086693,0.086681,-0.092866,0.22259,-0.086878,0.11383,0.25047,0.20915,-0.0052587,-0.28309,-0.019467,0.20357,-0.016112,-0.079759,0.26399,-0.067389,0.22171,0.059383,0.14524,0.33821,0.16654,0.27772,0.22573,0.033585,-0.21288,-0.11418,0.34343,0.12371,-0.22368,-0.1782,-0.46303,-0.13792,-0.17498,0.14205,0.079802,0.07837,-0.05178,0.0040704,0.19073,0.05371,-0.030827,-0.073472,0.21231,-0.075766,-0.19428,-0.066092,0.33009,0.029404,0.11058,-0.54954,0.2851,-0.22882,-0.077703,0.056095,0.44924,0.28426,0.089275,-0.16179,0.095513,0.24996,0.1291,0.35707,-0.25926,-0.24455,-0.12823,0.058012,0.013143,-0.076413,0.10262,0.14641,-0.012731,-0.24377,0.04511,-0.33962,-0.044876,-0.052554,-0.17917,0.049348,-0.070285,0.018079,-0.078992,0.28777,0.1189,-0.12758,-0.19791,-0.23212,-0.17955,-0.053848,0.41002,-0.028563,-0.027921,0.2691,-0.098789,-0.057359,0.1152,-0.25222,0.087003,0.069936,-0.28694,0.12238,0.058583,-0.016858,-0.13144,0.27272,-0.021252,-0.0092487,-0.30821,0.31399,0.2102,0.037743,-0.26394,0.17439,-0.11747,0.34002,0.21901,0.042912,0.020652,-0.02541,0.16736,0.084359,-0.28387,-0.024721,-0.70875,0.056264,-4.5006e-4,0.13006,-0.13639,0.11111,-0.16631,0.11761,-0.13469,0.039889,-0.088191,-0.19251,0.012362,0.060685,0.07097,-0.044523,0.10263,-0.011462,-0.0027067,0.031449,0.24064,-0.12431,0.061681,-0.15884,-0.24966,0.47304,0.28589,-0.051558,-0.091322,0.36,-0.080052,-0.156,-0.037389,0.18924,0.29607,0.045735
normal,0.32066,0.23356,-0.25795,0.062911,0.058215,-0.18721,0.31001,-0.13493,0.49192,-0.099682,0.30427,0.075963,-0.059375,0.16307,0.42916,0.043165,-0.15078,0.14051,-0.045589,0.29358,0.088837,0.016643,-0.030304,-0.17105,-0.16355,0.097596,-0.063783,0.13925,-0.23118,0.0086856,0.043073,0.25197,-0.13338,0.54405,-0.0011994,-0.21898,0.081099,-0.10431,-0.23476,-0.088551,0.060995,0.05119,-0.1586,0.36898,-0.11515,0.28223,0.076151,-0.087603,0.075188,-0.095312,0.12475,-0.32086,-0.098237,-0.48203,0.25318,-0.092307,0.11991,0.060062,-0.21039,0.087356,0.046302,-0.097223,0.42437,-0.0013321,-0.20769,-0.18712,-0.049981,-0.0032544,-0.11722,-0.12565,-0.42746,-0.08823,-0.12193,-0.11111,-0.3078,0.31412,0.41684,0.15454,0.17779,0.082517,0.21689,-3.2911e-4,-0.037148,-0.1097,-0.24928,0.31973,0.05775,0.30842,-0.36148,-0.15936,-0.038243,0.25696,0.47596,-0.30767,-0.068051,-0.016362,0.23638,0.027705,-0.051897,-0.24045,0.30809,0.012957,0.097213,-0.33683,0.20702,-0.20584,-0.0098048,-0.020659,-0.12265,0.079,0.233,0.08631,-0.028741,-0.18994,0.0076198,-0.29169,0.2999,-0.18318,-0.26237,-0.060502,0.1062,-0.043567,-0.46267,0.43846,0.17026,-0.25155,0.023746,-0.0097668,0.19784,0.12343,0.37275,0.21793,0.027394,-0.14969,0.050046,0.14869,-0.078893,-0.0025386,-0.072784,0.2755,0.052303,-0.059776,-0.033966,0.067091,0.016283,0.14869,0.28186,-0.031331,0.034161,0.28376,0.23217,0.014789,0.19342,-0.095559,-0.083091,-0.19535,0.14589,0.19439,-0.058704,-0.014697,0.048148,0.51346,-0.34221,0.2084,0.15539,0.13194,-0.16932,-0.21131,0.12508,0.31083,0.24447,-0.25808,-0.13704,0.31377,0.31948,0.25679,0.16241,-0.24908,0.072213,-0.15986,0.23902,-0.13074,0.12451,-0.22772,0.23807,0.39383,-0.064541,0.020959,-0.15476,-0.060257,-0.24298,-0.18481,0.047709,0.098263,-0.33117,-0.16285,-0.17052,-0.053374,-0.023923,-0.29368,0.20645,0.012734,-0.071524,0.032281,0.15004,-0.06963,-0.38397,0.038021,0.16325,-0.18405,0.17106,0.2244,0.35296,0.12659,0.089823,-0.40601,-0.13535,-0.28485,-0.19879,0.03518,-0.27423,0.12303,0.14867,0.079348,-0.015466,0.015271,-0.29497,-0.035171,-0.0016471,-0.096137,0.084213,-0.26076,-0.12761,-0.16571,0.027751,0.18196,0.057312,-0.10098,-0.0014045,-0.0057274,0.015053,0.23908,0.081734,-0.069701,-0.011495,0.03532,0.061014,-0.083572,-0.077386,0.24689,-0.16565,-0.077202,-0.31998,-0.027035,-0.011514,0.31824,0.10669,-0.57775,0.20461,0.075498,0.45988,-0.035685,0.096929,-0.080738,-0.22132,-0.26082,-0.18725,0.27494,-0.028247,0.017704,-0.22938,-0.05008,0.125,-0.026912,-0.28409,-0.16681000000000001,0.34095,-0.17188,0.041686,-2.3296e-5,0.11265,-0.22764,-0.19811,-0.17414,0.1304,-0.4666,0.17588,0.058473,-0.19627,0.20107,0.12023,-0.080219,-0.139,0.16195,-0.29358,-0.1114,0.15194,-0.18648,-0.066572,-0.23343
height,-0.30538,0.11899,0.24096,0.47621,0.1837,-0.52042,-0.43101,-0.50757,0.3988,0.10652,0.37434,0.59077,0.27106,0.15381,0.18155,-0.43998,-0.064199,-0.16904,0.056371,0.15983,0.016307,-0.28171,-0.5574,-0.11952,-0.070241,-0.44247,0.29036,-0.040133,-0.33099,-0.168,0.062713,0.41998,-0.10319,0.17078,-0.11096,-0.074476,0.44841,0.36021,0.039545,0.022212,0.073898,-0.16379,-0.10044,-0.041617,0.2475,-0.064232,-0.037821,0.047985,0.45177,-0.11204,0.065995,0.065355,0.25075,0.031377,0.044706,0.57107,-0.018614,-0.38933,0.14582,-0.25953,-0.0099862,0.01013,0.50291,-0.48929,-0.15802,-0.10011,-0.025446,0.55826,-0.12345,-0.30728,-0.41313,-0.469,-0.07747,0.28629,0.078478,0.25409,0.22465,0.37049,0.026913,-0.08328,0.11732,0.14659,0.15332,-0.41102,-0.098106,0.077405,-0.12976,0.17185,0.32346,-0.022509,-0.59673,0.48236,0.4449,-0.55085,0.22437000000000001,-0.1207,0.42983,-0.16339,-0.41596,-0.019138,0.095322,-0.034606,-0.096257,0.074942,0.48922,-0.21317,0.067074,0.16231,-0.1113,-0.44832,0.12723,0.36543,0.20952,0.18737,0.088466,-0.17607,0.0033313,-0.0053674,0.17326,0.16416,0.16854,0.31869,-0.027186,0.28992,0.47008,0.18574,0.42878,0.065498,0.088435,0.11658,-0.12805,0.22753,0.056807,0.26162,-0.3912,-0.0067755,-0.27199,-0.046183,-0.099026,0.33324,-0.23865,0.19196,0.35462,0.41881,-0.32215,0.056619,-0.24257,0.15978,-0.38135,0.22372,0.15678,-0.012088,-0.13958,0.13252,-0.1731,-0.42083,-0.35989,0.15973,0.0015934,-0.082368,-0.031329,0.2712,0.30034,0.047919,0.10621,-0.09994,-0.078392,-0.2694,0.03016,0.15461,-0.051347,-0.54155,-0.28856,0.19888,0.25466,0.31316,0.050178,-0.23348,0.10815,-0.21591,0.074752,-0.24787,-0.013134,-0.0978,0.44966,0.34975,-0.29472,0.054326,0.46877,-0.2496,0.11407,-0.16012,0.57299,-0.10984,-0.29273,0.1017,0.17835,-0.18282,-0.12617,-0.20507,-0.068645,-0.092024,-0.14382,0.13403,0.25816,-0.2771,-0.13474,-0.033643,0.39758,-0.09881,0.24767,0.52318,0.11532,0.47747,-0.13395,-0.67424,0.18351,-0.57061,-0.21712,0.029437,0.13424,-0.027529,-0.28213,0.18466,0.41765,-0.085981,0.23671,-0.41294,0.21511,-0.21745,0.39923,0.059689,0.030925,0.33074,-0.091566,-0.25299,0.026539,7.6074e-4,0.30603,-0.10756,-0.30839,0.1271,-0.075214,0.17016,-0.038997,-0.44515,-0.062141,-0.50528,-0.41278,-0.015974,0.27889,-0.23142,-0.10157,-0.28347,0.20523,0.063154,0.66231,-0.39773,0.0045702,-0.10315,-0.31928,-0.048682,-0.19077,-0.24076,0.0039323,7.8521e-4,-0.36837,0.15722,-0.31649,0.029208,-0.17332,0.17052,0.041354,0.026772,-0.27449,-0.14172,0.13656,0.56235,0.28175,-0.060692,0.15226,-0.089879,-0.37515,-0.27368,0.31553,0.066174,-0.16022,-0.19724,-0.060455,-0.16519,0.10376,-0.34969,0.056465,-0.14352,-0.22431,-0.55647,-0.31314,0.14991,-0.050961,0.17425
flying,-0.31133,-0.26401,-0.27731,0.49647,0.026876,-0.26177,-0.33578,0.27484,-0.009663,-0.18597,0.065238,0.16983,0.02332,-0.32665,-0.087102,0.16416,-0.027891,-0.4234,0.2058,-0.18745,-0.32811,-0.14961,-0.40881,0.15257,-0.070351,-0.096054,0.16526,0.31914,-0.092133,0.17747,-0.0082776,0.14666,-0.18642,0.24944,0.41372,0.15351,0.42721,-0.16187000000000001,0.055079,-0.071314,0.0074152,0.053446,-0.068989,0.14768,-0.25001,-0.25675,-0.16206,0.022143,0.12034,0.14812,0.13456,-0.029522,0.243,0.14238,-0.74651,0.043961,-0.058426,0.1371,-0.18602,0.33034,0.28814,-0.2643,0.13758,-0.29488,0.38005,0.16984,0.10888,-0.11853,-0.25339,-0.3068,-0.2142,0.081108,-0.090558,-0.019033,0.50019,0.19687,0.36516,0.17596,-0.05704,-0.30449,0.070245,-0.32749,0.044888,-0.06181,0.038625,0.098391,-0.49725,0.23069,0.20434,-0.21619,0.047485,0.051061,0.2982,0.067119,0.69785,0.25282,-0.099634,0.16982,-0.15163,0.052078,0.081262,-0.017678,-0.58322,-0.19615,-0.31305,-0.42978,-0.15065,0.16363,0.31013,0.2175,-3.2996e-4,-0.11386,-0.38811,-0.45678,-0.095287,-0.61692,0.72371,0.35751,-0.17858,0.10454,0.7592,-0.44027,-0.21152,0.35037,0.38037,-0.32555,-0.27809,0.22927,0.27897,-0.075568,-0.10035,0.21985,-0.091621,-0.041041,-0.27362,0.24108,-0.116,-0.36221,0.036889,0.54551,0.12403,-0.12267,-0.022486,0.073269,0.30613,0.56857,0.045045,0.11877,0.12787,0.17448,0.46967,-0.64091,-0.23062,0.23031,-0.23189,0.295,0.024497,-0.021684,-0.31643,0.063354,0.088866,0.1416,-0.24695,-0.31005,0.42659,0.1683,0.013138,-0.24526,0.30148,-0.012673,-0.2652,-0.018961,0.33081,-0.17619,0.084271,0.49486,-0.17979,-0.44557,0.07616,-0.088313,-0.053251,-0.15724,-0.092237,-0.077388,0.2354,-0.40063,-0.23052,0.1047,0.22711,-0.11577,0.10336,-0.13448,0.30171,0.44824,-0.28438,-0.34478,-0.10428,-0.0093475,0.0037431,-0.25797,0.27754,0.18617,-0.14909,-0.22894,-0.17673,-0.66297,-0.31103,-0.18642,0.13132,0.35812,0.23322,-0.057364,-0.22529,0.14611,0.27753,0.14445,-0.062404,-0.37438,0.040246,0.22421,-0.0659,0.70781,-0.5109,0.061785,-0.015163,0.020865,-0.18444,0.051882,-0.25518,0.078096,-0.051123,0.10246,0.11609,-0.23786,0.083854,0.1412,-0.31979,0.13199,0.034334,-0.30433,-0.19559000000000001,0.022756,0.071582,0.085355,-0.32703,-0.13549,-0.26121,-0.42115,0.19779,-0.10236,0.026981,-0.45442,-0.080447,-0.072786,0.2866,-0.078715,-0.013968,-0.025977,-0.36646,0.1004,0.20907,0.30094,0.024034,-0.1783,-0.46767,-0.24124,-0.10134,-0.0012009,0.13361,-0.16348,-0.28254,-0.18186,0.19264,0.15263,-0.1083,-0.26513,0.050565,-0.10354,-0.095572,0.28971,-0.18934,-0.23787,-0.12974,-0.38243,0.19367,-0.14035,0.37019,0.12616,-0.075159,-0.010112,-0.092346,-0.1008,-0.23507,0.13645,0.10901,-0.21708,0.044875,0.57871,0.39762,-0.021622
wild,-0.49782,0.037328,-0.26781,0.23005,0.10568,0.39492,0.07617,0.016113,0.19737,0.16598,0.40319,0.16718,0.24077,-0.40349,0.38113,0.095126,-0.064366,0.08316,0.16627,-0.36503,0.13668,-0.020816,-0.011305,-0.26389,-0.075523,0.0072241,0.12249,0.0025266,0.47553,0.093301,0.23023,0.35014,-0.43617,0.097664,0.26636,-0.14191,0.033619,-0.23028,0.051116,-0.071289,-0.046031,-0.16605,-0.10775,0.26551,-0.063427,-0.0066961,-0.070353,-0.038227,-0.043984,0.20476,0.38483,0.022091,0.0035061,0.027896,-0.20028,0.31465,-0.17018,-0.23806,0.13541,-0.013525,0.036355,-0.28672,0.29304,-0.23102,-0.37833,0.36283,-0.10273,-0.022178,-0.19847,0.40052,0.029184,0.031652,0.3131,-0.46824,-0.41987,0.10056,0.43864,0.24447,-0.067854,-0.028449,0.23639,-0.17619,0.01377,-0.14506,0.04519,0.099183,-0.16566,0.010988,0.38241000000000003,0.0068557,0.032737,-0.26062,-0.13381,0.28654,-0.064248,0.047034,0.23651,0.55441,-0.32485,0.3191,0.32894,0.12372,-0.16243,-0.29355,-0.18585,-0.20916,0.11756,0.3538,0.034163,-0.42625,-0.26964,-0.046205,0.087117,-0.22327,-0.13578,0.03532,0.40377,-0.071919,0.021545,0.0042131,0.18012,-0.090635,-0.05995,0.46409,-0.15651,0.031542,-0.14497,0.11284,-0.3247,0.41597,-0.31564,0.072963,0.12023,0.217,-0.21923,-0.2172,-0.25457,-0.23282,-0.42533,0.31363,0.33209,0.31765,0.24152,0.51349,0.067064,0.35486,-0.18348,0.017226000000000002,0.31683,0.06261,0.45321,-0.47113,0.015965,-0.18862,-0.4454,0.20109,-0.18706,0.14484,0.12095,-0.5003,0.47952,0.023177,-0.11938,0.31745,-0.072393,-0.13282,-0.19726,0.068957,0.14437,0.037843,-0.087095,-0.41965,-0.22794,-0.27591,-0.059435,0.49972,-0.10961,0.33829,0.32804,0.059186,0.043764,-0.10397,0.15624,-0.45178,-0.29925,-0.13392,-0.0079338,-0.32124,0.06412,-0.21489,0.15423,-0.32138,0.061609,0.2858,-0.021434,-0.35057,-0.59997,-0.16759,-0.47278,-0.26615,0.0071613,0.11201,-0.16982,-0.053265,0.12718,-0.23313,-0.15987,-0.36969,0.38337,-0.025161,0.56687,0.06009,-0.17615,0.33777,-0.25138,-0.28094,0.068099,-0.25317,-0.31411,-0.31421,-0.12604,-0.28618,0.23551,0.20345,-0.20911,-0.2172,-0.16164,0.25291,-0.17304,-0.062737,-0.045858,0.014158,0.1168,0.013616,0.052842,-0.12431,-0.22896,0.12138,0.16018,0.12773,-0.42736,-0.037928,0.09694,0.002184,-0.32923,0.20636,0.17482,-0.25925,0.084377,0.36367,-0.11498,0.037448,0.2798,-0.036485,0.32286,0.0017117,-0.11552,-0.096504,0.13036,-0.016114,0.11431,0.42156,-0.095179,0.047456,-0.39652,0.34873,-0.022657,0.056138,0.094969,0.0015481,0.19375,0.26997,0.16572,-0.078462,-0.055532,-0.31652,-0.28533,0.15254,-0.28256,0.049005,0.56209,-0.31622,-0.16005,0.40856,0.37803,-0.19185,0.14431,0.3583,-0.30849,-0.39183,-0.028217,-0.30961,0.37062,-0.10068,0.044791,-0.15688,0.1053,0.25532,0.019541,0.072511
cape,-0.72969,0.0795,-0.20695,0.36676,-0.13046,0.62578,-0.15404,0.31977,-0.044707,0.13797,-0.031225,-0.24949,-0.22527,-0.13207,-0.12909,0.2583,-0.48609,-0.073618,0.10116,0.43502,-0.47264,-0.28195,-0.14136,-0.36155,-0.45766,-0.03501,0.26821,0.10031,0.26519,0.097631,0.093784,0.25388,-0.38856,-0.047573,-0.013901,0.17055,-0.20573,0.073066,0.20623,-0.50846,0.33071,0.12946,-0.16118,-0.39819,0.10827,0.053756,-0.089614,-0.0043308,0.17975,0.52453,0.19506,0.031642000000000003,-0.1268,-0.0072896,-0.17873,-0.2005,0.1627,-0.052432,-0.27895,0.4042,-0.14768,0.13294,0.77086,-0.20426,0.19899,-0.11511,-0.27217,0.11614,-0.28241,0.19266,-0.24935,-0.11415,-0.2508,-0.13523,0.18343,-9.2597e-4,0.68441,0.53211,-0.16769,0.20017,-0.1877,-0.19746,0.14368,-0.14981,0.063606,0.21689,0.17752,0.68954,-0.2739,-0.029941,-0.35319,-0.28528,-0.022338,-0.28407,0.39678,0.30008,-0.31092,0.11146,-0.46547,-0.068038,-0.089223,-0.3593,0.035206,-0.076513,0.024719,0.093074,-0.17807,0.17557,0.40237,0.21013,-0.077326,0.021456,0.046572,0.29871,-0.20348,0.32077,0.43028,-0.37312,0.54357,0.28883,0.0022283,0.4068,-0.33385,-0.084555,-0.11805,-0.05646,0.16217,-0.044261,0.038204,0.024851,-0.031235,0.31391,-0.15845,-0.18371,0.29698,-0.34877,0.23481,-0.30343,-0.11178,0.21747,0.81072,0.42862,0.24948,-0.076317,-0.3517,-0.43438,0.36817,-0.083413,0.034689,0.080023,0.083128,-0.93322,-0.23433,-0.41124,-0.33023,0.20096,0.063401,-0.71302,0.065749,-0.51299,0.28527,0.34788,-0.065976,0.53505,0.45884,0.2191,-0.72533,-0.14435,0.042927,0.16958,-0.076666,-0.26877,-0.52188,-0.32199,0.13224,-2.5159e-4,-0.089205,-0.078029,0.056477,-0.13619,-0.41435,-0.0033202,0.1922,0.282,0.06274,0.015353,-0.05298,-0.012864,-0.51554,-0.36581,-0.18857,-0.1549,-0.19477,0.16205,0.25603,-0.34012,-0.062729,0.40962,-0.078214,-0.012539,0.1012,-0.081009,-0.54488,0.32985,-0.054652,-0.58542,-0.10637,-0.036094,0.55496,0.043323,0.45763,-0.13995,0.26996,-0.68092,-0.22691,0.036467,-0.3363,0.091641,-0.30753,-0.24878,-0.13965,-0.010442,0.0015863,0.35463,0.36417,0.093499,-0.16269,-0.109,0.13644,0.16911,-0.039064,0.68905,0.076264,-0.020526,-0.0495,-0.010297,-0.70718,-0.36771,-0.1088,-0.36262,-0.13676,0.14414,-0.20585,-0.21088,0.15365,-0.4816,0.11973,0.15864,0.17814,0.11606,0.66693,-0.26591,-0.37521,-0.043075,-0.16179,-0.08884,0.28968,-0.24061,0.39258,0.73622,-0.014069,0.26647,0.037063,0.061664,-0.62265,0.031692,0.54727,-0.21157,-0.15728,-0.079582,-0.14258,-0.54055,0.07614,0.0089896,-0.10117,-0.24788,0.45975,0.16465,-0.017582,0.0046298,0.042201,-0.36005,-0.047786,0.48387,-0.022161,-0.031156,-0.11482,0.025653,-0.13253,0.1105,-0.28023,-0.53034,0.0059179,0.31658,-0.041256,-0.058899,-0.44759,-0.22995,-0.30254,-0.53228
fast,-0.37518,0.29,-0.023914,0.21455,-0.058593,0.048193,0.31506,-0.039259,-0.027525,0.5354,-0.2823,0.56714,0.093813,0.092664,0.048761,-0.094374,0.084925,-0.19372,0.65348,0.015214,-0.33648,-0.088303,-0.38034,-0.3244,-0.093732,-0.1561,-0.46248,0.15584,0.32326,0.053039,0.037053,0.27317,-0.73461,-0.092249,-0.15369,0.19083,0.086497,-0.0045127,-0.20048,-0.19983,0.064252,0.2341,0.02867,0.14806,0.079216,0.14361,-0.2475,0.083084,-0.28028,0.068699,-0.21377,-0.42123,0.3994,0.059221,0.12218,0.29633,0.013683,0.13073,0.051317,-0.18742,0.017622,-0.47196,0.28897,0.11879,-0.14669,0.14271,0.028189,0.30163,0.097564,-0.14091,-0.26867,0.15017,0.24055,-0.2639,-0.48686,0.041241,0.056252,-0.064265,0.17506,-0.016706,0.35092,0.1817,-0.11316,-0.21886,-0.077267,-0.11362,-0.089897,0.13592,0.26297,0.1165,0.14325,0.085233,0.51829,-0.13349,0.22552,0.021011,-0.011172,-0.25199,0.17661,0.15065,0.25251,-0.071947,0.032593,0.16568,0.025434,0.041273,-0.12043,0.19151,0.10916,0.0082791,0.080645,-0.08683,-0.29643,0.068512,7.8454e-4,-0.24871,-0.18441,-0.2206,-0.19833,0.059674,0.093457,-0.0055328,-0.095403,0.22548,-0.29028,0.087934,-0.16711,-0.135,-0.12626,0.3636,0.058987,0.46902,-0.16427,-0.072117,0.067542,0.044139,-0.13377,0.38002,-0.023986,0.65441,0.32892,-0.23679,0.52041,0.0076816,-0.080834,0.39328,-0.1502,-0.060676,0.14013,-0.032665,0.10219,-0.1358,-0.49234,-0.090217,-0.39429,-0.42058,0.24903,-0.050369,-0.20456,-0.015288,-0.0091494,0.070333,-0.37276,0.073085,-0.0056994,0.017425,-0.01292,-0.25098,0.13594,0.20295,-0.12952,-0.17483,0.17298,-0.56901,0.32767,0.26931,-0.024921,0.2296,0.024559,-0.18279,0.19382,-0.099037,-0.12924,-0.0079143,-0.029852,0.16518,-0.14921,-0.0052421,0.26834,-0.33291,-0.34595,-0.008151,6.0822e-4,0.014195,-0.54727,-0.22146,0.12647,0.29175,-0.36658,0.15511,-0.05292,0.47585,-0.12488,-0.097357,0.058205,-0.078665,-0.039705,0.049378,0.48005,-0.083775,0.37331,-0.22646,0.20837,-0.27248,-0.24062,-0.05813,-0.013064,-0.33357,-0.062673,-0.18591,-0.0096532,0.42218,-0.020384,0.0099136,-0.11158,0.075296,-0.1787,-0.17851,-0.0643,0.018369,-0.1582,-0.2894,0.12724,-0.42047,-0.045396,0.091702,0.1079,0.20359,-0.34684,-0.023394,0.36144,0.18299,0.1668,0.084126,-0.39069,0.32692,-0.14871,-0.12071,-0.054178,-0.097344,-0.05743,0.035128,-0.086676,-0.13239,-0.31513,0.19565,-0.19557,-0.26499,-0.11598,0.20752,0.077503,-0.0074465,-0.42686,-0.33447,-0.37755,-0.2196,-0.15877,-0.0097486,0.0098018,-0.097204,-0.51198,0.04455,-0.19534,0.17085,-0.03083,-0.032392,-0.22419,0.36188,-0.090711,-0.3142,0.24638,-0.022277,0.0019827,-0.16628,-0.015777,-0.16151,0.12346,0.011046,-0.043662,-0.10843,0.14185,0.112,0.16129,-0.089137,0.11626,-0.018159,0.22805,-0.10496,0.42678,0.1646
powerful,-0.20653,-0.034306,-0.24262,0.299,0.33416,0.051406,0.030383,-0.2167,0.16334,0.33816,0.10354,0.21999,-0.059846,0.016006,0.020053,-0.19035,0.29802,0.076185,-0.016622,0.26296,-0.43302,-0.20776,-0.63188,-0.2303,-0.37607,-0.29021,0.28807,-0.016177,-0.12956,-0.16348,-0.017826,0.29689,0.050075,-0.002536,-0.11065,0.14568,0.082773,-0.42271,-0.20963,-0.31165,-0.20618,0.098366,0.42016,-0.10883,-0.13977,-0.11555,-0.18504,0.27224,-0.22103,-0.072246,-0.19698,0.22267,0.013085,0.15356,-0.32663,0.28831,0.22923,0.19945,0.065841,0.14512,-0.15581,-0.25436,-0.27558,0.092118,-0.063891,-0.036017,-0.25915,0.14258,0.10878,-0.2303,0.10913,0.050586,0.04147,-0.23926,0.16169,0.41776,0.082746,0.19787,-0.047431,-0.10698,0.33286,0.30567,-0.12321,0.15373,-0.01291,0.4178,0.033079,0.0020859,-0.2448,-0.19089,-0.10361,0.0047204,-0.074975,-0.25175,0.10278,-0.22951,0.52047,0.14332,0.11403,-0.031908,0.11319,-0.17192,0.39189,0.12146,0.012273,-0.13932,0.056179,-0.19561,0.069449,-0.19478,-0.38223,0.031097,-0.35405,-0.1698,0.073456,0.049453,0.16885,0.08383,-0.14678,0.023032,-0.11939,0.023894,-0.10239,0.30595,-0.22601,0.17279,-0.31198,-0.041858,-0.23164,0.27745,-0.36098,-0.072405,-0.11789,-0.066873,-0.098532,-0.25114,-0.065851,-0.031005,-0.1634,0.17683,-0.16043,-0.080485,0.53371,-0.36793,0.097982,0.092976,-0.11865,-0.10008,0.063098,-0.075427,0.35261,-0.36764,0.11309,0.076053,-0.22782,-0.27914,0.31702,-0.045348,0.12292,-0.32381,-0.16427,0.011102,0.33995,0.095683,0.046849,0.010978,0.32875,0.1984,0.34093,0.23262,0.091403,-0.3186,-0.14252,-0.11554,-0.10097,0.071924,0.1104,0.18529,-0.10464,-0.048605,0.26569,0.29428,0.15711,0.11622,0.091824,0.59962,-0.27423,-0.03791,0.16039,-0.30256,-0.078293,-0.53578,0.41768,0.20621,-0.10125,0.13336,0.11407,7.3915e-4,-0.078267,0.1895,0.031774,-0.15684,-0.15648,0.098635,-0.042094,-0.25095,-0.19225,0.11282,0.43381,-0.019744,0.50694,-0.11226,-0.15124,-0.374,0.17107,-0.50257,-0.029316,-0.31127,-0.044468,0.29457,-0.16132,0.15391,-0.28849,0.18261,-0.47473,0.051225,-0.26982,-0.20043,-0.12278,-0.29801,0.02919,0.0079763,0.093226,0.059502,-0.11602,0.23932,0.53913,0.1665,-0.076066,-0.0076419,0.078712,0.21126,0.17561,0.33254,0.26731,0.067848,-0.39323,-0.052884,-0.11334,0.2913,-0.1653,-0.12281,0.12886,0.10764,-0.36134,-0.056469,-0.12923,-0.079564,0.10628,-0.098216,-0.23698,0.015138,-0.046073,-0.18646,-0.55372,-0.17393,0.084547,-0.21379,-0.067964,-0.12463,-0.43409,-0.0013483,-0.10546,0.22519,0.11853,0.1061,-0.10337,0.049825,0.098221,-0.30644,0.22621,-0.11673,0.18707,0.055323,0.2411,-0.071525,6.1014e-4,-0.31289,-0.1387,0.0039725,0.26373,-0.19982,0.065403,0.3862,-0.062689,-0.31459,0.07624,0.14792,0.57997,-0.1758
medium,-0.092129,0.31345,0.21357,0.31581,0.32729,0.11909,0.05489,0.060018,0.17456,0.60581,0.042435,0.63578,-0.032439,0.13571,0.3091,-0.11725,-0.3478,-0.18521,0.74103,0.46577,0.014163,-0.16676,-0.14629,-0.1481,-0.27796,0.028757,0.055523,-0.09851,-0.26385,-0.15926,0.051938,0.32973,-0.36759,-0.038354,0.053987,0.1281,0.053076,-0.073175,-0.11924,-0.093517,0.29646,-0.028542,0.084231,0.19261,-0.025763,0.21168,-0.11175,0.040039,-0.11835,-0.017466,-0.48164,-0.10617,0.31144,-0.083071999999999993,0.12996,-0.1398,0.098993,0.19436,0.19535,-0.064222,-0.11095,-0.36288,0.060858,0.10279,-0.19236,-0.31069,-0.27317,0.033885,-0.011997,-0.029414,-0.32963,-0.24424,-0.02101,0.19531,0.0057989,-0.059905,0.46407,0.17428,-0.083287,-0.21904,-0.34367,0.15961,-0.048965,0.055978,0.23344,-0.36718,-0.11023,0.29068,0.084082,0.15219,0.038225,0.18277,0.29787,-0.23428,0.24468,0.06021,-0.18236,-0.090602,-0.31218,-0.045514,0.13075,-0.25523,0.3312,-0.049483,0.40934,0.11967,-0.26914,0.53568,-0.2267,-0.21698,-0.065093,-0.11476,-0.1169,-0.14386,0.36933,0.14814,-0.06963,-0.32796,-0.24663,0.16252,0.19743,0.098866,-0.28317,0.1839,-0.32758,-0.023708,-0.19785,-0.27578,0.086784,0.082743,0.15444,0.053729,0.061962,0.36162,-0.017916,0.12881,-0.16312,-0.33661,0.035978,0.36144,0.16499,0.11774,0.14908,-0.35291,0.5061,0.17296,-0.13935,-0.19996,0.061319,-0.0092583,0.51112,-0.24961,-0.64663,-0.3415,-0.10179,0.2138,0.4497,0.10558,0.30833,-0.34517,-0.42571,0.29179,-0.019064,-0.41449,0.40988,-0.2907,0.43493,-0.085246,0.29723,0.38293,-0.091681,-0.12703,-0.033506,-0.29672,0.36481,0.47346,-0.12791,-0.31942,0.091922,0.098411,0.052697,0.36224,-0.37712,0.36097,0.47375,0.083443,-0.2011,0.17885,0.47525,0.089109,0.0055097,-0.19306,-0.042498,-0.23828,-0.32193,-0.092603,0.31889,0.38847,-0.30186,0.17716,-0.02462,0.4184,-0.011753,-0.080776,0.013793,-0.40886,-0.084735,-0.025518,0.25086,0.23051,-0.0014735,0.20029,0.42336,0.15311,-0.29654,-0.020839,-0.10924,-0.45821,-0.4481,-0.18091,0.16577,0.54689,-0.24614,-0.010014,-0.13902,-0.40067,-0.8674,-0.36112,-0.26574,0.054575,0.29711,-0.12087,0.22752,-0.039431,-0.1842,0.21631,-0.013278,-0.45975,-0.23627,0.05674,0.33508,0.25913,-0.10948,0.022924,-0.12128,0.054187,-0.32927,-0.076214,-0.50801,0.27644,-0.16319,0.073363,-0.63339,-0.064442,-0.10209,0.0857,0.31372,-0.16797,0.45355,0.12533,0.11975,-0.17766,-0.21438,-0.41632,-0.22467,-0.18415,-0.44365,0.10972,0.36088,-0.15101,-0.27717,-0.070806,0.0046,-0.036354,0.32003,-0.12726,0.21042,0.30461,-0.16905,-0.21086,0.052981,0.52212,-0.012951,-0.12718,0.37701,-0.27969,-0.18912,0.21741,-0.47041,0.13666,0.045413,-0.038316,-0.087799,-0.12425,0.28473,-0.28262,0.099859,0.31595,0.18493,0.098854
flat,-0.12819,0.20855,0.015622,0.35383,0.46232,-3.0214e-4,0.1235,-0.15907,-0.075828,-0.089264,0.092003,0.55143,0.1619,0.16012,-0.18336,-0.41681,-0.57271,-0.029913,-0.16659,0.1653,-0.24159,0.14628,-0.20111,0.29818,-0.42145,-0.16497,-0.11896,0.33719,-0.19354,0.053905,0.22895,0.37736,-0.10039,-0.23252,0.07018,0.06596,-0.13731,-0.14813,-0.22758,-0.12913,0.48609,-0.17177,-0.55919,0.13404,0.19646,0.35175,0.18782,0.18618,0.1652,-0.1954,-0.050357,-0.16744,0.08941,-0.23963,-0.077848,0.43033,0.13825,0.42621,-0.041122,0.79333,0.17509,-0.12902,0.10436,-0.20749,0.28793,-0.27876,-0.32096,-0.011725,0.22482,-0.18449,-0.18143,-0.0081178,0.07514,0.079088,0.33659,-0.081428,0.11449,-0.32838,0.20223,-0.16903,-0.38646,-0.31123,-0.10681,0.020949,-0.14257,0.19697,0.32268,-0.099784,0.36046,0.31551,-0.13098,-0.12278,0.47847,-0.11876,0.30435,-0.032117,0.096105,-0.073559,-0.29136,-0.2026,-0.11404,-0.0058423,-0.092198,0.30607,-0.083303,0.090191,-0.058767,-0.068926,-0.056911,-0.047028,-0.030405,0.13263,0.089066,0.29971,-0.11012,-0.57142,0.018041,0.063378,0.26727,0.094687,0.42097,0.31618,-0.088718,0.090259,-0.019619,0.14824,0.21512,-0.30738,0.20266,0.0096713,0.61769,0.14773,-0.0066454,-0.042259,-0.12038,0.056533,0.010322,-0.0022266,0.086611,0.070839,-0.32103,0.20404,-0.16562,0.084547,0.030026,0.095165,-0.22049,0.027647,-0.27632,0.14205,-0.11558,-0.24784,-0.49488,-0.046018,-0.091234,-0.16263,0.31229,-0.5318,0.12412,-0.58345,0.16702,0.38415,0.008195,0.43468,0.024211,0.13724,-0.30596,-0.24478,0.4307,-0.093504,-0.095034,-0.30336,0.14429,-0.097377,-0.11653,0.098141,-0.08395,0.1208,0.19409,-0.26936,0.3074,-0.2141,0.17859,0.056251,0.22569,0.23965,-0.061778,-0.11015,0.06847,-0.27154,-0.068551,-0.12331,0.059432,-0.03942,-0.56706,-0.10519,0.1844,0.48549,-0.58151,-0.057605,-0.023967,0.023021,-0.18399,0.087154,-0.19551,-0.14006,-0.14242,-0.020844,0.19843,-0.3127,0.32199,0.22384,0.151,0.28513,-0.28376,-0.29661,0.02915,-0.10782,0.068045,-0.052507,-0.23795,0.19272,-0.020314,-0.043207,0.23198,0.031346,-0.3994,0.1752,0.060419,0.0047701,-0.54762,-0.29504,-0.3996,-0.1843,0.28145,0.37775,-0.012567,0.023692,-0.033181,0.078135,-0.23912,0.1224,0.086957,0.19435,-0.11594,0.64048,-0.076516,-0.15002,-0.30049,0.15938,-0.061752,-0.061353,-0.16752,0.092999,-0.022758,0.34052,0.029775,-0.3885,0.18318,0.2773,-0.19457,0.16866,-0.11485,0.083032,-0.29354,-0.042339,-0.16825,0.023622,0.16095,0.10905,-0.36698,0.21966,0.31178,-0.029589,-0.2103,-0.2494,0.12345,0.47862,-0.31748,0.093131,0.080247,0.0075819,-0.18152,0.074718,0.26007,-0.10021,0.14137,0.28398,-0.035693,0.14338,0.066802,-0.13027,-0.079769,0.091426,0.062292,-0.2187,-0.33941,0.42197,0.20167,0.044368
bodies,0.23978,-0.024134,-0.21812,0.53935,-0.2697,0.078672,0.16084,-0.12662,-0.030552,0.10157,0.1787,0.14392,0.14643,-0.075415,0.084967,-0.34777,0.038572,-0.27027,-0.17295,0.25474,-0.44834,-0.067961,-0.41856,-0.11506,0.2756,-0.14977,-0.28866000000000003,-0.20683000000000001,0.020818,0.11995,0.065283,0.21745,-0.01196,0.094968,0.044523,0.26403,0.19504,0.27011,0.016816,-0.045926,-0.27289,-0.15707,-0.078929,0.19374,0.2708,0.27361,-0.083586,-0.20659,0.3693,-0.11806,-0.10817,-0.15701,-0.24843,-0.19286,-0.31454,-0.50079,0.021278,0.39031,0.22753,0.52929,-0.17235,-0.65264,0.16618,-0.082913,-0.11984,-0.35492,-0.43998,-0.21544,0.1226,-0.20243,-0.10384,-0.054114,-0.1749,-0.1378,0.076236,0.019727,0.06838,-0.023317,0.26423,-0.11513,-0.085519,0.12141,-0.22202,-0.014656,-0.13531,-0.23087,0.46338,-0.04621,-0.18714,0.087854,-0.17994,0.015537,-0.30144,-0.44554,-0.063787,-0.19169,0.22557,-0.17503,-0.0089645,-0.32627,-0.33455,-0.30089,0.46183,-0.29151,0.035486,-0.26838,-0.36877,0.15534,-0.01003,-0.13953,0.02655,0.28456,-0.18703,-0.10878,0.62034,0.26374,-0.0067224,0.15528,-0.054344,0.068185,0.4576,-0.26389,-0.11303,0.05971,0.30678,0.20338,-0.14637,-0.029541,-0.25414,0.37003,-0.015044,0.20873,-0.51116,-0.0020325,0.40813,-0.026769,-0.14574,-0.25728,-0.19482,0.406,0.023978,0.34746,-0.02555,-0.4972,0.003377,0.14214,-0.17357,-0.29017,-0.15491,0.28097,-0.019036,-0.10228,0.041516,-0.10409,-0.10916,0.19024,-0.19821,0.17484,0.45594,0.086727,-0.23756,0.2741,-0.20006,0.4825,0.04921,-0.3079,0.092793,0.28145,0.37838,-0.28641,0.046946,-0.23816,-0.048881,0.05315,-0.076824,0.47733,0.27604,-0.096226,0.05624,-0.024061,-0.1513,-0.020862,-0.036278,-0.080934,0.43506,-0.13049,0.43263,0.18287,0.43993,-0.41785,0.17581,-0.08277,0.073756,0.052932,-0.42289,0.13578,-0.089351,0.036989,-0.08705,0.36288,0.03147,-0.152,-0.25343,0.14429,-0.25509,-0.73228,-0.11566,-0.2741,0.64775,0.12108,0.37425,0.32019,0.13896,-0.17158,0.089211,-0.097585,-0.21852,-0.44815,0.065407,0.055515,-0.51773,-0.28882,0.2617,0.0344,-0.14015,-0.095284,-0.32899,-0.27138,0.26499,-0.19157,0.070771,-0.15747,-0.091231,0.15973,-0.36218,0.3345,-0.16281,0.23656,-0.188,-0.10171,0.19116,-0.41003,0.13644,0.0078349,-0.068612,0.38723,-0.22513,-0.2564,-0.18773,-0.15965,0.010579,-0.15197,-0.24131,-0.18579,0.035186,0.23819,-0.065503,-0.38908,-0.19303,-0.27127,0.26625,-0.020764,-0.22066,-0.16135,-0.32082,-0.10313,0.029056,-8.713e-4,-0.026252,0.1769,0.23549,0.11907,0.067268,-0.094142,-0.45599,0.17265,0.21586,-0.27024,-0.098298,-4.6486e-4,0.1586,0.14139,0.067658,0.086625,0.15541,0.0079154,-0.084294,-0.32679,-0.81363,0.24582,-0.011668,0.22282,-0.097954,0.40078,0.44419,0.27056,-0.33604,0.22784,-0.0045358,0.52777
circle,-0.32465,0.0087275,-0.10954,-0.1055,-0.16402,0.22846,0.091302,0.22984,0.10579,0.14303,0.13928,0.050695,0.29024,0.32859,-0.0015768,-0.045425,-0.36775,0.24085,0.25388,0.7326,-0.21135,0.44229,-0.21758,-0.30752,-0.33849,0.12792,-0.19557,0.047871,-0.094708,0.25255,-0.30141,0.37291,0.13201,-0.048919,-0.08919,-0.039415,0.19426,0.062976,-0.014713,-0.053893,0.12955,0.14837,0.25948,0.1942,-0.070394,0.0032242,0.078538,-0.14135,0.028703,-0.177,0.10515,0.084102,-0.48185,0.14788,0.082764,0.26207,0.33065,0.254,0.3859,0.20352,0.14293,0.12578,0.14745,-0.15135,-0.099487,0.59079,-0.22756,-0.098933,0.14169,-0.11253,-0.08882,0.081415,-0.38709,0.22805,0.14016,-0.043528,-0.038007,0.24085,0.37988,-0.12746,-0.055223,0.023181,-0.4202,-0.060669,-0.10994,0.20835,-0.36084,-0.039009,0.62129,-0.032835,0.0040199,-0.11252,0.0035069,-0.36561,-0.044983,0.18111,0.16134,-0.39268,-0.16977,0.30226,-0.16894,-0.11473,0.25826,-0.30736,-0.24014,-0.033275,-0.17728,0.10435,-0.015057,0.057663,0.13474,-0.56389,0.2163,-0.072097,0.10251,-0.15727,0.2865,0.25676,0.13826,0.44261,0.45893,-0.016124,0.088889,0.25998,0.21782,0.15162,0.32456,0.14893,-0.39124,0.16372,0.31589,-0.17448,0.0091145,0.20216,0.12512,0.23974,0.28641,-0.34774,-0.33693,0.41566,0.0031803,-0.18542,-0.045261,-0.463,0.037862,0.29163,0.04939,0.22609,0.096553,0.14366,0.26085,-0.05801,-0.12395,0.046363,0.23355,-0.29491,-0.18693,0.11861,0.13666,-0.029373,0.091115,0.20268,-0.29114,-0.03147,0.18844,-0.17882,0.0059634,-0.22963,0.12674,-0.16761,-0.51946,-0.15818,-0.32788,0.21707,-0.18713,0.48259,0.18024,0.37776,0.086871,-0.11577,0.42059,0.22335,0.093905,0.16997,0.10761,0.083897,-0.30492,-0.063544,0.059227,0.39322,0.39903,-0.19356,0.11119,-0.059842,-0.31826,0.048943,0.21687,0.54743,-0.32802,-0.32281,0.016972,-0.049986,0.20956,0.12153,0.016791,-0.24271,0.091657,0.24903,0.062349,-0.081805,0.44066,0.073797,0.073085,0.1845,0.39568,-0.21748,0.39446,-0.09751,-0.23258,-0.2891,-0.14713,-0.12376,-0.78534,0.28181,-0.21931,0.031846,-0.24459,0.12468,0.11568,0.061887,0.070002,0.20855,0.21136,-0.17254,0.26227,0.19339,-0.087223,0.16446,-0.0083093,0.09819,-0.055254,-0.096858,-0.40297,-0.2268,0.061624,0.098701,-0.24735,-0.43025,0.08405,-0.27743,0.053854,-0.11291,-0.27968,-0.31818,0.37548,0.072289,0.004503,-0.43651,0.17876,0.060464,-0.20669,0.10657,0.25437,0.35834,0.11009,-0.23853,0.20892,0.053453,-0.018661,-0.12407,0.0089957,0.1211,-0.15383,0.53107,0.072833,-0.47782,0.080251,0.052413,0.033211,0.044132,-0.20001,-0.28973,-0.28526,0.48474,0.081106,-0.29976,0.43393,-0.14479,-0.059618,0.18738,-0.085923,-0.051725,0.30432,0.042972,-0.27576,-0.056126,-0.40825,0.29859,0.19901,0.44315
huge,0.017468,-0.15394,0.012157,0.47886,0.072007,0.051332,0.34908,-0.23444,0.073563,0.16471,0.071035,0.24713,0.0012369,0.24141,0.16942,-0.25144,-0.16606,0.059949,0.1031,0.069509,0.024772,-0.19873,-0.12355,0.11709,-0.029748,-0.14603,-0.22233,0.11196,-0.051189,-0.029901,-0.092855,0.53268,0.03607,0.21655,0.041232,0.063711,0.11573,-0.11086,0.055681,-0.25028,-0.10945,0.1826,0.031508,0.18829,0.035745,-0.07953,0.15199,0.069476,0.021889,-0.094042,-0.21692,-0.077634,0.11522,0.20116,0.084914,0.33511,-6.7014e-4,0.16551,-0.27634,-0.0069489,-0.15612,-0.25138,0.22035,0.092143,-0.15332,-0.43706,0.10418,0.17134,0.11709,-0.22282,0.061758,0.1901,-0.092799,-0.1795,-0.0055137,-0.048435,0.031776,-0.055279,-0.027328,-0.24068,0.15682,-0.039723,-0.35699,0.09807,0.14237,-0.019483,-0.31949,0.055422,0.015975,-0.064792,0.027288,0.15514,0.14259,-0.42336,0.17139,0.037243,0.36568,0.055798,-0.17072,0.19817,-0.20101,-0.097225,0.1815,0.1581,-0.035312,-0.11871,-0.37638,0.25986,-0.1068,-0.034168,0.0062665,0.069117,0.090894,0.12303,0.12127,-0.23561000000000001,0.18246,-0.14056,-0.091138,0.13901,0.1593,-0.054896,-0.10835,0.10255,0.34617,0.088786,0.016624,-0.16798,0.13408,0.20354,-0.015362,0.13436,-0.17404,0.096657,-0.22287,-0.18821,-0.19312000000000001,-0.049982,0.31844,0.15942,-0.076435,0.11716,0.09901,-0.027395,-0.032583,0.24384,-0.36887,0.26211,0.09894,0.0058042,0.030967,-0.20074,-0.03732,0.16016,0.0080004,-0.14921,0.16806,-0.45204,0.02978,-0.11757,-0.01301,0.096501,-0.0055444,0.18421,0.12374,-0.18828,0.01147,0.076356,0.58935,0.11577,-0.13013,-0.034325,-0.27813,-0.24137,-0.036423,0.11625,-0.16023,0.33661,-0.099703,-0.079286,0.22938,0.0065028,-0.041451,0.0047591,-0.08523,0.017619,-0.10766,-0.22496,0.35398,-0.2236,0.11022,-0.44666,0.16884,0.20664,-0.066182,-0.070059,-0.011781,-0.066004,-0.50962,-0.060577,0.3322,0.33562,0.34253,0.15953,-0.12039,-0.38797,-0.049578,0.034418,-0.25855,-0.026048,0.17564,0.06699,-0.029127,-0.095312,0.11764,-0.094722,-0.064342,-0.13678,0.13093,0.27784,-0.26951,-0.1191,-0.14174,0.35436,-0.12107,0.020324,-0.10623,-0.07438,-0.019715,-0.01861,0.014615,0.18853,0.064979,0.12116,-0.16449,-0.077323,0.17984,-0.046994,0.46341,-0.0065055,-0.3058,0.029784,0.022362,0.043691,-0.11068,-0.05989,0.24346,0.066864,0.10374,-0.061992,0.34775,-0.087464,-0.23497,0.14475,-0.30563,0.0090572,-0.12738,0.10409,0.33641,0.090998,-0.18581,-0.20027,0.060304,-0.42348,-0.45592,-0.036543,-0.23078,-0.25872,-0.36249,0.01943,-0.14043,-0.079241,-0.013887,-0.0025537,-0.079466,-0.18142,0.022712,0.21486,-0.081996,-0.034069,0.3122,-0.35838,0.034419,-0.18316,0.065131,0.15646,0.026161,0.14776,0.028823,0.30492,0.33609,-0.14886,-0.0025456,-0.15654,0.044033,-0.14233,0.074071,0.38077,0.039605,0.12977
wings,-0.37772,-0.33396,0.15497,0.67333,0.34216,0.0471,-0.048799,0.28179,0.2662,-0.054967,0.48923,0.26341,-0.20489,0.087388,0.2003,0.060466,-0.50688,-0.37732,-0.021737,0.14483,-0.17446,0.42741,-0.36668,-0.30996,0.01266,-0.45046,0.29637,-0.19117,-0.065503,0.29975,-0.20939,0.25859,-0.14135,-0.17457,0.090214,0.13864,-0.069819,-0.27094,0.14089,-0.10507,-0.40367,-0.4483,-0.15876,0.15012,-0.22966,0.13382,-0.1947,0.18014,0.20322,-0.13574,0.34444,-0.24077,0.032502,0.14712,-0.21014,0.13441,-0.11076,0.16302,-0.22385,0.32731,-0.20535,-0.069437,-0.11977,0.13851,-0.13722,0.43498,-0.46204,0.18576,-0.14632,-0.076365,-0.19688,-0.15289,-0.3239,-0.067965,0.27,0.079364,0.28737,-2.4132e-4,-0.24517,0.13033,-0.21721,-0.31021,-0.46094,0.18791,-0.092153,-0.0262,0.056031,-0.014353,0.23964,-0.053994,0.20054,-0.23257,-0.13705,0.29735,0.51174,0.28717,0.46312,-0.20297,-0.29717,0.3516,0.24956,-0.40805,0.064472,0.13884,-0.26933,-0.31403,-0.30549,0.26777,-0.049866,-0.16926,-0.063405,-0.011027,-0.061501,-0.32377,-0.036482,0.011076,0.2507,0.13107,-0.22908,0.63886,0.33299,-0.37421,-0.075892,0.32919,0.57605,0.20412,-0.7356,-0.22646,0.0077533,0.053382,-0.043916,0.26999,-0.35984,0.018704,-0.19457,0.10529,0.16655,-0.32855,-0.19981,0.37232,-0.41051,-0.2856,0.16114,0.32891,0.063402,0.40896,0.068285,-0.13287,0.19351,0.539,-0.1506,-0.41013,-0.25777,-0.090143,4.8607e-4,0.038067,0.25519,0.2322,0.057577,-0.14963,0.097137,-0.43222,0.094122,-0.075563,0.068724,0.33584,-0.16782,0.23005,0.41962,0.16457,-0.302,-0.33188,0.32389,-0.09754,-0.11763,0.55538,-0.52078,0.042665,-0.019325,0.15675,-0.55708,-0.29318,0.31178,0.33232,0.57944,-0.14059,0.021684,-0.22922,-0.0065404,-0.22432,0.13754,-0.19195,0.67378,0.19791,-0.12105,-0.095684,0.10473,0.2271,0.13909,-0.32835,0.24775,0.023427,0.07963,-0.10845,0.25216,-0.47669,-0.64214,-0.28116,0.30481,-0.023015,0.56643,-0.044956,-0.056293,-0.13286,0.46868,0.094454,0.049229,-0.47885,0.12746,-0.33946,-0.45274,0.30049,-0.10717,-0.26996,-0.040425,0.20531,-0.52484,-0.25891,-0.13772,-0.23229,0.084188,0.2219,-0.077669,-0.095716,0.065773,0.20943,0.25763,0.24045,-0.058697,0.062394,-0.058119,0.58126,0.032426,-0.19947,-0.15931,-0.047761,0.18069,-0.39674,0.047704,-0.47997,0.22342,-0.26198,0.063273,-0.3486,0.22048,0.69242,0.018133,-0.1237,-0.19151,-0.01688,-0.36368,0.51972,-0.34201,-0.067084,-0.12928,0.41845,-0.14982,0.50421,0.048875,-0.079436,-0.67577,-0.081501,0.37711,-0.18225,-0.49073,-0.24038,0.0054835,0.18606,0.11921,0.033504,0.2476,-0.076471,-0.041295,-0.18711,0.19845,-0.23715,-0.27298,0.27421,-0.59603,0.036807,-0.17442,-0.16633,-0.35045,0.29894,-0.063756,-0.13118,0.18319,0.32267,-0.0027226,0.20718
relative,0.07588,-0.052151,0.02349,0.15466,0.02083,-0.031941,0.24115,-0.21562,0.33887,0.090892,0.30733,-0.042475,-0.17779,0.081356,0.24639,-0.17067,-6.0251e-5,0.11915,0.058797,0.43687,0.18901,0.027135,-0.2032,0.031992,-0.39993,0.11811,0.18558,0.21435,-0.108,0.03786,0.21137,0.17497,0.063327,0.46125,-0.084749,-0.16092,0.1464,0.16275,0.054912,0.038334,0.57816,-0.02956,0.025148,-0.12102,0.35946,0.078462,0.0011541,0.2078,0.38077,0.083112,-0.061949,-0.17762,-0.21203,-0.3375,0.0036684,0.11087,0.28702,-0.15828,-0.074619,0.082885,0.035064,-0.2286,0.059728,-0.18336,-0.20161,-0.16972,0.028396,0.049698,0.35174,0.043731,-0.24653,0.24517,0.13221,-0.033442,-0.13844,0.25459,0.26939,0.56171,0.32517,-0.10588,0.23616,0.1347,-0.068852,-0.29535,0.36166,-0.13257,0.1361,0.22083,0.12771,-0.36061,-0.024196,-0.1087,0.24116,-0.33086,0.29298,-0.36667,-0.018217,0.040332,-0.32038,0.1907,0.12396,-0.011209,0.23412,-0.39324,-0.21893,-0.17709,0.023196,-0.081273,-0.0031858,0.072166,0.0069258,0.036873,-0.4487,-0.16103,0.32362,-0.083217,-0.1842,0.42321,-0.11564,-0.03829,0.0050154,0.09008,-0.068077,-0.012801,-0.027291,0.2483,0.004468,0.021364,-0.071869,-0.013099,-0.0080596,0.059344,0.18066,0.20642,0.11351,-0.048116,-0.091848,-0.021323,0.065414,0.077543,0.076958,-0.12696,0.19783,0.081086,0.078224,0.072561,0.038787,-0.089462,-0.20066,0.06143,0.24022,-0.11446,-0.16038,-0.24319,-0.2628,-0.14838,-0.38709,-0.025033,0.20878,-0.19935,-0.11059,0.41119,0.20436000000000001,0.21035,-0.14699,-0.13076,-0.1597,-0.48456,0.065515,0.12393,-0.28734,-0.14733,-0.060756,0.015744,0.059743,0.259,0.055884,0.39528,0.18053,0.067727,-0.05773,-0.07593,0.34929,0.069242,0.017449,-0.042221,-0.091499,0.066124,0.20464,-0.18143,-0.1566,-0.27632,0.41262,0.1209,-0.043785,0.0061724,0.16139,0.1474,0.029231,0.067428,0.010762,-0.43666,0.073749,0.21472,-0.05886,-0.10448,-0.087807,-0.065613,0.050453,-0.29606,0.36576,0.32994,0.10578,0.23146,-0.17675,-0.37526,-0.19208,-0.26502,-0.3617,0.11727,0.027943,-0.0070035,0.024134,0.048228,-0.086974,0.39522,-0.60838,-0.39594,-0.036391,0.062455,0.062417,0.021991,0.11799,0.17593,-0.12761,0.22036,0.084203,-0.040657,-0.026817,0.14072,-0.036519,0.049476,-0.25072,-0.19949,-0.091017,0.086921,-0.060778,-0.16178,-0.016781,0.02029,-0.23215,-0.23316,-0.03719,0.066706,-0.22565,-0.12832,0.013663,-0.032402,-0.057335,0.21744,0.10241,0.19082,-0.020429,-0.06011,-0.47977,0.082915,-0.036537,0.3073,0.13206,0.087264,-0.45832,-0.18802,0.3529,0.025581,0.0020346,0.077351,0.10031,0.094271,-0.20763,-0.13237,-0.028859,-0.23286,0.30091,-0.20794,0.18082,0.085151,-0.036566,0.051882,0.027172,0.35496,0.13385,-0.075326,0.15805,0.16216,-0.16264,-0.27919,-0.098516,0.29447,0.098577,0.0861
skin,-0.032105,0.19371,-0.63111,0.095792,-0.31692,-0.058621,0.081478,0.1495,0.075403,0.036346,0.1934,0.15564,-0.20352,0.23334,0.10908,-0.34097,-0.33342,-0.22687,0.02117,0.15421,0.25683,0.064393,-0.11029,-0.17808,-0.11623,-0.26281,-0.057623,-0.30731,-0.053851,0.20401,0.16109,0.23031,-0.058682,0.29454,-0.31037,-0.052823,0.050217,-0.23673,0.20082,-0.1302,0.047657,-0.11325,-0.039423,0.046315,-0.23012,-0.083535,-0.37165,-0.18087,0.041715,-0.30101,-0.064036,-0.0080787,-0.079828,-0.32976,0.22514,-0.18517,-0.17713,-0.67541,0.031083,0.24714,-0.17899,0.15803,-0.11604,0.19625,-0.056504,-0.21554,0.0044192,0.18302,0.14703,0.13249,-0.059514,-0.07306,-0.003173,-0.54012,0.16396,-0.22865,0.0073261,0.3671,-0.24338,-0.21063,-0.33483,-0.23823,-0.17695,-9.836e-4,-0.16341,0.18459,0.17745,0.32776,-0.087578,-0.029585,0.38398,-0.0077296,0.1196,-0.19463,0.23387,0.018711,-0.042446,-0.090367,0.042081,0.12215,-0.048582,-0.17464,-0.059997,0.089332,0.10085,-0.070049,-0.12846,0.22896,0.045841,-0.064057,-0.10579,0.31055,0.078648,0.21753,0.082866,-0.0068159,-0.12505,-0.037001,0.3754,0.047641,0.52611,-0.056225,0.16353,0.21101,-0.22899,0.39033,-0.28149,-0.0065285,0.020275,0.22013,-0.11002,0.36201,-0.50116,0.029011,0.36439,0.086428,-0.073439,0.014163,-0.55604,-0.14683,-0.095273,0.41303,0.44925,-0.089196,-0.19374,-0.11395,-0.20215,0.23507,-0.047773,0.050671,0.26573,-0.27808,-0.023059,-0.036704,-0.28307,-0.0063871,0.016928,0.2202,0.059523,0.022607,0.1979,-0.17257,-0.55697,0.12257,0.45935,0.36443,0.26884,-0.087656,0.61924,0.44872,0.15612,-0.73491,-0.098781,0.39669,0.20723,-0.0062181,-0.2942,-0.54783,-0.20896,-0.41464,0.16892,-0.34044,0.3508,0.21395,-0.20484,0.34009,-0.20403,-0.28113,-0.27244,-0.12686,-0.060093,-0.06163,0.29278,0.11203,0.049152,-0.050445,0.11482,0.10793,-0.17954,-0.2499,0.4155,0.055593,-0.12472,0.19051,0.27728,-0.57026,-0.31786,-0.12451,-0.019468,-0.037063,0.47176,0.18229,0.1542,-0.14559,0.30867,-0.043734,-0.081579,-0.542,0.096063,0.028181,-0.24842,-0.12749,0.10362,0.2068,-0.031373,0.39832,-0.75282,-0.20557,0.34018,0.18102,0.020803,-0.17745,-0.10571,0.056241,0.024246,0.13363,-0.20748,-0.039974,0.27204,0.26237,0.1539,0.47844,0.050688,-0.14722,-0.17939,0.73687,-0.11566,-0.56502,-0.17395,0.12586,0.079158,-0.19168,-0.16623,0.45294,0.17517,0.061022,-0.10638,-0.41393,0.16847,0.10858,0.053061,0.51062,-0.37423,-0.044507,-0.44739,-0.24758,-0.50828,0.29572,-0.23309,-0.012478,-0.43345,-0.092216,0.49815,-0.19856,-0.32927,-0.080398,0.20212,-0.046997,0.10197,0.20043,0.51646,-0.12931,-0.055386,0.052294,0.48641,-0.21087,0.047893,-0.15129,-0.43274,0.083364,-0.11685,0.013337,0.15726,-0.10946,-0.1373,0.36524,-0.01654,0.18878,0.05638,0.014058
