target_word,V2,V3,V4,V5,V6,V7,V8,V9,V10,V11,V12,V13,V14,V15,V16,V17,V18,V19,V20,V21,V22,V23,V24,V25,V26,V27,V28,V29,V30,V31,V32,V33,V34,V35,V36,V37,V38,V39,V40,V41,V42,V43,V44,V45,V46,V47,V48,V49,V50,V51,V52,V53,V54,V55,V56,V57,V58,V59,V60,V61,V62,V63,V64,V65,V66,V67,V68,V69,V70,V71,V72,V73,V74,V75,V76,V77,V78,V79,V80,V81,V82,V83,V84,V85,V86,V87,V88,V89,V90,V91,V92,V93,V94,V95,V96,V97,V98,V99,V100,V101,V102,V103,V104,V105,V106,V107,V108,V109,V110,V111,V112,V113,V114,V115,V116,V117,V118,V119,V120,V121,V122,V123,V124,V125,V126,V127,V128,V129,V130,V131,V132,V133,V134,V135,V136,V137,V138,V139,V140,V141,V142,V143,V144,V145,V146,V147,V148,V149,V150,V151,V152,V153,V154,V155,V156,V157,V158,V159,V160,V161,V162,V163,V164,V165,V166,V167,V168,V169,V170,V171,V172,V173,V174,V175,V176,V177,V178,V179,V180,V181,V182,V183,V184,V185,V186,V187,V188,V189,V190,V191,V192,V193,V194,V195,V196,V197,V198,V199,V200,V201,V202,V203,V204,V205,V206,V207,V208,V209,V210,V211,V212,V213,V214,V215,V216,V217,V218,V219,V220,V221,V222,V223,V224,V225,V226,V227,V228,V229,V230,V231,V232,V233,V234,V235,V236,V237,V238,V239,V240,V241,V242,V243,V244,V245,V246,V247,V248,V249,V250,V251,V252,V253,V254,V255,V256,V257,V258,V259,V260,V261,V262,V263,V264,V265,V266,V267,V268,V269,V270,V271,V272,V273,V274,V275,V276,V277,V278,V279,V280,V281,V282,V283,V284,V285,V286,V287,V288,V289,V290,V291,V292,V293,V294,V295,V296,V297,V298,V299,V300,V301
long,0.075172,0.11115,-0.093394,0.28195,0.28358,-0.11757,0.11484,-0.09394,-0.073221,0.2678,0.22019,0.27348,-0.48801,0.023957,-0.024272,-0.33948,-0.21071,-0.085382,0.044486,0.037774,-0.17761,-0.20097,-0.27725,-0.062598,0.066034,-0.063025,0.13032,-0.062603,0.29658,-0.15041,-0.303,0.15193,0.031429,0.11181,0.22166,0.17469,0.096073,-0.42762,0.25469,-0.15188,0.077658,-0.19006,-0.10748,0.21393,-0.31198,0.035879,0.12369,0.046453,0.12383,-0.031646,-0.21512,0.051674,0.094816,-0.19905,-0.12299,-0.098337,0.05979,-0.077961,-0.080053,-0.010476,-0.26511,-0.10447,0.20258,-0.083996,0.0091845,-0.20078,-0.27478,0.34118,-0.20559,0.068529,0.069029,0.061262,-0.049723,-0.31611,-0.14489,0.057819,0.59147,0.14519,0.023382,-0.0063874,0.11642,-0.33673,-0.071293,0.020046,-0.052932,-0.074815,-0.24145,0.1647,-0.0012631,0.11038,-0.026885,0.30542,0.27851,-0.10066,0.28922,0.021093,0.3175,-0.17904,-0.1218,0.23553,-0.084797,-0.18247,0.29869,0.03275,-0.065962,0.017532,-0.030883,0.061002,0.21308,0.18301,0.081398,0.060461,-0.13232,0.24025,0.27378,-0.15728,-0.27727,0.060029,-0.044251,0.1618,0.25126,-0.048801,0.02565,0.14108,0.12787,-0.073377,0.31179,-0.282,-0.16025,-0.11543,0.070952,0.3199,0.085118,-0.12794,-0.13236,0.027052,-0.1519,-0.37468,-0.057073,0.034968,-0.0090938,0.26461,0.18609,0.36877,0.10708,0.094679,-0.40976,-0.27762,-0.16034,0.23316,0.04536,-0.14707,-0.13481,0.012826,-0.18125,-0.26562,0.043292,-0.047216,0.26881,-0.018445,0.030717,0.1141,-0.46047,0.1483,0.040342,-0.37786,-0.059437,-0.098422,-0.12357,-0.21027,-0.11144,-0.64807,-0.051617,-0.18735,0.09316,0.33275,-0.084282,0.15706,0.073642,-0.50811,-0.11287,-0.056822,-0.079244,-0.041958,0.24413,0.12841,7.2619e-4,-0.26509,0.041002,-0.034196,-0.3102,-0.33293,0.20231,0.10393,-0.095028,-0.042931,0.30296,0.19261,-0.054879,-0.039993,-0.1026,0.10911,-0.24292,0.22518,-0.391,-0.30721,-0.042943,0.064123,0.22477,-0.093349,0.15416,-0.33146,-0.032069,-0.27171,-0.1814,-0.1691,-0.023226,-0.30293,-0.11621,-0.046212,-0.15708,0.029193,-0.26482,0.025531,-0.037069,-0.064344,-0.018758,0.090355,-0.079829,-0.22625,-0.077298,0.25484,-0.082326,-0.2242,-0.14765,-0.064052,0.41082,-0.25137,0.107,0.1184,0.1594,0.047955,0.40244,0.15597,0.20865,0.093399,0.011533,0.079227,-0.2717,-0.13274,0.05812,0.0052927,-0.47019,-0.15038,-0.1544,0.014563,-0.16567,-0.0017802,0.20818,0.16779,-0.087154,0.21119,-0.028631,-0.21292,-0.039959,-0.046695,0.053627,0.21187,-0.10199,-0.14719,-0.13119,0.17595,0.33596,0.051268,0.14866,-0.092284,0.34478,0.12432,-0.19105,-0.068926,-0.017874,0.032981,-0.15788,-0.45502,0.033714,-0.15991,0.079826,0.13659,0.051632,0.36711,-0.15171,-0.25436,0.063772,-0.22616,0.024395,-0.2679,-0.23825,0.053452,0.36792,0.17894
single,0.14016,0.22763,0.15275,0.11876,0.11585,1.3577e-4,-0.12303,0.056631,-0.22488,-0.30739,-0.0090533,0.13693,-0.22655,-0.12337,-0.070085,-0.22615,-0.26782,0.17662,0.025723,0.1472,-0.23318,-0.078514,-0.099698,0.23564,-0.13398,0.069765,-0.21553,0.28034,0.15141,-0.18531,-0.30279,0.11072,0.20012,0.34049,-0.011183,-0.39517,0.15619,-0.011428,-0.059965,-0.064943,0.078458,-0.35388,-0.081381,0.27666,-0.22762,0.447,-0.055139,0.3046,-0.017317,0.028292,0.20339,-0.10177,0.31286,-0.12268,-0.066346,0.10479,-0.20173,0.031378,-0.14823,-0.048247,-0.17294,-0.074395,0.12121,-0.20152,-0.10012,-0.42417,-0.41849,0.061868,-0.04368,0.22182,-0.15395,-0.12341,0.54365,-0.28372000000000003,-0.35959,0.088888,0.29406,-0.2245,-0.080147,0.16859,-0.058814,-0.44119,-0.041059,-0.13458,0.048875,-0.34256,-0.25978,-0.15999,0.068608,-0.043331,0.16394,-0.066573,0.23215,-0.036855,0.083407,-0.27865,-0.23004,-0.15438,-0.22339,-0.119,-0.011639,-0.26402,0.37661,0.018052,0.089361,-0.22515,-0.22492,0.2259,0.0086698,-0.055402,0.28257,0.16128,-0.083157,-0.21493,0.11186,-0.1926,-0.088614,0.3776,0.12413,0.60313,0.3774,0.36717,-0.16344,0.69436,0.050225,-0.13992,0.26862,0.11672,0.14487,0.15529,0.23966,0.17783,0.10561,0.37626,-0.048668,-0.41742,0.18821,0.072384,0.3599,0.18364,-0.10917,0.22089,0.53718,0.12489,-0.21308,0.42342,0.048655,-0.099387,0.12129,-0.002661,0.012712,-0.17286,0.054989,-0.104,0.029487,0.26364,0.15268,-0.073913,-0.022074,-0.17473,-0.02128,-0.14122,0.14592,-0.092327,-0.10721,0.1868,0.028969,-0.086547,0.074648,0.091601,-0.019622,-0.34154,-0.23677,-0.27252,0.089002,0.028893,-0.18939,-0.18687,0.15882,-0.058222,0.21128,0.060994,-0.19735,0.25768,-0.13211,-0.015912,0.24877,-0.09879,0.085937,-0.2718,-0.069239,-0.50426,0.23297,0.092453,-0.070397,-0.084708,0.092048,0.29179,-0.14345,-0.25005,-0.045765,0.23084,0.36558,-0.022099,0.13099,-0.26777,-0.4339,0.11696,0.26508,0.053049,0.4821,-0.33554,-0.10431,-0.46697,0.34406,-0.21824,-0.22279,-0.36681,-0.090982,-0.11884,-0.22782,-0.17153,0.13671,0.37558,0.28534,-0.11305,-0.21667,-0.10041,0.040006,-0.16237,0.01495,-0.10715,-0.019895,-0.34051,-7.3536e-4,0.10957,0.0045532,-0.03125,-0.3017,-0.11802,-0.32388,0.051075,0.12812,0.10426,0.060668,0.17436,-0.06191,-0.047661,0.13614,0.049485,-0.29986,-0.2479,-0.1525,-0.013198,-0.13245,0.02132,-0.43125,0.14132,-0.056508,-0.12502,0.03442,-0.043587,-0.042877,0.026486,-0.23976,0.3254,-0.17071,0.091529,-0.037027,-0.28889,-0.42148,0.042895,-0.055901,-0.024039,-0.085023,-0.19142,0.16394,0.21142,0.38471,0.12948,0.013929,0.082203,-0.1691,-0.044215,0.19529,-0.25557,0.22489,0.24089,-0.18783,0.096671000000000007,0.11984,0.19613,0.066023,0.25411,0.012927,-0.075706,0.14433000000000001,0.037575,0.31155,-0.22875
small,-0.044569,0.12975,0.30620000000000003,0.32749,0.090697,-0.15,0.28065,-0.019646,0.30794,0.25797,-0.14262,0.32599,-0.038048,0.57164,0.0089733,1.0294e-4,-0.057224,0.14873,0.106,-0.10305,-0.1499,-0.16604,-0.21642,-0.039211,-0.12086,-0.10131,-0.19782,-0.10773,-0.066765,0.16736,-0.029736,0.10794,-0.33281,0.012935,0.25162,-0.27114,0.12538,0.12269,-0.080379,-0.18021,0.08317,-0.097463,-0.027181,0.21669,-0.26765,0.24207,0.26535,0.073196,0.030083,0.052547,-0.3171,-0.090868,-0.11781,0.050549,-0.1715,0.10071,0.17369,0.19917,-0.014242,0.19281,-0.17533,-0.36261,0.26716,0.21643,0.013055,-0.52927,-0.31796,0.051683,0.17658,-0.19161,-0.32743,-0.055909,0.063444,-0.099898,0.011311,0.14648,0.033394,0.027594,0.094831,-0.23824,-0.043386,-0.055104,-0.18777,-0.13356,0.53811,0.24552,-0.015779,0.19209,0.060077,0.089273,-0.13558,0.28525,0.11295,-0.3677,0.38141,-0.21998,0.22991,0.054199,-0.12284,0.035177,-0.10606,-0.04837,0.029296,0.10901,0.2383,0.14716,-0.34044,0.35985,0.19649,-0.083531,0.028103,0.041879,-0.10193,0.023573,-0.015741,-0.10354,-0.10312,0.028958,0.12745,-0.052247,0.41358,0.026284,-0.12177,0.31586,0.011817,0.089758,0.0068711,-0.032406,0.18483,0.18165,-0.080425,0.407,-0.19332,0.13577,-0.17561,0.11747,0.025311,0.029125,-0.029527,-0.11396,0.13333,0.16254,0.13706,-0.0041846,0.31038,0.39834,-0.072155,0.027716,0.18289,-0.0076417,0.15409,-0.28368,-0.41852,0.12342,-0.23123,-0.022124,0.14865,-0.1496,0.18531,-0.014967,-0.11009,0.36141,0.086561,0.13253,0.32016,0.12984,-0.26087,-0.1715,0.28792,0.25821,-0.31841,-0.013635,-0.33478,-0.31903,-0.14617,0.26159,0.26867,0.2398,0.1457,0.15355,0.36423,0.18399,0.21432,-0.03854,0.49918,-0.037003,-0.17154,-0.031331,0.21834,-0.064746,0.094334,-0.21948,0.24398,0.072238,-0.15773,-0.21922,0.25398,0.35433,-0.12586,-0.11469,-0.070634,0.31751,-0.078949,0.19969,-0.13124,-0.34434,-0.23322,-4.1517e-5,-0.18244,0.089794,0.058073,0.005757,-0.083403,0.034293,-0.021519,-0.33497,0.022108,-0.12273,-0.15881,-0.081191,0.030885,0.15625,-0.21388,0.25294,-0.023764,-0.10212,-0.36302,-0.061991,0.032348,0.02118,0.012433,-0.26231,-0.17642,0.062744,-0.1097,-0.15441,0.051102,-0.464,0.13666,-0.0027866,-0.13489,0.13598,0.17063999999999999,-0.14508,-0.29246,0.30355,-0.11461,-0.029563,-0.051961,0.12573,0.28605,-0.10489,-0.3172,-0.084766,-0.050732,0.2584,0.073971,0.035762,0.33204,-0.09897,-0.13807,-0.035295,0.065375,-0.23819,-0.4795,0.23289,0.10896,-0.028577,-0.2213,0.073417,-0.13726,0.1555,0.025867,0.043997,-0.1268,-0.19367,0.23954,-0.097004,-0.051667,0.020588,0.11556,-0.068946,-0.049027,0.091017,0.263,0.24099,0.066722,0.15059,-0.14058,0.16871,0.34739,-0.0052584,-0.0075259,0.045862,-0.01217,-0.0083114,0.065184,0.19666,0.11711,0.073492
large,-0.062511,-0.066697,0.21379,0.43437,0.11874,-0.10864,0.36341,-0.12906,0.18657,0.28984,-0.081471,0.35158,-0.089531,0.39506,0.11405,-0.25831,-0.21729,0.19034,0.10088,0.015033,-0.12368,-0.18593,-0.16813,0.13682,-0.040543,-0.11604,-0.046597,-0.027122,0.041852,0.059228,-0.013492,0.21835,-0.17179,0.15288,0.096897,-0.20595,0.067629,-0.058064,-0.027537,-0.25257,0.016957,0.011656,0.0017333,0.31275,-0.12809,0.012371,0.18426,0.11083,0.070507,-0.059526,-0.46843,-0.15431,0.03836,0.048061,-0.067524,0.16511,0.041977,0.18943,-0.29754,0.14189,-0.14808,-0.24673,0.22039,0.055644,-0.047589,-0.31039,-0.28532,0.073924,0.094283,-0.22485,-0.30745,0.031535,-0.015129,-0.142,0.13737,-0.026987,0.10329,0.035217,0.034029,-0.26688,0.18893,0.1172,-0.27628,-0.10457,0.35781,0.024622,-0.065767,0.29268,0.18483,0.06511,-0.12072,0.22719,0.27139,-0.37157,0.1499,-0.2375,0.25706,0.059879,-0.15107,0.13895,-0.31311,-0.13008,0.38067,-0.0019006,0.14487,0.097327,-0.33109,0.28475,0.0012873,0.070352,0.079799,8.3186e-4,-0.12251,-4.1497e-4,0.17301,-0.1217,0.0086643,-0.078221,0.046337,0.02213,0.14251,0.051154,-0.11317,0.1851,0.037988,0.098474,-0.0057566,-0.097598,0.11565,0.34061,-0.04427,0.17753,-0.17148,0.015183,-0.18182,-0.090778,-0.19093,-0.003819,-0.032067,0.085141,0.006394,0.032768,0.1537,-0.070469,0.10838,0.2835,-0.27604,0.17746,0.047815,0.085306,-0.048823,-0.40739,-0.26188,0.036905,-0.055676,-0.17861,0.19105,-0.24622,0.19712,-0.14621,-0.095998,0.31143,6.6527e-4,0.11031,0.31425,-0.081083,-0.14004,-0.027252,0.5666,0.19669,-0.18341,-0.05884,-0.22191,-0.1808,0.0048956,0.15364,-0.01225,0.16647,0.061099,0.060902,0.16055,0.19074,0.007639,-0.13174,0.40498,0.03335,-0.15201,-0.075764,0.29588,-0.12603,0.11008,-0.41403,0.14857,0.041717,-0.023311,-0.044052,0.19413,0.3013,-0.34246,0.092852,0.18099,0.27729,0.019723,0.17474,-0.19809,-0.62601,-0.11701,0.10776,-0.15667,-0.14053,0.048897,0.027052,0.043172,0.059152,0.093688,-0.16419,-0.14328,0.02038,0.031993,0.10539,-0.14331,0.065362,-0.089488,0.42424,-0.11862,-0.098016,-0.16773,-2.1927e-5,-0.18074,-0.10562,-0.025507,0.011383,-0.10396,0.17216,-0.10337,-0.16347,0.12327,-0.34933,0.23965,0.1685,-0.28656,-0.012263,0.12383,-0.10524,-0.22462,0.028629,0.0092135,-0.078556,-0.1223,0.091183,0.27743,-0.13462,-0.094522,0.18907,-0.3013,0.26837,-0.037695,0.052037,0.22121,-0.10228,-0.19975,-0.072037,0.022224,-0.11823,-0.6185,0.21504,-0.025095,-0.26455,-0.28094,0.044558,0.010211,0.1157,-0.048414,-0.066464,-0.14247,-0.10451,0.22092,0.18197,-0.063033,-0.030584,0.14765,-0.15383,0.03173,-0.075678,0.15699,0.16556,0.0089302,0.15833,-0.1972,0.22338,0.31323,-0.13383,0.01827,0.14302,-0.1251,0.042386,-0.031876,0.30571,0.2078,0.086019
white,-0.19715,-0.12519,0.00961,-0.055395,0.34123,0.099503,-0.14716,0.14411,0.46427,0.2464,0.23744,0.20562,0.13032,0.083103,0.12855,-0.77133,-0.41973,-0.39347,0.23554,0.014824,-0.18547,-0.21547,-0.28117,0.12786,-0.42449,-0.13228,0.42216,-0.17228,-0.17921,0.47009,-0.029723,-0.066241,-0.13589,0.023469,-0.03785,-0.086476,-0.18013,-0.096724,0.20085,-0.19814,-0.074632,-0.2459,0.073168,-0.14777,-0.06528,-0.39014,-0.070199,-0.29635,0.035384,0.012683,-0.1598,-0.26847,0.053073,-0.13128,-0.063223,0.2026,-0.064107,-0.024536,0.1335,0.14205,0.045253,0.085473,0.39912,-0.16868,-0.1112,-0.082377,-0.33417,0.20628,-0.16812,-0.020505,-0.31671,-0.13137,-0.31551,-0.34965,-0.15855,-0.34274,0.11547,-0.32399,0.12057,-0.034248,0.11002,-0.23983,-0.29511,-0.0029299,-0.32675,-0.26875,-0.22029,0.10583,0.23549,-0.028014,-0.14689,-0.089973,-0.05997,-0.31603,0.23745,0.07347,0.01583,0.25536,-0.22076,0.25009,-0.16051,0.14759,-0.081932,0.14066,-0.018035,0.24031,0.061604,0.11235,0.21167,-0.20419,-0.22758,0.13587,-0.17419,-0.32129,0.062424,0.26075,0.16081,-0.067148,0.18381,-0.065383,0.28491,0.0056119,0.20376,0.12931,0.15856,0.21961,-0.15694,0.10704,0.25686,-0.057818,-0.14283,0.14744,0.080156,0.21209,0.2951,-0.2784,0.27268,-0.6534,-0.3814,0.0096262,0.23473,0.32749,0.47479,0.08105,-0.018965,0.062945,0.0025841,-0.15537,-0.52082,-0.073623,0.16423,-0.35291,-0.5084,0.0064966,-0.2848,0.30149,0.11739,-0.063725,0.46006,-0.022221,0.50731,0.32448,-0.29515,0.31589,0.17502,0.12045,-0.19607,0.10097,0.32135,0.066267,0.086831,-0.31326,-0.46834,-0.094428,-0.24051,0.04495,-0.11833,-0.34708,0.249,-0.13005,-0.043594,-0.20396,-0.22689,0.22355,-0.071881,0.25764,-0.020255,-0.099165,0.35901,-0.077119,0.31437,-0.30528,0.20509,0.08213,-0.20954,0.051099,-0.053483,0.22416,-0.0068322,0.0073657,0.40324,-0.048293,-0.29939,0.16282,0.51037,-0.38358,-0.33166,-0.099602,0.08002,-0.090493,-0.093195,0.12665,-0.084589,-0.072416,0.20605,-0.40084,-0.23458,-0.4495,-0.18794,0.066237,-0.3659,-0.33695,-0.21707,0.52509,0.1557,-0.1758,-0.36253,0.035561,-0.1914,-0.17272,0.16239,0.32624,0.037851,-0.14848,0.26522,-0.3565,-0.12663,0.12991,-0.19104,0.19651,-0.08218,-0.054942,0.014179,0.04856,0.0415,-0.1211,-0.14465,0.053884,-0.11096,0.30055,0.17159,-0.042273,0.040582,-0.1498,0.11884,0.24798,0.47725,-0.29942,-0.023593,0.2385,0.17872,0.18204,0.22321,-0.18295,-0.17629,-0.3539,-0.15122,0.44031,-0.018143,-0.08455,-0.38916,-0.26958,0.08085,0.034847,-0.21575,-5.2357e-4,0.21318,-0.22761,-0.28572,0.15525,0.17327,0.26112,0.1786,0.44704,0.63607,0.19834,0.18238,0.56454,-0.37673,-0.080037,0.19882,-0.19796,-0.26265,0.12439,0.038235,0.22087,0.18572,0.27587,-0.22359,-0.23321
black,-0.33801,-0.0010778,-0.0075271,0.10554,0.15904,0.27644,-0.05565,0.36161,0.56068,0.30735,0.23045,0.039258,-0.033031,0.23953,0.32671,-0.38086,-0.48357,-0.13469,0.22164,0.35089,-0.2009,-0.12313,-0.29999,0.10977,-0.37443,-0.067335,0.44976,0.23795,-0.12694,0.64655,0.06585,-0.04149,0.0031993,0.037071,-0.25591,-0.33712,-0.053973,-0.12063,0.19745,-0.32109,-0.08077,0.080905,0.081647,-0.078554,-0.1712,-0.22763,-0.052252,-0.36557,0.17135,0.018393,0.042346,-0.11775,0.0061512,0.11596,-0.38128,0.24884,-0.17698,0.064872,0.49143,0.092233,0.070682,0.12065,0.40182,0.06856,-0.19965,0.1824,-0.22119,0.0056101,-0.097819,-0.065739,-0.20873,-0.37577,-0.21803,-0.30614,0.20829,-0.32535,0.20231,-0.3336,-0.062543,0.096474,-0.026469,-0.19639,-0.33173,0.20712,-0.048246,-0.10409,-0.2228,0.20256,-0.055281,0.049559,-0.18825,0.22306,-0.035158,-0.053979,0.12343,0.077387,0.051955,0.11607,-0.060532,0.33165,-0.16571,0.053671,-0.083431,0.34591,0.11372,0.10301,-0.0018385,0.2268,0.13725,-0.18999,-0.094508,0.28361,-0.32256,-0.29232,-0.069019,-0.020835,0.10265,-0.09187,0.071597,0.19906,0.32399,0.057289,0.061081,0.014949,-0.10624,0.12968,0.13887,0.22587,0.0395,0.06106,-0.35053,0.31962,0.17077,0.22434,0.042005,-0.42589,0.26496,-0.43472,-0.33795,0.17445,0.13808,0.015228,-0.014015,0.10635,-0.26883,0.17379,-0.16973,0.011167,-0.18597,-0.071213,0.045304,-0.513,-0.50854,0.029805,-0.18746,0.29374,0.20791,0.063389,0.40398,-0.04595,0.30902,0.19768,-0.28313,-0.043023,0.20862,0.082713,-0.15714,0.081304,0.70272,0.26507,0.012481,-0.19703,-0.62594,0.025286,-0.29465,0.032673,0.13902,-0.30187,0.057932,0.0013998,-0.0034666,-0.090331,0.13076,0.070176,-0.1216,0.0060229,0.058296,-0.12481,0.21156,0.080274,0.14107,-0.51304,0.32165,0.056771,-0.037266,0.082643,-0.21811,0.11125,-0.29809,0.086337,0.4462,0.20966,-0.088817,0.12123,0.29079,-0.19556,-0.076392,-0.28428,0.087804,0.012048,0.20055,0.14995,0.18527,0.19346,0.043697,-0.0024271,-0.42561,-0.40245,-0.08716,0.072631,-0.41922,-0.37676,-0.23107,0.50403,0.1259,-0.31836,-0.24203,-0.15594,0.25542,-0.18304,0.25221,0.56304,-0.13979,-0.14244,0.092171,-0.47476,0.14039,0.18236,-0.34961,0.16444,-0.12196,0.15716,0.11465,0.011861,0.10332,-0.21245,-0.28384,0.061195,-0.14878,0.4043,0.087752,-0.022189,-0.010594,-0.15678,0.18003,0.23671,0.14699,-0.45556,0.073758,-0.067777,0.14762,-0.069588,0.068336,-0.31624,-0.22635,-0.49991,0.18523,0.46085,0.18075,-0.27369,-0.23531,-0.31673,0.12597,0.15596,-0.10124,0.17376,0.30253,-0.077761,-0.38857,0.021279,0.18978,0.21372,0.46533,0.025171,0.34765,0.19649,0.20473,0.18482,-0.41359,0.031477,0.23794,-0.14254,0.15955,0.24115,0.21869,0.17404,0.1738,0.19978,-0.05539,-0.041608
little,-0.070176,-0.12594,-0.06899,0.18618,0.062957,-0.059487,0.1144,-0.047421,0.40555,0.19931,0.07112,-0.14596,0.046156,0.11019,0.078155,-0.03042,-0.071138,-0.13767,-0.3743,0.0083613,-0.28015,-0.14625,0.042557,-0.077876,-0.35156,0.084489,-0.18931,0.10488,-0.12009,0.1435,-0.13449,0.30278,-0.2632,0.3074,0.2637,-0.17971,-0.13899,-0.19607,-0.0028823,-0.2471,0.028929,-0.048728,0.018273,-0.04235,-0.10356,0.2309,0.38348,-0.046,0.044249,-0.16119,-0.024462,-0.042958,-0.16423,-0.12569,0.029066,0.097105,0.0023598,-0.089905,-0.22097,0.042074,-0.13187,-0.1614,0.1246,0.13538,-0.045749,-0.2108,-0.058593,0.095015,0.21836,-0.093522,0.046554,0.12419,0.061111,-0.23997,0.0033371,0.2335,-0.0441,0.29353,-0.15192,-0.21403,-0.12338,-0.060916,-0.087034,0.014679,-0.12123,0.20909,-0.12839,0.21692,-0.05927,-0.041824,-0.12536,0.063098,0.30865,-0.080033000000000007,0.16908,-0.028839,0.0754,0.074236,-0.4032,0.21125,-0.035739,0.021585,0.22245,0.13957,-0.092063,-0.17703,-0.1403,-0.079518,0.04834,-0.35623,-0.31204,-0.28582,-0.023023,0.0037119,-0.0017854,-0.24591,-0.027905,0.027655,-0.37706,-0.018682,0.40924,-0.1613,0.084903,0.33475,0.35177,0.28835,-0.14404,-0.010673,-0.017448,0.011539,-0.063981,0.12689,-0.16891,0.20051,-0.12201,0.062833,-0.023536,-0.07099,-0.14705,-0.013918,0.23706,0.19161,0.24433,0.20337,0.30477,0.27808,-0.29919,-0.068657,-0.15584,-0.093411,-0.050344,-0.060756,0.079153,-0.02029,-0.024225,-0.039815,-0.16581,-0.059962,-0.061402,0.016266,0.22272,0.1453,3.6358e-4,0.0026645,-0.075754,0.25604,-0.19251,-0.067973,0.3966,0.067069,-0.12278,-0.15034,-0.51732,-0.57311,0.14218,0.16054,-0.045662,0.24871,0.021397,-0.34181,0.26344,-0.09601,0.10362,0.10413,-0.10173,0.0069283,-0.34309,-0.28539,0.32084,0.13428,-0.17754,-0.21179,-6.6993e-4,0.2195,-0.20364,-0.22843,0.091405,0.045548,-0.4615,0.095484,0.17539,0.20303,-0.047575,-0.042392,-0.35701,0.013114,-0.2699,-0.35251,-0.11535,0.14792,0.35702,-0.052904,0.053143,-0.1975,-0.45084,-0.31647,-0.13067,-0.30195,-0.36875,-0.21376,-0.010032,-0.288,-0.22567,-0.046019,0.012033,-0.2161,-0.23563,-0.053446,0.0018815,0.20799,0.27426,0.17844,0.27208,0.023814,-0.17901,0.20167,-0.070598,0.01628,-0.065171,-0.078847,-0.074503,-0.036623,0.30157,-0.04015,-0.10814,0.17244,0.10171,0.26465,-0.025056,0.19974,0.22176,0.099005,-0.095512,-0.084352,0.29087,0.16755,-0.083587,0.19354,0.13254,0.33374,0.17464,0.15108,0.027105,-0.355,0.17828,0.13818,-0.1732,0.51601,-0.086509,-0.20473,-0.43637,0.062035,0.21812,0.18074,0.10743,-0.066524,-0.024647,0.018381,-0.12027,-0.12757,0.43759,-0.073749,0.094879,0.1521,0.32558,-0.024596,0.076744,-0.01184,-0.096515,0.13966,0.11527,0.048922,-0.1799,0.27598,-0.20529,-0.12317,0.12786,0.12984,0.078637,0.21209
short,0.097098,-0.01967,-0.14618,0.074745,0.40361,0.015012,0.16508,-0.019278,0.17962,0.15455,0.22342,0.39953,-0.22136,0.20719,-0.23297,-0.1158,0.23185,0.18792,0.20075,0.17867,-0.2481,-0.05414,-0.64404,-0.12739,0.11285,-0.08899,-0.090676,-0.086828,0.38214,0.028772,-0.2579,-0.18448,-0.072599,0.032165,0.53079,0.088418,-0.21769,-0.17804,0.43935,-0.24837,0.066292,-0.14636,-0.095796,0.1848,-0.26171,0.0094729,0.14957,0.097332,0.23785,-0.10283,0.11897,-0.17765,0.17814,-0.20659,0.02985,-0.22519,0.19479,-0.12054,0.079845,-0.095394,-0.40254,-0.0898,0.19911,0.16587,0.032689,-0.16632,-0.48361,0.49832,-0.1354,0.076966,0.10341,-0.056782,-0.06075,-0.12526,-0.23274,-0.12973,0.24047,0.13922,0.035077,0.12699,-0.059879,-0.16016,-0.10215,0.18842,0.16459,-0.10807,-0.158,9.8146e-4,0.052507,-0.27487,0.012289,-0.047737,0.46222,-0.19281,0.28736,0.05619,0.18055,-0.067957,-0.27139,0.44284,0.036046,-0.13615,0.13667,0.16445,-0.066612,0.092253,0.090053,0.25531,0.25616,-0.13442,2.8502e-4,0.14037,-0.27642,0.083957,0.11207,-0.21114,-0.21736,-0.0078808,0.047368,0.27924,0.24525,-0.17656,-0.023321,0.2169,0.10562,0.15269,-0.016803,-0.21727,0.17251,-0.12615,0.22608,0.26204,-0.093561,-0.24361,0.077368,0.040125,0.040136,-0.15851,-0.15454,0.14842,0.33924,-0.022246,0.29735,0.3076,0.055754,0.058552,-0.42827,-0.46177,0.082509,0.24597,-0.11191,-0.22141,-0.29462,-0.080793,-0.18407,-0.025548,0.13782,0.034828,-0.0078262,0.11394,-0.014537,0.23119,0.028972,-0.075916,0.13609,-0.27131,-0.29924,-0.14383,-0.021519,-0.015554,-0.31184,-0.157,-0.2284,-0.3045,0.020289,0.65648,-0.12419,0.19336,0.1499,-0.38461,-0.051577,-0.14624,0.074982,-0.36391,0.10713,0.22077,-0.072524,-0.090753,0.061198,0.29026,-0.20433,-0.15191,0.14526,0.050326,-0.069554,-0.080421,0.035305,0.19693,-0.17821,0.013634,-0.089311,0.12891,-0.10237,-0.23647,-0.089852,-0.39339,-0.1367,0.26576,0.096708,0.015162,0.15043,-0.30049,-0.007939,-0.082912,-0.22246,-0.20639,-0.1262,-0.12082,-0.43959,0.034892,-0.16039,-0.12927,-0.26245,-0.065208,-0.022228,0.050129,-0.1372,-0.12645,-0.092489,-0.083411,0.15857,0.16524,0.026536,-0.14225,-0.29399,0.14725,0.36728,-0.13015,-0.20127,-0.29844,0.11889,-0.036183,0.28814,-0.088462,0.059604,0.15733,-7.7061e-4,0.071024,-0.27723,-0.004847,-0.26428,-0.020695,-0.45186,-0.28522,-0.087012,0.087815,-0.26515,0.082955,0.18703,0.31524,-0.0078002,-0.19639,-0.082201,-0.031808,-0.1699,0.021233,-0.12046,0.10213,-0.21367,-0.34241,-0.49774,0.11707,0.082211,0.042772,-0.068834,0.076443,0.22622,0.12577,0.016524,0.1962,0.1119,0.25698,-0.13583,-0.5125,0.36058,-0.014774,-0.12439,0.041087,0.12148,0.12256,-0.11093,-0.44618,0.1405,-0.069282,-0.013511,-0.22971,-0.18098,-0.021225,0.24582,0.21006
red,-0.1397,-0.19608,0.44096,0.084868,0.28052,-0.16625,0.21707,-0.25217,0.38182,0.31135,0.36728,0.025981,8.6035e-4,-0.056946,0.42681,-0.038768,-0.44806,-0.40775,0.12509,0.33304,-0.18079,-0.19826,-0.39046,-0.095871,-0.10124,-0.32382,0.073163,-0.26469,-0.30121,0.17423,0.030348,0.31439,0.13998,0.32872,0.10476,0.035078,-0.34023,-0.11485,0.33944,-0.31054,-0.13628,-0.059198,0.034101,0.2696,-0.078278,-0.40515,0.10135,-0.067055,0.10643,0.17901,0.16979,-0.48534,-0.24541,0.096183,0.21221,0.11069,0.038908,-0.13226,-0.013102,0.1002,0.0098221,0.097488,0.43482,0.061886,0.013697,0.083183000000000007,-0.31587,0.19045,-0.025096,0.072761,-0.3491,0.14653,0.13922,-0.40901,0.28042,-0.037875,-0.062586,-0.15995,-0.30987,-0.19218,0.15254,-0.015975,-0.41725,0.096396,-0.29933,0.032147,-0.1326,0.13956,0.19835,-0.4082,-0.076848,0.21226,-0.25411,0.37966,0.26029,0.0836,0.15182,0.37335,-0.28057,0.16127,0.068423,-0.1484,-0.27119,0.12576,-0.27263,-0.3436,0.21394,0.12946,-0.13145,-0.11167,-0.10737,-0.23454,0.12739,0.03597,-0.060059,0.048722,0.20964,-0.038243,-0.1379,-0.22487,0.35956,-0.011622,0.058344,0.09916,0.12139,0.32307,-0.0035153,0.17284,-0.24221,2.4583e-4,0.1595,0.35485,0.099914,0.23481,-0.24372,-0.061035,-0.0026034,-0.65479,-0.27708,0.34839,-0.14142,0.61913,0.1209,-0.10125,-0.025256,0.52423,-0.28878,-0.009969,-0.17651,0.051339,8.1239e-4,-0.70559,-0.49295,-0.15648,-0.030506,-0.056029,-0.14955,0.32918,0.20531,-0.33114,0.62744,0.14798,-0.49909,-0.077926,0.14668,0.048877,-0.25209,-0.034639,0.54631,-0.066707,-0.09848,-0.33583,-0.13586,-0.0017125,-0.071714,0.12245,-0.057049,-0.27742,0.094564,0.11065,-0.31493,-0.073349,-0.28387,0.0077796,-0.0039406,-0.071689,-0.09654,0.053847,0.17467,0.0038026,0.34043,-0.41729,0.4997,0.32705,-0.5236,-0.36265,-0.1958,0.053633,-0.41911,0.11976,0.1243,-0.25585,0.11287,0.311,0.34561,-0.26262,-0.53753,-0.076221,-0.27197,0.17838,-0.082639,0.25741000000000003,-0.19358,-0.25886,0.47806,0.20258,-0.30476,-0.1774,-0.030877,-0.057238,-0.35567,-0.12072,-0.10432,0.19229,-0.037777,-0.23027,-0.19568,0.07154,0.24444,-0.18281,0.14356,0.084038,0.10874,-0.27019,0.046303,-0.47618,0.20205,-0.12581,-0.31114000000000003,0.20039,-0.088377,0.083716,-0.056324,-0.12529,-0.16888,0.078496,0.2189,0.2129,0.007768,-0.1232,0.2032,0.03014,-0.093485,-0.12751,0.29964,-0.083504,0.097126,-0.2416,0.44406,0.25689,0.21818,0.29237,-0.28174,-0.019995,-0.23476,-0.18135,-0.05493,0.29243,-0.1288,-0.46428,-0.12794,-0.21535,-0.26473,0.015243,0.042705,-0.086866,0.45472,0.21919,-0.20069,0.17187,-0.011451,-0.31734,0.036694,0.085431000000000007,0.7677,-0.23879,0.30408,0.37109,-0.40264,-0.48163,-0.049746,-0.088077,0.09688,0.13178,-0.14316,-0.2952,0.35474,-0.2043,-0.06245,-0.080208
round,-0.32678,-0.17783,-0.026308,0.53413,0.16707,0.017496,0.025234,-0.20467,0.14242,-0.22399,0.17298,-0.43417,-0.0046775,-0.22136,0.045041,-0.081677,-0.52993,0.30647,0.096271,0.13161,-0.095844,-0.14771,0.13779,0.0019657,-0.014778,-0.076083,-0.19853,-0.27935,-0.17272,0.49234,0.28202,-0.1716,0.04854,0.29263,0.14467,-0.16645,-0.049953,0.20861,0.22083,-0.37479,0.33247,-0.087483,0.014615,-0.051938,0.35599,0.1471,0.58637,0.38695,-0.26399,0.302,0.04434,0.034382,0.14603,-0.33519,-0.28651,0.17893,-0.20959,0.30831,0.095252,0.30267,0.19051,-0.35473,-0.060397,-0.12004,0.32904,0.31453,-0.34219,0.41808,-0.13319,0.31923,-0.34442,-0.095859,-0.16488,0.20593,0.15948,-0.085476,0.45998,0.29564,0.045008,-0.021961,0.26917,-0.11025,-0.15416,0.54233,0.17417,-0.16501,-0.042403,-0.50915,0.31346,0.035431,-0.082469,0.022706,0.37457,-0.16912,0.15538,-0.13248,0.2856,-0.2676,-0.39639,0.020984,0.19752,-0.024046,0.29566,0.081483,0.36294,0.83034,-0.065829,0.29212,0.33531,-0.070931,-0.23657,-0.25626,0.21594,0.010339,0.1365,-0.15073,-0.03509,0.2236,0.019914,-0.37124,0.46938,-0.060475,-0.12754,0.20031,0.11945,0.054301,0.5591,0.4085,-0.14227,0.43892,-0.14262,0.50962,0.0023079,0.16189,-0.042971,-0.070022,-0.17829,-0.64766,0.0069303,0.56342,-0.047188,0.24043,0.46005,0.15156,0.0019545,0.17422,0.046774,0.065937,-0.30831,0.1483,0.6814,-0.01206,-0.15856,0.11418,-0.29477,0.18296,0.12395,0.048987,0.13718,-0.051345,0.49951,-0.16278,-0.10075,0.06933,0.29921,0.22453,-0.43016,0.36654,0.057649,0.044379,-0.18131,-0.23428,0.22154,-0.10652,0.47068,0.61001,-0.29335,0.40593,-0.041826,-0.12774,0.43304,-0.4065,0.10329,0.12083,-0.04857,0.22255,-0.059988,-0.13202,0.13146,-0.41703,0.19853,0.088166,0.26551,0.21376,0.015523,-0.31423,-0.029153,0.28249,-0.036275,-0.021022,-0.053855,4.518e-6,0.17819,-0.1655,0.20357,-0.45447,-0.23143,0.15314,0.41275,-0.027578,0.809,-0.1346,-0.081155,0.18951,-0.17203,0.13717,0.10185,-0.23253,0.16357,-0.36355,0.045318,-0.35351,0.12727,0.29885,0.22334,-0.11459,-0.4214,-0.014811,-0.35683,0.19921,-0.35681,0.10878,0.11049,-0.14332,-0.58502,-0.12172,-0.24537,-0.001433,0.24075,-0.41424,-0.23232,0.064373,0.22537,-0.013171,0.013378,0.16478,0.1863,0.050943,-0.14726,-0.04605,0.14858,0.06331,-0.32235,-0.3239,0.4129,0.13425,-0.17634,-0.29357,-0.036517,0.26061,-0.015385,-0.072171,0.23242,-0.35823,0.07179,-0.038329,0.63201,-0.21332,0.1417,0.27705,-0.25676,0.027194,-0.54003,-0.0049044,-0.36953,-0.29796,0.24446,0.56984,0.026128,-0.156,0.18278,-0.041724,-0.12674,-0.12303,0.37939,-0.12575,0.20037,0.23283,-0.39815,-0.082432,0.24766,0.036945,0.10073,0.64756,-0.087828,0.086313,-0.071621,-0.52599,0.10847,0.14682
low,-0.064916,-0.001979,0.12379,0.54373,0.26853,-0.28408,-6.2813e-4,-0.12833,0.46706,-0.38323,0.20546,0.27114,0.10023,-0.072018,0.62815,-0.10505,-0.092849,-0.018771,0.34421,0.17287,-0.10445,0.04938,0.0082441,-0.11391,-0.25134,-0.025196,-0.36659,0.37955,-0.1368,0.57104,-0.29149,0.36503,-0.31768,0.085363,0.058465,-0.082337,-0.026661,-0.14765,-0.024943,-0.16589,0.42632,-0.20249,-0.29343,0.13752,-0.13607,0.16895,0.11518,0.46138,0.50684,0.043595,-0.076646,0.11384,0.004429,-0.19525,0.16052,0.15349,-0.045485,0.53351,-0.50502,0.047488,-0.14119,-0.071151,0.35518,-0.2232,0.026348,-0.27114,-0.08124,0.40924,0.27927,-0.22973,-0.082091,0.1111,0.13018,0.23869,0.094366,0.5061,0.50647,-0.017867,0.082962,0.071949,-0.29864,0.090069,-0.30848,-0.30048,-0.14178,0.14315,-0.27569,-0.06521,0.21779,-0.0065358,0.17146,0.28009,0.039974,-0.25859,-0.15237,-0.026836,0.073408,-0.28186,-0.25108,0.13111,0.12222,0.14127,0.46083,-0.42433,-0.059923,-0.068448,-0.27946,-0.0057264,0.16878,-0.15328,-0.2788,0.4463,-0.26189,-0.14828,-0.17114,0.010816,-0.05726,-0.13071,0.32152,-0.27684,0.18008,-0.29016,-0.26819,0.31953,-0.025783,-0.24399,-0.15584,-0.18189,-0.10966,0.16583,0.11052,0.11962,-0.075335,0.60031,0.057124,-0.16508,0.18465,0.23279,-0.1141,0.061963,0.036226,0.40326,-0.34491,0.17247,0.07198,0.26934,-0.27481,0.23693,-0.048579,0.19607,-0.052218,-0.13235,-0.90272,-0.25216,-0.156,-0.18077,-0.13971,-0.2134,-0.078883,0.12059,-0.10557,0.55132,0.24823,-0.11855,0.14428,0.028373,-0.023478,-0.11989,0.12305,0.13721,-0.31347,-0.064775,-0.31101,0.19347,0.062703,-0.17878,-0.35161,0.075326,0.15622,-0.064307,0.3765,0.23491,0.029437,-0.1156,0.022212,0.39648,-0.12754,0.014651,0.22094,0.16571,-0.32741,-0.51145,0.071002,0.34057,-0.1181,-0.23501,0.052973,-0.01264,0.15919,0.23021,-0.1684,0.0049916,-0.22285,0.17118,-0.064319,-0.34543,-0.019268,0.12645,0.4582,0.18005,0.56314,0.019291,0.12935,0.11824,-0.34669,-0.025119,-0.0096187,0.095507,-0.069798,0.089515,-0.19552,0.38932,-0.16224,0.12055,0.0092283,0.13385,-0.59428,-0.30337,0.06983,0.051239,-0.094692,-0.19652,-0.054792,-0.23942,-0.092584,-0.11664,-0.15565,-0.064431,-0.12921,0.47119,0.18372,-0.09619,0.24781,-0.17245,-0.12806,0.15102,-0.24637,-0.26683,-0.095468,0.15907,0.1139,-0.20884,-0.164,0.1883,-0.32614,-0.41257,-0.10098,-9.0181e-4,-0.17472,0.24481,-0.36436,-0.087009,0.043611,-0.47163,-0.42003,-0.13056,-0.17469,-0.095596,-0.34736,0.02645,-0.49133,0.28425,0.12746,0.02394,0.20638,-0.20857,-0.066103,0.18744,-0.53924,-0.1138,0.038648,0.0071328,-0.036476,-0.1844,0.41343,-0.13558,0.51367,0.072949,-0.14265,0.25557,0.11804,-0.061818,-0.1233,-0.081251,0.084023,-0.33164,0.065516,0.17819,-0.040397,-0.17088
light,-0.24597,0.014407,0.39069,0.29618,-0.010681,0.20788,-0.18473,-0.045366,0.25365,-0.063404,-0.15867,0.37818,-0.38285,0.18505,0.4144,0.061641,-0.32957,-0.21528,0.16761,0.17566,-0.21887,-0.13394,-0.28868,-0.20131,-0.14543,-0.18004,-0.16347,0.095459,4.127e-4,-0.17441,0.1068,0.35424,-0.28361,0.42371,0.20921,0.12008,-0.16158,-0.52346,0.083191,0.1538,0.004263,-0.0021566,-0.19685,-0.066828,-0.0079957,-0.069484,0.030874,-0.027425,-0.11556,0.39272,-0.034005,-0.061926,-0.14061,-0.22631,0.13433,0.14733,-0.19952,0.26939,0.14785,-0.17579,-3.6767e-4,-0.16046,-0.13456,-0.0041234,-0.18567,-0.16547,0.029042,-0.058785,0.080172,0.42072,-0.56744000000000006,0.092744,0.045264,-0.081859,0.088417,-0.45881,0.12421,0.40376,-0.13385,0.053172,0.0057109,0.30892,-0.28846,-0.056571,-0.21612,0.28807,0.069482,0.17528,0.21922,0.081717,0.024727,0.031819,0.20679,-0.058988,0.1512,-0.17557,-0.090395,-0.057402,-0.34647,-0.0080356,0.0033007,0.09986,-0.1788,-0.081322,-0.23419,0.057484,-0.39364,0.38356,-0.2436,0.23889,-0.14811,-0.052502,0.17049,-0.22273,-0.062192,0.13735,0.099471,-0.21317,-0.10792,0.12202,0.40342,0.16152,0.0046085,0.040095,-0.24929,0.013894,-0.14713,-0.018606,0.48936,0.02813,0.35965,0.11517,-0.4833,0.21276,0.16776,0.0087083,0.43798,0.022208,-0.025094,0.44261,-0.083083,0.34499,0.28003,-0.19512,-0.053359,-0.15709,-0.27778,0.31762,-0.19866,-0.11588,0.46685,-0.28255,-0.115,0.22436,-0.1938,-0.2096,0.097006,0.13024,0.32298,-0.1644,-0.021759,-0.033652,-0.15565,-0.014096,0.36889,0.066353,0.20389,-0.035758,-0.051091,0.16995,0.0016447,-0.022721,-0.19767,0.1085,0.14541,0.42665,0.021103,0.017936,0.37822,-0.44671,-0.18877,-0.023095,0.33228,0.43164,-0.024397,0.064678,0.29091,-0.06445,0.32522,-0.10208,-0.020888,-0.33621,0.35075,0.056203,-0.05153,-0.057368,0.62941,0.42882,-0.15243,-0.10706,0.084153,-0.30042,-0.098808000000000007,0.059386,0.1502,-0.67159,-0.17147,-0.08327,0.0062912,0.34399,0.25934,-0.01021,-0.021515,-0.15977,-0.3198,-0.46694,0.012472,-0.36332,-0.064033,0.11689,0.013625,-0.24403,-0.01845,-0.081659,-0.10787,-0.098993,-0.26663,-0.26239,0.21041,0.16524,0.030583,0.23483,0.10496,-0.28235,0.2697,0.19816,0.26041,0.051708,-0.44297,0.26949,0.072446,0.1311,0.17406,0.15162,-0.36053,0.11935,-0.22003,-0.0053714,-0.059786,-0.2674,-0.42671,0.086698,-0.18684,-0.09035,0.13528,0.24855,-0.2035,0.080825,0.088259,0.16276,0.075146,-0.053498,-0.067879,-0.21053,-0.13378,-0.55587,-0.01649,0.47381,-0.19072,-0.43823,-0.20319,-0.20689,-0.050604,0.12787,-0.12013,-0.51502,0.14828,0.38951,0.24348,0.23024,0.16739,0.23934,-0.34644,-0.1389,0.52687,-0.19347,-0.060049,0.16732,-0.48249,0.025725,0.03056,0.0095948,0.0025178,0.33181,0.1383,-0.10193,0.18,0.14729,0.23671,0.13166
big,-0.2314,0.13571,0.13531,0.25824,0.29848,-0.13418,0.31073,0.037205,0.085655,0.20119,0.072292,0.18932,0.066805,-0.0030104,0.057518,-0.025484,0.074611,0.31994,-0.34865,-0.052772,-0.12806,-0.03918,-0.11932,0.0060012,-0.15317,-0.029907,-0.46896,0.036502,-0.21694,-0.23554,0.089287,0.41403,-0.3922,-0.07513,0.29354,-0.030262,0.37723,0.035178,0.2241,-0.48227,-0.10688,0.081858,-0.022583,0.30691,0.061787,-0.019672,0.034031,-0.067204,0.022545,-0.18749,-0.19568,-0.1454,-0.05408,0.10841,-0.17927,0.29228,0.11774,0.30193,0.19436,-0.14741,0.22037,-0.092765,0.27252,0.31716,-0.27216,-0.24673,0.31766,0.24178,-0.06204,-0.10768,0.17735,0.056376,0.016435,-0.24618,0.074764,0.20285,-0.041939,0.069634,-0.28201,-0.1801,0.05821,0.01137,-0.44696,0.22934,0.05065,0.15227,-0.21096,0.19161,0.22267,-0.25275,-0.086356,0.21443,0.37849,-0.13378,-0.016154,0.090827,0.0070305,0.018177,-0.28684,0.20738,0.13095,0.082508,0.14822,0.4379,-0.45205,0.22812,-0.23521,0.35593,-0.012342,-0.31361,0.28133,-0.16375,0.03,0.21168,-0.004593,-0.18454,0.083471,-0.33559,-0.24087,-0.044155,0.33894,-0.33139,-0.17003,0.15878,0.27029,0.15647,0.14481,0.15597,-0.077836,0.04735,-0.12667,0.24227,0.14251,0.20472,-0.21842,-0.092964,-0.28766,-0.0090475,0.097534,-0.054085,0.038496,0.087083,0.19091,1.0182e-4,0.30422,0.218,-0.21731,7.4879e-5,0.14324,0.10888,0.15461,-0.2797,-0.03349,-0.083644,-0.13807,-0.068095,0.0019613,-0.24732,0.023551,0.07395,0.31462,-0.067874,-0.14909,0.21084,0.25317,-0.003225,-0.29929,0.11057,0.29197,9.8003e-5,0.0011719,-0.16608,-0.40619,-0.55635,-0.10353,0.021428,0.0047612,0.12692,0.18698,-0.2869,0.31109,-0.085552,-0.083114,0.16429,-0.13833,-0.0017504,-0.059454,-0.1186,0.015071,0.14802,-0.021533,-0.49066,0.16365,-0.030048,-0.23854,-0.018394,0.10623,-0.077374,-0.79191,-0.20202,0.42304,0.24666,0.21757,-0.086974,-0.25072,-0.019731,-0.34241,-0.27227,-0.064008,-0.24358,0.2535,-0.10129,-0.073567,-0.3065,-0.15113,-0.53301,-0.12019,-0.36907,-0.10488,0.20566,-0.29105,-0.11373,-0.41124,0.42229,0.23366,-0.14621,-0.12907,-0.30016,0.030548,0.095745,-0.0097842,0.081908,-0.15751,0.18252,-0.13805,-0.074987,-0.29878,0.16128,0.30035,0.25638,-0.23846,0.13086,0.085669,0.44357,0.13958,-0.053569,0.29437,0.047815,0.24795,0.10319,0.21857,0.042936,-0.23371,0.049747,-0.11043,-0.089242,-0.073786,0.055392,0.30627,0.079045,0.12329,0.21707,0.30414,-0.48554,-0.30165,-0.097502,-0.15396,-0.064809,-0.13752,-0.12058,-0.19079,0.29851,0.12915,0.090833,-0.019179,-0.13337,-0.017495,0.019122,-0.11419,-0.014133,0.13298,-0.045744,-0.11197,-0.15475,0.13828,0.36662,0.43099,0.42543,-0.28782,-0.029019,0.22898,-0.098065,0.41113,0.094122,-0.10278,0.18914,0.037976,-0.24534,0.014488,0.062297
body,0.25932,-0.10101,-0.17153,0.28572,-0.16664,-0.019197,-0.12041,-0.086787,0.0076738,0.20211,0.026143,0.035107,0.20656,0.12902,0.11273,-0.35027,-0.25002,-0.33772,-0.12974,0.3803,-0.26548,0.15633,-0.43652,-0.10273,0.17851,-0.16168,-0.20425,-0.1881,-0.036319,0.11131,0.23643,0.40235,0.12977,0.046937,-0.091894,0.24641,0.047856,0.026887,0.072074,0.052625,0.035937,-0.21131,-0.0039373,0.17671,-0.021467,0.04311,-0.040831,-0.10568,0.41144,-0.32017,-0.10047,-0.33648,-0.27993,-0.17741,-0.11184,-0.26478,0.10964,0.15115,0.33714,0.36541,-0.11957,-0.254,-0.11094,0.062831,-0.37494,-0.38693,-0.38341,0.010464,0.29524,0.012731,-0.22964,-0.15024,-0.15862,-0.12991,0.1507,-0.18361,0.27513,0.091951,-0.13907,-0.12057,-0.0097046,0.029305,-0.19746,-0.16512,0.0035832,0.051514,0.16787,0.19881,-0.30753,-0.058499,0.024533,0.11419,-0.25079,-0.26144,0.13449,-0.23408,0.19854,-0.16349,0.0040361,-0.22675,-0.41985,-0.43469,0.26465,-0.2048,0.31796,-0.07823,-0.34253,0.14564,0.025165,-0.05648,-0.10716,0.48577,-0.24616,-0.021658,0.70857,0.091133,-0.11581,0.075838,0.28596,-0.067609,0.22605,-0.15723,-0.13076,0.22257,0.30553,0.47891,0.026501,0.085679,-0.21311,0.13655,-0.12322,0.38294,-0.37787,-0.073167,0.45546,0.011638,-0.0063386,-0.22509,-0.14661,0.36674,-0.15028,0.12503,-0.01218,-0.53775,-0.043805,-0.059058,0.027084,-0.15488,0.004313,0.36183,0.1611,0.020694,0.24684,-0.1867,-0.17948,0.36663,-0.14767,-0.077224,0.30226,0.012564,-0.26361,0.13799,-0.17578,0.311,-1.2076e-4,-0.085056,0.045085,0.046833,0.26922,0.0089472,0.16515,-0.52245,-0.14667,0.13429,-0.098255,0.26428,0.11556,0.005552,-0.10154,-0.094308,0.046521,-0.28825,-0.14313,-0.06041,0.18221,0.23311,0.17853,0.12669,0.40184,-0.28426,0.0086011,0.22159,0.35523,0.1219,-0.37604,0.073268,0.090186,0.22985,-0.17786,-0.071923,0.1848,0.021636,-0.42092,-0.1422,-0.21623,-0.66946,-0.12315,-0.18363,0.58421,-0.19213,0.37844,0.31074,0.33413,-0.18398,0.2361,-0.062246,-0.09119,-0.44814,-0.026527,0.1994,-0.36059,-0.17966,0.1856,0.19908,-0.37358,0.068173,-0.31823,-0.27744,0.11695,-0.29427,0.44555,-0.12061,-0.047557,0.076674,-0.19776,0.61195,-0.26318,0.34414,-0.048708,-0.14832,-0.2031,-0.072445,0.19157,-0.02412,0.080354,0.28978,-0.24229,-0.24632,-0.32974,-0.13588,-0.074007,-0.076359,-0.074471,0.011323,-0.0897,0.090214,-0.04767,-0.19798,-0.25136,-0.32199,0.33175,-0.15758,0.0055248,-0.34482,-0.20027,-0.15698,-0.079063,0.18971,0.016638,-0.060948,-0.19528,-0.023885,-0.01391,0.042613,-0.29579,-6.271e-4,0.34936,-0.12891,-0.17134,-0.20225,0.41914,0.33375,0.048832,-0.26702,0.1388,-0.13435,-0.028465,-0.28563,-0.66528,0.27508,-0.0096863,0.063976,-0.16903,0.23571,0.087434,0.16728,-0.15002,0.13221,-0.21876,0.29892
gold,0.25166,-0.19858,-0.055456,0.11968,0.16737,0.45659,0.087572,-0.13409,0.051608,0.020717,0.5268,0.074633,0.30162,-0.12902,0.47721,-0.31151,-0.11624,-0.16902,-0.3237,-0.094326,-0.026571,-0.086648,-0.24905,0.35541,-0.22447,-0.13956,0.49795,0.22547,0.403,0.3821,-0.30766,0.63075,0.043942,-0.024984,-0.20672,-0.098946,-0.045442,0.097348,0.50334,-0.28583,0.075434,-0.2028,-0.044869,0.11025,0.15658,-0.24814,-0.17109,0.1037,0.03399,-0.2462,-0.024433,0.044706,-0.12966,0.5567,0.071859,-0.44444,0.28098,0.17904,0.010439,-0.24134,-0.054916,0.03352,0.023584,-0.57184,-0.028758,0.085518,-0.2472,-0.1185,-0.35097,0.11095,0.39147,-0.11401,0.21281,0.041102,0.30489,-0.40165,0.34766,-0.19199,-0.3299,-0.023146,0.029838,-0.081509,-0.13243,0.18139,-0.37166,-0.072694,-0.11774,0.057626,-0.10593,-0.18666,0.066555,-0.14816,0.063771,-0.24274,-0.06353,-0.036958,0.26765,0.084503,0.072884,-0.17329,-0.019409,-0.3117,-0.41308,0.38117,0.33394,0.14282,0.012546,0.63986,0.045518,0.11719,0.047242,-0.2127,-0.048644,0.35703,0.092849,-0.17297,0.31851,0.10156,0.06771,-0.096702,0.42212,0.33393,0.08847,0.12951,-0.14104,0.020084,0.53028,0.069762,0.63064,-0.18577,-0.037445,0.24676,-0.091795,0.0064399,0.12666,-0.075894,0.6237,-0.097285,-0.15713,0.3468,-0.052898,0.28445,-0.033561,-0.16062,-0.027489,0.56704,0.005291,0.1685,-0.11544,-0.28391,-0.0096416,0.024013,0.0014292,-0.0089628,3.5745e-4,-0.10481,0.056549,-0.18685,-0.23382,0.11193,-0.3655,0.38763,-0.40669,-0.40646,0.27635,0.18561,-0.036797,-0.1483,0.54867,0.057199,0.01835,-0.32631,-0.34433,-0.3673,0.38261,0.37289,0.078269,0.2485,0.39892,0.062491,-0.034416,-0.71362,0.21726,-0.22609,-0.30405,0.36556,-0.076566,0.4206,0.021239,-0.17841,0.045909,-0.12055,-0.16709,0.20198,-0.42502,0.14645,-0.074773,0.21499,0.14848,0.035456,0.23427,-0.19772,0.20893,0.032286,0.11607,-0.022519,-0.21022,-0.10027,0.60391,0.22933,0.47719,-0.11105,-0.1756,-0.17295,0.052786,-0.32504,0.29547,-0.0091914,0.081965,0.56651,-0.43095,-0.16126,0.097443,0.41139,-0.038942,-0.09028,-0.16802,0.1768,0.2501,-0.2953,-0.18102,0.32972,0.18814,-0.048957,0.28304,-0.51446,-0.1678,-0.15439,-0.24162,0.14043,0.052214000000000003,-0.31971,-0.25679,-0.21823,0.20216,0.044519,-0.046001,0.12912,0.1122,0.11066,0.2249,-0.11793,0.24172,-0.27553,0.16648,0.3152,0.062961,-0.1065,-0.0419,0.20126,-0.059655,0.33097,0.43932,-0.15686,-0.55212,0.1022,-0.053638,0.20264,-0.058649,0.049443,-0.65065,-0.072361,0.24046,0.084285,-0.22163,-0.11195,0.27369,0.39041,0.032326,-9.7217e-4,-0.014491,-0.40374,-0.174,-0.16365,0.16105,0.21717,0.43152,0.28215,-0.47164,-0.18701,0.33369,-0.267,0.15807,0.3048,-0.028648,-0.060987,-0.0051013,0.65884,0.38687,0.30086
course,-0.067,0.106,-0.13568,0.21231,-0.063797,0.089151,-0.13643,-0.01012,0.32556,0.29837,-0.19664,-0.0078373,-0.094898,-0.13003,0.15257,-0.33389,-0.082124,0.18652,0.15338,0.27842,0.076924,0.2033,0.014986,-0.20448,0.36607,-0.27451,-0.15507,0.20756,0.061893,0.18847,-0.23279,0.22822,-0.46868,0.022943,-0.11945,-0.050077000000000003,-0.12762,-0.18059,-0.28335,-0.27177,0.24112,0.32338,0.17263,0.021379,0.033281,-0.071456,-0.095884,0.017489,-0.042947,-0.35987,0.39208,-0.16289,-0.28456,-0.52413,-0.1289,0.18806,-0.021865,0.21668,-0.12941,0.39814,-0.037552,0.036252,0.23217,-0.21079,0.076141,-0.27341,-0.19662,0.0010248,-0.052385,-0.034689,0.044332,0.11126,0.036815,-0.043002,0.10864,-0.051824,0.25825,0.2372,-0.082469,-0.27564,0.16762,-0.0039275,0.19074,0.018544,-0.20445,0.05131,-0.39845,0.018602,0.096591,-0.11843,-0.065977,0.030046,0.39866,-0.38922,0.17317,0.18899,0.21733,0.16602,0.0020431,0.15363,0.3801,-0.11947,0.1267,0.066176,-0.24222,0.10343,-0.24709,0.056016,-0.1782,0.003629,0.098817,-0.032713,-0.10954,0.022332,0.034941,-0.23772,0.11106,0.22022,0.25251,0.17104,0.49166,0.14949,-0.12928,0.22935,0.36312,0.15893,0.30357,-0.0063868,0.34365,0.070669,0.15539,0.038781,0.25544,-0.17846,-0.3338,0.16461,-0.066076,0.23993,0.24821,0.045069,-0.058646,0.13761,-0.085433,0.096971,0.053782,0.13266,-0.099809,-0.16707,-0.13642,0.12318,0.30175,-0.25268,0.13773,-0.032181,0.014121,-0.028493,0.20961,0.30014,0.17126,0.21809,-0.21079,-0.015272,-0.33846,-0.099823,0.13568,-0.13473,-0.28304,0.084923,0.054243,0.044827,0.056656,-0.11266,-0.17014,0.1886,-0.043062,0.26273,0.045037,0.19427,0.012799,-0.31036,0.07607,-0.1094,0.058678,-0.10931,0.20165,0.21089,-0.056446,-0.025051,0.16305,0.098078,-0.22911,-0.014244,-0.21099,-0.00577,-0.31298,-0.26342,-0.11297,0.30801,-0.26863,-0.20038,-0.022257,-0.049914,-0.2201,0.040641,-0.10239,0.061818,0.24879,-0.066111,0.024302,0.0062999,0.16962,0.086789,0.0077687,0.11779,-0.11129,0.25375,-0.032473,-0.24964,-0.043366,0.091133,-0.17234,0.037904,-0.16011,0.22532,-0.098569,-0.040001,0.2264,-0.090923,0.16491,-0.059463,-0.061798,0.033039,0.12984,0.049502,-0.064914,0.055252,0.021597,0.066982,-0.30654,-0.15061,0.17217,-0.22002,0.256,0.11527,-0.2971,0.2803,0.12761,0.14968,0.016018,0.17068,0.019038,-0.11117,-0.50059,0.05734,0.27435,0.07826,0.021684,-0.26,0.038758,0.044248,-0.2136,0.11601,0.1286,-0.015564,0.25286,-0.1594,-0.088628,0.16956,0.13207,0.017485,-0.25958,-0.021028,0.17059,-0.1588,-0.053514,-0.008531,0.020311,0.16687,0.041402,0.099398,0.018764,0.19995,0.09685,-0.20221,-0.055999,-0.091906,-0.15075,0.1123,-0.18697,-0.1286,0.051815,-0.094408,-0.1201,-0.47803,-0.014104,-0.17177,0.032228,0.15310000000000001,0.064611,-0.025289
size,-0.24211,0.35949,0.28722,0.34656,0.27694,-0.063805,0.029272,-0.17278,0.1896,0.39564,0.13753,0.32985,-0.2202,0.30565,0.083279,-0.19557,-0.29829,0.31002,0.14295,-0.13226,0.14822,-0.061063,0.053038,0.046062,-0.41903,-0.082437,-0.059436,-0.028455,-0.046068,-0.040208,-0.090317,0.41999,-0.31269,0.15838,-0.43721,-0.29778,0.60576,0.35487,-0.55387,-0.17959,-0.14407,0.066703,0.050871,0.23055,0.13605,-0.017301,0.13978,-0.022578,0.39556,-0.01222,-0.35375,-0.44249,-0.30274,-0.17346,0.14006,0.58897,0.24325,9.0675e-4,0.04836,0.085723,0.049475,-0.038922,0.55037,-0.30425,-0.25231,-0.32221,0.15091,-0.14372,-0.028249,0.080814,-0.65042,-0.2889,-0.2596,-0.019565,0.025008,0.58811,-0.037257,0.37303,0.18508,-0.09786,-0.044198,0.27495000000000003,0.0095298,-0.086685,0.2482,0.099069,-0.0099295,0.28083,0.31184,-0.47345,-0.21093,0.59115,0.12919,-0.66569,0.26475,-0.29348,0.16954,-0.24716,-0.31367,-0.1096,-0.010136,-0.32469,0.13981,0.04741,0.43688,-0.049147,-0.050584,0.37268,-0.092033,0.082367,-0.042229,0.22622,-0.36634,0.20274,0.46395,-0.063561,-0.30607,0.22043,-0.082624,0.49929,0.17498,0.22357,-0.23022,0.23935,0.2347,0.12974,0.0099685,0.031125,0.37867,0.055925,-0.071838,0.075588,0.21824,0.043395,0.20327,0.0086825,-0.16705,-0.11137,-0.34016,0.44093,-0.0043528,0.028354,0.42542,0.44156,-0.2006,0.13304,0.25581,0.008155,-0.2037,0.43603,0.21539,-0.090326,-0.031647,0.15815,-0.19942,0.10803,-0.05137,0.2237,-0.029054,-0.0093708,-0.23387,0.36399,0.31502,0.36424,0.17963,-1.6851e-4,-0.28942,-0.19847,0.33493,-0.093496,-0.17847,-0.36651,-0.23207,-0.18041,0.23537,0.22429,-0.10573,0.015012,-0.047039,0.095923,0.13647,0.15284,-0.031792,-0.1802,0.11458,-0.18269,-0.36171,0.29154,0.33966,0.078941,-0.21745,-0.36565,0.16314,0.08392,-0.2111,0.16464,0.061526,0.22467,-0.13906,0.14455,-0.14815,0.17259,-0.14691,0.0061415,0.42868,-0.18513,-0.23052,0.063658,0.17102,-0.34566,0.12128,0.33698,0.37186,-0.06157,0.17976,-0.46856,0.33352,-0.35719,-0.2322,0.19463,0.10066,0.19418,0.014832,0.46974,0.25748,-0.29168,0.1479,-0.37852,0.19147,-0.040052,0.41713,-0.0056524,0.17657,0.056224,0.045626,0.099663,-0.1368,-0.67796,0.41207,0.046196,-0.42709,0.22632,0.2144,0.019572,-0.35332,0.27724,-0.19176,-0.30857,-0.62994000000000006,-0.010116,0.078159,-0.13333,-0.35424,-0.052055,-0.23066,0.074796,0.45129,-0.0039599,-0.063858,0.16447,0.16439,-0.15511,-0.095205,-0.083108,-0.65184,0.16577,-0.40631,0.033521,-0.050594,0.11366,-0.10199,0.38312,0.11751,-0.25036,-0.13137,-0.16622,0.19714,0.26021,0.18528,-0.14077,0.54282,0.035671,0.088125,-0.24479,0.12824,0.31636,8.8186e-4,0.45338,-0.56031,-0.11715,0.3956,0.16241,-0.19078,0.013529,0.021233,-0.34585,-0.15547,0.31951,0.18116,-0.15093
standard,0.082558,0.20861,0.033465,0.36673,-0.0062839,-0.080014,-0.22479,-0.23011,0.21776,-0.23356,0.23785,0.024816,-0.011782,0.12137,0.4012,-0.4699,0.012966,0.12983,0.26466,0.32799,0.096327,-0.14238,-0.044368,-0.045022,0.28167,0.013376,-0.21557,-0.023061,-0.01259,0.13983,-0.23266,0.16665,-0.03435,0.2909,-0.14589,0.17319,0.042376,-0.28192,0.016822,-0.11656999999999999,-0.062245,-0.012384,0.080928,0.0504,0.089357,0.021296,-0.32174,0.24201,-0.078943,-0.17738,-0.19102,-0.1773,-0.017137,0.083759,-0.054748,0.025709,0.1353,-0.10984,-0.011101,0.095986,0.26745,0.14597,0.061364,-0.50068,0.021341,-0.34371,-0.0093522,-0.084892,-0.11567,0.41447,-0.058293,-0.11149,-0.11671,-0.22277,-0.01028,0.16796,0.057206,0.14375,0.15236,0.074534,0.49901,0.15412,-0.38943,-0.15937,-0.20255,0.14159,0.15824,-0.055053,-0.1139,0.37349,0.089549,-0.030234,0.40711,-0.37447,-0.14074,-0.035671,-0.085857,0.15684,0.016662,0.048784,0.16355,-0.14615,0.13747,0.21433,-0.024084,-0.032632,0.1478,-0.1062,-0.12206,-0.094483,0.017552,0.11135,-0.52729,-0.0041899,0.12621,-0.19058,0.41773,-0.076344,-0.049658,-0.1746,0.046534,0.021994,-0.26268,0.42648,0.4303,-0.20146,0.38708,-0.060144,0.0056268,0.19384,0.66194,0.31876,-0.0063143,0.097174,0.44354,0.14728,0.053507,0.068169,0.3027,0.16158,0.018963,0.51381,0.11357,0.035414,0.07535,0.4433,0.20468,-0.022432,-0.22167,0.21002,-0.011235,-0.035263,0.047497,-0.021084,-0.093204,0.074007,0.26872,0.15596,-0.058887,0.10782,-0.24732,0.40893,-0.19293,0.099393,0.29474,-0.0015967,-0.031646,-0.23026,-0.045545,0.14687,-0.074103,-0.061684,-0.06136,0.0893,-0.12135,0.16731,0.10966,-0.099777,-0.070536,-0.17427,-0.13327,0.09661,0.32602,0.10721,0.077502,0.28354,-0.12743,0.026871,-0.23313999999999999,0.34792,-0.18642,-0.33068,-0.03732,0.10425,-0.10596,-0.34263,0.1552,0.05116,-0.13375,-0.46135,0.18322,-0.14794,0.10295,0.056052,0.13987,0.1131,-0.045234,-0.35478,0.49778,-0.22411,0.1991,0.28466,0.0013305,-0.039364,0.071716,-0.17043,-0.20657,-0.085458,-0.47939,0.072492,0.32649,0.040494,0.01874,0.017608,0.2873,0.1894,0.0090096,-0.052797,-0.22211,-0.1528,0.13653,0.18395,0.065538,-0.35032,-0.023615,0.16196,0.23334,-0.30516,-0.28127,0.099231,-0.039511,-0.030212,0.29223,-0.26125,0.025633,0.31645,0.090264,-0.1496,-0.080145,0.23385,-0.14998,0.082634,-0.18419,0.15146,-0.15918,0.27595,0.29191,-0.22551,0.19654,0.33459,0.24297,-0.16532,-0.20312,0.21837,-0.75133,-0.39119,0.0048575,-0.15988,-0.12243,0.021603,-0.31651,-0.023449,0.15904,-0.02569,-0.35669,-0.12034,0.36006,0.24793,0.19966,0.10282,-0.26587,-0.061205,-0.034675,-0.1757,0.27815,-0.42718,-0.051323,0.090855,-0.42725,0.040756,0.073852,0.070666,0.24608,0.27867,-0.1824,-0.60007,-0.50706,0.014917,0.23272,-0.12841
blue,-0.2883,0.079628,0.30243,0.22484,0.20882,0.066049,-0.0062499,0.24581,0.28714,0.29333,-0.064435,-0.082464,0.11365,0.019219,0.45458,-0.13182,-0.35714,-0.21366,-0.065841,0.38738,-0.27036,0.10991,-0.33516,0.091049,-0.20285,-0.040818,0.19723,0.17796,-0.31047,0.37503,-0.1111,0.19867,0.17353,0.31775,0.2855,0.20667,0.014539,-0.086601,0.11074,-0.15871,0.27125,-0.27316,0.037311,0.31645,0.18417,-0.17449,0.23858,-0.27161,-0.1957,0.25768,-0.10045,-0.3813,0.0076697,0.053007,0.29122,0.15532,0.0087897,0.10395,0.34414,0.24796,0.29537,0.48592,0.34677,-0.40648,-0.17688,0.046051,-0.04522,-0.1609,-0.31794,0.34872,-0.26105,0.11527,-0.16466,-0.13128,0.062972,-0.063522,0.20182,-0.10454,-0.030845,-0.1489,-0.10106,-0.11285,-0.42183,0.16302,-0.061562,-0.083713,-0.081621,0.092857,-0.091846,-0.33779,-0.13176,-0.033711,-0.12508,0.11903,0.089374,0.23382,0.028817,0.16473,-0.012714,0.27105,-0.0055281,-0.16747,-0.2388,0.35387,-0.32795,-0.31544,0.17631,0.25803,0.0345,-0.031299,0.23629,-0.37528,-0.07539,0.086166,-0.22267,0.0014569,0.36415,-0.27865,-0.15735,-0.21528,0.4294,-0.21059,0.07628,0.020623,0.27312,0.08343,-0.074569,0.22467,0.030605,0.10583,8.2576e-4,0.42409,0.084343,0.12564,-0.076624,0.16867,0.28231,-0.37941,-0.49457,0.2182,-0.083418,0.57173,0.20741,0.053998,-0.077816,0.24402,-0.2654,-0.030042,-0.46959,0.084006,0.18709,-0.45413,-0.33674,-0.18772,-0.00207,0.069685,0.12319,0.33797,0.17347,-0.039717,0.4188,0.051546,-0.48884,-0.21623,0.23938,0.28287,0.049389,-0.11418,0.4432,0.13258,-0.042389,-0.3614,-0.22936,-0.25815,0.054678,0.11886,0.40558,-0.27054,0.036649,-0.065719,-0.19288,-0.2085,-0.24389,-0.17538,0.21411,-0.0016637,0.30763,0.24885,0.15102,-0.053167,0.1381,-0.34705,0.52474,0.18966,-0.13914,-0.27085,0.14774,0.29781,-0.60254,-0.21303,0.25049,0.12093,-0.17307,0.35032,0.50889,-0.055021,-0.070635,-0.062552,0.15919,0.066438,0.062732,-0.0063476,-0.13577,-0.19351,0.17301,-0.20055,0.010786,-0.083802,-0.098356,-0.2039,-0.29888,0.067121,-0.0092883,0.27226,-0.13474,-0.32713,-0.40193,-0.13589,0.061931,-0.030891,0.21996,0.24613,-0.012704,-0.28478,0.084047,-0.20186,0.26755,0.22305,-0.18167,0.21229,-0.012095,-0.0301,-0.21933,0.0072767,-0.2173,0.095645,0.26997,-0.10002,0.113,-0.27073,0.25479,0.10783,0.12082,0.0079136,0.29662,0.060289,-0.028686,-0.03945,0.052182,0.085889,0.15125,0.14992,0.064254,-0.23086,-0.2123,-0.41582,-0.025412,0.71794,-0.15356,-0.23402,-0.44613,0.077989,0.16595,0.18692,-0.1154,0.10101,0.31257,0.099774,-0.36709,0.10862,0.04213,0.044438,0.058522,0.2434,0.54887,-0.090048,0.34932,0.35273,-0.72134,-0.026885,0.13321,-0.42384,-0.050063,0.19843,-0.012735,-0.071897,0.19402,0.096129,0.22765,0.087603
strong,-0.33694,-0.045637,-0.093706,0.5804,-0.1206,0.023686,0.087435,0.16119,-0.125,0.2296,0.044908000000000003,0.16344,-0.14673,0.097621,0.34856,-0.11872,0.09897,-0.065502,0.3079,0.27726,0.27494,-0.078838,-0.033114,-0.088898,-0.23211,-0.025215,0.085625,0.20288,-0.018021,0.025554,-0.14693,0.27898,-0.010151,-0.088272,-0.024664,-0.010481,-0.25484,-0.13601,0.094403,-0.27287,0.32758,0.36933,0.2229,0.27539,0.10837,0.20313,-0.02421,0.15444,-0.13636,-0.30506,-0.23775,-0.058113,0.088169,-0.015851,-0.19628,0.097957,-0.048579,0.079778,0.058119,-0.12597,-0.054472,-0.081285,0.14865,-0.15044,-0.22679,-0.41969,-0.2091,0.11925,0.15226,0.012323,-0.04701,0.10221,0.20303,-0.34063,-0.16656,-0.13084,0.22613,0.16645,0.083869,0.21385,0.18423,-0.12664,0.18074,-0.05562,-0.040056,0.1883,0.003427,0.17845,-0.1254,-0.022795,-0.071507,-0.16889,0.15379,-0.3882,0.19848,-0.1277,0.1254,0.044809,0.044818,-0.14951,0.24509,0.013608,0.41738,-0.34,-0.088179,-0.15284,-0.030607,0.15013,0.26482,-0.30307,-0.14576,0.11061,0.04736,0.10831,0.33847,0.38634,0.081338,-0.013423,0.032503,-0.12124,-0.073728,-0.20988,0.1158,0.37935,-0.060739,0.018443,-0.24259,-0.092663,-0.095127,0.19058,-0.30519,0.016454,-0.21379,0.053692,-0.14015,-0.28636,-0.18544,-0.3121,0.19387,0.2116,-0.080577,-0.019588,0.28293,0.098765,0.20981,0.085255,-0.0042016,-0.070599,-0.22226,0.084887,-0.28342,-0.35034,-0.12589,-0.017525,-0.028181,-0.17757,-0.16902,-0.11679,0.25533,0.064035,-0.23464,-0.086572,-0.17663,-0.079101,0.15819,0.30135,0.0069932,-0.011384,0.41017,-0.22131,0.19263,0.087607,-0.062889,-0.0061106,0.026857,-0.11115,0.029107,0.28169,-0.0094374,-0.31275,0.29968,-0.074094,0.44129,0.24891,0.10046,0.25534,-0.12932,0.047311,0.18063,0.20696,-0.18845,-0.22485,0.21494,0.26773,0.051206,0.045716,0.13239,0.19601,-0.20003,0.27469,0.26052,-0.19246,-0.044619,0.17305,-0.14728,-0.4514,-0.22127,0.058655,0.089613,0.23235,0.37866,-0.096711,-0.18605,-0.29831,-0.18314,-0.20981,-0.13953,-0.47905,-0.13501,-0.15447,-0.218,0.011202,-0.34855,0.052691,-0.28439,0.19559000000000001,-0.21876,-0.016591,-0.17568,-0.11229,0.064028,-0.012926,0.058716,-0.41409,-0.10162,0.21197,0.55846,0.10611,0.23833,0.17501,0.12427,0.1152,0.095076,0.30442,0.081282,-0.054257,-0.010794,0.054305,-0.057015,-0.13683,0.026798,-0.11831,-0.095595,0.007883,-0.36876,-0.016599,-0.094633,-9.8821e-5,0.1277,-0.054245,-0.23974,0.32242,0.21849,-0.4148,-0.32189,-0.12331,0.076239,-0.018498,-0.27091,-0.0097262,-0.38521,-0.29212,0.31985,0.06962,0.13217,0.0023071,-0.22114,0.15112,-0.19051,0.043258,0.30776,-0.15146,0.12333,-0.14211,-0.051509,-0.088147,0.0068449,0.11572,-0.19328,-0.19768,0.37042,-0.18248,0.10483,0.18295,-0.35054,-0.22621,0.14369,-0.0013608,0.23168,-0.15721
features,0.12513,0.085767,-0.16813,0.19377,-0.21354,0.14781,-0.14618,-0.035695,0.051717,0.035868,0.239,0.38489,0.16106,-0.051288,-0.034272,0.069239,0.13696,0.045261,-0.16987,-0.012103,0.12807,0.20225,-0.11356,-0.088801,0.19614,-0.040051,-0.015203,0.044049,0.2082,-0.17775,0.14792,0.28283,-0.046756,-0.021459,0.030153,0.12227,-0.056272,0.359,-0.033026,-0.21524,-0.011859,-0.11524,0.20902,0.34453,-0.19246,0.097228,-0.26173,-0.13232,0.29541,-0.061732,0.23833,0.30385,0.10876,0.11413,0.10774,0.32716,0.0065036,-0.14594,-0.40123,0.52313,0.1181,0.094714,-0.011827,0.010899,0.090305,-0.030068,-0.16359,0.39783,0.18708,0.027722,-0.059854,0.088862,0.10521,-0.10937,-0.10623,0.11275,-0.20175,-0.19399,0.26105,-0.21971,0.18266,-0.14121,-0.093709,0.19108,-0.052616,-0.20648,0.28623,-0.074055,-0.004853,0.29949,0.18535,0.30461,0.49243,-0.20613,0.29639,-0.043298,0.18578,0.068548,0.024427,0.073845,-0.01056,-0.23858,0.17527,0.11185,-0.23352,0.011888,-0.21033,0.38282,-0.029314,0.067867,0.11266,0.14977,-0.33367,-0.21581,-0.052187,-0.067877,0.11579,0.20834,-0.0026074,0.43061,0.20797,-0.21198,-0.097458,0.29688,0.079627,0.25751,0.26653,0.46277,0.27291,0.47711,0.12599,0.15958,-0.12031,-0.19875,0.11488,-0.25441,-0.071647,0.20958,-0.023338,-0.043758,-0.0030977,0.19178,0.1194,0.20544,-0.10771,0.38363,-0.030756,-0.055974,-0.07141,-0.060525,0.037753,-0.13555,-0.1149,-0.10981,0.063852,-0.078639,0.062818,-0.025127,0.05584,-0.18097,0.20684,-0.060913,-0.14679,0.057762,0.38777,-0.12537,-0.30477,-0.35492,0.2942,-0.25856,0.037266,-0.035681,-0.21686,0.1903,-0.044942,0.1224,0.19647,-0.1863,0.061167,-0.037549,-0.011282,0.021057,0.34455,0.13039,-0.0034574,0.40361,0.07266,-0.26692,-0.070159,0.075978,-0.055008,-0.27229,0.53602,0.051874,0.091646,-0.094339,-0.026908,0.11468,-0.020601,-0.06035,0.074611,0.049675,0.10905,0.0097717,0.32212,-0.13384,0.054271,0.011927,0.29674,-0.12407,0.58121,0.055357,0.16867,-0.34332,0.13171,-0.13377,-0.03459,-0.4399,-0.20203,-0.1997,-0.024302,-0.10364,-0.042858,0.32564,0.11548,-0.32728,-0.31171,-0.21171,-0.028238,0.10999,-0.11505,0.094582,-0.18181,0.088712,-0.39601,0.11531,-0.049207,0.038939,-0.30273,-0.024519,-0.14457,0.054734,-0.10474,-0.23765,0.11204,-0.050463,-0.18053,-0.19637,-0.050241,0.0043642,0.15502,0.22405,0.041875,-0.18432,-0.10325,-0.023811,-0.10135,0.026802,0.0491,0.052955,0.2296,0.053688,0.18533,0.21844,-0.21484,-0.075769,-0.36192,-0.083449,-0.13155,0.082435,-0.31554,0.22479,0.22956,-0.04172,-0.1723,-0.23212,0.16114,0.55795,-0.016156,0.050689,0.24415,-0.027308,0.27749,0.043528,0.10882,0.14609,-0.13188,0.40859,-0.35769,0.0064007,-0.22428,-0.19464,7.5568e-4,0.13973,0.14556,-0.42909,0.10081,0.11634,0.28714,-0.13108
brown,-0.15571,-0.24861,-0.10368,-0.065375,0.25209,-0.17167,0.29768,0.17686,0.36463,0.29296,0.3438,-0.042426,-0.15532,0.099752,0.31676,-0.20059,-0.3902,0.032709,-0.17701,0.43122,-0.20604,-0.1166,-0.050333,0.22152,-0.23278,-0.2945,0.14823,-0.011495,0.066412,0.19499,0.13964,-0.15418,-0.057035,0.15449,0.21561,-0.19211,-0.076851,-0.32675,0.35001,-0.10265,-0.14081,-0.060161,-0.13316,0.2052,0.032099,-0.25222,0.11207,0.029422,-5.7476e-4,0.13769,0.06031,-0.29964,0.29521,0.14434,0.1334,0.16946,-0.082566,0.054728,0.23719,0.20626,0.12106,-0.24204,0.19051,-0.16573,-0.15483,0.059299,-0.26912,-0.051531,-0.34958,0.07051,-0.33471,-0.25205,0.005768,-0.40723,0.28633,-0.30843,0.37573,-7.7461e-4,0.27957,-0.027217,0.10529,0.010733,-0.21117,0.0088651,-0.16308,-0.28588,-0.061924,0.075922,0.27959,0.39513,-0.053161,-0.34773,-0.1969,0.08573,0.12399,-0.10853,0.43386,-0.14077,-0.19643,-0.1718,-0.098312,0.15034,0.11174,0.23463,-0.44307,0.11292,-0.23932,0.10086,-0.033803,-0.47654,-0.17112,0.26472,-0.12763,-0.20203,-0.15977,0.25645,0.021813,-0.19142,-0.14395,0.18002,0.20786,-0.30941,0.082829,0.045391,-0.081844,0.34143,-0.40914,-0.14593,0.25068,-0.17195,-0.018961,0.075026,-0.14702,0.23889,0.12917,-0.0171,0.099562,-0.41721,-0.25804,-0.058265,-0.13174,0.22815,0.15633,-0.02749,-0.20669,0.27493,-0.072827,-0.1487,-0.41103,0.1424,0.23127,-0.005834,-0.39937,0.052296,-0.12286,0.014372,0.020632,0.040017,0.6408,0.19723,0.2313,0.20345,-0.55627,0.0484,0.11904000000000001,0.24581,0.081734,-0.067793,0.58647,-0.15104,-0.24146,-0.21476,-0.28596,0.0074349,0.21798,0.12812,-0.19074,-0.18483,0.17285,-0.31074,-0.03254,-0.41981,0.032189,0.047823,0.037373,0.1043,0.12395,-0.13971,0.36541,-0.14128,0.017729,-0.073178000000000007,0.16739,-0.17759,0.033092,-0.041786,0.45259,0.29569,-0.22389,-0.014367,0.41215,0.3834,0.081382,-0.20801,0.20668,-0.56241,-0.10344,0.012701,0.24824,-0.038514,0.16056,-0.11618,0.29827,-0.33871,-0.12439,-0.11136,-0.24768,-0.22353,0.0066171,0.0099807,-0.44806,-0.2345,-0.24918,0.21701,0.093278,-0.24155,-0.34323,-0.17102,0.032337,0.054071,0.32474,0.23477,-0.27553,0.015148,0.22897,-0.050833,0.015923,-0.030123,-0.39245,-0.23485,-0.28132,0.12412,0.30801,0.058641,0.065707,0.042319,-0.49445,-0.17636,-0.25639,-0.0022847,0.17966,-0.17108,-0.30908,-0.023098,0.13359,0.039723,0.1817,-0.18001,0.11516,-0.010705,0.37017,0.83005,0.082775,-0.28463,-0.021603,-0.22459,0.21866,0.686,0.023232,-0.28971,-0.18726,0.016588,0.23734,0.13391,-0.33128,-0.11789,0.12787,-0.17273,0.077901,0.30418,0.4076,0.068126,0.012959,0.46558,-0.0062527,0.11026,-0.04942,0.29383,-0.72039,-0.21165,0.15233,-0.25788,-0.12723,-0.12773,0.22476,-0.26973,-0.05976,0.20386,-0.44497,-0.16645
hand,-0.016532,0.17107,-0.26112,0.31318,-0.030094,0.046409,-0.15992,-0.26362,0.38553,-0.013824,-0.067134,0.0051643,-0.013413,0.26622,-0.015194,-0.31973,0.18382,-0.02347,0.20555,0.30974,-0.054257,0.043007,-0.18234,-0.34644,-0.062145,-0.16183,0.023165,-0.090744,-0.1432,0.058258,0.18752,0.20074,-0.14583,0.05349,-0.22329,-0.065837,-0.15165,-0.20269,0.11108,0.12483,0.33054,0.27327,0.011537,-0.33106,-0.03238,0.16403,-0.10573,-0.0050296,0.18796,0.062767,-0.22182,0.086775,0.014403,0.02389,-0.2108,-0.0042702,-0.20562,0.036366,-0.21748,0.15159,-0.23266,-0.072923,-0.0047179,0.15845,-0.035962,0.28446,-0.10937,0.064597,0.087921,-0.096537,0.072577,0.1149,0.14103,-0.26447,-0.088606,-0.01046,0.21958,0.11051,-0.31397,0.14502,0.048088,-0.12942,-0.22852,-0.098245,-0.13045,0.11895,-0.13808,0.012062,0.09726,0.041281,0.22654,-0.080898,0.088052,-0.27767,0.093153,0.008429,-0.088286,0.009211,-0.18945,0.10616,0.021447,-0.12772,0.14098,-0.039672,0.1994,-0.10078,-0.3036,-0.02691,0.054076,-0.013204,0.061756,-0.12976,0.2317,0.094024,0.40207,-0.1462,0.16191,-0.105,0.1837,-0.030166,0.064316,0.22986,-0.083849,0.23399,-0.079238,0.27007,0.21142,0.23357,-0.14258,0.11521,0.15392,0.1047,-0.094709,0.1386,-0.14462,0.062051,-0.0044305,-0.12854,0.13822,-0.031655,-0.16951,-0.13677,0.13136,-0.27627,-0.1914,0.3059,0.017079,-0.26803,-0.31864,0.030445,0.36518,0.018409,-0.10121,-0.046727,-0.012619,0.03288,0.015477,-0.12748,0.044692,-0.040222,-0.031499,0.15057,0.087017,0.013379,0.22745,0.31456,0.10697,-0.34113,0.31509,-0.041167,-0.19168,-0.2439,-0.32715,-0.10505,-0.057614,0.22935,0.17688,0.18418,0.31733,-0.079088,0.032775,-0.20194,-0.052135,0.13065,0.19201,0.1734,-0.04504,-0.10405,0.31385,-0.089062,0.090679,-0.13201,0.10344,0.12913,-0.20056,-0.22014,-0.051094,0.10944,-0.30063,-0.054659,-0.0038813,0.043466,-0.0010636,-0.18851,0.06139,-0.2651,-0.13951,-0.067348,0.16481,-0.35108,0.33661,0.081198,-0.11354,-0.34761,0.39734,0.28147,-0.030592,-0.41293,-0.23565,0.29746,-0.20452,-0.056399,-0.022485,0.074853,-0.28391,0.22833,-0.1343,-0.023902,0.18629,0.01221,0.078796,-0.17959,0.22874,0.10658,-0.11569,0.19017,0.089497,-0.16119,0.15488,0.076524,0.09044,0.10952,0.13582,0.24983,-0.20861,0.20769,0.1985,-0.10464,-0.017264,0.31611,-0.189,-0.10696,0.0014526,-0.13256,-0.074418,0.21595,-0.16058,0.10704,-0.023452,0.014238,0.070366,0.25888,-0.076633,-0.019612,-0.060788,-0.2178,-0.37373,0.1071,0.29582,0.074902,-0.21083,-0.064668,0.089532,0.2278,-0.08369,-0.12969,0.068052,0.41461,-0.11221,-0.18959,0.35602,-0.087693,0.024068,0.022313,0.21792,-0.32112,0.16061,0.37667,-0.20788,-0.16479,0.075151,-0.0041485,0.10918,0.099523,0.072038,-0.070936,-0.075382,0.043562,0.228,0.33048
ground,-0.47824,0.11417,-0.20524,0.38444,0.086589,-0.026528,-0.1117,-0.39039,-0.084582,0.38345,-0.092879,0.031778,0.19778,0.020017,0.29329,-0.025886,-0.37617,-0.3131,0.41815,0.21872,-0.063002,-0.23176,-0.63302,0.11824,-0.17221,-0.010209,0.25723,0.22954,-0.38653,0.33876,0.17365,0.02341,-0.098918,0.075397,0.12876,-0.15045,0.33274,-0.15362,0.47108,-0.053678,0.19166,0.49239,0.017469,0.012736,-0.022821,0.19455,0.2641,0.052994,0.29532,0.021468,-0.16987,0.20608,0.1367,0.061577,-0.34056,0.38614,-0.21982,0.11825,-0.2451,0.63845,-0.066138,-0.59877,0.095763,-0.068937,-0.18797,-0.31862,-0.04281,0.29997,0.11856,0.27404,-0.32844,-0.174,0.10149,-0.071495,0.13319,-0.015998,-0.09549,-0.047014,-0.037199,-0.23131,-0.19988,0.10915,-0.29875,-0.42925,-0.07532,0.17933,-0.049415,-0.14526,0.0488,0.052309,-0.11236,-0.37638,0.1188,-0.13206,0.36913,0.58462,0.02481,-0.062012,-0.031808,-0.31389,-0.025644,-0.40534,0.45157,-0.42348,0.094008,0.15675,-0.39583,0.2274,0.10262,-0.24578,-0.011858,0.13216,-0.15037,-0.21745,-0.090709,-0.2357,-0.033864,0.1198,0.039619,0.088339,0.5702,-0.092731,-0.088793,0.068774,0.15556,0.37053,0.11612,0.021101,-0.079132,0.1169,-0.038748,0.11176,-0.29119,0.18269,0.16002,-0.027104,-0.068144,0.17519,0.20937,-0.060719,0.09886,0.31393,0.064525,0.049596,-0.3642,0.017409,-0.26663,0.14729,-0.123,0.35906,0.072359,0.11578,-0.26222,-0.022835,0.40972,-0.091268,0.0080626,-0.14342,0.38842,-0.079562,0.12587,0.12339,-0.34884,0.0052562,0.39912,2.945e-4,-0.034498,0.16492,0.28273,-0.17075,-0.10317,-0.2448,0.083714,-0.025902,0.086078,0.44885,-0.44877,-0.27554,0.13072,-0.17371,-0.21891,-0.0054658,0.17927,-0.096205,0.14147,-0.20873,0.11001,0.29318,0.36051,-0.20601,0.051092,-0.15818,0.066818,0.27756,-0.24,-0.0011404,0.084348,0.16039,0.067311,-0.020128,-0.16608,0.18115,-0.22128,0.21631,-0.077882,-0.39397,-0.13397,0.21145,0.19441,-0.082813,0.18321,0.17114,-0.17649,-0.17609,0.097722,0.24055,-0.10583,-0.57031,-0.3721,0.030791,0.09364,0.17955,-0.22089,-0.31151,0.20429,-0.027697,-0.36345,-0.14521,-0.28084,0.1636,0.16292,0.060283,-0.087355,-0.054784,0.23339,-0.3117,-0.32918,0.31084,-0.18294,-0.18443,-0.30943,0.11354,-0.37632,0.0056333,-0.093363,-4.2509e-4,-0.084052,0.18812,-0.14967,0.14612,-6.7896e-4,-0.29276,0.032,-0.1887,-0.20164,0.41042,-0.16595,-0.080763,-0.28234,-0.036081,-0.10687,0.27894,-0.29584,-0.24864,-0.085276,-0.10145,-0.38541,0.1525,0.39419,0.021978,-0.26955,-0.10637,-0.17347,-0.23173,-0.42339,-0.17641,-0.18841,0.41983,0.28498,0.12134,-0.093538,0.17848,-0.10917,-0.067337,0.070131,-0.45147,0.058234,0.11312,-0.30187,0.10684,-0.050448,-0.17126,-0.10802,0.06231,-0.10692,0.053556,-0.26646,0.24992,0.010662,0.20604
square,-0.29353,0.051414,0.141,0.15558,-0.11754,0.16262,-0.09731,-0.0014352,0.35293,0.058302,0.07168,-0.18276,-0.19719,0.14202,-0.086703,-0.021144,-0.48775,-0.30620000000000003,0.39367,-0.0059704,-0.22718,0.2429,0.25182,-0.082564,-0.2246,-0.15183,0.55074,-0.10927,0.098741,0.26846,-0.0055965,0.36639,-0.0067733,0.092674,0.0052309,0.031386,0.012991,-0.20365,0.14547,-0.11605,0.085933,-0.076904,0.031712,-0.083833,0.47253,0.15932,-0.11077,-0.28011,0.089969,-0.21909,-0.10904,-0.027286,-0.26145,0.049829,0.32313,0.45793,0.01733,0.053674,-0.24026,0.11133,-0.0031763,-0.46521,0.33107,-0.1579,0.1554,0.12194,-0.17158,-0.087407,0.14917,-0.17636,-0.087463,-0.088515,-0.0093631,-0.29882,-0.02212,-0.33993,-0.062617,-0.1931,0.045611,-0.088285,0.22682,0.0063777,-0.17066,-0.33096,0.021478,0.42757,0.14863,0.2697,0.025431,-0.085911,0.43301,-0.13172,0.10114,-0.25252,-0.030624,-0.26982,0.54503,0.10896,-0.31958,0.023322,-0.26149,-0.13938999999999999,0.4785,0.169,-0.34852,0.058749,-0.12243,0.21542,0.48154,0.18081,0.035312,0.14346,0.16299,-0.57478,-0.35211,-0.2153,0.28779,0.063054,0.2071,0.68202,0.29857,0.20328,0.1789,0.25756,0.12922,0.20969,0.60256,0.44002,-0.16382,0.070057,0.087221,0.24955,0.30845,-0.18961,0.13073,0.068333,0.31106,-0.15709,-0.22566,0.48552,0.26748,0.018165,0.13256,0.30107,0.045058,-0.010671,0.30979,0.096743,-0.2384,0.26189,-0.058168,0.41125,-0.36874,0.3864,0.031265,-0.58666,0.16802,0.3936,0.15402,-0.31612,0.34013,0.14827,-0.38418,0.22971,0.038761,-0.23047,-0.40162,-0.10893,0.10698,0.034228,-0.14164,0.079978,-0.3117,0.19224,-0.17334,0.25875,-0.6003,-0.37962,-0.19695,0.19502,0.25568,-0.41653,-0.12922,-0.26445,0.029366,0.026485,-0.37436,-0.41834,0.061444,-0.21005,0.38603,-0.4349,0.38157,0.22551,-0.32692,0.078805,0.53382,0.54137,-0.36207,-0.21936,-0.03263,0.03464,0.20728,-0.16447,0.2052,-0.38694,-0.16005,0.4001,0.45365,-0.42005,0.52303,-0.11897,0.46515,-0.050665,-0.34808,-0.29594,0.074392,-0.39368,-0.083552,-0.2774,0.093344,0.35947,-0.38438,0.59147,-0.0077161,0.32851,0.23411,-0.031496,-0.25895,-0.26322,0.17412,-0.37312,-0.01321,-0.28026,0.32716,-0.49373,0.12697,0.18092,-0.046319,0.086718,-0.31392,-0.31553,0.081303,0.084428,0.040257,-0.037132,0.39252,-0.18069,-0.23114,-0.095793,0.45967,0.021361,-0.41883,-0.042715,0.079139,0.23207,0.65024,0.054969,0.16481,-0.15019,0.11708,-0.20397,0.17658,-0.10808,-0.053222,-0.061181,0.19936,-0.2294,0.041109,0.48071,0.06617,-0.23573,-0.26769,-0.015903,-0.41916,-0.48368,0.81104,0.53508,0.26668,0.11949,0.042854,0.028648,-0.31997,0.61573,-0.065884,-0.022571,0.34921,0.13442,0.1776,0.30052,0.11254,-0.064999,-0.14,-0.056402,-0.49236,-0.025026,-0.52547,0.18187999999999999,-0.10647,0.5017
wide,-0.46255,0.063432,0.079261,0.19232,0.015012,-0.13604,0.2464,0.13547,0.36027,0.14532,0.083798,0.58826,-0.079026,-0.042494,0.60824,-0.32993,-0.37574,-0.27038,0.04992,-0.14701,-0.18327,-0.22877,0.15883,0.10863,0.12836,0.12349,-0.14098,-0.16461,0.38256,0.19617,0.041444,0.42396,-0.079516,0.27379,0.40005,0.20084,0.10557,0.058039,-0.024461,-0.03992,-0.022219,-0.28514,0.11321,0.34223,0.023667,0.45727,0.13123,0.005983,0.15896,-0.33931,-0.50183,0.10656,0.33798,-0.16245,0.074173,0.14611,-0.23971,-0.080083,0.093017,0.22832,-0.09705,0.049024,0.47667,-0.1295,-0.10977,-0.24793,-0.22334,-0.16102,-0.13028,0.028865,-0.34811,-0.10988,-0.37349,-0.18839,0.013392,-0.051462,0.44604,0.14919,0.078824,-0.020006,-0.0054205,-0.19372,-0.25194,-0.1042,-0.026608,-0.067106,0.010677,0.026298,0.021988,0.2806,0.051938,0.14751,0.42741,-0.45976,0.21454,-0.25832,0.60307,0.049838,-0.025779,-0.035182,-0.38351,-0.082946,0.63762,0.13532,-0.14117,0.23112,-0.050647,0.10892,0.039445,0.16212,-0.31055,0.10856,0.049393,-0.026457,-0.083452,-0.14592,-0.086197,0.16517,0.34409,0.20711,0.2264,-0.21369,-0.23185,0.051406,0.033921,0.094427,0.36801,0.027468,0.19945,0.054903,0.058873,0.19773,-0.27338,-0.047846,-0.22429,-0.14175,-0.35804,-0.15787,0.036777,0.23469,-0.28127,0.18436,0.34814,-0.010939,-0.030387,0.39389,-0.005074,-0.018308,-0.25212,0.30327,0.033205,-0.39864,-0.24563,0.16868,0.04937,-0.03535,0.11814,-0.081574,0.19724,0.2186,-0.24841,-0.15205,-0.017916,-0.020012,0.11571,-0.058748,0.17453,-0.17995,-0.065348,-0.078731,-0.25561,-0.3752,-0.10899,0.15388,-0.25096,0.21888,-0.056273,-0.028605,-0.15242,-0.16671,0.032886,0.03098,-0.28975,-0.17249,0.16609,0.1448,-0.20542,-0.28251,0.25694,0.057016,-0.03667,-0.12664,0.7537,0.11783,0.18679,-0.070975,0.19374,0.27941,-0.16511,0.02717,0.18758,0.0016459,-0.19284,0.10237,-0.2679,-0.33621,-0.0048884,0.064543,0.25645,-0.093492,0.56867,-0.083792,0.066104,-0.017458,-0.30772,-0.051573,0.028263,-0.20853,0.030354,0.20464,0.041559,0.030943,-0.21023,0.38936,-0.079778,-0.27516,0.11844,-0.23652,-0.15041,-0.10134,-0.23979,0.047813,0.010492,-0.04462,0.038406,-0.048316,-0.023801,-0.41116,0.1511,0.079601,-0.052786,-0.059508,0.20047,0.14329,-0.12562,-0.010702,0.053965,-0.22512,-0.23167,-0.020448,0.22898,-0.19805,-0.11465,-0.40144,0.082484,-0.056123,-0.32286,-0.014451,0.25477,0.45031,-0.076094,0.18766,-0.10277,-0.013888,-0.44247,0.010784,-0.30953,0.13779,-0.32612,-0.050325,-0.10297,0.049697,0.11865,0.13277,-0.35156,0.067429,0.15382,0.52589,-0.28429,-0.11832,0.10748,0.022524,-0.23821,-0.023796,0.0073279,-0.20873,-0.10638,0.22666,-0.10782,0.45727,-0.041565,-0.0016682000000000001,0.36007,-0.16232,0.27798,-0.53133,0.069312,-0.18455,0.0035454,0.10394
fine,-0.014445,-0.24259,0.22187,-0.20934,0.23893,0.38143,0.17508,-0.19924,0.03693,0.44657,0.15683,0.082056,0.022636,-0.015312,0.35865,-0.4664,-0.39667,0.16451,-0.024149,-0.017314,0.17846,0.046518,-0.2573,-0.050958,0.1674,-0.10975,0.0070329,0.29833,0.2048,-0.099982,-0.20865,0.34449,0.29465,0.31786,-0.10983,-0.11944,0.032584,-0.6641,-0.035334,-0.090413,0.23041,0.18308,-0.21023,-0.06971,-0.047384,-0.0090934,-0.1566,0.03334,-0.2526,-0.18925,-0.088458,-0.27624,-0.31944,-0.11594,0.12432,-0.24622,-0.22787,-0.097205,-0.48289,-0.22566,0.13825,-0.024657,-0.0015108,-0.24611,-0.14591,-0.29977,0.010347,0.11314,0.2032,0.069422,-0.43753,0.085265,0.021933,0.20812,-0.15265,0.046105,0.29104,-0.15098,0.38892,-0.0072085,-0.017763,0.036639,0.26511,0.44258,-0.10731,0.26284,-0.13198,-0.13269,-0.37987,-0.075634,0.22267,-0.0051549,0.11469,-0.39335,0.14427,0.11047,0.13503,-0.019769,0.078205,-0.29581,0.36818,-0.14465,0.10294,-0.014678,-0.1392,0.0067169,-0.28662,0.16253,-0.15043,-0.3498,0.13685,0.38196,0.11054,0.33545,-0.057645,-0.17031,-0.020295,-0.0062529,-0.1595,-0.053639,0.23474,-0.087923,-0.18272,0.47821,0.12286,0.60586,-0.035479,-0.37921,0.30799,0.17904,0.086379,0.25702,-0.073928,0.22399,0.15664,-0.095092,0.17758,-0.12945,-0.17306,0.46329,-0.018689,-0.025993,0.12642,0.22129,0.17002,0.26795,0.16221,-0.21355,-0.072061,-0.20205,-0.015807,-0.26542,-0.081484,-0.047742,-0.3262,-0.26975,0.21331,-0.24033,0.20723,-0.065239,-0.14675,0.09905,-0.55269,-0.25641,0.58052,0.58797,-0.07125,-0.14291,0.45624,-0.30209,-0.19219,-0.40542,-0.24324,0.048938,-0.37275,0.054425,0.083984,0.033692,-0.16171,-0.18241,0.36211,-0.16237,0.097294,-0.076131,-0.17721,0.021252,-0.28359,0.076497,0.19853,0.26324,-0.093712,-0.20966,0.10913,-0.17034,0.12952,-0.027938,0.03549,0.077396,-0.49908,0.19025,0.25923,-0.23113,-0.057602,-0.41065,0.21855,-0.48091,-0.21553,-0.23466,-0.10812,0.21985,0.2598,0.13683,0.36135,-0.19073,-0.32559,0.54998,-0.34787,-0.13713,-0.60379,0.28655,0.069629,0.096645,-0.055593,-0.31726,-0.17649,0.16476,-0.20978,0.32435,-0.26751,-0.22251,0.16288,-0.043933,-0.0036646,-0.26088,-0.13551,-0.098521,-0.062311,-0.14236,0.068941,-0.20961,0.16985,0.13495,0.12773,0.064669,-0.10193,0.33423,0.15222,-0.075435,-0.097786,0.087288,0.33778,-0.35434,-0.41709,-0.25076,0.12921,-0.011715,0.12181,-0.2731,0.35868,-0.072034,-0.31685,0.24913,0.36794,-0.031202,0.0041659,-0.14928,-0.27926,0.29423,-0.10726,-0.13446,0.29996,0.042702,-0.16636,0.11421,-0.31071,-0.25271,0.13776,0.29827,-0.029939,0.44912,0.15018,-0.18042,-0.22952,-0.25589,0.012135,0.05637,0.20905,0.40456,-0.16598,0.047645,-0.0082675,-0.34592,-0.035136,-0.1274,0.06736,-0.37657,-0.062958,0.070487,0.026037,-0.27433
larger,-0.10236,0.24095,0.26735,0.42463,0.25641,-0.16368,0.14894,-0.21043,0.26494,0.48592,-0.18284,0.14589,-0.0241,0.18739,0.012537,-0.13365,-0.27191,0.18466,-0.0055062,-0.13554,0.20016,-0.25419,0.096544,-0.029826,-0.33507,-0.22722,-0.088813,-0.018602,0.043491,0.12592,0.053041,0.15184,-0.43452,0.25148,0.0088336,-0.30354,0.16653,0.087716,-0.29454,-0.16209,-0.079554,-0.067846,0.14668,0.1495,-0.040297,0.056212,-0.11553,0.20138,0.27707,-0.14292,-0.16438,-0.12639,-0.15008,-0.086388,-0.049798,0.18045,0.016281,0.30452,-0.23283,0.32148,-0.045793,-0.25099,0.12849,0.1341,-0.0062287,-0.16647,-0.29288,-0.23034,0.008846,-0.022178,-0.39656,0.064558,-0.22211,-0.13722,0.22256,0.35,-0.063001,0.19269,0.038537,-0.2798,0.11777,0.1418,-0.32625,-0.0012971,0.2584,0.11492,0.092312,0.1689,0.15956,-0.17995,-0.093962,0.079296,0.20095,-0.34612,0.29626,-0.27985,0.15047,0.13215,0.011484,-0.036403,-0.25109,-0.33624,0.39603,-0.035722,0.108,-0.043083,-0.087185,0.27817,0.015571,0.24744,0.055873,0.15304,-0.22145,0.027073,0.17452,-0.18646,0.027328,0.032606,-0.15042,0.06309,0.26799,0.11867,-0.40084,0.20499,-0.03053,0.032401,-0.025287,0.017818,0.22984,0.29498,-0.051883,0.024267,-0.03731,0.22279,-0.28406,-0.071729,-0.22574,-0.041026,-0.34958,0.22887,0.014344,-0.097938,0.086693,0.086681,-0.092866,0.22259,-0.086878,0.11383,0.25047,0.20915,-0.0052587,-0.28309,-0.019467,0.20357,-0.016112,-0.079759,0.26399,-0.067389,0.22171,0.059383,0.14524,0.33821,0.16654,0.27772,0.22573,0.033585,-0.21288,-0.11418,0.34343,0.12371,-0.22368,-0.1782,-0.46303,-0.13792,-0.17498,0.14205,0.079802,0.07837,-0.05178,0.0040704,0.19073,0.05371,-0.030827,-0.073472,0.21231,-0.075766,-0.19428,-0.066092,0.33009,0.029404,0.11058,-0.54954,0.2851,-0.22882,-0.077703,0.056095,0.44924,0.28426,0.089275,-0.16179,0.095513,0.24996,0.1291,0.35707,-0.25926,-0.24455,-0.12823,0.058012,0.013143,-0.076413,0.10262,0.14641,-0.012731,-0.24377,0.04511,-0.33962,-0.044876,-0.052554,-0.17917,0.049348,-0.070285,0.018079,-0.078992,0.28777,0.1189,-0.12758,-0.19791,-0.23212,-0.17955,-0.053848,0.41002,-0.028563,-0.027921,0.2691,-0.098789,-0.057359,0.1152,-0.25222,0.087003,0.069936,-0.28694,0.12238,0.058583,-0.016858,-0.13144,0.27272,-0.021252,-0.0092487,-0.30821,0.31399,0.2102,0.037743,-0.26394,0.17439,-0.11747,0.34002,0.21901,0.042912,0.020652,-0.02541,0.16736,0.084359,-0.28387,-0.024721,-0.70875,0.056264,-4.5006e-4,0.13006,-0.13639,0.11111,-0.16631,0.11761,-0.13469,0.039889,-0.088191,-0.19251,0.012362,0.060685,0.07097,-0.044523,0.10263,-0.011462,-0.0027067,0.031449,0.24064,-0.12431,0.061681,-0.15884,-0.24966,0.47304,0.28589,-0.051558,-0.091322,0.36,-0.080052,-0.156,-0.037389,0.18924,0.29607,0.045735
dark,-0.28351,0.081063,-0.012977,0.20657,0.16865,0.25524,0.15559,0.35272,0.36195,0.31728,0.13478,0.56361000000000006,-0.097195,0.19668,0.67216,-0.11482,-0.47141,-0.042906,-0.075888,0.34261,-0.50188,-0.10162,-0.34931,0.10834,-0.35169,-0.3327,0.24937,-0.19945,-0.14442,0.096614,-0.078776,0.33665,0.01903,0.20505,0.12019,0.11733,-0.11822,-0.22096,0.20912,0.059015,-0.15215,-0.0093372,-0.35896,0.096615,-0.26025,-0.3636,-0.2775,0.12218,0.02305,0.01078,-0.18774,-0.16618,0.22119,0.066561,0.1411,0.31851,-0.081217,0.036934,0.28427,0.015325,-0.085739,0.10659,0.16514,0.040797,-0.27481,-0.0081183,-0.28754,0.24616,0.044788,0.10717,-0.22572,0.042022,-0.051441,0.042444,-0.094207,-0.13593,0.14127,-0.056157,0.12616,0.0079805,-0.37428,0.043457,-0.12132,0.23351,-0.16265,0.35412,0.020949,0.16725,-0.070537,0.29784,-0.25102,-0.23045,0.093536,0.12496,0.039566,0.12806,0.16174,0.043931,0.0209,0.27125,-0.057348,0.036525,0.11601,0.26304,-0.18801,-0.063875,-0.35623,0.22753,0.14314,-0.37177,-0.078824,0.20235,-0.37219,-0.19297,-0.093492,-0.1567,0.021558,-0.14965,-0.068121,0.19186,0.42616,-0.16902,0.41413,0.23136,0.0073441,-0.10534,-0.28351,-0.002442,0.14598,0.19226,-0.011829,0.2271,-0.36536,0.30809,0.082825,-0.1516,0.40302,-0.30601,-0.24965,0.17579,-0.078022,0.22148,0.24449,0.049425,-0.1572,-0.13905,-0.11269,0.17724,-0.17723,-0.045077,0.55843,-0.27389,-0.56579,0.13174,0.060555,-0.0021534,-0.096507,0.08395,0.49173,0.10088,0.0024224,0.099913,-0.12815,0.0025555,0.090191,0.29027,-0.15716,0.1278,0.38234,0.14729,0.020096,-0.41577,-0.096455,0.24166,-0.025216,0.30556,0.082762,-0.19144,0.052274,-0.27976,-0.13042,-0.25182,0.41875,-0.029794,-0.10093,0.047141,0.37662,-0.0816,0.22804,0.04653,0.062148,-0.59586,0.56095,-0.019734,0.074482,-0.073357,0.047236,0.14165,-0.18713,-0.044868,0.14195,-0.20901,-0.012656,0.12531,0.34122,-0.76624,-0.14777,-0.034374,0.18348,-0.1202,0.36138,-0.010369,-0.048661,-0.15408,-0.030256,-0.13941,-0.048276,-0.24417,-0.4033,-0.12993,-0.4116,-0.2128,0.15792,0.32044,0.21432,0.091665,-0.30005,-0.097648,0.0186,-0.20154,0.031982,0.46422,-0.096029,-0.1206,0.39187,-0.10538,0.37416,0.17263,-0.049928,0.1671,0.17122,0.24047,0.0028424,0.0045425,0.028551,0.1609,-0.36598,3.9989e-4,-0.31813,0.2178,-0.045376,0.35359,-0.16937,-0.20784,0.06492,0.018398,0.022724,-0.23246,0.29915,-0.1419,0.36475,0.28488,-0.057265,-0.15145,0.1344,-0.2729,-0.041442,0.52211,0.015297,-0.23537,-0.17035,-0.11864,0.32455,0.18448,-0.28201,-0.29734,0.018556,0.23125,-0.26963,0.25494,0.41412,-0.043034,0.22539,0.026887,0.088139,0.052482,0.21528,0.26706,-0.38639,0.090302,-0.083461,-0.15956,-0.31293,-0.040085,0.25666,0.11412,0.1469,0.088394,0.080029,0.076316
arms,0.12503,0.2263,-0.065562,0.17663,-0.072862,-0.44147,-0.166,-0.066349,-0.17436,0.39415,-0.0077055,0.084477,-0.47134,-0.20287,-0.18658,-0.29988,-0.16504,0.099134,0.1848,0.028278,-0.22695,0.28241,-0.12824,-0.058035,-0.046783,-0.22733,0.0068506,-0.15571,-0.30788,0.23153,0.15012,0.19888,-0.27414,0.077622,-0.28028,-0.0035281,-0.074596,-0.1563,0.075274,0.067252,0.122,-0.030525,0.24009,-0.3147,0.023475,-0.043082,-0.3641,-0.071517,0.22748,-0.3093,-0.13198,0.41375,-0.36759,-0.12011,0.096965,0.057818,0.324,-0.093404,-0.3013,0.18414,-0.35148,-0.11512,0.12279,-0.2509,0.24358,-0.31523,-0.0027662,0.18512,-0.10758,0.19586,0.4118,-0.10359,0.094913,-0.18683,0.015453,-0.10575,0.25908,0.26822,-0.24205,-0.078404,0.13474,-0.18475,-0.62453,-0.2364,0.25367,0.2839,-0.16109,0.57567,0.14761,0.20175,-0.18898,-0.084494,-0.34458,0.026412,0.18599,0.037726,0.72217,0.09799,0.18974,-0.093344,-0.30723,-0.47103,-0.29753,-0.11885,0.33213,-0.092899,-0.48253,-0.23703,0.076816,-0.49888,0.23708,-0.35814,0.14458,-0.10557,0.072393,0.25442,0.12346,0.069311,-0.078721,0.64152,0.39172,-0.24635,-0.010386,0.08418,-0.20845,0.093185,-0.3594,0.59612,0.39397,0.1538,-0.28058,0.21641,-0.15365,0.18696,0.23504,0.27176,0.49669,-0.14181,-0.12973,0.27445,-0.39288,-0.1725,0.33445,-0.32712,0.13507,0.15382,0.038447,-0.36022,-0.3388,0.28355,0.30488,-0.14485,-0.19544,0.12701,-0.33148,-0.26664,-0.34719,-0.24614,0.13249,-0.14301,0.056404,0.40221,-0.43568,0.1316,0.31252,-0.055807,0.19334,-0.11271,-0.02768,-0.036252,-0.54924,-0.29344,-0.41093,-0.31323,0.0021604,0.41141,0.5005,0.44351,-0.069661,0.55768,0.27248,-0.37747000000000003,-0.091118,-0.020525,0.12159,-0.077847,-0.10142,-0.047255,0.35643,0.047028,-0.10983,0.21314,-0.053821,0.26637,0.057314,-0.1851,-0.10166,-0.14971,0.18206,-0.13523,-0.4633,0.15461,-0.083032,-0.17558000000000001,0.10919,-0.53909,-0.31081,-0.034756,0.11887,-0.37266,0.30254,0.2468,-0.20414,-0.29876,0.40145,-0.17397,-0.43106,-0.43735,-0.087916,0.2754,-0.11482,-0.15789,-0.40907,0.067117,-0.26111,0.24518,0.011171,-0.0045977,-0.0067387,-0.27122,0.42225,-0.13444,0.097114,-0.45385,-0.20771,-0.12405,-0.0072118,-0.086687,0.064341,-0.15252,0.10333,-0.026991,0.3698,0.21197,-0.079867,0.079767,0.061362,-0.096177,0.29846,0.012369,0.17191,-0.1294,0.16957,-0.25316,-0.29516,0.31766,-0.12302,-0.25056,0.41169,0.10712,-0.20171,-0.0029376,-0.15487,-0.39165,-0.084785,0.12638,0.096777,-0.22442,0.035876,0.32209,-0.20068,-0.050909,-0.062709,0.023692,-0.33591,-0.1162,0.15013,0.73606,0.031804,-0.13326,0.18651,-0.32578,-0.24274,-0.2215,0.37034,0.022336,-0.098891,0.39369,-0.65143,-0.28204,0.5596,-0.32913,0.13734,0.56457,0.20916,0.26087,0.047649,0.38904,0.10656,0.27596
horse,0.1438,0.12436,0.12465,0.11634,-0.049427,0.13524,-0.2014,0.10637,0.089167,0.18281,-0.10147,0.196,-0.011233,-0.15456,0.34132,0.087671,-0.15025,0.035734,0.1303,0.19877,0.01026,-0.33453,-0.52534,0.20387,-0.20383,-0.18904,-0.17015,0.19854,0.053078,0.26153,0.33228,0.40677,-0.33075,0.12426,0.095704,0.14374,-0.24968,-0.17355,0.15453,0.63155,0.032188,-0.13461,-0.15965,-0.41979,-0.02634,0.19111,-0.35248,-0.1251,0.097105,-0.17334,0.29176,0.019437,-0.44167,0.21958,-0.32983,0.48952,0.35051,-0.14198,0.23296,0.49485,0.081437,-0.47604,-0.079354,-0.17219,0.17515,-0.13941,-0.25001,0.18353,0.14199,0.020878,0.045986,0.12744,0.4719,-0.49402,0.12426,-0.30155,0.61779,0.48099,-0.15468,-0.012533,0.10516,-0.089915,0.29773,0.012499,-0.59385,0.54542,0.048523,0.12686,0.46237,0.3258,-0.26502,-0.44626,0.25877,0.14421,0.019418,0.24367,-0.17952,0.043928,-0.4013,0.46602,-0.25235,-0.0077251,-0.28483,-0.053526,-0.15341,0.28513,-0.10221,0.46248,-0.056558,0.05229,-0.14971,0.23103,-0.1695,-0.056521,-0.044879,0.12892,0.081817,0.16772,-0.10806,0.023533,0.33657,-0.0045819,0.32418,0.58665,-0.10599,0.15303,0.22248,-0.14265,0.49031,-0.025028,-0.16812,0.22957,-0.01901,0.088448,-0.092549,0.088756,0.26578,-0.1822,-0.26424,0.37651,-0.27283,0.39284,0.2048,0.14114,-0.057127,0.15758,-0.038263,0.32284,-0.14923,0.10808,0.18408,-0.018156,-0.41047,0.11742,-0.1829,0.2811,0.10962,0.19529,0.44736,-0.61611,-0.28687,-0.063253,-0.19502,0.21711,0.54068,-0.099125,0.18359,0.19873,0.51153,-0.026547,0.047805,-0.33788,-0.23375,0.022877,-0.10875,0.52678,-0.16066,0.22743,0.23213,0.057002,-0.12395,-0.54933,-0.12209,-0.15965,-0.11664,0.022183,0.1072,-0.17406,0.10251,0.44337,-0.27063,-0.13123,-0.1648,0.16947,-0.46888,0.064217,-0.12804,-0.017354,-0.22929,-0.089841,-0.20094,0.0041288,-0.26852,0.05918,-0.51461,-0.32583,-0.12424,-0.17078,0.17663,-0.28108,0.35338,0.29694,0.17823,-0.02103,0.049616,-0.20441,-0.35616,-0.13064,-0.20771,0.19021,-0.38774,-0.23219,-0.043861,0.119,-0.40616,0.085192,0.28011,0.2274,-0.11747,0.029258,-0.085833,0.045022,0.41026,-0.16388,0.41777,0.32304,0.043843,0.14731,0.13388,0.0543,-0.012694,0.13561,0.077705,0.25686,-0.13299,0.074333,-0.18016,-0.063909,-0.0049161,-0.019112,0.040553,-0.44361,0.087421,-0.14487,-0.16804,-0.017773,-0.1223,-0.40328,0.35894,0.057076,0.17603,-0.11215,0.18208,-0.27665,-0.29757,0.10275,-0.11381,0.23829,0.1459,0.057893,-0.10984,0.19639,-0.086239,-0.084249,0.20875,-0.6674,0.21312999999999999,0.16882,-0.16849,0.22279,0.37923,0.01825,-0.057436,0.017609,0.19956,-0.22719,-0.015953,0.51063,-0.27169,-0.14296,0.11394,-0.26263,0.094264,-0.18338,-0.42414,0.35781,-0.40292,0.25115,0.37928,0.25835
animals,-0.029301,0.18791,-0.55191,0.55181,-0.1916,0.43352,0.07171,-0.34842,-0.026253,-0.0059528,0.17389,0.23447,0.019313,-0.052767,0.0068072,-0.1298,0.20061,0.034871,0.061975,-0.34568,0.2565,0.1226,-0.24692,0.015747,0.047254,0.070658,0.054288,-0.083416,0.25047,0.023875,0.21114,0.34728,-0.39346,0.24847,0.5072,0.0071619,0.26455,-0.010135,-0.057439,-0.052392,-0.23754,-0.039713,0.18908,-0.070941,0.19471,0.41133,-0.26957,-0.37075,-0.040499,-0.086609,0.19956,0.2554,-0.10716,-0.3212,-0.058912,0.15181,0.30375,0.24481,-0.10689,0.45169,-0.2237,-0.40161,0.33433,-0.059661,0.13846,-0.60671,0.29909,0.43566,-0.068824,0.084445,-0.23513,-0.014632,0.10962,-0.54358,-0.19611,-0.16153,0.25368,0.35395,-0.10365,-0.49281,0.18586,-0.26359,-0.059314,0.036956,0.030967,0.20708,0.18527,0.3214,0.23986,0.3337,0.27469,0.11781,0.059628,0.033855,0.059573,-0.18196,0.40283,0.3187,-0.31211,0.05603,-0.021584,0.080442,-0.22514,-0.26137,-0.21718,0.10215,-0.0093451,0.11957,-0.26051,0.058025,-0.27137,0.065767,-0.054093,0.038614,-0.097761,0.0146,0.23736,0.10969,0.028372,0.051733,0.021558,-0.12736,0.018422,0.30204,-0.037559,-0.0024783,0.067803,0.086287,0.14862,0.5446,-0.092092,0.042341,-0.12003,0.20105,0.14842,0.08619,-0.16596,-0.10559,-0.39757,0.42232,0.091493,0.22305,0.06318,0.074379,-0.077498,0.27439,0.0069645,-0.17242,0.44205,0.28688,0.12486,-0.40274,-0.016126,-0.22075,-0.34154,-0.014261,-3.6502e-4,0.43425,0.17845,-0.21121,-0.044844,0.42834,-0.11284,0.0078434,0.27092,-0.2425,0.26582,-0.32888,0.41911,0.21738,0.034912,-0.11962,-0.11711,0.16635,0.003468,0.36987,-0.37545,-0.052874,-0.012689,0.14575,-0.166,-0.16495,0.028788,-0.48695,0.061432,-0.26005,0.067497,-0.17912,0.081891,-0.011004,-0.22911,-0.24729,-0.0056713,0.24656,-0.01788,0.083196,-0.19515,-0.28925,-0.30515,-0.14024,-0.070703,0.024845,-0.2746,0.32269,0.19998,-0.49121,-0.53129,0.055124,-0.098668,0.022653,0.76506,0.057187,0.31414,0.089114,0.011899,-0.18001,0.04289,-0.27045,-0.077428,-0.36432,-0.33836,-0.24497,0.22018,0.18241,-0.45554,0.047945,0.085645,-0.016398,-0.34644,0.10837,-0.15909,-0.14423,-0.19715,-0.28127,0.058979,0.10594,-0.097592,-0.055435,0.052908,0.042757,0.030649,0.15767,0.27464,0.10621,-0.19231,0.3962,0.042516,-0.55082,-0.010807,0.12779,-0.26511,-0.27907,0.25387,0.061988,0.43137,-0.039473,-0.29245,-0.1752,0.14013,-0.16401,0.055841,0.44585,-0.31322,0.0058802,-0.42425,0.056535,-0.11286,2.6223e-4,-0.016706,0.13549,0.25744,0.095865,0.10352,-0.15398,-0.22273,-0.30749,0.020686,-0.27702,-0.15158,-0.13665,0.40493,0.07285,0.07231,0.49206,0.32349,-0.014132,-0.085596,0.014032,-0.64401,0.15982,-0.14002,-0.16652,0.29695,-0.061049,0.027704,-0.06099,0.11639,0.56615,0.3246,0.2457
scale,-0.21434,0.063862,-0.1065,0.34427,-0.12694,0.14215,0.58356,-0.2738,0.17535,-0.017757,-0.16854,0.79598,-0.065497,0.20585,0.4154,-0.32388,-0.0098915,0.063851,0.24407,0.67336,-0.075467,-0.3409,-0.080886,-0.13103,-0.24394,-0.14984,-0.050488,0.068786,0.18214,0.54052,-0.1486,0.11411,-0.24258,0.35123,-0.039229,-0.22421,0.27416,-0.0049708,-0.16019,0.10728,-7.7864e-4,-0.036604,-0.25262,-0.21287,0.12953,-0.025098,0.14943,-0.19722,0.17375,-0.16537,-0.22496,0.0085027,-0.15508,-0.30137,0.11581,0.49114,0.15303,0.30883,-0.081207,0.28332,-0.25059,-0.13688,-0.066067,-0.29628,0.22195,-0.37784,0.25745,0.11163,0.061011,-0.069188,-0.31962,0.029853,0.13154,0.089142,0.2795,0.16482,-0.046028,-0.19368,0.15578,-0.076081,0.53554,0.42083,-0.33939,-0.17162,0.17193,-0.032874,-0.18046,0.17542,0.17642,0.13653,-0.14841,0.3228,0.19452,-0.25231,0.45962,-0.71171,-0.25833,0.21796,-0.054267,-0.14079,-0.15015,-0.264,0.2912,0.12565,0.098553,-0.23947,0.027791,7.1311e-4,0.044129,0.26122,0.1367,-0.032231,-0.027091,0.18815,0.26399,-0.23975,0.10701,0.16197,-0.0399,0.0068152,0.40406,0.27695,-0.0087079,-0.037298,0.11236,-0.017557,0.26613,-0.14242,0.0055002,-0.1016,0.050377,0.1461,0.022563,0.15104,-0.076864,0.14977,-0.051912,0.047769,0.046777,-0.083148,-0.54751,-0.056613,-0.23897,-0.12763,0.13218,0.35109,0.18371,-0.23767,-0.24381,0.26428,-0.096638,-0.57307,-0.18012,-0.1683,0.14404,0.012472,0.28404,-0.20779,0.0043025,-0.22575,-0.32663,0.15967,-0.22202,0.33448,0.49261,0.035951,-0.22822,-0.30157,0.12702,-0.11842,-0.38085,-0.17594,-0.25968,0.099839,0.16149,0.14615,-0.040683,-0.1512,-0.25459,-0.10579,0.39977,0.2608,0.36102,-0.12597,0.46425,0.10296,-0.16252,-0.17197,0.17066,-0.043648,-0.035372,-0.67647,0.16554,-0.18849,0.19218,-0.20193,0.29996,0.29691,-0.068984,0.07035,0.37499,0.25993,0.22896,0.31244,0.16439,-0.30364,-0.29536,-0.077299,0.45879,-0.068184,0.45891,0.29061,0.12605,0.1658,-0.15196,-0.055658,0.26503,-0.19914,-0.093169,-0.015609,-0.031042,0.012966,0.054667,0.29385,-0.074933,0.16445,-0.30653,-0.43921,-0.20187,-0.0062675,-0.40852,0.32706,-0.032719,0.014214,-0.2487,0.014328,-0.37155,-0.2923,0.22902,0.34328,-0.12283,0.030493,0.087145,0.30308,0.069166,-0.29877,0.029612,0.08452,-0.17751,0.25054,-0.21276,0.25216,-0.32599,0.40718,-0.12115,0.20743,0.0078933,0.058027,-0.10379,-0.17485,0.004985,0.26667,-0.34562,-0.12359,-0.39814,0.20275,-0.16496,-0.20627,-0.35913,0.12027,0.31496,0.28708,0.0080947,-0.30799,-0.21642,0.029562,-0.3482,0.26196,-0.05388,0.1728,0.13229,-0.14052,-0.19126,-0.21446,0.095696,0.1401,-0.043765,0.20711,-0.17481,0.24082,0.19274,-0.060482,-0.019975,0.025025,-0.12826,0.047855,-0.37108,0.28487,0.29489,-0.0051526
normal,0.32066,0.23356,-0.25795,0.062911,0.058215,-0.18721,0.31001,-0.13493,0.49192,-0.099682,0.30427,0.075963,-0.059375,0.16307,0.42916,0.043165,-0.15078,0.14051,-0.045589,0.29358,0.088837,0.016643,-0.030304,-0.17105,-0.16355,0.097596,-0.063783,0.13925,-0.23118,0.0086856,0.043073,0.25197,-0.13338,0.54405,-0.0011994,-0.21898,0.081099,-0.10431,-0.23476,-0.088551,0.060995,0.05119,-0.1586,0.36898,-0.11515,0.28223,0.076151,-0.087603,0.075188,-0.095312,0.12475,-0.32086,-0.098237,-0.48203,0.25318,-0.092307,0.11991,0.060062,-0.21039,0.087356,0.046302,-0.097223,0.42437,-0.0013321,-0.20769,-0.18712,-0.049981,-0.0032544,-0.11722,-0.12565,-0.42746,-0.08823,-0.12193,-0.11111,-0.3078,0.31412,0.41684,0.15454,0.17779,0.082517,0.21689,-3.2911e-4,-0.037148,-0.1097,-0.24928,0.31973,0.05775,0.30842,-0.36148,-0.15936,-0.038243,0.25696,0.47596,-0.30767,-0.068051,-0.016362,0.23638,0.027705,-0.051897,-0.24045,0.30809,0.012957,0.097213,-0.33683,0.20702,-0.20584,-0.0098048,-0.020659,-0.12265,0.079,0.233,0.08631,-0.028741,-0.18994,0.0076198,-0.29169,0.2999,-0.18318,-0.26237,-0.060502,0.1062,-0.043567,-0.46267,0.43846,0.17026,-0.25155,0.023746,-0.0097668,0.19784,0.12343,0.37275,0.21793,0.027394,-0.14969,0.050046,0.14869,-0.078893,-0.0025386,-0.072784,0.2755,0.052303,-0.059776,-0.033966,0.067091,0.016283,0.14869,0.28186,-0.031331,0.034161,0.28376,0.23217,0.014789,0.19342,-0.095559,-0.083091,-0.19535,0.14589,0.19439,-0.058704,-0.014697,0.048148,0.51346,-0.34221,0.2084,0.15539,0.13194,-0.16932,-0.21131,0.12508,0.31083,0.24447,-0.25808,-0.13704,0.31377,0.31948,0.25679,0.16241,-0.24908,0.072213,-0.15986,0.23902,-0.13074,0.12451,-0.22772,0.23807,0.39383,-0.064541,0.020959,-0.15476,-0.060257,-0.24298,-0.18481,0.047709,0.098263,-0.33117,-0.16285,-0.17052,-0.053374,-0.023923,-0.29368,0.20645,0.012734,-0.071524,0.032281,0.15004,-0.06963,-0.38397,0.038021,0.16325,-0.18405,0.17106,0.2244,0.35296,0.12659,0.089823,-0.40601,-0.13535,-0.28485,-0.19879,0.03518,-0.27423,0.12303,0.14867,0.079348,-0.015466,0.015271,-0.29497,-0.035171,-0.0016471,-0.096137,0.084213,-0.26076,-0.12761,-0.16571,0.027751,0.18196,0.057312,-0.10098,-0.0014045,-0.0057274,0.015053,0.23908,0.081734,-0.069701,-0.011495,0.03532,0.061014,-0.083572,-0.077386,0.24689,-0.16565,-0.077202,-0.31998,-0.027035,-0.011514,0.31824,0.10669,-0.57775,0.20461,0.075498,0.45988,-0.035685,0.096929,-0.080738,-0.22132,-0.26082,-0.18725,0.27494,-0.028247,0.017704,-0.22938,-0.05008,0.125,-0.026912,-0.28409,-0.16681000000000001,0.34095,-0.17188,0.041686,-2.3296e-5,0.11265,-0.22764,-0.19811,-0.17414,0.1304,-0.4666,0.17588,0.058473,-0.19627,0.20107,0.12023,-0.080219,-0.139,0.16195,-0.29358,-0.1114,0.15194,-0.18648,-0.066572,-0.23343
height,-0.30538,0.11899,0.24096,0.47621,0.1837,-0.52042,-0.43101,-0.50757,0.3988,0.10652,0.37434,0.59077,0.27106,0.15381,0.18155,-0.43998,-0.064199,-0.16904,0.056371,0.15983,0.016307,-0.28171,-0.5574,-0.11952,-0.070241,-0.44247,0.29036,-0.040133,-0.33099,-0.168,0.062713,0.41998,-0.10319,0.17078,-0.11096,-0.074476,0.44841,0.36021,0.039545,0.022212,0.073898,-0.16379,-0.10044,-0.041617,0.2475,-0.064232,-0.037821,0.047985,0.45177,-0.11204,0.065995,0.065355,0.25075,0.031377,0.044706,0.57107,-0.018614,-0.38933,0.14582,-0.25953,-0.0099862,0.01013,0.50291,-0.48929,-0.15802,-0.10011,-0.025446,0.55826,-0.12345,-0.30728,-0.41313,-0.469,-0.07747,0.28629,0.078478,0.25409,0.22465,0.37049,0.026913,-0.08328,0.11732,0.14659,0.15332,-0.41102,-0.098106,0.077405,-0.12976,0.17185,0.32346,-0.022509,-0.59673,0.48236,0.4449,-0.55085,0.22437000000000001,-0.1207,0.42983,-0.16339,-0.41596,-0.019138,0.095322,-0.034606,-0.096257,0.074942,0.48922,-0.21317,0.067074,0.16231,-0.1113,-0.44832,0.12723,0.36543,0.20952,0.18737,0.088466,-0.17607,0.0033313,-0.0053674,0.17326,0.16416,0.16854,0.31869,-0.027186,0.28992,0.47008,0.18574,0.42878,0.065498,0.088435,0.11658,-0.12805,0.22753,0.056807,0.26162,-0.3912,-0.0067755,-0.27199,-0.046183,-0.099026,0.33324,-0.23865,0.19196,0.35462,0.41881,-0.32215,0.056619,-0.24257,0.15978,-0.38135,0.22372,0.15678,-0.012088,-0.13958,0.13252,-0.1731,-0.42083,-0.35989,0.15973,0.0015934,-0.082368,-0.031329,0.2712,0.30034,0.047919,0.10621,-0.09994,-0.078392,-0.2694,0.03016,0.15461,-0.051347,-0.54155,-0.28856,0.19888,0.25466,0.31316,0.050178,-0.23348,0.10815,-0.21591,0.074752,-0.24787,-0.013134,-0.0978,0.44966,0.34975,-0.29472,0.054326,0.46877,-0.2496,0.11407,-0.16012,0.57299,-0.10984,-0.29273,0.1017,0.17835,-0.18282,-0.12617,-0.20507,-0.068645,-0.092024,-0.14382,0.13403,0.25816,-0.2771,-0.13474,-0.033643,0.39758,-0.09881,0.24767,0.52318,0.11532,0.47747,-0.13395,-0.67424,0.18351,-0.57061,-0.21712,0.029437,0.13424,-0.027529,-0.28213,0.18466,0.41765,-0.085981,0.23671,-0.41294,0.21511,-0.21745,0.39923,0.059689,0.030925,0.33074,-0.091566,-0.25299,0.026539,7.6074e-4,0.30603,-0.10756,-0.30839,0.1271,-0.075214,0.17016,-0.038997,-0.44515,-0.062141,-0.50528,-0.41278,-0.015974,0.27889,-0.23142,-0.10157,-0.28347,0.20523,0.063154,0.66231,-0.39773,0.0045702,-0.10315,-0.31928,-0.048682,-0.19077,-0.24076,0.0039323,7.8521e-4,-0.36837,0.15722,-0.31649,0.029208,-0.17332,0.17052,0.041354,0.026772,-0.27449,-0.14172,0.13656,0.56235,0.28175,-0.060692,0.15226,-0.089879,-0.37515,-0.27368,0.31553,0.066174,-0.16022,-0.19724,-0.060455,-0.16519,0.10376,-0.34969,0.056465,-0.14352,-0.22431,-0.55647,-0.31314,0.14991,-0.050961,0.17425
yellow,-0.53007,0.0015919,0.19376,-0.01574,0.18699,-0.19785,0.3559,0.029096,0.41195,0.20625,-0.030368,0.13583,0.15742,0.030147,0.429,-0.45907,-0.31126,-0.29546,-0.09352,0.36835,-0.0845,-0.28997,-0.23544,0.14838,-0.2512,-0.37049,0.082402,-0.2683,-0.57556,0.25834,-0.089617,0.11438,-0.036453,0.4406,-0.093029,-0.012199,-0.18309,-0.10431,0.39976,-0.1133,0.061451,-0.60261,-0.024422,0.28547,0.047109,-0.17984,0.3175,-0.086767,0.27919,-0.15743,-0.20883,-0.50537,-0.095305,0.047983,-0.10575,0.11763,-0.010157,-0.037558,0.14586,0.11419,0.16017,0.4505,0.28791,0.046779,-0.20672,0.31577,-0.37237,-0.24783,-0.25949,0.13377,-0.26616,-0.17464,-0.023547,-0.20032,0.010072,-0.12215,0.2181,0.22309,-0.052067,0.11286,-0.11295,-0.12844,-0.37503,-0.1313,-0.11551,0.28535,-0.12755,0.22031,0.12335,-0.25089,-0.14083,-0.13584,-0.22866,-0.18326,0.26937,0.011946,0.17385,0.27544,0.12604,0.30157,0.27466,-0.24549,-0.15127,0.29277,0.0087956,-0.2985,-0.061543,0.046695,-0.24578,-0.36929,-0.37576,-0.043852,0.027446,0.046166,-0.044591,-0.19438,0.23481,-0.21719,0.046014,-0.19996,0.35187,-0.12987,0.27201,-0.064172,0.2308,-0.094599,-0.0095245,0.091331,0.12248,0.19175,0.037279,0.21726,0.16084,0.11651,-0.066551,-0.18609,0.013292,-0.44853,-0.1589,0.063054,-0.26686,0.48168,0.26539,-0.15515,-0.12257,0.20994,-0.59614,-0.053016,-0.10496,0.16565,0.19956,-0.36098,-0.088484,0.10134,-0.16435,0.011539,0.08484,0.12168,0.16221,-0.15893,0.32326,-0.046638,-0.4397,0.29926,0.079474,0.24888,0.13097,-0.2091,0.81446,-0.23134,-0.1141,-0.30946,-0.32195,-0.22318,0.44042,0.25745,-0.013783,-0.46351,0.43306,-0.15459,-0.3603,-0.12595,0.001265,-0.070785,0.31028,-0.092137,0.27657,-0.078659,-0.075127,-0.017369,0.23457,-0.40087,0.3831,0.088525,-0.34,-0.26908,0.24012,0.11565,-0.45352,-0.10435,0.10408,0.058442,-0.18712,0.24083,0.88357,-0.3294,-0.056548,0.098895,0.033173,0.25289,0.0051198,0.18137,-0.054109,-0.16973,0.053361,-0.20937,-0.10402,-0.052615,-0.14487,-0.36354,-0.53009,-0.020703,-0.064083,0.51862,0.18821,-0.20496,-0.54303,0.15732,0.098255,-0.1789,0.18541,0.27054,-0.28664,-0.16974,0.18443,-0.46812,0.22215,-0.32163,-0.21186,0.16693,0.02158,-0.25512,-0.0018154,-0.071639,-0.099165,0.13279,-0.088229,-0.21573,-0.20785,-0.15425,0.43337,0.016288,-0.098452,-0.23055,0.46377,0.068724,-0.083636,-0.30058,0.048417,-0.039018,0.18739,0.34947,-0.02782,-0.20505,-0.44319,-0.4205,-0.58367,0.46648,-0.17429,-0.47076,-0.42956,-0.19249,0.17314,0.11467,-0.22297,-0.012985,0.23164,0.10951,-0.25086,0.074207,0.15846,-0.087453,0.0061486,0.37468,0.51178,-0.027967,0.43622,0.13827,-0.48214,-0.50833,-0.093442,-0.60007,-0.041085000000000003,0.20953,-0.39476,0.044758,-0.05523,-0.034284,-0.098353,-0.2647
fox,-0.45712,0.067445,-0.30811,0.073758,0.22847,-0.018223,0.1098,-0.43053,-0.24699,0.12198,0.34093,0.13586,-0.13969,-0.31217,0.20225,0.18166,-0.1937,-0.17641,-0.023573,-0.03656,-0.44773,0.41795,-0.32965,-0.43756,0.10521,-0.15573,-0.18,-0.013822,0.43655,0.17379,0.30671,0.18724,-0.20087,-0.094367,-0.032838,-0.16497,-0.14314,-0.25371,0.24242,-0.018855,-0.30644,0.13633,-0.24562,0.36694,-0.038495,0.23028,-0.29451,-0.05036,0.050383,0.26813,0.22799,-0.081557,0.17978,0.30716,-0.20409,-0.046894,0.39371,-0.043548,0.31934,0.44045,0.067117,-0.21158,0.27444,-0.018465,0.16529,-0.042443,0.043269,-0.10012,-0.33574,-0.3979,0.14538,-0.029146,0.24758,0.036809,0.10377,0.40203,0.48053,0.16258,-0.039308,-0.39572,0.028243,-0.56604,0.081881,0.38404,-0.021683,0.29755,-0.28628,-0.12048,0.17645,0.24526,-0.29417,-0.3444,0.33227,0.02363,0.4226,0.24481,-0.12516,0.51459,-0.075575,-0.13917,0.014958,0.44802,0.16889,-0.04048,-0.40317,0.14697,-0.30298,0.17441,0.11642,0.10257,0.0097979,0.0036474,-0.15151,-0.57104,-0.087105,-0.064673,0.18066,0.24074,-0.26382,0.10145,0.058636,-0.02443,0.14687,0.15499,-0.13359,0.18164,-0.034568,0.21199,0.18317,0.31595,0.019045,0.17227,0.033042,0.2253,0.13841,0.30871,-0.054619,0.14141,-0.36901,0.48083,0.11447,0.20604,0.045413,-0.030174,0.11713,0.24842,0.24582,-0.13605,-0.22789,0.19761,0.142,-0.26857,-0.41011,0.31812,0.11078,0.016965,-0.13537,0.0082597,0.018289,-0.32363,0.51058,0.0966,-0.55436,-0.28411,0.25249,-0.081891,0.30620000000000003,-0.17087,-0.094338,0.25676,-0.43506,0.30432,-0.24907,-0.16516,0.09902,0.41625,-0.36525,0.38195,0.090102,-0.14953,-0.27177,0.1182,0.16714,-0.034181,-0.19635,-0.54955,-0.20585,-0.074161,0.095202,-0.098637,0.17442,-0.3342,-0.10931,0.097747,-0.19753,0.3265,0.068617,0.22366,-0.070239,0.29443,0.49228,0.15356,-0.06426,0.22256,0.3206,-0.32548,0.10357,-0.26211,0.071616,-0.29912,-0.0019685,-0.26203,0.16472,-0.31777,0.040158,-0.20549,0.18842,-0.32834,-0.17625,0.19394,-0.063695,-0.15639,-0.088149,0.21168,-0.20629,-0.43405,-0.1982,0.054073,-0.021451,0.57354,0.23369,0.17521,0.21059,0.25822,-0.16066,0.24581,-0.38076,-0.032386,0.084516,-0.12798,-0.31986,0.1259,0.12905,0.10942,0.24233,0.16444,0.20357,0.037438,-0.20148,0.13053,-0.064699,-0.40866,-0.065845,0.44699,-0.11262,-0.017143,0.35516,2.9876e-4,-0.019375,-0.0029803,0.40723,0.28728,0.23972,-0.11393,-0.23973,0.091869,0.20623,0.29762,-0.031368,-0.023179,-0.61414,0.19542,0.22912,0.093001,0.091953,-0.37553,-0.033981,0.21075,0.18498,0.16775,0.049697,0.22666,0.27969,0.29197,0.48493000000000003,-0.28437,0.49796,0.46031,-0.47409,-0.15145,0.17188,-0.39279,0.66186,-0.091498,0.073166,0.05826,0.3304,0.090494,0.24334,-0.071208
