target_word,V2,V3,V4,V5,V6,V7,V8,V9,V10,V11,V12,V13,V14,V15,V16,V17,V18,V19,V20,V21,V22,V23,V24,V25,V26,V27,V28,V29,V30,V31,V32,V33,V34,V35,V36,V37,V38,V39,V40,V41,V42,V43,V44,V45,V46,V47,V48,V49,V50,V51,V52,V53,V54,V55,V56,V57,V58,V59,V60,V61,V62,V63,V64,V65,V66,V67,V68,V69,V70,V71,V72,V73,V74,V75,V76,V77,V78,V79,V80,V81,V82,V83,V84,V85,V86,V87,V88,V89,V90,V91,V92,V93,V94,V95,V96,V97,V98,V99,V100,V101
size,0.1149,-0.63036,-0.9193,0.20409,-0.49982,0.027719,-0.63466,-0.97996,0.64835,-0.77017,-0.1693,-0.080632,-0.086164,-0.63106,0.03355,-0.46598,0.14005,0.33155,0.0686,-0.36088,-0.13108,-0.22302,-0.39451,-0.076727,0.070753,-0.069056,0.127,0.33258,-0.27359,0.041565,-0.3377,0.23924,-0.11732,-0.15729,-0.57359,0.03701,0.2512,-0.10296,-0.31408,-0.19977,0.26577,0.25262,0.35687,0.29211,1.6052,-0.17154,-0.36486,0.23163,-0.0064001,-0.27398,-0.59284,-0.13882,0.69788,-0.20369,0.34246,-0.74696,-0.55111,-0.3031,0.3853,-0.14173,0.03237,0.31419,0.56277,-0.05306,0.79404,-0.34125,0.19154,0.42521,-0.19259,-1.1364,-0.40886,0.61192,0.90928,-0.58246,0.24761,0.51387,0.1947,-0.023909,0.34263,0.18748,-0.41852,0.15939,-0.030126,0.36243,-1.0806,0.14196,-0.0095899,-0.36973,0.014467,-0.21268,-0.60195,-0.11221,0.36228,-0.24129,-0.28695,-0.67698,0.44459,-0.39119,0.0069726,0.039746
white,-0.28775,-0.591,0.72586,0.26677,-0.029918,0.041942,-0.0066761,-0.30221,0.097477,-0.60283,-0.20734,-0.27384,-0.75292,-0.52086,-0.26096,-0.17891,0.082835,-0.076689,0.23546,-0.07411,0.29961,0.21312,-0.41135,-0.22772,-0.41943,0.17777,0.63454,0.29685,-0.28051,-0.050988,-0.37764,0.17811,-0.088244,-0.29375,-0.66026,0.0022761,0.077273,0.3086,0.32392,-0.080059,0.19394,-0.21727,0.051707,0.10041,0.50236,0.16485,-0.05977,0.67139,-0.14267,0.34844,0.31968,0.38337,0.4638,-0.28432,0.10452,-0.2582,-0.27071,0.31521,0.13432,-0.53555,0.21543,-0.31462,-0.021287,-0.40936,0.3428,-0.46814,-0.072272,0.45574,-0.73214,-0.23561000000000001,-0.52165,0.30192,0.10363,-0.40631,0.079102,-0.16137,0.41357,-0.2291,0.32227,-0.023725,-0.088625,0.064862,0.64949,-0.15976,-0.46222,0.4497,-0.38926,-0.50416,-0.3649,0.012395,0.26146,0.43154,0.61064,-0.10743,0.44779,-0.5902,0.44806,-0.64963,-0.51733,-0.27665
long,-0.10771,0.010881,-0.10335,0.1653,-0.038611,0.16819,-0.48756,0.0090883,0.69342,-0.17365,-0.086398,-0.0092285,-0.07505,0.019469,0.075919,0.29846,-0.068943,0.18488,0.38152,-0.33274,0.25492,0.025099,-0.77594,-0.13027,-0.026962,-0.17465,0.1134,0.1335,-0.26662,-0.29978,-0.57615,0.12339,0.12629,0.30038,0.065764,-0.1875,0.040672,0.01083,0.61751,0.19004,-0.25875,-0.068158,0.089177,0.2466,0.17336,0.20308,-0.042691,-0.024383,-0.29504,0.11982,0.10825,0.45856,-0.0066328,-0.20335,-0.027455,-0.28511,0.41612,0.039479,0.089049,0.19477,0.032202,0.10078,0.13416,-0.32216,0.20409,-0.026684,0.02837,0.19763,-0.078462,-0.108,0.036985,0.055424,0.12462,0.05949,0.10219,-0.10612,-0.07438,0.18388,-0.055969,-0.12611,0.15462,-0.082075,0.38455,0.054868,-0.3097,0.37962,-0.05903,-0.092024,-0.28272,-0.20893,0.075755,-0.26488,0.24544,-0.16528,-0.18201,-0.44506,-0.056904,-0.5199,-0.29523,0.2097
large,-0.13146,-0.24578,0.15015,-0.0033225,-0.059926,0.16544,-0.42691,-0.092149,0.68584,-0.073985,0.15275,0.064352,-0.14592,-0.1419,0.011649,0.0078621,0.086978,0.27346,0.0072535,-0.042207,0.23033,0.061859,-0.38711,-0.57854,0.028633,0.3635,0.058362,0.067797,-0.0017422,-0.10403,-0.60923,0.18741,-0.19826,-0.1557,-0.40123,0.02426,0.32511,0.1918,-0.080396,0.21132,0.15405,0.0043,-0.14508,0.38803,0.50416,-0.13623,-0.25328,0.22127,-0.10688,-0.1049,-0.032995,0.046519,0.19513,-0.32184,0.036151,0.021763,0.15833,-0.23668,0.10179,-0.0077709,0.48176,-0.065089,0.42788,-0.14412,-0.0010503,0.052799,0.11194,0.12593,-0.10498,-0.40419,0.10486,-0.25006,0.15651,-0.046689,0.008308,-0.034411,0.20365,0.038372,-0.10362,-0.2205,-0.19225,-0.21231,0.18453,0.40438,-0.50709,0.23393,-0.025721,-0.0084051,-0.35064,-0.1517,0.14584,-0.24166,0.24817,-0.16038,-0.052918,0.099807,0.019769,-0.36728,-0.49449,0.15211
small,-0.02001,-0.11688,0.099344,0.075431,-0.098688,0.19839,-0.29049,-0.18711,0.53487,-0.16662,0.10653,-0.082071,-0.17067,-0.10992,0.07521,0.13222,0.22769,0.4169,0.24481,0.052173,0.19263,0.064233,-0.40503,-0.34474,-0.12021,0.34693,0.042127,0.22841,0.023556,-0.084426,-0.54713,0.18816,-0.3791,-0.060433,-0.31022,0.06526,0.28657,0.16186,-0.032915,0.072275,0.04832,-0.081702,-0.22482,0.14735,0.49297,-0.042543,-0.2907,0.16691,-0.037117,-0.21232,0.010976,0.13999,0.21105,-0.40705,0.10462,0.1285,0.044872,-0.12456,0.10935,0.14448,0.55785,-0.066463,0.35879,-0.15172,0.18231,0.10364,0.015035,0.18675,-0.058722,-0.47193,0.20507,-0.074342,0.12513,0.060885,0.074087,0.065315,0.32131,0.14444,-0.095912,-0.19034,-0.065554,-0.11977,0.041621,0.42999,-0.54483,0.071266,0.040145,2.0714e-4,-0.40781,-0.083603,-0.069588,-0.22633,0.1395,-0.29158,-0.20341,-0.11258,-0.010961,-0.39677,-0.48463,0.089405
black,-0.26273,-0.476,0.61217,0.15229,-0.023046,-0.15565,-0.18094,-0.25446,0.07999,-0.53138,0.12309,-0.41224,-0.54298,-0.27926,-0.01399,-0.24976,0.0058219,-0.15757,0.097478,-0.064917,0.39467,0.028113,-0.287,-0.17618,-0.49074,0.19458,0.50236,0.50052,-0.23666,-0.18846,-0.43486,0.21671,-0.217,-0.03182,-0.38982,0.11174,0.10642,0.37549,0.25082,-0.21795,0.27915,-0.0010167,-0.052214000000000003,-0.18164,0.41433,0.29388,-0.099579,0.6448,-0.26208,0.16768,0.40577,0.4944,0.22858,-0.39369,0.016821,0.11077,-0.15029,0.29267,0.176,-0.38907,0.10376,-0.4995,0.022578,-0.2546,0.091018,-0.34067,-0.23356,0.33017,-0.61666,-0.18083,-0.28087,0.11701,-0.065524,-0.27168,-0.066344,-0.21384,0.29728,-0.31926,0.20232,-0.12941,-0.21544,0.19819,0.54533,-0.19876,-0.22436,0.32045,-0.41512,-0.25583,-0.69701,-0.091024,0.25434,0.36662,0.65633,-0.17608,0.33522,-0.6212,0.58243,-0.42108,-0.54944,-0.26179
single,-0.36005,-0.27551,0.012022,0.3575,0.043165,0.30607,-0.16298,-0.24428,0.60402,-0.62087,-0.15248,-0.20344,-0.021733,0.52019,-0.044465,0.070877,-0.28641,0.29645,0.25912,-0.20739,0.15196,0.12487,-0.12836,0.01873,0.0075036,0.12673,0.056217,0.50485,0.18133,-0.29514,-0.20869,0.0061359,0.022269,-0.23533,-0.31701,-0.23786,-0.1814,0.022435,-0.1114,-0.29609,0.41122,0.12842,-0.1408,0.020452,-0.1384,-0.033075,-0.2422,0.025826000000000002,0.119,-0.0099237,0.23432,0.4257,0.15306,-0.34758,0.16496,-0.29457,0.0016431,-0.058951,0.58223,-0.086302,0.090363,-0.14466,0.51305,-0.17694,-0.082489,-0.087319,-0.042553,-0.014149,-0.028258,-0.11419,-0.08742,0.26446,-0.10156,0.22225,0.097944,0.1556,0.19507,-0.09662,-0.22807,0.076572,-0.084999,0.25956,0.1772,0.081658,-0.65975,0.17938,0.14811,0.13364,-0.38369,-0.039307,0.14187,0.070964,0.1522,-0.23072,-0.42701,-0.17183,-0.19625,-0.30433,-0.012949,0.09573
short,-0.18781,-0.1817,-0.14741,0.30044,0.3718,0.099194,-0.46305,0.38578,0.50517,-0.32643,0.098042,-0.079094,-0.14772,-0.12205,0.23315,0.35988,-0.075955,0.060389,0.28677,-0.43813,0.14558,0.05375,-0.72433,-0.11674,-0.0066324,-0.34432,-0.034054,0.15677,-0.41714,-0.34229,-0.38991,0.10582,0.1332,0.43532,0.018415,-0.44022,0.14696,0.24384,0.37103,0.20219,-0.0053823,0.17258,0.12512,0.096046,0.25202,0.042309,-0.22944,0.11128,-0.22278,-0.05834,0.12107,0.51513,0.06697,-0.21998,0.052378,-0.10962,0.37351,0.21495,-0.20695,0.30672,0.22871,-0.021713,0.36156,-0.16827,0.20023,0.031963,0.02077,0.14159,-0.068504,-0.097146,-0.052183,0.18131,-0.029039,0.085162,0.089796,-0.11479,-0.082036,0.19869,0.29168,-0.21526,-0.21813,-0.0065386,0.2476,-0.21041,-0.12321,0.33762,0.0034131,0.0064218,-0.41479,-0.26268,0.087488,-0.36121,0.34354,-0.058391,-0.21426,-0.42796,-0.47142,-0.67684,-0.18443,0.32664
little,-0.13167,-0.31079,-0.071772,0.024969,-0.0058967,-0.068863,-0.26584,-0.13112,0.442,-0.25935,-0.14002,-0.24963,-0.2458,-0.039611,-0.016249,0.0916,0.087367,0.26198,0.16721,0.12316,0.59424,0.0049743,-0.6286,-0.1948,-0.075375,-0.060182,-0.011449,0.17268,-0.20225,0.10466,-0.41771,0.46337,-0.37252999999999997,0.043906,0.1928,-0.083953,0.40823,0.11115,0.27825,0.21116,-0.25401,-0.12508,-0.098666,-0.0066667,0.58289,0.12366,-0.11506,0.24844,0.15004,-0.22899,0.3338,0.53403,0.14138,-0.30876,0.12658,0.0028715,0.33321,-0.081985,0.20138,-0.023315,-0.22216,-0.30917,0.0063824,-0.38304,0.066673,-0.075078,-0.075515,0.08243,-0.5017,-0.080976,0.01236,0.22446,0.073046,0.30289,-0.1472,-0.083479,0.057604,-0.033135,-0.092571,0.050329,0.060149,0.009963,0.089961,0.38569,-0.091565,0.26563,-0.035159,-0.097288,-0.53119,-0.12507,0.076731,-0.11124,0.18598,-0.023597,-0.22128,-0.1453,0.16133,-0.45027,-0.13217,0.24647
red,-0.33135,-0.18435000000000001,0.33826,0.87073,-0.23476,-0.26864,-0.040172,-0.21618,0.51471,-0.48962,-0.14076,0.40865,-0.73643,-0.11864,-0.035195,-0.058167,0.13467,-0.29562,0.074709,-0.088752,0.39877,-0.012702,-0.52721,0.25922,-0.29607,0.29209,0.17264,0.28819,0.034788,-0.080178,-0.49215,-0.051978,-0.11843,0.32012,-0.07423,-0.17873,0.25999,0.2709,0.72767,0.27899,0.024749,0.088187,-0.50829,0.047758,0.76411,0.10978,-0.056139,0.2428,-0.19493,0.52857,0.35511,0.19006,0.044727,-0.49104,-0.0011257,0.31573,0.27983,0.19774,0.23138,0.067423,0.40642,-0.72587,0.13575,-0.50946,0.0056569,-0.21682,-0.16657,0.51139,-0.9073,-0.10739,-0.45378,0.053394,-0.14481,-0.43993,0.18213,-0.2036,0.37872,-0.25989,-0.15786,-0.42934,-0.56542,-0.021747,0.49311,-0.068947,-0.33765,0.42695,0.13237,-0.31619,-0.36468,0.17919,-0.027998,0.57731,0.43941,-0.091048,0.24281,-0.36857,0.095407,-0.24031,-0.39324,-0.1441
body,-0.17629,-0.17562,0.22145,-0.23453,0.14086,0.40481,-0.27378,0.12124,0.55051,-0.010897,0.099538,-0.071586,-0.66156,0.031948,0.20013,8.5777e-5,0.021037,0.25947,0.21763,-0.19978,-0.027928,0.011987,-0.12318,-0.0097174,-0.11519,0.026366,-0.057827,0.26783,0.032947,-0.079841,-0.010354,0.22295,-0.54397,-2.3609e-4,-0.22323,0.083315,0.30317,0.065413,-0.11298,0.089632,0.016477,0.095261,0.067353,0.42322,0.16564,-0.44358,-0.0021557,-0.069521,-0.41305,-0.30689,0.26459,-0.13731,-0.07654,-0.41386,0.08297,-0.19537,-0.37442,0.030894,0.28891,0.29808,-0.01719,-0.29841,-0.20845,-0.73436,0.33372,0.076925,-0.45853,-0.15453,0.068965,-0.85413,-0.17418,0.012212,0.37686,-0.4644,0.11567,0.14054,-0.28715,0.07409,-0.18921,0.028362,-0.37293,0.45591,0.28831,-0.059519,-0.2448,0.297,0.22603,0.48445,-0.52754,0.090287,-0.10607,0.090993,0.020879,-0.39142,-0.02019,-0.58952,0.26217,-0.13242,-0.083725,-0.12833
light,-0.25016,-0.40202,0.42761,0.59615,-0.42268,0.0091099,-0.40431,-0.35754,0.14801,-0.70561,-0.2869,0.030913,-0.21759,0.077438,0.13975,-0.022568,-0.046559,-0.14167,0.24413,-0.33118,-0.11054,0.20257,-0.46953,-0.16079,-0.65963,0.4207,0.27897,0.66312,-0.21609,-0.2706,0.16629,-0.30178,-0.067095,0.13883,-0.068146,0.075949,0.054097,0.64201,0.30824,0.33663,-0.3479,-0.052116,-0.19602,0.37298,0.4908,-0.11569,0.017565,0.043191,-0.5022,-0.085938,0.084954,0.39112,-0.14485,-0.22378,-0.19815,-0.4124,-0.0041861,-0.36355,0.50313,0.055156,0.088958,-0.65244,0.47847,-0.44092,0.047657,0.068192,-0.44463,-0.0037812,-0.51613,-0.15163,-0.23112,0.1984,0.31615,-0.13108,-0.092238,0.028754,-0.14795,0.060161,0.070972,-0.16876,-0.28341,-0.26008,0.013129,-0.24964,-0.31933,0.16182,0.45465,0.040774,-0.23571,-0.090891,-0.094135,0.10254,0.079703,-0.033764,0.21102,-0.18401,0.0056275,-0.32237,-0.36949,0.2384
standard,-0.29677,-0.35798,0.10405,0.39407,0.12979,-0.081897,-0.029526,-0.067521,0.19644,-0.12314,0.261,-0.11192,-0.29651,-0.13563,0.080637,-0.17664,0.023657,-0.089085,0.058626,-0.16652,-0.29894,-0.11913,-0.42323,-0.1888,0.33247,0.0076722,-0.23629,0.50863,-0.19482,-0.42792,-0.041983,0.38665,-0.25901,-0.35447,-0.23833,-0.041253,0.21429,0.11414,-0.023881,-0.247,0.25424,-0.14088,-0.557,0.34928,0.29216,0.19495,0.31276,-0.023409,0.16328,0.23661,-0.10215,0.28324,0.36228,-0.057241,0.34415,-0.45155,0.40303,-0.0024102,0.36889,0.39686,0.058563,0.046985,0.43405,0.12289,-0.22667,-0.11336,-0.38221,-0.12498,-0.4113,0.0098356,-0.072809,0.016462,0.24896,-0.044817,-0.23902,0.21258,-0.25598,0.23761,0.2084,-0.11485,-0.1859,-0.10101,-0.20669,-0.29237,-0.38763,0.27821,0.08353,-0.31515,-0.3058,-0.0014297,-0.12543,-0.0063727,0.033313,-0.10261,-0.063885,-0.45097,0.093583,-0.40906,0.21538,0.34055
hand,-0.17834,-0.31046,0.1315,0.5073,-0.067401,0.51062,0.034687,-0.1261,0.33303,-0.016312,0.15745,-0.043567,-0.15491,0.075604,0.31598,0.39802,0.016873,0.19421,-0.26658,0.12335,0.57773,-0.086771,-0.22917,-0.059926,0.27258,0.27389,-0.023474,0.3557,0.19029,0.097887,-0.16566,0.065964,-0.49656,-0.048889,-0.16829,0.34335,-0.01719,-0.03604,-0.12025,-0.025284,0.044271,0.26581,0.095956,0.026829,0.05283,-0.16915,0.092822,0.04922,0.05411,-0.086844,-0.08253,0.43604,0.052189,-0.33665,2.2496e-4,-0.15928,0.21701,0.18266,0.64045,0.20274,0.40554,-0.091231,0.10791,-0.20305,0.42873,-0.06025,-0.41333,-0.28083,0.0039261,-0.44653,-0.13022,0.16795,0.28236,-0.24784,0.041886,-0.36005,-0.2672,0.10726,0.22876,-0.078747,0.062219000000000003,0.31874,0.21157,0.021146,-0.073956,0.22328,0.061815,0.19084,-0.11326,0.0078297,-0.060101,0.15136,0.10145,-0.16996,0.1199,-0.55675,0.064733,-0.0048418,-0.068978,0.30688
low,-0.34123,-0.22443,0.24976,0.068696,-0.19945,-0.11458,-0.47594,-0.13082,0.35745,0.0085079,0.24023,-0.16284,-0.45491,-0.17416,0.051129,0.099947,-0.065144,-0.31618,0.16947,-0.19512,0.31895,0.32619,-0.64705,-0.065063,0.049058,0.01735,-0.3295,0.69762,-0.25379,-0.23058,-0.14116,0.33368,-0.078489,-0.042631,-0.47212,-0.12985,0.1538,0.40863,-0.11679,-0.17548,-0.086426,-0.0037632,0.15699,0.31828,0.40106,-0.030326,-0.12503,0.12233,0.22507,0.055117,-0.063826,0.24945,0.21033,0.27468,0.22219,0.059847,-0.029604,-0.17979,0.42024,0.32283,0.52451,-0.1918,0.61536,-0.18,-0.019557,0.020398,0.42743,-0.154,-0.34211,-0.12183,-0.16381,0.10161,0.0050544,0.24456,-0.49327,-0.036681,-0.018104,0.50152,0.048062,0.061379,0.34768,-0.52777,0.30087,0.15481,-0.5317,-0.1666,-0.043456,0.35149,-0.38114,0.013746,-0.2108,-0.31128,0.1076,-0.55931,-0.052994,-0.14525,0.25958,-0.4969,-0.32021,0.15011
strong,-0.3723,-0.23308,0.042008,0.22675,-0.097627,0.048151,-0.37075,-0.1131,0.14584,0.23025,-0.11783,-0.20726,-0.36114,0.23825,-0.019897,0.23324,-0.056137,0.095458,0.55465,-0.34693,0.56721,0.028849,-0.39189,-0.16502,-0.10204,0.283,-0.22843,0.12956,0.10395,0.068346,-0.10002,0.36933,-0.31663,0.017734,-0.21506,0.094765,0.082989,0.043021,-0.20447,0.073747,0.023151,-0.11278,-0.33078,0.30631,0.64451,0.14542,-0.36305,0.079315,-0.058858,-0.063957,0.46067,0.30355,0.042518,0.075686,-0.07742,-0.35339,0.2898,-0.097621,0.029557,0.060322,0.034429,-0.02946,0.076311,-0.46366,0.17945,-0.38715,-0.28769,-0.24511,-0.037654,-0.07264,-0.31151,-0.15328,0.19276,0.14652,-0.055172,0.022091,-0.015369,0.22265,-0.13996,-0.15348,0.19276,-0.46622,0.35022,0.2745,-0.27012,-0.23696,0.031495,0.41327,-0.22973,-0.19199,-0.052227,0.22662,0.3974,-0.087736,0.020929,-0.31548,0.052094,-0.23806,0.03049,0.30561
blue,-0.18546,-0.41785,0.30709,0.56676,-0.21143,-0.20373,-0.27453,-0.29959,0.24941,-0.36793,-0.22348,0.17515,-0.59837,0.013971,-0.078352,-0.1916,0.0091525,-0.21982,-0.066889,-0.2056,0.16319,-0.13829,-0.48609,0.12336,-0.57632,0.17566,-0.098153,0.63663,-0.15209,-0.0681,-0.39117,-0.020929,-0.03923,0.015703,-0.064824,-0.23663,0.049544,0.47244,0.5227,0.21608,0.15244,-0.13989,-0.1809,-0.20137,0.62319,0.082922,0.0080717,0.45425,-0.19732,0.22757,0.042044,0.091911,0.13517,-0.53364,-0.26315,0.17391,0.4657,0.17195,0.30485,-0.18679,0.080418,-0.57166,0.35232,-0.38849,0.00133,-0.33887,-0.38129,0.35574,-0.91762,-0.021519,-0.35324,0.0365,-0.1021,-0.018089,0.41851,-0.046513,0.1553,-0.21916,-0.0032421,-0.21231,-0.10963,0.083772,0.20874,-0.29567,-0.35815,0.23933,0.26528,-0.17602,-0.62978,0.40499,0.21686,0.55508,0.36525,-0.07033,0.048252,-0.43481,0.36952,-0.4985,-0.46229,-0.30927
big,-0.15506,-0.33052,0.15977,0.12771,-0.10177,-0.47192,-0.15145,-0.13046,0.48814,-0.54503,-0.048788,-0.15126,0.23001,-0.11705,-0.29356,0.3054,0.15877,0.12773,0.019319,0.25712,0.44864,-0.1336,-0.30139,-0.18001,0.14834,0.056256,0.38352,0.2838,-0.13312,0.14219,-0.59787,0.25492,-0.35917,0.0032621,-0.096411,0.0030048,0.042283,0.1201,0.16058,-0.12279,0.22374,-0.086056,-0.20961,0.12312,0.77763,0.16882,0.049592,0.26788,-0.041226,-0.076524,-0.196,0.23377,0.031179,-0.56029,0.28413,-0.037166,0.46782,0.035812,0.024505,-0.11808,-0.11337,-0.29035,0.46001,-0.41939,-0.058224,0.10581,-0.057698,0.14928,-0.27072,-0.32681,-0.35987,0.055236,-0.17222,0.18267,0.07272,-0.25899,-0.091237,0.079816,0.14411,-0.143,-0.032322,0.085295,0.092667,0.2283,0.14375,0.07561,0.14487,0.14629,-0.76875,-0.17391,-0.08953,-0.23497,0.20465,-0.099772,-0.32918,-0.58256,0.0657,-0.25189,0.14443,0.20241
features,0.13396,-0.032478,0.27435,0.29615,0.31662,-0.19739,-0.29997,-0.25932,0.24361,-0.42288,-0.15417,-0.082262,-0.12656,0.19326,-0.35572,0.20122,-0.19768,-0.37852,0.07159,-0.017407,0.15426,0.09331,-0.63848,-0.29744,0.33337,-0.079418,-0.23573,0.29702,-0.28324,-0.26254,-0.23079,0.47879,-0.64848,-0.15072,-0.15557000000000001,-0.22149,0.21434,0.22294,-0.27997,0.12076,0.3891,-0.13314,0.013558,0.58167,0.37859,-0.15819,0.25228,-0.24894,0.12545,-0.082165,-0.030512,-0.21741,0.15701,-0.29825,-0.11533,-0.088918,0.15168,-0.01792,0.20665,0.062941,0.1273,0.088322,0.26621,-0.20816,-0.15603,-0.38632,-0.23225,-0.021278,0.0034095,-0.12713,0.18941,0.0026732,-0.006317,-0.1187,0.35363,-0.079998,-0.028332,-0.17732,0.023403,-0.14031,-0.060487,-0.13221,0.4042,0.097059,-0.33719,0.38914,0.35979,-0.094653,-0.39051,-0.19293,0.30242,0.13592,-0.045027,0.069393,-0.1615,-0.12586,0.21641,-0.27948,-0.017655,-0.069434
ground,-0.071229,-0.46586,0.50385,0.28647,-0.15526,0.096858,-0.32816,-0.47003,0.91975,-0.37246,0.12081,0.36346,-0.60312,-0.25404,0.16225,0.19748,-0.10628,-0.1277,-0.17063999999999999,-0.23807,0.41792,0.25086,-0.49613,-0.050924,-0.0029873,0.024949,0.049714,0.17681,0.074935,0.065018,-0.499,0.0028321,-0.25268,-0.17106,-0.2471,0.067309,0.13598,0.25471,0.0063284,0.17911,-0.20172,0.12718,-0.013529,-0.076757,-0.094964,0.17458,-0.010863,-0.18329,-0.2322,-0.10771,0.38396,-0.20959,-0.13333,0.0019321,0.10465,-0.12438,0.11882,-0.21552,0.38028,0.2124,0.2063,0.12846,0.029411,-0.42579,0.29512,-0.11078,0.054882,0.0016422,-0.49652,0.055081,-0.19722,0.21057,0.35044,0.0992,-0.28298,0.17794,-0.2906,0.22247,-0.19032,-0.48698,0.21284,0.11892,-0.012593,0.079625,-0.08405,0.013898,-0.124,0.29175,-0.18729,-0.1683,-0.037757,0.057655,0.33971,-0.31342,-0.29538,-0.56609,0.010199,-0.32128,-0.5803,-0.43048
larger,-0.044734,-0.30379,-0.039628,-0.16799,-0.0093595,0.25156,-0.41681,-0.21909,0.41156,-0.035118,0.4106,-0.014865,-0.29818,-0.11108,-0.27919,0.048934,0.1693,0.58703,0.3542,-0.079037,0.16775,-0.085717,-0.71946,-0.55757,0.11133,0.47197,0.079984,0.14697,-0.072403,-0.095577,-0.38275,0.18281,-0.16196,-0.24194,-0.1491,0.0012694,0.24853,0.12166,-0.2891,-0.048839,-0.078386,-0.12098,-0.042251,0.24455,0.41435,-0.041017,-0.17472,-0.086863,-0.095963,-0.13764,-0.20714,0.2053,0.22051,-0.15838,-0.071152000000000007,-0.029377,0.25637,-0.14958,0.34139,-0.0088711,0.16303,-0.30897,0.65697,-0.19834,0.060374,0.12941,0.17363,0.18602,-0.20946,-0.4541,0.21696,-0.20471,0.27687,0.02362,0.11141,0.24281,0.27711,-0.06896,-0.11114,-0.23976,-0.34368,0.026212,0.035293,0.39207,-0.69943,0.22083,0.33071,-0.038719,-0.44558,-0.21478,-0.20773,-0.084133,0.33049,-0.20116,-0.096027,-0.075985,0.2742,-0.24889,-0.33384,0.090871
wide,0.055236,-0.3039,0.1951,0.35568,0.14176,0.48427,-0.34078,-0.60899,0.56994,-0.031899,0.056709,-0.24007,-0.099391,0.061559,-0.25161,0.10471,-0.13499,0.14051,0.0091051,-0.26847,-0.14868,0.050054,-0.46751,-0.27224,-0.17477,0.25193,0.21544,0.16579,-0.27221,-0.50011,-0.32909,0.25017,-0.029219,0.086614,-0.07371,0.21725,0.37218,0.084366,0.23689,-0.11279,0.064991,0.1079,0.067068,0.86002,0.46008,-0.0068278,-0.30637,0.14334,-0.14236,0.18578,0.057473,0.29296,-0.081424,-0.2813,0.077383,-0.027732,0.22431,-0.0045771,0.14592,-0.009204,-0.18229,0.4762,0.3338,-0.24817,0.16144,-0.063361,0.24883,0.048329,-0.048233,-0.31659,-0.060044,0.19794,-0.18296,-0.14794,-0.01581,0.057096,-0.47913,0.43481,0.038763,-0.34275,-0.021898,-0.6069,0.2264,0.22718,-0.3564,0.28817,0.29738,-0.084314,-0.29574,-0.030728,0.10001,-0.34976,0.33272,-0.11085,-0.21981,-0.33984,0.37314,-0.48991,-0.16766,-0.024649
gold,-0.12551,-0.6916,0.39208,0.28629,-0.096746,-0.099912,-0.12829,0.10788,0.5887,7.5054e-4,0.022711,0.07306,0.093133,-0.29089,0.0041511,-0.87426,-0.0088847,0.27621,-0.45119,-0.0059496,0.68783,0.13495,-0.685,0.11466,-0.19849,0.31551,0.025116,0.55631,-0.42241,-0.13162,-0.28224,-0.1802,-0.22844,0.13099,-0.36155,-0.32245,0.21354,-0.057053,0.55964,0.39554,0.55567,0.11845,-0.35071,0.052915,0.65144,0.2409,-0.2359,0.45122,0.27108,-0.16289,0.15679,0.21773,-0.074921,0.035904,-0.36553,0.12634,0.33729,0.017192,0.29703,0.026756,0.74617,-0.17627,0.058467,-0.22489,-0.18993,0.0028332,-0.3567,0.13299,-0.20103,0.325,-0.36516,0.47933,-0.1557,-0.31126,-0.16232,-0.20051,-0.33554,-0.22575,0.16986,-0.074501,0.29039,0.25961,0.095127,-0.11202,-0.34293,0.43047,0.045429,-0.26872,-0.40513,0.22226,0.7311,-0.10104,0.13778,-0.42918,0.53755,-0.54637,0.50523,-0.037236,0.53696,0.10132
square,0.12235,-0.34429,0.46688,-0.012592,-0.2203,0.46953,-0.11065,-0.52411,0.50382,-0.19269,-0.33842,0.21094,-0.15185,0.29794,-0.41501,-0.10877,0.35356,0.29458,0.21101,-0.31199,0.39354,0.36345,-0.81231,-0.28776,0.2197,0.014078,0.22018,-0.055938,-0.10065,0.35142,-0.475,0.049132,0.082422,-0.61415,-0.65106,0.14151,-0.038083,-0.18222,0.27227,-0.21267,0.43581,-0.39233,0.088638,0.2707,0.48986,-0.24975,-0.051461,-0.047703,-0.14619,-0.12599,-0.11566,-0.059287,0.021732,-0.17655,-0.0053328,-0.057811,-0.033461,-0.23176,0.50226,-0.61371,-0.075493,0.52873,0.4234,-0.23586,0.027295,0.13708,0.069559,0.088861,-0.52877,-0.2626,0.038999,0.068235,-0.072337,-0.87116,0.087438,-0.17923,0.14427,0.66829,0.20994,-0.66536,-0.56405,0.10941,-0.43242,0.2091,-0.30866,0.79458,-0.14851,-0.40897,-0.44013,0.26751,0.17736,0.21435,0.2413,-0.13055,-0.13584,-0.32677,0.008839,0.38636,-0.5529,0.25675
course,0.097015,-0.2242,-0.14079,-0.028642,-0.057941,0.14268,-0.061835,-0.34861,0.52018,-0.30131,-0.11562,-0.058548,0.099826,0.13475,-0.086269,0.031465,-0.020551,-0.099352,-0.18424,-0.15518,0.35989,-0.18399,-0.36297,-0.23122,0.11405,-0.073167,-0.15129,0.24428,-0.25383,0.047727,0.21549,0.15633,-0.10835,-0.24009,-0.076275,-0.17365,0.074566,0.2042,0.036418,-0.02501,-0.055454,-0.12235,-0.095292,0.32587,0.10651,0.034136,0.10177,0.045793,-0.41059,0.067718,0.16463,0.17093,-0.19967,-0.31287,0.076508,0.35449,0.14055,-0.0033918,0.33063,0.28909,-0.0077505,0.08768,-0.10481,-0.35424,0.19569,-0.053169,-0.36398,-0.076782,-0.088613,-0.22443,0.31788,0.20047,0.23476,-0.10498,-0.14123,-0.27749,-0.30363,0.22098,0.40333,-0.0031251,0.040606,-0.10965,0.29608,0.18902,0.021647,-0.20235,0.068314,-0.028405,-0.29495,-0.11169,0.10947,0.21841,-0.066317,-0.21262,-0.050777,-0.48056,-0.081248,-0.23983,-0.26146,0.35398
brown,-0.091362,-0.28312,0.30476,0.38421,0.061091,-0.20415,-0.17359,-0.23057,0.23814,-0.31126,-0.36305,-0.19806000000000001,-0.65599,-0.45613,0.090886,-0.0079209,0.085702,0.1755,-0.082672,0.12854,0.22494,0.15652,-0.36144,0.40155,-0.57144,0.05984,-0.21694,0.23268,-0.63163,-0.25014,-0.24013,0.13117,-0.33051,-0.32404,0.0027591,-0.094554,0.51136,0.27935,0.70612,0.3898,0.035804,-0.113,-0.021598,0.22254,0.41823,0.29113,-0.076551,0.33691,-0.54982,0.021786,0.3187,0.62501,-0.010449,-0.67188,-0.14207,0.080102,0.30483,0.38168,0.18408,-0.20174,-0.092989,-0.34561,0.16121,-0.58041,-0.057337,-0.507,0.12958,0.38672,-0.62474,-0.12759,-0.61908,0.18044,-0.19639,0.068669,0.22034,0.1311,0.21296,-0.11159,0.14211,-0.25387,-0.12407,-0.055955,0.41338,-0.34337,-0.16331,0.029869,-0.3454,-0.13807,-0.35121,-0.17383,0.003719,0.17455,0.61587,-0.075568,-0.18471,-0.51981,0.26888,-0.56014,-0.22259,-0.20299
round,0.54865,-0.41963,-0.004305,0.46151,-0.152,-0.029227,-0.36544,-0.21633,0.69263,-0.71005,0.022455,0.071838,-0.17186,-0.29145,-0.091305,-0.14793,0.16852,0.48519,-0.43225,-0.14228,0.42305,0.067288,-0.26318,-0.05567,0.12266,-0.038831,-0.084997,0.20042,-0.064316,-0.13745,-0.18132,-0.11448,0.11153,-0.28321,-0.37422,0.081864,0.10156,0.14315,-0.076035,0.082285,0.16917,-0.039807,0.2191,0.47862,-0.0040447,0.89576,-0.35437,0.12592,0.27906,0.14706,0.037738,0.41038,-0.43028,-0.35816,-0.15389,-0.30613,0.39816,0.45401,0.52451,-0.10205,0.42631,-0.19282,0.014389,-0.37416,0.015646,0.30021,-0.1332,0.20953,-0.23193,-0.34311,-0.48205,0.45256,0.011562,-0.084747,0.037023,0.042614,-0.24965,0.55982,-0.024417,-0.37148,-0.078961,0.32014,0.019376,0.29668,-0.36736,0.1029,0.58721,-0.18113,-0.22149,-0.18842,0.019914,-0.2082,0.35601,-0.072249,-0.16864,-0.70679,-0.047712,-0.012466,-0.41931,0.37584
arms,-0.23495,-0.48335,-0.18286,0.92689,0.33545,0.11594,-0.26164,-0.070665,0.3387,0.16209,-0.10441,-0.11095,-0.17196,-0.40867,-0.2371,-0.076079,0.51499,0.42642,0.17206,0.16219,0.41317,-0.266,-0.74327,-0.085173,-0.47753,0.45301,0.19214,0.11812,-0.12402,0.37964,0.040302,0.28684,0.072368,0.4821,-0.3045,0.27841,0.46932,-0.25564,0.0074523,0.16111,0.3729,-0.10623,0.27702,0.27332,0.19674,-0.51926,0.079763,0.118,-0.026039,-0.31451,0.26781,-0.31986,0.34055,-0.58987,0.068111,0.10535,0.56493,0.33036,0.5908,0.11934,0.053895,-0.2904,0.24331,-0.43127,0.57413,0.072563,-0.41838,0.22473,0.23567,0.029172,-0.08561,-0.022832,0.3332,-0.33934,-0.5108,-0.20991,0.10412,-0.059092,0.16627,-0.48385,-0.5344,0.19227,0.04232,0.176,-0.2285,0.45898,0.43961,0.20151,-0.52873,0.40178,-0.42358,0.087558,-0.0075904,-0.28476,-0.049477,-0.13042,0.18601,0.1689,-0.22912,0.11168
dark,-0.39891,-0.040763,0.43562,0.45674,0.031605,0.073711,-0.29255,-0.10546,0.04665,-0.68743,0.024621,0.018719,-0.49341,-0.042063,0.029338,-0.098344,-0.13363,-0.25038,0.36447,-0.021603,0.45812,-0.095431,-0.44445,-0.019511,-0.72019,0.055756,0.0074692,0.60953,-0.034861,-0.29082,-0.030404,0.17175,-0.47715,0.069749,-0.18888,-0.54925,0.26146,0.61515,0.20931,0.45062,0.18442,0.29551,0.3494,0.35528,0.61526,0.052299,-0.24801,0.2983,-0.35961,0.018709,-0.17749,0.29797,-0.26761,0.1105,-0.16485,-0.34354,0.019423,0.029406,0.34403,-0.16025,0.010078,-0.34952,-0.01922,-0.034817,0.28072,-0.18074,-0.051113,0.069487,-0.53151,0.14583,-0.27201,-0.036754,0.072867,-0.22636,0.20053,-0.35835,0.24302,-0.15742,0.15436,-0.31339,5.66e-4,-0.090787,0.1349,-0.096138,-0.18953,0.32494,0.25363,0.12087,-0.51593,-0.20749,0.14262,0.45508,0.76426,-0.41597,0.12458,-0.65833,0.19028,-0.35237,-0.58417,-0.096079
scale,0.16404,-0.18098,-0.13137,-0.35861,0.0090827,-0.21746,-0.53135,-0.13926,0.7397,-0.39214,2.6795e-4,0.13309000000000001,-0.24546,0.34368,0.065768,0.037785,-0.10409,-0.20655,0.14682,-0.022286,0.094018,-0.35297,-0.35311,-0.16298,-0.097721,0.11205,0.13559,-0.015105,-0.49621,0.23414,-0.36001,0.62292,-0.057548,-0.51272,-0.34691,-0.12125,0.10709,-0.055177,-0.30533,-0.17055,0.24308,-0.058818,-0.35917,0.15105,0.42263,-0.31278,0.11271,0.29082,-0.26223,0.056864,-0.27593,0.092066,0.16088,-0.056146,-0.075152,0.14853,0.32899,-0.34877,0.83521,-0.11388,0.1623,-0.021658,0.473,0.17346,0.025751,-0.25481,-0.11551,-0.47738,-0.40157,-0.4177,0.14575,0.16129,0.2563,-0.026602,0.05718,-0.15909,-0.20934,0.21449,-0.067342,-0.30254,-0.45604,-0.397,0.018212,0.26799,-0.49058,0.56356,-0.33162,0.1181,-0.072357,0.059654,0.010403,-0.44249,0.27945,-0.29281,0.031079,-0.042338,0.047632,0.074196,-0.59011,0.18383
feet,0.41704,-0.64238,0.48272,-0.09806,-0.17836,0.45307,-0.31078,-0.15929,1.1358,-0.33516,0.1938,-0.24917,-0.37442,-0.28694,0.021949,0.28006,0.3178,-0.07711,-0.079764,-0.35503,0.49614,0.20754,-0.74391,0.091378,0.18443,0.17054,0.36395,0.12038,-0.58013,0.13323,-0.49597,0.044851,-0.0019251,0.16155,-0.15176,-0.11003,-0.16481,-0.052498,0.50248,-0.36002,-0.3516,-0.013314,0.66408,0.72329,0.047744,-0.17617,0.179,-0.12035,0.079051,0.27266,-0.0099735,-0.38757,0.48047,-0.17934,-0.034851,-0.40282,-0.10328,-0.15936,0.38786,-0.01817,0.2093,0.33379,0.027359,-0.74577,0.30434,-0.20727,0.62612,-0.4111,-0.39303,-0.27132,-0.1259,0.48777,0.11846,-0.49717,0.19996,-0.017122,-0.42789,0.12132,-0.029271,-0.27316,0.068673,-0.075003,-0.14255,0.27208,-0.4536,0.66457,0.20787,0.02647,-0.62294,-0.01814,-0.030294,-0.12925,0.10624,-0.37337,-0.70356,-0.8114,0.40417,-0.16643,0.020069,0.14609
normal,-0.53593,0.039559,-0.04602,-0.33048,-0.28276,0.076194,-0.12642,-0.088081,0.1532,-0.02616,0.20782,-0.024592,-0.3188,0.020247,0.025964,-0.097998,-0.17887,-0.0055033,0.30303,-0.31408,0.19797,-0.052702,-0.27523,-0.10714,0.45607,0.025734,-0.41347,0.4452,-0.031681,-0.22553,0.023888,0.3326,-0.16836,-0.061197,-0.26339,-0.29613,0.29647,0.16474,0.077645,0.042282,0.10358,-0.29944,-0.024511,0.12934,0.10275,-0.3502,0.3487,-0.097601,-0.30716,0.062743,-0.043013,0.05295,-0.27222,-0.16069,0.25775,-0.0037082,-0.17791,-0.014995,0.2702,0.081691,0.23143,-0.30354,0.53699,-0.48591,0.22139,-0.16694,0.037976,0.21772,-0.51889,-0.56519,0.11748,0.24773,0.29433,-0.22646,-0.20299,0.23141,-0.18821,0.3001,0.17133,-0.10993,-0.14233,0.14909,0.39403,-0.14748,-0.60328,0.31954,0.036375,0.093041,-0.26904,-0.10575,-0.192,0.20922,0.48252,-0.43647,-0.32837,-0.37904,-0.17647,-0.19416,-0.23264,0.21742
animals,0.16568,-0.19438,-0.18759,-0.086797,0.05572,-0.20258,-0.041088,-0.26076,0.71181,-0.20211,0.17299,-0.045562,-0.80018,-0.26266,-0.10996,0.62942,-0.099836,0.18592,0.31691,0.26106,0.021017,0.12057,-0.17916,-0.15428,0.15749,0.2567,0.26633,0.44016,-0.36937,-0.15654,-0.072726,0.077776,-0.32697,-0.0029028,0.50214,-0.23862,0.10465,0.23408,-0.080234,0.1658,-0.035735,0.077824,-0.52756,0.33908,0.23664,-0.74793,0.24058,-0.03401,-0.28011,-0.38247,-0.35955,-0.5066,-0.087134,-0.22663,-0.22329,0.073961,0.37284,0.016249,0.49971,-0.012313,0.51994,0.285,-0.12999,-0.97202,0.10074,-0.32177,-0.034917,0.027259,0.064432,-0.01695,0.011674,-0.026656,0.34689,-0.18089,-0.36027,0.34885,-0.16127,-0.20032,-0.040526,-0.011854,-0.23947,0.72228,0.47048,0.31385,-0.23637,0.25543,-0.14138,0.378,-0.44629,-0.61733,0.29451,-0.38205,0.42239,-0.51653,-0.191,-0.13888,0.2179,-0.2663,-0.16682,-0.17344
powerful,-0.27299,-0.53485,-0.056821,0.065461,0.073767,0.089502,-0.34782,-0.047498,0.035947,-0.030716,0.37272,-0.16038,-0.35753,0.25252,0.14314,-0.01724,0.053281,0.05592,0.57788,-0.14993,0.36111,0.23644,-0.45056,-0.50281,-0.26997,0.43277,0.13074,0.44058,0.40213,-0.074802,-0.14422,0.50573,-0.12172,-0.10989,-0.34284,0.31459,0.01942,0.31039,-0.60071,-0.080701,-0.040597,0.015774,0.060706,0.41984,0.56659,-0.075703,-0.22827,-0.5642,-0.078404,-0.078556,-0.24637,0.023504,-0.049615,-0.48538,-0.19539,-0.53681,0.50456,-0.13528,0.24213,0.415,-0.079031,-0.40315,0.097409,-0.086281,0.3415,-0.084798,0.18911,-0.31853,-0.19718,-0.3134,-0.19076,-0.4256,-0.0050134,-0.079135,0.17441,-0.13421,-0.17452,0.10873,-0.16353,0.21006,0.33036,0.17959,0.26797,0.35389,-0.045429,0.28111,0.041737,0.52785,-0.028263,-0.081015,0.16513,0.0044971,0.37897,-0.044335,-0.092083,-0.062823,0.21487,-0.26697,-0.066866,0.6742
hands,0.029051,-0.40635,0.11202,0.56647,-0.11729,0.61909,-0.16968,0.17154,0.38621,0.16739,0.14519,-0.10788,-0.20047,0.12497,0.3088,0.36696,0.2977,0.1835,-0.26588,0.17724,0.57903,-0.095383,-0.2745,-0.042239,0.040386,-0.048308,-0.053527,0.20191,0.27212,0.17784,-0.34581,0.31324,-0.34396,0.31099,-0.14486,0.15681,-0.061707,-0.084653,-0.28996,0.11972,-0.075715,0.23385,0.16187000000000001,0.082985,0.25504,-0.14277,0.088302,-0.23919,-0.33969,0.042465,-0.07833,0.095512,0.079459,-0.43053,0.0038378,-0.20506,0.12896,0.31005,0.57815,0.13252,0.37936,0.0022092,-0.09394,-0.54133,0.4626,-0.013498,-0.12984,-0.14716,-0.091035,-0.22465,-0.51751,0.23929,0.20336,-0.30577,-0.19188,-0.30209,-0.33675,0.24675,0.087613,0.084773,0.0032073,0.41714,0.16469,0.16394,0.056546,0.23623,0.055515,0.28575,-0.30336,-0.12667,0.034222,0.29066,-0.049714,-0.29376,0.079852,-0.45692,0.24455,0.091759,-0.19989,0.47156
animal,-0.30084,-0.18871,0.16232,-0.023213,0.13109,-0.28141,-0.020498,-0.11056,0.70601,-0.018458,0.070233,-5.6019e-4,-0.63294,-0.29873,-0.21856,0.46502,-0.11277,0.35029,0.42706,0.25292,0.1116,-0.0085777,-0.057592,0.013949,0.18019,0.10076,0.29124,0.42194,-0.30131,-0.2129,0.061141,-0.040643,-0.30386,-0.0081417,0.31996,-0.078667,-0.039025,-0.012555,0.12655,0.02786,0.083045,0.032668,-0.4498,0.29201,0.1675,-0.67967,0.1111,-0.06081,-0.34855,-0.49517,-0.1217,-0.19328,0.19825,-0.33558,-0.014880000000000001,0.0080566,0.26844,0.0030578,0.50402,0.14741,0.25448,0.15096,-0.21847,-1.0671,0.29593,-0.45913,-0.18234,-0.048207,0.082273,-0.142,0.0011632,-0.097146,0.1179,-0.23201,-0.27969,0.27271,-0.27183,-0.20691,-0.040108,0.039222,-0.44378,0.4066,0.54196,0.24526,0.0098037,0.23457,-0.14129,0.23758,-0.37343,-0.54111,0.28409,-0.36281,0.71613,-0.62332,-0.083932,-0.3112,0.079801,-0.17311000000000001,-0.27217,-0.31424
horse,-0.38596,-0.26257,-0.30269,0.34527,0.038398,0.090202,0.10799,-0.042522,0.82995,-0.06879,0.022443,0.23302,-0.56288,-0.76348,-0.17392,-0.10297,-0.16078,-0.16281,0.2107,-0.0063419,0.49039,0.11387,-0.66088,0.0078311,-0.41104,0.16046,0.27523,0.29282,-0.33127,0.53769,0.072358,-0.36058,-0.51995,0.19688,0.191,-0.045201,-0.28627,0.057446,0.04753,-0.098209,0.18115,-0.12338,-0.08625,0.43411,-0.25394,0.49349,-0.15391,0.021248,-0.058076,-0.30082,-0.16754,-0.042467,-0.0068822,-0.58779,-0.1232,-0.35826,0.3553,-0.034642,0.56629,0.42097,0.19764,0.083693,-0.014965,-0.71737,0.093372,-0.34454,-0.64803,0.015541,-0.053785,0.26309,-0.0045712,0.28169,-0.18187,-0.39086,-0.50171,-0.10688,-0.066878,-0.40841,0.07726,-0.19383,-0.19405,0.52928,0.10262,0.082736,0.10851,0.27554,0.44822,0.011305,-0.36447,-0.2319,0.49173,-0.13131,0.42819,-0.44202,0.11679,-0.40448,-0.32161,-0.43802,-0.36878,0.29889
yellow,-0.33035,-0.34667,0.19068,0.81021,-0.3026,-0.17992,-0.26659,-0.50082,0.42909,-0.33632,-0.23812,0.16935,-0.94405,-0.30628,-0.10997,-0.30857,0.070196,-0.19299,-0.066203,-0.42423,0.19262,-0.15435,-0.28069,-0.029949,-0.8349,0.038219,-0.15463,0.41462,-0.014608,-0.36378,-0.45446,0.16607,-0.22778,-0.063372,-0.0056516,-0.15165,0.027026,0.56179,0.64903,0.21399,-2.9206e-4,0.21547,-0.20593,-0.2275,0.63266,-0.15076,-0.16141,0.47157,-0.21981,0.24658,0.19142,0.40737,0.17027,-0.60452,-0.42471,0.38866,0.27362,0.34698,0.13542,0.069292,0.084396,-0.51381,0.23006,-0.35177,0.093393,-0.40718,-0.45643,0.47492,-0.86168,-0.058844,-0.44552,0.20489,0.059186,-0.14768,0.19533,-0.35535,0.3278,0.038033,0.23686,-0.11817,0.037568,0.16262,0.23086,-0.39817,-0.53955,0.565,0.32676,-0.51561,-0.26316,0.28377,0.40701,0.11922,0.79076,-0.31407,-0.11884,-0.17456,0.37185,-0.25243,-0.59854,-0.14803
orange,-0.17936,-0.56867,0.54689,0.40561,-0.023129,-0.2034,0.048492,-0.47759,0.2903,-0.31413,-0.85933,0.063204,-0.50914,-0.31942,-0.10653,-0.3508,0.25945,0.10163,0.40552,0.20242,0.00983,-0.102,-0.67089,0.1299,-0.743,-0.014101,-0.33493,0.26855,0.20559,-0.28926,-0.20423,-0.14293,-0.084687,-0.26996,-0.38336,-0.45934,-0.11239,0.097413,0.48163,0.3617,-0.17446,0.15088,-0.14561,0.39359,0.69768,-0.10299,0.26235,0.14115,-0.32167,0.32679,0.11504,0.43813,0.064585,-0.51204,-0.41384,0.22422,0.35114,0.26557,0.1808,-0.22701,-0.0071419,-0.44912,0.51809,-0.49736,-0.046954,-0.066794,-0.26639,0.51784,-0.70019,-0.094331,-0.28034,-0.047108,0.17307,0.13419,0.16789,-0.15122,1.0241,0.2922,0.24617,-0.39645,0.030525,0.065475,0.037569,0.039092,-0.10338,0.07703,0.27822,-0.24477,-0.25026,0.29733,-0.043824,0.39267,0.15045,-0.54598,0.2547,-0.22563,0.29443,-0.47955,-0.37502,0.1317
fox,0.1176,-0.39831,-0.3134,0.45476,0.092089,-0.37108,0.0051584,0.04046,0.39305,0.10135,0.15239,0.10319,-0.054773,-0.063534,-0.313,0.44354,-0.44445,-0.48232,0.56113,0.081467,0.33989,0.34017,-0.52264,0.54211,-0.16977,0.52646,0.045425,0.44508,-0.57554,-0.19145,-0.29616,0.22865,-0.3953,-0.4676,0.22057,0.010243,0.056466,-0.16373,-0.042573,0.2684,-0.29045,-0.13949,-0.08348,0.42144,0.48853,0.62392,-0.006084,-0.0085669,-0.22208,-0.31616,-0.11171,0.088101,0.1074,-0.42955,0.076071,-0.088778,0.22609,0.45845,0.082333,-0.085919,-0.17818,0.10129,0.31575,-0.46081,0.21987,-0.18297,-0.10308,0.46652,-0.59016,-0.096933,-0.18482,0.26003,-0.30472,0.069668,0.39788,0.024915,0.1828,0.05083,0.37078,-0.2262,0.012367,0.10342,0.24941,0.52087,0.57613,0.24032,-0.15775,1.2342e-4,-0.64399,-0.29085,-0.049314,0.0081261,0.47895,-0.29536,-0.094087,-0.35925,-0.062616,-0.23549,-0.18659,-0.4725
fine,-0.4455,-0.011364,0.74632,0.0036953,0.12449,0.45085,-0.27264,-0.24171,0.42822,-0.0045199,-0.079708,-0.092044,-0.14125,0.10244,-0.023568,0.19264,0.12286,0.47847,-0.37904,-0.10449,0.18964,-0.11427,-0.46404,-0.015537,-0.2,0.10986,-0.14333,-0.044039,-0.30414,-0.10093,0.10146,0.43193,-0.67197,-0.45115,0.016593,-0.11729,0.032693,0.012984,0.29285,0.55282,0.22119,-0.17258,0.43586,0.15012,0.72569,0.071834,-0.079427,0.2559,-0.57194,-0.042582,0.3109,0.32329,0.064877,-0.1785,-0.0046189,-0.32797,0.2,-0.092347,0.33491,-0.22791,0.20555,-0.13146,-0.042809,-0.23517,-0.053435,-0.28734,0.015927,0.065683,-0.40169,-0.046761,-0.27345,0.28024,-0.14034,0.087176,-0.20364,0.23676,-0.17826,-0.011836,0.29032,-0.097104,-0.30026,-0.077198,0.012947,-0.16053,-0.39291,-0.020397,0.19876,0.52905,-0.068433,-0.051374,0.41573,-0.6047,0.4832,-0.20281,0.097969,-0.49502,-0.15694,-0.204,-0.26069,0.27808
circle,-0.076325,-0.4212,0.29715,-0.036373,-0.3751,0.14551,0.31992,-0.061345,0.74853,-0.31969,-0.35308,0.08573,0.055782,0.26023,0.17441,0.2336,0.14529,-0.034215,0.18694,-0.23734,0.44116,-0.054801,-0.49569,0.12326,-0.24454,-0.0054019,0.24703,0.79007,-0.028819,0.26892,-0.33746,0.24316,-0.28452,0.17979,-0.020033,-0.0014306,-0.1784,-0.19731,0.27167,-0.53351,-0.027878,-0.15509,0.12437,0.14764,0.22349,-0.46756,0.30186,0.21742,0.069836,-0.58641,-0.12892,0.068976,-0.27362,-0.16927,-0.24699,-0.099123,0.20628,0.21432,0.21814,0.02721,-0.021695,0.085824,0.51849,0.10048,0.078066,0.17216,-0.1837,-0.10011,8.9367e-4,-0.31308,0.23203,0.072273,-0.047497,-0.46683,0.012784,-0.064821,0.2074,0.80716,0.22362,-0.96118,-0.36079,0.35099,-0.046979,-0.16213,-0.69909,0.16909,0.15243,-0.42433,-0.23733,0.22733,0.17025,0.31279,0.47378,0.30707,0.26037,-0.8038,0.13149,0.25086,-0.10549,-0.1228
pattern,0.071477,0.071589,-0.24687,0.29643,0.13745,0.036567,-0.40801,-0.47216,0.22246,-0.17231,-0.34699,-0.046133,-0.6973,0.57429,-0.15882,-0.084375,-0.039681,-0.20221,0.033662,-0.010358,0.014877,-0.22677,-0.14959,-0.14029,-0.094714,0.096002,-0.19234,0.29563,0.16415,-0.0405,-0.16612,-0.019514,-0.019959,-0.25332,-0.13071,-0.35703,0.46542,0.11692,-0.01581,-0.2057,0.17841,-0.15323,-0.11819,0.35018,0.27084,0.0077334,0.4415,-0.0090488,-0.28388,0.070434,0.10562,0.21525,0.060241,-0.30648,-0.21422,-0.76369,0.18314,0.052387,0.36812,0.52283,0.29353,-0.0027838,0.66996,-0.3104,0.24746,-0.46394,-0.49141,-0.050876,-0.65633,-0.43053,-0.22487,0.27175,0.066447,-0.47154,0.024463,0.15824,-0.24678,-0.15012,-0.17205,-0.39883,-0.28749,-0.011577,0.24648,-0.31654,-0.48937,0.2343,0.12078,-0.015291,-0.17887,0.082345,0.27109,-0.12653,0.090102,0.030899,-0.07851,-0.66791,-0.1753,0.051582,-0.6978,0.17357
huge,-0.15079,-0.54444,0.11827,0.22567,-0.20772,0.20811,-0.46601,-0.17505,0.77699,-0.24073,0.029646,0.048605,0.070438,0.0060332,-0.082607,-0.18519,-0.03691,0.32236,-0.22799,-0.0051935,0.50038,0.064893,-0.34925,-0.40028,0.081381,0.30845,0.31621,0.12837,-0.058597,0.047876,-0.44731,0.28515,-0.29111,0.10196,-0.35305,-0.10499,0.20697,0.040299,-0.33746,0.046055,0.20197,0.20288,-0.20084,0.41646,0.48435,0.042516,-0.46339,0.070939,-0.17221,-0.12962,-0.088996,-0.036405,0.092025,-0.16787,0.11151,0.14375,0.26308,-0.23086,0.058979,-0.12151,0.099289,-0.0077582,0.34923,-0.3241,-0.0026316,0.083139,0.23648,0.033422,-0.13402,-0.2451,-0.080504,-0.0078165,-0.086671,-0.12989,0.081731,-0.3743,-0.10594,-0.15096,-0.18391,-0.020779,-0.1295,-0.19772,0.21828,0.46001,-0.44902,0.2674,0.010297,0.3459,-0.48731,-0.30219,0.2774,-0.26635,0.1356,0.042597,-0.18977,0.19087,-0.018501,-0.16057,-0.30307,0.19163
skin,-0.060521,-0.030454,0.54989,0.37682,-0.15091,0.16821,-0.1617,-0.08388,0.20597,-0.17497,-0.10823,-0.34678,-0.78314,-0.31565,0.15277,0.051387,-0.28607,0.28452,0.24774,-0.092981,0.16887,-0.4269,-0.40886,0.018755,-0.12789,-0.094322,-0.31663,0.7408,-0.12418,-0.62692,0.2887,0.099447,-0.71723,0.11422,0.019972,-0.05764,0.49362,0.43752,0.22529,0.27081,0.13163,-0.10424,0.33132,0.21923,0.29881,-0.31954,0.10456,0.61096,-0.51807,-0.095114,-0.025512,0.24654,0.19801,-0.24311,-0.32017,-0.26145,-0.14601,0.33607,0.16957,0.2001,0.34882,-0.074185,-0.052481,-1.1364,0.25724,-0.32631,-0.24518,-0.33377,-0.66271,-0.58387,-0.38023,0.16578,0.26684,-0.7586,-0.10073,-0.15986,-0.12476,-0.045429,-0.28102,0.14467,0.17197,0.47501,0.36582,-0.017257,-0.4147,0.60877,0.22797,0.41091,-0.31112,-0.07982,-0.087569,0.011877,0.21682,-0.49116,-0.42186,-0.13651,0.56536,0.1755,-0.45283,-0.36852
flat,0.11358,-0.32804,0.13794,0.13417,-0.13812,0.38528,-0.29526,-0.2062,0.45807,-0.28972,-0.13227,-0.18274,-0.41224,-0.20982,-0.13225,0.079553,0.17455,-0.1059,0.048771,0.28583,0.50273,0.17401,-0.34772,-0.4016,-0.16111,0.1172,-0.78928,0.34945,-0.50822,-0.012172,-0.47722,0.06236,-0.73265,-0.22086,-0.226,0.033978,-0.077209,-0.028627,0.033394,-0.30453,0.13496,-0.29811,0.15724,0.4404,0.12242,0.072474,-0.003101,0.26998,0.13109,-0.31225,-0.11572,0.087773,0.43183,0.053583,0.13645,0.15582,0.37927,0.078287,0.38723,0.15322,0.36581,-0.02504,0.39323,0.021394,-0.077058,-0.22948,-0.11403,-0.37736,-0.6231,-0.49637,0.36694,0.1377,0.076116,0.078683,0.40397,-0.070285,0.16102,0.40492,0.22114,-0.2197,-0.019212,-0.3314,-0.33902,0.10836,-0.86163,-0.048501,0.09462,0.26771,-0.14087,-0.06499,0.10893,-0.56003,0.053833,-0.052928,-0.21712,-0.77352,0.113,-0.43603,-0.66055,-0.05941
hair,-0.28272,0.13204,0.33408,0.26227,-0.0032996,-0.022672,-0.26906,0.23527,0.10025,0.098771,-0.55456,-0.10948,-0.58598,-0.27519,0.31275,0.14841,-0.10037,0.53207,-0.13489,0.046226,0.43613,-0.30414,-0.71837,0.056383,-0.25848,-0.17204,-0.083344,0.32852,-0.039291,-0.076856,0.20928,0.2244,-0.46819,0.49267,-0.13542,-0.062101,0.12642,0.12171,0.37745,0.1588,-0.20083,-0.25419,0.014,0.43524,0.21643,-0.20752,0.24516,0.26638,-0.61056,0.1231,0.028353,0.44002,0.3285,-0.31462,-0.34516,-0.42657,0.045808,0.27691,-0.039122,-0.085804,0.48078,-0.059674,0.46105,-0.99754,0.27899,-0.5411,-0.5632,0.14726,-0.71821,-0.33608,-0.30662,-0.051982,0.0056764,-0.8511,0.22813,-0.081577,-0.089043,-0.33748,0.12916,0.16635,0.13406,0.40675,0.38485,0.11513,-0.2534,0.65466,0.31692,0.3201,-0.52474,-0.50249,0.1342,-0.091124,0.37075,-0.55745,-0.25465,-0.60532,0.50372,0.051847,-0.22712,-0.1221
cat,-0.40266,-0.056935,-0.19996,0.44407,0.19607,-0.59444,-0.1364,0.26592,0.34937,-0.66437,0.39778,-0.3714,-0.66347,-0.36522,-0.11142,0.50153,-0.088358,-0.10455,-0.0096166,0.38662,0.042175,-0.31722,-0.22154,-0.19584,-0.078869,-0.00662,0.19829,0.49161,-0.27684,-0.20418,-0.29281,0.35606,-0.36713,-0.025048,-0.041409,-0.40067,-0.0921,0.19127,0.21519,0.14926,-0.063507,-0.26656,0.076123,0.23462,0.30511,-0.21539,0.22058,-0.11408,-0.32882,-0.25594,0.52595,0.21888,0.15176,-0.70965,0.074584,-0.32747,0.28517,0.46676,-0.087814,-0.024346,0.34362,-0.050919,-0.012697,-0.41465,-0.25908,-0.40747,-0.54263,0.32315,-0.0069122,-0.042962,-0.31357,0.5175,0.045207,-0.10192,0.092125,0.17305,-0.12061,0.022107,0.064894,-0.077476,-0.12412,0.45478,0.043686,0.11789,0.29372,0.58566,-0.044987,0.095604,-0.58192,-0.10419,0.34789,-0.30488,0.60963,-0.51418,-0.36757,-0.27359,0.060182,-0.44819,-0.12109,0.012117
bodies,0.4274,-0.086516,0.34653,-0.25663,0.20328,0.42216,-0.039236,0.15529,0.73231,-0.10193,0.22245,0.11369,-0.5778,0.31522,0.23917,-0.022917,0.29769,0.22414,0.3642,0.01636,-0.20293,0.017516,-0.095966,-0.30782,-0.11492,0.27953,0.087111,0.22312,0.11877,0.040803,-0.15055,0.31605,-0.48002,-0.16363,-0.1233,0.069636,0.20369,0.19847,-0.05735,0.38023,-0.094036,0.11939,-0.1454,0.36102,0.17921,-0.48775,0.2198,0.049694,-0.17179,-0.458,-0.042534,-0.51523,-0.17748,-0.3218,-0.063459,0.10269,0.04313,-0.1215,0.29449,-0.012541,0.17364,-0.095045,-0.26802,-0.40129,0.12127,0.083042,-0.42817,-0.069669,0.11993,-0.25134,-0.41601,-0.059963,0.48303,-0.35183,-0.26472,0.049313,-0.23951,-0.050742,-0.16163,-0.11396,-0.49794,0.39466,0.33849,0.068049,-0.40217,0.11392,0.20319,0.50714,-0.67855,-0.14654,-0.21317,0.16982,-0.41084,-0.34425,-0.1611,-0.83512,0.26081,-0.19264,0.04246,-0.12218999999999999
height,0.1474,-0.33489,0.32923,0.41591,-0.15783,0.072569,-0.45554,-0.20282,0.90886,-0.32287,0.13169,-0.096247,-0.46791,0.0011841,0.049367,-0.30692,-0.10918,-0.19765,0.091987,-0.50591,0.42403,-0.03285,-0.63299,0.17765,0.19226,0.19492,0.42573,0.096184,-0.29183,0.44544,-0.37301,0.55104,0.13396,0.54017,-0.48638,-0.043083,0.30076,-0.10222,0.43921,-0.25881,-0.19905,-0.13363,0.45608,0.59177,0.24129,-0.24136,0.1371,-0.34227,0.13516,0.24262,-0.035563,-0.011042,0.49059,0.087561,0.15771,-0.18529,-0.28747,-0.11766,0.48318,-0.061181,-0.090768,0.13717,0.41493,-0.43182,-0.014829,8.1264e-4,0.45653,-0.23931,-0.25455,-0.43694,-0.01661,0.36122,0.11173,-0.52197,0.08511,0.10079,-0.18842,0.39718,-0.013933,-0.17851,-0.021074,-0.32828,0.089266,0.35947,-0.47901,0.56122,0.041688,-0.094425,-0.14391,-0.17313,0.11146,-0.070622,0.48499,-0.36697,-0.24479,-0.63767,0.089738,-0.12484,0.070065,-0.039376
bear,-0.18216,-0.24567,-0.43801,0.50406,0.34311,-0.4043,-0.0646,-0.19769,0.60618,-0.29532,-0.12824,-0.27245,-0.46607,-0.21634,-0.18216,0.22832,0.023711,0.049867,-0.062197,0.25145,0.41263,0.06662,-0.7745,0.11571,0.0035792,0.2184,-0.028217,0.36476,-0.19136,0.21679,-0.36772,-0.24669,-0.41616,0.38741,0.35068,-0.14265,0.21328,-0.18938,0.17899,0.15094,0.0049287,-0.10696,-0.20018,0.32355,0.74295,0.10635,0.16238,-0.054208,-0.14839,-0.29172,0.046237,-0.29997,0.25827,-0.43312,-0.23608,0.31802,0.34954,0.051027,0.24688,-0.096692,0.067632,-0.11161,-0.0043232,-0.50539,0.037776,-0.19043,-0.16642,0.093635,-0.033952,-0.57194,-0.24237,0.02264,0.12285,0.26345,-0.15409,-0.21898,0.2019,-0.33279,0.36751,-0.39638,-0.082364,0.27548,0.14071,0.42958,-0.051306,0.20772,0.16679,-0.30425,-0.47848,0.15792,0.025928,-0.0097918,0.3894,-0.26092,-0.013849,-0.40932,0.070853,-0.24603,0.24607,0.053035
medium,-0.25472,-0.39166,0.45615,0.36217,0.25926,-0.031234,-0.1633,-0.28447,0.33349,-0.38728,0.36031,-0.11982,-0.15616,-0.098491,0.093002,0.10824,-0.15992,-0.060496,0.23477,-0.56527,-0.34771,0.19727,-0.55692,0.0017911,-0.38002,0.21488,-0.11477,0.37817,-0.29684,-0.36072,-0.24193,0.24184,-0.10047,0.098068,-0.0094369,-0.19992,0.33414,0.39608,-0.067176,0.18095,-0.092091,-0.013531,-0.04054,0.06343,0.3761,-0.11954,-0.29442,0.092077,-0.037407,-0.17418,0.18676,0.68221,0.080976,-0.30399,-0.082005,-0.30103,-0.19346,-0.4004,0.3036,0.18469,0.1289,-0.090365,0.86218,0.098576,0.19482,0.13867,-0.05503,-0.061226,-0.23969,-0.24956,-0.33127,-0.023482,0.27668,-0.15722,-0.11788,0.40903,-0.29465,0.14713,0.23823,-0.33521,-0.23163,-0.029537,-0.013144,0.073781,-0.29759,0.28664,-0.18005,0.10672,-0.38153,-0.14838,-0.12835,-0.61009,0.52983,-0.46176,-0.11296,-0.11791,0.035888,-0.72974000000000006,-0.49246,-0.22536
multi,-0.41632,-0.28792,0.48127,0.1152,0.57018,0.38993,-0.38321,-0.23216,0.19166,-0.16276,0.11807,0.14005,0.079437,0.27116,-0.56111,-0.43711,-0.47733,-0.036368,0.11568,-0.22352,-0.040808,0.038016,-0.13453,-0.18548,0.36231,0.22392,0.0064712,0.37844,0.10242,-0.28815,-0.53884,0.096758,0.094099,-0.4483,-0.61515,-0.13333,0.098535,0.058894,-0.37117,0.13081,0.78301,-0.12884,0.070352,0.44371,0.035752,-0.22175,-0.36662,-0.16425,0.062975,0.19816,-0.08069,0.46856,-0.054163,-0.43303,0.021075,-0.26582,0.22868,-0.37618,0.42591,-0.15965,0.052259,0.10507,0.7233,-0.11088,0.21796,-0.29292,-0.13015,-0.14331,0.036528,-0.15283,-0.047123,-0.065839,-0.2787,0.053042,0.18443,0.19834,-0.15572,0.1452,-0.26483,0.18542,-0.12864,-0.049242,0.48118,-0.13358,-0.57959,0.17198,-0.1616,-0.090836,-0.55674,0.26628,0.39506,-0.21246,0.0010904,-0.04231,-0.43158,-0.15246,0.29772,-0.4497,-0.13619,-0.026538
coat,-0.2942,-0.42241,-0.21427,0.87582,0.65498,-0.17789,-0.28611,-0.013897,0.2537,0.15355,-0.41616,-0.015671,-0.36315,-0.85404,-0.4714,-0.19693,0.60496,0.1947,0.19533,0.17987,0.31317,-0.064899,-0.76234,-0.025516,-0.61824,0.36401,-0.062192,0.38893,-0.41739,0.046895,0.25604,0.24296,0.2876,0.5571,-0.2954,-0.22559,0.6644,-0.035887,0.34563,0.13514,0.42908,-0.22965,0.39473,0.027148,0.66985,-0.76652,-9.6351e-4,0.12469,-0.079804,-0.1827,0.74339,-0.12395,0.66259,-0.62454,-0.11086,0.23011,0.18262,0.51088,0.23303,0.16451,0.33931,-0.27826,0.30513,-0.5596,0.1156,-0.021934,-0.63825,0.73204,-0.32291,0.017751,-0.41742,-0.11249,0.46436,-0.68111,-0.28982,0.14352,0.19603,-0.062411,0.12975,-0.26086,-0.31257,0.10341,-0.20589,0.063062000000000007,-0.70474,0.35756,0.89222,0.19057,-0.24418,0.33363,-0.46262,-0.079909,0.48956,-0.32431,-0.095109,-0.41841,0.29459,-0.10493,-0.667,0.01315
grey,-0.034741,-0.5375,0.027802,0.46748,0.077191,-0.17316,-0.19068,-0.16321,0.36888,-0.53504,-0.038044,-0.084961,-0.88104,-0.47967,0.27311,0.10952,-0.027089,0.29524,0.12073,-0.086634,0.31935,0.2137,-0.23206,0.36968,-0.54533,0.29207,-0.21672,0.529,-0.30783,-0.084054,-0.10408,0.51238,-0.37926,-0.13949,-0.14003,-0.39677,0.25007,0.51381,0.58871,0.32145,-0.32497,-0.049758,0.2387,0.10083,0.54526,0.88997,-0.12951,0.026045,-0.44142,-0.21289,0.22335,0.37111,-0.19373,-0.095201,-0.2907,0.12734,0.37016,0.3019,0.25463,-0.45764,0.081732,-0.21464,0.23863,-0.15743,0.25546,-0.46985,-0.22419,0.64896,-0.84636,0.073862,-0.30124,0.13434,0.19639,-0.21373,0.19316,0.072959,0.39514,-0.23051,-0.030684,-0.15707,-0.21103,0.17955,0.36404,-0.2927,-0.36614,0.50189,-0.10281,-0.44176,-0.60188,0.078175,0.16479,0.12881,0.51342,-0.48645,0.053046,-0.32013,0.62932,-0.49495,-0.76038,-0.47687
soft,-0.48319,0.035295,0.43213,0.30916,0.31175,0.066084,-0.3251,-0.57515,0.38915,-0.18987,-0.078434,-0.15118,-0.17667,-0.11673,-8.759e-4,0.21101,-0.32866,0.37554,0.46767,-0.02925,0.22987,-0.0025804,-0.16014,-0.14431,-0.013308,-0.35078,-0.30643,0.24093,0.047184,-0.52065,-0.25654,0.16951,-0.61994,-0.39101,0.010204,-0.11496,0.30289,0.18072,0.020561,0.47127,0.172,0.016241,0.29548,0.10361,0.42168,0.023384,-0.25955,0.26785,-0.030566,0.11525,0.020735,0.4138,0.38708,-0.10154,-0.17931,-0.045194,0.48137,0.023048,-0.036049,0.14951,0.58049,-0.1748,0.21832,-0.5044,0.037622,0.11664,-0.061407,-0.28394,-0.39919,-0.28509,-0.58548,0.065557,0.18536,-0.19838,0.10838,0.013288,-0.26139,0.32575,0.41163,-0.27556,0.65906,0.05385,-0.038546,-0.041595,-0.40219,0.25015,0.16438,0.46048,-0.41758,-0.21795,-0.12935,0.067871,0.28515,-0.56379,-0.52114,-0.49105,0.37639,-0.22271,-0.26431,-0.059219
patterns,0.2702,0.084861,-0.25097,0.083681,0.37356,-0.17035,-0.42345,-0.67914,0.31236,-0.071225,-0.34522,0.055247,-0.59026,0.46406,-0.15501,0.083425,-0.04858,-0.31676,-0.0095793,0.062778,-0.18212,-0.081848,-0.13327,-0.12328,0.13916,0.018114,-0.31094,0.24336,-0.14168,-0.069266,-0.26267,0.15453,-0.20088,-0.16099,0.19012,-0.39752,0.52199,0.019822,-0.24128,0.15487,0.068354,-0.078289,-0.19109,0.39555,0.40968,-0.43083,0.43237,0.19622,-0.12447,0.12492,-0.22143,0.13321,-0.090093,-0.13891,-0.3444,-0.65872,0.1191,-0.16858,0.29832,0.32322,0.49249,0.2073,0.68897,-0.39265,0.25801,-0.51128,-0.19705,-0.26106,-0.48007,-0.18452,-0.27309,0.31056,0.13132,-0.48367,-0.019032,-0.021514,-0.39395,-0.22111,-0.18258,-0.11713,-0.095344,-0.15653,0.39585,-0.30378,-0.70199,0.11468,-0.18543,0.084701,-0.35586,-0.010664999999999999,0.18999,0.047398,0.22006,0.16489,0.07406,-0.53831,0.19632,-0.036532,-0.61104,0.39149
gray,-0.31926,-0.3951,0.18015,0.3591,0.011396,0.060823,0.097961,-0.033608,0.073628,-0.1861,-0.41646,0.004638,-0.77742,-0.39159,0.13253,-0.0038084,-0.048435,0.27717,-0.056235,-0.086494,0.35579,0.071372,-0.25843,0.35915,-0.48445,-0.17371,-0.083355,0.21189,-0.78782,-0.54003,-0.5849,0.48816,-0.40031,-0.12522,0.16533,0.079113,0.65075,0.58566,0.67306,0.3833,-0.036364,-4.1758e-4,0.32089,0.44549,0.44182,-0.062179,0.32683,0.11228,-0.34847,-0.42678,0.21633,0.13032,0.11973,-0.23023,-0.2254,-0.15626,0.055941,0.36704,0.38879,0.040628,0.20174,-0.28921,0.2311,-0.4024,-0.16857,-0.35859,-0.10357,0.38277,-0.53532,0.018447,-0.012232,0.2996,-0.32578,0.056286,0.41698,0.18377,0.43264,0.16079,0.19396,-0.30986,-0.23154,0.17091,0.41927,-0.3507,-0.17028,0.28807,0.00599,-0.29168,-0.20976,0.25334,0.36053,0.23256,0.473,-0.3189,-0.12541,-0.4217,0.3573,-0.55533,-0.29091,-0.39802
wings,0.24222,-0.63558,0.23033,0.83191,0.089356,0.50705,-0.88742,-0.085454,0.56659,-0.31229,0.068988,0.056493,-0.45481,-0.40338,-0.0097177,0.55056,0.25282,-0.17496,-0.090648,-0.51931,0.19466,-0.016669,-0.79644,0.087799,0.032922,0.50041,-0.072954,0.086122,-0.14756,0.37095,-0.4002,0.053193,0.0032833,0.32769,0.164,-0.32255,0.19254,0.30325,-0.053552,-0.12338,-0.16124,-0.17194,0.21584,0.067394,0.21012,0.012261,-0.053673,0.013511,-0.22141,-0.13225,-0.23223,0.27078,-0.11756,-0.21427,0.10534,-0.034827,0.33139,0.40375,-0.12925,0.090159,-0.096317,-0.57351,0.13531,-0.70627,0.21907,-0.29163,0.14673,-0.32774,-0.52019,-0.43365,-0.48373,-0.02599,0.12278,-0.53252,0.58664,0.23844,-0.0129,-0.13441,-0.2915,-0.89226,-0.28245,0.72228,0.38614,-0.11112,-0.59814,0.057598,0.27791,0.35813,-0.56103,-0.14091,-0.045638,0.17309,0.30086,-0.089489,0.16905,-0.47759,0.19934,-0.45553,-0.45523,-0.6589
fat,-0.44281,-0.045053,0.40486,-0.024792,-0.076618,-0.18817,-0.098423,0.016182,0.24868,-0.4161,0.024618,-0.18046,-0.75653,-0.60526,-0.23465,0.36497,-0.0010284,0.26363,0.084384,0.38227,0.50347,0.31542,-0.40245,0.10194,0.15722,-0.25927,-0.14298,0.21115,-0.26819,-0.30649,-0.18264,0.25483,-0.4522,0.032451,-0.35792,-0.36927,0.16882,0.053305,0.10417,0.20596,2.2074e-4,-0.1234,-0.17111,-0.086549,0.65692,-0.2994,-0.44486,0.098616,0.081752,0.15315,-0.019008,0.78131,0.74574,-0.68932,0.96986000000000006,-0.13626,-0.18874,-0.027845,0.11643,0.2186,-0.093955,-0.55928,0.18475,-1.0124,-0.059436,-0.32789,0.33649,-0.068334,-0.17577,0.079889,-0.35612,-0.078721,0.24473,-0.34374,-0.0030457,-0.16857,-0.054894,0.31149,-0.30186,0.041949,-0.14868,0.43862,0.090899,-0.095959,0.05253,0.28816,0.47101,0.51007,-0.69548,-0.52167,-0.23103,-0.13383,0.19641,-0.50031,-0.46932,-0.055609,0.28885,-0.14166,0.37017,0.10101
tail,-0.3324,-0.56081,0.0062421,0.52698,0.035735,-0.052313,-0.20386,-0.29325,0.54778,-0.4456,0.040624,0.011799,-0.87551,-0.29262,0.054106,0.47754,0.21325,-0.076353,6.0746e-5,-0.19887,0.35122,-0.037879,-0.74334,-0.32038,-0.19602,0.17206,-0.33472,0.24663,-0.23691,0.13687,-0.39308,0.28934,0.0026254,0.15163,0.11896,-0.18073,0.16639,0.25163,0.39399,-0.01175,-0.23397,-0.016188,0.1539,0.010181,-0.18745,0.15122,0.15497,-0.15119,-0.11875,-0.3673,-0.016593,0.15608,0.37522,-0.42981,-0.1128,-0.48506,0.10721,0.51813,-0.018351,0.42701,0.15931,-0.5205,0.4553,-0.67779,0.34166,-0.26228,0.029482,-0.0159,-0.22848,-0.6955,-0.26592,-0.11557,0.32249,-0.4987,0.32314,-0.14712,0.069316,-0.49604,-0.16831,-0.56745,0.05463,0.46903,0.23175,-0.11662,-0.74895,0.72441,0.058137,0.18845,-0.73794,0.18253,-0.086081,-0.14515,0.78142,-0.37203,-0.34926,-0.59387,0.020708,-0.41567,-0.20978,-0.47522
thin,-0.41213,-0.014822,0.71971,0.39207,0.28539,0.45562,-0.070412,-0.19383,0.43589,-0.52406,-0.11937,-0.20857,-0.19798,-0.46528,0.27654,0.18615,-0.23912,0.42878,0.27493,-0.22722,0.21345,0.027948,-0.49404,-0.049353,-0.37906,-0.080661,-0.48737,0.60263,-0.060463,-0.26179,-0.41888,0.18716,-0.41141,-0.064521,-0.10544,-0.20482,0.10158,0.30001,0.1562,0.25317,-0.089583,-0.0058758,0.34045,0.14535,0.53036,-0.090949,-0.18618,0.33826,-0.13058,-0.03939,0.030257,0.53433,0.407,-0.069247,-0.16656,-0.36722,0.1121,-0.30009,0.21944,0.49556,0.2123,0.011967,0.344,-0.26113,-0.0086592,-0.13999,-0.17082,-0.045717,-0.63953,-0.28144,-0.56086,-0.010438,0.20829,-0.29585,0.35118,-0.17843,-0.15366,0.35786,-0.035914,-0.35203,-0.024313,-0.11046,0.23734,-0.24629,-0.45434,0.10172,0.4211,0.3456,-0.21917,-0.26467,-0.1706,-0.44486,-0.049997,-0.083441,-0.46081,-0.82656,0.29062,-0.23939,-0.34441,-0.40213
tall,-0.061548,-0.3475,0.15219,0.40046,0.14732,0.13776,-0.393,-0.12004,0.60564,-0.24103,0.10613,-0.40002,-0.25909,-0.17176,0.17177,0.26653,0.40436,0.20511,0.15159,-0.17838,0.56973,0.14769,-0.91653,0.27956,0.059238,0.1797,0.39604,0.22997,0.090074,0.28484,-0.2969,0.098632,-0.14271,0.097996,-0.40281,-0.016313,-0.26491,0.21115,0.42342,0.3318,-0.28466,-0.27547,0.62784,0.67665,0.4047,-0.43661,-0.27607,-0.17808,-0.064664,0.70016,-0.066399,-0.19629,0.53308,-0.013871,-0.11534,-0.35135,0.22911,-0.2036,0.25196,-0.34603,-0.14304,0.42235,0.061969,-0.31355,0.09687,-0.24656,0.088136,-0.39388,-0.31677,0.029204,-0.28042,-0.058712,-0.14483,-0.19063,0.28481,0.042029,0.15208,0.09557,-0.18345,-0.4585,0.18635,-0.061775,0.0018185,0.44872,-0.69767,0.74283,0.15631,-0.098633,-0.18156,-0.53051,0.36114,-0.21789,0.55681,-0.35608,-0.85309,-0.70605,0.11503,-0.42827,-0.22267,0.099283
pink,-0.25685,-0.1101,0.16182,0.60884,-0.051888,-0.058309,-0.39904,-0.45078,0.32507,-0.69801,-0.63363,-0.17919,-0.58924,-0.15,-0.12608,-0.10682,-0.0085128,0.13722,0.17262,-0.07554,0.17915,-0.11679,-0.54987,0.37905,-0.67473,-0.37659,0.073246,0.42043,-0.23287,-0.045875,-0.30714,0.45484,-0.21908,-0.16731,-0.2456,-0.26701,0.012195,0.30815,0.72645,0.12446,0.22066,0.044169,0.20002,-0.0597,0.61331,-0.25124,0.12016,0.3452,-0.17311000000000001,0.053516,-0.13156,0.21906,0.19478,-0.31208,-0.24637,0.31452,0.13747,0.17854,0.17003,-0.4994,0.01734,-0.07401,0.30265,-0.45117,-0.094189,-0.20356,-0.33542,0.13987,-0.97073,-0.045777,-0.27243,0.042599,0.12176,-0.38962,0.46745,-0.16986,0.28451,-0.3019,-0.061731,-0.28478,0.096711,0.16546,0.59772,0.062422,-0.18981,0.21178,0.18536,0.058048,-0.57247,-0.17149,0.42075,0.40152,0.40125,-0.23723,-0.079307,-0.23438,0.5502,-0.084276,-0.12226,-0.23552
seal,-0.18216,-0.67431,0.17113,0.7997,0.11718,-0.17296,0.099384,0.26595,0.82698,-0.25245,-0.0091899,0.13282,0.11792,-0.028041,0.4946,0.18922,0.65797,0.70026,0.23996,0.17629,0.10343,-0.19018,-0.49978,0.050792,-0.19848,0.39988,-0.19372,0.13757,-0.286,-0.30928,-0.23106,0.023276,-0.16558,0.090311,-0.14168,-0.34766,0.0024359,-0.086789,0.068623,0.094236,0.1574,0.011739,0.22018,0.46851,0.92516,0.25225,0.40683,-0.1287,-0.21653,-0.73783,0.41271,-0.32641,0.17458,-0.33414,0.031184,0.11633,0.050942,-0.053004,0.24135,0.37054,0.14852,-0.32278,-0.11239,-0.55884,0.27807,0.27382,-0.14808,0.47349,-0.31517,-0.068498,-0.22087,-0.36247,0.53774,-0.37173,-0.019886,-0.0022841,0.19502,-0.14769,-0.072735,-0.17334,0.0077634,0.59036,0.28845,-0.036039,-0.10116,0.42819,-0.071649,-0.042947,0.053662,0.64891,0.071643,-0.049584,0.15786,0.045599,0.10701,-0.49687,0.46407,0.13885,-0.38588,-0.16375
neutral,-0.55081,-0.1636,0.24282,-0.16948,-0.079928,0.01316,0.052667,-0.012121,-0.07793,-0.16418,0.24566,-0.30425,-0.65303,0.30473,-0.32484,0.18426,0.041572,0.26052,0.54776,-0.6744,0.14889,0.072642,-0.17108,-0.087053,0.22592,0.24831,-0.079572,0.091597,-0.12953,-0.24604,-0.040641,0.11755,-0.067431,-0.038302,-0.60727,-0.36605,-0.19366,-0.049257,-0.0076355,0.065152,-0.12241,-0.13979,-0.39151,0.049963,0.14522,-0.38639,0.15463,0.1481,-0.42625,0.017167,0.066337,0.49606,-0.26454,0.18746,-0.072001,0.039517,0.35959,0.093851,0.43406,0.37519,0.25387,-0.16608,0.21382,0.15887,0.27565,0.19623,-0.63104,0.28137,-0.08634,0.48179,-0.34004,-0.27313,0.70232000000000006,0.013711,-0.2255,-0.14549,-0.085669,0.57835,0.24422,0.014443,0.013929,-0.47387,0.23951,0.19511,-0.2706,-0.20134,0.086941,0.02368,-0.087091,0.07793,0.13337,0.60161,0.39926,-0.11476,-0.27791,-0.35233,0.013329,-0.28339,0.3674,0.068868
valuable,0.22009,-0.4693,0.072619,-0.20681,0.14601,0.11528,0.20472,-0.033941,0.29591,-0.097874,0.33949,-0.19099,0.30563,0.0090386,-0.035052,-0.25132,-0.075403,0.77224,-0.52543,-0.32966,0.65648,0.32834,-0.26312,0.0062311,-0.17471,0.4191,0.16558,0.59948,0.020172,-0.056899,-0.11282,-0.14919,-0.62795,-0.39151,-0.068654,-0.03589,0.54504,0.12295,-0.091318,0.3048,0.37584,0.20185,-0.3411,0.31112,0.69395,-0.053622,-0.55381,0.13574,-0.17258,-0.13459,0.029668,0.21365,-0.046519,-0.14742,-0.064653,0.015859,0.65062,0.083935,0.20899,0.20294,0.32213,-0.26099,-0.052847,-0.37952,0.21134,-0.29773,0.32212,-0.15203,-0.16753,0.17151,0.07658,-0.18833,0.15209,-0.52981,-0.46804,-0.081853,-0.46694,0.27788,-0.03009,0.10744,0.094587,0.14044,0.15404,0.13136,-0.23162,0.14912,0.12224,0.13033,0.64012,-0.027896,0.5113,-0.23618,0.031612,0.018237,0.28379,-0.056114,0.23807,-1.0479,-0.02402,0.041549
strange,-0.36253,0.085364,-0.28669,0.11825,-0.043609,-0.070529,-0.18201,-0.0629,0.12499,-0.843,-0.11061,-0.18282,-0.31399,0.2498,0.09895,0.2966,0.080098,-0.010413,0.21148,0.2944,0.21241,0.20242,-0.33958,-0.41743,-0.3991,-0.1422,0.20973,0.71377,-0.195,-0.1013,-0.27522,0.32052,-0.55603,-0.019913,-0.042688,-0.33248,0.042215,0.15293,0.085913,0.38307,0.1147,0.061058,-0.039936,0.38384,0.69207,-0.26507,0.072901,-2.1173e-4,-0.24527,-0.10586,0.24051,0.35217,-0.4942,-0.010482,-0.24144,-0.0062054,0.073161,0.16266,-0.1044,-0.054119,0.095515,-0.094557,-0.15857,-0.18359,0.15509,0.1701,-0.05707,-0.071702,-0.26069,-0.1466,-0.13705,0.20634,0.15811,-0.21139,-0.021935,-0.35126,-0.047081,-0.47445,0.25387,-0.23233,-0.28022,-0.085691,0.18699,0.26148,-0.046593999999999997,0.25817,-0.13765,0.25961,-0.48443,-0.33683,0.3339,0.3786,0.26594,0.16483,-0.29462,-0.40374,0.030999,-0.18226,0.039511,0.27982
legs,-0.010738,-0.363,-0.28973,0.26098,-0.082924,0.3954,-0.27242,-0.13227,0.54308,-0.10466,-0.038549,0.012701,-0.90187,-0.40721,0.31412,0.63493,0.22942,0.13799,0.17574,-0.25417,0.73188,-0.16126,-0.48006,-0.17372,-0.0066043,0.048637,-0.23129,0.26063,-0.058277,0.26639,-0.45234,0.11636,-0.20773,0.36245,0.20146,0.048621,0.079671,0.22168,0.11913,0.085698,-0.31192,0.064698,0.45455,0.30973,-0.20756,-0.14611,0.12767,0.26538,-0.14245,-0.068338,0.0023218,0.10422,0.20866,-0.4518,-0.26727,-0.40606,0.26105,0.41367,0.14744,0.21386,0.28532,-0.0048102,0.27887,-1.0324,0.53813,-0.27766,-0.23957,-0.091206,-0.087591,-0.36459,-0.51417,0.31266,-0.027746,-0.96285,0.22428,0.27871,-0.23044,-0.10376,-0.24257,-0.46228,-0.24647,0.84841,0.47056,-0.0025846,-0.41099,0.27561,0.36025,0.30932,-0.80797,-0.28852,-0.23205,-0.1004,0.42703,-0.55422,-0.51873,-0.4053,0.50151,-0.32707,-0.30735,-0.13477
lion,-0.23969,-0.7975,-0.24449,0.94621,0.15015,-0.46244,0.016627,0.43346,0.2457,-0.27485,-0.048512,0.17698,-0.37888,-0.3701,-0.47165,0.39364,0.53949,-0.17546,0.0066961,-0.086838,0.50288,0.16046,-0.91954,0.022352,-0.36518,0.42549,0.012267,0.51017,0.071158,0.068336,-0.21225,0.12858,-0.17193,0.37837,0.15576,-0.44953,0.086998,0.047559,0.29847,-0.29825,0.07693,0.0071757,0.0078649,0.30193,0.61874,-0.32234,-0.092561,-0.059724,-0.20401,-0.17369,0.26744,-0.072261,0.59253,-0.2935,-0.27131,0.15776,0.22033,0.42926,0.52322,-0.23682,0.038725,-0.27228,0.029162,-0.68885,0.35461,-0.19358,-0.024337,-0.13016,-0.18519,0.1422,-0.22124,-0.29221,0.079051,-0.16918,0.068699,-0.042976,0.42582,0.038719,-2.7749e-5,-0.25032,-0.17165,0.55664,0.22992,-0.038135,0.2036,0.74232,0.10497,0.19908,-0.9989,-0.092603,0.73309,-0.18122,0.31567,-0.36402,0.39561,-0.11992,-0.034375,0.011836,-0.30782,-0.0039722
bright,0.061747,-0.26085,0.43055,0.32264,-0.11956,-0.047742,-0.3337,-0.33375,0.076404,-0.39749,-0.53799,-0.09874,-0.45981,0.12559,0.16967,0.16112,0.032645,-0.082581,0.1388,0.068512,0.2475,-0.085353,-0.43485,-0.003529,-0.62409,0.052975,0.34058,0.86245,-0.047692,-0.077409,-0.48666,0.3098,-0.47429,0.013048,-0.17645,-0.39868,0.34042,0.47211,0.58532,0.41626,-0.35093,-0.090595,0.050304,0.56363,0.59838,0.065512,0.021124,0.48494,-0.60571,0.20487,-0.16334,0.30761,-0.062095,-0.29374,-0.46095,-0.16037,0.27531,0.029224,0.14163,-0.17532,0.17844,-0.64565,0.16328,-0.21347,-0.084416,0.068879,-0.16589,-0.18987,-0.68014,-0.13393,-0.41162,0.075323,0.10753,-0.096784,0.24269,0.23886,0.066107,-0.087095,0.14224,-0.091474,0.0042165,-0.19247,0.15549,-0.26183,-0.54071,0.36485,0.65776,0.10039,-0.33732,0.20987,0.09198,0.2995,0.57124,-0.039022,0.12453,-0.24374,0.05148,-0.40871,-0.26414,-0.12504
neck,-0.10584,-0.15257,0.062083,0.49908,-0.24458,0.24784,-0.34523,0.191,0.57428,0.020226,-0.28035,-0.26565,-0.37052,-0.39853,0.4076,0.43807,0.28639,0.34323,0.14011,0.065405,0.51284,-0.26717,-0.54573,-0.34756,-0.23223,-0.12782,-0.55428,0.21498,-0.094835,0.11204,-0.28754,-0.011698,-0.42848,0.47147,0.15323,0.14983,0.058725,0.12013,0.16213,-0.082701,-0.023767,0.078347,0.48482,0.44032,-0.047992,0.086368,0.0048329,0.39744,-0.15533,-0.042164,0.4835,0.37991,0.26969,-0.57307,-0.19495,-0.40147,0.10715,0.19912,0.5234,0.081276,0.47398,0.13394,0.44453,-1.1152,0.31651,-0.21708,-0.14252,0.0072932,-0.57623,-0.80569,-0.09192,0.54204,0.11029,-0.61758,0.10498,-0.2472,0.4716,0.088188,-0.33416,-0.096868,-0.038765,0.49756,0.22518,-0.19409,-0.26508,0.35387,0.043703,-0.060645,-0.59452,0.30139,-0.097521,0.057593,0.0048492,-0.28071,-0.53673,-0.66276,0.52747,-0.23574,-0.47345,-0.029677
compact,-0.57487,-0.13897,0.090005,0.18261,0.19391,0.13171,-0.26371,-0.090559,0.65511,-0.55182,0.13314,-0.19151,-0.15655,-0.36592,-0.0086215,-0.46654,-0.5761,0.46362,0.59551,-0.28296,0.1447,0.49534,-0.027992,-0.66485,-0.027828,0.28316,-0.25764,0.64606,0.23371,-0.28859,-0.25313,0.68363,-0.35752,-0.24308,-0.46523,-0.008972,0.10999,0.35339,0.020664,0.055023,0.40479,-0.10281,-0.36584,0.36845,-0.16937,0.14746,0.01889,-0.11883,-0.0021179,-0.2121,-0.006725,0.34943,0.10504,-0.3067,0.065289,-0.04482,0.25596,0.17191,0.10523,-0.22143,0.11193,0.38094,0.74533,0.087381,-0.13166,-0.0863,-0.2166,-0.10201,-0.73897,-0.35639,0.0057688,-0.055995,0.28133,-0.25916,0.68266,0.65441,0.03711,-0.038375,0.21518,-0.38779,-0.53159,0.093853,-0.47078,0.048933,-0.92693,0.11786,-0.038185,0.34439,0.2301,-0.37256,-0.35412,-0.071683,0.061571,0.033601,-0.26419,-0.47028,-0.1917,-0.64795,-0.042182,-0.087527
flash,-0.24758,-0.77322,0.70196,0.41512,0.39072,-0.040061,-0.36397,-0.44153,-0.13283,-0.57148,0.039464,0.23357,-0.10922,-0.0048136,-0.28105,-0.081044,-0.28682,-0.59221,0.26363,0.19531,0.10017,0.071065,-0.56114,-0.29196,0.032435,-0.016692,-0.11405,0.44908,-0.18735,-0.37511,-0.033633,0.15665,-0.71607,0.22475,-0.38138,0.012615,-0.2938,0.27223,-0.29116,0.33908,0.52565,0.34947,0.21968,0.397,0.94246,0.03185,-0.05369,-0.017427,-0.11655,0.22786,-0.053131,0.74036,-0.28582,-0.64105,-0.37767,0.14741,-0.28253,-0.21509,0.21785,0.24561,0.028743,-0.071043,0.54962,-0.17414,-0.28955,0.44527,0.026114,-0.055604,-0.80095,-0.23349,-0.21564,0.13184,-0.033749,-0.27602,-0.13737,0.021668,-0.016073,-0.091723,-0.26647,0.046955,-0.16275,0.098509,0.41515,0.029817,0.039449,0.065456,-0.033562,0.032125,0.043946,-0.11418,-0.02924,0.041197,0.12567,-0.39232,-0.56602,-0.01917,-0.50556,0.097597,0.23199,0.20165
tiny,-0.017444,-0.37989,0.20407,0.27431,0.057946,0.39459,-0.35276,-0.32696,0.22132,-0.40713,-0.031037,-0.34226,-0.35235,-0.13805,-0.065787,-0.10851,0.20817,0.26418,0.29927,0.37952,0.1812,-0.017724,-0.4308,-0.36218,-0.12011,0.24739,-0.27143,0.36807,-0.010741,-0.14587,-0.76894,0.28069,-0.28751,-0.039775,-3.7962e-4,-0.02691,0.33773,0.057482,-0.0011617,0.46344,-0.10156,0.14501,-0.36295,0.078361,0.55726,-0.41216,-0.31237,0.11196,0.095015,-0.30627,0.037986,0.30918,0.064428,-0.14155,-0.04588,0.15287,-0.040195,-0.014678,0.15057,0.11836,0.38094,-0.0314,0.11412,-0.09885,0.060981,0.17609,0.027781,0.44767,-0.11544,-0.36639,-0.23717,-0.1053,0.069884,-0.24728,0.42591,0.05265,0.20366,0.17528,-0.030025,-0.19366,-0.17444,-0.13586,0.23735,0.29231,-0.24324,0.20168,-0.0042133,-0.079559,-0.66372,0.098955,-0.06967,-0.23669,0.15677,-0.33327,-0.70983,-0.088101,-0.063003,-0.31503,-0.20707,-0.011265
thick,-0.23326,-0.43201,0.65894,0.47236,0.13232,0.35284,-0.11846,-0.35156,0.81321,-0.27127,-0.029395,-0.18341,-0.62507,-0.4889,-0.0031254,0.32466,-0.051959,0.43626,0.119,-0.16932,0.35849,-0.028146,-0.43597,0.15617,-0.46178,-0.29023,-0.19684,0.191,-0.19889,-0.33689,-0.49931,0.2554,-0.43873,-0.0080352,-0.0038777,-0.044431,0.22289,0.45459,0.044352,0.48123,0.07854,0.057394,0.20958,0.10996,0.29937,-0.037069,-0.4542,0.40305,-0.24683,0.15931,0.16548,0.29157,0.51478,0.13378,-0.30066,-0.36247,0.097195,-0.31234,0.28343,0.3009,0.071377,0.30132,0.10068,-0.48728,0.12125,-0.17409,0.15935,0.17259,-0.75419,-0.20743,-0.45707,0.046586,0.33659,-0.35647,0.47006,-0.30063,-0.16508,0.10403,-0.10031,-0.4449,0.071604,-0.31356,-0.094073,-0.18318,-0.79821,0.39452,0.42312,0.13762,-0.15395,-0.42762,-0.15162,-0.51661,0.37275,-0.37712,-0.7558,-0.67051,0.32995,-0.32829,-0.6119,-0.26848
rough,-0.15727,-0.10726,0.15444,0.15626,0.040392,0.033986,-0.19958,0.086407,0.61167,-0.15616,0.21854,-0.61836,-0.36169,-0.50582,0.10605,-0.037659,-0.27637,0.35661,0.11851,-0.21685,0.22727,0.086594,-0.50908,0.20201,-0.56561,-0.12507,-0.0011504,0.24564,-0.059647,-0.11571,-0.54904,0.21611,-0.45354,-0.25831,0.10049,-0.43178,0.28517,0.075941,0.11885,0.011286,0.098424,0.095106,0.23122,0.4902,0.21951,0.34137,0.034805,0.24292,0.25613,-0.46876,-0.23582,0.3122,-0.079964,-0.31079,-0.35953,-0.05383,0.26358,-0.196,-0.033024,0.20788,0.05238,0.16737,0.1946,-0.62867,0.27768,-0.059928,-0.11973,-0.25916,-0.58729,0.30555,0.15888,0.18222,0.079204,-0.28779,0.029696,-0.23307,-0.2712,0.22226,-0.036602,-0.10939,-0.23459,-0.12686,0.090384,-0.15621,-0.69507,0.57276,0.21794,0.3158,-0.20266,0.11603,0.18104,0.19486,0.22169,0.068258,-0.099868,-0.73269,0.31426,-0.59852,-0.56315,-0.29633
nose,-0.3644,-0.33313,0.26999,0.8942,-0.25697,-0.12375,-0.29634,-0.020699,0.26983,-0.26305,-0.015428,-0.16591,-0.6619,-0.56561,0.13652,0.45198,0.35333,0.16283,-0.071113,-0.07676,0.17485,-0.26691,-0.5165,-0.40342,-0.24049,-0.25744,-0.18814,0.5574,-0.27093,0.11822,-0.16383,0.13098,-0.32797,0.024259,0.034496,0.27207,0.1649,0.095883,0.027783,0.024214,-0.11983,-0.16185,0.66211,0.41497,-0.094209,-0.17591,0.36896,-0.06521,-0.2268,-0.089673,0.24103,0.22326,0.53834,-0.49415,-0.10263,-0.29409,0.13634,0.21963,0.17844,0.39398,0.066138,-0.30717,0.16866,-0.77091,0.41643,-0.057065,-0.10185,-0.39406,-0.2929,-0.94111,-0.011852,0.36489,0.016616,-0.59126,0.20063,-0.13323,-0.077956,0.20851,-0.11204,-0.28139,0.1536,0.33601,0.25559,0.10714,-0.44266,0.30916,0.30321,0.49247,-0.43449,0.0065971,0.026162,0.21244,0.36574,-0.12832,-0.92831,-0.2721,0.18486,-0.058628,-0.11768,-0.48072
smooth,-0.51256,0.1116,0.14008,0.25469,0.11538,0.14925,0.032888,-0.5942,0.77913,-0.081509,-0.41443,-0.17036,-0.74104,-0.28811,-0.083531,-0.50038,-0.21463,0.23396,0.39477,-0.081058,0.44437,-0.11886,-0.10794,-0.29499,-0.38573,-0.30865,-0.4885,0.40987,-0.026308,-0.017035,-0.26538,0.70302,-0.13952,-0.16261,0.088825,0.068419,0.17686,0.42438,0.34075,0.07215,0.35663,-0.23983,0.37865,0.26892,-0.24704,-0.017762,0.035454,0.087427,0.040108,-0.41332,-0.14119,0.34454,-0.12189,-0.29816,-0.28206,-0.28207,-0.14082,-0.06684,-0.025204,0.05461,0.099748,0.24339,0.67755,-0.68691,0.25475,-0.21905,-0.087841,-0.1477,-0.56415,-0.22614,0.080442,0.18082,0.23653,-0.45393,0.35352,-0.18209,0.014575,0.52432,-0.056665,-0.47348,0.17277,0.031129,0.31992,-0.112,-0.78608,0.16184,0.40714,0.67917,0.090321,-0.23199,-0.0064377,-0.3724,0.49353,0.11092,-0.50391,-0.55551,0.25471,-0.62029,-0.19463,-0.067912
sit,-0.043663,-0.049061,0.23532,-0.064276,0.10233,0.83796,-0.38726,0.27149,0.99377,-0.4206,-0.37227,0.10477,-0.31309,0.074456,-0.11515,0.46611,0.4215,0.17199,-0.34227,0.34999,0.34027,-0.23044,-0.047578,0.13141,0.21212,0.3094,-0.051704,0.19713,0.062534,-0.19011,-0.41757,0.36722,-0.27718,-0.41344,-0.41403,0.048047,-0.58554,0.18089,0.15591,0.13122,-0.36795,0.071645,0.57518,-0.0012376,0.017111,0.34524,0.51818,0.10241,-0.50267,0.099832,-0.3603,0.02664,0.21445,-0.21941,0.37792,0.17744,-0.034148,-0.33742,0.35497,-0.13303,0.17327,-0.01643,-0.35206,-0.31218,0.6231,-0.090784,-0.1153,0.095619,-0.11521,-0.54458,-0.29816,0.26513,-0.021642,-0.25022,-0.17317,0.32709,-0.060173,0.15723,0.35449,-0.18664,0.11719,0.56529,0.095385,-0.10381,-0.030558,-0.19291,0.42017,0.083978,-0.39818,-0.034355,0.074497,0.35197,0.10038,-0.26903,0.009452,-0.562,0.14057,-0.37961,-0.042604,0.23614
circular,0.025056,-0.034219,0.26435,0.12916,-0.16676,0.13508,-0.23776,-0.28628,0.54271,-0.21416,-0.11601,0.36256,-0.39559,-0.040639,-0.16309,0.11494,0.096761,0.25476,0.33953,-0.25907,0.2382,0.13238,-0.35409,-0.634,-0.076815,0.040484,-0.025025,0.34196,-0.067687,7.6015e-4,-0.63534,0.1661,-0.35319,-0.39825,-0.6032,0.099589,0.086551,-0.30437,0.091849,0.063009,0.056111,-0.0084201,-0.032043,0.3525,0.013162,0.053397,0.24665,0.16986,-0.16016,-0.54137,0.11112,-0.057049,0.22351,0.1465,-0.33197,-0.51984,-0.26159,-0.31197,0.41683,0.23298,0.18738,0.16227,0.45362,-0.26938,0.30658,0.25212,-0.25337,-0.26035,-0.12846,-0.3563,0.14541,0.22256,0.25381,-0.52637,0.22709,-0.13547,0.097262,0.4507,-0.1703,-0.81117,-0.3034,-0.059193,0.17025,-0.54733,-0.56583,0.12344,0.27583,-0.17391,-0.33443,-0.054904,0.36549,-0.28759,-0.18521,0.019288,-0.27873,-0.78951,-0.15809,-0.016544,-0.17654,-0.16071
sheep,0.1904,-0.02561,-0.40523,0.71507,0.080964,-0.18571,0.098221,-0.1995,0.42934,0.019902,-0.3538,-0.18543,-0.60844,-0.69025,-0.05265,0.25876,-0.21191,-0.0036322,0.07823,0.6748,0.23189,0.31531,-0.46983,0.019918,-0.051412,0.55934,0.43452,0.64913,-0.28256,0.049752,-0.29524,-0.33677,-0.50437,-0.063445,0.36503,-0.26438,-4.6363e-4,0.0036415,0.05607,-0.29894,-0.0067556,0.012735,-0.64767,0.072959,0.41686,0.075709,0.1348,0.17605,-0.30899,-0.60308,0.16154,0.035917,0.14569,-0.20096,0.26581,-0.0152,0.12987,0.14179,0.17797,0.24539,0.799,-0.054408,0.0328,-0.792,0.24058,-0.52791,-0.38968,-0.13714,0.13605,0.26916,-0.066445,0.010202,0.058335,-0.059418,-0.40661,0.13258,-0.046985,-0.1891,0.076203,0.18202,-0.38531,0.44001,-0.11113,0.74792,-0.32192,0.43671,0.16942,0.51437,-0.35903,-0.54435,0.48248,-0.56046,0.50188,-0.45147,-0.17465,-0.21968,0.042887,-0.13766,-0.77307,-0.083151
rubber,-0.17974,-0.43443,0.67953,0.65826,0.2581,-0.16375,-0.26522,-0.14223,0.71352,-0.28756,-0.19602,-0.16568,-0.042237,-0.46173,0.2387,-0.4495,0.43355,0.76098,0.37705,0.12982,0.26757,-0.41775,-0.10442,0.17143,-0.25479,-0.17312,0.0054057,0.28721,0.13692,-0.57219,-0.03256,-0.041464,-0.25791,-0.27914,-0.3317,0.45602,-0.22462,-0.21174,-0.31347,0.17411,0.334,-0.14215,-0.16013,0.11914,-0.28846,-0.28472,0.10508,-0.014726,-0.029554,-0.29712,-0.022552,0.51799,0.09055,-0.27935,-0.20911,-0.057666,0.40967,-0.16342,0.010087,-0.086698,0.75454,0.094473,0.56624,-0.55444,0.027582,0.21627,-0.26907,-0.28135,-0.30877,-0.3488,-0.31164,0.36606,0.37385,-0.33462,-0.04825,-0.1024,-0.31104,-0.12501,-0.24101,-0.11701,0.061092,0.42869,0.39165,0.13038,-0.38535,0.18281,0.082818,0.54904,0.13111,-0.040009,0.37207,-0.55927,0.018529,-0.572,-0.18176,-0.80009,0.48878,-0.18409,-0.056488,0.014383
snake,-0.35325,-0.70008,0.20676,-5.3283e-5,-0.17864,-0.31271,-0.13978,-0.28611,0.49895,-0.2969,0.095588,0.12592,-0.4969,-0.26365,-0.090011,0.39754,0.064144,-0.11676,0.24593,0.3481,0.42112,0.081897,-0.35559,-0.11815,-0.16398,-0.030471,0.15413,0.31859,-0.13323,0.03215,-0.19555,-0.15102,-0.57346,-0.068069,0.18268,0.16041,-0.099756,0.073431,0.35184,-0.25381,0.20118,0.18218,-0.0559,0.39814,0.50702,0.23036,0.069969,-0.025952,-0.27052,-0.44177,-0.27292,-0.31302,-0.10769,-0.78425,-0.27834,-0.093975,-0.028012,0.17328,0.29727,0.2213,0.40917,-0.33078,0.041859,-0.78368,0.12587,-0.44349,-0.11241,0.0055011,-0.17495,-0.049789,0.2468,-0.35797,0.26127,0.0092847,0.1891,-0.4635,-0.03312,-0.19486,-0.017529,-0.011152,0.24558,0.95915,0.12562,0.093818,-0.08473,0.71286,-0.25561,-0.026282,-0.80174,-0.070317,0.36566,-0.28107,0.39727,-0.10213,-0.49737,-0.80464,0.57308,0.096168,-0.24656,-0.2904
scales,0.27584,-0.14696,-0.29021,-0.2868,0.080326,0.10396,-0.4234,0.067046,0.45834,-0.65366,-0.050074,0.19941,-0.60341,0.32606,0.21879,0.66291,0.096021,0.30249,0.055958,0.16147,-0.0084976,-0.35351,-0.19222,-0.19359,-0.36104,0.0073245,-0.10536,0.12082,-0.65236,0.24975,-0.37125,0.62543,-0.28595,-0.14768,0.11731,-0.056121,0.43719,0.16404,-0.01156,-0.039371,0.0071335,-0.15839,-0.35066,0.26823,0.20463,-0.34069,0.1423,0.35095,-0.16395,0.0023635,-0.43153,-0.086383,0.091482,0.13247,-0.19302,-0.3208,0.22265,-0.064577,0.8549,-0.17983,0.16834,-0.069745,0.69675,-0.13944,-0.044381,-0.50316,-0.028212,-0.34352,-0.5519,-0.38692,-0.062315,-0.043301,0.52115,-0.17874,0.20596,0.018188,-0.44288,0.17143,-0.20697,-0.65909,-0.067059,0.0066729,0.20703,-0.18214,-0.62098,0.49367,-0.061379,0.12777,-0.19992,0.035562,-0.16125,-0.30964,0.3132,-0.39059,-0.10778,-0.77876,0.39254,-0.214,-0.4474,-0.10557
deer,-0.0013486,-0.39807,-0.0051483,0.52198,0.21045,-0.32133,0.32776,-0.25859,0.798,0.0012364,-0.12864,0.36096,-0.36073,-0.66727,-0.31401,0.73258,0.41289,-0.30316,0.19531,0.17363,0.34445,0.22419,-0.88715,-0.0096032,-0.15808,0.7165,0.28806,-0.026167,-0.15521,0.24678,-0.052831,-0.29681,-0.57199,0.44016,0.34817,-0.44401,0.092296,0.029172,0.65416,-0.22637,-0.2238,0.15089,-0.67358,0.41468,0.56925,0.15723,0.16272,0.15231,0.014234,-0.40853,-0.021365,-0.22319,-0.091514,-0.46696,0.23649,-0.018624,0.14701,0.6447,0.31776,0.0083229,0.86635,0.086707,0.1947,-0.90933,0.14701,-0.49994,-0.0035532,0.44655,-0.12158,-0.49832,0.11911,-0.12234,0.20841,0.19516,-0.33057,0.0673,0.1565,-0.32421,0.088005,-0.12474,-0.1255,0.78715,0.068193,0.42814,0.017477,0.46186,-0.080303,-0.029413,-0.62051,-0.071922,0.43868,-0.39314,0.66935,-0.38326,0.07207,-0.077884,-0.14511,-0.43723,-0.29173,-0.45253
wet,-0.047881,-0.60625,0.11077,0.05079,0.1878,0.26654,-0.21039,-0.36089,0.53271,-0.31813,-0.079304,-0.28632,-0.4997,-0.28186,-0.078911,0.23689,0.074005,0.27773,0.36509,-0.048796,0.27298,-0.038893,-0.31496,0.043289,-0.044132,-0.49823,-0.080842,0.47408,-0.46138,-0.31077,-0.026628,-0.060767,-0.56032,-0.089521,-0.29987,-0.14291,-0.013512,0.35205,0.28527,0.37754,-0.060627,-0.40307,0.17425,0.28202,0.12927,-0.074006,-0.0045204,0.11814,-0.13092,0.269,-0.1614,0.31,-0.27945,-0.052546,-0.14699,0.41844,-0.14359,-0.14493,-0.23916,0.32216,0.59634,0.25901,0.015752,-0.60762,-0.05741,0.13502,-0.2371,-0.25666,-1.0365,0.086924,-0.41905,0.44009,0.2358,0.017508,-0.47723,0.23488,-0.24328,-0.019192,-0.076761,0.25606,0.29964,0.068681,0.3697,0.19066,-0.51167,-0.050146,0.35727,0.43415,0.11896,-0.39331,0.41542,-0.38157,0.16984,-0.56256,-0.22399,-0.80978000000000006,0.34592,0.063812,-0.5478,-0.13957
fur,0.13653,-0.24318,0.14972,0.31456,0.18772,-0.29923,0.27612,0.0807,0.40506,0.0051091,0.86212,-0.44289,-0.10049,-0.70838,-0.50212,0.3931,0.14087,-0.023587,0.45905,0.13557,0.52809,-0.34417,-0.29499,0.45777,-0.57148,0.12706,0.043806,0.64904,-0.077098,-0.18007,-0.12434,0.21662,-0.56532,0.30717,0.35092,-0.51002,0.18613,0.098119,0.54258,0.26304,-0.17387,-0.36602,-0.29756,0.64046,0.27083,-0.0013959,0.13898,0.48402,-0.70279,-0.46796,-0.081133,0.17603,0.43974,-0.32957,-0.19673,-0.16878,0.54263,0.3766,-0.37026,0.37807,0.85243,-0.097701,0.56182,-1.0304,0.54745,-0.23804,-0.21963,0.46694,-0.68291,-0.050729,-0.53675,-0.2501,0.12796,-0.71547,0.086974,-0.17396,0.21893,-0.39849,0.19591,0.091082,0.12982,0.023037,-0.27618,0.3124,-0.69584,0.71704,-0.37788,0.065006,-0.50697,0.037843,0.031192,-0.27427,0.48035,-0.63912,0.20084,-0.47729,0.67342,-0.34057,-0.13156,-0.23477
elephant,-0.32402,-0.81928,-0.076121,0.16898,0.12377,-0.068941,-0.13123,-0.038394,0.4833,-0.34371,0.071615,-0.23746,-0.48244,-0.68542,-0.23332,0.43166,0.11699,0.097247,-0.046667,-0.022089,0.44158,-0.01737,-0.59921,-0.055464,-0.30376,0.11742,0.47097,0.11568,0.050343,0.17588,-0.54921,0.20609,-0.27438,-0.19722,-0.074359,-0.20013,-0.01102,-0.077884,0.15477,-0.10805,-0.024771,-0.20123,-0.054175,0.2838,0.42378,-0.3733,0.093015,-0.0087468,-0.19455,-0.23828,0.3108,-0.007966,0.42208,-0.41898,-0.27458,-0.13865,0.16434000000000001,0.096787,0.4148,-0.23368,0.060823,0.4639,0.055985,-0.86147,-0.010494,-0.25223,-0.019054,0.028512,-0.10923,0.024963,0.068542,0.031753,0.15879,-0.094942,0.13769,-0.19121,0.052659,-0.12161,-0.34161,-0.040605,-0.19279,1.0024,0.16904,-0.050301,0.34286,0.55705,-0.10063,0.14434,-0.61846,-0.22486,0.75563,-0.42783,0.5431,-0.16969,-0.23694,-0.034353,-0.24709,-0.063714,-0.35333,0.12328
silk,-0.059534,0.32982,0.17892,0.53545,0.23438,0.25542,-0.14767,-0.47449,0.45804,-0.32122,0.081607,0.49559,-0.059783,-0.39286,0.24316,-0.47887,0.47282,0.66974,0.18926,-0.20487,0.51199,-0.45754,-0.63065,0.44417,-1.2274,0.41034,-0.21171,0.25297,-0.13233,-0.11725,-0.1694,-0.35333,-0.31717,-0.20846,-0.18218,-0.0093492,-0.066312,0.085997,0.097886,-0.057824,-0.34069,-0.35233,-0.28797,0.18486,0.40137,-0.37051,0.22966,0.42023,-0.19508,0.24106,0.30088,0.55243,0.04484,-0.72648,-0.2911,0.042162,0.17221,0.22132,-0.14064,0.6571,0.53424,0.29082,0.4374,-0.28998,0.39986,0.079042,-0.39046,0.033029,-0.17629,0.22539,-0.37782,0.35326,-0.13665,-0.80798,0.037354,-0.54399,-0.17284,-0.24213,-0.14461,0.22258,-0.25153,0.53572,0.22907,0.016219,-0.33726,0.63605,-0.045249,0.27005,-0.13697,-0.25201,0.63614,-0.67529,0.61843,0.23537,0.26226,-0.51442,0.27241,-0.30562,-0.48589,-0.0071967
penguin,-0.20258,-0.57952,-0.16426,0.61074,0.38159,-0.42531,-0.028399,0.19182,0.12789,-0.68412,0.31544,-0.20201,-0.1253,-0.5422,-0.50568,0.29271,0.20591,0.37404,-0.21695,0.052633,0.47894,0.32836,-0.75058,-0.029399,-0.18764,0.051431,0.20211,0.48354,-0.50349,-0.67335,-0.68672,0.40609,-0.61312,-0.074006,0.20925,-0.52879,0.3768,-0.1537,0.046944,0.24568,0.038086,0.17072,0.14461,0.1631,0.58573,-0.10403,-0.13629,-0.27302,0.38918,-0.15607,-0.3199,0.44851,-0.25539,-0.30287,-0.88798,0.49307,0.23402,0.33363,-0.1922,-0.10238,-0.50122,0.19322,-0.1955,-0.40652,0.45964,-0.16461,-0.015086,-0.54842,-0.040126,0.40014,0.076106,0.090123,0.29826,-0.38963,0.14158,0.43623,0.40388,0.25866,0.13245,0.051046,-0.43521,0.26091,0.25831,-0.22329,-0.12506,0.51281,-1.1706,-0.068963,-0.37196,0.043304,0.09323,0.54264,0.23037,-0.16414,-0.21705,-0.60593,0.25209,-0.24302,-0.47373,-0.088181
leather,-0.27223,0.0060426,0.58815,0.62533,0.22634,0.15042,-0.33186,0.032889,0.47973,-0.14239,0.2037,0.059316,-0.035536,-0.65638,0.1369,-0.14172,0.6247,0.83773,0.19682,0.17641,0.22789,-0.31546,-0.55947,0.41209,-0.4366,0.01452,0.066793,0.32421,-0.17286,-0.60353,0.0074298,-0.026438,-0.7995,0.26259,-0.096274,0.27503,-0.08979,0.073749,-0.0026299,0.004217,0.32064,-0.40328,0.24087,0.18705,-0.021137,-0.015703,0.11805,0.13395,-0.21107,-0.12295,-0.13396,0.44433,0.20633,-0.54947,-0.061036,0.11991,0.53406,-0.14425,0.26615,0.033297,0.7572,0.11053,0.30366,-0.5966,0.20879,-0.27983,-0.43829,-0.26763,-0.532,-0.14652,-0.42349,0.34383,0.13459,-0.72922,-0.01442,-0.0035359,-0.22962,-0.58055,0.015325,-0.17513,0.020317,0.086062,0.17337,0.26383,-0.66331,0.53902,0.23792,0.33735,-0.074205,-0.39342,0.11858,-0.33883,0.24342,-0.58917,0.26089,-0.75226,0.4711,-0.36434,-0.23344,-0.053103
crow,-0.21885,-0.53047,-0.071508,-0.048181,0.41196,-0.19437,-0.60231,-0.13267,0.78011,-0.60017,-0.028503,-0.29463,-0.17948,-0.48276,-0.17081,0.39342,0.15251,-0.16339,0.30945,0.20682,0.44601,0.10182,-0.4892,0.054822,-0.2322,0.20269,0.37408,-0.075059,-0.3494,0.082283,-0.80099,0.058762,-0.44185,0.084459,-0.056632,0.12417,0.32403,0.057854,0.33446,0.011404,0.12747,0.16965,0.32482,0.036274,0.25733,0.12398,0.54769,0.39262,0.043182,-0.65449,-0.37849,0.44212,0.17341,-0.34825,0.20529,-0.24247,-0.10166,0.34449,0.34897,-0.086018,-0.097633,0.0044185,-0.20031,-0.69535,0.069237,-0.41414,0.21749,0.37661,-0.40993,-0.091489,-0.56202,0.22897,-0.19813,0.54971,-0.15936,0.12111,0.3384,-0.45942,0.26821,-0.39461,-0.0031349,0.41241,0.3118,-0.204,-0.4448,0.33939,-0.41276,-0.35952,-1.1904,-0.20109,0.14751,0.10483,0.70913,-0.018835,-0.047698,-0.46315,0.075728,-0.1945,-0.29408,-0.49396
bat,0.1154,-0.34678,0.026046,0.25791,-0.34634,-0.053149,-0.18064,0.28071,0.25413,-0.58465,0.44936,-0.14685,-0.31241,0.053064,-0.18984,0.48179,0.29263,-0.52448,-0.15745,0.3676,0.6848,-0.62171,-0.36991,-0.026415,0.0092129,0.23183,0.15871,0.030579,0.16323,-0.33342,-0.36291,-0.24645,-0.23625,-0.11848,-0.26736,0.33543,0.33344,-0.0032949,0.16745,-0.087007,0.50993,0.026542,-0.32492,0.26433,0.51518,0.26937,0.056826,-0.13985,-0.41608,-0.17222,-0.1084,0.39266,0.38742,-0.41761,0.30282,-0.26556,-0.042674,0.19976,0.20903,0.24844,0.20699,-0.29548,-0.26815,-0.86783,0.11197,-0.15375,-0.15009,-0.082116,-0.43154,-0.39456,-0.28906,0.033138,0.0021372,-0.27901,0.1195,0.19814,-0.0047689,-0.076367,0.037991,-0.479,0.17381,0.79535,0.21815,-0.14948,0.079335,0.21086,-0.067759,0.028392,-0.31141,-0.24665,0.090683,0.052264,0.76394,-0.48565,-0.2772,-0.48843,-0.29643,-0.34296,-0.46095,-0.23507
hide,-0.31657,0.22938,0.076218,0.29576,0.042665,0.17037,-0.05324,-0.16848,0.22194,-0.35291,0.032819,-0.49112,-0.33171,-0.10288,-0.12183,0.061995,-0.1893,0.14607,-0.2407,0.2166,0.54227,-0.17782,-0.53546,0.12522,-0.20639,0.29404,0.15849,0.50368,0.26632,-0.28758,-0.45628,0.037616,-0.75584,0.14058,-0.22532,-0.13314,0.0087511,-0.021014,-0.26005,0.53284,-0.27734,0.12777,0.028049,0.1473,0.67749,0.019692,0.57272,-0.51224,-0.21634,0.085776,0.17224,0.0070443,0.20871,-0.16107,0.14807,-0.0012923,0.20477,0.079303,0.020368,-0.042451,0.46872,0.09965,-0.10075,-0.35828,0.56906,-0.073799,-0.24378,0.018364,-0.41188,-0.27907,-0.1547,-0.020622,0.11184,-0.16426,-0.26579,-0.13556000000000001,-0.23459,-0.26029,0.23924,-0.16844,0.28504,0.59615,0.58487,0.35606,-0.35904,0.037362,-0.1629,0.077339,0.0079374,6.1368e-4,0.092585,0.12365,0.18929,-0.0019176,-0.40272,-0.32578,0.14133,-0.013989,-0.3236,-0.19627
pig,-0.24123,-0.17172,-2.2408e-4,0.46962,-0.11086,-0.52329,0.10297,-0.065049,0.47448,-0.10805,-0.11574,-0.3243,-0.46775,-0.69956,-0.11295,0.29089,0.30882,-0.26116,0.1417,0.48938,0.35137,-0.083247,-0.46566,0.26937,0.012034,-0.187,0.2089,0.24862,-0.021522,-0.20467,-0.21815,-0.094026,-0.50722,-0.22302,-0.011766,-0.40221,0.18006,-0.41619,-0.19886,0.069026,0.1079,0.15784,-0.12193,-0.38124,0.36886,-0.23111,-0.15007,0.15579,0.12345,-0.7033,0.076629,0.28836,0.30894,-0.28443,0.25239,0.12364,0.22682,0.082534,0.40941,0.49728,0.38731,-0.051845,-0.20603,-0.93098,0.1857,-0.24102,-0.18462,-0.12263,-0.13048,0.24814,-0.21081,0.15324,0.19129,-0.054302,0.17984,0.1042,0.13401,-0.032929,0.14464,-0.15873,-0.20241,0.44792,0.14852,0.3926,0.031691,0.62807,-0.20849,0.28151,-0.7191,-0.44463,0.62948,-0.49328,0.56954,-0.33625,-0.64377,-0.44457,-0.0079088,-0.27695,-0.38308,0.16328
ears,-0.13267,-0.098313,-0.13273,0.92053,0.10195,0.1276,-0.11018,-0.091886,0.46178,0.14994,-0.076436,-0.5185,-0.71108,-0.41354,0.1664,0.5849,-0.080981,0.2815,0.052141,0.47194,0.19582,-0.087365,-0.5542,-0.24334,-0.17994,0.14156,0.028083,0.52242,0.10806,0.23511,-0.33392,0.3555,-0.3086,0.45039,0.2145,0.031713,0.022524,0.18472,-0.13471,0.076336,-0.32381,0.019484,0.10452,0.62695,0.2357,-0.18631,0.36737,0.32091,0.0063955,-0.45949,0.3669,0.17338,0.42527,-0.018111,-0.25348,-0.45589,0.30222,0.39937,0.42837,0.27079,0.40858,0.13256,0.12272,-0.72683,0.02504,-0.32783,0.090658,-0.15456,-0.51888,-0.56646,-0.55186,0.29271,0.22567,-0.6472,0.12048,-0.036379,-0.14978,-0.11693,0.14504,-0.33403,0.13402,0.58424,0.0012832,0.04393,-0.23083,0.55471,0.31878,0.25842,-0.70172,-0.3148,-0.17724,-0.13783,0.67307,-0.19817,-0.63472,-0.24217,0.35424,-0.24351,-0.17487,-0.096311
spots,0.51761,0.12542,0.31836,0.51859,-0.24304,0.061591,-0.21528,-0.321,0.35949,-0.44089,-0.10402,-0.04588,-0.59025,-0.065911,-0.16677,0.2273,0.14219,-0.33823,-0.033051,-0.15157,0.43544,-0.10217,-0.29318,-0.21988,-0.362,0.20793,0.0022884,0.34534,-0.11618,0.0091783,-0.54467,0.18817,-0.56181,0.041078,-0.32981,-0.20322,0.13826,0.60443,0.55305,0.4269,-0.058688,-0.26843,-0.084923,0.53521,0.40486,-0.12218,0.055966,0.35324,-0.11467,-0.02873,0.27938,0.15183,0.1602,-0.5698,-0.47552,0.1057,0.076681,0.17742,0.13299,-0.29008,0.35019,-0.23979,0.53649,-0.52627,-0.053441,-0.3119,-0.20043,0.32857,-0.23611,-0.41962,-0.30466,0.45908,0.019043,-0.58437,0.08878,0.15705,-0.18286,0.079112,-0.020928,-0.092833,0.49208,0.2484,0.27814,0.11652,-0.55051,0.13343,0.54083,0.081574,-0.37125,-0.13756,0.32625,0.079868,0.27471,-0.018873,-0.08678,-0.15825,0.091452,-0.36728,-0.35847,-0.48301
shark,-0.16448,-0.61629,-0.020409,-0.28311,-0.31076,-0.74048,0.16971,-0.15199,0.23253,-1.0487,0.24994,0.26306,-0.34618,-0.24532,-0.27831,0.75626,-0.061332,0.21683,-0.35666,-0.14393,0.38039,-0.14304,-0.18383,-0.24874,-0.13688,0.062737,0.17766,-0.035864,-0.67147,-0.47873,-0.62059,0.03774,-0.40003,-0.10895,0.043685,-0.11751,0.04691,-0.033608,0.34871,0.36549,-0.023623,-0.12113,0.41541,0.24832,0.53312,0.32414,-0.073196,-0.13594,-0.13091,-0.11375,-0.37338,-0.25801,0.15675,-0.76966,-0.18245,-0.075641,0.018051,0.43549,0.43778,0.34472,0.0040545,0.18595,0.25421,-1.0771,0.038238,-0.055878,-0.036201,0.072565,-0.0605,0.024802,-0.12979,0.06301,0.32826,-0.39445,0.594,0.022015,0.061836,-0.043306,-0.18216,-0.080084,0.16961,0.29477,0.68293,0.50334,-0.080881,0.73752,-0.37116,0.39877,-0.79782,-0.22913,0.27054,-0.24022,0.24183,-0.27852,-0.7202,-0.16127,0.53952,-0.32566,-0.36424,-0.31195
tough,-0.4581,0.064675,0.1718,0.30108,0.10104,-0.10997,-0.17504,0.051025,0.42527,0.042003,0.0082813,-0.44999,-0.29788,-0.30741,0.023761,0.066669,0.031464,0.54894,0.22097,0.13241,0.8951,-0.1033,-0.45363,0.48657,-0.59803,-0.1313,-0.081104,0.11116,0.087342,-0.33359,-0.29304,0.20664,-0.10073,-0.061067,-0.25778,0.13951,0.019803,0.20115,-0.38858,0.2252,-5.3822e-4,0.11113,0.21931,0.42347,0.36417,0.10688,-0.36794,-0.0046083,-0.077869,-0.16839,-0.5088,0.45294,-0.090702,-0.24768,-0.035258,-0.22133,0.73678,-0.17525,0.0067919,0.093742,-0.14499,0.039594,-0.030445,-0.59723,-0.059935,-0.16893,-0.11627,0.096448,-0.4087,-0.092628,-0.49515,0.40304,-0.0064989,0.097551,-0.0061149,-0.035951,-0.30262,0.48391,-0.21096,-0.12856,0.050077000000000003,0.28495,0.44367,0.046496,-0.24128,-0.37141,0.076001,0.39438,-0.19722,-0.45269,-0.20293,-0.19506,0.42865,-0.16021,-0.61357,-0.64725,0.32935,-0.57959,-0.33874,-0.048825
rounded,0.094009,-0.32007,0.19039,0.32327,-0.15935,0.20957,0.0044135,-0.1099,0.37115,0.001501,0.14277,-0.37383,-0.46348,-0.36673,0.20548,0.20092,0.36646,0.18389,-0.1821,-0.060671,0.51968,-0.042009,-0.49013,-0.11285,0.044193,-0.022251,-0.17798,0.22359,0.028501,0.22287,-0.72829,0.5147,-0.0052954,-0.27085,-0.31204,-0.18131,0.048156,0.17301,0.1098,0.19573,-0.20435,-0.069154,0.23414,0.17945,0.046765,0.25606,-0.10305,0.40086,0.20869,-0.13745,-0.038833,0.13662,0.54901,-0.090299,-0.50431,-0.38568,0.14545,0.29846,0.46808,0.31237,0.6224,0.16676,0.42016,-0.45406,-0.11342000000000001,0.054902,0.32693,0.064749,-0.34634,-0.39603,0.065677,0.24573,0.28613,-0.24215,0.4407,-0.21442,-0.11161,0.34916,0.02614,-0.77251,0.042561,-0.074012,0.10871,0.070772,-1.014,-0.026896,0.31518,-0.05546,-0.34807,-0.30322,-0.048917,0.21341,0.42846,-0.20134,-0.39833,-0.72184,0.21834,-0.40794,-0.23014,0.038895
swan,-0.032281,-0.87655,-0.38708,0.35059,-0.093577,0.15683,-0.18235,-0.55024,0.5932,-0.95292,-0.52117,-0.19395,-0.32608,-0.0091912,-0.23994,0.2888,0.3239,0.1444,0.28423,-0.16064,0.28328,0.074088,-0.58535,0.056887,-0.118,0.33024,0.044381,0.69794,-0.38123,0.054378,-0.024345,-0.040273,-0.59439,-0.021565,0.25938,-0.084863,0.25099,-0.016692,0.2981,0.010599,0.23624,0.23519,0.086203,-0.10045,0.43049,0.297,0.25057,0.18628,0.12599,-0.46306,0.14495,-0.033973,0.03307,-0.39461,-0.10884,0.24872,0.32311,0.13235,0.32322,0.11386,-0.029907,-0.016335,0.093658,-0.16354,0.021533,0.16211,0.15071,0.10818,-0.76291,-0.2091,-0.0927,0.23885,-0.088464,0.0044182,0.15139,0.26282,0.55464,0.06187,0.19474,-0.26419,-0.10754,0.20725,-0.021175,0.10668,-0.052686,0.46731,-0.54652,-0.30577,-0.85927,0.098828,0.64336,-0.3514,0.18404,0.48758,0.26702,-0.08545,0.42793,-0.20976,-0.30136,-0.67109
amber,-0.33277,-0.3407,0.40975,0.21405,0.39617,-0.095931,-0.41829,0.10047,-0.081002,-1.021,-0.035915,-0.070456,-0.42521,0.17547,0.10253,-0.50485,0.43807,0.18906,0.26104,-0.012879,0.62159,-0.28701,-0.52274,0.16387,-0.44131,0.51595,-0.25483,0.55317,-0.2734,-0.42411,0.29585,-0.40336,-0.63029,0.13263,-0.31778,-0.31482,0.28444,0.53812,0.38206,0.48501,-0.010022,0.10532,-0.20067,0.17406,0.66071,-0.1938,-0.064242,0.24557,-0.24651,0.098449,0.13086,-0.097126,0.15055,-0.24413,-0.32712,0.23424,-0.2875,0.29958,0.16387,-0.071708,0.46483,0.016366,0.20207,0.1534,0.137,-0.18813,-0.22087,0.17791,-0.6949,0.53664,-0.15825,0.039125,0.0062474,-0.24608,0.061483,-0.27754,0.19265,-0.08043,-0.02678,-0.13951,0.26039,-0.012799,0.21763,0.17635,0.063328,0.31665,0.10725,0.51316,-0.19856,0.34999,0.38559,0.38097,0.13042,-0.079961,-0.1267,-0.43172,0.27319,-0.093526,-0.2193,0.13292
beaver,-0.14667,-0.51153,0.23626,-0.01678,0.36232,-0.59219,-0.010045,-0.0067226,0.74109,-0.082822,-0.060407,0.078108,-0.079166,-0.42264,-0.44235,0.18052,0.39162,-0.2057,0.068038,0.28127,0.49902,0.060727,-0.44122,0.12301,-0.081287,0.14042,0.13575,0.13919,-0.50763,0.085857,-0.12568,-0.15493,-0.36787,-0.27854,0.40556,-0.18907,0.33721,-0.29716,0.3673,-0.046005,-0.28647,-0.30979,-0.24335,0.23432,0.65646,0.28011,0.28927,0.18648,-0.062854,-0.40481,-0.16157,-0.26303,-0.38161,-0.56385,0.16431,0.17288,0.18909,0.3712,0.011869,0.18225,0.49389,-0.12297,0.5081,-0.621,0.054672,-0.42195,0.2216,0.32492,-0.65728,-0.57059,-0.17435,0.19154,0.2138,-0.024612,0.13576,-0.11787,0.65849,-0.20678,0.32548,0.3605,-0.3074,0.12953,0.16716,0.56868,0.14794,0.25636,-0.017381,-0.46284,-0.70305,0.39286,0.023467,-0.15959,0.44182,-0.44832,-0.26999,-0.61833,0.13515,-0.42413,0.23117,-0.25882
tan,-0.10897,0.52368,0.27194,0.71668,-0.37392,0.26802,0.058288,-0.098344,-0.34776,-0.24757,-0.093752,-0.011671,-0.51271,-0.1994,-0.002681,-0.034685,0.32644,-0.44028,0.057787,-0.4105,-0.016915,-0.33153,-0.56155,0.11941,-0.14036,0.37639,-0.16605,0.24753,-0.2187,0.15409,-0.3493,0.57336,-0.37917,-0.19385,-0.6513,-0.27722,0.31845,0.93671,1.1583,0.33083,0.6535,-0.28638,-0.021213,-0.15907,0.5224,0.043373,0.19302,-0.23287,-0.46035,-0.25895,-0.08331,0.55246,0.0035657,-0.69866,-0.029543,0.011696,0.39284,0.2238,0.0025981,0.10593,0.12555,0.13665,0.0093818,-0.69451,0.35335,-0.45324,0.03002,-0.20377,-0.69197,-0.22009,0.005733,0.018712,0.30938,-0.32702,-0.14529,-0.36075,-0.27395,0.14618,0.54037,0.1028,-0.039812,0.32075,0.40366,-0.66655,-0.45686,1.0001,-0.064905,-0.35456,-0.57306,0.087931,-0.37058,-0.15814,0.52992,-0.3884,0.26384,-0.78655,0.11385,0.074936,-0.24649,-0.022202
wool,0.011674,0.086877,0.48497,0.86547,0.33105,-0.021281,-0.077674000000000007,-0.20717,0.39405,0.20888,-0.039374,0.088982,-0.22034,-0.51063,0.020945,-0.47782,0.34696,0.82116,-0.060111,0.31989,0.52208,-0.47989,-0.51809,0.43817,-0.5584,0.33524,0.2204,0.54231,-0.28832,-0.40579,0.26738,-0.30784,-0.69796,-0.070178,-0.02952,0.045359,0.20465,0.039246,-0.025019,-0.24948,-0.094711,-0.57846,-0.22501,-0.10973,0.1764,0.12008,-0.12938,0.76584,-0.60634,-0.45332,0.10108,0.28446,0.25686,-0.25623,-0.13448,-0.1619,0.098038,-0.0383,0.40177,0.49602,0.80167,0.34882,0.42413,-0.65676,0.13433,-0.29023,-0.41169,-0.19664,-0.39219,0.47795,-0.62967,0.41262,0.46346,-0.70591,-0.34122,-0.21295,0.28615,-0.084001,-0.1253,0.21158,-0.08703,-0.035515,-0.12804,0.42701,-0.42636,0.26651,0.080562,0.65618,0.098172,-0.58784,0.31191,-0.89879,0.30866,-0.73569,0.25895,-0.44793,0.43151,-0.32068,-0.46444,0.15325
worm,-0.20785,-0.44844,-0.21319,-0.21613,0.31914,0.49048,-0.071865,-0.57462,0.45102,-0.73636,-0.02472,-0.0147,-0.24743,-0.13842,0.0053764,0.042605,-0.25067,0.093121,-0.02905,0.43244,0.19617,0.10227,-0.21463,0.010708,-0.27729,0.098397,0.07707,0.84785,-0.094132,-0.72847,0.060368,-0.068393,-0.40214,0.11191,0.36252,0.19492,0.079247,0.11196,-0.051495,5.5257e-4,0.17123,0.084596,-0.080245,0.59202,0.65101,-0.075814,0.17898,-0.25503,-0.69114,-0.26749,-0.010614,0.12526,0.22112,-0.049308,0.065101,-0.34327,-0.019978,0.15168,-0.050359,0.87218,0.094284,0.16435,0.1186,-0.70528,0.090468,0.19021,-0.20974,-0.15453,0.29702,-0.17348,-0.42601,-0.30166,-0.018003,-0.50193,0.0429,0.035178,0.51948,-0.24566,-0.21444,-0.23825,-0.095843,0.31688,0.51839,-0.076552,-0.10086,0.4095,-0.012083,0.028857,-0.11635,-0.44786,0.28622,-0.11863,0.57388,-0.65109,-1.2204,0.11226,0.038078,0.33648,-0.63629,-0.070511
donkey,-0.079972,-0.35313,-0.85359,0.6775,-0.0054666,-0.26002,0.32309,-0.16376,0.25891,-0.08559,0.14289,0.25406,-0.43777,-0.64262,-0.046695,0.27137,0.02149,-0.43894,0.074074,0.37745,0.4151,-0.045587,-0.54565,-0.13767,0.2639,0.025248,0.091076,0.18286,0.31294,-0.22793,-0.1747,-0.14166,-0.8589,-0.41621,-0.49335,-0.32016,-0.15154,-0.19866,0.27344,-0.05378,0.50511,-0.090708,-0.11469,0.25681,0.25661,-0.15281,0.01526,-0.52445,0.293,-0.73076,0.087898,0.40914,0.214,-0.067805,0.11741,0.35682,0.33699,0.12674,0.52194,-0.0051417,-0.1039,-0.10866,0.038635,-0.88265,-0.20041,-0.26555,-0.27156,0.067811,0.063995,0.34578,-0.22754,0.32398,-0.063937,-0.93602,0.045485,-0.1434,0.1039,-0.15159,0.23274,0.17944,-0.10963,0.84402,0.32186,0.014893,0.092204,0.37758,0.12418,0.1344,-1.0794,-0.67344,0.37843,-0.19478,0.39765,-0.47025,-0.63495,-0.089307,-0.18,-0.31482,-0.3486,-0.22487
stripes,-0.035436,-0.37697,0.34964,0.80882,-0.083278,0.23831,-0.24607,-0.12243,0.28867,-0.44639,-0.10456,-0.13321,-0.40043,-0.0010918,0.041939,-0.016441,0.23123,-0.28842,-0.28584,-0.15832,-0.032664,-0.20295,-0.49578,-0.040192,-0.55332,-0.058016,0.0071749,0.16571,-0.14831,-0.031385,-0.54393,0.03914,-0.092818,0.068483,-0.040884,-0.30452,0.04357,0.23055,0.46097,-0.13261,0.39842,-0.14408,-0.079018,0.16696,0.27718,-0.38548,0.032802,0.63696,-0.24779,0.098735,0.23784,0.19761,0.40277,-0.31443,-0.39703,-0.1063,0.48169,0.19762,0.40914,-0.019679,-0.022767,-0.26503,0.61084,-0.4119,-0.18973,-0.47787,-0.40273,0.18941,-0.76675,0.0054406,-0.54184,0.12169,0.1802,-0.6292,0.29619,-0.063653,0.14688,-0.14509,0.15284,-0.72523,-0.35671,0.11207,0.75076,-0.38769,-0.63863,-0.12037,0.50977,-0.22291,-0.50095,-0.07433,0.20023,0.42376,0.40503,-0.35347,0.21973,-0.72727,0.46041,-0.20266,-0.098409,-0.20018
goat,-0.32956,-0.26729,0.0040928,0.33084,-0.036941,-0.24868,0.31499,0.15129,0.25348,0.08841,-0.15415,0.15067,-0.84858,-0.62819,-0.11425,0.21897,0.39615,-0.47403,0.063108,0.7737,0.1391,-0.071579,-0.50767,0.080805,0.086701,0.23071,0.11418,0.61347,-0.16724,0.098095,-0.19044,-0.31538,-0.60432,0.076098,0.14248,-0.26255,-0.11595,-0.27162,0.052431,-0.15034,0.16853,0.18881,-0.18438,0.31405,0.29254,0.20663,-0.093775,0.31869,-0.18747,-0.6244,0.11289,0.065902,0.17041,-0.10741,0.18008,0.26266,0.14419,0.15414,0.40899,0.10676,0.60421,-0.086465,-0.26015,-0.87338,-0.11473,-0.33856,-0.29166,-0.20963,-0.066253,0.0012583,-0.17689,-0.049993,0.10281,-0.26417,-0.0027612,-0.022385,0.074039,-0.0038705,0.36687,-0.080374,-0.13126,0.72991,-0.1069,0.51189,-0.23601,0.52181,0.39004,0.2756,-0.64918,-0.32734,0.406,-0.63227,0.853,0.047864,-0.24354,-0.80462,0.22158,-0.3041,-0.48018,-0.25743
frog,-0.28569,-0.51799,-0.093069,0.49315,-0.024149,0.0040993,-0.020211,-0.44791,0.51471,-0.83183,-0.22044,0.08956,-0.57981,-0.18507,-0.50201,0.24309,0.094439,-0.28951,0.13582,0.63495,0.19266,-0.082225,-0.24908,0.18696,-0.12307,-0.21239,-0.13052,0.32893,-0.13918,-0.092593,-0.092319,0.13173,-0.095693,0.0053326,0.4367,0.045076,0.23923,-0.19082,0.2689,0.24708,0.15751,0.041882,-0.11363,0.19321,0.60902,-0.039474,0.13318,0.057288,0.1619,-0.30206,-0.085836,0.085409,0.17331,-0.36495,-0.12258,-0.095954,0.45936,0.19413,0.14726,0.13353,0.18483,-0.11226,0.057832,-0.97072,0.13759,0.090243,-0.48549,0.22437000000000001,-0.2728,-0.39892,-0.091376,0.16979,0.02392,-0.26053,0.36066,-0.11941,0.29651,-0.12335,-0.16604,-0.13711,0.11156,0.72358,0.40051,0.10706,0.48331,0.046403,-0.15276,-0.23614,-0.54948,-0.43069,0.43454,-0.20761,0.40299,-0.3759,-0.57202,-0.52224,0.33062,-0.036977,-0.31762,-0.16753
toad,-0.6087,-0.79305,-0.43762,0.044243,0.27368,0.11546,-0.086607,-0.50924,0.21247,-1.0747,0.069143,0.29553,-0.25079,-0.88901,-0.1983,0.15572,0.22071,-0.7342,-0.41905,0.433,0.3741,0.097244,-0.094997,-0.20196,-0.31988,-0.13698,-0.28702,0.2435,0.011022,-0.026776,-0.33285,0.55473,-0.19784,-0.03435,0.094503,-0.063782,0.54189,0.67908,0.055431,0.19073,-0.093209,-0.31085,-0.31674,0.57664,0.63345,0.38544,-0.055164,-0.23797,0.40635,-0.28148,0.16486,4.6631e-4,-0.051572,-0.58619,0.016524,0.25913,0.0062952,0.20133,0.32375,0.034754,0.55329,0.19866,-0.29923,-0.79376,-0.21099,-0.46373,-0.26966,0.45036,-0.76959,-0.1963,0.07061,0.13484,0.1271,-0.14207,0.54838,-0.4773,0.23867,0.30181,-0.09378,-0.1056,0.25699,0.72582,0.3369,0.23449,0.16456,0.18686,-0.28169,-0.024502,-0.18087,-0.66016,0.25866,0.29731,0.017284,-0.51941,-0.66409,-0.65397,0.51139,-0.48284,-0.26421,-0.10004
horns,0.12441,-0.48709,-0.55979,0.50187,-0.27759,0.43836,-0.39002,-0.16726,0.23998,0.029833,-0.039681,-0.22055,-0.40154,-0.55171,0.035168,0.4998,0.273,-0.17934,0.048989,0.50041,0.25544,0.13122,-0.49765,-0.14745,-0.28389,0.23287,-0.2222,0.34482,0.01381,0.37236,-0.17655,0.10623,-0.37835,0.41994,0.32808,0.082203,-0.050086,-0.17108,-0.21972,-0.070209,0.48338,0.005641,-0.084413,0.56559,0.18159,0.0099313,0.5279,0.53598,-0.085135,-0.114,0.21506,0.059973,0.39097,0.092922,-0.15469,-0.49096,0.62301,0.18097,1.0269,-0.14897,0.57936,-0.06342,0.3013,-0.85107,0.21678,-0.47519,0.07984,-0.45681,-0.46828,-0.066347,0.032915,-0.35347,0.22116,-0.35251,0.42147,-0.0020732,0.24104,-0.079393,0.049533,-0.64946,0.21229,0.42846,0.15935,0.15511,-0.32103,0.29534,0.45856,0.53583,-0.21307,-0.28152,0.57195,-0.28068,0.5453,-0.22179,-0.091604,-0.61055,0.31296,-0.087643,-0.20395,-0.21225
