target_word,V2,V3,V4,V5,V6,V7,V8,V9,V10,V11,V12,V13,V14,V15,V16,V17,V18,V19,V20,V21,V22,V23,V24,V25,V26,V27,V28,V29,V30,V31,V32,V33,V34,V35,V36,V37,V38,V39,V40,V41,V42,V43,V44,V45,V46,V47,V48,V49,V50,V51,V52,V53,V54,V55,V56,V57,V58,V59,V60,V61,V62,V63,V64,V65,V66,V67,V68,V69,V70,V71,V72,V73,V74,V75,V76,V77,V78,V79,V80,V81,V82,V83,V84,V85,V86,V87,V88,V89,V90,V91,V92,V93,V94,V95,V96,V97,V98,V99,V100,V101,V102,V103,V104,V105,V106,V107,V108,V109,V110,V111,V112,V113,V114,V115,V116,V117,V118,V119,V120,V121,V122,V123,V124,V125,V126,V127,V128,V129,V130,V131,V132,V133,V134,V135,V136,V137,V138,V139,V140,V141,V142,V143,V144,V145,V146,V147,V148,V149,V150,V151,V152,V153,V154,V155,V156,V157,V158,V159,V160,V161,V162,V163,V164,V165,V166,V167,V168,V169,V170,V171,V172,V173,V174,V175,V176,V177,V178,V179,V180,V181,V182,V183,V184,V185,V186,V187,V188,V189,V190,V191,V192,V193,V194,V195,V196,V197,V198,V199,V200,V201,V202,V203,V204,V205,V206,V207,V208,V209,V210,V211,V212,V213,V214,V215,V216,V217,V218,V219,V220,V221,V222,V223,V224,V225,V226,V227,V228,V229,V230,V231,V232,V233,V234,V235,V236,V237,V238,V239,V240,V241,V242,V243,V244,V245,V246,V247,V248,V249,V250,V251,V252,V253,V254,V255,V256,V257,V258,V259,V260,V261,V262,V263,V264,V265,V266,V267,V268,V269,V270,V271,V272,V273,V274,V275,V276,V277,V278,V279,V280,V281,V282,V283,V284,V285,V286,V287,V288,V289,V290,V291,V292,V293,V294,V295,V296,V297,V298,V299,V300,V301
long,-0.18038,0.067529,0.14705,-0.020212,-0.053353,0.013347,-0.051839,0.3189,0.026381,0.093716,-0.062029,0.19143,0.023692,-0.037907,-0.052467,-0.084115,0.054919,0.18459,0.006657,-0.011101,0.043412,-0.10126,0.036409,0.19932,0.01757,0.098504,0.28055,-0.30302,0.071726,-0.02442,-0.18421,-0.10972,0.069322,0.020508,0.053057,-0.16286,-0.24301,-0.20721,0.035905,-0.077133,0.20351,0.16256,-0.20839,0.075078,0.10199,0.06082,0.0039466,-0.13412,0.11632,-0.12065,-0.14582,0.18856,-0.11033,0.28544,-0.19558,-0.11371,-0.012361,0.041921,0.12985,0.098256,-0.15242,-0.0040613,-0.25768,-0.18789,0.26943,0.21953,0.11547,0.091653,0.14724,-0.33947,0.26625,0.13072,-0.068761,-0.18023,0.13369,0.028098,-0.35046,0.026122,0.28613,0.069296,-0.014082,0.24817,0.071873,0.11018,0.11074,0.16674,-0.30255,0.24517,-0.17952,-0.035645,0.064515,-0.22317,0.13931,-0.094803,0.071464,-0.022954,-0.21321,0.36759,0.060808,-0.015443,-0.22613,0.014764,-0.19267,0.079132,-0.037559,-0.4658,0.23376,0.21185,-0.01681,-0.16582,0.018502,0.10404,-0.27576,0.32318,-0.10917,0.020086,-0.26398,-0.046017,0.087373,-0.19384,0.10325,0.070358,-0.10443,0.19953,0.11123,-0.072401,0.10508,-0.098699,0.34108,-0.269,0.073311,0.1751,0.20002,0.32154,0.21693,0.30515,0.059683,-0.024696,-0.096521,-0.0043502,0.033458,0.074765,0.13487,0.16855,0.034419,-0.13243,0.19304,0.1744,-0.23027,0.069281,0.23675,0.018537,0.14927,0.19561,-0.1872,-0.1503,0.088654,0.026213,-0.12579,-0.089301,-0.015935,0.054672,-0.026342,0.25799,0.18483,-0.10604,0.063578,0.2128,0.17187,-0.15956,-0.070177,-0.011866,-0.11007,-0.19059,0.024696,0.016231,0.023865,-0.22657,0.13591,-0.28745,-0.23446,-0.031833,-0.12418,-0.079074,0.1558,0.15936,0.21546,0.17291,-0.36432,0.19027,-0.15174,-0.043428,0.22802,-0.19049,-0.3082,0.022599,0.038638,0.27857,-0.063248,0.095564,0.2094,-0.12447,0.13642,0.10183,-0.24592,0.10338,0.11552,0.023535,0.24646,0.45975,-0.040176,-0.023648,0.21442,-0.098362,-0.022184,-0.16421,0.010237,0.15443,-0.21678,-0.0022077,-0.026326,0.25253,-0.074071,-0.017804,0.14963,0.089652,0.15506,-0.24719,0.094122,-0.17679,0.23197,0.354,0.16341,0.051078,0.27317,0.10734,-0.23002,-0.010317,0.29447,-0.13576,-0.32685,-0.16309,0.061055,0.18347,-0.046354,-0.27896,-0.001336,-0.1283,-0.17052,-0.036331,-0.014166,-0.17394,0.037897,-0.21898,0.034333,-0.18715,-0.38923,-0.085867,0.16296,0.3287,0.03382,0.13428,-0.035031,0.045786,0.036044,0.24021,-0.21234,-0.41855,0.0031383,-0.051739,0.13292,0.13457,0.18849,-0.21912,0.001097,0.16023,0.060513,0.027896,0.2991,-0.02206,0.28576,-0.19936,-0.0033097,0.05685,-0.27555,-0.19162,0.012307,-0.21134,-0.33851,0.082188,0.11544,-0.17511,0.088184,-0.032553,-0.026525,0.16467,0.065855,-0.017174,-0.13959,0.067492
little,-0.066494,0.15955,-0.27312,-0.0038491,0.080218,0.0068949,-0.074779,0.27925,-0.04663,0.25102,0.0091973,0.18533,-2.6047e-4,0.090487,0.082844,-0.10232,0.045325,-0.16658,-0.061397,-0.043451,0.2162,-0.062702,0.066445,0.23114,0.082852,0.025839,0.2296,-0.062316,0.024141,0.030099,0.1065,-0.06063,0.15644,-0.086343,-0.15142,0.044798,0.15785,-0.1093,0.26202,-0.01143,0.14474,0.030552,-0.32603,-0.018779,-0.097286,-0.029588,0.018471,-0.011376,-0.18912,-0.047443,-0.0028877,-0.17722,-0.13533,0.055574,-0.056445,-0.18658,-0.13451,-0.28449,0.074282,0.042853,-0.13565,0.12752,-0.08226,-0.15533,-0.091557,0.10216,0.029202,0.10597,0.11305,-0.11031,0.20244,0.08313,-0.089516,-0.086856,0.15307,0.078941,-0.12637,0.11175,0.27877999999999997,0.04093,-0.30357,0.10386,-0.27151,-0.08129,0.13402,0.39848,-0.18848,0.14171,-0.10386,-0.10782,-0.14387,0.041071,0.1043,0.012176,-0.089657,-0.070558,-0.027678,0.22082,-0.11647,-0.088175,-0.25829,-0.041793,-0.0069153,-0.10908,0.13276,-0.26979,0.16456,0.35602,0.0048743,0.050547,0.020698,-0.011072,-0.28163,0.1307,-0.28026,-0.11949,-0.16828,-0.018518,0.020276,-0.25798,0.18898,0.17097,-0.15025,0.041434,-0.093536,-0.0060966,0.15109,-0.12572,0.1189,-0.17944,0.15267,-0.050628,0.0037947,-0.16055,0.27839,0.21091,0.13797,-0.049622,-0.098932,0.18139,-0.11666,0.22092,-0.050407,-0.10337,-0.069664,-0.0039276,0.059337,-0.091297,-0.091175,0.14996,-0.068931,-0.065857,0.012761,0.091447,-0.12463,-0.16922,0.08115,0.12792,-0.1233,-0.35579,-0.27526,0.031561,-0.066741,0.2157,0.078844,-0.16275,-0.23119,0.028849,0.27362,0.14353,0.009517,0.0025777,0.078083,-0.049448,0.11044,-0.035973,0.075051,0.020649,0.16024,-0.33031,0.052804,0.17062,0.084678,-0.0020275,0.074059,0.2688,0.20683000000000001,0.30346,-0.30472,-0.0021227,0.13181,-0.26798,0.16341,0.01419,-0.20314,0.33432,-0.033283,0.34286,-0.028659,0.28896,0.21954,0.09451,-0.15813,0.11486,-0.3169,0.06429,-0.0016596,-0.013359,0.011635,0.23082,-0.081101,-0.076637,0.41584,-0.4621,-0.011494,-0.22442,-0.095708,0.23889,-0.062405,0.0068921,-0.088626,0.031406,-0.1147,-0.094332,0.005259,0.19164,0.055489,-0.0030068,0.032631,0.010319,0.017569,-0.02114,0.04271,0.039071,0.068097,0.044711,-0.10447,-0.12077,0.17453,-0.1253,-0.062093,0.01677,0.10018,0.055139,-0.18231,-0.25047,0.11619,-0.14377,-0.066621,-0.0019379,-0.1005,0.082504,0.088974,-0.22609,-0.23514,-0.067103,0.050481,-0.054342,-0.13951,0.36768,0.12519,-0.26046,-0.024123,0.041083,0.25013,0.37706,-0.0021868,-0.12104,0.059842,-0.1715,0.17346,0.1804,0.067165,-0.10206,0.09378,0.064398,-0.20961,-0.30217,-0.044894,-0.20539,0.049937,-0.067999,0.24736,-0.10269,0.14171,-0.023482,-0.080682,0.061514,-0.30244,-0.024075,0.0093492,-0.088591,0.26035,-0.13282,-0.054688,0.046753,0.05191,-0.038289,-0.33919,-0.063843
white,-0.023756,-0.10553,0.052563,-0.20461,0.070302,-0.16029,-0.016105,0.26965,-0.083458,0.075386,-0.033113,0.01897,-0.085454,-0.11225,-0.16787,-0.17935,0.032009,0.012932,-0.22887,0.157,-0.02904,-0.26088,0.016272,0.050195,0.03013,0.16677,-0.14388,-0.10497,0.38468,-0.036872,-0.06105,0.044089,0.11074,-0.11645,-0.24893,0.22513,-0.25477,0.034447,-0.059331,0.12655,-0.07831,0.32598,-0.27657,-0.19358,-0.12504,-0.12784,-0.065671,-0.33676,0.023144,-6.0816e-4,-0.14847,-0.14047,-0.088754,0.15648,-0.12012,0.06978,0.018926,0.12278,0.077723,0.17045,-0.35614,-0.18644,-0.16971,-0.27338,-0.020863,0.2628,0.096043,0.063503,0.38883,-0.17109,0.31282,0.067181,-0.2491,-0.17846,-0.023792,0.26423,-0.059202,-0.0094115999999999991,-0.0014199,0.066064,0.090122,0.10272,-0.11671,-0.12759,-0.094673,0.13913,-0.087021,0.11737,0.10641,0.2455,-0.23216,0.0016074,0.11197,0.066295,0.062461,-0.062189,-0.23049,0.09297,0.22764,-0.1333,-0.28818,0.28291,-0.2981,0.0042136,0.021288,0.052951,0.069702,0.18425,-0.078295,-0.22779,0.047308,0.20198,-0.32592,0.062099,-0.26602,0.052492,-0.19931,0.18331,-0.30265,-0.1911,-0.019378,-0.15808,-0.04888,0.081017,0.056441,-0.030021,0.029423,-0.23913,0.10466,-0.28677,-0.078297,-0.0095256,0.19158,-0.051583,0.3759,0.17515,0.24158,-0.037145,-0.16235,0.31704,-0.22252,0.052148,0.097906000000000007,-0.024582,0.054839,-0.027365,-0.021437,-0.089446,-0.34361,-0.084121,0.18387,-0.034017,-0.041981,0.058791,-0.066514,-0.22624,-0.3235,0.10127,-0.078252,-0.3705,-0.53434,0.01325,0.12646,0.14136,0.053529,-0.12393,-0.08237,-0.019768,0.13009,0.32716,-0.067276,-0.18987,0.048131,0.11491,0.0024618,0.15344,-0.11344,-0.43268,-0.19009,0.16428,-0.43619,0.13254,-0.12423,-0.076302,0.2047,0.13733,0.18579,0.1413,-0.39692,0.081406,0.04855,-0.088503,-0.071233,-0.14859,-0.32214,-0.029172,0.17133,0.20325,-0.12868,0.16159,0.16345,0.11377,0.019059,0.35258,-0.071597,0.13198,0.056347,-0.21058,0.0017115,0.28568,-0.064414,0.42295,0.56427,-0.39152,0.048951,-3.7094e-4,0.14073,0.10144,-0.19608,-0.30084,0.33373,-0.0057259,-0.18821,-0.33779,-0.30372,0.15213,-0.055174,-0.17261,0.067356,0.081891,-0.061682,-0.022331,0.13071,0.021825,0.10902,0.098313,-0.11254,0.25465,0.048956,0.33094,-0.22462,0.1421,0.33675,-0.097086,-0.1051,-0.067142,-0.52031,-0.40785,-0.38591,-0.19191,-0.078287,-0.23738,0.32689,-0.1123,-0.15514,-0.20955,0.11624,0.29025,-0.29003,0.36139,-0.20549,0.073757,0.25232,-0.0038823,0.25306,-0.10336,-0.10585,-0.39277,0.050214,0.12144,0.0036652,0.019611,0.2746,0.092331,0.15491,-0.21959,0.017571,-0.20464,0.046773,-0.18732,0.22151,5.6835e-4,0.12287,-0.15349,0.025792,-0.21962,-0.22105,0.19069,-0.37008,0.19513,-0.19902,-0.1488,0.17077,-0.22483,-0.01718,0.17969,0.025507,0.17011,-0.34424,-0.075322
big,-0.27652,-0.11518,0.12712,0.17542,-0.023364,-0.026238,-0.043615,0.46605,-0.41364,0.17863,-0.006472,0.30219,0.11528,-0.037933,0.065469,0.048463,0.14902,-0.10792,-0.027263,-0.0036792,0.32852,-0.093047,0.11123,0.13041,0.081725,0.26424,0.30356,-0.13449,0.030662,-0.14197,-0.004732,-0.022462,-0.034789,-0.089445,-0.070133,-0.064313,0.063068,-0.16556,0.17756,0.15396,0.08346,-0.0033465,-0.1563,-0.09652,-0.24372,0.02123,0.20684,-0.12173,0.019689,-0.12546,-0.081629,0.43603,-0.25858,0.017579,-0.14589,0.0499,-0.10924,0.012191,-0.087179,0.060542,-0.27876,-0.1412,-0.21577,-0.24018,0.32383,0.10533,0.17395,-0.034307,0.24682,-0.28298,0.047076,-0.1527,0.053941,0.098205,0.032309,0.0092224,0.10241,0.0020792,0.16002,-0.23645,-0.11602,0.20563,0.066564,-0.15325,0.07607,0.30908,-0.065521,0.095169,0.06665,0.11475,-0.262,-0.074376,0.22615,0.013796,-0.018992,-0.15688,-0.1772,0.33051,-0.21706,-0.025639,-0.25763,0.0096541,-0.07367,4.8557e-4,0.15203,-0.16055,0.059597,0.23422,-0.033546,-0.23833,0.10933,-0.07154,-0.079433,0.17559,-0.26982,-0.099119,-0.15002,0.045231,-0.085899,-0.099064,0.18642,0.10932,-0.026994,0.050792,-0.0084019,-0.12437,0.091554,-0.21437,0.33591,0.20465,0.051418,-0.23988,0.018468,-0.053112,0.31427,0.076734,0.056968,-0.10649,0.006393,0.098003,-0.26118,0.30834,-0.071912,0.016244,-0.065067,0.24684,-0.013948,-0.032289,-0.1165,-0.084221,0.14506,0.052923,0.067984,0.056317,-0.20245,-0.064819,-0.17091,0.037098,-0.17813,-0.2404,-0.22142,-0.056468,0.15185,0.20321,-0.018044,-0.23284,-0.28517,0.13579,0.27594,0.048688,0.042003,0.12838,0.07504,-0.13187,-0.065633,0.13041,0.14927,-0.063419,-0.13704,-0.1866,0.01631,0.069698,0.12602,0.0012201,-0.083723,0.011601,0.33058,0.075206,-0.32175,-0.214,0.18044,-0.2972,0.22179,-0.23766,-0.1623,0.12269,-0.11558,0.28735,-0.14094,0.13869,0.035485,-0.10926,-0.062188,0.26251,-0.46138,0.28062,0.17434,-0.34845,-0.025427,0.21583,-0.19446,0.011361,0.35674,-0.24639,-0.067343,-0.154,-0.20137,0.039688,-0.037812,-0.030816,-0.18766,0.0048345,-0.12652,-0.15853,-0.0019993,0.10254,-0.0164,-0.014818,0.045975,0.24861,0.25912,0.29789,-0.043568,0.084096,-0.0040268,0.13805,-0.055493,-0.1563,0.13113,-0.16765,-0.1421,-0.020578,0.18732,0.070928,0.16625,0.015515,-0.0052266,0.084439,-0.24101,0.017736,-0.013614,0.27166,0.20153,-0.18996,-0.19144,0.007132,-0.24224,0.029751,-0.011895,0.55726,0.12366,-0.1083,0.042014,0.20457,0.034388,0.21226,-0.02369,-0.3342,0.026361,-0.25955,0.005038,0.01509,0.043327,-0.28932,-0.065349,0.13299,-0.13046,-0.43582,-0.2629,-0.18393,0.21999,-0.16446,0.31483,0.013934,0.086935,-0.1725,-0.079399,0.066365,-0.38755,-0.10091,-0.17085,-0.031663,0.14192,-0.0077766,0.068178,0.16613,0.079516,0.15935,-0.11683,0.053017
black,-0.10001,-0.15425,0.0069578,0.013231,-0.17493,-0.11987,0.11541,0.28988,0.0081063,0.09659,-0.052558,-0.095602,-0.028459,0.027911,-0.11664,0.032907,0.072976,-0.18752,-0.17807,0.30959,-0.031046,-0.19575,0.053645,0.015594,-0.080586,0.095272,-0.15137,-0.028731,0.29469,0.095676,-0.12059,-0.14011,0.11987,-0.046832,-0.25371,0.12976,-0.31148,-0.16784,-0.035168,0.20914,-0.012939,0.088668,-0.22574,-0.086443999999999993,-0.10295,-0.015783,0.095212,-0.15674,0.012703,-0.1565,6.5604e-4,-0.1808,0.098479,0.11994,-0.019213,0.13715,0.096344,0.26781,0.058152,0.2521,-0.43707,-0.11169,-0.26395,-0.2783,-0.20399,0.43472,0.24294,-0.1166,0.17414,-0.048535,0.30034,-0.066045,-0.24954,-0.068058,-0.13354,0.26613,-0.15552,-0.13643,-7.1877e-4,-0.12376,0.033834,0.015551,-0.0048238,-0.2466,-0.021836,0.22004,0.12388,0.067203,-0.013107,0.16118,-0.21012,-0.079089,0.20723,-0.032665,0.060272,-0.15505,-0.046563,0.24671,0.25215,-0.03353,-0.21758,0.21795,-0.35994,0.066924,0.091947,0.026722,-0.10013,0.23708,0.053951,-0.23253,0.14423,0.26444,-0.26739,0.16806,-0.44613,0.15973,-0.18409,0.15753,-0.026707,-0.066513,0.14764,-0.056333,-0.015468,0.10734,-0.10948,-0.21516,0.027568,-0.28521,0.15103,-0.16804,-0.002064,0.032766000000000003,0.082475,0.055027,0.43027,0.072541,0.13533,-0.2067,-0.37609,0.40459,-0.20458,0.171,-0.061098,-0.12441,-0.062631,0.18548,-0.012497,-0.058116,-0.1443,0.21991,0.26421,-0.051716,-0.10594,0.16587,-0.038051,-0.37434,-0.027513,0.096152,-0.067392,-0.34215,-0.33978,0.11098,-0.029022,0.17626,0.018318,-0.18315,0.077216,-0.10413,0.07261,0.27454,-0.23133,-0.28561,0.043245,0.18481,-0.014842,0.097622,0.045964,-0.44715,-0.021099,0.024238,-0.41819,0.1336,-0.28742,-0.0094708,0.2078,0.095689,0.33017,0.2336,-0.15064,0.22103,0.059101,-0.39938,-0.0066572,-0.32646,-0.41776,0.0074195,0.0046869,0.3231,-0.3896,0.13931,0.32296,-0.1509,-0.072896,0.35979,-0.16102,0.20805,0.062305,-0.13932,0.070476,0.56353,-0.12208,0.28023,0.47573,-0.43607,-0.041209,0.045652,0.12722,0.10582,-0.09344,-0.25845,0.21219,0.27831,-0.34425,-0.40465,-0.092755,0.12342,0.13251,-0.081748,0.1494,0.0097159,0.037225,-0.0072589,0.12654,-0.043996,0.17009,0.17478,-0.14206,0.12326,-0.1003,0.35656,-0.14139,-0.16638,0.21023,-0.15582,0.071732,-0.084862,-0.26848,-0.2516,-0.19728,-0.006003,-0.011061,-0.14376,0.18764,-0.21977,-0.22832,0.049502,0.024781,0.23187,-0.33973,0.32158,-0.26049,0.17807,0.11955,0.18062,0.30429,0.0014448,-0.13925,-0.48574,0.072602,0.089154,-0.22967,-0.04098,-0.0099065,0.16369,0.097183,-0.3311,-0.019405,-0.077323,0.016151,-0.0050803,0.35763,-0.17617,-0.088081,-0.004634,-0.20372,-0.22143,-0.18845,0.22315,-0.48476,0.10752,-0.28963,-0.16167,0.17046,-0.0020635,0.14507,0.083003,0.050032,0.19259,-0.28586,0.087051
small,0.083102,-0.058664,0.14095,-0.080947,-0.21908,-0.089195,-0.11909,0.20015,0.032259,0.0055386,0.053677,0.11688,0.024179,0.26162,0.2073,-0.16629,-0.1178,-0.14506,-0.10498,0.0051382,0.2164,-0.22782,0.078063,0.24282,0.2247,-0.065664,0.15668,-0.013632,0.05117,-0.15278,0.027941,-0.015693,0.15233,-0.13101,-0.032912,-0.092163,-0.081498,-0.013272,0.23773,0.124,0.15508,-0.17448,-0.28678,-0.071973,-0.18827,0.074234,-0.098098,-0.023491,-0.076665,-0.010495,0.14716,0.13261,-0.15708,0.015982,0.22015,0.15313,-0.22494,-0.22302,-0.077908,-0.025744,-0.41896,-0.14915,-0.16914,-0.32154,0.26321,0.16564,0.20799,0.027439,0.27164,-0.079529,0.20578,-0.085033,-0.37399,-0.013786,0.055302,-0.02563,0.10305,-0.05034,0.32999,0.045495,-0.14712,0.15127,-0.21138,-0.0097356,0.04577,0.32169,-0.040175,0.29095,-0.21358,0.056984,-0.0058121,0.14891,0.24837,0.037923,0.21893,-0.14263,0.016285,0.46377,0.095675,-0.055457,-0.36358,-0.013875,-0.029514,-0.11347,0.1726,0.048003,0.20782,0.10866,0.19198,-0.15465,-0.010745,-0.033593,-0.35838,0.20199,-0.46219,0.06433,-0.4019,0.024094,0.050886,0.01176,0.11889,0.092566,-0.1386,0.19688,-0.20104,-0.099838,0.23766,-0.069331,0.28872,-0.18703,0.13435,-0.058355,0.22273,0.086297,0.12771,0.098044,0.091005,-0.12372,0.060091,0.10444,-0.034076,0.21101,-0.036869,0.16144,0.037476,0.035472,0.057551,0.023899,-0.13048,0.014125,0.069708,3.4809e-6,-0.10879,-0.041538,-0.02322,-0.26431,0.12332,0.029887,-0.26232,-0.30551,-0.068773,0.23669,0.14333,0.20011,0.017307,-0.11641,-0.42699,0.076107,0.23682,0.038239,-0.12423,-0.082063,0.10374,0.088835,-0.098488,0.12694,0.20248,0.043356,0.15259,-0.22205,-0.069702,0.082119,0.067662,-0.093483,0.037929,0.24052,0.13694,0.057032,-0.18847,-0.10167,0.093197,-0.47204,-0.072443,-0.18179,-0.3333,0.36918,0.14224,0.40944,-0.24879,0.34298,0.067341,-0.042635,0.036337,0.16505,-0.34623,0.15094,-0.13147,-0.16717,-0.026369,0.52373,-0.18574,-0.09361,0.25514,-0.40786,-0.0072585,0.040986,-0.18051,0.11109,-0.15791,-0.1029,-0.07022,-0.021489,-0.14234,-0.12461,-0.087791,0.18673,-0.038503,0.1529,0.25095,0.041128,0.16931,0.46094,0.030616,0.016768,-0.1493,0.26789,-0.052729,-0.0030748,0.14436,-5.5324e-4,0.045455,0.091662,0.13109,0.12926,-0.083051,-0.15227,0.092362,0.016816,0.038954,-0.058412,0.081194,0.059884,0.094299,-0.34349,-0.34433,-0.16703,-0.16013,0.070233,-0.20383,0.45646,-0.097197,0.12175,0.11676,0.24033,0.24794,0.13593,-0.09306,-0.25293,-0.059412,-0.25944,0.0103,0.33171,-0.060681,-0.052166,0.027843,0.11545,-0.088489,-0.2212,-0.020469,-0.1107,0.28726,-0.018022,-0.064722,-0.082176,0.18728,-0.12707,-0.24472,0.28407,-0.27067,-0.18981,-0.20746,-0.13806,0.2235,-0.2028,0.039702,0.17838,-0.0066474,0.098839,-0.065915,0.14429
hand,0.035812,-0.022184,0.060315,-0.20736,0.14388,-0.054946,-0.06205,0.13953,0.4689,0.25649,-0.17758,0.1571,-0.13725,0.45187,-0.068071,0.09507,-0.24112,-0.4258,-0.0087473,-0.12709,0.23857,0.16014,0.35785,-0.0083173,0.040242,-0.059905,0.037709,-0.25216,-0.093087,0.094828,0.20294,0.04463,0.15633,-0.097619,0.14409,0.062936,-0.33141,0.080446,-0.011415,-0.032271,0.15899,0.035835,-0.4167,-0.1102,-0.1196,-0.21136,-0.2408,-0.1597,0.09674,0.049309,-0.15653,0.0075144,-0.080663,-0.0012787,-0.0087598,-0.15583,-0.4469,-0.0091965,0.034262,-0.09292,-0.048323,-0.020039,-0.13703,-0.14005,-0.033529,0.15876,0.075113,0.049097,0.31056,-0.40401,0.29928,-0.15486,-0.11753,-0.19488,0.19024,0.034315,-0.075915,-0.21096,0.24844,-0.063538,-0.070013,0.1565,-0.1708,-0.059705,0.079302,0.035527,-0.29821,0.31808,0.098106,0.19328,0.25324,0.20394,-0.052049,0.0030348,0.11419,-0.18137,-0.11045,0.35101,-0.052469,-0.18936,-0.15931,0.098958,-0.067409,-0.22385,0.13996,-0.35709,0.21675,0.3394,-0.047714,-0.068201,-0.029029,-0.12531,-0.27729,0.043452,0.02246,-0.13578,-0.169,-0.054144,0.065934,-0.1513,0.064884,0.10276,-0.18042,0.19236,0.20132,-0.32623,0.14217,-0.29373,0.045981,-0.11498,0.0096133,-0.21998,0.10123,0.023422,0.27791,0.24881,0.12115,0.0030863,-0.10034,0.0088247,-0.075891,0.10948,0.0021871,-0.237,0.29575,0.011377,0.2478,0.07401,-0.11106,0.21178,-0.065418,0.063082,0.10558,0.10809,-0.12296,-0.29832,0.0228,0.086228,-0.28423,-0.1826,-0.28693,0.47632,0.092036,0.19243,-0.16199,0.074038,-0.16261,0.024391,0.097081,-0.12586,0.089916,0.15016,0.25514,-0.22952,0.20854,-0.13816,0.17788,-0.13799,0.48538,-0.18836,-0.010212,0.12624,-0.064915,0.38391,0.064577,0.18702,0.11187,0.138,-0.18897,0.31303,0.28913,-0.10607,0.055165,-0.43581,-0.089907,0.1202,0.060488,0.22439,-0.32668,0.21813,-0.012299,-0.10781,0.028678,0.06013,-0.28061,0.18769,-0.046866,0.11844,0.10127,0.079711,-0.33501,0.10831,0.37614,-0.37684,-0.23167,0.027853,-0.097873,0.22796,-0.27231,-0.033814,-0.012597,-0.0023012,-0.026236,-0.34672,-0.0016641,0.15239,0.18123,-0.051284,0.21062,0.050522,0.20835,-0.087691,0.2279,0.051254,-0.047988,-0.099317,-0.35242,0.065072,-0.076049,1.3341e-4,-0.21238,0.032484,-0.12028,0.32309,0.06661,-0.42609,-0.0088805,-0.25178,-0.15751,0.038277,-0.15424,0.043867,0.18908,-0.10826,-0.25055,-0.1909,-0.19006,-0.1863,0.089449,0.31121,-0.28472,-0.13777,0.098324,0.24359,0.036125,0.018379,0.031961,-0.27717,0.073158,-0.20029,-0.0025298,0.29268,-0.12348,-0.062959,0.17895,0.0088802,0.1766,0.07624,-0.015061,-0.1751,0.12147,-0.091001,0.071212,-0.16424,0.28628,-0.1474,-3.2162e-4,0.012977,-0.41217,-0.029488,0.08412,0.061957,0.11716,-0.26783,-0.0038462,0.022699,0.1526,0.028007,-0.25321,0.27198
course,-0.21299,-0.083858,-0.0028449,-0.084773,0.071553,-0.11934,-0.1843,0.20923,0.072352,0.13106,-0.014061,0.11868,0.14177,0.098566,-0.072052,-0.14045,-0.11246,-0.015187,-0.094322,0.074361,0.18614,0.04835,0.10646,0.11027,0.096279,-0.048183,0.1756,-0.048612,-0.012032,0.027757,-0.022799,-0.13832,0.07211,-0.021657,0.017918,-0.17339,-0.14576,0.057911,0.065971,0.20458,0.011976,-0.035788,-0.29577,-0.02278,-0.054727,0.24506,-0.022356,0.0072831,0.035614,0.041122,-0.14943,0.16421,-0.0024973,0.3058,-0.079798,-0.085688,-0.18058,-0.10411,0.0011488,0.031664,0.20057,0.20348,-0.078,-0.29932,0.1852,0.18005,-0.15635,0.025437,-0.077708,-0.040261,0.2017,-0.07692,0.0028025,-0.14376,0.023076,0.10244,-0.24507,0.19367,0.062376,-0.36916,0.11851,0.055378,0.012769,-0.032309,0.031926,0.22994,-0.34615,0.14212,0.029451,-0.013745,-0.0017008,-0.089089,0.093321,0.011894,0.15883,-0.050801,-0.027969,0.1537,0.08233,0.03669,-0.17345,-0.053608,-0.22864,0.032,0.14842,-0.39888,0.29051,0.16876,-0.093287,-0.17666,0.063417,-0.1704,-0.36405,0.4739,-0.036238,-0.15342,-0.16656,-0.088953,0.091189,-0.045061,0.18786,0.031957,-0.050119,0.19872,-0.0077663,-0.074113,0.23067,-0.28502,0.17505,-0.07869,0.053475,-0.26292,0.2639,-0.11549,0.40823,0.19027,-0.058277,0.15034,-0.13784,0.10176,-0.073197,0.15643,0.24728,-0.11251,-0.024426,-0.09248,0.062775,-0.089637,-0.20992,0.0020157,-0.024213,-0.2818,0.26564,0.14783,-0.18322,-0.042485,-0.058487,0.040012,0.0075312,-0.20487,-0.12556,0.084854,0.0060311,0.18044,-0.026797,-0.039603,-0.079659,0.028029,0.1216,0.067787,0.013209,0.07521,0.043662,-0.072077,0.04808,-0.20721,0.24929,-0.11126,0.2467,-0.34402,-0.058339,0.10227,-0.071049,-0.019341,0.084602,0.14709,0.038063,-0.034059,-0.17361,-0.0061762,-0.0062411,-0.075564,-0.17209,-0.30749,-0.21357,0.22258,0.2135,0.34812,-0.17299,0.09247,0.099979,0.036625,-0.065858,0.086965,-0.31136,0.20718,-0.047611,0.02555,-0.013089,0.081774,-0.060872,0.2054,0.2147,-0.26498,0.008192,-0.040362,-0.09344,0.3108,-0.12073,-0.089898,-0.11416,-0.0097696,-0.088981,0.03628,-0.10255,0.11123,0.010421,-0.14783,0.065399,0.21332,0.16469,0.13111,0.021587,0.001916,0.018414,0.12691,-0.14043,0.14273,0.023531,0.013572,-0.11326,0.10968,-0.051246,0.18843,0.044901,-0.18233,-0.16089,-0.10508,0.014916,-0.059574,-0.088071,0.1803,-0.079765,0.14173,0.068888,0.024067,-0.047558,-0.030858,-0.083189,0.36127,0.019097,-0.20134,-0.022531,-0.040341,0.11775,0.12356,0.082786,-0.14613,0.13094,-0.067077,0.17167,0.11499,0.13703,-0.16638,0.20058,0.13734,0.051893,0.0032171,0.12262,-0.017708,0.082642,-0.20066,0.1973,0.013712,0.027888,-0.042517,-0.064138,0.0905,-0.4153,0.30979,-0.048314,-0.093047,0.06446,0.080581,0.048112,-0.24257,-0.031341,-0.01029,-0.20035,0.04662
large,-0.036647,-0.064507,0.25494,0.0098971,-0.26057,-0.13435,-0.059413,0.10599,-0.16657,0.021004,0.068554,0.053301,-0.12937,0.26811,0.028006,-0.20287,-0.017694,-0.063188,-0.18381,0.1162,0.32191,-0.33428,0.088421,0.28328,0.23064,0.1053,0.18096,-9.3117e-4,0.15702,-0.19987,0.10428,-0.022182,0.22055,-0.23839,0.051971,-0.076984,-0.056445,-0.036888,0.22453,0.22615,0.084145,-0.22169,-0.2067,-0.27415,-0.23565,0.19021,0.11642,-0.1206,0.2527,-0.024987,0.21663,0.33041,-0.20903,0.071196,0.13699,0.047091,-0.0556,-0.0010548,0.0078583,-0.052413,-0.52279,-0.37243,-0.31751,-0.35065,0.25384,0.24911,0.19718,-0.081279,0.24,-0.20295,0.10324,-0.064881,-0.4681,0.014494,-0.045589,0.18341,-0.029997,0.040028,0.32544,-0.046468,-0.076318,0.20024,0.077391,0.14455,0.05977,0.23666,0.0090375,0.3355,-0.11533,0.10213,0.021592,0.17386,0.28245,0.04188,0.18274,-0.22673,-0.093475,0.31263,0.14979,-0.060519,-0.34689,-0.021076,-0.046753,-0.0031446,0.29039,-0.0331,0.21027,0.069249,0.28648,-0.27158,0.12456,0.14204,-0.25524,0.062945,-0.51705,0.007296,-0.48836,0.094586,-0.095947,-0.12026,0.038255,0.091238,-0.18354,0.14017,-0.07473,-0.1177,0.40309,-0.27441,0.34891,-0.18168,0.22562,-0.060893,0.19048,0.15085,0.1115,0.030586,0.053042,-0.09973,0.093991,-0.06994,0.010368,0.16488,-0.13658,0.056648,0.16322,0.011246,0.17304,0.054991,-0.28126,-0.093983,0.30189,-0.0010731,0.16747,0.13629,-0.019548,-0.2228,0.038676,-0.057025,-0.32568,-0.48859,-0.13831,0.03449,0.23327,0.26208,-0.077004,0.05139,-0.48661,0.042089,0.15894,-0.10184,-0.030972,-0.12865,0.14825,0.263,0.01405,0.067518,0.30882,-0.10091,0.10984,-0.25208,-0.34298,0.054272,-0.052441,-0.15529,0.035097,0.30747,0.23127,-0.017694,-0.17429,0.032784,0.11868,-0.38879,-0.012924,-0.081544,-0.081444,0.24035,-0.011673,0.45905,-0.36511,0.26285,-0.031403,0.061885,0.035412,0.26305,-0.50753,0.15123,-0.1641,-0.13366,0.11253,0.49478,-0.20503,0.022208,0.19993,-0.3604,-0.252,0.1587,-0.18223,0.018489,-0.11832,0.085821,-0.097081,-0.035033,-0.32007,-0.066534,-0.23929,0.079521,0.085513,0.094829,0.24383,0.12352,0.16068,0.50072,0.088456,-0.041827,-0.13873,0.29059,-0.055677,0.084875,0.1617,0.16112,0.21089,0.087613,-0.011331,0.21421,0.072531,0.0087288,-0.10765,0.10957,-0.05591,-0.10392,0.093363,-0.03884,0.051319,-0.22275,-0.24363,-0.089409,-0.13173,0.1772,-0.15533,0.53672,-0.012887,0.21492,0.21417,0.35176,0.1429,0.046289,-0.15193,-0.2648,-0.094807,-0.13722,-0.21487,0.086365,-0.061553,-0.045836,-0.10807,0.10665,-0.10317,-0.35651,0.12925,-0.0052532,0.25195,0.059987,0.0038634,-0.029618,0.037439,-0.13587,-0.27197,0.15038,-0.2666,-0.1746,-0.1664,-0.20787,0.18736,-0.16218,0.22663,0.18072,0.10136,0.1536,-0.20591,0.10099
body,0.17718,0.13516,0.33532,-0.17671,0.18144,-0.090567,0.37782,-0.032903,0.58709,0.014611,-0.076546,0.044046,0.18454,0.42752,0.053908,-0.075601,0.14592,-0.095052,0.067254,0.25407,0.22318,0.33705,0.52181,0.10991,-0.21602,0.044546,-0.059433,-0.25873,-0.14975,0.016866,-0.081457,-0.1391,0.2788,0.023654,-0.3906,0.12359,-0.048541,-0.026823,0.44602,0.06601,0.20057,-0.31251,-0.30509,-0.071341,0.11018,0.036348,-0.11399,-0.21009,-0.10308,-0.16892,0.038376,0.18051,0.045348,-0.074982,0.091178,-0.47967,-0.19826,0.11245,0.22662,0.1534,0.052744,0.45029,-0.1593,-0.1688,-0.021403,0.024741,0.1121,-0.093968,0.18303,-0.19706,0.093446,0.13381,-0.18118,-0.30092,0.042715,0.11491,-0.017237,0.11737,0.10233,-0.092239,-0.10067,0.021032,-0.23896,-0.28373,0.23201,0.025634,-0.25431,0.091979,0.036546,0.037895,0.3171,-0.24387,-0.092317,-0.26197,0.11243,-0.18295,-0.52409,0.16812,-0.057475,8.2992e-4,-0.14098,0.16989,0.14302,-2.6459e-4,0.14312,-0.37199,0.51734,0.20071,-0.01217,0.18292,-0.1879,-0.095258,-0.15679,0.12851,-0.055193,-0.045836,-0.48279,0.073733,-0.11958,0.14586,-0.17037,0.26976,-0.10414,0.10154,0.0096963,-0.13343,0.24192,-0.23745,0.24868,-0.047292,0.17016,-0.35002,-0.1355,0.33923,0.1214,0.39896,0.0052975,0.16989,-0.11917,0.069053,-0.0097094,0.098748,0.19424,-0.20405,0.068772,1.6585e-4,0.097354,-0.047625,0.14483,-0.11569,0.1329,0.4046,-0.12825,0.27133,-0.0030867,-0.047368,0.10909,-0.082397,-0.12777,-0.28099,-0.48684,0.44621,0.16997,0.22123,-0.27208,-0.16716,-0.32344,0.055046,0.0037347,-0.08696,-0.27011,-0.14953,0.054896,-0.067985,0.13367,0.0094248,0.30666,-0.13839,0.20199,-0.20928,-0.10865,0.025895,0.08326,0.2715,0.3085,-0.041966,0.076269,0.30475,-0.40466,0.30912,0.11911,0.067306,-0.071197,-0.40374,-0.58482,-0.14125,-0.054747,0.23791,-0.13263,0.41463,0.50064,0.089548,-0.070114,0.10565,-0.11668,-0.031855,0.010234,-0.056867,0.2092,0.21894,0.090391,-0.012504,0.40218,-0.59647,0.069454,0.10544,-0.04704,0.30718,-0.48465,0.30962,-0.048216,0.2056,-0.25105,-0.081127,0.06865,0.063323,0.083838,-0.13747,-0.012078,-0.22104,0.10394,0.3184,-0.20458,0.011571,0.008377,-0.15826,-0.56636,0.16384,0.065941,-0.09668,-0.026042,0.18975,0.20053,0.18317,0.11825,-0.28121,-0.20501,-0.15495,-0.20546,0.050374,-0.12794,0.18736,0.26356,-0.036676,-0.13554,-0.031808,-0.32186,-0.059484,-0.082133,0.41017,0.082297,0.062434,-0.35363,0.20765,0.11127,-0.04095,0.11232,-0.13278,0.19038,-0.0018121,0.092887,0.1275,0.10114,0.31652,0.34544,0.01376,-0.007146,-0.30886,0.025598,0.0067618,-0.06645,-0.18366,0.23249,-0.05217,-0.10591,0.085575,-0.11212,0.21865,-0.50856,0.047472,-0.29858,-0.1269,0.1338,0.082154,0.18889,0.017187,0.10491,-0.039024,-0.62834,0.1518
light,-0.068585,-0.054128,0.34621,-0.21851,-0.14396,-0.061894,0.093563,0.40755,0.23291,0.32193,-0.1158,-0.049824,0.036467,-0.0075611,0.11918,0.18605,-0.056748,0.047241,-0.10867,-0.044449,0.075145,0.11978,0.06958,0.3547,-0.020897,0.078686,-0.024572,0.044451,-0.12174,-0.12364,-0.0076174,0.049215,0.038963,-0.16979,-0.19195,0.2436,-0.11659,-0.17862,0.28571,0.25401,0.12074,-0.17083,-0.062495,0.19532,0.25259,-0.12923,-0.2201,-0.50576,0.034075,0.06344,-0.11629,-0.14431,-0.12446,0.13376,-0.032361,-0.17107,-0.070935,-0.10258,-0.05284,0.34759,-0.18741,0.081482,-0.11217,-0.20837,-0.044015,0.12352,0.12067,-0.074275,0.22715,-0.0049879,0.32149,-0.17177,-0.17682,0.0016693,0.034559,-0.076416,0.01548,-0.24326,-0.01296,0.12497,0.097267,-0.066083,-0.043639,-0.10109,0.025618,0.064852,-0.40693,0.44386,0.08485,0.15293,0.1542,-0.10295,0.19658,-0.17635,0.26302,0.049748,-0.24198,0.27155,0.064391,0.15895,-0.44703,-0.12466000000000001,0.37355,0.14514,0.15666,-0.090609,0.18723,0.11475,0.12981,0.020462,-0.1435,0.14072,-0.27325,0.23063,0.037201,-0.039806,-0.18804,0.13952,-0.024764,-0.045576,0.19142,0.13552,-0.30838,0.049182,0.034043,0.12753,0.23862,-0.40757,0.17849,-0.20509,0.017368,0.13015,0.090266,0.32007,0.38427,0.37798,0.14976,0.013551,-0.17131,-0.070935,-0.17831,0.091473,0.10861,-0.2875,-0.085796,0.060092,0.068133,-0.021496,-0.19719,0.072623,-0.15179,0.1732,0.11415,0.29768,-0.16831,-0.23087,-0.092328,-0.045693,-0.2542,-0.19367,-0.37802,0.33136,0.29994,0.34043,0.12017,-0.1621,-0.1492,-0.21055,0.14659,-0.30419,-0.21946,0.068222,-0.062977,0.20486,0.10193,-0.01124,0.14036,-0.057922,0.13132,-0.16832,-0.0061435,0.12929,-0.26088,0.032225,0.16358,0.079382,0.52237,0.084355,-0.17671,0.21263,0.060737,-0.068686,0.15588,-0.22805,-0.54594,0.16689,0.16674,0.20899,-0.090303,0.11218,-0.0064434,0.32127,0.013091,0.15153,-0.096714,-0.072942,0.10073,0.12095,0.087421,0.24687,-0.11283,0.1475,0.31695,-0.53582,0.10313,0.0091669,0.059949,0.13151,-0.43376,0.023052,-0.0044506,0.13128,-0.39124,-0.15587,0.14405,0.083411,0.22634,-0.13618,0.49129,-0.05903,0.23353,0.13261,0.24865,-0.20548,-0.0092836,0.10772,0.10588,0.10921,-0.030243,0.15566,-0.28918,-0.22573,-0.035341,0.2323,0.012879,-0.37582,-0.14714,-0.455,0.0012395,-0.35449,-0.14319,0.34298,-0.048118,-0.10057,-0.16531,-0.19352,-0.047418,-0.03212,-0.22763,0.26642,-0.13215,0.19864,0.12807,-0.095664,-0.20853,0.16734,-0.27597,-0.23266,-0.14189,-0.3447,0.041295,0.45312,0.091654,-0.24623,0.1956,0.04882,-0.31198,-0.084685,-0.16858,-0.093014,-0.094246,0.20846,0.16218,-0.12017,0.37384,-0.21469,-0.18065,0.11286,-0.20777,0.016815,-0.23914,-0.42439,-6.9438e-4,0.03769,0.072132,0.022016,0.17751,0.13618,-0.29959,0.14559
hands,0.30759,-0.075277,-0.0064237,-0.25429,0.11558,-0.0040426,-0.021298,0.11414,0.39943,0.20117,-0.0503,0.14396,-0.074614,0.31994,-0.18394,0.13429,-0.24035,-0.34925,-0.0045669,-0.20215,0.34207,0.1197,0.12694,0.090581,0.15776,-0.15187,-0.017232,-0.1374,0.18756,0.16551,0.26559,0.12724,0.17008,-0.037438,0.024477,0.038427,-0.35151,0.19873,0.11301,-0.14225,0.27166,0.14174,-0.50079,-0.20205,-0.079943,-0.085346,-0.10313,-0.2446,0.1441,0.15888,-0.16734,0.053817,-0.16241,0.16156,-0.13911,-0.20412,-0.32558,0.09543,0.059,-0.026865,-0.14702,-0.045748,-0.11484,-0.082655,-0.031634,0.10242,0.098491,-0.0154,0.34714,-0.28692,0.23306,-0.16294,-0.16348,-0.12899,0.22395,-0.072423,-0.021579,-0.081571,0.40917,-0.11144,-0.1142,0.18811,-0.24037,-0.040356,0.082474,-0.060758,-0.24573,0.17418,0.2464,0.081533,0.12726,0.33087,0.1302,-0.062511,-0.055577,-0.27573,-0.19792,0.41042,-0.1411,-0.12325,-0.14188,-0.0014723,-0.087636,-0.23902,0.37001,-0.24305,0.23297,0.47312,-0.12775,-0.13073,-0.091896,0.097497,-0.24034,0.036923,0.021367,-0.23468,-0.30469,-0.11903,0.12107,-0.19849,-0.072975,0.10813,-0.052785,0.2561,0.0956,-0.30696,0.14684,-0.23434,0.13973,-0.0082161,0.1232,-0.32888,0.082247,0.16891,0.2153,0.18543,0.074167,0.076058,-0.23438,0.28147,-0.011829,0.15633,0.10492,-0.072767,0.20722,0.14894,0.050485,0.15585,0.018355,0.13626,0.11773,0.14231,0.090381,0.27684,-0.22044,-0.23609,0.20631,0.21808,-0.30458,-0.35051,-0.37274,0.52418,0.25752,0.15978,-0.18133,-0.0022591,-0.071783,-0.046335,0.088558,0.22029,-0.057179,0.065936,0.31884,-0.248,0.15484,0.026906,0.38878,-0.22159,0.34593,-0.15607,0.13137,0.080557,-0.2876,0.28003,-0.012095,-0.022867,0.0084166,0.0495,-0.34092,0.31944,0.18203,-0.18529,0.25714,-0.48275,0.0029364,0.10958,0.22217,0.3172,-0.33092,0.037614,0.12528,-0.094129,0.10733,0.25318,-0.19576,0.24146,-0.19982,0.036388,0.1581,0.12508,-0.2487,0.14557,0.54604,-0.2917,-0.20539,0.01392,0.1214,0.34097,-0.21334,0.11996,-0.065998,0.18205,-0.028037,-0.25487,0.0051992,0.10106,0.20323,-0.15238,-0.010683,0.015185,0.121,-0.0073151,0.23604,-0.05695,-0.08769,-0.22491,-0.3726,0.090623,0.18366,-0.039904,-0.29765,-0.017428,-0.056965,0.36234,0.036245,-0.29992,-0.078053,-0.41128,-0.10707,0.17061,-0.32539,0.19125,0.39796,-0.062125,-0.046956,-0.11574,-0.2875,-0.17656,0.139,0.25108,-0.24828,-0.086941,-0.028357,0.025839,0.089487,0.15765,0.12588,-0.30743,0.28096,-0.092094,0.20437,0.28184,-0.19936,0.0039645,0.16932,0.059298,0.18646,-0.11701,0.15602,-0.28748,0.17935,-0.092322,0.16632,0.0024677,0.14456,0.055058,0.086518,-0.056008,-0.4963,-0.025199,-0.09724,0.047824,0.19242,-0.086395,0.021939,0.022931,0.21343,0.042148,-0.36228,0.1731
low,-0.11391,0.048048,0.14612,0.10167,0.05833,-0.10644,0.21175,0.23717,0.30073,0.17816,-0.079189,-0.10766,-0.19056,0.24797,0.24562,-0.14386,-0.2439,0.25073,-0.036294,-0.10296,0.24971,-0.12767,0.10247,0.41136,0.32995,0.094886,0.3735,-0.26795,0.14862,-0.26222,0.12463,0.10361,0.13156,0.043245,-0.085995,-0.038604,-0.23596,-0.27053,0.087851,0.12526,0.015818,-0.10911,-0.17899,0.014254,-0.39735,0.29655,0.2115,-0.19483,0.047433,0.098317,0.087395,-0.016495,-0.22039,0.39452,0.055501,-0.0020467,-0.16654,-0.31918,0.14075,0.2527,-0.27313,0.078697,-0.5456,-0.22287,0.051644,0.17666,0.21918,0.11922,0.53858,-0.11969,-0.0037916,0.17226,-0.17639,-0.18448,0.20426,0.18647,-0.19917,0.14237,0.036415,-0.021876,-0.045871,0.21751,-0.097024,-0.051474,0.40272,0.55,0.0047323,0.25048,0.053234,-0.22009,-4.4385e-4,-0.16802,0.23651,-0.37312,0.080301,-0.28629,-0.22014,0.3855,0.332,-0.29846,-0.52053,0.2428,-0.076006,-0.14861,0.25739,-0.11229,0.15402,0.22563,0.26466,-0.047934,0.14921,0.23725,-0.43646,0.079399,-0.35019,0.12871,-0.31938,0.16727,0.17752,-0.14735,-0.18194,0.080556,-0.20498,0.30442,-0.15174,0.12386,0.32465,-0.30297,0.4328,-0.64023,0.2179,0.035371,0.35603,0.22373,0.21594,0.19506,0.06551,0.30109,-0.23191,0.030876,0.1529,0.12444,0.16559,-0.050716,0.038436,0.22066,0.14673,-0.10705,-0.03185,0.062076,-0.16829,-0.16582,0.093925,-0.030253,-0.15687,-0.16586,0.26828,-0.081153,-0.27539,-0.1143,-0.51198,0.37974,0.070134,0.27344,0.013826,-0.16017,-0.085263,4.263e-4,0.25743,-0.12288,0.21681,-0.054652,-0.30139,-0.3891,-0.18433,-0.0053501,0.29721,-0.16371,0.31622,-0.29302,-0.28364,0.26366,-0.09374,-0.21558,0.14984,0.01015,0.28641,0.13038,-0.26986,-0.20327,0.1835,-0.24216,0.19529,-0.29945,-0.095258,0.28091,0.18299,0.14023,-0.22235,0.32004,0.08547,0.0079082,-0.32816,-0.057988,-0.50679,0.031878,-0.06504,0.19208,0.19545,0.35647,-0.052932,0.25331,0.27842,-0.42424,0.20661,0.32042,0.015582,-0.18223,-0.49934,0.26968,-0.29683,0.18341,-0.27427,0.11798,0.24346,-0.022255,0.1883,0.38929,0.23648,-0.30784,0.19119,0.17229,-0.12897,0.043029,0.033846,0.055833,-0.04282,0.13298,0.04473,0.25672,0.12634,-0.11434,0.13561,0.20159,0.046975,-0.34462,-0.22588,0.039679,-0.11544,-0.18766,0.032551,-0.18668,0.16595,0.1396,-0.23281,0.12353,-0.084741,0.16255,-0.15726,0.094138,-0.1003,-0.12792,0.13215,0.037404,0.18572,-0.10915,-0.40227,-0.26951,-0.25007,0.12637,0.13453,0.49519,-0.18692,0.034185,-0.22007,-0.24602,-0.28576,-0.19225,0.027377,0.13884,0.35428,-0.096463,-0.002903,-0.19017,0.36652,-0.11934,-0.10998,0.20674,-0.30801,0.23739,-0.13886,-0.29035,0.27709,-0.15224,-0.16493,-0.069044,0.0056251,0.1287,-0.22258,0.22882
red,0.17295,0.36962,-0.13329,-0.33945,-0.1669,-0.29167,-0.1731,0.53993,0.17951,0.15698,-0.053059,-0.29762,-0.20297,-0.13846,-0.27038,-0.45732,0.026922,-0.30648,-0.16783,-0.013717,-0.18503,-0.32888,-0.13788,0.17811,0.10347,0.17495,0.19279,-0.14962,0.19932,0.034222,0.021797,0.22146,0.52948,0.28965,-0.22628,-0.089543,-0.25641,-0.0046805,0.52684,-0.12499,-0.27923,-0.0019112,-0.79778,-0.366,-0.033536,-0.13448,-0.11961,-0.57476,-0.12415,0.14233,-0.21634,-0.2037,0.13378,0.16179,0.49556,0.30988,0.10666,-0.060434,-0.17447,-0.18154,-0.37896,-0.32861,-0.33428,0.1658,-0.2918,0.024188,-0.019089,-0.16829,0.1526,-0.26925,-0.040118,-0.22845,0.090027,-0.13802,0.12527,0.047643,0.35256,0.0050569,-0.043614,0.086456,0.036063,0.44777,0.038312,-0.23753,-0.081919,0.45791,-0.81865,0.49055,0.21621,-0.16956,-0.21595,0.19336,0.37203,-0.090607,0.13108,-0.20411,-0.53532,0.20842,0.39774,0.0093769,0.15955,0.10649,-0.017176,0.22627,0.089895,-0.13831,0.23238,0.63166,0.045353,-0.44953,-0.052442,0.49351,-0.49419,0.37706,-0.13097,0.069888,-0.45756,0.10159,-0.37553,-0.39916,-0.069031,-0.1303,-0.035257,-0.20153,0.24953,0.073835,0.0051673,-0.44953,0.4455,-0.42632,-0.15027,0.16176,0.42551,0.44548,0.54327,0.57998,0.1543,-0.096717,-0.22752,0.32988,0.33653,-0.01089,0.32856,-0.10219,0.14922,-0.24928,0.54098,0.21745,-0.75188,0.40134,-0.19135,0.22028,-0.15737,0.18065,-0.21111,-0.19253,0.031524,-0.42026,-0.11138,-0.12275,-0.62345,0.61588,-0.11857,0.15986,-0.014196,-0.042918,-0.17983,0.0072805,-0.11926,0.17142,-0.20789,-0.16882,-0.18896,0.11718,-0.078959,0.01654,-0.13826,-0.5288,0.57099,-0.28194,-0.48567,0.28382,-0.34876,-0.090278,0.25057,0.26299,0.25479,-0.38936,-0.24103,0.23565,0.11863,0.037663,0.42578,-0.40263,-0.29257,0.14551,-0.068894,-0.055372,-0.072344,0.084593,-0.36264,0.53366,-0.42815,0.40675,0.14363,0.1486,-0.055921,-0.026916,-0.13728,0.53268,-0.052725,0.41192,0.25531,-0.14759,-0.46471,0.024361,0.12297,0.23256,0.024508,-0.34856,0.037066,0.052586,-0.38591,-0.25321,-0.043155,-0.17205,0.55299,-0.1423,0.25132,-0.18761,0.42353,-0.1826,0.60432,0.021102,0.32065,0.37749,0.27027,-0.14192,0.14941,0.28195,-0.1882,0.071231,0.039569,0.43162,0.22746,0.3065,-0.66229,-0.31999,-0.18884,-0.040497,-0.45555,-0.17668,0.063682,-0.19531,-0.17927,-0.50452,-0.2284,0.19181,-0.38105,0.52112,-0.62742,0.30318,0.33934,0.25011,0.042108,0.29111,-0.37684,-0.63821,-0.056063,0.26852,-0.13436,0.44253,0.10367,-0.1697,0.22396,0.012806,-0.48792,0.10893,0.067586,-0.46224,0.39908,0.43864,-0.059036,-0.11434,-0.010783,-0.53519,-0.15668,0.22187,-0.30532,-0.063922,0.22843,-0.10054,0.075844,-0.35471,-0.11741,0.025718,0.2827,-0.0053745,-0.065507,0.4122
feet,-0.19328,0.021924,-4.5333e-4,-0.045387,0.21568,-0.0019415,0.071917,0.15339,0.089426,-0.24712,-0.091583,0.18801,-0.20214,0.17473,0.097924,0.13354,-0.12959,-0.43539,0.10559,0.33884,0.28639,-0.0030258,0.34273,0.21929,0.14303,-0.34692,4.3654e-4,-0.30894,0.029391,-0.11537,0.10175,0.20244,0.15472,0.1627,-0.15601,-0.060607,-0.4144,-0.12906,0.25509,0.096799,0.35567,-0.26775,-0.14786,-0.35489,-0.085747,-0.17244,-0.024311,-0.025866,0.16177,-0.15971,-0.2696,-0.0029378,-0.26807,0.17059,-0.30404,-0.20309,-0.04151,0.28752,0.15077,0.043095,-0.04252,-0.090094,0.05489,-0.28622,0.042547,0.3741,0.18556,0.0068656,0.20873,-0.29862,0.32096,-0.13659,-0.18296,0.34982,-0.069762,-0.16176,0.13536,-0.0093753,0.12998,0.10149,0.16307,-0.042125,-0.20904,0.10819,0.052774,-0.0059225,-0.25207,0.05986,0.16416,0.15916,-0.049322,0.21086,-0.01017,-0.067269,0.28471,-0.16983,0.24254,0.4267,0.079064,-0.17618,-0.15863,0.2801,0.1301,-0.048721,0.080207,-4.6255e-4,0.44717,0.41165,-0.12739,0.32187,-0.16817,0.15538,-0.049874,0.32683,0.010978,-0.15351,-0.42801,-0.01019,0.14876,-0.2533,0.08957,0.32171,-0.27079,0.16058,-0.14546,0.044766,0.18577,-0.21849,0.14597,-0.13255,0.24391,-0.40359,0.10664,0.18722,0.2677,0.14398,0.27153,0.22169,0.12775,0.41891,-0.075885,0.28297,0.063457,0.16729,0.21774,0.36978,0.017443,-0.095541,-0.45732,-0.1552,-0.16167,0.223,-0.025513,0.43788,-0.11201,0.11566,-0.041203,0.33843,-0.14981,0.073892,-0.19436,0.25138,0.24473,0.16013,-0.087926,-0.006018,-0.17763,-0.55894,0.26303,-0.27015,0.0039627,0.16065,0.13448,-0.25961,-0.053146,0.32731,0.32606,-0.26608,-0.12346,-0.19881,0.23866,-0.066592,-0.29083,0.29023,0.065761,-0.18956,0.27179,0.44776,-0.36621,0.57575,0.15266,-0.085783,0.33565,-0.28149,-0.1617,0.10797,0.21449,0.13678,0.023133,0.051727,0.20064,0.16136,-0.16762,-0.25366,-0.24085,0.098746,0.0030139,-0.085739,-0.045821,0.065793,-0.13527,0.057968,0.67007,-0.34183,-0.048282,0.053283,-0.075861,0.11494,-0.16414,0.062585,-0.065225,0.48473,-0.15527,-0.24212,0.33265,0.19389,0.21139,0.079552,0.066634,0.0028943,0.2953,0.16832,0.050854,0.099557,-0.15269,0.17928,-0.30259,0.025358,0.082314,0.049201,-0.19587,-0.15229,0.05344,0.21035,0.18446,-0.44632,-0.16597,-0.34492,-0.17858,-0.10304,-0.29802,0.12453,0.42053,-0.017393,-0.0056385,0.0098017,-0.41823,-0.15856,-0.1756,0.30465,0.095278,0.064499,-0.21973,-0.065658,-0.0071937,0.42971,0.10086,-0.098395,0.10372,0.09486,-0.037799,0.48353,0.025122,0.10927,0.1443,-0.014067,-0.2184,-0.34644,0.08711,-0.21189,0.25863,-0.38686,0.45315,-0.0031086,0.018443,0.28039,0.061949,0.30357,-0.37343,-0.11041,-0.050407,-0.15765,0.38571,0.09953,0.01508,-0.25787,0.29142,-0.058084,-0.017045,-0.057927
short,-0.10973,-0.11063,0.16284,0.052561,-0.075972,-0.0092632,-0.11866,0.036444,0.0089501,0.097597,0.10162,0.066441,0.083473,-0.11932,0.028762,-0.12469,-0.041371,0.13712,-0.055112,0.048938,0.0076526,-0.099938,0.091636,0.29805,0.12268,-0.050588,0.13527,-0.15552,-0.021287,-0.071765,-0.40991,-0.050666,0.097513,0.12592,0.104,0.0056267,-0.23441,-0.12955,0.060628,0.099817,0.18413,0.011824,-0.23055,0.0084201,0.23201,-0.021217,0.087165,-0.20418,0.068992,0.035033,-0.055891,0.22942,-0.23804,-0.024985,-0.2246,0.034307,0.01807,0.075056,0.20872,0.078656,-0.050994,-0.0022797,-0.014445,-0.040212,0.2367,0.36655,0.27512,-0.080061,0.17157,-0.19141,-0.032672,0.14412,-0.049773,-0.095388,0.080765,0.053396,-0.36349,0.12168,0.2527,-0.20026,-0.1149,0.31239,-0.1625,0.051399,0.069061,0.22153,-0.14611,0.26166,0.0080457,0.16932,0.06053,-0.33308,0.13415,-0.44385,0.01499,-0.056253,-0.095645,0.28211,-0.20091,-0.041896,-0.16774,0.029318,-0.069794,0.01673,0.093022,-0.35729,0.12531,0.16924,-0.013887,-0.23432,-0.033505,0.13562,-0.42351,0.49814,-0.24029,-0.085297,-0.22898,-0.019482,0.1319,-0.18363,0.010199,0.0094916,-0.07298,0.2803,-0.0098967,-0.061972,0.14101,-0.20009,0.27103,-0.10185,-0.048198,0.063216,0.18546,0.30689,0.24486,0.17492,-0.028595,-0.10737,-0.10594,0.17461,0.11649,0.23374,0.10306,-0.054899,-0.072257,-0.089394,0.020818,-0.13128,-0.06469,0.081382,-0.048555,-0.14886,0.1543,0.047546,-0.18096,0.073836,0.22596,0.17189,-0.38229,-0.21169,-0.17783,-0.045222,0.017853,0.3418,0.22302,-0.16297,-0.088961,0.284,0.03757,-0.16063,-0.13107,-0.15913,-0.16149,-0.092477,0.085106,-0.13563,-0.027954,-0.09279,0.068797,-0.17859,-0.15509,0.028228,-0.15929,-0.082016,0.29985,0.12227,0.21077,0.18687,-0.35936,0.18727,-0.10628,-0.059666,0.10353,-0.027131,-0.41928,0.22154,0.17629,0.36748,-0.27198,0.26198,0.25148,-0.14221,0.1474,-0.03683,-0.32011,0.066181,-7.2812e-4,-0.13506,0.099025,0.46295,-0.12318,0.11698,0.18366,-0.30525,-0.086184,-0.12525,-0.082505,0.12609,-0.16439,0.15118,-0.19667,0.21882,-0.15402,-0.010679,0.12943,0.21254,0.12502,-0.088907,0.088059,-0.036471,0.38422,0.2795,0.061959,0.080705,0.28075,-0.14575,-0.09888,0.092183,-0.023174,0.014278,-0.19623,-0.068715,0.044825,0.25656,0.10966,-0.40434,-0.010098,-0.018638,-0.18786,-0.072135,-0.13119,-0.25652,0.30865,-0.21237,-0.23191,-0.099029,-0.1504,-0.16536,0.17874,0.46447,0.10155,-0.008612,0.040735,0.27302,0.15271,0.37049,-0.035493,-0.32759,0.099151,-0.055823,0.24933,0.54282,0.18929,-0.13544,-0.033321,-0.026322,0.27672,-0.0022983,0.20416,0.058855,0.37465,-0.25368,-0.051124,0.21816,-0.085283,-0.14005,0.21871,-0.12461,-0.37354,0.22076,0.09236,-0.26996,0.072312,-0.14416,-0.46462,0.35001,-0.0033656,-0.010979,0.083708,-0.081501
hair,0.1338,0.094034,0.31027,-0.46361,-0.19085,0.092557,0.41564,-0.075157,0.45036,0.25458,-0.060417,0.08735,0.13538,0.075912,0.23837,0.14934,-0.1175,0.25618,0.1912,0.42192,0.044399,0.043006,-0.051876,0.29632,-0.22438,-0.12225,-0.044646,0.18211,-0.06826,-0.1017,0.049936,0.1989,0.13065,0.27373,-0.35814,0.41118,0.021553,-0.1692,0.2997,-0.10631,0.20693,-0.2326,-0.15558,-0.19116,0.086321,-0.097291,0.093976,-0.19589,0.16446,0.097891,-0.027361,-0.10157,-0.14357,-0.28996,-0.11416,0.09274,-0.11171,-0.049869,0.30242,0.27521,-0.24056,0.34821,-0.070829,0.14856,0.096934,0.15797,0.16697,-0.27803,0.088701,-0.42246,0.32838,-0.088713,-0.024478,-0.11502,-0.054756,0.37954,0.035191,-0.068868,0.1111,-0.29487,-0.26919,0.1223,-0.396,-0.008529,0.27992,-0.11132,-0.32085,0.28785,0.16275,0.13228,0.17338,0.18104,-0.15783,-0.16571,-0.02399,0.0345,-0.45799,-0.020934,-0.11475,0.042406,-0.11228,0.32284,0.055294,0.12005,-0.0086285,-0.17724,-0.021507,0.20134,-0.020769,0.17353,-0.32407,0.12067,-0.28465,0.43472,-0.26671,-0.02239,-0.20503,0.15082,-0.15526,-0.030244,0.097404,0.12719,-0.17769,0.26145,0.27169,-0.1676,-0.060947,-0.015369,0.078789,-0.20165,0.096049,-0.22593,-0.018106,0.21143,0.16678,0.109,-0.14904,0.021279,-0.34679,0.34725,-0.21593,0.029212,0.28893,-0.10737,0.48143,0.15937,0.0015745,-0.10938,-0.24219,-0.067765,-0.095728,0.15993,0.28162,-0.19207,-0.28037,-0.48653,0.038208,0.10569,-0.13008,-0.25115,-0.40608,0.28919,0.09037,0.16582,0.15177,0.054617,0.20044,-0.013454,0.089339,-0.08068,-0.15464,0.058608,-0.0033844,-0.28855,0.14511,0.065296,0.40967,-0.082592,0.1861,-0.15465,0.0051924,0.1523,-0.18896,0.31917,0.40255,0.11864,0.046289,0.098452,-0.37903,0.57926,-0.042939,-0.62239,0.14434,-0.37667,-0.37641,0.035225,-0.12512,0.28866000000000003,-0.41887,-0.1216,0.062534,-0.083831,0.1491,0.38424,-0.077964,-0.11138,0.1965,-0.27063,-0.05409,0.34766,-0.31083,0.053286,0.34158,-0.42575,0.095956,-0.05974,-0.25276,0.46539,-0.5546,0.10067,0.18546,0.15549,-0.21868,-0.29717,-0.16414,0.24029,0.37038,-0.15772,-0.25979,0.027361,-0.1659,0.10819,0.20428,0.10457,0.29392,0.14989,0.010213,-0.21822,0.16424,0.037917,-0.083503,-0.20461,0.12472,0.069746,-0.057913,-0.39077,-0.097773,-0.42385,-0.27725,0.34385,-0.58109,0.2897,0.076991,-0.45028,-0.4682,0.10043,-0.16332,-0.02987,0.05354,0.4571,0.039386,-0.2142,-0.22552,0.16855,0.030781,0.37436,-0.051193,-0.49443,-0.16068,-0.064185,0.24567,0.16658,0.27266,0.081902,0.20246,0.14432,-0.011645,-0.11953,0.19297,-0.40846,-0.067333,-0.38267,0.021322,-0.18966,-0.22323,-0.019771,-0.0054045,0.19809,-0.77828,0.046995,0.029095,-0.045363,0.312,-0.10911,-0.25868,0.17931,0.11554,-0.21444,-0.13686,0.43835
ground,-0.1235,-0.005274,0.28338,-0.24885,-0.10878,-0.16142,-0.1822,0.30049,0.21872,0.0037628,-0.27804,-0.10972,-0.10993,0.30783,-0.18661,-0.19561,-0.19967,-0.66774,-0.22307,0.13395,0.25904,-0.27618,0.29501,0.10387,-0.057932,0.15518,0.09929,-0.30525,0.11637,-0.013924,0.21721,0.17645,0.36575,-0.1693,-0.16299,0.10146,-0.33846,-0.15025,0.24423,0.34365,0.10794,-0.35713,-0.10455,-0.36284,-0.16638,0.18396,0.096248,-0.1255,0.2441,0.085201,0.26449,0.20612,-0.12429,0.28077,-0.18228,-0.058103,-0.065851,-0.037423,0.048576,0.26771,-0.16344,0.16045,-0.2543,-0.2181,-0.25178,0.31584,0.14257,0.11213,-0.068532,0.02112,0.36113,-0.27394,-0.14879,-0.038115,0.15846,0.13737,-0.070717,-0.08752,0.19228,0.058394,-0.13205,0.21483,-0.14961,0.095918,0.11105,0.24065,0.019504,0.053935,-0.017948,0.040709,0.0033854,0.16984,0.18098,-0.13108,-0.13163,-0.083299,0.16392,0.26652,0.093942,-0.26474,-0.26185,0.1061,-0.060998,0.048497,0.13259,-0.21533,0.34907,0.16286,-0.17741,-1.228e-4,-0.074111,-0.076828,-0.37728,0.21139,-0.16796,-0.11378,-0.50584,0.0022611,-0.084921,-0.042579,0.17989,0.058772,-0.19318,0.22089,-0.0070388,0.096238,0.195,-0.31714,0.49218,-0.12174,0.29419,-0.02859,0.11669,0.22837,0.3582,0.16068,0.027826,0.17927,0.18587,0.17293,-0.1295,0.13187,0.16598,-0.12726,0.0099023,0.34212,0.23886,-0.045958,0.044877,-0.0095717,0.018108,0.30921,-0.06225,0.32813,-0.27574,-0.16648,0.053264,0.13123,-0.050692,-0.15293,-0.27632,0.16276,0.028599,0.15834,-0.30637,-0.17522,0.024825,-0.24385,0.32862,-0.20112,-0.17978,-0.085584,-0.079527,-0.21437,0.10095,-0.1824,0.10282,-0.099919,0.18086,0.064397,0.091378,0.02007,0.060113,0.12016,0.52093,-0.10041,0.43245,0.21166,-0.38991,0.29128,-0.022464,-0.077893,-0.073185,-0.25411,-0.35976,0.15378,0.16848,-0.090352,-0.13981,0.2608,0.024036,0.16106,-0.3364,0.0038211,-0.29212,0.13655,0.05448,-0.014455,0.089348,0.19795,-0.064386,0.085688,0.61388,-0.31238,-0.32997,0.034203,0.10503,-0.049597,-0.18809,0.1449,0.099761,0.45007,-0.46489,-0.020476,-0.032406,-0.029958,0.22915,-0.13014,-0.0037568,-0.031943,0.21408,0.23817,0.07908,-0.042486,0.081872,0.082022,-0.28693,0.078882,-0.073504,0.41054,0.029119,0.0075885,-0.4392,-0.063072,0.18767,-0.18141,-0.083615,-0.63099,0.049364,-0.19521,-0.13929,-0.29502,0.24751,0.15801,-0.069376,0.14888,-0.11395,-0.039347,0.058743,0.48282,-0.34792,-0.020948,0.053265,0.22735,0.0443,0.35805,-0.19906,-0.26688,0.31777,0.016258,-0.25905,0.1143,-0.061784,0.035427,0.22037,-0.26889,-0.10809,-0.24837,0.37045,-0.22159,0.28245,-0.071592,0.31015,-0.28869,0.054837,-0.092594,-0.30712,0.20127,-0.17607,-0.15364,-0.064234,-0.3105,0.36809,-0.12073,-0.038144,0.024234,0.29363,0.03779,-0.3207,-0.070421
single,-0.20958,-0.085081,0.027391,0.18326,-0.32253,-7.2883e-4,-0.12606,0.12841,0.010575,0.12969,-0.011217,0.15219,-0.11046,0.053758,-0.060722,-0.20761,-0.092922,-0.27903,-0.12046,0.25083,0.19822,-0.23278,0.21788,0.17712,0.056216,0.21336,0.045623,-0.0095025,0.12281,-0.36183,0.020915,-0.22134,0.13577,-0.075112,-0.01418,-0.025597,-0.39915,-0.19108,0.19159,0.02119,0.13676,0.1047,-0.11788,0.033138,-0.24265,0.082656,-0.15301,-0.14523,0.027227,-0.11487,-0.072688,0.12703,-0.069304,0.12879,0.20747,0.10237,-0.066434000000000007,0.0075195,0.10037,0.12814,-0.25138,0.27184,-0.11603,0.3198,0.43336,0.33456,0.18947,0.042396,0.020479,-0.28704,0.10517,0.0039275,-0.12968,-0.41292,-0.39012,-0.064797,-0.27261,5.5911e-4,-0.042644,0.14646,-0.18366,0.021975,-0.32361,-0.24343,-0.26129,0.10045,-0.2062,-0.022961,0.01317,0.11154,0.035669,-0.35949,0.15031,0.043214,0.23461,-0.18341,-0.14595,0.13245,-0.032433,-0.076267,-0.24109,0.031769,-0.046512,-0.032945,0.23649,0.0124,0.10652,0.17056,-0.12038,0.0036112,0.18141,-0.043161,-0.27551,0.16419,-0.1101,0.094462,-0.12389,0.40848,0.036806,0.088668,0.12751,0.018078,0.032346,0.10073,-0.043011,-0.041265,0.20827,-0.086644,0.086682,-0.037482,-0.052332,-0.10958,0.22087,0.0066634,0.27797,0.04943,0.013999,-0.054342,0.05983,0.10384,-0.038885,0.13967,-0.10477,0.095348,0.064162,0.1168,0.094778,-0.069115,-0.053062,-0.0087202000000000009,0.12013,-0.19706,-0.19467,0.17553,-0.0036911,-0.085047,0.017486,0.066484,-0.28013,-0.10004,-0.29593,0.26776,0.031262,0.075149,-0.10536,0.035387,-0.33515,-0.14732,0.18705,-0.16392,0.087532,-0.090281,0.055575,-0.034698,-0.27231,-0.17423,0.2405,-0.045488,0.22998,-0.21729,-0.21229,0.12469,0.16126,-0.044703,-0.068393,0.016425,0.17676,-0.052568,-0.28051,0.15792,-0.17378,-0.17528,0.0046756,-0.41383,-0.43717,0.012725,-0.022072,0.20019,-0.063576,0.34669,0.060126,0.11568,0.081523,0.095526,-0.28885,0.32049,-0.055193,0.2126,0.024642,0.38449,-0.027774,0.062406,0.36505,-0.17488,0.033638,0.20766,0.12011,0.075105,-0.29503,-0.2073,-0.19207,0.023545,-0.28006,-0.11315,3.2246e-4,-0.011593,0.11451,-0.16072,0.52186,-0.069448,0.17556,0.1858,-0.021057,0.10126,0.020441,0.15534,0.038716,-0.088319,0.091227,-0.1022,-0.11759,-0.24366,0.14858,0.26974,0.082761,-0.1318,0.1778,-0.20944,-0.21409,-0.17989,-0.015406,-0.12954,-0.117,-0.0289,-0.2598,-0.22248,-0.043294,0.17117,0.053957,0.27504,-0.14713,0.18707,0.17527,-0.22173,-0.027325,0.094836,-0.53907,-0.21155,-0.059255,-0.10461,0.032515,0.32957,0.36415,-0.35798,0.055384,0.10074,0.026587,0.1213,0.055191,0.11859,0.09393,-0.24659,-0.10923,0.033661,0.064943,-0.089704,-0.20586,0.16636,-0.16139,0.14225,0.11048,-0.1174,0.25716,0.01422,0.15554,-0.019381,-0.34913,-0.10044,-0.1741,0.29434
brown,-0.04311,0.038299,0.18126,-0.13672,-0.060076,0.025842,-0.20014,0.20445,0.085952,0.39346,-0.29368,0.19055,0.39449,0.0083128,0.027099,-0.097024,0.10579,-0.03365,-0.052432,0.1728,-0.17157,-0.042125,-0.22539,0.18925,-0.107,0.076272,-0.059783,-0.03532,0.21503,-0.10472,-0.1999,0.030406,0.23311,-0.28887,-0.10604,0.037028,-0.15126,-0.21624,0.2388,-0.02843,-0.018399,-0.25201,-0.14556,-0.16316,0.043869,0.16438,0.022363,-0.3283,-0.15262,-0.22754,0.088401,0.0056667,-0.020609,-0.08093,-0.16656,0.30009,0.20532,0.25089,-0.089213,0.34086,-0.12843,-0.15634,-0.29721,-0.067673,-0.20111,0.35839,0.34763,-0.097702,0.1894,-0.36077,0.10378,-0.10315,-0.2203,0.14457,0.20814,0.06077,-0.12204,0.07165,0.10753,-0.053900000000000003,-0.19164,0.052447,-0.11601,-0.26849,0.057543,-3.1807e-4,0.06009,0.034402,0.12224,0.34485,-0.061176,0.19436,0.056749,0.03373,0.086369,-0.012647,-0.16639,0.28893,-0.047477,0.38889,-0.31915,0.24354,0.1026,-0.13791,0.26089,-0.023298,0.072579,0.36768,-0.019953,-0.11395,-0.084696,0.27888,-0.30585,0.029621,-0.075813,0.28323,-0.27729,0.056887,0.13079,0.025414,0.19832,0.27139,-0.076679,-0.17059,0.11758,-0.04689,-0.040188,-0.49693,0.10064,-0.17345,0.11104,-0.0064498,0.14422,0.023168,0.3847,-0.012795,0.028496,-0.066788,-0.3007,0.26516,0.036407,-0.05257,-0.021778,-0.26402,0.33913,0.31242,-0.048357,0.017021,-0.23308,-0.064682,0.13671,0.0095881,0.33186,0.10697,-0.24313,-0.33307,-0.14535,0.25203,0.11147,-0.63423,-0.30872,0.15553,0.27621,0.34319,-0.016641,-0.31234,0.01749,-0.03083,0.16145,-0.11293,-0.3482,-0.1748,0.10747,0.11455,0.049838,0.18919,0.20972,0.026134,-0.12935,0.19201,-0.092787,-0.023355,0.1276,-0.067337,0.2138,0.25225,-0.0033609,0.11842,-0.041397,0.062624,0.086874,-0.37645,0.11516,-0.28181,-0.10705,0.21836,0.012607,0.087972,-0.32091,0.12992,0.018162,0.057327,-0.088618,0.15873,-0.214,0.16097,0.17644,-0.34007,0.11901,0.4765,0.11385,0.099837,0.4293,-0.54195,-0.0057229,0.043173,-0.11932,0.1292,-0.084485,0.12826,0.10396,0.22358,-0.31106,-0.0080026,-0.39624,-0.011997,0.1448,-0.10668,0.028749,0.14036,0.042835,-0.072076,0.043608,0.062269,0.072246,0.054108,0.034081,0.0055871,-0.070337,0.12277,-0.070384,-0.11241,0.26023,0.057745,-0.11357,-0.42643,-0.36285,-0.0647,-0.24928,0.018245,-0.49716,-0.08392,4.8442e-4,-0.015594,-0.043854,-0.053884,9.0282e-4,0.28593,-0.3424,0.41113,0.087233,-0.23927,0.25218,0.3958,0.091785,0.066942,-0.23224,-0.62825,-0.024517,0.047542,0.085686,0.11685,0.15044,0.023224,0.034903000000000003,0.012666,-0.08998,-0.067171,0.010458,-0.24595,0.11499,-0.10903,0.13639,-0.15153,-0.2276,-0.20844,-0.078718,0.16656,-0.2189,0.084666,-0.07708,-0.16929,0.32487,-0.0028902,0.031197,0.14564,0.49899,-0.15256,-0.22287,-0.055002
strong,-0.47162,0.078461,-0.015223,7.4539e-4,-0.0218,-0.14724,-0.034184,0.17882,0.25089,0.048065,-0.078573,-0.06849,-0.047445,0.19874,-0.3017,0.17524,0.058462,0.084011,7.31e-4,-0.27935,0.30169,0.021831,0.21573,0.36033,0.15902,0.13394,0.30265,-0.048641,-0.10547,0.0012619,-0.03069,-0.079484,0.076785,-0.099654,0.1704,0.0067336,-0.034614,0.025669,0.21177,0.14168,0.097284,0.10847,-0.12882,-0.37609,0.0094147,-0.068595,-0.27992,-0.36435,0.1474,-0.18165,0.088921,0.30036,-0.047256,0.11865,-0.0047247,-0.30051,-0.15964,-0.1336,-0.042937,-0.13306,-0.22251,-0.058659,-0.25791,-0.019954,0.069134,0.34486,0.18217,-0.1367,0.043275,-0.4466,-0.048063,0.04403,-0.063477,0.2394,-0.2273,0.25262,-0.35266,0.010655,-0.012283,-0.043581,-0.16392,0.44489,0.10325,-0.34476,0.11459,0.29304,-0.22254,0.088409,0.22987,0.034003,0.049252,-0.14169,-0.0032563,-0.25749,0.11293,-0.30976,-0.25169,0.44892,-0.14019,-0.15567,-0.36947,0.12875,-0.005373,-0.31948,0.14177,-0.091884,0.34516,0.10511,0.033429,-0.027928,0.063668,-0.02193,-0.35215,-0.0055981,-0.037911,-0.050703,-0.27122,0.21542,-0.16917,-0.043175,0.045186,-0.12601,-0.11519,0.37784,0.027314,-0.036365,0.23088,-0.16282,0.4582,-0.022539,-0.095887,-0.091227,0.26231,0.21169,0.14647,0.27569,0.077092,-0.079696,-0.11328,-0.1099,-0.1549,-0.03798,0.20387,0.10787,0.093711,0.23981,0.18397,0.24401,0.25672,0.1794,0.27082,-0.049245,0.058093,0.41145,-0.079437,-0.26707,0.29609,-0.034907,-0.10853,-0.25658,-0.024406,0.01621,0.11775,0.21186,0.070587,-0.067505,0.026618,-0.0037715,0.17395,-0.17913,-0.089426,0.14259,-0.20085,-0.038625,0.083781,-0.063416,0.019348,0.056331,0.036857,-0.20934,-0.20304,0.29997,-0.042111,-0.22079,-0.12314,-0.056458,0.12762,0.22312,-0.36098,-0.11482,-0.016028,-0.1883,0.070899,-0.235,-0.25258,0.070649,-0.043678,0.16765,-0.12854,0.32773,0.37648,-0.021952,0.033879,0.14205,-0.30591,0.17395,0.034605,0.02154,0.064216,0.29127,0.0054486,-0.055333,0.26584,-0.14363,-0.12913,0.21471,-0.084205,0.22333,-0.039771,0.071511,0.082307,-0.076286,-0.21872,0.022972,0.080452,0.10355,-0.026973,0.044433,0.26743,0.12742,-0.063297,0.080945,-0.0016728,0.053948,0.23728,0.28402,-0.2301,-0.010568,-0.041553,0.045077,-0.22223,-0.34757,-0.12586,0.094719,-0.020996,-0.23791,-0.25873,-0.11202,-0.18885,-0.42794,0.049994,0.14045,0.1418,-0.17568,-0.23982,0.24545,-0.059821,0.13339,-0.119,0.32656,0.15055,-0.094042,-0.043079,0.16724,0.25501,0.11517,-0.19016,-0.27898,0.10377,-0.15444,0.2786,0.090664,-0.059238,0.07185,-0.28999,-0.078593,-0.13169,-0.040353,-0.1715,0.027052,0.040141,-0.24657,0.22573,-0.050681,-0.14845,-0.03174,0.10507,0.12837,-0.60367,0.080618,0.16792,0.036804,0.24023,-0.11614,0.10456,0.055547,-0.043097,-0.22604,-0.39616,0.33214
dark,-0.18182,-0.20978,0.25691,-0.25766,-0.19397,0.041554,0.21739,0.48371,0.071319,-0.072688,-0.022277,0.053136,-0.012582,0.2037,0.27388,0.24031,0.013457,0.070083,-0.10201,0.078167,0.0070132,-0.012226,0.04383,0.40719,-0.018045,0.013213,-0.066504,0.094698,-0.040655,-0.060498,-0.20883,0.13901,-0.029386,0.034485,-0.15096,0.1157,0.0066145,-0.14606,0.23406,-0.058482,0.13519,5.0983e-4,-0.14649,0.058556,0.10476,0.078068,-0.0773,-0.21797,0.048767,0.093117,-0.28551,-0.15934,-0.091895,0.13665,-0.23227,-0.14807,0.079764,0.16317,-0.15765,0.27119,-0.37537,-0.03274,-0.15395,-0.047517,0.032662,0.33014,0.020019,-0.27477,0.23364,-0.10401,0.3747,-0.11288,-0.081807,0.095891,-0.14937,0.12578,0.061291,-0.019189,0.14074,-0.066362,-0.15257,-0.11429,-0.027683,-0.12644,0.33461,-0.03013,-0.20222,0.30486,0.2236,0.2711,0.025162,-0.055269,0.11519,-0.087395,-0.044302,-0.077486,-0.27473,0.16798,0.25321,0.15232,-0.29583,0.014366,0.32749,0.17868,0.10779,-0.057982,-0.085832,0.25385,0.23738,-0.10677,-0.20146,0.19981,-0.36435,0.025543,-0.28572,-0.066336,-0.37828,0.20901,0.045226,-0.088953,0.20126,-0.0026248,-0.1731,0.16573,0.026975,-0.044316,0.044715,-0.3039,0.44193,-0.049135,0.010999,0.059258,0.22688,0.2321,0.35365,0.21245,-0.023249,-0.17002,-0.3542,0.15747,-0.10068,-0.023217,0.14468,-0.20055,-0.0065519,0.11397,-0.10615,-0.17402,-0.012616,-0.12054,-0.10733,0.29456,-0.018455,0.099424,-0.13184,-0.41915,-0.25091,0.14409,-0.065987,-0.34042,-0.25781,0.24084,0.14651,0.32737,0.13015,-0.33032,-0.18817,-0.12869,0.27403,-0.075796,-0.21146,-0.20149,-0.06169,0.12378,-0.10678,0.20552,0.32287,-0.021892000000000002,-0.021643,0.08156,-0.089318,0.038279,-0.26073,0.019122,0.30846,0.23724,0.35617,0.14588,-0.28322,0.071221,0.19745,-0.48928,0.13158,-0.25773,-0.43201,0.29044,0.090274,0.45132,-0.29376,0.19223,-0.11565,-0.11158,-0.049009,0.19208,-0.089473,0.17256,0.017161,-0.10693,0.051037,0.29162,-0.033768,0.38083,0.31598,-0.42802,-0.086717,-0.21002,-0.049613,0.39917,-0.32541,0.072806,0.19751,0.25683,-0.12851,-0.27431,0.04577,0.1462,0.16314,-0.17625,0.15414,-0.21803,0.079282,-0.0026058,0.20193,-0.1096,0.11223,0.13684,-0.1904,-0.022844,0.13843,0.062144,-0.19618,-0.32485,0.015392,-0.021436,-0.11532,-0.34222,0.07552,-0.16452,-0.18241,-0.19811,-0.24728,0.038855,0.10898,0.016083,-0.17244,0.072048,-0.24403,-0.022998,-0.22052,0.30141,0.0025659,0.0063256,0.16412,0.14339,-0.034189,0.052434,0.062062,-0.19152,-0.12039,-0.17688,0.010159,0.34311,0.061707,-0.10788,0.2916,0.083996,-0.32782,-0.2856,0.15214,-0.18853,0.050874,0.02333,0.30979,-0.27953,-0.19304,0.0023676,-0.12859,0.031413,-0.52333,0.22295,-0.1946,-0.50745,0.19474,-0.090566,0.001088,0.040929,0.10135,0.22181,-0.31569,-0.0084755
blue,-0.1693,0.085149,0.22777,-0.016271,-0.039383,0.026677,0.015342,0.07751,0.019232,-0.056192,0.028908,0.022755,0.15984,-0.25329,0.26641,0.065668,0.17058,-0.13235,0.006053,-0.060415,-0.034411,-0.28287,-0.098696999999999993,-0.05802,0.13694,-0.0044594,-0.016029,0.078016,0.28757,0.1621,-0.094925,0.06196,0.02254,-0.063053,-0.22529,0.097628,0.005468,-0.32548,0.21108,-0.0070293,0.05445,0.013374,-0.2325,-0.094017,-0.17724,-0.13515,-0.025481,-0.35017,-0.2665,0.26166,-0.34399,-0.16169,0.041251,0.011263,0.029202,-0.094802,0.026675,0.21288,-0.0061032,0.10329,-0.38561,-0.20745,-0.01363,0.09411,0.16709,0.17075,0.038412,-0.11698,0.29933,-0.25818,0.36243,0.17987,-0.053383,-0.055728,-0.11337,0.10904,-0.039525,-0.0041863,0.23875,0.09681,-0.20523,-0.018804,-0.13102,-0.096013,0.11455,0.29272,-0.27705,0.2142,0.29944,0.20894,0.082276,0.051836,0.091856,-0.16012,0.43474,0.056133,-0.32134,0.30097,0.16641,0.25094,-0.2646,0.15334,0.16173,-0.041572,-0.11684,-0.13739,0.088767,0.38235,0.14189,-0.13515,-0.034097,0.085186,-0.28098,-0.080951,-0.49276,-0.049895,-0.14599,0.38638,-0.10769,-0.22621,0.087879,0.011282,-0.030483,0.089628,0.032748,-0.025412,-0.2148,-0.23916,0.27329,-0.27581,0.10536,-0.032139,0.21297,-0.058683,0.47656,0.32432,0.22171,-0.13668,-0.23697,0.2476,-0.076117,-0.016702,-0.051579,-0.14721,0.16129,-0.22006,-0.18378,-0.0060851,-0.38057,0.1762,-0.18362,0.085319,0.12614,0.0054693,-0.33981,-0.22942,-0.060887,0.13791,-0.29849,-0.17611,-0.54514,0.11247,0.29731,0.26746,0.10692,0.045804,-0.06185,-0.17907,0.093616,-0.13227,-0.1913,-0.18846,-0.086014,0.22302,-0.081495,0.14816,0.057742,-0.27914,-0.19598,-0.079932,-0.35094,-0.1333,-0.067749,-0.11032,-0.015259,-0.010551,0.14277,0.11352,-0.19153,0.17283,0.062569,-0.19528,0.24304,-0.38841,-0.46205,0.30549,0.3357,0.24139,-0.33751,0.24591,0.10232,0.020402,-0.11631,0.29516,-0.081102,0.20353,0.063977,-0.29248,0.059941,0.062981,0.088619,0.29271,0.5584,-0.26408,0.26988,-0.10712,0.037618,0.11068,-0.36562,0.083278,-0.061639,0.097996,-0.24617,-0.11759,-0.053795,0.040469,0.023093,-0.24345,-0.043859,0.053307,0.20941,-0.062614,0.24429,-0.16303,-0.12372,0.28375,0.044748,-0.027956,0.0082302,0.20894,-0.52188,-0.1379,0.23276,-0.25454,0.041883,-0.07296,-0.2808,-0.067783,-0.11604,-0.067271,-0.23584,0.12176,0.25639,0.11048,0.020135,-0.16281,0.098685,0.0022266,-0.30534,0.37718,-0.077576,-0.11457,0.15397,0.35951,0.049402,0.081571,-0.22452,-0.34393,0.070097,-0.22587,0.017249,0.10894,0.21289,-0.098802,0.38594,-0.032181,-0.3634,-0.42358,-0.14094,-0.18095,0.44349,-0.027309,0.19945,-0.25256,0.10111,-0.27933,0.0011058,0.28031,-0.65125,0.16013,-0.15124,-0.13662,0.35686,-0.15944,8.8973e-5,0.025958,0.022909,0.024127,-0.18997,-0.090498
fine,-0.16679,-0.066033,-0.0467,0.067714,-0.014424,-0.12347,-0.10418,0.21796,-0.069173,0.25117,-0.09381,-0.0037694,0.24507,0.06471,0.095322,-0.044727,-0.27566,0.1774,-0.20876,0.03479,-0.0025443,0.10817,0.16493,0.13316,-0.059538,0.14878,0.083552,-0.1891,-0.094742,0.068998,-0.047442,0.10861,-0.091861,-0.20771,-0.024193,-0.319,-0.18839,0.26199,0.12876,0.034608,0.037829,-0.29339,-0.15577,-0.1963,0.11815,-0.0086748,-0.17644,-0.24982,0.016196,0.15135,0.082164,-0.15895,-0.19806000000000001,0.10941,-0.21229,-0.22097,-0.18382,-0.3445,-0.12467,-0.10796,-0.029056,0.00717,0.010139,-0.18494,-0.028077,0.33431,0.05483,0.34946,0.12072,-0.20015,0.25473,-0.046567,-0.11252,-0.19732,-0.16419,0.1743,-0.17567,0.06907,0.04157,-0.19476,0.128,0.25967,-0.078212,0.038928,0.14794,0.42027,-0.18635,0.24311,-0.032443,0.10458,0.1159,-0.023317,-0.049547,-0.11712,0.13108,-0.13468,-0.20733,0.38405,0.13782,0.090893,-0.092023,-0.020263,-0.31808,-0.095927,0.37911,-0.080027,0.17726,0.1977,-0.033765,0.28633,-0.14636,0.41684,-0.47931,0.52467,-0.19351,0.053513,-0.28018,0.23206,0.10595,-0.099145,0.010389,0.14553,-0.17027,0.071281,0.36301,-0.4475,0.16315,-0.19276,0.041223,-0.14451,0.12824,-0.20864,0.28713,-0.15358,0.35499000000000003,0.16922,-0.029963,-0.082663,-0.24849,-0.067853,0.043579,0.13364,0.06745,0.0074294,0.14141,0.04792,0.10199,-0.065742,0.046076,0.052824,-0.082302,0.058379,0.035526,0.27558,-0.081391,-0.27048,-0.10515,-0.01117,-0.21192,-0.26588,-0.1869,0.33001,-0.11772,0.40058,-0.24414,-0.15269,-0.073623,-0.10967,0.27159,-0.14663,-0.027894,-0.037063,-0.12042,-0.19642,-0.016475,-0.094025,0.062776,-0.26111,0.25214,-0.22808,0.023813,0.45261,-0.15001,0.15869,0.027538,0.22665,0.058508,0.13139,-0.17691,-0.090009,-0.24476,-0.20285,0.30132,-0.58693,-0.30295,0.10234,0.15196,0.2855,0.11155,0.22636,-0.027178,0.026156,-0.079049,0.0032923,-0.33459,-0.024534,-0.029401,-0.12795,0.21326,0.35834,0.0080244,-0.027246,0.40258,-0.35212,0.21684,-0.081045,-0.1301,0.22794,-0.042155,-0.13329,0.15525,0.062823,-0.0086753,-0.16667,-0.060272,0.32768,0.094701,-0.092729,0.28146,0.17672,0.017585,0.15476,0.035491,-0.11794,0.099449,0.20474,0.033890000000000003,-0.01942,0.075966,-0.090893,-0.22337,0.10175,-0.20411,0.0062036,0.25977,-0.2462,-0.15995,-0.32327,-0.16192,0.15791,-0.16862,0.063775,0.23892,-0.085201,-0.25644,0.042971,0.13161,0.14744,-0.42854,0.34802,0.24659,0.0031663,-0.056175,0.26533,0.096838,0.21442,0.039176,-0.57795,-0.036401,-0.26694,0.062779,0.1258,0.10605,-0.24383,0.14856,-0.11021,-0.15485,-0.097882,0.11645,-0.3135,0.0088244,-0.014817,0.27714,-0.12675,-0.0018461,0.039186,0.097717,0.22096,-0.075011,0.18124,0.023364,-0.20271,0.35313,0.13583,0.07681,0.083381,-0.013867,-0.030723,-0.37638,0.36924
size,-0.15382,-0.067843,0.17384,-0.033128,0.064829,-0.077039,-0.14719,0.059578,-0.17208,-0.16241,-0.098668,0.099601,-0.18065,0.20605,0.15132,-0.36072,0.21365,-0.37329,-0.36574,0.065588,0.1828,-0.18898,0.16572,0.42841,0.15014,-0.094055,0.13293,-9.8436e-5,-0.025646,-0.21668,0.061636,-0.20245,0.31702,0.015932,-0.13824,0.073459,-0.23962,-0.15774,0.032447,0.19166,0.029259,-0.43376,-0.28173,0.11492,-0.23253,0.06559,-0.068738,-0.12839,0.0078597,-0.11057,0.15439,0.11283,-0.16248,0.17674,0.15679,0.18159,-0.021336,-0.030597,0.19657,-0.27142,-0.13491,0.033563,-0.22262,-0.18018,0.38083,0.29247,0.048336,-0.33621,0.030952,0.12236,0.2337,-0.28444,-0.47797,0.1552,-0.14935,-0.062162,0.1049,0.06313,0.23547,0.066283,-0.3079,-0.15536,0.077217,0.1541,-0.042193,0.13816,-0.14275,0.31777,-0.23452,0.24352,0.027067,0.17688,0.003624,0.010745,0.45338,0.060167,0.12708,0.20782,0.09329,0.018972,-0.27714,0.10953,-0.11169,0.12807,0.12561,-0.095968,0.085598,0.2268,0.28381,-0.10834,-0.081014,0.075065,-0.059215,0.21551,-0.16945,0.03087,-0.42772,-0.041358,0.029444,-0.071391,0.038434,0.34239000000000003,-0.19321,0.13504,-0.24399,-0.2081,0.22483,0.0608,0.16431,-0.30132,0.20945,-0.42502,0.15574,-0.056157,0.28029,0.10157,0.19302,-0.13534,0.10931,0.10192,0.24132,0.27217,-0.20881,0.043652,-0.068594,0.22588,-0.079294,-0.13321,-0.38405,-0.30116,0.31658,0.11925,0.24122,-0.028154,0.10562,0.025582,-0.024474,-0.091935,-0.33086,-0.15132,-0.28904,0.33024,0.084801,0.35161,-0.081122,-0.16025,-0.57126999999999994,0.056728,0.27219,-0.11266,-0.14658,-0.12949,-0.041311,0.0079344,-0.032853,-0.077666,0.60843,-0.10599,0.19663,-0.37175,-0.14063,0.28998,0.15262,-0.09481,0.062285,0.0013618,0.22107,-0.047179,-0.46629,0.4184,0.081198,-0.49370000000000003,-0.25788,-0.29542,-0.22583,0.15485,-0.1047,0.50633,-0.15554,-0.045106,0.22187,-0.058164,0.064035,0.22938,-0.50643,0.12455,0.26066,-0.4411,-0.18009,0.62424,-0.20743,-0.14185,0.44236,-0.39268,0.19008,0.06948,-0.43596,0.29882,-0.040395,-0.0078377,-0.29856,-0.030008,-0.12767,-0.28559,0.0035471,0.37116,-0.20713,0.051916,0.11183,0.15996,0.37725,0.28095,-0.036593,0.13345,-0.20339,0.087444,0.0031179,0.11325,-0.14715,-0.061757,0.17417,0.026652,0.33262,0.02959,0.060594,-0.23969,-0.1185,0.059614,0.034688,-0.34353,0.076986,0.1681,0.16211,-0.057231,-0.37249,-0.072774,0.030345,0.1939,-0.26926,0.38141,0.27067,0.29979,0.0063119,0.27544,0.20084,0.20244,-0.2634,-0.25514,0.059413,-0.20744,-0.34342,0.27587,0.11607,-0.093366,0.18253,0.11856,-0.38138,-0.25126,-0.23384,0.054528,0.29336,-0.17914,0.40201,-0.044825,0.20814,-0.20251,-0.0055946,0.24968,-0.44367,0.016046,-0.13848,-0.28538,0.19392,0.067901,-0.063559,0.15135,-0.064186000000000007,0.31891,-0.36324,0.13493
arms,0.19571,-0.088514,0.12454,-0.25209,0.34243,-0.09803,0.041947,0.10085,0.29281,0.068973,-0.13313,0.12397,0.12623,0.15007,-0.21584,-0.053591,-0.3212,-0.41379,0.050975,0.057641,0.39771,-0.062952,0.14162,0.022295,0.11426,-0.12742,-3.31e-4,-0.33601,0.19945,-0.15411,-0.077786,0.14515,0.18786,0.16066,-0.059467,-0.06236,-0.32354,-0.05602,0.34265,-0.23009,0.47429,0.097727,-0.31501,0.016319,-0.0021993,-0.25465,-0.20722,-0.28363,0.40088,-0.077263,0.17345,-0.042215,-0.1411,0.0070527,-0.074224,-0.54516,-0.072011,0.25951,0.0136,0.053792,-0.016176,0.18623,-0.060223,-0.19807,0.13171,0.29083,0.17219,0.010286,0.17067,-0.12297,0.41479,-0.27368,0.1859,-0.36224,0.05866,-0.1257,-0.045175,-0.29343,0.17565,-0.089362,0.0094943,0.18175,-0.21843,-0.23032,0.37667,-0.050982,-0.22048,0.16379,0.10372,0.21148,0.19782,-0.10892,0.014798,-0.27486,0.17803,-0.077449,-0.1494,0.51956,-0.18681,0.074272,-0.22675,0.049266,-0.0068038,-0.43333,0.25183,-0.33907,0.42261,0.36439,-0.12581,-0.15093,-0.050735,-0.23071,-0.096082,-0.028327,-0.40583,-0.19623,-0.28017,-0.11726,-0.092978,-0.33177,-0.010825,0.079015,-2.4721e-4,0.20756,-0.13793,-0.013705,0.12305,-0.075883,0.17449,-0.12257,-0.0076983,-0.37062,0.18096,0.28343,0.28338,0.32561,0.085674,-0.16657,-1.7918e-4,0.021737,-0.062559,-0.07459,0.090176,-0.10963,0.43401,0.01246,-0.0032656,2.5023e-4,0.21787,-0.086856,0.0095835,0.22153,0.11721,0.15712,-0.025934,-0.23916,0.45528,-0.16726,-0.22265,-0.40561,-0.25321,0.47092,0.44139,-0.059578,-0.37819,-0.14253,-0.27616,0.075771,0.16121,0.36348,0.14102,-0.075313,0.062243,-0.12785,0.32937,0.1864,0.12302,-0.087028,0.23776,-0.096973,0.063626,-0.13588,-0.28996,0.34482,0.040942,-0.05896,0.48159,0.033672,-0.30838,0.40979,0.45829,-0.22181,0.28412,-0.1933,-0.15234,0.10632,0.20599,0.18806,-0.45068,0.098542,0.33469,-0.27266,-0.022368,0.10425,-0.32471,0.16398,0.070756,0.13803,0.14431,-0.018713,-0.13436,0.19608,0.54845,-0.41306,-0.15267,0.071843,-0.012645,0.3917,-0.20718,0.40122,0.077628,0.18741,0.0054675,-1.823e-4,-0.34934,0.2162,0.24502,-0.095423,-0.16482,-0.04316,0.10197,0.073915,-0.10914,-0.17676,-0.1135,-0.22016,-0.32625,0.0085996,0.15622,-0.28407,-0.37724,-0.028645,0.066124,0.29808,0.16535,-0.22693,0.0011829,-0.41178,-0.36825,0.11393,-0.32627,-0.022621,0.41455,-0.31332,-0.0085294,-0.028311,-0.12681,-0.41458,0.25744,0.47891,0.063634,-0.084424,0.043019,0.062626,-0.02524,0.18825,0.02228,-0.40184,0.18806,0.12694,0.28277,0.27149,0.14219,0.11177,-0.12128,0.14076,5.2456e-4,-0.44067,-0.096988,-0.26041,0.088815,-0.2831,0.19294,-0.1154,-0.038819,0.19292,-0.087981,0.26188,-0.70579,-0.14381,5.8264e-4,0.10998,0.059527,0.08934,-0.026931,-0.10761,0.26615,-0.16795,-0.41519,0.01442
wide,-0.25069,-0.033636,0.19619,0.05992,0.12233,0.022924,0.16161,0.16163,0.043939,0.045204,-0.13031,0.02073,-0.072076,-0.10026,0.17655,-0.22434,0.2846,-0.29343,-0.072056,0.16971,0.35571,-0.22537,0.19823,0.13284,0.042826,0.13521,-0.050076,0.0087948,-0.080719,-0.016023,0.19502,-0.07217,-0.22911,-0.20239,-0.17969,0.033293,-0.3367,-0.21414,0.16822,0.097071,0.29816,-0.36243,-0.0080651,-0.23947,-0.22088,-0.15329,-0.020058,-0.26899,0.16011,-0.11704,-0.32966,0.21663,-0.13764,0.25497,-0.11407,-0.049247,0.11965,0.26319,0.39538,0.32359,-0.08738,0.013,-0.27424,-0.33341,0.24916,0.34008,0.13829,-0.041251,0.14305,-0.12663,0.2194,-0.10296,0.064755,-0.2101,-0.11122,0.13166,-0.34665,-0.016295,0.23373,0.025122,-0.13972,0.085582,0.13,0.15642,0.25951,0.29346,-0.29865,0.3716,-0.033285,0.050252,0.12546,0.029736,0.17282,-0.1155,0.3624,-0.15259,-0.1492,0.41251,0.028191,0.12322,-0.43765,0.27805,-0.09151,-0.34779,0.26055,-0.38162,0.20583,0.23148,0.092394,-0.28005,-0.15956,0.4302,-0.097935,-0.047373,-0.50222,-0.10861,-0.52534,0.21143,0.27072,-0.30866,0.23173,0.13958,-0.41569,0.22356,-0.33758,-0.054744,0.040731,-0.12951,0.64243,0.0431,0.11084,-0.11911,0.32426,0.45242,0.48614,0.051858,0.069975,0.076683,0.27113,-0.16948,0.21611,0.064353,-0.021106,0.13503,0.2999,0.24418,0.15601,-0.13562,-0.27936,-0.0079411,0.43356,0.10294,0.16583,0.27012,-0.027824,-0.13089,0.038973,0.17934,-0.34641,-0.2165,-0.0087418,0.078163,0.11116,0.39897,0.13766,0.090431,-0.17345,-0.035974,0.42035,0.021004,0.2008,-0.13529,-0.088325,-0.19622,-0.060656,0.28414,0.35351,-0.21452,0.012044,-0.32238,-0.25487,0.16838,-0.16763,-0.015723,0.072114,-0.065095,0.34526,0.27548,-0.10928,-0.05753,0.11555,-0.33696,0.097412,-0.18573,-0.17699,0.20706,0.262,0.35607,-0.047636,0.34393,0.29835,0.021873,-0.023514,0.062398,-0.34498,0.31044,0.14042,-0.06091,0.13547,0.24298,0.050014,0.15401,0.28128,-0.068893,-0.29384,-0.086282,-0.24198,0.13614,-0.079283,0.13721,-0.12602,0.042819,-0.35436,-0.11841,-0.20821,0.09216,0.22012,0.1102,0.072845,0.24011,0.38697,0.16398,-0.04862,-0.26671,-0.004087,0.3537,-0.24016,0.11397,0.080709,-0.20173,-0.18889,-0.11039,0.13129,0.19481,-0.053604,-0.2393,-0.15271,-0.19344,-0.14046,-0.086555000000000007,-0.16915,0.18849,0.036905,-0.1893,-0.25498,-0.2868,-0.19075,-0.23806,-0.033122,0.34253,0.14167,0.096416,-0.12819,0.20748,0.01692,0.19687,-0.01545,-0.39333,0.23873,-0.28884,-0.23658,0.48207,0.079994,-0.05389,-0.11253,-0.15485,-0.13802,0.13012,0.2106,-0.20227,0.15041,-0.10101,0.23786,0.030698,-0.12528,-0.23988,-0.083481,-0.037944,-0.35888,-0.089902,-0.20573,-0.34589,-0.20053,0.16617,-0.12044,0.40651,0.078683,0.077805,-0.027494,-0.20981
huge,-0.12794,-0.1232,0.40768,0.017155,-0.22374,0.0029415,0.2778,0.38128,-0.34618,-0.076581,0.16556,0.31443,-0.073201,0.06309,-0.021167,0.023327,-0.047212,-0.19484,-0.0669,-0.16585,0.38297,-0.31866,0.19077,0.038111,0.11462,0.18152,0.34216,-0.05602,0.014906,-0.18747,0.10578,-0.060178,0.10445,-0.13399,-0.14469,0.030057,-0.063699,-0.19466,0.20241,0.35375,0.20009,-0.079945,-0.17899,-0.34041,-0.325,0.23948,0.24556,-0.051797,0.24565,-0.091439,-0.16865,0.44269,-0.20786,0.13892,0.016255,-0.18768,-0.027047,-0.047697,-0.054622,-0.062111,-0.27213,-0.20312,-0.35544,-0.29215,0.43875,0.27692,0.19192,0.047684,0.26983,-0.22044,0.18856,0.0016855,0.13467,-0.058808,-0.15442,0.15292,-0.15256,-0.054077,0.17941,-0.28497,0.067453,0.1838,0.080681,-0.052113,0.33497,0.26115,0.1287,0.2569,-0.15089,0.36668,-0.12541,0.060452,0.2055,-0.087372,0.12115,-0.11484,-0.17394,0.35174,-0.050697,0.034657,-0.43857,0.078036,0.015791,-0.16025,0.12291,-0.015542,0.027502,0.24249,0.056469,-0.20192,0.10782,-0.047529,-0.051608,0.13789,-0.23813,-0.021527,-0.15143,-0.020015,0.010056,-0.13629,0.22762,-0.046504,-0.096513,-6.25e-4,-0.087895,-0.1354,0.29803,-0.041304,0.30115,0.0072775,0.032971,-0.074765,-0.051342,0.025826000000000002,0.16615,0.082661,0.12909,-0.066855,-0.015904,0.033447,-0.24956,0.17621,-0.37715,0.12073,-0.033149,0.021659,0.0082133,0.10675,-0.13458,-0.0083401,0.19492,0.082239,0.1327,0.12574,-0.19842,-0.041325,-0.036898,-0.11066,-0.20585,-0.36386,-0.26826,-0.053164,0.19803,0.21226,-0.035497,-0.16519,-0.41862,-0.042289,0.16405,0.075314,0.081042,0.076706,0.01865,0.044906,-0.026219,0.14799,0.30074,-0.14545,-0.053738,-0.33673,-0.11608,0.024873,-0.011495,-0.033484,-0.086924,0.040811,0.36273,0.017205,-0.29918,-0.028438,0.31751,-0.38613,0.30364,-0.11731,-0.1696,0.014846,-0.11774,0.32379,-0.20567,-0.039449,-0.029521,-0.0022192,0.091035,0.28759,-0.51805,0.18533,-0.016831,-0.20978,-0.020552,0.22243,-0.23666,0.10443,0.21603,-0.30008,-0.23107,-0.019741,0.096083,0.085264,-0.1525,0.12208,-0.2406,0.066717,-0.2621,-0.20406,-0.068791,0.13967,0.01075,-0.059607,0.073477,0.25275,0.27757,0.30112,-0.020622,-0.13931,-0.022829,0.27461,-0.20303,-0.30338,0.13447,-0.18588,0.1441,0.13186,0.21893,0.026558,0.12418,0.02773,-0.14416,0.12781,-0.138,-0.12848,-0.02364,0.070534,0.10542,-0.14412,-0.033091,-0.17569,-0.17083,-0.16745,-0.13049,0.5567,0.068609,-0.20215,0.091802,0.23469,0.11399,0.24135,0.15835,-0.34435,0.049221,-0.02083,-0.14811,0.085988,0.031252,-0.2507,-0.13087,0.19238,-0.051786,-0.46618,-0.295,-0.2364,0.10789,-0.069841,0.097037,0.022345,0.1621,-0.18326,-0.078972,0.26587,-0.31071,-0.23413,-0.27213,-0.18118,0.12463,-0.041341,0.10299,0.19979,-0.014006,0.058763,-0.26222,-0.029082
skin,0.1404,-0.24301,0.24217,-0.47586,-0.16634,-0.16812,0.62213,0.038431,0.51223,-0.11478,-0.19638,-0.10467,0.069639,0.38613,0.47641,-0.063664,0.045472,-0.047811,0.17009,0.1863,-0.081259,-0.093265,0.27466,0.28605,-0.12565,-0.22309,-0.1969,-0.089352,-0.044018,-0.056651,-0.169,0.1303,0.25538,-0.12236,-0.34606,0.11699,-0.070878,-0.15491,0.092715,-0.077035,0.26597,-0.034104,-0.31976,-0.053949,0.16001,-0.017721,0.12662,-0.39674,-0.0054338,0.06026,-0.1903,-0.11047,-0.07121,-0.24073,-0.27153,-0.27643,-0.26856,0.13117,0.074896,0.15203,-0.17018,0.20836,-0.27509,-0.071239,-0.12677,0.027238,0.022445,-0.021149,0.069454,-0.56282,0.41163,0.065742,-0.075839,-0.20011,-7.5579e-4,-0.06633,0.16323,0.16659,0.11127,0.13903,-0.2756,-0.12095,-0.030814,-0.25577,0.16473,-0.12363,-0.28937,0.050129,-0.054044,0.061099,0.032384,0.068595,0.19406,-0.45786,0.15275,-0.10647,-0.29192,0.26101,-0.0073609,0.017014,-0.43781,0.13379,0.057553,0.52848,0.12276,-0.32229,0.16203,0.098439,0.1037,0.22728,-0.36041,0.11174,0.10597,0.076011,-0.25382,0.053931,-0.33187,-0.17234,0.043637,0.12354,-0.0267,0.2956,-0.36992,0.13199,0.15187,0.019839,0.29359,-0.18822,0.23701,-0.091809,-0.034272,-0.15835,-0.076963,-0.0062604,0.41619,0.12762,0.044406,0.22897,-0.083043,0.15239,-0.077747,-0.16241,0.20015,-0.11945,0.11912,0.30554,-0.11384,-0.1348,-0.1371,-0.25417,0.072218,0.21359,0.075931,0.23502,-0.21753,-0.38016,-0.17312,0.24223,-0.24591,-0.32086,-0.43216,0.22692,0.2456,-0.12607,-0.056264,-0.27799,-0.035498,-0.10252,0.20652,0.035468,-0.23175,-0.092142,0.12896,0.038942,0.36929,-0.154,0.4478,-0.15399,0.21762,-0.0047518,-0.13653,0.27788,-0.25652,0.13336,0.18412,-0.039529,-0.067349,0.40601,-0.31179,0.55147,-0.048303,-0.23192,0.03177,-0.45875,-0.50459,0.050508,-0.12433,-0.11023,-0.10512,-0.035791,0.20232,-0.10411,0.25611,0.22953,-0.033879,-0.35667,-0.038837000000000003,-0.39097,0.051757,0.15587,-0.027716,-0.048963,0.49737,-0.58404,-0.096758,0.12517,-0.25115,0.30266,-0.52404,0.19156,0.10723,-0.099451,-0.16187000000000001,-0.05909,-0.030812,0.025486,-0.2141,-0.0051664,-0.033767,-0.25292,-0.19236,0.047022,0.17845,-0.066708,-0.25906,0.060954,-0.2197,-0.23867,-0.091655,-0.076167,-0.1538,-0.090624,0.15043,0.22415,-0.015137,-0.49404,-0.047664,-0.28925,-0.23447,0.087879,-0.21288,0.48018,-0.042677,-0.11317,-0.38691,0.16092,-0.074224,0.09862,-0.14502,0.44779,0.27051,-0.32286,-0.23329,0.21173,-0.02777,0.1522,-0.26915,-0.47246,0.10757,-0.34416,0.14429,0.028337,0.30202,-0.063453,0.23039,0.13086,-0.094251,-0.14651,0.20756,-0.50083,-0.090544,-0.051225,0.22801,-0.070998,-0.085556,0.014036,-0.23217,0.3292,-0.77401,0.02232,-0.28599,-0.066596,0.29728,-0.11465,-0.055413,0.0081906,0.23619,-0.2547,-0.2361,0.21557
fat,-0.17673,0.0068798,0.27784,0.14862,0.19805,0.16873,0.22765,0.17675,0.19075,-0.2304,-0.028655,-0.11605,-0.31339,-0.18122,0.41854,0.017135,0.12864,0.2876,0.38218,0.56978,-0.19909,-0.022382,0.41116,0.187,-0.058688,-0.38967,-0.20253,-0.17717,0.13196,-0.26233,-0.14134,0.26682,-0.025755,-0.020588,-0.12142,-0.13543,0.16895,0.14633,0.40339,0.083039,-0.10744,-0.2111,-0.67215,-0.17666,-0.1799,0.077677,0.1824,0.19268,0.096279,-0.36476,-0.308,0.29104,0.16446,-0.10535,-0.083115,0.2641,-0.084942,-0.19013,0.43202,0.14231,-0.50431,0.21109,-0.25796,0.035972,-0.077216,0.17814,0.26973,-0.13482,0.4352,-0.21923,0.22748,-0.30183,-0.0089498,-0.46357,0.2923,-0.027106,0.10169,0.33627,0.12386,-0.16968,-0.3206,0.17302,-0.0068471,-0.065448,0.33427,0.11049,-0.20798,-0.071965,0.29414,-0.076512,0.14765,-0.18448,0.25193,0.035605,0.057299,-0.47197,-0.27828,0.20875,0.069704,0.064652,-0.14174,0.17026,0.13634,0.01461,0.41725,-0.14876,0.21868,0.32686,0.25535,0.095074,0.21518,-0.34867,-0.14029,0.18955,0.19511,0.088983,-0.84958,-0.21491,-0.27642,-0.39695,-0.039239,0.20001,-0.14181,0.05695,0.022019,0.080743,-0.044379,-0.24576,0.59458,-0.2925,0.25662,-0.12517,0.22229,-0.019016,0.30328,-0.19941,0.0051499,0.24166,-0.42345,0.24276,0.089043,0.3034,-0.23266,0.066014,-0.0011682,0.23884,-0.22865,-0.41323,-0.18279,-0.35392,0.11226,0.065441,-0.074228,0.191,0.2546,0.059798,-0.3209,0.14008,-0.20878,0.066859,-0.37787,0.29539,0.12865,0.33217,-0.40632,-0.38018,-0.15686,-0.21983,-0.03356,0.0044012,-0.030256,-0.087469,-0.29905,-0.01793,0.15976,-0.40807,0.16401,-0.075548,-0.14181,-0.23152,0.18519,0.40074,-0.047424,-0.16131,0.28343,0.14338,0.14718,-0.0011147,-0.23937,0.030543,0.23907,-0.14494,0.041362,-0.14323,-0.24458,-0.21092,0.18989,0.27475,0.081947,-0.20016,0.091011,0.11814,-0.33316,0.11252,-0.079562,-0.093442,0.24277,-0.042373,-0.019555,0.42585,-0.081961,-0.1448,0.16141,-0.74671,0.12264,0.32693,0.057834000000000003,-0.10577,-0.51452,0.36626,-0.16512,0.10553,-0.17286,-0.34423,-0.060087,0.025822,0.32406,0.10891,0.028057,-0.090327,-0.10596,0.27879,-0.12466000000000001,-0.031749,-0.56585,-0.65147,0.18858,-0.019702,0.04935,0.31907,-0.16354,0.34687,0.47356,0.023243,0.44566,-0.31456,0.021511,-0.064164,-0.36961,0.13751,-0.071004,0.089791,-0.13121,-0.12275,-0.82047,-0.12381,-0.34408,0.15041,-0.026077,0.74146,0.16081,-0.41864,0.25082,0.10412,-0.21515,0.018303,-0.21082,-0.31326,0.23321,-0.040403,0.0062921,-0.16649,-0.096935,-0.011545,0.14739,-0.10019,-0.516,-0.011694,-0.049136,-0.21607,0.063968,-0.32503,0.43491,-0.021321,0.1186,0.0030738,-0.41448,0.36627,-0.43693,0.0093823,-0.20351,-0.30085,0.52518,-0.13198,-0.2575,0.045769,0.51356,0.29978,-0.30581,0.09436
sit,0.035451,-0.17992,0.026943,0.18389,0.073613,-0.020655,0.066538,0.35868,0.037859,0.15704,-0.12786,0.41704,0.21724,0.092286000000000007,0.018815,-0.4141,-0.20897,-0.009099,0.035032,-0.064676,0.16091,0.30146,0.29655,0.1135,0.021664,0.063897,-0.016118,-0.21017,0.1545,0.17343,0.091187,0.002527,0.050971,-0.086518,0.18485,-0.12287,-0.11291,0.12643,0.049343,-0.15214,0.19212,-0.046861,-0.35088,-0.43429,-0.029393,0.12441,-0.08233,-0.20503,0.17111,-0.016206,-0.13187,-0.11815,0.073437,0.45814,-0.04928,-0.061774,-0.33003,-0.080847,-0.16029,0.15345,-0.073098,-0.041077,-0.024927,-0.23156,0.15154,0.22961,-0.066888,0.28337,0.027941,-0.11108,0.3801,-0.2008,-0.047741,-0.36434,0.15227,-0.20339,0.065223,0.1255,0.33148,-0.17115,0.083765,0.17059,-0.29862,-0.2238,0.29521,0.32921,-0.34784,-0.026959,0.36245,-0.033751,0.18083,-0.14561,0.25642,0.14533,0.21986,-0.054204,-0.07334,0.39285,-0.1331,-0.16001,0.011957,0.2717,-0.086252,0.017467,0.30373,-0.42439,0.20508,0.23645,-0.11016,-0.0034117,-0.19456,-0.17867,-0.27007,-0.012727,-0.37365,-0.066696,-0.37702,0.16572,0.032891,-0.22805,0.19983,0.17405,0.067802,0.086443,-0.09631,0.023881,0.071891,-0.50823,0.34788,-0.12457,0.2369,-0.33021,0.13465,-0.23591,0.094546,0.31526,0.065256,-0.30608,-0.23333,0.32595,-0.17001,0.38483,-0.07895,0.11677,0.061256,0.26039,-0.052128,-0.16126,-0.068613,0.19033,0.13424,0.064298,0.17777,0.38695,-0.13955,-0.25607,0.013473,0.037353,0.023767,-0.46098,-6.6509e-4,0.29958,-0.039529,0.042078,-0.17582,0.051632,-0.36867,-0.15148,0.33336,0.17639,-0.011289,-0.092353,-0.17177,-0.31728,-0.11761,0.1004,0.093048,-0.16951,-0.049835,-0.27845,-0.10911,-0.056355,-0.23462,-0.033829,0.13149,0.15763,0.1417,0.14632,-0.38145,0.21582,-0.040525,-0.13354,-0.060377,-0.33727,-0.12787,0.2602,0.1756,0.44432,-0.13435,0.11884,-0.25071,0.091593,-0.17615,0.28654,-0.17943,0.2265,0.21511,-0.02288,0.054365,0.53925,-0.22781,-0.022607,0.69994,-0.23739,0.030407,0.018699,-0.074672,-0.0026764,-0.13919,-0.1372,-0.17435,-0.061135,-0.0057613,-0.18959,0.21135,0.26689,0.3257,-0.15758,-0.099457,0.010985,-0.037864,0.19075,0.12356,0.28359,0.13852,0.050598,-0.4867,-0.079129,0.043406,-0.022638,-0.23079,-0.42439,0.077035,0.24136,0.18809,-0.36509,0.10918,-0.36564,-0.31805,0.013735,-0.053898,0.087364,0.28217,0.3514,-0.054565,-0.15917,-0.058911,-0.2772,-0.10209,0.074208,-0.21086,0.05901,0.096152,0.18913,0.42794,0.21238,-0.17566,-0.15625,0.03571,0.0045507,0.16418,0.16518,0.35216,0.05158,0.081688,-6.0035e-5,-0.02374,-0.40258,-0.13954,-0.32212,0.1208,-0.074525,0.09794,-0.057192,0.091299,0.14737,-0.19751,-0.10992,-0.26207,0.058671,0.020564,-0.41865,0.18929,0.090797,0.040487,-0.14132,0.38384,-0.023629,-0.44593,0.3008
round,-0.10825,-0.12054,0.26674,0.1395,0.064069,0.025707,-0.19484,0.22447,0.036942,0.47753,-0.043111,0.11539,0.19811,-0.0091263,-0.13473,-0.2802,0.21095,-0.15119,-0.08202,-0.22704,0.043737,0.1336,0.13881,0.56296,0.083832,-0.14971,-2.3026e-6,-0.078794,0.26028,0.19732,0.06483,0.080315,-0.045697,0.12593,-0.14982,-0.16705,-0.094047,-0.19033,0.37947,0.11419,0.11634,-0.20314,-0.30579,-0.03274,-0.23467,-0.16985,-0.027344,-0.38724,0.20498,-0.032491,-0.37257,0.083963,0.094692,-0.075675,-0.23019,-0.0064421,0.12232,0.15627,0.15809,0.001727,-0.10739,-0.15168,-0.2272,-0.14877,0.15893,0.13622,0.054697,-0.033011,0.24448,-0.19911,0.071113,-0.19051,-0.18011,-0.28,0.17738,-0.19153,-0.30774,0.02712,0.38139,-0.16275,0.018963,-0.069593,-0.067276,-0.32322,0.15607,0.20058,0.019631,0.68387,0.085133,0.042871,-0.11142,0.13605,0.23278,0.0076934,0.28179,-0.12711,0.010329,0.4809,0.18084,-0.013321,-0.46733,0.27974,0.13322,-0.10421,0.1192,-0.16189,0.21986,0.18479,-0.12321,-0.21573,-0.077817,0.12858,-0.24549,0.20643,-0.14659,-0.26277,-0.10843,0.015094,-0.19398,-0.037981,0.0092135,0.04634,-0.05281,0.18714,-0.22582,0.11043,0.38618,-0.10353,0.40104,-0.34687,-0.078399,-0.17927,0.2203,0.12754,0.40781,-0.0031200999999999998,-0.091709,0.046026,0.080094,0.062488,0.10438,0.44643,-0.1783,-0.20203,0.061009,0.047953,0.36616,-0.092268,-0.091679,0.096024,-0.037299,-0.16063,0.1255,0.08387,-0.08735,-0.14073,0.032605,0.21683,0.081086,-0.21593,-0.11214,0.065821,-0.062954,0.023482,-0.0078829,-0.59815,-0.1608,0.16651,0.27623,-0.078658,-0.060536,0.09348,-0.048601,-0.33673,-0.031416,-0.079869,0.24641,-0.027031,0.13165,-0.025112,-0.36882,0.34485,0.031446,0.022392,0.10347,0.19843,0.10417,0.15793,-0.11006,0.23125,-0.078403,-0.16824,-0.0076083,-0.28105,0.24011,-4.1155e-4,0.38454,0.1236,-0.11404,0.18242,-0.15692,-0.23774,0.0028665,0.22571,-0.25564,0.13946,-0.012503,0.080672,0.36405,0.21578,0.037619,-0.0013318,0.19613,-0.37208,-0.086674,-0.34208,-0.19342,0.43671,-0.20829,0.069375,-0.24173,0.0089139,0.065752,-0.28194,-0.075174,0.11756,0.29367,-0.19749,-0.05697,0.30878,0.47965,0.35048,0.10866,0.11225,0.24553,0.11282,0.066715,0.1034,0.061422,0.14322,0.19159,0.067586,-0.025915,0.29996,0.026206,0.032545,0.12638,-0.19737,-0.32761,-0.092166,-0.35512,0.48475,0.26905,-0.16205,-0.021331,-0.18275,-0.1914,0.14359,0.021621,0.50344,-0.20404,0.049974,0.27517,0.0014843,-0.012903,0.041762,-0.30648,-0.4045,-0.0094248,-0.0020397,-0.14545,0.12403,0.26848,-0.18106,0.46676,-0.16161,-0.23997,-0.058426,-0.022172999999999998,-0.16685,0.21726,-0.15531,0.20211,-0.30821,-0.16785,-0.059665,-0.075153,0.0028748,-0.46726,0.080281,-0.28909,0.047759,-0.015394,0.088902,-0.28382,0.078159,-0.067147,0.072856,-0.33006,0.23537
standard,-0.31293,0.044733,-0.063328,0.39984,0.085423,0.10162,-0.17283,0.18735,-0.13389,0.19121,-0.050491,0.32633,-0.26474,-0.019512,0.070339,-0.33415,-0.013651,-0.03807,-0.34785,0.27551,-0.0025731,-0.047834,0.33179,0.13096,0.018328,0.010121,-0.1805,-0.13332,0.16547,-0.41809,-0.068277,-0.082856,0.19341,-0.099503,-0.27885,0.084516,-0.4448,-0.18427,0.082364,0.20066,0.072687,-0.23702,-0.17508,0.15388,-0.26704,0.055213,0.027796,-0.11968,0.0059612,0.10085,0.20419,-0.0013056,0.013531,0.31839,0.3098,-0.049676,-0.035396,-0.065872,-0.0093957,0.023296,-0.19423,0.063744,-0.13232,0.0027813,0.17222,0.056981,-0.17714,-0.07083,-0.17178,0.046389,0.1884,0.033257,-0.16544,-0.20044,0.015147,0.11937,0.012595,-0.15261,0.28148,0.19908,-0.044777,0.0011615,-0.25634,0.26863,0.19412,0.10528,-0.34651,0.10269,0.048774,0.2651,-0.15995,-0.081247,0.038555,0.0097021,0.42339,-0.2117,-0.09822,0.16569,0.19264,0.05996,-0.1569,0.089514,0.055281,0.030523,0.149,-0.45757,0.35585,0.11775,0.19807,0.12548,0.14313,0.0062101,-0.15393,0.16818,-0.091362,-0.1427,-0.2698,-0.043485,0.11864,-0.20111,-0.088024,0.055561,-0.20412,0.4757,0.025457,-0.068365,0.16312,-0.16025,0.017517,-0.24417,-0.067146,-0.59586,0.37481,0.13134,0.28566,0.20045,-0.25998,0.0042641,-0.42472,0.015482,-0.12134,-0.091401,-0.029828,-0.11204,-0.099899,0.046222,0.02147,-0.14664,-0.25898,0.17386,0.13219,-0.37092,0.076021,0.19246,-0.033814,-0.21986,0.074422,-0.0018348,-0.56698,-0.068606,-0.21405,-0.086659,0.089119,0.37936,-0.062676,-0.14096,0.15587,0.29039,0.33419,-0.1291,-0.063336,0.0075046,-0.22914,-0.32114,-0.32745,-0.12251,0.11235,-0.15391,0.067187,-0.11289,-0.19405,0.29213,-0.22753,-0.1602,0.16231,-0.28201,-0.0033018,-0.20044,-0.22747,0.13078,-0.014724,-0.15119,-0.066472,-0.18541,-0.12735,0.12588,-0.1982,0.41046,0.22384,0.41085,0.056177,-0.15979,0.025012,0.32868000000000003,-0.35986,0.15295,0.141,-0.119,0.13465,0.20625,-0.052005,-0.16894,0.25754,0.0070309,0.19652,-0.031108,-0.15328,0.04756,-0.30671,-0.0049883,-0.040751,-0.05891,-0.18721,0.024774,-0.0011869,0.15644,-0.47163,-0.048229,0.26625,-0.20159,0.11291,-0.0044782,-0.044183,-0.06417,0.16263,-0.09559,-0.19959,0.09147,-0.0049272,0.33921,0.19001,0.068114,-0.010749,0.3098,0.43538,-0.18906,-0.091863,-0.43759,0.090074,-0.071924,-0.011895,-0.052627,0.021083,-0.090905,-0.075681,0.028172,0.14308,0.058289,-0.37217,-0.033765,0.063352,-0.054365,0.055549,0.043672,-0.051267,0.24226,-0.38773,-0.32048,0.094436,-0.10727,-0.082356,0.16207,0.12792,-0.16122,0.24585,-0.12001,-0.046659,-0.12336,0.12947,0.097757,0.15389,-0.043874,0.2431,0.32079,0.3245,0.12862,0.009108,0.048306,-0.48482,0.11591,0.12249,-0.42628,0.11943,0.17128,0.32895,0.22717,-0.30889,-0.072975,-0.2227,0.20179
gold,-0.075152,-0.018555,0.10091,-0.073736,-0.43262,0.20073,-0.21663,0.19866,0.18764,0.3453,-0.2046,0.13732,-0.036296,0.17327,0.24657,-0.023253,-0.057109,0.17203,0.040173,0.23381,0.082932,-0.086888,-0.10973,-0.071968,0.14737,-0.01095,-0.057165,0.1091,0.19521,-0.37004,0.019371,-0.043269,0.27953,-0.16541,-0.14151,-0.17263,-0.39656,-0.29064,0.26513,-0.025669,0.28521,0.10828,-0.046583,0.1766,-0.27309,-0.33857,0.20896,-0.21823,-0.044099,-0.052579,-0.10737,-0.015739,0.28379,0.042315,0.14638,-0.10155,-0.086995,0.2148,0.066187,0.065536,-0.16747,-0.10169,-0.05934,-0.017125,-0.012179,0.34645,0.058261,-0.14693,-0.11016,0.098678,0.26618000000000003,-0.12969,-0.025716,-0.18923,-0.1353,0.38207,-0.16381,-0.04867,0.32057,0.0063735,0.17194,-0.017596,-0.15416,0.08575,0.42587,0.3132,-0.16277,0.21823,0.18146,0.19981,0.18431,0.23678,-0.20627,0.035542,0.29107,-0.28871,-0.10246,0.48597,0.31504,0.14498,-0.24709,0.14038,0.021314,3.5357e-4,-0.1459,-0.13515,0.047486,0.56356,-0.045328,-0.15082,0.12827,-0.066286,-0.26161,-0.17325,-0.36481,-0.36685,-0.28333,0.022094,-0.15917,-0.046889,0.13035,-0.19951,-0.022184,0.11571,0.17091,0.085251,-0.038244,-0.29398,0.29533,-0.48737,-0.11687,-0.1589,-0.028928,-0.021368,0.36475,0.43543,-0.15909,-0.085488,-0.0073123,0.21763,-0.049042,-0.084979,-0.41747,-0.053639,0.12371,-0.0029676,0.18093,-0.036847,-0.32651,-0.18283,0.060705,-0.45981,0.036956,-0.13198,-0.16592,-0.17372,-0.19146,0.047655,0.025785,-0.029722,-0.47225,0.22073,0.061822,0.33194,-0.032162,-0.15042,-0.24985,0.044882,0.14212,-0.095765,-0.098773,0.0091027,-0.24052,-0.18844,-0.015546,-0.51172,-0.03687,-0.078747,-0.24037,-0.22868,-0.42017,-0.081637,0.060265,0.03113,0.058554,0.074849,0.09169,0.053087,-0.082412,0.21811,0.13931,0.15827,0.29533,-0.44828,-0.13896,-0.0099967,0.038346,0.5083,-0.19961,0.038955,0.11955,-0.052773,0.20418,0.22238,-0.24822,0.37478,0.31918,0.041923,0.14388,0.059328,-0.23366,0.077893,0.1715,-0.43494,-0.28858,-0.012422,-0.0078438,0.53855,-0.13077,-0.31168,-0.031513,0.42053,-0.25902,-0.189,0.49695,0.21841,-0.18543,0.012302,0.042092,0.14353,0.38864,0.22871,0.25074,-0.29124,0.25488,-0.016269,0.079202,-0.2372,0.22244,0.19478,-0.19758,0.077911,0.23168,-0.1498,-0.082651,-0.26371,-0.45036,-0.40716,-0.022442,0.1736,-0.27718,0.20268,0.30079,-0.32958,-0.12852,-0.090665,0.23121,0.40244,-0.40327,0.6414,0.0058404,-0.081874,0.30201,0.20523,-0.091248,0.24485,-0.30161,-0.75166,-0.21604,-0.43872,-0.14591,0.28666,-0.24531,-0.25383,0.53508,0.21513,-0.22067,-0.23973,-0.070591,-0.062892,-0.047448,0.15895,0.18899,0.15715,0.089004,-0.11732,0.3644,0.3643,-0.36792,0.09,-0.0084159,-0.034967,0.2656,0.050576,0.1522,0.17281,0.066575,-0.23146,-0.072828,0.30401
larger,-0.076437,-0.058804,0.11938,0.01558,-0.09016,-0.063443,-0.046472,0.24672,-0.15951,0.072782,0.004992,7.0793e-4,0.091903,0.26912,0.055133,-0.25392,-0.13305,-0.20086,-0.29646,-0.061164,0.10459,-0.16017,0.37685,0.24983,0.28539,0.11316,-0.08463,0.048604,0.0078072,-0.3563,0.094297,-0.15809,0.11847,-0.12885,-0.016813,-0.01838,-0.082117,-0.1313,0.24343,0.23034,0.15826,-0.071941,-0.30896,0.079073,-0.23372,-0.03827,-0.032346,-0.16318,-0.03704,-0.12498,0.3363,0.2221,-0.15066,0.097305,0.15214,-0.001645,0.21588,-0.069997,0.013868,0.016199,-0.36076,0.098189,-0.19768,-0.43636,0.58605,0.2322,0.34124,-0.19194,-0.11995,-0.11378,0.13402,0.1909,-0.24897,0.21958,-0.076772,0.16347,0.14784,-0.046106,0.26687,-0.037145,-0.20068,0.12903,0.109,0.079711,-0.32608,0.40371,-0.17107,0.21619,-0.09126,0.14399,0.01101,0.15408,0.32767,0.052268,0.099427,-0.25888,0.075529,0.37278,-0.0039531,-0.089837,-0.25058,-0.06077,-0.10237,0.072763,0.23007,-0.083687,0.14376,0.17091,0.19424,-0.1057,0.30513,0.1174,-0.081947,-0.0085031,-0.17165,0.066138,-0.41478,-0.10619,0.1466,-0.060126,0.27048,0.14057,-0.13843,0.32275,-0.15659,-0.20688,0.32509,-0.04582,0.4375,0.087121,0.28398,-0.11389,0.082444,0.041493,0.24542,0.081189,-0.038137,0.06264,0.0068608,-0.060531,0.022985,0.10184,-0.20663,-0.18624,0.034493,0.021643,0.12459,-0.038499,-0.221,-0.17588,0.23251,-0.12343,-0.04502,0.047927,0.2339,0.13094,-0.0032925,0.10587,-0.29616,-0.28831,-0.11976,0.0098035,0.1395,0.17729,0.13479,0.026998,-0.55912,0.077092,0.037784,-0.075721,0.046451,-0.042589,-0.1416,0.17745,-0.062805,-0.054767,0.23719,-0.22627,0.16009,-0.39265,-0.23929,0.064495,0.1151,-8.0238e-4,0.15234,0.13474,0.061885,-0.022186,-0.23265,0.23311,-0.059429,-0.44813,-0.053293,0.041598,-0.07978,0.22338,0.076893,0.2025,-0.014454,0.28557,0.11457,-0.081847,0.0067773,0.24394,-0.4466,-0.13959,0.13333,-0.17248,0.0034414,0.39633,-0.27134,0.015716,0.42331,-0.12971,-0.070089,-0.073504,-0.039796,0.043878,-0.083832,-0.24453,0.075139,0.032449,-0.26396,-0.21671,-0.14287,0.10237,-0.005101,-0.058733,0.17122,0.061061,0.031653,0.3328,0.17126,0.024881,-0.016866,-0.016375,-0.13619,-0.016589,-0.11852,-0.014476,0.18485,0.085096,0.055695,0.26619,0.029111,0.11204,-0.20962,0.081496,0.11147,-0.15384,0.033096,-0.036087,0.087714,-0.24022,-0.18771,-0.13217,-0.096067,0.12822,-0.098003,0.30377,-0.09739,0.2557,0.089113,0.19216,0.16636,0.16669,0.16759,-0.2981,-0.03008,-0.0094697,-0.21162,0.16089,0.21809,-0.11492,-0.039729,-0.038407,-0.17187,-0.27503,-0.17936,0.040451,0.12073,0.12354,0.23206,0.056935,0.16576,-0.14937,-0.20141,0.13987,-0.4013,-0.2941,0.12254,-0.17619,0.029894,-0.17833,0.048775,-0.004352,-0.20786,0.11074,-0.11377,0.19774
scale,-0.10896,0.044007,0.18635,0.14012,-0.11446,0.25914,-0.16101,0.33406,-0.10061,-0.13607,-0.1579,0.069942,-0.2025,0.11935,-0.20055,-0.16694,-0.021031,-0.22176,-0.38518,0.26381,0.3772,0.068639,0.16392,0.71669,0.22651,0.13248,-0.10583,0.32747,0.047244,-0.033084,0.1817,0.11026,0.31784,-0.32865,-0.23611,-0.12415,-0.30367,-0.15592,0.33953,0.146,0.02229,-0.20035,-0.14151,-0.040326,-0.090265,0.15646,0.084625,-0.18919,-0.039231,0.12591,0.069434,0.12779,-0.18068,0.38471,0.27646,0.09853,-0.12179,-0.23595,0.021353,0.43114,-0.16115,0.012454,0.073461,-0.15538,0.19462,0.61503,-0.035528,-0.05292,0.022426,-0.084938,0.31007,0.011737,-0.20689,0.18043,0.095841,0.09963,0.16129,0.17134,0.50294,-0.15569,-0.43176,0.066458,-0.13624,0.024469,0.17049,0.3832,-0.17871,0.17313,-0.21324,0.35715,0.12227,-0.064555,-0.01058,-0.29225,0.35522,-0.3679,0.26018,0.43591,0.03843,-0.011302,-0.025846,0.28163,-0.15205,-0.24138,0.1214,0.063943,0.3485,0.30043,0.15773,0.052842,0.18889,0.037263,-0.31162,0.33125,0.1258,-0.033128,-0.065332,-0.14745,-0.44855,0.39283,0.13107,0.29889,-0.28641,0.11646,-0.22438,0.076435,-0.05405,0.090559,0.33161,0.044989,-0.28602,-0.68046,-0.15381,0.0065642,0.11425,0.17971,0.014494,0.273,0.077438,-0.56233,0.32614,-0.33176,-0.035676,0.11376,-0.15516,0.20721,0.033829,0.075891,-0.33233,-0.071254,0.46589,-0.1623,0.28189,-0.2474,0.12662,0.015705,0.20445,0.26536,-0.26157,-0.21443,-0.2249,-0.20834,-0.010704,0.44737,-0.13263,-0.074857,-0.052348,0.34398,0.087763,-0.096462,0.061709,0.2495,-0.13271,-0.014732,-0.21574,-0.10703,0.16634,-0.43181,0.4522,-0.38918,-0.34914,-0.048585,-0.051603,0.039591,0.35158,0.0769,-0.086252,0.011029,-0.018268,0.35326,-0.20175,-0.48348,-0.0060408,-0.30675,-0.1064,0.067631,0.12191,0.35166,-0.028448,0.28217,0.30251,0.18563,-0.11648,0.2681,-0.51843,0.018165,-0.022506,-0.19771,-0.065217,0.29196,-0.35748,0.16562,0.19363,-0.10221,-0.032284,0.12358,-0.29077,-0.3168,-0.25257,0.25791,0.18719,0.016299,-0.27349,0.018314,0.014273,-0.056785,0.10669,0.34676,0.30413,0.43903,0.2624,0.18272,-0.12389,0.090263,0.03722,-0.054518,-0.052293,0.007664,-0.1154,0.45453,0.30559,-0.060838,0.012659,0.17361,0.030846,-0.30927,-0.13515,0.25053,0.21833,0.087806,-0.052009,0.182,0.035182,0.14097,-0.25227,0.079635,-0.22855,0.1014,0.0080427,0.064831,-0.030976,-0.073757,-0.046161,0.12828,-0.029281,-0.30328,-0.1093,0.13101,0.20985,-0.25343,-0.20458,0.35376,0.16463,-0.012821,-0.049265,0.25998,-0.22552,-0.15042,-0.25021,0.10003,0.39512,0.13868,0.060177,-0.14324,0.16509,-0.033974,-0.13955,0.27818,-0.1195,-0.10999,0.020097,-0.24412,0.066346,0.054933,-0.0092873,-0.14318,-0.050109,0.13538,-0.20413,0.27343
powerful,-0.31136,0.0026481,-0.11311,0.12565,-0.13205,0.1152,0.23082,0.27265,0.17995,0.14812,-0.060654,0.1958,-0.010061,0.30482,-0.15499,0.17204,-0.013011,-0.05648,-0.13684,-0.3937,0.1828,0.15856,0.31722,-0.03274,0.10817,0.023433,0.065334,-0.082432,-0.20799,-0.27674,-0.050632,-0.037514,0.32794,-0.31325,-0.064035,0.13902,-0.17488,-0.067531,-0.032549,0.35609,-0.031252,0.067814,0.025579,-0.087757,-0.082387,0.10013,-0.2571,-0.37588,0.094703,-0.29344,0.061593,0.066891,-0.14381,1.6133e-5,-0.046604,-0.40397,-0.068835,0.19194,0.062441,-0.30229,-0.21161,0.076035,-0.3132,-0.14828,0.22259,0.21488,0.26281,-0.065342,0.044352,-0.20972,-0.042021,0.028646,0.046897,-0.11607,-0.41341,0.24681,-0.097759,0.050277,0.16798,0.0042151,-0.37244,0.059713,0.22928,-0.3127,-0.001652,0.11172,0.0036818,0.1069,0.14675,0.1854,0.027226,-0.074346,-0.0044992,0.0036125,0.13923,-0.17251,-0.097876,0.47732,-0.18405,0.0327,-0.097958,0.087896,0.037701,-0.2316,0.056271,-0.30122,0.27052,0.089493,0.062912,-0.22783,0.14223,-0.065849,-0.18243,0.29318,0.13505,-0.19662,-0.084185,0.1866,0.19329,-0.061708,-0.11126,0.13517,-0.16725,0.4635,-0.21784,0.077301,0.017447,-0.34027,0.35583,0.16092,-0.011601,-0.20126,-0.028555,0.10069,-0.010478,0.088951,0.28163,-0.017072,-0.3486,-0.1442,-0.26308,0.17401,0.2142,-0.19235,0.05274,0.31696,-0.084202,0.19933,0.2185,0.020507,0.34725,-0.080101,-0.1473,0.54129,0.14321,-0.18392,0.10422,0.20815,-0.45526,-0.2987,-0.1063,0.089536,0.22473,0.13473,-0.020352,-0.088694,0.08837,0.12126,-0.077146,-0.083882,0.028002,0.17999,-0.11887,0.27248,0.084099,-0.063365,0.16751,0.14855,-0.036212,-0.13572,-0.03755,0.023231,-0.069564,-0.089049,0.10918,0.021636,0.12605,0.10457,-0.3785,-0.12596,0.15057,-0.2258,0.091294,-0.21194,-0.51458,0.10682,-0.063871,0.4562,-0.23107,0.13046,0.3493,-0.052623,-0.16453,0.14627,-0.39493,0.39299,0.075504,-0.32886,-0.015386,0.23305,-0.30189,0.28434,0.10032,-0.19911,-0.17136,0.07223,0.12127,0.10464,-0.24336,-0.28692,-0.15178,0.13495,-0.28493,-0.096254,-0.002577,0.067568,-0.18921,-0.080791,0.18182,0.093917,0.14173,0.19805,-0.16338,-0.22727,0.065406,0.20852,-0.31217,0.35489,-0.034492,-0.031006,-0.11042,-0.27454,-0.21551,0.017876,-0.051864,-0.086508,0.084323,-0.004836,0.21348,-0.079636,-0.0017667,-0.04444,0.029207,-0.27015,-0.2123,0.045599,-0.099483,0.10561,-0.19572,0.20279,0.15987,0.04556,-0.16562,-0.21062,0.20601,-0.11853,-0.034899,0.068834,0.1191,-0.28748,0.22019,0.072136,-0.09798,0.091678,-0.21118,-0.04158,-0.0011841,-0.39419,-0.081945,-0.040732,0.080143,-0.15187,0.20048,-0.056973,-0.11563,0.0065287,0.028217,0.16482,-0.63158,-0.11117,-0.0069238,0.22572,0.33091,-0.021776,-0.067442,0.11131,-0.38429,-0.014076,-0.21517,0.22938
