target_word,V2,V3,V4,V5,V6,V7,V8,V9,V10,V11,V12,V13,V14,V15,V16,V17,V18,V19,V20,V21,V22,V23,V24,V25,V26,V27,V28,V29,V30,V31,V32,V33,V34,V35,V36,V37,V38,V39,V40,V41,V42,V43,V44,V45,V46,V47,V48,V49,V50,V51,V52,V53,V54,V55,V56,V57,V58,V59,V60,V61,V62,V63,V64,V65,V66,V67,V68,V69,V70,V71,V72,V73,V74,V75,V76,V77,V78,V79,V80,V81,V82,V83,V84,V85,V86,V87,V88,V89,V90,V91,V92,V93,V94,V95,V96,V97,V98,V99,V100,V101,V102,V103,V104,V105,V106,V107,V108,V109,V110,V111,V112,V113,V114,V115,V116,V117,V118,V119,V120,V121,V122,V123,V124,V125,V126,V127,V128,V129,V130,V131,V132,V133,V134,V135,V136,V137,V138,V139,V140,V141,V142,V143,V144,V145,V146,V147,V148,V149,V150,V151,V152,V153,V154,V155,V156,V157,V158,V159,V160,V161,V162,V163,V164,V165,V166,V167,V168,V169,V170,V171,V172,V173,V174,V175,V176,V177,V178,V179,V180,V181,V182,V183,V184,V185,V186,V187,V188,V189,V190,V191,V192,V193,V194,V195,V196,V197,V198,V199,V200,V201,V202,V203,V204,V205,V206,V207,V208,V209,V210,V211,V212,V213,V214,V215,V216,V217,V218,V219,V220,V221,V222,V223,V224,V225,V226,V227,V228,V229,V230,V231,V232,V233,V234,V235,V236,V237,V238,V239,V240,V241,V242,V243,V244,V245,V246,V247,V248,V249,V250,V251,V252,V253,V254,V255,V256,V257,V258,V259,V260,V261,V262,V263,V264,V265,V266,V267,V268,V269,V270,V271,V272,V273,V274,V275,V276,V277,V278,V279,V280,V281,V282,V283,V284,V285,V286,V287,V288,V289,V290,V291,V292,V293,V294,V295,V296,V297,V298,V299,V300,V301
long,-0.19609,0.10793,0.056277,0.0047455,-0.21314,0.096075,0.033073,0.29434,-0.014821,0.10903,0.19956,-0.095275,-0.25404,-0.061479,-0.16997,-0.21231,0.23749,0.33884,0.2281,-0.13623,0.29863,0.54477,0.10688,-0.26301,0.21404,-0.11731,-0.0027166,0.058904,0.31864,0.24491,0.28092,-0.26359,-0.058301,-0.036645,0.086543,-0.076571,-0.14569,-0.073048,-0.0714,0.15238,0.11041,-0.17868,0.06084,0.072601,0.15108,-0.23614,-0.037223,-0.11735,-0.023873,-0.051916,-0.14116,0.024244,0.030772,-0.029356,0.12419,-0.085774,0.097577,-0.16415,-0.0086416,0.10482,0.29107,0.06011,0.22127,0.12931,-0.020097,-0.060498,0.19842,0.11604,0.26728,-0.014026,-0.088085,0.0063668,-0.224,-0.053426,0.11724,0.062277,0.10843,-0.027518,-0.10375,-0.27967,-0.18667,-0.093578,-0.33094,-0.20874,0.22085,-0.019634,-0.0028679,0.10694,0.2186,0.064704,-0.24432,-0.14691,0.023633,0.1092,-0.25866,0.16521,-0.010245,-0.1202,0.22675,-0.16715,-0.21699,0.16561,-0.059319,0.17346,-0.42636,0.026647,-0.12625,-0.086355,0.1971,0.12954,-0.16778,0.04413,0.16982,-0.037927,-0.15374,0.12175,0.30551,-0.0064867,0.16955,0.085724,0.26712,-0.13186,-0.049119,0.16029,0.31442,-0.060143,-0.061246,-0.060952,-0.34738,0.049486,-0.29435,0.075969,0.041236,-0.10916,0.015899,0.059283,-0.12827,0.018421,-0.024417,-0.059351,0.28387,-0.14938,0.022826,-0.15173,0.14778,0.086334,0.060986,-0.0053188,0.23147,-0.046435,0.074639,0.13474,0.02708,0.10742,-0.14588,0.017059,0.26243,0.33463,-0.097519,0.02396,-0.0056158,-0.040351,0.1433,0.072005,-0.39199,-0.0859,0.20772,-0.032316,-0.14786,-0.10831,0.041281,0.1011,-0.0061669,0.12082,-0.26438,0.074825,0.036394,-0.057241,0.15367,-0.31237,0.24821,0.0022032,0.18827,0.19027,0.31723,0.084811,0.15887,0.12605,-0.025687,0.29767,-0.16172,-9.514e-4,0.020354,-0.036124,0.27272,-0.023111,-0.042917,0.31479,-0.055629,-0.0030931,-0.030329,0.034523,-0.042973,-0.25637,0.1277,0.068471,-0.098344,-0.16185,-0.13142,-0.036684,0.12413,-0.196,0.0084881,-0.13714,0.02742,-0.041731,0.10273,0.25777,0.0013262,-0.2346,0.25153,-0.13105,-0.11313,-0.020087,-0.28151,-0.088128,0.42769,-0.089056,-0.054467,-0.0087523,-0.06695,0.31762,-0.32944,0.045516,-0.12983,0.16474,0.03063,-0.19326,0.17544,0.40204,0.24161,-0.37443,0.05983,-0.18257,0.21739,0.18324,-0.076482,0.13773,-0.0066386,-0.17009,-0.21455,-0.21564,-0.043374,0.020973,0.1556,-0.0080144,-0.24578,-0.023289,0.014166,-0.088207,-0.033291,2.8047e-4,0.12576,0.1227,-0.1977,0.065813,-0.046639,-0.034377,-0.066773,-0.23815,-0.21474,0.01198,0.18438,-0.21829,-0.46507,-0.091644,0.12249,-0.004511,0.2709,0.2499,0.093565,-0.095534,-0.13349,-0.16135,0.12998,-0.099046,0.058312,-0.38819,0.019136,0.094789,0.35336,0.33654,0.117,-0.052085,0.20949,0.13144,0.24065,-0.23195,-0.21567,0.0085701
little,-0.11227,0.19966,-0.0067113,0.0067624,-0.053334,4.2291e-4,-0.077346,0.095212,-0.079095,-0.06087,-0.014137,-0.028562,-0.072833,-0.27898,-0.046468,-0.083913,0.0047898,0.17428,0.23059,-0.30743,0.034727,0.28072,0.22108,-0.19655,0.15209,-0.060689,-0.075669,2.5e-4,0.0034139,-0.06867,0.37088,-0.24648,-0.099998,-0.22626,-0.042449,-0.067762,0.093902,0.058858,-0.18495,0.058308,-0.015637,-0.21553,-0.1628,0.076182,0.07047,-0.14072,-0.12569,-0.31032,0.078761,-0.34164,-0.22591,0.067015,0.12638,-0.29075,-0.054053,0.060271,-0.30019,-0.20825,0.20044,0.1202,-0.16194,-0.071238,-0.23505,0.069697,0.18347,-0.0077866,0.15009,0.02242,0.18346,0.053619,-0.042566,-0.15477,-0.19641,-0.28252,0.24505,0.1163,0.21507,-0.21392,-0.065621,-0.17519,0.065406,0.34537,-0.15205,-0.1022,0.062285,0.063404,-0.014584,0.059605,-0.061166,0.1999,-0.19492,-0.22033,0.1113,0.19982,-0.30735,0.036232,-0.18534,0.022615,0.25143,-0.12435,0.052072,0.048288,0.085551,0.13645,-0.11935,-0.11992,-0.057897,-0.10764,0.091178,0.027433,-0.1041,0.014951,-0.10009,-0.10838,-0.0034365,0.35753,0.034638,-0.21516,0.0054073,-0.067118,0.0045753,-0.26766,-0.22722,0.059142,0.1021,-0.18797,0.029424,-0.27838,0.049085,0.14385,-0.049626,0.16134,-0.040049,-0.18039,0.17346,-0.13063,-0.21034,-0.16939,-0.030182,0.017323,0.072029,0.12831,0.02455,-0.036441,0.10354,0.16748,0.0177,0.036253,0.2875,-0.31965,-0.05947,0.076635,-0.065167,-0.06966,0.24925,0.14612,0.21234,0.21569,-0.022235,0.064327,-0.083712,-0.075918,0.13791,0.052625,0.016972,-0.061429,0.1809,0.048258,0.14271,-0.22547,0.17635,0.0067769,0.019761,0.010686,-0.10738,0.05005,-0.0078281,-0.15108,0.022105,-0.33826,0.23603,0.3034,-0.079694,-0.081399,0.15,0.15025,0.10325,-0.16271,-0.064603,0.018203,-0.039882,0.0095426,0.017154,-0.18345,0.20412,-0.074856,0.037909,0.27596,-0.29178,0.16032,-0.16907,0.056257,0.021374,-0.32937,-0.062932,0.068265,0.0017949,-0.12565,-0.078299,-0.051024,0.020517,-0.22103,-0.098979,0.064248,-0.062582,-0.032631,0.090555,0.13617,-0.031338,-0.25188,0.20302,-0.19551,-0.24141,-0.17427,0.050075,-0.12454,0.40976,-0.34567,0.047991,0.24194,-0.29214,0.078135,-0.096599,-0.13919,-0.011801,0.21168,0.22655,-0.10352,0.030974,0.18302,0.35775,0.077764,0.038923,-0.15467,0.033545,0.040267,0.12929,0.020431,-0.22677,-0.035301,-0.015683,-0.26588,0.0041675,0.10968,-0.15042,-0.09493,-0.028897,0.063026,-0.022246,-0.015922,0.14581,0.09003,0.077666,0.17406,-0.10062,-0.10841,-0.055978,0.062245,-0.11404,-0.20077,-0.10314,-9.2198e-4,-0.096149,-0.25876,-0.051044,0.18716,0.034511,-0.028554,0.22837,-0.061455,-0.11789,-0.095406,-0.29119,0.12378,-0.076364,-0.14967,0.30647,-0.22966,-0.35444,0.0038243,0.13747,-0.038917,0.24696,0.11636,0.079438,-0.03892,0.38105,-0.14465,-0.41151,0.03676
white,-0.12166,-0.16762,0.10485,0.072824,-0.055455,-0.31628,-0.069088,0.17083,-0.063192,0.24263,0.2718,-0.014461,-0.1998,0.030906,-0.35499000000000003,0.10913,0.16974,0.32438,0.21424,-0.087592,0.093955,0.12562,-0.1298,-0.21902,-0.025647,-0.18823,0.054061,0.10195,0.18381,-0.28241,0.30127,-0.21589,0.10574,-0.39303,0.071131,0.047784,-0.13551,-0.14006,-0.1243,0.1635,0.28432,-0.21267,0.0015288,0.2913,0.073911,-0.32367,-0.12138,-0.19489,0.21166,-0.079952,-0.14322,0.28489,0.070372,0.077365,-0.043546,-0.18999,-0.21852,-0.061445,0.19822,-0.14658,0.16202,-0.37808,0.23044,0.25056,0.21585,0.037911,0.12014,-0.12466000000000001,-0.0269,0.094468,0.11199,-0.065596,-0.048185,-0.14198,0.20828,0.25938,0.082571,0.051086,0.090195,-0.1755,0.11249,-0.17607,-0.38428,-0.065425,-0.14332,0.19701,0.21658,-0.29514,0.11366,0.11888,-0.07212,-0.13505,-0.34633,0.50561,-0.37844,0.068469,-0.16565,-0.16085,-0.043011,0.15785,-0.1974,0.075174,0.088312,0.19416,-0.0046085,-0.04732,-0.050327,-0.23552,0.22947,0.19844,-0.090343,-0.28925,-0.20818,-0.071758,0.14072,0.17729,0.33577,-0.043861,0.021394,0.057882,0.10334,-0.19075,-0.25544,0.076504,0.10851,-0.32804,-0.057375,-0.14809,0.02939,0.15303,-0.34637,-0.073997,-0.18216,-0.1481,0.075034,0.15954,0.06071,-0.043177,-0.19242,-0.42356,-0.078284,-0.071084,0.14054,-0.25103,0.14591,0.021425,0.027787,0.13575,0.42086,-0.15224,0.29395,0.31313,0.071331,0.086873,0.021203,0.095472,0.24011,-0.013458,0.014977,0.23761,-0.36503,0.092256,0.077144,0.0011272,-0.18384,-0.34969,-0.16583,0.0047907,0.26716,-0.15813,0.31662,-0.030278,0.020577,0.22543,-0.23272,0.13373,-0.02964,0.063335,-0.039725,-0.048216,-0.017232,0.30025,-0.16459,-0.1949,0.21664,0.26545,0.10436,-0.3929,-0.21753,0.14198,-0.15677,-0.045431,0.162,-0.2665,-0.067026,0.085251,-0.075486,-0.031993,-0.23374,0.3545,-0.015078,-0.31816,0.19906,-0.36113,0.37534,-0.097764,0.054809,0.21799,-0.12781,0.13998,-0.080287,-0.24256,-0.24786,0.04425,-0.020325,-0.12365,0.0074982,0.052582,0.045065,-0.249,0.1588,-0.2275,-0.039953,0.026389,-0.049571,-0.034867,0.26967,-0.50008,0.25043,-0.050457,0.19852,0.099276,-0.31956,-0.23693,-0.052858,0.30969,-0.19972,-0.18314,0.10567,0.47287,0.22391,-0.036915,0.043574,-0.14744,0.13147,-0.16693,-0.28073,-0.062496,-0.096125,-0.15771,-0.071419,-0.46344,-0.0036701,0.042699,0.092643,0.0095089,-0.31238,0.054797,-0.065586,-0.071892,0.05087,0.11527,-0.32668,0.15203,0.30628,0.017497,-0.047261,-0.057967,-0.29009,0.020503,0.043484,0.14243,-0.19853,-0.16293,-0.42631,-0.10937,-0.13092,-0.053145,-0.065318,0.028055,0.06066,0.090635,-0.49424,-0.060362,-0.12653,0.13243,0.10925,-0.292,-0.010778,0.19996,-0.11998,0.023255,0.096695,-0.20335,-0.023707,-0.088547,0.28052,-0.34577,-0.31336,0.35501
big,0.01397,0.26572,-0.0048532,-0.061745,-0.078256,-0.049547,-0.047694,0.15445,-0.096606,0.056619,0.013886,-0.12034,0.13174,-0.02254,-0.05801,-0.29373,0.010199,0.33732,0.16825,-0.16109,-0.03992,0.29037,0.066437,-0.29931,0.040716,0.058383,-0.034319,-0.024969,0.13214,0.080573,0.3114,-0.2829,-0.28288,-0.18325,-0.068875,-0.18197,-0.15841,-0.27555,-0.094764,0.25846,0.098419,-0.12544,0.060068,0.24644,-0.054844,-0.28695,-0.21012,-0.37954,-0.059424,-0.16126,-0.31704,0.13633,-0.078067,-0.0091898,-0.22557,0.067385,-0.24004,-0.39605,-0.029402,-0.011212,-0.073829,-0.1835,0.061449,-8.2342e-4,-0.029987,-0.048092,-0.098886,-0.18486,0.10572,0.30087,0.056846,-0.017996,0.056323,-0.17685,0.38721,0.043651,0.36557,-0.086102,-0.0083481,-0.32902,-0.08377,0.1746,-0.19896,-0.12178,-0.089582,-0.12781,-0.11267,0.10922,-0.024153,0.1217,-0.25274,-0.024859,-0.083422,0.10539,-0.33875,0.19468,-0.11666,0.053062,0.22808,-0.20219,-0.33934,0.18852,0.021051,0.057432,-0.18557,-0.1637,-0.18972,-0.18838,0.10201,0.33323,-0.20818,-0.15147,-0.050653,-0.30426,0.081085,0.11728,0.17521,-0.12453,-0.047912,-0.031424,-0.044401,-0.17879,-0.21211,0.066848,-0.11567,-0.21614,0.011142,-0.096535,-0.055,0.14942,-0.071386,0.2436,0.13633,-0.19835,-0.17216,-0.072171,-0.080959,0.041894,-0.37245,-0.17238,0.041148,0.12053,0.10244,-0.021213,0.088306,0.071909,-0.18751,0.093625,0.062731,0.15538,0.040713,0.095395,-0.019122,-1.4642e-4,0.23099,0.04103,0.19206,0.24512,0.080192,-0.029668,-0.47903,0.033059,-0.16965,0.054932,-0.020935,-0.36671,0.08709,-0.020393,0.28904,-0.34999,0.1631,0.30172,-0.17538,0.043645,0.078522,-0.21852,-0.012013,-0.22408,6.6077e-4,-0.4113,0.1733,0.16174,0.020667,-0.056097,0.10197,0.39934,0.19257,-0.10994,-0.043705,-0.13292,-0.053548,0.038756,-0.17671,-0.092107,0.072072,-0.24221,0.10057,0.18383,-0.18349,0.22497,-0.0038888,0.086327,0.0072384,-0.29843,0.021937,0.082866,0.039669,-0.11994,-0.048551,-0.10153,0.071949,0.0445,-0.09887,-0.10024,0.031572,-0.084478,0.059006,0.15879,-0.086867,-0.2084,0.044537,-0.20294,-0.017444,0.015336,0.23772,0.1083,0.34124,-0.22359,0.25129,0.17852,-0.25143,0.1429,-0.1641,0.055128,-0.07124,0.14716,0.31984,-0.17134,0.050536,0.52346,0.22472,-0.049797,0.0034633,-0.23076,0.098262,0.13633,-0.0040194,0.10005,-0.31694,-0.27502,-0.11856,-0.029034,0.084634,0.13286,-0.17483,0.01829,-0.058424,0.045258,0.045184,0.17944,0.19822,-0.21401,-0.065515,0.19385,-0.13308,-0.053874,-0.21593,0.06722,-0.02796,-0.1836,-0.080379,0.15769,-0.18397,-0.12072,-0.36955,-0.22246,0.064398,-0.0066551,0.21455,-0.23057,-0.13422,-0.11081,0.024199,0.16444,-0.078091,-0.22269,0.066099,-0.0041507,-0.12033,-0.11344,0.17686,-0.092017,0.15633,0.41455,0.21568,0.091655,0.38238,-0.22561,-0.31537,0.19349
black,-0.13097,-0.18086,0.10365,-0.0079989,0.11579,-0.029321,-0.11126,0.27429,-0.2406,0.21405,0.27008,-0.087987,-0.12899,0.14008,-0.24821,0.16892,0.32696,0.17032,0.14774,-0.17603,0.24415,0.24762,0.10668,-0.3552,-0.020885,0.012777,0.25444,0.10674,0.31376,-0.18985,0.30129,-0.26146,-0.0026479,-0.35549,0.26173,-0.0014668,-0.024663,-0.1202,0.081944,0.35703,0.10126,-0.1569,0.0018029,0.26201,-0.068274,-0.074663,-0.06517,-0.2576,0.12621,-0.028024,-0.15247,0.14534,0.055954,0.0069238,-0.16966,-0.10699,-0.25785,0.023704,0.29115,0.064579,0.13365,-0.088075,0.21453,0.26896,0.25549,0.17398,-0.032431,-0.11762,-0.0050055,0.12771,-0.12448,-0.045826,-0.084215,-0.10258,0.14405,0.29033,0.21553,0.19686,-0.07653,-0.21667,0.25864,-0.067622,-0.11077,0.10839,-0.10473,0.11438,0.38145,-0.020046,0.0084019,0.12527,0.041712,0.074032,-0.10971,0.46153,-0.3946,0.037026,-0.17806,0.079314,0.13177,0.094282,-0.068521,-0.043465,0.33249,0.10277,-0.040262,-0.031061,-0.3142,-0.10428,0.26761,0.30616,-0.026519,-0.31541,-0.22866,0.018379,0.24455,0.05508,0.25135,-0.045978,-0.015306,0.15167,-0.013902,-0.2617,-0.32384,-0.14517,0.13342,-0.20922,-0.057379,-0.058781,-0.045823,0.253,-0.30358,-0.1201,-0.21661,-0.22079,0.084148,0.13355,-0.049259,0.031487,-0.079464,-0.39106,0.12192,-0.020852,0.11362,-0.27589,-0.020382,-0.048855,-0.0071688,0.31334,0.54633,-0.0013157,0.39303,0.2721,0.19476,0.072155,0.0073576,0.016943,0.28376,0.017407,-0.031441,0.32385,-0.57702,0.25352,0.097381,0.069515,-0.13486,-0.19486,-0.14629,-0.063669,0.19328,-0.25994,0.20627,0.079004,0.13143,0.18131,-0.45284,0.18384,-0.032681,-0.22289,-0.13921,-0.17536,-0.22358,0.37033,-0.051337,-0.10115,0.20171,0.31826,0.099559,-0.16123,-0.073958,0.43032,-0.0081719,-0.016632,0.077004,-0.001744,-0.12362,0.017067,-0.093485,0.18998,-0.24635,0.098987,-0.038209,-0.047751,0.22369,-0.37113,0.31271,-0.20492,0.059663,0.14567,-0.25718,-0.046741,0.12895,-0.14924,-0.26313,-0.059975,-0.017745,-0.23891,0.046298,0.21581,-0.017976,-0.087327,0.22894,-0.25044,0.042825,-0.14083,-0.10499,-0.13935,0.27149,-0.44216,0.094088,-0.010316,-0.1856,0.12687,-0.32082,-0.27337,0.12222,0.13475,-0.23547,-0.11015,0.23922,0.46823,0.22002,-0.069085,0.1056,-0.10381,0.26107,-0.013032,-0.52789,-0.21557,-0.10086,-0.14989,-0.13402,-0.25621,0.11273,0.072889,0.034836,0.10109,-0.24364,0.17296,-0.13278,0.043048,0.060899,-0.056918,-0.41058,0.054434,0.13388,0.060761,-0.10452,0.11482,-0.38164,0.067882,0.047425,-0.039111,-0.099226,-0.12248,-0.49856,-0.071926,0.044116,0.07202,0.0040357,-1.3971e-4,0.088626,0.17842,-0.41428,-0.022663,0.052972,0.043069,0.30993,-0.089203,0.02435,0.0045295,0.18728,0.013577,0.049911,-0.23249,-0.043665,-0.24086,0.18284,-0.35053,-0.28371,0.38168
small,-0.10713,0.24776,-0.20343,-0.14483,-0.18603,0.005878,-0.11078,0.10836,-0.17063,0.14752,-0.20579,-0.15365,0.0031988,-0.099313,-0.022346,-0.1491,0.11481,0.01993,0.14022,-0.16646,0.22762,0.3713,0.18017,-0.29005,0.11211,0.027769,0.14642,0.018708,0.16732,-0.17666,0.33226,-0.21978,-0.053631,-0.04264,-0.14676,0.10714,0.096662,-0.36765,-0.099617,0.21501,-0.026211,-0.16925,-0.21684,0.19105,0.019197,-0.34061,-0.15179,-0.33004,0.22587,-0.21428,-0.3813,0.053351,0.065829,-0.17634,-0.002637,-0.0089959,-0.19924,-0.14093,0.028561,0.01708,-0.020194,-0.084266,0.089064,-0.049955,0.34236,-0.043107,0.0050833,0.037424,0.31033,-0.09821,0.11812,-0.17644,0.047625,0.035444,0.11507,0.15288,0.16947,0.067711,-0.22817,-0.13495,0.18715,0.33337,0.025865,0.0094158,-0.13174,0.040935,0.15842,0.13817,0.1005,0.18514,-0.27051,-0.020904,-0.14404,0.038202,-0.14693,0.13666,-0.051793,0.22453,0.050366,-0.078859,-0.049271,0.18942,0.11949,0.03272,-0.23793,-0.37772,-0.26358,0.032711,0.23247,0.099693,-0.013487,-0.29096,-0.016328,0.046026,0.072863,0.30186,0.037704,-0.19137,0.059175,3.8751e-5,-0.075469,-0.28486,-0.053388,-0.020115,0.1124,-0.42951,0.028459,-0.32011,-0.13979,0.21659,-0.15607,0.25183,-0.11111,-0.058048,0.34119,-0.14631,-0.1068,0.011246,-0.056147,-0.12579,0.18694,0.20476,0.093411,-0.072179,-0.006914,0.4515,0.098619,-0.0057194,0.17778,0.057898,-0.011664,0.11381,-0.064429,0.20361,0.14864,-0.11908,0.18097,-0.045879,-0.039741,0.15228,-0.18013,0.11826,0.084107,0.27934,-0.14993,-0.048614,0.42662,-0.02741,0.25859,-0.29102,0.042431,0.027527,-0.30787,-0.087366,-0.22819,-0.0015561,-0.12009,-0.12171,-0.048938,-0.5151,0.097692,0.28779,0.13737,-0.20051,0.035109,0.063928,0.12483,-0.086436,-0.1764,0.086608,-0.10932,0.026021,-0.011235,-0.30335,0.063911,-0.17564,0.098451,0.18025,-0.12617,0.24029,0.087643,-0.038023,0.20774,-0.52201,0.050524,-0.14281,0.15867,-0.1311,0.095285,0.013214,0.12457,0.041276,-0.23909,0.079364,0.09685,0.13754,0.14377,0.0090012000000000009,-0.038254,-0.040828,0.1293,-0.45808,-0.062461,0.020955,-0.034364,-0.04349,0.33752,-0.10061,0.27914,0.1196,-0.3407,0.45837,-0.31102,0.076549,-0.063904,0.095765,0.069723,-0.23441,0.17685,0.35884,0.31573,-0.075945,0.078226,-0.21412,0.10359,-0.098144,0.013598,0.0074553,-0.24056,-0.15554,-0.038673,-0.22713,0.17297,0.2104,-0.35421,-0.059871,-0.14075,-0.042192,0.092338,0.051863,0.16906,-0.21098,-0.10941,0.14903,-0.052821,-0.15062,-0.25789,0.2722,-0.17039,-0.14113,-0.068083,0.077365,-0.065117,-0.030379,-0.46609,-0.15883,-0.19079,0.016544,0.34702,0.11593,-0.076466,0.12461,-0.12353,0.11852,0.068127,-0.23086,0.066661,-0.15665,-0.083933,0.0076443,0.14984,0.15759,0.089803,-0.0078235,0.3705,-0.025424,0.3876,-0.22073,-0.2801,0.22795
hand,-0.0074933,0.26378,0.013397,-0.018363,-0.075552,-0.043701,-0.15268,0.15247,-0.11087,0.40222,0.14296,-0.10007,-0.13543,0.1227,0.10458,-0.42248,0.15548,-0.1375,0.0027718,-0.12659,0.15972,0.30589,-0.019378,0.16922,0.4123,-0.29108,-0.03286,0.047648,0.29197,-0.16768,0.054676,-0.33362000000000003,0.0076925,0.15059,0.13739,0.098221,0.072647,-0.1011,-0.13475,-0.041322,0.0083545,-0.52345,-0.11209,0.13653,0.037926,-0.2034,-0.23489,-0.13526,-0.18771,-0.3655,-0.10433,0.10571,0.21454,-0.048403,-0.037581,-0.19942,0.19294,-0.11587,0.12998,0.35947,-0.033558,-0.11907,0.064561,0.23551,0.071351,-0.28481,0.19743,-0.18606,0.36787,-0.032895,-0.17784,-0.086555000000000007,-0.12866,-0.029654,0.15627,0.43368,0.20878,0.087501,-0.035873,0.033875,0.091994,0.23256,-0.18488,-0.1152,0.050332,-0.019866,0.12668,0.085974,0.14684,-0.059708,0.22109,-0.19351,0.0058359,0.28368,-0.29753,0.071967,-0.25361,0.36427,0.043047,0.089065,0.087617,0.11127,-7.8984e-4,0.026528,-0.37252,-0.3524,-0.018103,-0.019618,0.20073,-0.16919,-0.022334,0.028181,0.040819,-0.081528,0.073349,0.45404,-0.052762,0.065717,0.038555,0.069682,0.1589,0.0055534,-0.056022,-0.08257,0.15995,-0.41567,0.15551,0.069705,0.057236,0.012181,0.048352,0.010131,-0.27022,-0.18985,0.48473,0.080974,-0.14905,-0.089928,-0.27036,-0.10789,0.10411,0.35782,0.32326,-0.22016,-0.12759,0.040517,-0.11384,0.15863,0.34407,-0.11916,-0.0019549,0.19076,-0.025626,0.0022626,0.10924,-0.27584,0.37151,0.11365,0.066368,0.34531,-0.23326,-0.15088,0.25773,0.12806,-0.041524,-0.062925,0.22792,-0.20631,-0.086497,-0.21304,0.23353,0.15802,-0.23998,0.096203,-0.21643,-0.043848,-0.32036,-0.059964,0.15995,-0.33402,0.32333,-0.099041,0.074575,0.036357,0.24651,0.11117,0.19178,-0.16303,-0.19041,-0.050274,-0.1747,-0.27165,0.17264,-0.12843,0.18455,-0.27763,0.10539,0.033978,-0.16726,0.23605,-0.18514,-0.058306,0.11988,-0.090329,0.096536,0.06881,0.061585,-0.19035,-0.0425,0.11591,-0.12341,-0.12883,0.12889,-0.060605,-0.14531,-0.041797,0.30736,-0.093305,-0.017195,-0.30206,-0.1073,-0.094097,-0.18819,0.016597,0.064614,0.005102,0.33471,-0.32241,-0.13193,0.1667,-0.079969,0.14348,-0.037956,-0.012639,-0.018102,0.023363,-0.008057,0.011655,0.17613,0.33602,0.53228,-0.15434,-0.045027,-0.30043,0.48178,0.1145,-0.1754,-0.0336,-0.13583,-0.076503,-0.056119,-0.35387,0.18514,0.27513,0.1542,-0.25996,-0.16645,0.3035,0.0079385,0.0033396,0.12754,0.1266,-0.039252,0.24069,-0.013191,-0.090556,-0.18632,0.005207,-0.42766,-0.3393,0.052272,0.012755,-0.080308,-0.30568,-0.15203,0.0010482,0.3348,0.081091,0.29072,0.23636,0.12144,-0.061701,-0.32207,0.079586,-0.093293,-0.035389,0.32531,-0.12055,-0.086348,0.11523,0.11375,0.27362,0.2048,0.014159,0.039288,0.29591,0.18444,-0.12443,-0.091658,0.3846
course,-0.30939,0.02583,0.076074,0.28615,-0.056488,-0.12891,-0.078836,-0.014482,0.037871,0.258,0.087506,0.016161,0.091679,0.092574,-0.001462,-0.28328,0.099623,0.20917,0.11488,-0.16211,0.091331,0.25985,0.14997,0.075163,-0.020496,0.029937,-0.0051878,0.015929,0.11296,-0.18881,0.35344,-0.30022,0.12222,-0.25907,0.091589,-0.066285,-0.059211,-0.017602,-0.028616,-0.011457,-0.024399,-0.22006,-0.19998,0.091146,0.0096437,-0.30245,-0.092976,-0.22464,-0.18999,-0.10343,-0.23979,0.10454,0.025842,-0.068469,-0.087411,-0.036009,9.4363e-4,-0.27254,0.16098,0.21278,0.010562,-0.014527,0.19506,0.18306,-0.087238,-0.029438,0.058672,-0.12589,0.45777,-0.15848,-0.14712,-0.022605,-0.26022,-0.10718,0.015531,0.30486,0.21512,-0.27000999999999997,0.27722,-0.26307,0.040171,-0.010279,-0.19003,-0.085373,0.11487,0.014043,-0.041056,0.10167,-0.027644,0.051088,-0.12105,-0.22705,-0.12453,0.1796,-0.27276,0.17645,-0.072665,0.027001,0.20151,-0.1075,0.019658,0.029363,-0.087445,0.34914,-0.036508,-0.037524,-0.012519,-0.13496,-0.025632,0.17924,-0.24055,-0.076624,0.1026,-0.16458,0.060708,0.013322,0.26282,-0.16106,0.11601,-0.10565,0.13738,-0.07176,-0.041788,0.066772,0.1367,-0.042614,0.068856,-0.032832,0.15564,0.042958,0.052184,-0.056979,-0.10499,-0.15634,0.3339,-0.12164,-0.04085,-0.035084,-0.16422,-0.011953,0.002915,-0.022878,0.17815,0.0014178,0.017547,0.017118,0.019648,0.040101,0.33809,8.5383e-4,-0.074164,-0.035011,0.045245,-0.0054785,0.068845,0.064901,0.18953,0.21264,-0.077818,0.13501,-0.19853,-0.22772,0.10856,0.043952,-0.055573,0.012304,0.18954,0.06388,-5.2279e-4,-0.22356,0.11162,0.10938,-0.16582,0.095173,-0.16721,-0.042074,-0.10061,-0.13461,0.029304,-0.50942,0.034218,-0.039211,-0.026973,0.18702,0.042233,0.10357,0.1017,0.0059554,-0.1114,0.29032,-0.14932,0.02535,-0.0081699,-0.050273,0.21036,-0.15083,0.049986,0.29021,-0.23613,0.051239,0.070748,0.27225,-0.081151,-0.18284,0.068644,-0.014303,-0.05552,0.097529,-0.28676,0.029683,0.012504,-0.19647,0.040152,-0.081043,0.14717,-0.068478,0.035378,0.072327,-0.032425,-0.052071,0.065597,-0.030793,-0.044919,0.096467,0.028496,0.046372,0.21533,-0.11297,0.019412,0.070188,-0.22966,0.37724,-0.13459,0.040713,-0.054737,0.11278,0.15743,-0.082479,0.076628,0.094676,0.051696,-0.071042,0.13201,-0.30724,0.1827,-0.089408,-0.096037,0.012242,-0.19787,0.19955,-0.35595,-0.28301,0.024857,0.028657,0.11243,-0.18593,-0.18474,0.33354,0.34221,-0.050227,0.14976,-0.2463,0.02129,0.0090278,0.10296,-0.10116,-0.20331,0.089464,-0.15009,-0.31329,-0.18593,0.22129,-0.14279,-0.14131,-0.10225,0.025124,0.050618,-0.02634,-0.03557,-0.04853,-0.16574,0.057699,-0.27277,-0.018121,0.11433,-0.004418,0.36962,-0.099535,-0.10925,-0.083338,0.14612,0.18272,0.014038,0.093305,0.040683,0.26777,0.1992,-0.23761,-0.19106,0.020598
large,-0.16249,0.30163,-0.14883,-0.12037,-0.30272,0.01179,-0.15033,0.029868,-0.40621,0.27913,-0.11379,-0.098357,-0.071075,-0.04408,-0.010407,-0.11756,-0.0023113,0.11797,0.21005,0.026553,0.22168,0.26657,0.2491,-0.2685,0.25745,0.039277,-0.0094029,0.0034843,0.16301,-0.1998,0.29563,-0.31105,0.034988,-0.066393,0.069029,0.031007,-0.11036,-0.34445,-0.23739,0.26186,0.08487,-0.19177,-0.10308,0.098637,-0.060875,-0.37338,-0.096529,-0.28991,0.29364,-0.23807,-0.28612,0.11531,-0.054685,-0.044918,0.042255,-0.088758,-0.14587,-0.43811,0.11448,-0.1784,0.1695,-0.037398,0.19144,-0.14034,0.42875,0.014196,0.026033,-0.059186,0.2406,0.033209,0.18868,-0.073492,-0.094183,0.083876,0.34874,0.11049,0.16036,0.11991,-0.24188,-0.25265,0.2084,0.15367,-0.07075,0.16159,-0.24977,-0.12661,0.17292,0.026044,0.10007,0.18998,-0.29767,0.11377,-0.18362,0.18926,-0.29498,0.20215,0.013197,-0.012484,0.10142,0.094399,0.0075907,0.33725,0.21387,0.10341,-0.31718,-0.41864,-0.28841,0.19455,0.23726,0.23119,-0.054093,-0.32008,-0.027451,-0.030775,-0.17478,0.055392,0.024375,-0.29254,0.12423,0.051554,-0.1508,-0.17265,0.0080806,0.070006,0.23682,-0.23879,0.015376,-0.17159,-0.25477,0.31793,-0.19967,0.10147,-0.27484,-0.14243,0.14185,-0.20402,0.0477,0.10309,-0.18809,-0.10774,0.21055,0.27744,0.07527,-0.14712,0.037657,0.32919,0.21956,0.058415,0.32613,0.13045,-0.07818,0.16604,-0.10922,0.24364,0.039841,-0.028022,0.23458,0.031568,0.031884,0.1523,-0.23802,0.11658,-0.029959,0.10197,-0.24137,-0.064779,0.25753,-0.040537,0.16636,-0.311,0.10674,0.037417,-0.36645,-0.048673,-0.32669,-0.018302,-0.28517,-0.27062,-0.0062452,-0.44681,0.13501,0.21906,0.18967,-0.2936,-0.089897,-0.034815,0.15898,-0.085588,-0.071577,0.31253,-0.035976,0.065781,0.062841,-0.14414,-0.085011,-0.21601,0.097115,0.031279,-0.10602,0.29657,0.080841,0.032013,0.33191,-0.53158,0.1921,-0.15752,0.10772,-0.20101,0.19407,-0.017733,0.11851,0.12286,-0.012451,0.089893,0.039864,-0.097772,0.047505,0.056265,-0.12222,-0.10098,-0.12373,-0.33234,-0.055611,0.32081,-0.07324,0.10224,0.15447,-0.12511,0.20466,-0.049593,-0.28441,0.54834,-0.25939,0.26624,-0.042222,0.012234,0.015124,-0.24548,0.41532,0.49246,0.25099,-0.24617,-0.06216,-0.089491,0.26113,-0.068862,-0.0050975,0.068765,-0.19676,-0.23566,-0.093812,-0.111,0.10622,0.086722,-0.43867,0.06927,-0.15703,0.078021,0.19778,0.10817,0.10118,-0.43923,-0.26139,0.12759,-0.041843,-0.096179,-0.14426,0.19278,-0.11826,-0.064469,-0.1196,0.20877,-0.052332,0.035295,-0.51209,-0.17467,-0.18675,0.014585,0.26461,0.14427,0.039558,0.11381,-0.069697,0.10038,-0.00879,-0.30453,-0.024877,-0.1913,0.059763,0.040551,0.21339,0.22958,0.029413,0.015461,0.29392,-0.049217,0.30183,-0.35609,-0.26355,0.38556
body,-0.24642,0.31225,0.072147,-0.04845,0.13404,0.34943,-0.045093,-0.05416,-0.16121,0.38724,0.073599,-0.021162,-0.061371,0.17204,0.055446,-0.019744,0.30039,0.18817,0.36554,0.035444,0.318,0.29841,0.28209,-0.28986,0.34127999999999997,0.0024464,0.25753,-0.10416,0.21078,-0.22442,0.38703,-0.35073,0.078704,-0.082627,0.028783,0.16945,0.27092,-0.1717,-0.25869,0.10607,-0.314,-0.31042,-0.10999,-0.09983,0.17242,-0.11918,-0.076688,-0.18645,-0.10901,-0.20545,0.20734,0.088832,0.42952,-0.019907,0.11489,-0.12045,0.061609,-0.23132,0.24279,0.26892,-0.24368,0.001118,-0.34199,-0.002024,0.12383,0.023994,0.27904,-0.14521,0.25898,-0.32739,0.12159,-0.23889,-0.17559,0.18607,0.032099,0.21572,-0.024056,0.054497,0.052563,0.056271,-0.11656,0.12404,0.20847,0.011103,0.030024,0.21774,-0.098609,0.071293,-0.21206,-0.011748,0.36945,-0.25244,0.10689,0.29034,-0.33151,0.0927,-0.087095,-0.073855,0.18921,-0.0023591,0.28506,0.36643,-0.14816,0.091912,-0.47561,-0.20571,-0.18283,0.19615,0.14856,0.097728,-0.3698,-0.073251,-0.0058209,-0.19316,0.064859,0.16423,0.23558,0.017333,0.043506,0.070122,-0.05696,-0.031891,-0.34177,-0.13839,0.15528,-0.25229,-0.064491,0.09473,0.14374,0.25002,-0.0066662,-0.35671,-0.11785,-0.45255,-0.074683,0.10055,-0.29573,0.20538,-0.11968,0.019162,0.39806,0.2373,0.44292,-0.28627,0.16867,-0.088333,-0.37324,0.17859,0.59106,0.26262,0.28283,0.0065725,-0.11502,-0.0249,0.17663,0.16795,0.13926,0.43279,-0.047164,0.02594,0.13034,-0.049158,-0.045247,-0.0012435,-0.18557,-0.17333,0.2917,-0.019283,-0.053383,-0.040152,0.1997,0.10431,0.028255,-0.0073981,-0.48725,-0.04001,0.068591,0.074908,0.10498,-0.4353,0.082818,0.24285,-0.15235,-0.084075,0.19689,0.14189,0.03646,0.077701,-0.080304,-0.15156,-0.29,-0.22876,0.065954,-0.30334,-0.0071145,-0.1926,-0.037955,0.023439,-0.26724,0.20232,-0.12193,-0.03477,0.1262,0.037479,0.086536,-0.012598,-0.098443,0.49575,0.078434,0.10401,0.14789,-0.091563,0.21316,-0.33118,0.22268,-0.069142,0.30619,0.073167,-0.046082,-0.34339,0.16424,-0.15546,-0.27122,-0.23335,0.056408,0.072177,0.38018,0.0036044,0.012893,0.062852,0.21614,0.30993,0.17845,0.03923,-0.16584,0.25176,0.27378,-0.050488,0.30428,0.38832,0.38849,-0.090561,-0.040134,-0.46149,0.34895,0.20491,-0.15576,-0.14273,-0.1195,-0.14447,-0.11119,-0.4491,0.042211,0.261,0.16736,-0.13435,-0.015579,0.66637,0.27519,-0.082352,-0.0069061,0.19117,0.04339,0.037203,-0.058633,0.1252,-0.2439,-0.063927,-0.29154,-0.31969,0.096016,0.029052,-0.11906,-0.08946,-0.25748,-0.16472,0.11481,-0.15441,0.0067572,0.23747,0.33549,-0.10019,-0.2347,0.18554,-0.23512,-0.028443,0.62765,-0.16357,-0.078534,-0.21379,-0.11951,0.0064736,0.048514,-0.10895,-0.097807,0.27694,0.24592,-0.062223,-0.12768,0.32321
light,-0.22785,0.36549,0.057801,0.13609,-0.021745,0.045738,0.21605,0.062268,-0.22924,0.30105,0.086971,-0.097145,-0.040356,-0.010901,0.053292,-0.19564,0.092049,-0.061803,0.12541,-0.14142,0.093506,0.034355,0.33038,0.076172,-0.045769,-0.10493,0.025169,0.006859,0.39624,-0.2344,0.040305,-0.35612,0.090962,-0.11123,0.10451,0.082178,0.20796,-0.17328,-0.032918,0.079859,-0.11381,-0.38622,0.091284,0.055179,-0.0052602,-0.2351,-0.26243,-0.19741,-0.0020779,-0.1948,-0.26505,-0.093958,0.16604,-0.13559,-0.20982,-0.16202,0.021088,-0.22937,-0.043325,0.17626,0.063567,-0.0060663,0.047144,-0.0031822,0.083131,0.1549,-0.085461,-0.20354,0.26048,-0.25975,0.035558,-0.14747,0.092998,-0.017987,0.45334,0.18073,0.12706,0.16807,0.10963,-0.058072,-0.14048,-0.080758,-0.29438,-0.099781,-0.11421,0.1818,-0.20009,0.24396,-0.2355,0.03809,-0.21025,-0.54577,-0.2215,0.17305,-0.39137,0.16632,-0.15323,-0.017121,0.14558,0.088946,-0.12507,0.20201,0.23273,0.26229,-0.31515,-0.084419,-0.44897,0.10988,0.333,-0.0028128,-0.14822,-0.1062,0.28547,0.12191,0.090903,0.21058,0.038245,-0.082974,0.057868,-0.15128,0.31328,-0.10536,-0.19128,-0.30758,0.21882,-0.34351,0.029806,-0.050557,-0.10595,0.34642,-0.25374,0.050574,-0.20898,-0.15641,0.43617,0.11943,-0.030889,0.017132,-0.048608,-0.321,0.14885,0.029604,-0.13829,-0.34267,0.14076,-0.040611,0.15688,0.039209,0.5339,-0.20641,0.21562,0.25782,0.16658,0.042914,-0.12207,0.20049,0.19399,0.26554,-0.081418,0.11649,-0.35958,0.083908,0.17931,0.31752,-0.24609,-0.20229,0.31674,-0.082181,-0.067722,-0.094225,0.24084,0.090119,-0.12947,0.18887,-0.52155,0.26593,0.10024,0.20905,0.011437,-0.26933,0.4365,0.063963,0.31633,-0.029897,0.11117,0.12875,0.049947,-0.17637,-0.013959,-0.11602,-0.070946,-0.132,-0.15766,-0.15742,0.033087,0.0080901,0.037014,-0.076773,0.10421,0.22611,-0.27287,-0.066794,0.27615,-0.33303,-0.016302,0.069997,0.016954,-0.024575,0.10179,0.035799,0.027408,-0.34859,0.062157,3.6595e-4,0.091255,-0.12904,-0.0035365,0.10869,-0.021749,0.051941,0.3012,-0.29925,-0.099542,0.16811,0.071185,-0.1651,0.41564,-0.13866,0.20333,0.071902,-0.010006,0.26162,-0.17166,-0.21382,0.19027,0.022729,0.036788,-0.1692,0.034915,0.62149,0.70831,-0.26735,0.26473,-0.41905,0.12685,0.36459,-0.086862,-0.098254,-0.086454,0.1014,-0.18548,0.14218,0.016245,0.18682000000000001,-0.24001,-0.074081,0.12727,0.13956,0.014534,-0.28875,-0.034016,-0.039211,0.097699,-0.069664,-0.0042034,-0.21465,-0.29838,0.10289,-0.055028,-0.28165,-0.14711,0.054399,-0.22607,-0.11858,-0.11746,0.066673,-0.12664,0.18156,0.022232,0.16099,0.26535,0.010456,-0.51321,-0.028943,-0.16478,-0.27922,0.20847,-0.095219,0.037601,-0.12643,0.010906,0.011854,0.32237,-0.19775,-0.2566,0.13482,0.029696,-0.10317,-0.0054422,0.39954
hands,0.060708,0.25442,0.027336,-0.1543,-0.15145,0.054067,-0.13703,-0.085796,-0.10301,0.17777,0.14365,0.15176,-0.22442,0.21654,0.014862,-0.41259,0.16053,-0.21146,0.036393,-0.019995,0.16352,0.24659,-0.18169,-0.11626,0.31832,0.092363,0.012885,0.11477,0.29422,0.0066715,0.16697,-0.5262,0.070377,0.050506,0.21672,0.076279,0.09433,-0.0088308,-0.22441,-0.052996,-0.039854,-0.35731,-0.10476,0.12306,0.058018,-0.22405,-0.089315,-0.22349,-0.27149,-0.31406,-0.18556,-0.023855,0.15262,0.14155,0.21518,0.016769,0.18441,-0.32094,0.10937,0.27106,-0.10463,-0.24813,0.090141,0.1611,0.17677,-0.30112,0.29957,-0.033549,0.30038,-0.1416,-0.04986,-0.065541,-0.17026,-0.12705,0.24166,0.49626,0.17428,0.13349,7.0343e-4,-0.084208,0.24541,0.049508,-0.22442,-0.044479,0.0041677,0.0019912,-0.093437,0.10582,0.0012144,0.11828,0.3193,-0.082103,0.078874,0.26481,-0.13153,0.069615,-0.065701,0.1942,0.037785,0.19548,-0.094513,0.21659,-0.044528,-0.010445,-0.38479,-0.19842,-0.062962,-0.057168,0.036301,-0.13469,-0.10156,-0.13769,0.094377,-0.042694,-0.019396,0.36923,-0.09028,0.05268,0.070969,0.011211,0.17165,-0.078786,-0.28133,-0.15199,0.1864,-0.43732,0.075347,0.058991,-0.002481,0.12455,-0.18337,-0.21369,-0.24924,-0.30394,0.26895,-0.0018715,-0.044785,-0.12567,-0.28325,-0.028646,0.098196,0.27306,0.32506,-0.30517,-0.18054,0.11456,-0.24483,0.23207,0.30091,9.0399e-4,0.032815,0.31351,-0.065767,0.24513,0.018818,-0.2578,0.37768,0.13163,0.18049,0.32798,-0.10509,-0.09835,0.020189,0.13009,0.13998,-0.071751,0.25775,-0.30946,0.0090609,-0.13612,0.19407,0.36386,-0.26001,0.046667,-0.064875,-0.036622,-0.36601,-0.093682,0.017118,-0.4421,0.25739,0.057236,-0.022011,0.035423,0.33329,0.23406,0.14262,-0.035697,-0.35042,-0.027454,-0.16988,-0.32742,0.22466,-0.18814,0.37581,-0.12998,0.057514,0.10887,-0.1246,0.2346,-0.12679,-0.17715,0.25054,-0.010716,-0.0313,0.075442,0.14376,0.00329,-0.15115,0.13936,0.15804,-0.087803,-0.03841,-0.117,0.038987,-0.28381,0.1684,-0.1608,0.088796,-0.3809,-0.094824,0.075897,-0.15687,0.029413,-0.079429,-0.10198,0.36941,-0.49727,0.01238,0.092255,-0.092906,0.17109,0.03523,-0.15096,-0.071173,0.054338,-0.11452,0.11698,0.07913,0.29589,0.42688,-0.13813,-0.071599,-0.3428,0.61391,0.063057,-0.29618,-0.095737,-0.16112,-0.267,-0.082447,-0.47526,0.032113,0.33024,0.080284,-0.088545,-0.16586,0.36664,0.098463,-0.040712,-0.082442,0.1,0.10537,0.25863,-0.058738,-0.03561,-0.24555,0.097488,-0.56157,-0.27537,0.10739,0.10697,-0.21823,-0.54131,-0.091546,-0.083553,0.39004,0.067527,0.15277,0.28115,0.0055606,-0.16773,-0.20725,-0.023711,0.027973,-0.039649,0.48584,-0.14053,-0.16398,-0.075252,0.056757,0.31293,0.16896,0.24646,-0.11896,0.3652,0.29747,-0.21882,-0.083483,0.49792
low,-0.16288,0.20784,0.033697,-0.11911,-0.24907,0.24739,0.20968,0.4071,-0.41093,0.083032,0.09038,-0.28616,-0.045567,0.1356,-0.14496,-0.02031,0.18043,0.0036767,0.3179,-0.017429,0.23157,0.74277,0.62432,0.019284,0.24033,-0.011971,0.043562,0.12957,0.5279,-0.48702,0.0083223,-0.44632,0.044649,-0.19736,0.28677,-0.021858,0.26532,-0.073753,-0.3112,0.077601,0.32785,-0.33687,-0.080188,-0.14271,0.048506,-0.2302,-0.36659,-0.49851,-0.092435,-0.10398,0.094172,-0.4465,-0.19021,0.21454,0.050131,-0.39472,-0.17957,-0.17625,0.15616,0.09474,0.15964,-0.22906,-0.16775,0.031143,0.25233,-0.016399,0.27948,-0.22674,0.66401,-0.24501,-0.21832,-0.18948,-0.0298,0.16354,0.22246,0.022672,0.20638,-0.094002,-0.062545,-0.18652,-0.1986,-0.048718,-0.038496,-0.069411,0.068956,-0.27462,0.033994,0.16032,-0.10808,0.32333,-0.16527,-0.31086,-0.18857,0.22677,-0.28939,0.2611,-6.9726e-4,-0.11258,-0.10033,-0.034137,6.8633e-4,0.16162,0.084419,0.38083,-0.26814,-0.35185,-0.41376,-0.13813,0.072084,-0.27437,-0.10601,-0.187,0.065448,0.051058,0.28156,0.27493,0.1429,-0.20542,0.10774,0.27553,-0.026556,-0.078899,-0.1104,-0.13167,0.021526,-0.08395,-0.26833,-0.3245,-0.23643,0.18445,-0.28985,0.048871,-0.26511,0.011691,0.11356,-0.17006,0.18882,-0.19013,0.082233,-0.28217,0.49623,0.25363,-0.075338,-0.15412,-0.26317,-0.092657,0.39659,0.059691,0.40179,-0.22516,-0.042919,0.14636,-0.079483,0.27585,0.34256,-0.10148,0.24654,-0.16458,-0.13501,-0.15388,-0.14796,-0.055802,0.226,0.020791,-0.10572,0.10334,0.17152,-0.11126,0.026974,-0.45073,0.13765,-0.089529,-0.028385,0.1326,-0.32806,0.044999,-0.25286,-0.086998,-0.32455,-0.54243,0.35904,0.3824,0.18418,-0.3759,-0.10796,-0.026004,0.14653,0.099606,-0.14609,0.24952,-0.19644,-0.13574,-0.25687,-0.14606,0.098452,-0.018769,-0.23817,0.070787,-0.19245,0.12238,-0.070224,-0.086335,-0.13313,-0.38012,-0.048165,-0.10635,-0.29302,-0.030892,-0.27000999999999997,0.071519,-0.20699,-0.27093,-0.090273,-0.13001,0.029169,-0.058693,0.24536,-0.099285,-0.38125,-0.23605,0.28157,-0.17527,0.0022586,-0.094199,-0.066031,-0.13435,0.47758,-0.47217,0.25248,0.10434,0.0012658,0.2943,-0.20632,-0.019112,-0.17611,0.091759,-0.048441,-0.12166,0.45901,0.33194,-0.05065,-0.12736,0.18886,-0.090881,0.10756,0.021256,-0.133,0.0087349,0.14322,0.28423,-0.13532,-0.12545,0.12206,-0.025001,-0.24061,0.081219,-0.041574,0.38095,-0.071003,0.30666,0.11094,-0.35412,0.11337,-0.047748,0.055201,-0.25608,-0.42921,0.01921,-0.28605,-0.040302,-0.32791,0.24092,-0.0090356,-0.066823,-0.35992,-0.089554,-0.13587,0.098617,0.41057,0.30647,0.15633,-0.019207,0.0055921,0.10002,-0.049337,-0.080979,-0.056317,-0.0071392,-0.21015,-0.10779,0.10158,0.072813,-0.084005,-0.38368,0.20263,-0.14531,0.42222,-0.14028,-0.28248,0.36311
red,-0.12606,0.03813,-0.17082,0.30232,-0.3117,-0.32195,-0.088807,0.30665,-0.27196,0.11253,0.078699,-0.26949,-0.10376,0.19523,0.040647,-0.15082,0.34958,0.248,-0.10744,-0.024506,0.33348,0.16987,0.13587,0.043147,-0.142,-0.29925,-0.417,-0.22366,0.76045,-0.082976,0.057393,-0.27735,0.59332,-0.6808,0.29566,0.077442,-0.65561,-0.29781,-0.11772,0.24065,0.1403,-0.8398,0.2031,0.095401,0.029493,-0.35271,-0.023132,-0.46547,0.15019,0.0075336,-0.42379,-0.25961,0.042916,-0.35944,-0.097455,-0.18925,-0.19969,-0.21402,0.076405,0.1536,0.27854,-0.19882,0.14932,0.37239,0.077344,0.44472,0.38371,0.29918,0.42496,-0.37118,0.37185,-0.10027,-0.15272,-0.40676,0.18269,0.63327,-0.13245,0.023979,0.048537,-0.28771,0.27092,0.063019,-0.76137,-0.082716,0.015326,0.045936,-0.033262,-0.28315,0.22508,0.24539,-0.15163,-0.66717,0.19061,0.2036,-0.38009,0.088122,0.19451,-0.0040598,-0.29394,0.22405,0.26012,-0.016284,0.15192,0.19019,0.0085526,-0.064551,-0.14974,-0.3818,0.27411,-0.33643,-0.15909,-0.11529,0.31365,0.20587,-0.31636,0.2489,0.074929,0.15629,0.05989,0.3869,-0.070972,0.029339,-0.38014,-0.36361,0.15071,0.012311,-0.065326,-0.25544,0.1728,0.23976,-0.85263,0.060011,-0.27593,-0.21529,0.28513,-0.27834,-0.23004,-0.092621,-0.24417,-0.4527,0.51094,0.25849,-0.10024,-0.42304,0.18069,0.18453,0.40561,0.1707,0.68804,-0.31477,0.17814,0.42281,0.57542,-0.15924,0.14378,-0.30564,-0.066287,0.23037,-0.0037987,0.67522,-0.31137,0.06583,0.441,0.29986,-0.30294,-0.34588,0.18847,-0.12194,0.029063,-0.18267,0.33211,-0.03165,-0.449,0.026297,-0.42724,0.16337,-0.19112,-0.037243,0.16654,0.16413,-0.13522,0.34553,0.21853,-0.10721,0.36642,0.336,0.3819,-0.17884,-0.42191,0.11994,-0.16917,0.23741,0.23414,-0.31726,-0.083995,0.19543,0.16207,0.11425,-0.095437,0.10293,-0.67886,-0.2429,0.68119,-0.57061,0.4049,0.044376,-0.20499,0.064228,-0.14514,0.072952,0.18258,0.013879,-0.08855,-0.18658,0.067262,-0.04429,0.27062,0.16431,-0.26233,-0.19483,-0.056169,-0.54828,0.022883,0.28608,-0.28645,-0.075132,-0.11573,-0.45997,0.21142,0.1956,-0.18944,0.33545,-0.31995,0.012462,-0.054279,-0.1028,-0.29601,0.087496,0.52393,0.59153,0.32887,-0.031682,-0.046764,-0.43145,0.24288,0.13576,-0.23574,-0.089192,0.044249,0.042854,-0.0054375,-0.23355,-0.31501,-0.29238,0.40498,-0.16941,-0.16696,0.010145,-0.41074,-0.2629,0.13708,0.29964,-0.39462,-0.1863,0.22328,-0.28578,-0.18011,0.44858,-0.5465,0.090639,0.21617,0.18228,-0.59913,-0.050314,-0.20692,-0.44356,0.18412,-0.092548,0.21426,0.60696,0.46658,-0.18795,-0.47005,0.18179,-0.2464,0.030532,0.18121,-0.40516,-0.23465,0.044607,-0.044424,0.47561,0.072079,-0.23212,0.24737,0.11065,0.47702,-0.12413,-0.42404,0.17832
feet,-0.21884,0.36388,-0.06931,-0.056291,-0.081863,0.029051,0.10551,0.29581,-0.035489,0.086233,0.084391,0.051067,-0.32071,0.29012,0.064253,-0.4387,0.37673,0.0056467,-0.044516,-0.32608,0.04204,-0.01674,-0.1722,-0.25866,-0.048952,0.21881,0.089584,0.53543,0.091296,0.28355,0.099156,-0.40412,-0.24798,-0.12866,0.16806,-0.14753,-0.046012,-0.0033784,-0.065901,-0.014173,-0.23672,-0.25101,0.08023,0.056898,0.019313,-0.59654,-0.090195,-0.55782,-0.10756,-0.27741,0.028959,-0.44906,0.2825,-0.24306,-0.021243,-0.079861,0.041424,-0.3393,0.10002,0.46377,-0.063901,-0.014369,-0.12811,0.14597,0.086185,-0.14749,0.11307,-0.26962,0.34234,0.098779,0.11511,-0.12714,-0.0078295,-0.16859,0.4506,0.14844,0.48704,0.24034,-0.0064587,-0.17401,0.14539,0.19228,-0.023266,-0.020441,-0.32191,0.19632,-0.051448,0.1134,-0.047367,0.032423,0.36311,-0.14642,0.06166,-0.21634,-0.24968,0.11986,-0.32355,-0.06276,0.15727,0.072081,-0.1463,0.54631,0.21935,0.17117,-0.32602,-0.015032,-0.14175,0.064128,0.13834,-0.079208,0.07358,-0.12525,0.23185,-0.24313,0.20468,0.12362,-0.012797,0.12965,0.12608,-0.12814,0.49895,0.060344,-0.21453,0.041757,-0.13443,-0.11258,0.047629,0.31154,0.090588,0.33608,-0.46293,4.7641e-4,0.0060645,-0.16509,0.29715,0.11013,0.017731,-0.10954,-0.25482,-0.25317,0.18344,0.11148,0.3531,-0.35703,-0.019796,-0.061685,-0.032313,-0.023875,0.32073,-0.051149,0.14043,0.012366,0.03816,0.11351,0.27283,0.12537,0.35339,0.34051,0.30854,-0.27877999999999997,0.12059,0.25281,-0.20103,-0.10978,-0.075526,0.15647,0.40358,-0.18833,0.1774,0.016686,0.49415,0.32643,0.033942,-0.076819,0.038789,-0.016192,-0.28906,-0.10845,-0.039538,-0.45794,0.48375,0.24301,0.011712,-0.031379,0.24318,-0.060923,-0.13268,-0.052637,0.11144,-0.20588,-0.28291,-0.19674,-0.12132,-0.20503,0.14316,-0.14552,0.14907,0.27259,0.072676,0.33723,-0.092993,0.17399,-0.0063221,-0.27613,0.11312,0.40161,0.15114,0.36843,-0.13947,0.013036,0.0049254,-0.24101,0.047329,0.0026426,0.041373,-0.3035,0.3265,0.25143,-0.14042,-0.27521,0.18675,0.12994,-0.046703,-0.095955,0.11411,-0.33337,0.12658,-0.3002,0.28024,-0.14082,0.035705,0.20226,0.14805,-0.15286,-0.11205,-0.028656,-0.30571,-0.040064,-0.084933,0.30056,0.022062,-0.017016,0.14053,-0.21868,0.79151,-0.042292,-0.18543,-0.19697,-0.16563,0.21321,0.028286,-0.20482,0.17114,0.17682,-0.068683,0.075224,-0.097844,0.2977,0.20879,-0.068762,0.08274,0.18893,-0.12671,-0.16098,0.062867,-0.075011,-0.27238,-0.15111,-0.40661,-0.13193,-0.082569,-0.16345,-0.083995,-0.39397,-0.59875,-0.23293,0.0065526,-0.026791,0.16971,0.45843,0.093841,0.15656,-0.29559,-0.080926,-0.18209,-0.12711,0.39644,-0.091347,-0.24464,-0.16086,-0.011082,0.28556,0.16885,0.021744,-0.060706,0.19716,0.18857,0.022344,-0.39216,0.16786
short,-0.3231,0.18173,0.093792,0.048377,-0.21138,0.12015,-0.33232,0.30554,0.10393,0.1807,0.11538,-0.23267,-0.07968,0.17226,-0.039555,-0.11974,0.085912,0.23302,0.23579,-0.1571,0.25822,0.5185,0.36826,-0.29313,0.20296,-0.23708,0.0074597,-0.0064826,0.43906,-0.078772,0.22029,-0.31917,-0.13554,-0.1456,-0.099492,0.068686,-0.1534,-0.23027,-0.082582,0.0056015,0.0035226,-0.056114,0.055713,-0.1724,0.06525,-0.37275,-0.029956,-0.12951,0.15151,-0.079141,0.01359,-0.055934,-0.016738,0.15858,-0.11329,0.079689,-0.047398,-0.0082968,0.066722,0.21302,0.01595,0.0073321,0.1487,0.056413,0.090128,0.027254,0.27037,-0.014668,0.20106,-0.18705,-0.23032,-0.065943,-0.31754,0.026258,-0.065448,-0.047322,0.24471,0.0083361,-0.20139,-0.1115,-0.2625,-0.2404,0.01435,-0.1104,0.014615,-0.013175,-0.0013763,-0.11355,0.19122,0.11978,-0.11977,-0.097765,-0.041024,-0.14393,-0.3875,0.15683,-0.018635,0.14871,0.14868,-0.070339,-0.18078,0.20545,-0.062856,0.23886,-0.23337,0.12829,-0.19643,-0.068504,0.14153,0.048755,-0.14568,-0.071454,0.30488,-0.10298,0.055386,0.16107,0.33004,-0.093409,0.28982,-0.14611,0.20319,-0.073237,-0.04291,0.059894,0.34535,-0.070341,-0.026837,-0.015153,-0.42306,0.16275,-0.30739,-0.027199,-0.13613,-0.070676,0.21539,0.13834,-0.11182,-0.062987,-0.10555,-0.19262,0.15567,-0.24482,0.19853,-0.12579,0.075535,0.34465,0.080037,0.10383,0.1864,-0.24078,0.1011,0.14069,-0.0065599,0.087839,-0.0020673,-0.034054,0.336,0.26709,-0.12168,-0.0066432,-0.041696,-0.025541,0.089496,0.031778,-0.035979,-0.016659,0.097488,-0.081558,0.010973,-0.016538,-0.10215,0.026572,0.17524,0.26021,-0.38281,0.029206,-0.045546,-0.0020626,0.11814,-0.34491,0.18002,-0.01182,0.23115,0.20221,0.25077,0.22405,0.17954,0.060113,-0.17842,0.097814,-0.13624,-0.051647,-0.28094,-0.17096,0.33034,-0.083473,-0.16063,0.44686,-0.066269,0.1401,0.011018,0.13149,-0.071789,-0.4638,-0.029677,0.057096,-0.34254,-0.07025,-0.23929,-0.16056,0.1431,-0.13783,-0.085248,-0.13318,-0.0050373,-0.089414,0.21647,0.21819,-0.026911,-0.32244,0.21079,0.21158,-0.090155,0.10126,0.055495,-0.023447,0.50968,-0.10676,0.043523,0.15048,-0.26209,0.31285,-0.23862,-0.025002,-0.1557,0.16222,0.027635,0.17584,0.18032,0.20017,0.30781,-0.17333,0.1231,-0.28293,0.18758,0.035485,0.099098,-0.061951,-0.16123,-0.078654,-0.20779,-0.17384,0.1271,0.09597,0.10834,-0.20131,-0.16886,-0.22399,0.11156,0.062618,-0.033116,0.003011,-0.024012,-0.036447,-0.22621,0.029218,-0.02702,0.1843,-0.13819,-0.13199,-0.21868,0.22625,0.041214,-0.30869,-0.45974,-0.049159,8.9389e-4,0.071232,0.26356,0.032207,0.060462,-0.022071,-0.18708,0.011652,0.1692,0.013056,0.1768,-0.41058,0.11603,0.16094,0.52471,0.23213,-0.026741,0.11945,0.23294,0.16271,0.0992,-0.34821,-0.45531,0.122
hair,0.22272,0.37234,0.30239,-0.097064,-0.14323,0.44641,-0.22984,0.21005,-0.14473,0.14959,0.10572,0.0061364,0.14865,0.17521,-0.10487,3.8687e-4,0.26545,-0.023979,-0.28407,-0.28808,-0.027792,0.22668,0.27852,-0.10135,0.21368,-0.057906,0.042906,-0.065119,-0.13357,0.23188,0.27025,-0.43092,-0.05771,-0.29354,0.093205,0.090989,-0.02491,-0.15069,-0.047971,0.0042483,-0.15953,-0.26364,0.077497,-0.24782,0.25113,-0.26393,-0.13653,-0.32183,-0.027934,-0.10045,-0.070539,-0.24197,0.38903,0.09056,0.07798,-0.075942,-0.15335,-0.0062692,0.046494,0.34015,0.30719,0.070154,-0.33387,0.14666,0.12562,-0.044254,0.063579,0.09371,0.27914,-0.28055,-0.24446,0.13457,-0.21844,0.065687,0.21999,0.37326,0.23744,0.047559,0.042802,0.23076,-0.0026695,-0.10807,-0.0075024,-0.49546,0.11564,0.14635,0.13567,0.070631,-0.12193,-0.05571,0.012092,-0.48229,-0.0090918,0.52705,-0.26588,-0.013172,-0.27235,-0.031232,0.10065,0.11319,0.17355,0.13849,-0.082052,0.10661,-0.40543,0.18653,-0.33833,-0.20822,-0.14111,0.14735,-0.12639,0.13227,0.16602,-0.21253,0.28855,0.2759,0.10112,-0.15619,0.21561,-0.17484,0.29959,-0.13456,-0.24236,-0.19112,0.13169,-0.65031,0.14051,0.30174,0.14317,0.28748,-0.20008,-0.014896,-0.13922,-0.5305,0.15407,0.096265,-0.037446,0.087739,0.019299,-0.10892,0.33939,0.059712,0.12064,-0.33925,0.10776,0.16379,-0.22515,0.20214,0.49199,-0.16924,0.15298,0.14401,-0.1305,-0.022037,-0.1206,0.093812,0.27931,0.15186,0.12213,0.19916,0.0056013,-0.10837,0.085313,0.15096,-0.20984,-0.22914,0.030967,-0.26216,-0.061381,0.13081,0.11467,0.22611,-0.17605,0.1548,-0.72003,-0.15921,-0.15149,0.080877,0.22859,-0.13723,-0.067559,0.26465,-0.0027311,-0.11667,0.46473,0.31469,-0.27895,0.14977,-0.06186,-0.092652,-0.049632,0.031297,-0.23345,-0.47921,0.30875,0.09904,-0.07284,0.35058,-0.046917,0.35602,-0.010013,-0.31462,0.10229,-0.34417,0.03372,0.10938,-0.065493,-0.11773,-1.7602e-4,0.027389,0.1673,0.25298,-0.075671,-0.02556,0.15249,-0.20775,0.070461,0.10689,-0.080162,0.017966,0.1825,-0.30421,-0.44826,0.19006,0.10532,0.22402,0.36278,-0.13798,-0.23509,0.14978,-0.12997,0.077431,-0.020643,-0.19675,-0.13886,0.36111,0.030001,-0.30111,-0.21031,0.48184,0.57725,-0.048949,0.36479,-0.077721,0.24942,0.36143,-0.53597,-0.3164,0.33612,-0.093619,0.084086,-0.47378,0.23234,0.19994,-0.13213,-0.10788,-0.15135,0.076526,-0.019076,0.095577,0.1784,0.26239,-0.32823,0.17807,-0.042541,0.36848,-0.28521,-0.061998,-0.60567,-0.16407,0.21424,0.032785,-0.16264,-0.5553,-0.2311,0.043481,0.089758,-0.31512,-0.0037753,0.080479,0.19431,0.23821,-0.37282,0.092511,-0.10909,0.14313,0.51886,-0.15561,0.070374,-0.087583,0.48578,0.33573,-0.059291,0.10462,-0.13335,0.41861,0.46808,-0.16238,-0.46326,0.08974
ground,-0.22981,-0.098059,-0.095576,-0.09544,-0.040866,-0.019432,-0.1038,0.29297,-0.27925,0.24697,0.052811,0.16881,-0.25707,-0.069425,-0.12636,-0.1694,0.24499,-0.04048,0.19905,0.1415,0.065965,0.18784,-0.080871,0.041133,-0.039108,0.065584,0.13172,0.29634,0.35057,-0.1604,0.40275,-0.60555,0.27667,-0.21245,0.069359,-0.23955,-0.097904,0.12563,-0.20939,0.23406,-0.17572,-0.45635,0.16787,0.2335,-0.20361,-0.13471,-0.071587,-0.1172,-0.035722,-0.22233,-0.10226,-0.25299,0.072201,0.10343,-0.077491,-0.044796,-0.013713,-0.27986,0.1716,0.22062,-0.13587,-0.12678,0.041994,0.11589,0.071958,-0.23659,-0.046534,-0.1034,0.44938,-0.015275,-0.14934,-0.33397,-0.31322,-0.052134,0.38543,0.1524,0.32652,0.15829,-0.17226,-0.27407,-0.051889,0.016656,-0.23551,0.23401,-0.089392,0.27804,-0.084948,-0.1024,-0.21633,0.071911,0.06272,-0.35507,0.27236,-0.12045,-0.26178,0.28593,-0.14664,0.15916,0.021412,0.29136,-0.081543,0.24371,0.38948,0.3045,-0.2788,-0.062107,-0.070183,0.12211,0.38327,-0.033873,-0.16098,-0.3445,0.071489,-0.14845,0.21321,0.4202,0.087943,-0.057067,-0.0017645,0.018785,0.15834,0.039469,-0.071486,-0.20336,0.011742,-0.10891,-0.039336,-0.080284,0.1631,0.071934,-0.090348,-0.30462,-0.34964,-0.25025,-0.040882,-0.096314,0.12282,-0.27491,-0.60094,-0.13855,0.18549,0.024514,0.24354,-0.3942,-0.23338,-0.0043915,0.069943,-0.083674,0.54425,-0.13791,0.19881,0.15625,-0.064949,0.1267,0.17039,-0.15951,0.29784,0.38714,-0.1708,0.15673,0.09387,-0.0059396,-0.14457,-0.0087052,-0.17826,0.0975,0.32584,-0.19823,-0.015184,-0.30545,0.28967,0.1045,-0.067324,0.21683,-0.49186,0.20081,-0.28311,-0.27546,-0.066875,-0.4229,0.22398,0.19304,-0.03943,-0.087092,0.17604,0.21346,0.066203,-0.093562,-0.14495,0.0090468,-0.083917,0.045594,0.24773,-0.095284,0.020902,-0.42792,0.034708,0.21547,-0.22386,0.15795,-0.43436,0.0027835,0.20301,-0.3981,0.23205,0.073975,0.078371,0.18308,-0.11864,-0.020605,0.013494,0.017052,-0.041992,0.0095229,-0.20834,-0.16495,0.15514,0.36877,-0.3352,-0.29894,-0.033287,0.039353,0.016876,0.067472,-0.56286,-0.10529,0.11562,-0.15438,0.12899,-0.020453,-0.1853,0.31545,-0.16577,0.064967,-0.085385,0.037408,-0.16771,-0.29968,0.18525,0.4485,0.21994,0.13518,0.34165,-0.58643,0.37304,-0.11299,-0.10168,-0.11221,-0.11898,0.043746,-0.20089,-0.41812,0.20558,-0.010672,0.014167,0.29088,0.036577,-0.023402,0.078379,0.0046715,0.10444,-0.075789,-0.2714,-0.22526,-0.041238,-0.40369,-0.33685,-0.17083,-0.24713,-0.28096,-0.075272,0.060815,-0.022754,0.076827,-0.13129,-0.11416,-0.3379,-0.042997,0.43266,0.20002,0.26645,0.12298,-0.19019,-0.14694,-0.019157,-0.082166,0.41167,-0.14211,-0.21871,0.18173,0.060587,0.22148,0.080829,-0.31803,-0.13287,0.2613,0.10422,-0.078361,-0.35672,0.43662
single,-0.25091,0.17653,-0.03312,0.21799,-0.047417,-0.044726,-0.081438,0.039599,-0.19224,0.14688,0.084109,-0.39252,-0.20382,0.29617,-0.1957,-0.059412,-0.067745,-0.073516,-0.2204,-0.22069,0.31774,0.18322,0.23286,0.077697,-0.037176,-0.065134,0.027906,-0.11082,0.12317,-0.011887,0.21445,-0.39291,0.03006,-0.12398,-0.079145,0.046606,0.19135,-0.04177,0.12728,0.076322,-0.01511,-0.21231,-0.080575,0.13632,0.082741,-0.081921,-0.27491,-0.29731,-0.10263,0.086497,-0.16353,0.1312,-0.048379,-0.17313,0.023041,-0.033137,-0.28681,-0.17062,-0.061127,-0.073657,0.016783,0.08279,0.073259,-0.024698,0.0061111,-0.0078144,0.023595,0.049471,0.29668,-0.060507,-0.15896,-0.16686,0.036081,0.20091,0.0054637,0.24478,0.1433,-0.096632,-0.059594,-0.14699,-0.31115,0.18327,0.041272,0.072088,-0.13999,0.18901,-0.012071,-0.087103,0.11368,-0.061428,-0.088508,-0.24657,-0.19944,0.082698,-0.074531,0.25805,-0.028493,0.14646,-0.040696,0.090008,-0.080636,0.19324,-0.019509,-0.1456,-0.31703,-0.31201,-0.26712,0.034705,0.21376,0.15286,-0.36945,-0.45801,0.029235,-0.18629,0.16902,0.25447,0.18419,0.10967,0.072133,-0.1992,0.0945,-0.019292,-0.21756,-0.0028293,0.26586,-0.23492,0.15385,-0.070122,-0.36796,0.10526,-0.05179,0.079184,-0.01263,-0.034821,0.17653,-0.12847,0.039387,-0.028214,-0.10543,-0.23953,0.15135,0.32668,0.34548,0.099104,-0.11183,0.17358,0.10953,-0.067681,0.18756,0.0643,0.17577,-0.0094237,-0.047567,0.072681,0.21364,-0.099956,0.11087,-0.15903,-0.054219,0.40631,-0.010951,-0.42686,0.29312,0.18837,-0.22616,-0.19139,-0.005764,-0.29836,-0.10946,-0.32427,0.32622,-0.098646,0.04774,0.08818,-0.28745,0.083674,0.1735,-0.2599,0.20744,-0.16166,0.072903,0.042547,0.0018909,-0.052899,0.16639,0.11817,0.23445,0.1206,-0.12173,0.10561,-0.073838,0.074994,0.0051824,0.01721,0.2148,-0.038535,0.13729,0.17762,-0.17209,0.2773,0.12623,-0.018021,-0.20071,-0.27145,-0.021973,0.0068913,0.049291,-0.17083,-0.059932,0.16847,0.078893,-0.25468,-0.15708,-0.02117,0.091609,0.038955,-0.037149,0.090702,0.087028,0.0081331,0.23881,-0.40424,-0.033082,0.20688,-0.033617,-0.28142,0.39687,-0.34246,0.21519,-0.13124,0.13994,0.6114,-0.27163,0.0062133,-0.096922,-0.14514,-0.014979,-0.079819,0.096236,0.49723,0.15989,-0.12395,0.17548,-0.29328,0.098226,-0.027618,-0.045094,0.068662,-0.18704,0.11601,-0.27726,0.085053,-0.13227,-0.082122,-0.044268,0.034929,-0.15846,0.53101,0.051944,-0.12965,0.10756,-0.24365,-0.18836,-0.16901,0.052237,0.013851,0.099838,-0.16477,-0.18913,-0.13037,-0.18504,-0.27056,0.077811,0.11698,-0.35933,-0.014457,-0.11575,0.12868,-0.058021,0.303,0.15197,0.20993,-0.17258,0.012757,0.13705,-0.060916,-0.11524,-0.18859,0.0424,-0.0069888,0.14946,-0.065451,0.13624,-0.039589,0.32789,-0.0062281,0.19461,-0.1176,-0.38424,0.04954
brown,0.094678,-0.085186,-0.081203,-0.1476,0.030562,-0.2124,-0.18543,0.3814,-0.13,0.11998,0.33184,0.01048,-0.17189,-0.086962,-0.053914,0.025646,-0.0093263,0.26418,0.016963,0.041048,0.26981,0.13979,0.090578,-0.21451,-0.01533,-0.059514,0.091624,-0.027295,0.19819,-0.32943,0.41443,-0.1164,-0.0046556,-0.45467,0.15031,-0.083948,-0.0045554,-0.18605,0.26906,0.039434,0.12466000000000001,0.12979,0.33374,-0.068671,-0.20802,-0.39043,0.10783,-0.24118,0.17465,-0.35796,-0.20554,-0.11596,0.076744,0.087944,0.069902,0.10849,-0.35806,-0.17974,0.056968,0.081011,-0.060528,-0.10231,-0.11426,-0.04843,0.24768,0.098708,-0.1896,-0.072034,0.2546,0.20343,0.063536,-0.070953,-0.032085,-0.036581,0.24586,0.2936,0.23856,0.09417,0.096041,-0.13471,0.074745,-0.135,-0.30607,-0.00593,0.14125,0.015304,-0.032324,0.14153,-0.30695,-0.050619,0.062033,-0.52161,-0.18458,0.459,-0.50392,0.34524,-0.080387,0.073025,0.17148,0.16019,0.029736,-0.083044,-0.072117,0.23745,-0.047459,-0.062524,-0.27056,-0.33441,0.40451,0.043764,-0.12915,-0.15232,-0.25048,0.041777,-0.073253,-0.031252,0.020797,-0.16332,0.31105,-0.04384,0.10077,-0.28561,-0.30436,0.066081,0.16019,-0.35811,-0.22835,0.12877,0.15049,0.38059,-0.15136,-0.02929,-0.076467,-0.27023,0.51615,-0.073536,0.14533,0.012804,-0.074758,-0.21757,0.072827,-0.049552,0.079891,-0.26695,-0.051101,0.23209,-0.14831,0.20591,0.36616,-0.37224,0.11251,0.24668,0.032631,-0.30203,0.062043,0.16682,0.039087,0.3563,-0.026779,0.060955,-0.51686,-0.092315,0.16374,-0.079991,-0.046584,0.11032,-0.032324,-0.34224,-0.17107,-0.22482,0.091181,0.13595,0.01106,0.042148,-0.23509,0.37824,0.071143,-0.044971,-0.013469,-0.15734,0.071862,0.32331,0.044686,-0.36736,0.17111,0.37273,0.29033,-0.18014,-0.15666,0.022623,-0.16513,0.030413,-0.07915,0.14009,0.18891,0.056628,-0.19589,0.21041,8.912e-4,0.19017,0.024506,-0.18368,0.048206,-0.16754,0.18152,0.10901,-0.16081,-0.042416,-0.11786,0.084546,0.23526,0.11805,-0.085386,0.22076,0.10494,-0.39284,-0.10735,0.23861,0.17357,-0.47576,0.36406,0.037445,-0.017489,0.30376,-0.11406,0.07707,0.3654,-0.24901,0.2188,-0.083862,0.0083575,0.13237,9.5609e-4,-0.17852,-0.01802,-0.14122,-0.12809,-0.13746,0.23053,0.60349,0.29806,-0.25038,0.019004,-0.17805,0.05693,0.23908,-0.21845,-0.18823,-0.10728,0.014466,-0.16969,-0.25794,0.1087,0.23325,0.057105,0.036849,-0.13284,0.0091044,0.047923,-0.1436,0.030865,0.22787,-0.15227,-0.069403,0.14977,0.13245,-0.23812,0.035722,-0.32881,0.020733,0.1711,0.23058,-0.13585,-0.37449,-0.1273,-0.11347,0.0024663,-0.31056,0.19488,-0.067456,0.10772,0.068532,0.04921,-0.024955,-0.062936,-0.29431,0.15779,-0.16627,0.043928,-0.10929,0.59462,0.022127,0.026296,-0.10452,0.041733,-0.24567,0.14681,-0.22706,-0.28335,0.41062
strong,0.10546,0.23288,0.22572,0.025072,-0.13947,-0.23796,0.13866,0.323,-0.45321,0.048353,0.13833,-0.23001,-0.0032275,-0.016498,-0.3561,-0.30147,0.017862,0.26912,0.037046,-0.21947,0.21536,0.18609,0.26323,-0.4397,0.38427,-0.023544,0.1744,-0.098834,0.36021,0.14147,0.093095,-0.29974,0.28443,0.13467,-0.069639,-0.19617,0.18544,0.0045761,-0.16351,0.19451,0.39565,-0.43126,-0.012267,0.058372,0.090071,-0.21086,-0.27205,-0.1158,-0.12799,0.019712,0.035606,-0.16514,0.0013249,0.14652,-0.070522,-0.067744,-0.2443,-0.10937,0.082459,0.032095,-0.083349,-0.10061,0.024828,0.059647,-0.0077022,0.078147,0.13182,-0.36087,0.043709,0.045748,0.050233,-0.14104,0.0030323,0.013445,0.13423,0.24654,0.060925,0.071427,-0.17546,-0.077814,-0.11984,0.0019883,-0.36328,-0.056101,0.2297,-0.041157,-0.34642,0.11748,-0.018271,0.070563,0.01527,0.20555,0.065701,0.22412,-0.27764,0.34843,0.1565,0.23302,0.28187,0.051541,-0.064595,0.15264,-0.071188,-0.074477,-0.21372,0.021916,-0.15565,-0.17596,0.065812,-0.13429,-0.16301,-0.19637,-0.045399,-0.13598,0.23296,0.10222,0.24064,0.10295,-0.036465,-0.155,0.036643,-0.27965,0.10472,-0.10148,-0.060406,0.08116,0.16247,0.13231,-0.069569,0.22271,-0.02883,-0.12939,-0.15214,-0.099889,0.0094134,-0.13318,0.12294,0.12357,-0.16516,-0.23757,0.21009,0.047643,0.3058,-0.19067,-0.08926,0.15202,0.052561,0.02578,0.45662,-0.057285,-0.082429,-8.122e-4,0.13938999999999999,0.03763,0.096763,0.064711,0.20767,0.074495,0.089691,0.1563,-0.09659,-0.13208,0.18695,-0.085856,-0.080695,-0.14629,0.089435,-0.20921,-0.16054,-0.46456,0.27684,-0.029386,-0.14647,0.22672,-0.44723,-0.012359,-0.17417,0.0055685,-0.28568,-0.29654,0.29309,-0.032364,0.22663,-0.14472,-0.062945,0.13311,0.33883,0.025971,0.07136,0.29303,-0.12172,0.089267,0.04394,-0.12133,-0.055532,-0.20151,0.22738,0.15244,-0.18432,-0.10718,-0.026787,0.19811,-0.020227,-0.35767,-0.10243,0.018783,0.1006,0.11424,0.092181,0.050425,5.4965e-4,0.019471,0.27916,-0.13817,0.17059,0.077264,0.28496,0.024811,-0.25061,-0.23303,-0.047046,-0.10469,-0.1043,-0.038478,-0.113,-0.12165,0.59748,-0.21921,0.10818,0.19099,0.091636,0.39699,-0.39903,-0.054631,0.02495,0.19217,0.40117,-0.052855,0.14169,0.25859,0.47106,-0.25549,0.020196,-0.37809,0.13294,0.46286,-0.012907,-0.041767,-0.095544,0.084568,-0.25056,-0.40331,0.07289,0.086269,-0.0084041,-0.04174,-0.087064,0.31182,-0.067959,-0.17042,-0.082541,-0.31869,-0.041721,0.17773,0.063172,0.043355,0.0032688,0.20076,-0.17583,-0.23745,-0.11089,0.0038494,0.21659,-0.24211,-0.57293,0.10981,2.1853e-5,0.094611,0.24101,0.098197,0.020961,0.24641,-0.02882,-0.015485,-0.068131,-0.39626,0.12033,-0.38903,-0.052782,-0.21607,0.066559,0.16727,0.011978,0.061335,0.27227,0.25385,0.23198,-0.28998,-0.34584,0.21936
dark,-0.020293,0.23345,0.14738,0.06007,-0.037351,0.40635,0.032759,0.16454,-0.10822,0.32883,0.043188,0.11189,0.057993,-0.1158,-0.24033,-3.9563e-4,0.033137,-0.12521,0.025607,-0.22574,0.063916,0.12731,0.21094,-0.26445,-0.093082,-0.14148,0.15246,0.11037,0.30753,-0.039496,0.65183,-0.092423,-0.04962,-0.22738,0.10431,0.2467,0.23249,-0.075494,-0.075995,0.1667,-0.017407,-0.19982,0.21381,-0.0038716,0.0024463,-0.3922,-0.20857,-0.4328,0.012436,-0.14442,-0.28243,0.15011,0.43654,-0.084704,-0.080585,-0.17699,-0.11815,-0.24122,0.090053,0.13304,0.15347,0.014935,-0.04377,0.0021297,0.15085,0.13382,-0.2105,0.057546,0.2108,-0.16346,0.027352,-0.21516,0.023732,-0.099305,0.29297,0.30008,0.1518,0.042545,-0.079321,-0.054063,-0.11298,-0.054453,-0.087886,-0.21413,-0.06555,0.19018,0.043931,0.074695,-0.19781,-0.061206000000000003,-0.16024,-0.36259,-0.023606,0.22175,-0.34647,0.31668,-0.21609,0.11109,0.31858,0.16938,0.074356,0.18299,0.29396,0.25561,-0.12813,-0.042442,-0.43942,-0.14709,0.34051,0.059289,-0.22236,-0.36757,0.085113,-0.26689,0.32632,0.20415,0.14591,-0.037791,0.017462,0.23078,0.2591,-0.18053,-0.30823,-0.098555,0.17861,-0.27273,-0.084529000000000007,-0.1237,-0.12189,0.43698,-0.18496,-4.2624e-4,-0.091759,-0.16191,0.10257,0.2212,0.1378,0.2496,-0.069843,-0.28432,0.18709,-0.099728,-0.14102,-0.30638,0.14601,0.010288,0.14313,0.15409,0.32043,-0.19303,-0.088937,0.29656,0.066087,0.29107,-0.051069,0.095105,0.14992,0.24057,0.09476,-0.019465,-0.43431,0.25948,0.2184,0.18305,-0.22349,-0.13496,0.22897,-0.14945,0.19772,-0.11227,0.19814,0.41517,0.047275,0.09772,-0.34623,0.11052,0.094477,0.17957,0.067573,-0.15388,0.11773,0.28482,0.33661,-0.11815,0.045813,0.1728,0.031484,-0.027028,0.24839,0.077238,-0.092865,-0.049335,-0.20105,-0.32958,0.13163,0.15571,-0.077077,0.18566,0.026928,-0.030167,-0.12504,-0.065474,0.36658,-0.20061,0.17004,0.15768,0.090215,0.010523,0.052046,0.079934,0.13835,-0.4967,-0.14096,-0.21116,-0.015454,-0.23174,0.16,0.16109,0.022303,-0.24995,0.32524,-0.094327,-0.20481,-0.06092,0.0034594,-0.13703,0.3261,-0.39439,0.29355,0.03014,-0.1483,0.13922,-0.14791,-0.44412,-0.11031,0.19338,0.0031345,-0.21971,0.0046296,0.29586,0.48306,-0.054079,0.023864,-0.31268,0.2651,0.27784,-0.14364,-0.17911,0.058722,9.9787e-4,-0.044971,-0.09705,-0.058802,0.15042,-0.07209,-0.15424,-0.074946,-0.13604,0.10261,-0.026009,0.045375,0.10715,0.017658,0.044918,0.23716,0.20563,-0.26183,0.086249,-0.12813,-0.30587,-0.089793,0.019554,-0.21059,-0.30581,-0.17766,0.041924,-0.058549,-0.034536,0.12768,0.019593,0.071812,0.10173,-0.37297,-0.0052725,-0.10761,-0.3026,0.27767,-0.009061,0.23012,-0.062125,0.26139,0.13878,0.10895,-0.080689,-0.049036,0.038577,0.2,-0.40997,0.0058951,0.33234
blue,-0.27726,0.10746,0.098079,0.097515,-0.14992,0.22236,0.034702,0.12071,-0.128,0.20967,0.46315,-0.055535,-0.031048,-0.024349,-0.13685,-0.18503,0.13048,0.14065,0.020199,-0.26998,0.10852,-0.014306,-0.070848,-0.086007,-0.13148,-0.21511,0.092033,0.10633,0.25524,-0.099545,0.24632,-0.20749,-0.037283,-0.38164,-0.058351,0.013172,0.099194,-0.17475,-0.058832,0.23149,0.29145,-0.19672,0.23203,0.19057,-0.085833,-0.38222,-0.090244,-0.29648,-0.089511,-0.066118,-0.24425,0.092945,0.25027,-0.057329,-0.11019,-0.12581,-0.062163,-0.34659,0.14993,-0.03855,0.2147,-0.097823,-0.13588,-0.039374,0.11458,-0.061493,0.10469,0.0075964,0.12375,-0.058038,0.28228,-0.12283,-0.094266,-0.26438,0.19515,0.22161,0.035794,-0.17568,0.09824,-0.18078,0.054624,0.12124,-0.23368,-0.14938,-0.3425,0.20778,0.061203,-0.13131,-0.088929,0.35605,-0.10913,-0.35675,-0.074886,0.23029,-0.29039,0.24402,-0.30035,-0.031698,0.14442,0.23719,0.077553,0.050087,0.060245,0.11863,-0.013473,-0.0090478,-0.14196,-0.46222,0.15923,0.16337,0.087922,-0.46261,-0.033514,0.010621,0.058795,-0.033692,0.40398,0.073641,-0.19354,0.16996,0.16808,-0.28954,-0.26678,-0.25644,0.21423,-0.041064,-0.13427,-0.060554,0.090173,0.29329,-0.59604,0.037849,-0.29265,-0.22668,0.26524,0.27039,0.0085004,0.085539,-0.031829,-0.51384,-0.14848,-0.0051544,0.040153,-0.30955,0.17224,0.17289,-0.0088511,0.014539,0.20912,-0.18776,0.13071,0.30144,0.36303,-0.048547,0.19427,-0.062432,0.077515,0.27839,0.067191,-0.070846,-0.4595,0.20937,0.36024,0.13378,-0.38036,-0.19213,-0.23414,-0.16212,0.15838,-0.022426,0.057519,0.18291,-0.08441,-0.01,-0.29893,0.1879,0.14582,-0.032434,-0.15409,-0.11921,-0.052323,0.3226,0.34285,0.11428,0.10818,0.23047,0.26751,-0.35138,0.044925,0.035914,-0.095034,-0.036686,-0.11585,-0.40042,0.050943,0.27508,-0.11065,0.058537,-0.093579,0.28517,-0.13741,-0.15989,0.31935,-0.265,0.029706,0.3178,0.030346,0.030532,-0.048277,0.11528,0.065703,-0.28505,-0.16267,-0.01052,0.04513,-0.30765,0.087033,0.12433,-0.20862,-0.090526,0.35156,-0.34226,-0.12051,-0.15094,0.29311,-0.14038,0.38679,-0.57161,0.1933,-0.088268,0.15832,0.12463,-0.23879,0.1661,-0.1046,0.30469,-0.24485,-0.015123,0.1648,0.43155,0.32029,-0.017614,0.021823,-0.30804,-0.12147,0.37943,-0.049649,-0.0073934,-0.054936,-0.077056,0.14714,-0.32597,0.14321,0.09625,-0.033131,-0.1853,-0.26328,0.24493,-0.21863,0.10443,0.01771,0.10389,-0.28712,-0.0029214,-0.10441,0.060786,-0.24862,0.20012,-0.44246,-0.33735,-0.07599,0.24559,-0.40269,0.0062493,-0.49372,0.13763,0.061475,0.15758,-0.022207,-0.12007,-0.0055467,0.17051,-0.34898,-0.07747,-0.091046,0.18217,0.043187,-0.095494,-0.10541,-0.23807,-0.035785,-0.01307,0.32336,-0.063613,0.29243,0.021163,0.50784,-0.060192,-0.13238,0.38565
fine,-0.11248,0.18345,0.076096,0.12974,0.072325,-0.26224,0.063318,0.38042,-0.18056,0.2182,-0.26317,0.0026126,-0.10445,-0.12025,-0.0202,0.066341,-0.081075,0.40655,-0.14886,-0.26162,0.19262,0.36191,-0.17416,-0.074858,0.23925,0.032136,0.27611,-0.0069855,0.19571,-0.02508,0.30656,-0.22814,0.023191,-0.1521,0.26152,0.019613,0.15021,-0.0020039,-0.085367,-0.17558000000000001,0.16568,-0.36792,-0.13245,0.1762,0.091919,0.0099891,-0.078779,-0.23419,-0.011395,-0.035018,-0.25887,0.15808,-0.20955,-0.041689,-0.12792,-0.11235,-0.19381,-0.33639,0.1417,0.50622,-0.17211,-0.035239,0.065459,0.2059,0.067182,0.044561,0.20773,-0.30618,0.17439,-0.27441,-0.031166,-0.068589,-0.045336,-0.09012,0.1611,0.16025,0.2804,-0.018375,-0.0079909,-0.11874,-0.033251,0.0041104,-0.099082,-0.38069,0.13566,0.31589,-0.13987,0.13094,-0.11881,0.20205,-0.3431,-0.46343,-0.14326,0.26572,-0.30216,0.078008,-0.13382,0.033376,-0.07809,0.06901,0.1212,0.13345,-0.067079,0.12817,-0.33275,0.077738,-0.093106,-0.17226,0.29569,0.025042,-0.045469999999999997,0.11035,0.10378,0.12391,-0.056526,0.31756,0.049896,0.16985,0.3095,-0.22754,0.093987,-0.15406,-0.13946,0.031336,-0.053936,-0.14655,0.081808,0.16107,0.022298,0.22335,-0.16089,0.075643,-0.0045538,-0.15034,0.44472,-0.14828,0.030042,-0.079838,-0.11165,-0.15585,-0.075179,0.016635,0.10096,-0.40239,0.2316,0.03993,-0.084806,0.052644,0.35362,0.071043,-0.048545,-0.049615,0.094851,0.020816,0.0058033,0.039298,0.26097,0.1827,0.21685,0.058806,-0.47108,0.019133,0.15557000000000001,0.11214,-0.02742,-0.12481,0.23872,-0.12204,-0.027487,-0.27024,0.24212,0.22481,-0.30946,0.060474,-0.47093,0.31997,0.0020565,-0.079195,-0.12663,-0.16809,0.15893,-0.0075232,-0.10437,-0.044042,0.17479,0.12652,0.026513,-0.086888,-0.16146,0.19967,-0.4798,-0.069285,0.25011,-0.21503,-0.050284,-0.20007,-0.15771,0.185,-0.17436,0.099245,-0.048997,0.10085,0.11471,-0.31015,-0.14444,0.061113,-0.17945,-0.043142,-0.23482,0.059653,0.063812,-0.46132,0.085291,0.045691,0.15358,0.06205,0.1616,-0.0074084,-0.32929,-0.30045,0.24741,-0.10267,-0.13812,0.21103,-0.025179,-0.041685,0.14761,-0.15882,0.10116,-0.11739,-0.22003,0.39978,-0.33627,-0.10699,-0.050132,0.033154,0.17512,-0.23119,0.134,0.33371,0.40833,-0.19422,0.16742,-0.28441,0.15871,0.16768,-0.12142,-0.054704,-0.15339,-0.021453,-7.9446e-4,-0.35345,0.19969,0.27557,0.0086112,-0.16241,0.088289,0.33017,0.017849,0.12951,0.22492,0.0079005,-0.030414,0.1218,0.15079,-0.08373,-0.33359,0.34211,-0.21536,-0.28714,-0.11674,0.11023,-0.10523,0.093013,-0.25584,-0.11163,-0.078566,-0.17784,0.16265,0.24469,-0.041064,-0.14099,-0.070588,-0.033157,-0.12647,-0.13072,0.345,-0.52219,-0.032788,0.26592,0.26206,0.099879,-0.13106,-0.017313,0.041493,0.15841,0.45052,0.027535,-0.54684,0.049189
size,-0.19336,0.20999,-0.29483,-0.023101,-0.1044,0.0022426,0.026454,0.076965,0.022984,0.17707,0.23415,-0.13313,0.16571,0.020162,0.11138,-0.22371,-0.038198,0.025745,-0.054117,-0.44988,0.17038,0.24665,0.12176,-0.055232,0.11728,0.097851,0.16124,0.094324,0.098681,-0.15235,0.16165,-0.47067,-0.15168,-0.50623,0.064008,-0.065105,0.063666,-0.53709,-0.10773,0.098667,-0.11311,0.0037548,-0.082853,-0.080557,-0.020192,-0.40345,-0.18559,-0.292,-0.011774,-0.47185,-0.35257,0.11577,0.1833,-0.26425,-0.1791,-0.13691,-0.27454,-0.4403,0.20454,0.11006,0.12011,0.28128,0.1002,-0.11516,0.24751,-0.28925,-0.03249,-0.16105,0.34678,0.095477,0.34998,-0.45502,-0.065221,-0.060807,0.21544,0.0070308,0.28357,-0.05481,0.0075011,-0.1671,0.060118,0.24413,0.27582,-0.03913,-0.17677,-0.026794,0.33794,-0.082845,0.059784,0.17598,-0.058903,0.035941,-0.18372,0.20361,-0.31468,0.09225,-0.081626,-0.024873,0.2182,-0.011771,0.025724,0.38155,0.24554,-0.11903,-0.23031,-0.21424,-0.29003,0.030099,0.44173,0.44986,0.18577,-0.15172,-0.11552,-0.15083,-0.020748,0.118,0.091091,-0.1935,0.063729,-0.04274,-0.15078,-0.081085,-0.17309,0.051893,0.13,-0.20615,0.072617,-0.24581,0.062443,0.33089,-0.43133,0.092113,-0.022701,-0.31459,0.33439,-0.35043,-0.28431,0.071415,-0.31803,-0.25811,0.26064,0.4971,0.14348,0.046636,0.41694,0.0062201,0.12156,-0.037253,0.13695,0.35955,0.19527,0.17348,0.10883,0.15201,0.075588,-0.03735,0.073515,0.21416,-0.11644,-0.0054727,-0.11561,0.071711,0.016652,0.034553,-0.26962,-0.12714,0.34087,-0.168,0.37349,-0.32532,0.036678,-0.3315,0.039982,-0.12519,-0.45584,-0.14485,0.31101,-0.12625,-0.19032,-0.72523,0.028128,-0.020733,0.10602,0.017075,0.095885,-0.1626,-0.16442,-0.3557,-0.14597,0.090614,-0.20532,0.044282,-0.32296,-0.21611,0.29918,-0.34823,0.23399,0.14948,-0.35161,0.34839,0.10003,0.14829,0.12132,-0.4587,0.16622,-0.099504,-0.20855,-0.038862,0.38581,-0.062353,-0.11387,-0.034775,-0.27917,0.18091,0.22843,-0.13282,0.12097,-0.11921,0.050322,-0.21088,0.23266,-0.2881,-0.18609,0.30443,0.093042,0.059018,0.35524,-0.11673,0.4065,-0.23984,-0.40034,0.51275,-0.15963,0.041425,-0.064506,0.15026,0.057072,-0.014179,0.35872,0.5981,0.19078,-0.018918,0.25787,-0.1335,0.18496,0.021145,-0.12565,0.17273,-0.39101,0.022898,0.029181,-0.17655,0.0077114,0.21761,-0.36185,0.18584,-0.25776,0.058077,0.22755,-0.044719,0.16099,-0.28222,-0.14463,0.049853,0.37687,-0.20834,-0.39209,0.43646,-0.099174,0.054109,-0.010564,-0.091913,0.14244,0.061749,-0.36932,-0.24939,-0.23653,0.22705,0.16372,0.046616,0.12601,0.36888,-0.14302,0.08079,0.036174,-0.25229,0.2531,-0.20064,-0.2533,-0.2305,0.1594,-0.043128,0.019885,0.14923,0.058301,0.019121,0.18979,-0.15028,-0.26254,0.30117
arms,0.04955,0.091626,0.11206,-0.02728,-0.42964,0.29459,-0.53759,0.1805,0.20762,-0.07864,0.26598,-0.062551,-0.21784,0.14932,0.035451,-0.52285,0.024616,-0.041697,0.020635,-0.057091,0.34407,-0.0068516,0.13053,-0.25689,0.42638,-0.15743,0.062234,-0.068482,0.41738,-0.12396,0.34806,-0.43593,-0.17773,0.0011934,-0.025031,-0.085349,-0.0031058,0.042741,-0.30649,-0.053279,0.2051,-0.066681,0.0048658,0.25104,0.016995,-0.36321,0.098799,-0.0070716,-0.28546,-0.37093,-0.020802,-0.0088969,0.25595,0.0080562,0.051468,-0.29642,0.080113,-0.186,0.086724,0.19165,0.031669,-0.38287,0.092158,0.040938,0.020307,-0.015725,0.49773,0.020259,0.19768,0.10348,-0.044512,0.18838,-0.17932,-0.019486,0.29552,0.39726,0.19554,0.2976,-0.041967,-0.23712,-0.12636,-0.028434,-0.1971,-0.018991,0.01361,-0.039144,-0.16424,0.10502,-0.095465,-0.11884,0.34258,-0.012597,0.32583,0.18876,-0.067479,0.058048,-0.32798,0.031165000000000002,0.066765,-0.16633,0.14256,0.1465,-0.088358,0.16373,-0.45807,-0.017416,-0.18569,0.082504,-0.25072,0.041114,-0.18115,-0.37147,-0.004433,-0.13751,0.18104,0.21323,0.27514,0.19025,0.13039,-0.088436,0.19213,-0.039128,-0.31417,-0.038306,0.21919,-0.62139,-0.017828,0.19558,-0.046358,0.16314,0.10168,-0.072372,-0.31215,-0.22225,0.045358,0.19289,-0.018306,-0.1717,-0.083227,0.16061,0.25265,0.34237,0.52275,-0.32709,0.25293,-0.024173,-0.034776,0.10698,0.54536,-0.10853,0.19233,0.23358,0.053921,0.33874,0.25642,-0.23268,0.12387,0.084043,0.024222,-0.085883,0.15293,0.081797,-0.19035,0.25754,-0.036812,-0.26879,0.11807,-0.43728,-0.039716,0.012576,0.22438,0.40897,-0.09386,0.062906,-0.2753,-0.083734,-0.086342,-0.20869,-0.043309,-0.73311,0.30856,0.028826,0.081241,-0.092105,0.49041,0.16077,-0.13254,-0.25457,-0.26128,-0.16446,-0.17295,-0.29287,0.10787,-0.30867,0.34868,-0.47773,-0.024001,0.12729,-0.47882,0.015313,-0.13111,-0.026487,0.2968,0.13484,0.087207,0.25424,0.28548,0.065849,-0.13355,0.21212,0.084504,-0.13,0.19616,-0.12074,0.07679,-0.040646,0.029375,0.059202,-0.15665,-0.32826,-0.1492,-0.18202,-0.17067,-0.11053,0.20543,-0.25225,0.47266,-0.36097,-0.0076579,0.081541,0.27488,0.08161,0.24966,0.032484,-0.12214,0.17714,-0.074056,0.065151,0.185,0.11597,0.44861,-0.056737,0.0058964,-0.36402,0.41467,0.36776,-0.35269,-0.19421,-0.38983,-0.36128,-0.12066,-0.25831,0.44006,0.35888,0.031088,-0.23252,-0.19157,0.33365,-0.067957,-0.19212,0.090404,0.19528,0.073663,0.12537,-0.078929,0.22909,-0.24211,-0.098952,-0.22739,-0.31824,0.047885,-0.076835,-0.28728,-0.32367,-0.24582,0.068597,0.12324,0.06441,0.2916,0.17918,0.1211,-0.090586,-0.32017,0.20013,-0.13123,-0.093348,0.33654,-0.37642,-0.40264,-0.11086,-0.010205,0.42204,0.059571,0.19744,0.013411,0.53574,0.12897,-0.36078,-0.0055016,0.28664
wide,-0.0068913,0.23009,0.059102,-0.03908,-0.033488,0.15894,-0.20499,0.16724,-0.15003,0.25639,0.063208,-0.35966,-0.1369,0.15648,0.032176,-0.1851,-0.14947,0.031215,0.048896,-0.3274,0.11295,0.096292,0.11941,-0.45426,0.015085,0.025378,-0.007281,0.10743,0.46178,0.11812,-0.066556,-0.29921,-0.11272,0.017703,0.078696,-0.4945,-0.065464,0.17253,-0.051208,0.23761,0.13223,-0.1956,0.097078,0.10753,0.12423,-0.64829,-0.027654,-0.38164,0.013137,-0.2794,-0.32711,-0.030312,0.27682,-0.21354,0.04886,-0.29444,-0.11068,-0.39097,0.26137,0.14896,0.047258,-0.081331,-0.015422,-0.12368,0.11932,-0.054279,0.18621,-0.15454,0.20509,0.078627,-0.13771,-0.17569,0.18759,0.025331,0.069362,0.13054,-0.025285,0.32052,-0.18637,-0.3513,-0.18074,0.029435,-0.04298,0.023621,-0.10142,0.099493,0.010451,0.22809,-0.31708,0.070635,-0.16577,-0.024108,-0.11331,-0.056631,-0.39244,0.22565,0.0052903,-0.14584,0.50227,0.12956,0.13098,0.2337,-0.04546,0.28332,-0.51987,-0.0696,-0.31277,0.019614,0.33517,0.35095,-0.38882,-0.25275,-0.16705,0.089881,-0.019857,0.039889,0.21176,0.078629,0.2283,0.13724,0.25651,0.0028142,-0.10269,0.17402,0.47685,-0.0056355,0.15125,0.095689,-0.48372,0.16834,-0.34427,-0.065637,-0.30811,-0.17283,0.57073,-0.11684,0.085738,0.099687,-0.20227,-0.44268,0.27028,0.12076,0.30377,-0.12917,0.19936,-0.14729,0.035175,-0.21396,0.11753,-0.3259,0.15255,0.33596,0.16025,0.0013399,0.10443,-0.18943,0.12695,0.246,0.19496,-0.23145,-0.28237,0.083544,-0.1137,-0.073653,-0.45544,0.021437,0.153,0.13933,0.041987,0.24675,-0.039522,0.10287,-0.25664,0.14558,-0.30625,0.11681,0.01479,-0.08705,-0.097498,-0.4502,0.33418,0.014146,0.11086,-0.061564,0.28843,0.034234,0.25656,-0.33021,0.129,0.15461,0.014734,0.039109,-0.13068,-0.082281000000000007,0.16607,-0.26559,0.044663,0.41728,0.092823,0.10824,0.12045,0.099341,0.3786,-0.35843,0.0044484,-0.16559,0.17809,0.094115,-0.023203,-0.028035,0.036051,-0.22004,-0.10956,-0.065785,0.26226,-0.03022,-0.16567,0.32482,0.12809,-0.26652,0.02691,-0.33414,-0.15164,0.17045,-0.21781,-0.27112000000000003,0.3906,-0.029632,0.11082,0.07649,-0.39219,0.12914,-0.15062,0.14507,-0.33679,0.018287,-0.076402,-0.0792,0.10394,0.32432,-0.23249,-0.20192,0.098246,-0.15695,0.4589,-0.0051666,0.19473,0.23122,-0.089489,-0.16086,-0.10945,-0.16905,0.095671,0.29604,0.018892,0.0086191,-0.26509,0.24959,-0.089353,0.46343,0.1709,-0.15379,0.12877,0.096711,-0.17537,-0.084273,-0.37151,-0.025662,-0.015881,-0.099442,-0.1037,0.28941,0.10643,-0.22325,-0.41873,-0.047348,-0.082885,0.036949,0.0050828,0.18793,0.17262,0.050683,-0.17023,-0.059601,-0.1289,-0.21444,0.32394,-0.1657,-0.14894,-0.13278,-0.0016127,0.18105,-0.093822,0.049062,0.060424,0.042055,0.1566,-0.35371,-0.46617,0.43329
huge,-0.034247,0.29253,-0.031023,-0.082442,-0.32555,0.13745,0.0045636,0.11697,-0.29429,0.028204,-0.16495,-0.3041,-0.054688,-0.043557,-0.08833,-0.29458,0.053472,0.24358,0.015957,-0.18058,0.15019,0.23017,-0.088677,-0.46238,0.0089916,0.15535,-0.1023,0.014846,0.032508,0.0086511,0.32074,-0.37238,-0.18229,-0.25042,0.020478,-0.16347,-0.20123,-0.25903,-0.50289,0.25162,0.18017,-0.17384,0.035866,0.15871,-0.043276,-0.27358,-0.083777,-0.27282,0.024796,-0.20472,-0.40056,0.0023279,0.14797,-0.17193,-0.18173,-0.065904,-0.072126,-0.25693,-0.056108,-0.16932,0.037054,0.053176,0.2566,-0.12181,0.032767,-0.010092,-0.048432,0.018214,0.092425,0.38018,-0.050876,-0.028302,-0.071569,0.037323,0.35487,0.32632,0.23133,-0.081484,0.0334,-0.28822,-0.025728,0.3336,-0.17204,-0.010583,-0.13772,-0.20439,-0.13516,0.11274,-0.0023589,0.023126,-0.10198,-0.21328,-0.10848,0.1398,-0.42725,0.1685,-0.10402,-0.071915,0.12705,0.050623,0.053365,0.0966,0.18233,0.13865,-0.19766,-0.37222,-0.26762,-0.10358,0.027577,0.30793,-0.30326,-0.27521,0.045883,-0.31768,0.050902,-0.14087,0.20957,-0.16327,0.0036545,0.029834,-0.10828,-0.043282,-0.075938,0.20369,0.089543,-0.2626,0.066556,0.07948,-0.15789,0.23521,-0.12767,0.34592,0.037889,-0.17651,-0.076372,-0.060813,-0.1261,0.12715,-0.40212,-0.22096,0.1924,0.163,-0.058861,-0.23408,0.29414,0.023919,-0.084818,0.1914,0.19401,0.17967,0.19678,0.17232,-0.025415,0.15189,0.21018,-0.0022787,0.3617,0.013441,0.14121,-0.11013,-0.2441,0.063347,-0.088347,-0.0011566,-0.07518,-0.17786,0.041208,0.06335,0.071227,-0.2527,0.12705,0.42103,-0.24377,0.10302,-0.082119,-0.15951,-0.16234,-0.32078,-0.084485,-0.46367,0.34965,0.21376,0.065192,-0.12921,-0.092638,0.32674,0.069669,-0.27765,-0.047201,0.037697,-0.031888,0.036746,-0.23881,-0.05881,-0.014726,-0.41804,-0.034983,0.10705,-0.18651,0.24027,-0.049746,-7.1201e-4,0.11407,-0.41936,0.11432,0.12291,0.18122,-0.035116,-0.059646,-0.17399,-0.014329,-0.09039,0.03785,-0.14373,0.065477,-0.06009,0.023651,0.19709,-0.044382,-0.021428,0.02121,-0.34776,-0.058737,-0.053341,0.14343,0.024619,0.31863,-0.10465,0.098676,0.13365,-0.3291,0.15226,-0.29779,0.047503,-0.011853,0.06178,0.24205,-0.32667,0.25699,0.45901,0.18091,-0.076188,-0.11419,-0.14201,0.1122,-0.13967,0.065243,0.016866,-0.21769,-0.22261,-0.070064,-0.044254,0.011872,0.083106,-0.30114,0.023737,-0.10579,0.28778,0.2932,0.038067,-0.0025161,-0.21884,-0.10692,0.082309,-0.21191,0.0098067,-0.10507,0.070141,-0.040023,-0.13428,-0.12322,0.07336,-0.10721,-0.084288,-0.51405,-0.14299,-0.096464,0.043314,0.35274,-0.17586,-0.034538,-0.075761,0.018986,0.036941,0.030239,-0.18116,0.0041337,-0.066792,-0.16888,-0.06979,0.24737,-0.088919,0.08046,0.38273,0.24345,0.0062147,0.21386,-0.41169,-0.27231,0.28957
skin,-0.010153,0.33986,0.21964,-0.056211,-0.16877,0.030486,0.0060821,0.023876,0.19057,0.1482,0.12682,-0.075985,0.17671,0.019059,-0.091386,0.039855,0.10734,0.0031826,0.048747,-0.010529,-0.18438,0.18162,0.17829,-0.18623,0.39652,-0.15119,0.44103,-0.02423,-0.16347,0.14481,0.34123,-0.46258,-0.15646,-0.26695,0.24778,0.26851,0.16183,-0.21306,-0.22641,0.41934,0.026874,-0.25025,-0.1983,-0.081862,-0.050239,-0.14691,-0.32666,-0.39353,-0.091131,-0.12965,0.15352,-0.051904,0.34564,-0.16876,0.11198,-0.088865,-0.036121,-0.36113,0.40144,0.44461,-0.010422,-0.31722,-0.39856,-0.10519,0.27221,-0.073516,-0.15952,-0.0084864,0.4269,-0.31635,0.075598,-0.11578,-0.087842,0.33094,0.39508,0.40052,0.2,0.021714,-0.16918,0.30204,-0.17371,-0.11719,0.2013,-0.14409,0.19036,0.19169,-0.051357,-0.087735,0.10424,-0.070459,-0.10703,-0.47636,-0.094704,0.52537,-0.29333,-0.057274,-0.14999,0.12203,0.012883,0.16087,0.2294,0.17543,0.13956,0.41988,-0.48155,0.0030088,-0.15785,-0.119,0.23113,0.12505,-0.13264,0.083634,-0.17311000000000001,-0.27903,0.26636,0.35492,0.1157,-0.15744,-0.0149,0.036989,0.17375,-0.030184,-0.36179,-0.18975,0.13687,-0.49555,0.032533,0.36698,0.39967,0.65387,-0.36469,0.10735,-0.10939,-0.15945,0.17319,0.043146,-0.47081,0.23784,-0.22765,-0.17615,0.26108,0.18806,-0.043386,-0.32444,0.016666,0.12804,-0.30728,-0.01111,0.73077,0.19491,0.21981,0.17591,0.036377,-0.11376,-0.1612,0.1287,0.32079,0.41757,-0.054479,0.19039,0.092163,0.22056,-0.0040421,-0.089976,-0.21654,-0.089604,0.26949,-0.21919,0.014906,-0.18282,-0.17991,-0.0056762,-0.25968,0.18091,-0.42714,-0.11326,0.10074,0.091279,0.20917,-0.30123,0.072808,0.27669,0.16623,-0.080176,0.27378,0.1218,0.025757,0.059517,0.15266,-0.27699,-0.17544,0.080368,-0.15746,-0.32247,0.13928,0.089615,-0.13026,-0.027231000000000002,-0.19125,0.016681,0.10447,-0.12412,0.13534,0.11371,0.024287,-0.045457,0.095686,0.37554,0.15519,-0.025457,0.21335,0.033382,0.22142,-0.063934,0.21297,-0.31568,-0.19947,0.091093,0.16601,-0.074619,0.21729,-0.29648,-0.13988,-0.097725,0.057298,0.090105,0.40098,-0.23923,0.02894,0.13668,0.020154,0.031901,-0.13579,-0.16973,-0.082402,0.18938,0.049338,-0.10935,-0.067928,0.58033,0.35014,0.092609,0.1614,-0.38148,0.24995,0.38072,-0.17882,0.13137,-0.0033538,-0.28517,0.091268,-0.35349,0.43887,0.22784,-0.15324,0.01865,-0.1931,0.3552,0.032453,-0.030694,0.17678,0.41037,0.069549,-0.02427,0.2068,-0.0069361,-0.22267,0.040913,-0.3834,-0.21715,0.093431,0.010263,-0.014804,-0.36865,-0.49276,0.23251,-0.12356,-0.35291,-0.13171,0.20877,0.042716,0.10268,-0.29147,-0.12531,-0.19018,0.1593,0.42208,-0.10164,-0.2789,-0.44277,0.28274,0.1846,0.25927,0.082178,-0.27128,0.52361,0.22311,0.013853,-0.054534,0.27425
fat,-0.089975,0.20797,0.066786,-0.2099,-0.0084873,0.45934,-0.054758,0.35965,-0.1154,0.16928,0.039328,-0.61201,-0.37684,-0.21056,-0.14703,-0.46523,0.42772,0.33801,0.47215,-0.056841,0.28881,0.10076,0.35953,0.01252,0.38437,-0.013274,0.16473,-0.38806,0.17742,-0.2667,0.37792,-0.30927,-0.18874,-0.33973,0.24348,0.20887,-0.33593,-0.085601,-0.088532,-0.032938,0.11397,-0.033492,0.010446,-0.3862,0.32683,-0.24299,-0.35885,-0.5449,-0.048698,-0.45774,0.23292,-0.034553,0.23792,-0.13934,0.0032263,-0.35681,0.29522,-0.50455,-0.026156,-0.021004,-0.22942,-0.46518,-0.25939,0.017734,0.25741000000000003,-0.05605,-0.070763,-0.011379,0.37537,0.07017,0.13491,-0.073396,0.41786,0.26158,0.15289,0.09568,0.39131,-0.037687,-0.060831,0.043235,0.27966,-0.063328,-0.12618,-0.27405,0.20958,0.11372,0.14579,-0.12874,0.045213,0.14932,-0.033832,-0.15699,-0.22288,0.39336,-0.50362,0.13504,-0.036559,-0.076144,0.068703,-0.029822,-0.15283,0.27005,0.075587,0.26775,-0.41826,-0.011793,-0.27584,0.033927,0.33004,-0.57113,-0.1897,0.080584,-0.15447,0.016298,0.09534,0.24466,0.32504,0.010534,-0.010598,0.2536,0.19656,0.15979,-0.75703,-0.1779,0.14032,-0.18718,-0.16901,-0.29237,0.093387,0.29799,0.10751,0.17499,-0.016613,0.096419,-0.43865,-0.1047,0.0098993,-0.28072,0.002476,-0.033468,0.67076,0.19769,0.22596,-0.41293,0.040221,-0.34651,-0.1024,0.002511,0.30843,-0.0098923,0.32831,0.017974,0.42242,0.087932,0.54558,0.39387,-0.0065819,0.34382,-0.28737,0.28922,-0.039266,0.10312,0.061167,0.040688,-0.047382,-0.23894,0.095871,-0.31898,0.41299,-0.2762,-0.080548,-0.088115,-0.38771,0.13377,-0.0084592,-0.080301,0.4101,0.10682,0.23646,-0.2756,0.045556,0.3349,0.069648,-0.53671,-0.26529,-0.10976,-0.15384,0.099544,-0.1193,-0.29872,-0.44503,0.049211,-0.17718,-0.32694,0.08702,-0.037659,-0.05376,0.26645,-0.28096,0.44623,0.023678,0.10607,-0.21246,-0.13831,0.18985,-0.28936,0.1852,0.481,-0.075757,-0.33235,0.12487,-0.15968,-0.3773,0.10357,0.34726,-0.28927,-0.29797,0.18969,0.22371,0.19129,0.2655,0.45866,-0.054464,-0.24287,0.35902,0.16142,-0.027762,-0.23217,0.36365,0.030174,-0.47549,0.49827,-0.18282,0.12979,-0.45843,0.28115,-0.013013,0.022653,0.30074,0.6959,0.25049,0.30615,-0.025909,-0.076069,0.22474,0.39839,-0.27971,0.32566,-0.20547,0.066106,0.16306,-0.12348,0.14335,0.22782,-0.059707,0.26588,0.088069,0.039861,0.0089311,0.16836,-0.029278,-0.14262,-0.1427,-0.33144,0.41156,-0.22268,-0.22985,-0.19337,-0.62653,-0.07979,-0.1932,0.1501,-0.35191,-0.05991,-0.11768,0.043614,0.0013226,-0.25632,0.25726,0.13556000000000001,0.37875,-0.0011962,-0.019842,0.1301,-0.46775,0.35601,0.27678,0.23272,-0.16916,-0.10577,0.13734,-0.069199,-0.067534,0.21566,-0.13984,0.23759,0.45727,0.055185,-0.39689,0.041014
sit,-0.34474,0.33854,0.091556,0.17723,-0.20807,-0.16214,-0.25872,0.087632,0.040219,0.22463,0.19021,0.15271,-0.58382,0.074197,-0.22946,-0.016114,0.27966,-0.10415,-0.038672,-0.059193,0.32136,0.26222,-0.23683,-0.10034,0.065597,-0.057422,0.045421,0.14768,0.37676,-0.083737,0.50471,-0.59718,0.092402,-0.044897,0.11247,0.11202,0.10486,0.0075488,-0.095466,-0.1102,-0.070029,-0.43332,-0.080765,0.31451,-0.082877,-0.26035,-0.28722,-0.3048,-0.2923,-0.24358,0.036705,0.27264,-0.10006,-0.041665,0.21586,-0.055206,0.23715,-0.22474,0.066604,0.18793,-0.0019938,-0.020905,0.089194,0.079266,-0.10381,-0.10873,0.23501,-0.14454,0.29217,0.3157,0.025861,0.14587,-0.11543,-0.27277,0.28234,0.32305,0.32479,-0.26579,-0.13914,-0.083873,-0.18265,-0.0082464,-0.43318,-0.11752,-0.0751,0.070667,0.11477,0.059991,-0.15374,0.11449,-0.18242,-0.031669,-0.056038,0.068845,-0.12206,0.20658,-0.31032,0.10248,0.31318,-0.32851,-0.060565,0.22736,0.0090181,0.15536,0.017069,0.034723,-0.020304,-0.44802,0.084986,-0.27822,-0.26113,-0.25635,0.052571,0.25618,-0.22017,0.22508,0.15683,-0.021828,0.32832,0.0064337,0.38242,0.07892,-0.24121,0.16827,-0.027733,-0.17028,0.020918,-0.18222,-0.0317,0.10572,0.022264,0.068493,0.0070008,-0.28395,0.15343,-0.10923,0.16084,-0.078213,-0.11673,0.23011,0.08582,0.18003,0.17546,-0.29019,-0.19074,0.021263,0.10024,0.47395,0.3134,-0.2001,0.16674,0.24988,-0.063171,-0.10739,0.17588,0.060356,0.25169,0.40246,0.14316,0.08657,-0.05488,-0.27121,0.096183,0.25001,-0.21846,0.23794,0.16542,0.039493,-0.0042449,-0.28187,0.33207,0.24676,-0.051195,0.072409,3.6338e-4,0.013208,0.10598,-0.32553,-0.1621,-0.51805,0.2675,0.1758,0.046673,0.14325,0.11431,-0.058645,0.12386,0.01816,-0.18068,-0.11402,-0.42037,0.064676,0.12724,-0.10144,0.22978,-0.16865,-0.11551,0.021064,-0.08289,0.13505,0.075795,-0.11008,0.29149,-0.090506,-0.016348,0.038667,0.03092,0.084542,-0.22941,0.0086359,0.20928,-0.35031,0.027852,0.11263,-0.054905,-0.018545,0.10704,-0.022954,-0.35489,-0.26592,0.045841,-0.20548,-0.32644,-0.10626,0.11142,-0.11808,0.44604,-0.17104,0.23418,-0.32261,-0.21779,0.34406,-0.095728,-0.36869,0.18385,-0.10942,0.26643,-0.017874,0.17968,0.50779,0.28695,0.094812,0.15489,-0.45688,0.5827,0.034082,-0.17036,-0.05991,-0.13958,-0.35079,0.030785,-0.43025,-0.28442,0.21326,-0.24702,0.025807,-0.080167,0.21422,-0.054967,-0.12269,0.1536,-0.082567,-0.0068962,0.13367,0.077815,-0.023645,-0.12943,0.023411,-0.16747,-0.12314,0.012932,0.20174,-0.21695,-0.54809,-0.46861,-0.050101,0.1359,-0.24164,0.23856,0.003063,3.7169e-4,-0.08924,-0.25597,0.098867,-0.029055,-0.26166,0.46959,0.085756,-0.33067,0.07511,0.057023,0.052335,0.19877,0.0035276,0.048132,-0.22589,0.51955,-0.080082,-0.28653,0.14345
round,-0.16347,0.11861,-0.25153,0.046187,-0.099134,0.11139,-0.22223,0.10005,-0.3086,0.20894,0.1923,-0.13388,-0.2977,0.24633,0.015113,-0.18335,-0.090476,0.36252,-0.10072,-0.085859,0.093664,0.13504,0.28672,-0.33579,0.084613,-0.088846,-0.22175,-0.19633,0.28875,-0.10692,0.49207,-0.16714,-0.17119,-0.34018,0.35316,0.062896,-0.070289,-0.081715,0.072814,0.2731,-0.035377,0.063899,0.018314,0.21659,0.083953,-0.21323,-0.52622,-0.31763,-0.16867,-0.19226,-0.18898,0.097819,0.28048,0.023839,0.0019619,0.10447,0.26586,-0.18449,0.10615,0.46229,0.13192,-0.10599,-0.15022,0.26182,0.017142,-0.20981,0.10278,0.1034,0.37853,-0.19132,-0.15787,-0.060951,0.12298,-0.44744,0.34874,0.27003,0.06838,-0.064016,-0.13295,-0.24622,0.066153,0.22088,-0.37264,-0.15075,0.066572,-0.027665,-0.009059,-0.05897,0.080247,0.28032,-0.17102,-0.24725,0.01202,0.020607,-0.019656,0.3314,0.044141,-0.030826,0.41479,0.14124,0.14212,0.18624,-0.22426,-0.079369,-0.17964,-0.1713,-0.22997,-0.15303,0.17259,0.22298,-0.13626,-0.042654,0.22152,0.092743,-0.20848,0.3274,0.22586,-0.045369,0.031986,-0.12945,0.077719,0.32318,0.093418,0.16392,0.095239,-0.074952,0.29217,-0.053714,0.039228,-0.0015035,-0.34332,0.13068,-0.27012,-0.059203,0.24841,0.19283,-0.085182,0.062925,-0.38468,-0.19174,0.20959,0.058713,-0.044918,-0.041516,0.11677,0.047916,0.10264,0.061927,0.35695,-0.043759,-0.061384,0.20615,0.08963,0.1703,0.28591,-0.1905,0.098842,0.21397,-0.10555,0.14246,-0.2697,0.12861,-0.19161,-0.026283,-0.28068,-0.22588,0.33243,-0.1742,0.23926,-0.34872,-0.1108,0.32326,-0.044615,-0.0092105,-0.079394,0.099797,0.10718,-0.22155,0.092328,-0.41716,0.30679,-0.037309,0.0078293,-0.44721,0.39854,0.14514,0.56099,-0.015091,-0.29378,0.21675,0.0061345,0.20673,-0.35834,-0.17024,0.31519,-0.22469,0.046737,0.0015013,-0.053866,0.097268,0.062569,-0.056739,0.02577,-0.15225,-0.02957,-0.14941,-0.058703,0.10377,-0.34631,0.070724,-0.051439,-0.22521,-0.11009,-0.044272,0.31642,-0.070187,0.25277,0.11337,-0.094569,-0.28069,0.1199,-0.3412,0.2447,0.38067,-0.097435,-0.33709,0.21896,-0.2746,0.063613,-0.038963,-0.12159,-0.14931,-0.24979,-0.23626,-0.1443,0.01076,0.24624,0.026946,0.25848,0.13656,0.34093,-0.32899,0.33079,-0.3925,0.16914,0.19616,-0.10915,-0.072546,-0.20616,0.024678,-0.23758,-0.47984,0.40616,0.21257,0.005429,-0.04703,-0.33564,0.050877,-0.20654,0.17663,0.20772,-0.11806,-0.040724,0.070588,0.028665,-0.40514,-0.26058,0.073633,-0.053095,-0.095568,0.062929,0.25558,0.019328,-0.16675,-0.1623,-0.14423,-0.13339,-0.14623,-0.054528,-0.10143,0.24404,0.20339,-0.29069,0.090582,-0.082531,0.17887,0.082638,-0.040691,-0.026438,0.032262,0.15094,0.14351,-0.089241,0.043289,-0.057815,0.053044,0.22836,-0.27477,-0.21294,0.12662
standard,-0.21561,0.17089,0.1306,-0.025924,0.060743,-0.17231,-0.033227,0.048072,0.024638,0.22975,0.23902,0.13264,0.080877,-0.0784,0.10735,-0.3289,-0.10859,0.079347,-0.0074694,0.049841,0.0021985,0.46588,0.18004,0.13091,0.25788,-0.15492,0.23188,-0.0042321,-0.01741,0.051874,-0.14862,-0.33445,0.22281,-0.38734,0.09322,0.10224,0.051208,-0.0038478,0.26533,0.13052,-0.24188,0.045637,-0.1671,0.095249,-0.11714,-0.31816,-0.50885,-0.22168,0.086492,-0.12432,0.0096566,0.17835,-0.0062917,-0.037416,-0.030812,-0.11996,0.052414,-0.1717,0.10675,0.0049454,0.14984,0.030313,0.18136,0.12808,-0.18964,-0.17624,0.086548,-0.3402,0.42333,0.091254,-0.033583,-0.049065,0.089765,0.34003,-0.094397,-0.18187999999999999,0.31928,-0.13706,0.10267,-0.18431,-0.037573,-0.13196,0.19914,0.01317,-0.22354,0.24292,-0.057096,-0.16907,-0.10075,0.291,-0.36077,-0.17604,-0.16002,0.072762,-0.33729,0.085504,-0.18579,0.0066468,0.026299,-0.022837,-0.079201,0.011711,-0.11068,0.11295,-0.33223,0.018928,-0.2349,-0.19123,0.37173,0.20536,-0.085359,-0.048512,-0.0087612,-0.13199,-0.023921,0.24716,-0.06182,-0.15791,-0.13254,-0.040233,-0.14507,0.056508,-0.1362,0.091749,0.23393,-0.29298,-0.022832,-0.046453,0.010368,-0.093226,-0.034454,0.1165,-0.32922,-0.25945,0.26265,0.11991,0.010933,-0.072985,-0.32361,-0.21332,0.28289,0.2135,0.097465,-0.11936,0.16477,0.32505,0.092455,0.15084,0.32057,0.029321,-0.029392,0.089453,0.068906,-0.030345,0.40718,-0.23,0.020203,0.10776,0.2293,-0.02937,-0.08614,-0.24415,0.031483,0.14481,-0.19541,-0.18457,0.20834,-0.2423,0.21307,-0.17433,0.34433,-0.32102,0.27286,-0.025213,-0.68883,0.33062,-0.077626,-0.36214,0.14866,-0.49265,0.32082,0.10246,0.19845,0.3844,0.19762,0.23803,-0.26662,0.0050731,-0.030128,0.44364,-0.31329,-0.18299,-0.085046,-0.17515,0.18749,-0.060044,-0.17968,0.21869,-0.078611,0.13877,-0.16881,0.10381,-0.037759,-0.23131,-0.14783,-0.16748,-0.10087,0.22116,0.17467,0.21534,-0.029076,-0.31739,0.057854,0.070246,0.085816,-0.18304,-0.20317,-0.067157,-0.19324,-0.074184,-0.035317,-0.20491,0.17153,-0.0031284,0.12066,-0.18986,0.45036,-0.23782,0.19527,-0.16604,-0.071163,0.39186,-0.15786,0.19224,-0.3737,0.030509,0.12945,0.059636,0.45043,0.23047,0.23552,-0.10648,0.16073,-0.29294,0.16511,-0.012948,-0.055523,0.12996,0.19586,0.16912,0.23946,-0.03032,-0.065936,-0.30613,-0.038881,0.24423,0.033051,0.43201,0.20135,0.23022,0.080566,-0.46929,-0.19031,0.08623,0.05445,-0.39383,-0.049361,0.29498,-0.12895,-0.11378,-0.1625,0.046641,0.46545,0.045097,-0.047928,-0.20857,-0.19395,0.099628,-0.12502,-0.074318,0.11979,0.022031,-0.29879,-0.090691,-0.088276,-0.11085,0.084011,-0.27841,-0.19472,-0.19472,-0.064403,0.11789,-0.014468,-0.005437,0.16828,-0.027336,0.32642,-0.028503,-0.336,-0.027125
gold,-0.10005,0.4642,0.21146,0.046285,-0.24373,0.14857,-0.30428,0.12181,-0.29293,-0.021078,0.2525,-0.22553,-0.081317,-0.33517,-0.45501,-0.24408,-0.3174,0.36171,-0.43674,-0.14699,0.24711,0.24254,0.33348,0.058474,0.0051031,-0.20894,-0.12003,0.14505,0.27289,0.082836,0.38728,0.14371,0.15069,-0.16648,-0.17111,0.17149,0.11697,-0.1388,0.17986,0.37163,0.016212,0.14066,-0.15456,0.078501,-0.24985,-0.31508,-0.21665,-0.43413,-0.048514,0.023033,-0.22045,0.13706,-0.0021538,-0.19552,-0.19752,0.073152,-0.11732,-0.24475,0.21695,0.15622,0.40307,-0.088053,-0.16813,0.20403,0.033495,0.0097833,-0.11724,-0.019875,0.2817,-0.075443,0.054325,-0.06853,0.10283,-0.3451,-1.3298e-4,0.21371,-0.0391,-0.11408,0.47396,-0.31027,0.11441,0.010695,0.039887,-0.52705,-0.079461,0.23133,-0.028265,-0.001087,0.041448,-0.055488,-0.019028,-0.17777,-0.011112,0.049054,-0.18462,-0.066234,-0.41117,-0.10049,-0.076937,0.41265,-0.12733,0.24921,0.09161,0.14784,-0.5198,-0.22332,-0.14739,-0.045296,0.5035,0.1384,0.30081,0.031128,-0.15051,0.11164,0.0023008,0.10909,0.12953,-0.1636,0.010489,0.30584,0.016221,-0.0027816,-0.13788,-0.34713,0.28447,-0.39123,0.31353,0.049399,-0.034501,0.27847,-0.4082,0.32992,-0.3581,-0.27174,0.22544,0.35006,-0.040474,0.086794,-0.14422,-0.31672,0.38184,0.15298,0.1273,-0.32231,0.13971,-0.0081309,-0.16215,0.25467,0.33954,0.02177,0.28078,-0.16582,0.084907,0.0023979,0.47654,-0.19563,0.46138,0.38641,-0.074327,0.21641,-0.38516,0.021175,0.23889,-0.022969,0.027672,-0.097551,0.13714,-0.17999,-0.08275,-0.075512,0.17089,0.14613,-0.11815,-0.050151,-0.13254,0.17952,-0.14911,-0.16597,-0.01451,-0.36775,0.51237,-0.20797,0.15396,-0.29571,0.16946,0.47207,-0.097811,-0.45937,-1.2473e-4,0.10321,-0.11589,-0.15006,-0.041342,-0.18767,0.10818,0.18408,-0.054802,0.41299,-0.16759,0.28961,-0.57922,-0.050111,0.10805,-0.12875,-0.14087,-0.12646,-0.23057,-0.34158,0.063231,-0.14667,0.11829,-0.087133,-0.12703,-0.040252,0.055265,0.0068013,-0.43649,-0.10225,0.025651,-0.10845,0.12009,-0.1562,-0.087648,-0.059279,0.50776,-0.10041,0.26007,-0.42694,-0.056142,-0.3919,-0.28745,0.25672,-0.096859,0.12337,0.19374,0.22602,-0.2963,-0.30586,0.44703,0.22721,0.26629,-0.33606,-0.013863,0.015661,0.10357,-0.033659,-0.20415,-0.24363,0.047101,-0.064916,-0.33941,-0.4747,0.17226,0.027232,0.16489,-0.099503,-0.34548,0.28431,0.13494,-0.046434,-0.10756,0.16559,-0.21143,-0.15092,-0.19177,-0.13208,-0.066735,0.032994,-0.22274,-0.28131,0.015872,-0.087981,-0.29695,-0.055659,-0.19839,0.093953,-0.079883,-0.080914,0.069353,-0.24641,0.048131,0.41113,-0.28066,-0.11191,0.0047744,0.28168,0.069864,-0.21584,-0.050076,-0.10358,0.082615,0.29337,0.0094803,-0.16953,0.44962,-0.0308,0.41048,-0.19784,-0.20552,0.15929
larger,-0.26093,0.22375,-0.26063,-0.061606,-0.18327,-0.1608,0.020087,-0.10529,-0.14419,0.059806,0.0048623,-0.16948,0.064176,0.024992,0.092677,0.052174,0.1052,0.02451,0.2216,-0.028969,-0.0268,0.044409,0.45598,-0.27034,0.26377,0.17642,-0.05066,0.17448,0.17504,-0.087459,0.22059,-0.17132,0.08972,-0.098974,0.018667,-0.14317,-0.11784,-0.27464,-0.072046,0.31368,-0.090849,0.020092,-0.26256,0.20119,-0.10754,-0.25986,-0.17973,-0.22713,0.087541,-0.12399,-0.21802,-0.014868,0.24642,-0.16562,-0.2977,0.036638,-0.15083,-0.1562,0.1788,-0.023126,0.15803,0.023956,0.17569,-0.078898,0.35344,0.22456,0.047775,0.10409,0.050336,0.068616,0.19463,-0.17153,-0.1101,0.068322,0.20334,-0.17859,-0.04831,-0.13938999999999999,0.067002,-0.10049,0.17719,0.17493,0.35304,0.19692,-0.20499,0.09604,0.15275,-0.022971,-0.10887,0.11086,-0.14617,0.03388,-0.13583,0.14736,-0.36787,0.2223,-0.31214,0.020202,0.13428,-0.080173,-0.16179,0.29555,0.095523,0.055413,-0.28964,-0.10213,-0.17844,0.10995,0.25403,0.39401,-0.018866,-0.19927,0.062762,-0.024673,-0.18686,0.27634,0.078692,-0.021227,0.012728,-0.16937,-0.25976,-0.21159,-0.27917,0.01275,0.31415,-0.021557,0.17845,-0.084587,-0.24164,0.29778,0.055237,0.14156,-0.033765,-0.10192,0.2803,-0.16143,-0.24381,0.068019,-0.35229,-0.17166,0.14414,0.26846,-0.010427,-0.14497,0.09668,0.25242,0.13226,-0.040706,0.27345,0.20802,0.098428,0.17336,-0.37273,0.20749,0.053606,-0.071725,0.103,0.06862,0.07212,0.10634,-0.15521,-0.16232,-0.076191,0.23197,-0.21068,-0.2462,0.0898,-0.10279,0.29274,-0.41031,0.21492,-0.065193,-0.14505,0.0018245,-0.34707,-0.0023614,-0.10302,-0.44931,-0.052593,-0.45997,0.055661,0.17295,0.045718,-0.045309,-0.29176,-0.16393,0.042683,-0.31479,-0.042859,0.11369,-0.19564,-0.12417,-0.023928,-0.039588,0.18534,-0.31826,0.24333,0.28816,-0.1753,0.26989,-0.061183,-0.10824,-0.12067,-0.54456,-0.077121,-0.0064499,-8.9406e-4,0.016921,0.064431,-0.060314,0.010202,-0.20645,0.05416,0.1603,0.019137,-0.13089,0.052808,0.087125,-0.03052,-0.093499,-0.20597,-0.16013,0.06768,0.2508,-0.026781,0.076681,0.35844,-0.04384,0.1593,0.049456,-0.20984,0.35649,-0.18956,0.17582,-0.13049,-0.031991,0.10324,-0.19424,0.39068,0.2417,0.08833,0.039862,0.077223,-0.27394,0.1281,-0.022402,-0.027901,0.10656,-0.26626,-0.11638,-0.20793,0.024634,-0.025313,-0.043636,-0.27159,0.12855,-0.18362,0.012369,0.24102,0.049951,0.1326,-0.18899,-0.17214,0.15433,0.001328,-0.064065,-0.33672,0.30328,-0.086213,0.086516,-0.022938,0.073248,0.11569,-0.1976,-0.58302,-0.10342,-0.33322,0.15135,0.36814,0.22477,-0.041163,0.096734,-0.1263,0.1217,0.068838,-0.26722,-0.078416,-0.32003,0.12735,0.022,0.0055204,0.1353,0.045957,0.088721,0.14282,0.14197,0.35747,-0.12165,-0.22893,0.3786
scale,-0.14484,0.15604,-0.33628,-0.2107,0.022488,-0.036868,-0.030358,-0.28234,-0.15686,0.28478,-0.040344,0.16057,0.38205,-0.14827,0.28585,-0.22393,-0.31889,0.053439,0.071254,-0.27023,0.17316,0.36598,0.30083,0.21728,0.29086,-0.094296,-0.10315,0.18378,0.38046,-0.17938,0.25229,-0.14518,0.15097,-0.058945,0.32347,-0.22504,0.27534,0.092592,-0.069736,0.025134,-0.01731,-0.090126,-0.0081952,-0.27023,0.05297,-0.46731,-0.16007,-0.34485,0.27491,-0.29051,-0.19562,0.051825,-0.21821,0.087303,-0.48207,-0.29641,0.51571,-0.19429,0.341,0.39036,0.1538,-0.05865,0.21424,0.059309,0.15872,-0.099177,0.13652,0.050174,0.42092,0.15658,0.079051,-0.12969,-0.023708,0.085086,-0.072439,-0.25654,0.21561,0.058945,-0.09445,-0.11695,-0.062607,0.41181,0.02836,0.067318,-0.19107,-0.0557,0.1302,0.20328,-0.31602,0.044569,0.028371,-0.15116,-0.018121,0.32798,-0.31121,0.10257,-0.17869,0.089887,0.15594,0.15816,-0.38284,0.322,-0.26334,0.046557,-0.20164,-0.0095223,-0.029234,-0.13689,0.12035,0.23118,-0.010126,0.10392,-0.066749,0.10344,-0.036797,0.1072,0.0018338,-0.10847,0.031385,-0.12869,-0.26519,0.23036,0.03608,-0.13476,0.3085,-0.05923,-0.076363,-0.11481,0.10605,0.27786,-0.29978,-0.24291,0.075294,-0.39012,0.14528,-0.049081,-0.16516,-0.20888,-0.061918,-0.28476,0.31176,0.18484,-0.045598,-0.13436,0.012254,0.33665,0.27,-0.094418,-0.076609,0.34047,0.10168,0.1694,0.040131,0.33474,0.16641,0.084888,0.12691,0.019557,-0.10907,-0.055034,0.016295,-0.10049,-0.08489,0.17025,-0.10701,-0.090101,0.25424,0.18483,0.021884,-0.22753,0.5268,-0.38171,0.12209,0.21733,-0.2758,-0.10388,-0.20841,-0.40937,-0.038225,-0.6188,0.15327,0.037826,4.9963e-4,0.051279,-0.39901,0.18616,0.36185,-0.20391,0.33131,0.31167,-0.26676,0.077963,-0.15832,-0.29391,0.21081,-0.27759,0.11347,0.20206,-0.3331,0.01429,0.34869,0.10841,0.096734,-0.50006,0.21063,-0.21857,-0.27658,-0.27091,0.0055058,0.13185,-0.10752,0.28981,0.21251,0.10556,0.36094,0.031079,0.12075,0.1138,-0.093075,-0.034376,-0.095797,-0.18581,-0.12093,0.43365,0.10242,-0.062447,0.41509,-0.17107,-0.044242,-0.14031,0.036747,0.26811,0.077222,-0.044782,-0.29792,-0.23294,0.24345,-0.24717,0.26252,0.3529,0.28401,-0.14585,-0.031771,-0.53073,0.45013,-0.11317,0.29889,-0.18385,0.0089407,0.30402,-0.09383,-0.17273,0.0083225,-0.18731,-0.16369,0.36045,0.057495,0.4679,0.28287,-0.032476,-0.024736,-0.31613,-0.23459,0.086147,0.19013,-0.48956,-0.34749,0.49836,-0.50978,-0.10856,-0.052669,0.033894,0.11262,-0.32111,-0.45689,-0.34032,-0.23046,0.068543,0.33061,0.31992,0.041531,0.091654,-0.070804,-0.27516,-0.11687,0.092601,-0.12199,0.27472,0.11394,-0.080154,-0.062908,-0.27918,0.19585,0.10543,0.36653,-0.20065,0.22972,-0.042304,-0.26427,0.33536
powerful,-0.19009,0.21557,0.14904,0.15802,-0.13292,0.060509,0.24288,-0.041952,-0.40465,0.25585,0.021354,-0.002415,0.10416,-0.065364,-0.031115,-0.12483,0.23989,0.059616,0.25719,-0.050286,0.12571,0.10469,0.15405,-0.40474,0.25375,-0.018641,0.38072,0.11574,0.15313,0.2321,-0.0017462,-0.15052,0.13083,0.092515,-0.18569,-0.037146,0.27465,0.052939,-0.070265,0.15289,0.052014,-0.34207,0.023142,0.33246,0.16096,-0.2659,-0.092819,0.17936,-0.19186,-0.13059,-0.054815,-0.14444,-0.12466000000000001,0.10085,-0.158,0.11386,-0.31952,-0.23921,-0.017021,-0.085503,-0.076121,-0.088054,0.10035,-0.098131,-0.16827,0.023859000000000002,-0.1071,-0.26518,0.074377,0.20288,-0.1788,-0.079169,0.15743,0.19317,-0.070131,0.21083,0.25028,-0.2501,-0.0075134,0.10554,-0.036925,0.18043,0.038063,0.0031168,-0.10289,0.132,0.034584,0.14974,-0.10757,-0.055941,-0.13762,0.27111,0.010668,0.17372,-0.47453,0.28436,-0.027144,0.059501,0.15575,0.17545,-0.22203,0.069747,-0.096038,0.051801,-0.18292,-0.020823,-0.174,-0.15871,-0.0056363,0.30494,-0.2869,-0.05382,-0.061957,-0.31485,0.12962,0.22831,-0.20154,-0.0047716,-0.16155,-0.33528,-0.063009,-0.35909,-0.065242,-0.2043,0.029918,-0.24467,0.024388,0.081654,-0.23939,0.34537,0.131,-0.24139,-0.21704,-0.29771,-0.051197,0.12677,-0.059392,0.20807,-0.41,-0.024599,0.33,0.034663,0.44705,-0.10466,-0.13134,0.23743,-0.017917,0.079907,0.35204,-0.11259,0.12892,-0.12509,0.061464,0.046446,-0.094138,0.10313,0.17998,0.27957,-0.0062248,0.35559,-0.13896,-0.18508,0.11176,-0.016578,-0.12932,-0.082152,-0.12507,-0.095716,0.12526,-0.37422,0.23576,0.2172,0.05877,0.020045,-0.35944,-0.022368,-0.016471,0.2637,-0.087927,-0.44325,0.2462,0.21584,0.1415,-0.13289,-0.29242,0.17611,0.36426,-0.0096365,-0.18584,0.28538,-0.11819,-0.069896,0.047337,-0.068738,-0.034773,-0.15209,0.14189,0.16481,-0.30456,-0.063674,-0.13873,0.33291,-0.1189,-0.18118,0.064911,-0.055023,0.1824,0.081777,-0.046012,0.060518,0.12361,-0.21401,0.19965,-0.20663,0.18782,0.037158,0.090732,-0.094428,-0.011712,-0.2468,-0.12644,-0.25664,-0.10404,-0.018073,0.15792,-0.036408,0.38952,-0.28862,0.24151,0.21131,-0.02619,0.48471,-0.23736,0.3292,0.18781,0.10685,0.17262,-0.092224,0.268,0.059982,0.24356,-0.20526,-0.26312,-0.14089,0.33014,0.25524,-0.12763,-0.1616,-0.022234,-0.011811,-0.059335,0.011404,-0.16028,0.12585,-0.096515,0.081181,-0.32191,0.20758,0.38069,0.034308,-0.20324,0.025034,-0.078753,0.21577,-0.24157,0.22573,-0.2419,0.18941,0.0019028,-0.035898,-0.0098925,-0.078916,0.11723,-0.35178,-0.43167,0.078106,0.031715,0.42702,0.23214,0.034201,0.1766,0.14237,-0.088069,-0.13444,-0.0058284,-0.37293,0.032632,-0.17332,-0.24741,-0.34721,-0.098733,-0.10443,-0.01534,0.31756,0.22976,0.1951,0.017671,-0.29003,-0.07434,0.28767
