target_word,V2,V3,V4,V5,V6,V7,V8,V9,V10,V11,V12,V13,V14,V15,V16,V17,V18,V19,V20,V21,V22,V23,V24,V25,V26,V27,V28,V29,V30,V31,V32,V33,V34,V35,V36,V37,V38,V39,V40,V41,V42,V43,V44,V45,V46,V47,V48,V49,V50,V51,V52,V53,V54,V55,V56,V57,V58,V59,V60,V61,V62,V63,V64,V65,V66,V67,V68,V69,V70,V71,V72,V73,V74,V75,V76,V77,V78,V79,V80,V81,V82,V83,V84,V85,V86,V87,V88,V89,V90,V91,V92,V93,V94,V95,V96,V97,V98,V99,V100,V101,V102,V103,V104,V105,V106,V107,V108,V109,V110,V111,V112,V113,V114,V115,V116,V117,V118,V119,V120,V121,V122,V123,V124,V125,V126,V127,V128,V129,V130,V131,V132,V133,V134,V135,V136,V137,V138,V139,V140,V141,V142,V143,V144,V145,V146,V147,V148,V149,V150,V151,V152,V153,V154,V155,V156,V157,V158,V159,V160,V161,V162,V163,V164,V165,V166,V167,V168,V169,V170,V171,V172,V173,V174,V175,V176,V177,V178,V179,V180,V181,V182,V183,V184,V185,V186,V187,V188,V189,V190,V191,V192,V193,V194,V195,V196,V197,V198,V199,V200,V201,V202,V203,V204,V205,V206,V207,V208,V209,V210,V211,V212,V213,V214,V215,V216,V217,V218,V219,V220,V221,V222,V223,V224,V225,V226,V227,V228,V229,V230,V231,V232,V233,V234,V235,V236,V237,V238,V239,V240,V241,V242,V243,V244,V245,V246,V247,V248,V249,V250,V251,V252,V253,V254,V255,V256,V257,V258,V259,V260,V261,V262,V263,V264,V265,V266,V267,V268,V269,V270,V271,V272,V273,V274,V275,V276,V277,V278,V279,V280,V281,V282,V283,V284,V285,V286,V287,V288,V289,V290,V291,V292,V293,V294,V295,V296,V297,V298,V299,V300,V301
little,0.1259,-0.11934,0.029788,-0.15587,0.11645,0.10068,-0.0063363,0.12597,0.26106,0.05855,-0.12247,0.025333,0.063652,0.34372,0.21223,0.15108,0.14216,-0.10215,-0.11717,0.24056,-0.2556,0.0072053,-0.21417,-0.11516,-0.041512,-2.7723e-4,0.11629,0.080414,0.022943,0.30116,0.19989,-0.07325,0.18611,0.31195,0.14753,0.2178,0.11755,0.24373,0.10012,0.09576,0.19579,0.20904,-0.011947,-0.26955,0.20429,0.028275,-0.0676,0.053119,0.086439,-0.045068,0.43951,0.25084,-0.030365,-0.041308,0.070655,-0.11101,0.03213,-0.1119,0.18881,0.011196,-0.22937,0.021142,0.050339,-0.046716,0.11121,0.12683,-0.21982,-0.28009,0.27967,-0.047136,-0.19567,-0.21255,0.063603,0.23631,-0.057969,-0.076477,0.24523,0.15328,0.099267,-0.040067,-0.19522,-0.10362,0.04595,-0.033006,-0.056284,0.042156,-0.10458,-0.099365,0.021089,0.14742,0.077976,0.2161,-0.0090115,-0.17306,0.095568,-0.14376,-0.035611,0.044167,0.044249,0.057085,0.09571,0.3911,-0.16194,-0.22921,0.2784,-0.15186,-0.25576,0.061605,0.10763,0.19767,-0.16198,-0.03557,0.039724,-0.22343,0.11979,0.39962,0.033944,0.038521,-0.31121,0.027772,0.071267,-0.084459,-0.024214,-0.12492,0.16021,-0.16782,-0.10027,-0.048341,-0.076343,-0.30862,0.17764,-0.060455,-0.015713,-0.055901,-0.088813,-0.16782,-0.063027,-0.15957,-0.15249,0.28893,0.06857,0.027108,-0.090109,-0.10875,0.057801,0.089973,0.091008,-0.036929,0.27053,-0.27987,-0.1563,0.014165,-0.088149,0.28797,0.18143,-0.088608,-0.17772,0.22638,-0.15038,0.10005,0.23029,-0.21541,0.32315,-0.063015,0.10591,-0.1317,-0.05029,-0.089624,0.019136,0.15181,-0.25812,-0.29135,-0.33191,0.04669,-0.14717,0.024479,0.0023155,0.05434,0.16922,0.16555,0.0049392,-0.25563,-0.29182,0.14074,0.20291,0.23022,0.38827,0.18085,0.17938,0.11676,0.15365,0.10111,-0.03471,0.019705,0.015443,-0.33481,0.0050024,0.23976,-0.1332,-0.021209,0.054062,0.086755,0.26284,0.1118,0.16483,0.12153,0.16457,-0.10511,-0.20228,0.011272,-0.050069,-0.25266,0.05641,0.17292,0.056299,0.083506,0.20611,0.01333,0.02223,-0.23543,0.034212,-0.040246,-0.19734,-0.21808,-0.013472,0.2621,0.32697,0.067516,-0.1594,0.040834,-0.054892,-0.14025,-0.12627,0.34344,0.080159,-0.17927,0.30966,0.041864,0.074368,0.038821,0.070547,-0.36672,-0.25831,-0.040853,-0.34372,0.40134,-0.063218,-0.38275,0.084039,0.076542,-0.10661,-0.065857,-0.066695,0.2483,-0.14205,-0.055438,-0.24005,-0.34359,-0.10628,0.22446,0.055778,-0.13265,0.1497,-0.26741,0.11514,0.12751,0.1461,-0.23877,-0.0063552,-0.30313,0.030453,0.056555,0.18015,-0.0043393,-0.12551,0.069475,-0.056554,-0.29201,0.10429,0.2551,0.22357,-0.13481,-0.15035,0.094876,-0.065733,-0.034358,0.27478,0.22272,-0.24339,-0.035922,-0.089985,0.02025,-0.10435,-0.15276,-0.3624,-0.016021,-0.082189,-0.097229,0.1312,0.30051
long,-0.23798,-0.1218,-0.37372,-0.071907,0.14389,0.1182,-0.047052,0.17138,0.33954,0.21463,-0.14163,-0.065009,0.18255,0.60074,-0.14203,0.0948,0.053151,-0.17669,-0.1723,0.45536,-0.21599,0.11704,0.12206,0.37528,-0.3666,0.11039,0.14752,-0.12322,0.18671,0.13244,-0.043056,0.18642,0.31131,0.090522,0.12595,0.2849,-0.12723,0.060505,-0.020808,-0.13567,-0.11003,0.031717,0.050481,-0.39683,0.23103,-0.1174,-0.10423,-0.10882,-0.079203,0.21343,0.14491,0.14212,-0.24883,-0.26208,0.011074,0.068926,0.0019318,-0.24966,0.075489,-0.16152,0.026071,-0.20137,0.32657,-0.23302,0.10846,0.1167,-0.02407,-0.26851,0.25006,0.077351,-0.28796,-0.075333,0.09913,0.10703,0.17247,0.24127,0.012736,0.1886,0.075588,-0.0023021,0.011146,0.15845,0.15019,-0.085955,-0.023085,0.01218,0.38293,0.040074,0.11583,-0.025853,-0.10566,0.17056,-0.028943,-0.16772,0.29471,0.24192,-0.13256,0.28198,-0.075713,0.1931,0.18161,0.28197,0.089151,0.048156,0.33537,-0.037888,-0.2164,-0.21231,-0.022166,0.3874,-0.20545,-0.13366,-0.060524,-0.079222,-0.13389,0.31443,-0.093372,0.30038,-0.26607,0.17794,0.4631,0.0092762,-0.090175,0.18856,0.12683,0.01498,0.15379,-0.034182,0.054435,-0.37772,-0.11997,-0.38723,-0.062995,0.077715,0.098253,-0.20217,0.029305,-0.0049464,-0.19504,0.015538,0.22016,-0.11761,0.27218,-0.036402,0.051427,-0.0033299,0.16373,0.057228,0.12509,0.059876,0.032869,0.121,-0.016477,0.50671,-0.0080791,0.13057,-0.074282,0.058708,-0.13417,0.048251,0.38746,0.017114,0.3162,-0.12318,0.0033989,-0.19578,-0.087214,-0.28585,-0.039134,0.29131,-0.32251,-0.45613,-0.25956,-0.10129,-0.43914,-0.29701,0.0044032,0.060729,0.1368,0.17792,-0.01793,-0.35125,-0.11642,0.075934,0.15454,0.11938,0.15679,0.01574,0.075811,0.043644,0.069313,0.0045022,0.032601,0.0069739,-0.12147,-0.17209,-0.0313,0.31861,-0.084271,0.045981,0.032305,0.10909,0.17657,-0.077105,0.1779,0.02322,0.094024,-0.10925,-0.22831,0.12826,-0.11079,0.069164,0.11499,-0.063492,0.44159,-0.0098513,0.043172,-0.14725,-0.034499,-0.22445,0.14783,0.34511,-0.013307,0.017861,0.20018,0.049289,-0.0036311,0.12778,-0.26644,0.078947,0.075937,-0.068768,-0.16826,0.22388,-0.032943,0.15531,0.19115,-0.048854,0.010153,0.083434,0.055902,-0.090402,-0.22176,-0.0069081,-0.12341,0.45811,-0.20214,-0.15141,0.012026,-0.19971,0.039205,-0.026219,-0.26409,0.068872,-0.29731,0.24119,-0.27268,-0.21773,-0.28673,0.13656,-0.057393,0.26132,0.14594,-0.26981,0.0090737,0.10075,0.12358,-0.2452,-0.05178,0.15293,0.0020885,-0.029144,0.11349,-0.10015,0.049013,-0.013028,-0.084804,-0.37968,-0.16597,0.0071915,0.31955,-0.067859,-0.080018,0.26766,0.0057721,0.015925,0.30347,0.20726,-0.23164,0.068425,0.25529,0.11588,0.032628,-0.19433,-0.066749,-0.23982,-0.018314,0.23729,0.27756,0.11306
big,0.13409,-0.17025,0.0026404,-0.1034,0.096495,0.20637,0.24996,0.20298,-0.048949,-0.084374,-0.2587,-0.013699,0.060639,0.55407,0.19213,0.12154,-0.31436,-0.10151,-0.045126,0.10437,-0.17033,-0.13793,-0.078703,0.17533,-0.33531,-0.053432,0.095558,0.073893,0.26995,0.38629,0.31757,0.061165,0.21196,0.20753,-0.092693,0.14912,-0.17868,0.13798,0.1248,-0.12975,0.034552,-0.043819,0.13671,-0.063974,0.035963,0.099271,-0.084539,0.24976,-0.09,-0.15382,0.36274,0.16392,-0.21017,-0.17309,0.24929,-0.16247,-0.02074,-0.25717,0.28482,-0.059251,0.056128,-0.018808,0.19359,-0.15922,0.21242,0.30094,-0.0054094,-0.18671,0.24439,0.083523,-0.068591,-0.16309,0.011714,-0.22624,0.10731,-0.28279,-0.10405,0.3174,-0.055737,0.01179,-0.19963,-0.22078,-0.03668,0.019555,-0.14602,0.13749,0.069288,-0.03813,0.37618,0.33105,0.023362,0.18505,-0.11578,0.071347,0.12031,0.04058,0.074749,0.3055,-0.16707,0.030886,-0.1342,0.42226,-0.002001,-0.2506,-0.017645,-0.037786,-0.255,0.025404,0.12325,-0.012418,-0.24657,0.0045095,0.11525,-0.064591,-0.077989,0.10209,-0.15041,-0.024823,-0.074512,-0.22237,0.28846,0.069262,0.028014,0.079609,0.43364,-0.13318,0.060694,0.090311,-0.18651,-0.183,0.11274,-0.079603,0.073954,-0.13797,-0.0027323,-0.19831,-0.082041,-0.25499,-0.11508,0.051748,0.35883,0.084815,0.076252,-0.0025247,0.20646,0.099437,0.22732,0.098311,0.22218,-0.33818,-0.14722,0.021081,-0.20273,0.36093,0.26274,0.17893,-0.090083,0.062,0.07055,0.12437,0.43921,-0.079146,0.2602,0.066831,-0.022198,-0.091191,-0.029301,-0.19109,-0.16148,0.21862,-0.023654,-0.35864,-0.01104,-0.15328,-0.17512,-0.18631,0.10058,-0.11404,0.14699,-0.14045,0.034317,-0.51442,-0.17815,0.44773,-0.021129,0.3677,0.3786,0.015296,-0.088274,-0.11499,0.19481,0.1927,0.060388,0.013049,-0.28389,-0.21356,0.046705000000000003,0.052007,-0.17301,0.10414,0.19092,0.42378,0.031835,0.28534,0.095407,0.2384,0.27116,-0.098537,-0.10249,-0.044498,-0.14524,-0.17835,-0.0061446,-0.056351,0.29505,0.25318,-0.16687,-0.016499,0.030456,-0.034058,0.084897,0.1136,0.051201000000000003,-0.23111,-0.076735,-0.074588,0.2223,-0.079236,0.091201,-0.081407,0.082134,-0.35659,-0.080755,0.19999,0.018648,-0.15936,0.053758,4.8503e-4,0.14925,0.1839,0.17249,-0.14745,-0.39013,0.048977,-0.37367,0.30629,-0.34964,-0.17417,0.18855,0.011269,-0.065573,0.16848,-0.077878,0.22739,-0.02979,7.8994e-4,-0.28263,-0.39364,-0.37804,0.19138,0.028169,-0.13169,0.18926,-0.39009,0.19402,0.19651,0.30607,-0.11443,0.017416,-0.013395,-0.28232,-0.1811,0.29744,0.18203,0.23618,0.024173,-0.12011,-0.21549,0.32976,0.094997,0.30241,-0.012628,-0.10612,0.1389,-0.32641,0.22995,0.22363,0.39532,-0.12019,-0.032551,0.12059,0.039621,0.1744,0.13685,-0.055949,-0.025138,-0.1063,0.099123,0.13072,0.13371
small,0.0032398,0.03784,-0.02825,-0.075056,0.046057,0.14663,0.33344,0.18444,0.2278,-0.1802,0.021287,0.0058322,-0.016173,0.36137,0.17534,-0.049683,0.060907,0.0059093,-0.085157,0.11889,-0.17043,-0.25189,0.040131,-0.052531,-0.13582,0.047951,-0.064856,0.11835,0.020213,0.36379,-4.0318e-4,0.12132,0.24532,0.20618,0.15572,-0.24246,-0.041533,-0.030474,-0.089405,-0.061148,0.14122,0.14728,0.18564,-0.26744,0.17566,0.13945,-0.035966,0.032737,-0.45504,-0.13098,0.24962,0.41328,-0.42715,-0.050156,0.11432,-0.24736,0.23944,-0.10185,0.24891,-0.034296,-0.15046,0.23596,0.050304,-0.082721,-0.0011725,-4.045e-4,-0.10699,-0.31317,0.44197,0.0094379,-0.067101,-0.34209,-0.050418,0.19712,-0.02613,-0.13426,-0.0041264,0.18072,0.13311,0.0013039,-0.06344,-0.21131,0.14794,0.24334,-0.07989,-0.22088,-0.11235,-0.4174,0.28032,0.08908,0.11646,0.38586,-0.03926,-0.24462,0.23369,-0.0074646,0.14278,0.35067,0.23949,-0.024207,0.072387,0.39504,-0.077122,-0.2338,0.076025,-0.11239,-0.19588,-0.053217,0.034493,-0.090236,0.015339,0.31335,0.21847,-0.083542,0.034094,-0.0035357,-0.14112,-0.013678,-0.10072,-0.29764,0.173,0.045225,-0.12423,0.08183,0.33988,-0.038141,0.1209,0.16087,-0.078107,-0.43831,0.17532,-0.13086,0.047999,-0.029706,-0.278,-0.22765,-0.081395,0.14159,-0.26047,0.36553,0.2484,0.16821,-0.22089,-0.037088,0.35504,0.078895,0.046636,-0.12032,-0.0066273,-0.24058,-0.25587,0.04769,-0.31468,0.26058,0.18328,0.013154,-0.1229,0.24945,-0.097761,0.19436,0.39341,0.04147,0.29587,-0.11358,-4.9805e-4,0.091368,-0.010913,-0.16794,-0.099811,0.40407,-0.10459,-0.15586,0.0026504,-0.10683,-0.14604,-0.16112,-0.13919,-0.074798,0.26262,-0.13882,-0.13686,-0.32276,-0.23058,0.32059,0.17324,0.25812,0.12598,-0.070302,0.15077,0.23127,0.084893,0.3329,0.1416,-0.0063464,-0.015925,-0.31902,-0.014408,0.25236,-0.10741,-0.16007,0.10282,0.27643,0.19272,0.058137,0.13753,0.31522,0.037276,-0.14726,-0.040932,-0.15221,-0.12545,-0.25187,-0.10185,0.041008,0.031457,-0.047154,0.010191,0.082178,0.078363,-0.18044,0.083841,0.059123,-0.052582,-0.25074,0.15274,0.059756,0.0455,-0.0062783,-0.072354,0.076635,-0.086039,-0.073206,-0.13401,0.315,-0.055203,-0.20203,0.12534,-0.095751,0.063438,0.052154,0.29553,-0.27496,-0.35184,0.13181,-0.37932,0.50517,-0.2161,-0.16119,-0.049653,5.7655e-4,-0.16282,0.12398,-0.2331,-0.12478,-0.23025,0.054321,-0.40734,-0.285,-0.20218,-0.0023774,-0.10413,0.09908,0.18933,-0.3086,-0.14354,0.056651,0.23834,-0.30799,-0.15526,0.24083,-0.30719,-0.19111,0.2022,0.18493,0.035905,0.0017773,-0.38788,-0.29118,-0.030935,0.43615,0.12275,-0.36131,-0.21536,0.24822,-0.022838,0.059009,0.22075,0.35492,0.12621,-0.072024,0.16228,0.044661,0.11579,-0.24859,-0.17857,-0.063901,-0.17209,0.095448,0.065187,0.39795
hand,-0.15674,0.24901,-0.049119,-0.28031,0.1941,-0.029177,0.28208,0.017851,0.11105,0.40255,-0.088941,0.33795,-0.077798,0.35289,0.23296,0.16039,0.1651,0.12869,0.01656,0.17008,-0.010389,0.11531,0.0073306,0.086587,-0.16089,0.036522,-0.031071,-0.20141,0.21621,0.11429,0.12819,0.15071,0.0018915,0.27124,0.17024,-0.016483,-0.08614,0.15155,0.10059,0.078231,0.12283,0.25316,-0.047987,-0.28027,0.24393,-0.14221,-0.11676,-0.091599,-0.16951,0.16356,-0.16439,0.16373,-0.23818,-0.058661,-0.095804,0.012412,-0.10388,-0.15324,0.13288,0.066379,0.16234,0.11969,0.25104,-0.20028,0.15293,0.21494,-0.035481,-0.33766,0.36066,0.065229,-0.47569,-0.085149,0.094827,0.026111,-0.131,0.081168,0.062861,-0.031938,0.086952,0.10462,-0.20442,0.0079916,0.40174,0.023426,-0.085143,0.12252,0.10625,-0.29197,0.19458,0.01147,-0.072598,-0.29544,-0.017786,-0.040694,0.2417,0.022495,0.25434,0.29868,-0.12081,-0.096815,0.31207,0.3953,-0.047868,-0.07202,0.026501,0.029205,-0.083194,-0.11184,0.17322,0.26096,-0.23672,0.023157,0.12352,-0.42582,-0.21186,-0.14464,-0.1197,0.065322,-0.19165,0.082516,0.18897,-0.094175,-0.11598,0.018583,0.35984,-0.036882,-0.032389,0.081716,-0.018045,-0.13595,-0.10615,-0.15995,0.070769,-0.31955,-0.14488,-0.15001,0.10776,0.016825,-0.34975,0.33369,0.10248,-0.22296,0.19635,0.068099,0.14491,-0.14232,-0.14694,-0.036981,0.23839,-0.27196,-0.28248,-0.096664,-0.092991,0.32661,0.33305,-0.155,-0.11477,0.01453,-0.16009,0.30703,0.32764,0.013807,0.10132,-0.079157,0.12718,0.0073249,-0.10131,-0.42158,-0.16884,0.21138,-0.070934,-0.22284,-0.074398,0.069131,0.14407,0.24934,-0.050096,-0.084596,0.077414,0.21615,0.18816,-0.18824,-0.16287,0.22821,0.0098519,0.43635,0.3077,0.053324,0.053053,0.034239,-0.21079,0.013629,0.1085,0.22782,0.031235,-0.4917,0.16636,0.49525,-0.46029,-0.022044,0.013454,0.08463,0.1404,-0.29871,-0.044662,0.15638,-0.42066,-0.25579,-0.17626,0.013146,-0.030615,-0.02035,-0.039088,0.20247,0.39118000000000003,-0.26448,-0.066189,0.072008,-0.059031,-0.14864,-0.27386,-0.61634,-0.11949,-0.22968,0.37871,0.21374,-0.02893,-0.07426,-0.23626,0.0227,-0.16791,-0.054654,0.042136,0.53196,0.017774,-0.10357,0.16152,0.048789,0.11505,-0.18942,0.15062,-0.36453,-0.40429,-0.21708,-0.34768,0.54332,0.25184,-0.52519,0.11788,0.21056,-0.026777,-0.19319,0.0064771,0.0632,-0.29035,0.18345,-0.054191,-0.51493,-0.27249,0.026072,0.11848,0.16501,0.18133,-0.054281,-0.21522,0.1695,0.011706,-0.3674,-0.077578,0.0057606,-0.30032,-0.02748,0.18886,0.14397,-0.087332,-0.11806,0.044343,-0.32732,-0.14938,-0.12137,0.19087,-0.21061,-0.028209,0.059225,-0.057081,0.11167,0.31395,-0.08158,-0.26413,-0.18695,0.19619,0.3042,0.05602,0.01448,-0.18935,-0.18004,-0.12907,0.020234,0.32845,0.18439
course,-0.038674,-0.097886,-0.28748,-0.25253,0.22156,0.17667,0.015704,0.27394,0.070242,0.35197,-0.47914,0.14382,0.053396,0.51394,0.21779,0.1789,0.12019,-0.22793,-0.19408,0.047354,-0.15409,0.067854,-0.1725,-0.088763,-0.29226,0.041626,0.18299,-0.029721,-0.15655,0.10613,-0.14448,0.091212,0.029322,0.32464,0.12477,0.072786,0.039159,0.37184,0.09733,-0.13255,0.021656,0.11722,-0.089215,-0.17154,0.24309,-0.0055576,-0.052839,-0.03342,0.12922,0.22438,-0.032712,0.060863,-0.14778,-0.21251,-0.062636,-0.082388,-0.10437,-0.23591,0.29506,0.15608,0.046159,0.060584,0.51903,-0.24729,0.21941,0.0020724,-0.056201,-0.27736,0.11609,-0.14444,-0.28512,-0.18695,-0.0089503,-0.093987,-0.020339,-0.062296,0.050089,-0.21491,0.17975,0.095148,-0.069411,0.21047,-0.026723,-0.20476,-0.058047,-0.13908,0.11118,-0.0986,0.21738,0.089227,-0.056723,-0.070429,0.038789,-0.098783,0.15371,-0.017632,-0.19569,0.29853,-0.2512,0.12009,0.15549,0.3149,-0.34859,0.025971,0.18731,-0.19139,-0.072502,-0.021884,0.0071082,-0.097962,-0.43415,0.15182,0.14376,0.11542,-0.018592,0.28733,-0.064618,-0.12136,-0.17552,0.18149,0.16258,-0.002309,0.12503,0.16693,0.22255,-0.041042,-0.17912,0.064881,0.052499,-0.11739,0.011143,-0.099862,-0.20494,-0.002734,-0.1427,-0.43092,0.10026,0.081104,-0.085835,0.26742,0.2064,-0.024073,-0.12018,0.036811,0.040757,0.27293,0.1429,-0.0063694,0.20235,-0.15329,-0.08068,-0.040631,0.092183,0.20988,0.28091,0.0048061,-0.05001,0.15715,-0.20526,0.081162,0.41163,0.16679,0.005879,-0.091208,-0.0555,-0.01588,-0.289,0.037602,0.010468,0.094373,0.12129,-0.326,-0.32892,0.12347,-0.21133,-0.079056,0.33802,0.017308,0.096551,0.016189,0.12521,-0.24043,0.093925,-0.020134,-0.095425,0.096547,0.34345,0.19667,0.011666,-0.23698,0.16721,-0.1161,-0.02256,0.27512,-0.37624,-0.34932,-0.057475,0.46388,-0.29411,-0.11836,-0.12874,-0.10388,0.1715,0.051893,0.39159,0.058826,-0.18863,-0.097346,0.014623,0.19935,-0.14966,-0.32627,-0.17719,0.11048,0.3348,-0.22102,-0.042502,-0.18976,-0.10191,0.045679,-0.22847,0.11423,-0.08327,-0.040497,0.21358,-0.073231,0.16859,0.13438,-0.02204,0.095369,0.020292,-0.02801,-0.035623,0.36291,0.17526,0.0083996,0.22375,0.188,-0.10361,0.0048674,0.039001,-0.55502,-0.2464,0.060457,-0.16315,0.31433,0.11014,-0.22084,0.063797,-0.40325,-0.17275,0.1968,-0.33857,-0.0702,0.067152,0.084129,0.0030392,-0.13682,-0.038601,0.035097,-0.15644,0.2015,0.047059,-0.25852,-0.19134,0.18402,0.2138,-0.22108,-0.0056325,0.20544,-0.091075,-0.12865,0.020627,0.012807,-0.088997,-0.003124,0.023876,-0.21898,-0.052133,0.12941,-0.07404,-0.019494,-0.26191,0.13461,0.020182,0.064986,0.18654,0.26463,-0.10651,0.32766,0.02116,0.017956,0.26229,-0.048907,-0.16357,-0.012974,-0.12557,-0.022352,0.1183,0.42085
black,-0.075289,0.17025,-0.29903,0.061623,0.097757,0.088404,-0.071519,-0.073221,-0.076573,0.33497,-0.083532,-0.10936,-0.14955,0.31036,-0.35364,0.32854,0.012578,0.034194,0.081551,-0.017015,-0.2791,-0.069909,0.48429,0.014817,-0.07593,0.13374,0.40673,0.1932,0.27571,-0.077073,-0.20999,0.061176,0.18681,0.086548,0.2765,-0.024048,-0.28492,0.023742,-0.13256,-0.28316,0.1384,0.34348,0.08594,-0.37,0.2743,-0.0024145,-0.11267,-0.22321,-0.062972,0.24333,0.31694,0.20419,0.04444,0.2397,0.45704,-0.17279,0.066054,0.093894,0.10411,-0.088349,0.19707,0.40298,0.17084,-0.20013,0.18489,0.34412,0.12577,-0.3038,0.12334,0.11311,-0.25716,-0.17621,-0.038379,-0.16424,-0.10371,0.38039,-0.10909,0.063002,-0.098194,0.14886,-0.054708,-0.16346,0.14355,-0.31716,0.096921,-0.14813,0.38144,0.025208,0.3209,-0.059454,-0.33963,0.22843,-0.14872,-0.19433,0.037103,0.044374,0.12854,0.1402,-0.083286,0.2843,0.15778,0.40751,-0.075707,0.037472,0.4123,-0.18404,-0.25926,-0.071553,0.015686,0.10211,-0.242,0.35296,0.5037,-0.012649,0.07258,0.078676,0.062379,-0.048844,-0.48627,-0.037326,0.28729,0.22016,-0.24361,-0.12663,0.26634,0.081395,0.19089,0.017726,-0.19251,-0.10684,0.32634,-0.5136,-0.087441,0.20683000000000001,-0.27259,0.0023129,0.13692,-0.0018767,-0.21148,0.56371,0.23461,0.23839,-0.18368,-0.18061,0.38752,-0.093384,-0.15097,-0.037142,0.4253,-0.50191,-0.17901,0.049771,-0.51524,0.45483,-0.22764,0.16579,0.11025,0.1941,-0.10124,0.20185,0.47774,-0.11138,-0.045453,-0.2147,0.14143,-0.12165,0.025805,-0.14789,-0.41325,0.35563,-0.43502999999999997,-0.029638,-0.070795,0.23979,-0.08839,-0.10022,-0.055,0.14839,0.13014,-0.11033,-0.12623,-0.035657,0.05581,0.40534,-0.01694,0.49681,-0.056322,-0.11851,-0.0025862,-0.13043,0.0043757,0.18381,-0.10567,0.1639,0.099013,-0.29015,-0.11626,-0.13717,-0.17913,0.094135,0.21139,0.41447,-0.020222,-0.034903000000000003,0.08059,0.11002,0.13084,-0.047752,0.13682,0.16724,-0.104,-0.27106,0.18449,0.11402,0.043855,-0.08714,-0.3011,-0.16536,0.22067,-0.0096162,0.058802,0.056668,-0.22758,-0.025734,0.045539,-0.064086,0.028734,-0.15807,-0.32176,-0.101,0.026695,-0.14979,-0.16922,0.32727,-0.04328,-0.19669,0.15603,0.32635,-0.23464,-0.12448,0.10025,0.02777,-0.32778,-0.17916,-0.039016,0.61055,-0.021475,-0.51,0.036025,-0.056932,-0.086616,0.26765,-0.16852,-0.084122,0.093895,-0.21682,-0.45874,-0.42589,-0.23895,0.074808,-0.15798,0.18678,0.23663,-0.0037457,0.34881,0.11454,0.30905,-0.48923,-0.32941,0.26145,-0.21738,-0.045714,-0.01974,-0.0060478,0.072296,-0.0067093,0.056683,-0.30817,0.34541,0.17352,0.14771,-0.12402,-0.30363,0.19319,-0.22677,0.31416,0.38592,0.26285,-0.2202,0.12316,-0.0057557,-0.055941,0.053806,-0.33428,-0.17103,0.060934,-0.050513,0.20422,0.22095,0.25063
large,-0.17943,-0.017314,0.029707,-0.19111,0.069267,0.04343,0.57609,0.13344,0.091954,-0.072815,-0.027637,0.19337,-0.16065,0.45263,0.10593,-0.16742,0.10531,0.071047,-0.15192,0.061551,-0.071595,-0.26718,0.11493,0.087497,-0.2665,0.31134,0.10339,0.055855,0.098948,0.32458,-0.17598,0.17709,0.20228,0.2791,0.26741,-0.2849,-0.21205,-0.16218,0.0074201,0.049635,0.14452,0.11366,0.31641,-0.25123,0.17909,0.11726,-0.2643,-0.14862,-0.55704,0.049748,0.23446,0.24786,-0.57292,-0.0075172,0.19329,-0.10978,0.28855,-0.24201,0.1751,-0.18959,-0.021019,0.22343,0.28618,-0.11843,0.14015,0.0093155,0.017036,-0.32675,0.3975,0.046507,0.066842,-0.3871,0.12585,0.079892,0.015715,-0.24896,0.0035879,0.11242,0.016097,0.11902,-0.14916,-0.27348,0.17595,0.10434,-0.18716,-0.10956,0.13157,-0.18031,0.41208,0.18236,0.04293,0.39021,-0.15861,-0.2904,0.18647,0.089794,0.27521,0.27494,0.050308,-0.041952,0.033572,0.36266,0.077838,-0.16441,0.1005,-0.13974,-0.29069,-0.28042,0.024393,-0.12255,-0.0090631,0.29605,0.32188,0.012058,1.0245e-4,-0.062452,-0.33617,-0.022792,-0.12367,-0.14527,0.26899,0.11501,-0.039888,0.092799,0.65657,0.19277,0.12027,0.24404,-0.097478,-0.50323,0.13103,-0.25052,0.094591,0.074821,-0.075622,-0.26937,0.12702,0.07197,-0.3397,0.38517,0.42143,0.22121,-0.13651,-0.29896,0.42338,-0.068384,0.15316,-0.011352,0.028555,-0.21093,-0.06893,0.090447,-0.31067,0.18312,0.24791,0.22253,-0.047232,0.34742,-0.003132,0.1737,0.4907,0.1148,0.30209,0.14967,0.23289,-0.047603,0.014666,-0.11614,-0.088344,0.33902,-0.12039,-0.079616,0.011638,-0.044736,-0.28679,-0.097203,-0.090404,-0.18042,0.23389,-0.21447,-0.16713,-0.54187,-0.14632,0.38584,0.1749,0.13079,0.31633,0.065753,-0.016235,0.054159,0.24807,0.27613,0.22313,0.003971,-0.066144,-0.32454,0.12663,0.28876,-0.077349,-0.10485,0.19515,0.34986,0.0017895,0.069477,0.15756,0.18926,-0.066232,-0.12627,0.042854,-0.082756,-0.081399,-0.30919,-0.14624,0.0013797,-0.0083616,0.062448,-0.10073,-1.517e-5,0.017912,-0.24903,0.032898,-0.010693,-0.074956,-0.04654,0.23206,0.067411,-0.078956,-0.10216,-0.13065,-0.0071507,-0.019556,-0.089676,-0.32116,0.26886,-0.06544,0.14425,0.12092,0.03671,-0.017478,0.059489,0.35883,-0.42257,-0.36171,0.061663,-0.19576,0.56225,-0.275,-0.10883,-0.16159,0.062329,-0.041844,0.23823,-0.36747,-0.09698,-0.24104,0.12793,-0.36253,-0.33714,-0.38743,-0.20282,-0.2016,0.10884,0.052128,-0.381,-0.12687,0.038783,0.2813,-0.31705,-0.034881,0.43536,-0.3915,-0.39326,0.15885,0.046477,0.1368,0.11579,-0.19643,-0.54521,0.10727,0.37165,0.23567,-0.33815,-0.26177,0.25015,-0.1424,0.27409,0.191,0.34924,0.017628,-0.025041,0.098108,0.0078091,0.11624,-0.25733,-0.13924,-0.10007,-0.16378,0.23089,0.12794,0.34735
white,-0.12214,0.3071,-0.042406,-0.028705,0.10824,0.25031,-0.044665,-0.068795,-0.016904,0.3045,0.080595,-0.13872,-0.11984,0.21505,-0.18035,0.12185,0.1728,-0.15372,0.16178,0.13216,-0.23539,-0.016862,0.40732,-0.10503,-0.15403,0.085997,0.14828,0.10075,0.11718,-0.072436,-0.22968,-0.15917,0.19327,0.22916,0.19378,-0.033603,-0.33054,0.071939,-0.1701,-0.35747,0.16964,0.38435,0.016534,-0.4926,0.24368,0.14915,-0.11567,-0.25598,-0.21873,0.18136,0.34386,0.19283,0.071574,0.016189,0.39652,-0.2065,0.071206,0.087906,0.19574,0.032433,6.5093e-4,0.38805,0.026764,-0.16456,-0.082954,0.2319,0.05342,-0.30306,-0.098385,0.13743,-0.25681,-0.073029,0.028453,-0.031303,-0.072617,0.33498,-0.090938,0.19237,-0.17756,0.22838,0.071922,-0.11853,0.094897,-0.12723,-0.071844,-0.068415,0.19518,-0.13595,0.30825,-2.1371e-4,-0.005526,0.27775,-0.28169,-0.07248,0.076388,-0.040442,0.22281,0.25994,-0.1104,0.28929,0.16737,0.74464,-0.033686,0.028059,0.3462,-0.31983,-0.31328,-0.20103,0.067226,0.14369,-0.095879,0.26606,0.36564,-0.077808,0.10694,-0.064818,-0.054119,-0.039325,-0.43712,-0.20329,0.27697,0.059383,-0.26886,-0.22064,0.20987,0.14923,0.3017,0.1261,-0.078157,-0.15855,0.099249,-0.5765,-0.12287,0.40217,-0.10478,-0.16849,0.053479,0.029101,-0.13082,0.56931,0.15829,0.13549,-0.20399,-0.35991,0.32536,-0.10851,-0.051137,-0.218,0.54864,-0.44326,-0.25718,0.051215,-0.52732,0.33725,0.065548,0.09785,0.28891,0.062166,-0.088677,0.025461,0.31168,-0.23944,-0.10298,-0.28461,0.0025712,-0.2074,-0.14585,-0.1398,-0.36174,0.26551,-0.31076,0.030813,-0.23176,0.13369,-0.17322,-0.10936,-0.028284,-0.11626,0.22044,0.01517,0.081798,0.042838,-0.0046482,0.24296,0.06736,0.49856,0.074677,-0.18797,-0.075923,-0.07384,0.061937,0.24271,-0.22855,0.22517,0.18254,-0.37531,-0.049513,0.069593,-0.2887,-0.04016,0.24682,0.28507,-0.16095,0.052148,-0.039097,0.12984,0.11304,0.011761,0.055811,0.10083,0.033555,-0.20793,0.075901,0.10606,-0.078074,-0.06182,-0.067003,-0.26873,0.28226,0.10549,0.13038,0.027836,-0.0021257,0.063399,0.32684,-0.12983,-0.15549,-0.090564,-0.054078,-0.26144,0.10983,0.043135,-0.26329,0.35346,0.08541,-0.097873,0.11404,0.62002,-0.050865,-0.30548,-0.028902,0.094556,-0.17384,-0.15383,-0.11608,0.53484,-0.047585,-0.43771,-0.04283,0.1969,-0.092855,0.13523,-0.15235,-0.20505,0.0073688,0.044972,-0.25083,-0.28245,-0.41288,-1.0395e-4,-0.21775,0.2123,0.17382,0.017272,0.2208,0.12998,0.18289,-0.49754,-0.18857,0.24945,-0.036101,-0.20343,0.069256,0.017659,-0.18069,-0.15748,-0.027314,-0.22269,0.01766,0.0045138,0.21381,-0.047931,-0.21736,-0.0069819,-0.22339,0.14356,0.42423,0.13325,-0.27299,0.070349,0.11581,-0.11437,0.067419,-0.29769,-0.35295,-0.057827,0.0042628,0.20268,0.35373,0.19524
body,0.067948,0.50427,-0.52277,-0.035851,0.1557,-0.074228,0.54418,0.099675,0.38531,0.49972,-0.25666,0.16837,-0.1538,0.27244,-0.034164,0.10898,-0.3151,0.024316,-0.18661,0.17018,0.065623,-0.069377,0.17029,0.019865,-0.26026,-0.20648,-0.008336,0.29008,-0.054513,-0.3229,0.23555,0.36404,0.060563,0.12692,0.19107,0.19,-0.0060858,0.066695,-0.10257,0.044082,0.3562,0.42415,-0.032712,-0.3735,0.12627,-0.25646,-0.37734,-0.28055,-0.23278,0.57173,0.16706,0.2297,-0.33072,-0.14775,0.28957,0.018334,-0.021674,-0.11587,0.46138,-0.099317,0.17886,0.53658,0.18906,-0.40839,-0.077739,0.049005,0.11708,0.082137,-0.055635,0.068257,-0.091271,-0.42693,-0.20033,-0.30497,-0.086707,0.0054124,0.13892,-0.14538,0.33022,0.1578,-0.40729,0.047938,0.13634,-0.4448,0.35374,-0.017355,0.22934,-0.25914,0.26238,0.11396,0.056558,-0.27281,0.21992,0.042339,0.32465,0.19038,-0.1506,0.31675,-0.040618,0.14574,0.214,0.17297,-0.15865,-0.16113,0.17974,-0.32427,-0.34103,0.083351,0.34712,0.11853,-0.091586,-0.33957,0.35248,0.023647,-0.081353,0.16749,0.042852,-0.1833,-0.20257,-0.19842,-0.099461,0.20143,0.28062,0.12839,0.3059,0.1516,-0.32052,0.31351,0.15863,-0.43975,0.33328,-0.28522,0.097471,-0.29326,-0.26505,0.19027,0.2522,0.049391,-0.065367,0.30348,0.048202,-0.17759,0.49485,0.076306,0.1543,-0.06064,-0.09279,-0.14768,-0.0037672,-0.2213,-0.33908,0.26156,0.035601,0.055663,0.26872,0.067909,-0.022239,0.19918,0.17664,-0.061986,0.52152,-0.003689,0.10696,-0.018045,0.25632,-0.21986,0.051008,-0.077103,-0.26153,0.11874,-0.29099,-0.22048,-0.15722,0.28235,-0.23037,0.31633,-0.058463,0.35464,0.39854,0.091217,-0.062818,-0.32887,-0.087747,-0.070291,0.3284,0.38092,0.18604,0.077269,-0.22757,-0.090147,-0.069561,-0.1669,0.021631,0.072906,-0.068088,-0.33623,-0.033744,0.40807,-0.3658,-0.11713,0.0097412,-0.084655,0.33097,0.026606,0.024999,0.19446,0.041661,0.12895,-0.11549,0.017216,0.010125,-0.0040067,-0.34151,0.023469,0.19436,-0.049473,-0.044034,-0.091807,-0.025688,-0.22854,-0.3075,-0.005835,0.2838,-0.22124,0.35862,0.29832,-0.22262,-0.025873,-0.095001,0.13927,0.12071,-0.12723,-0.17905,0.45081,-0.21897,0.14753,0.53018,0.41477,-0.083453,0.081341,0.22838,-0.4577,-0.5568,-0.23131,-0.42676,0.41644,0.012307,-0.43258,0.40877,0.060803,0.080562,-0.0039521,-0.37692,0.087437,0.01238,0.087624,-0.086685,-0.55199,-0.28365,0.25593,-0.046631,0.08832,0.27925,-0.098622,0.00414,0.0899,0.086364,-0.44141,-0.16604,-0.35689,-0.13053,-0.11911,0.059097,-0.041694,0.036767,0.064584,-0.19079,-0.061271,0.032607,0.1413,0.13077,-0.24073,0.15501,-0.040526,-0.018741,-0.13582,0.060963,0.23413,-0.20901,-0.11626,0.42572,0.053228,0.30113,-0.1898,-0.18611,-0.17542,0.22611,0.060416,0.20113,0.02637
light,0.06287,0.036647,0.076952,-0.10084,0.19574,-0.16305,-0.11757,0.10635,0.2079,0.30772,-0.21789,0.069725,-0.036478,0.27288,0.11712,-0.01888,-0.081424,-0.34816,-0.0069129,0.32189,0.02505,-0.045151,0.03124,-0.10827,-0.22577,-0.0030271,0.081635,0.30173,0.13389,-0.031888,-0.080332,0.13648,0.37988,0.056371,0.15727,0.21047,0.014469,0.164,-0.0070226,-0.19645,0.070648,0.19379,-0.22617,-0.32395,0.3121,-0.08608,-0.26056,0.032074,-0.25914,0.148,0.012573,0.29052,-0.23302,0.097609,0.13838,0.16016,-0.046948,-0.28726,0.0060329,-0.22817,-0.18689,0.016362,0.14084,-0.067319,0.15433,0.26976,-0.030531,-0.62335,0.21597,-0.10059,-0.17605,-0.21212,0.21189,-0.0022306,0.20278,0.24842,0.018906,-0.070695,0.20991,0.15499,-0.29562,-0.19359,0.163,-0.17077,-0.1304,0.019771,0.49988,-0.49085,0.28095,0.045803,0.047651,0.26132,-0.41782,-0.02388,0.10257,-0.015071,0.028396,0.40645,0.25945,0.033973,0.42536,0.6472,-0.21225,0.067602,0.35531,-0.055013,-0.45061,0.13892,0.179,0.23409,-0.50377,0.2411,0.37086,-0.2174,-0.014144,-0.082114,0.073203,0.038882,-0.10542,0.010811,0.24601,0.072374,-0.057378,0.12789,0.29103,0.21227,0.14082,0.32997,-0.052955,-0.30424,0.19915,-0.28359,0.19223,0.20828,-0.4248,0.3669,0.062314,-0.16053,0.013739,0.33328,0.027916,0.09545,0.14243,-0.094766,-0.0012194,0.018146,-0.084809,-0.31035,0.17423,-0.054569,-0.30101,0.1743,0.06873,0.058476,-0.0027188,-0.16542,-0.0072322,0.34573,0.16989,-0.070248,0.30549,0.074314,0.37965,0.17922,0.019312,0.073651,-0.3096,-0.19377,-0.12125,0.11562,-0.37071,0.026558,-0.38911,-0.11825,-0.14302,0.3066,0.19415,0.06904,0.23766,0.20796,-0.32145,-0.30062,-0.27379,0.30226,0.13918,0.040821,0.41725,0.050837,-0.097355,-0.10065,0.025294,-0.060096,-0.28839,0.039248,0.052056,-0.24371,0.012654,0.59553,-0.17904,-0.027433,0.055803,0.074552,0.0052025,0.016386,0.21683,0.28953,0.2515,-0.18189,-0.036871,0.32873,-0.019224,-0.041165,-0.14131,0.29819,0.17517,-0.064066,-0.17373,-0.21801,-0.031453,0.024723,-0.089727,-0.06609,-0.049227,-0.33694,0.073989,0.17374,-0.11096,-0.11842,-0.19913,-0.063422,0.37633,0.27408,-0.42964,0.36752,-0.030307,0.031438,0.17428,0.28921,0.19591,0.12331,0.13098,-0.33105,-0.3872,-0.23809,-0.0012344,0.42201,0.015453,-0.46295,-0.18775,0.079695,-0.24389,0.064611,-0.10378,-0.0026899,-0.12584,0.11478,0.032721,-0.55612,-0.16575,-0.017948,-0.11806,0.096181,-0.021883,-0.12256,0.28005,-0.098045,0.12783,-0.41263,-0.041682,0.076345,0.12855,-0.12193,0.19029,0.18074,-0.18784,-0.074972,-0.12577,-0.26059,-0.26435,-0.070009,0.12445,-0.24315,0.057498,0.14254,0.070813,-0.21422,0.17284,0.43711,0.098439,0.10926,0.16989,0.053938,-0.00618,0.19837,-0.080581,-0.12468,-0.21065,0.030449,0.38673,0.20918
hands,-0.1196,0.024411,-0.036599,-0.064929,0.044166,-0.15137,0.27042,-0.003329,0.30136,0.18818,0.060992,0.16974,-0.26863,0.44095,0.21828,-0.048701,0.27225,0.066729,-0.19067,0.19796,-0.15641,0.029026,0.024358,-0.11306,-0.2234,-0.10304,-0.21604,-0.019495,0.26376,-0.063406,0.058355,0.18947,-0.14284,0.23416,0.13042,-0.046616,-0.23024,0.16098,0.037748,-0.11027,0.17467,0.14587,0.039295,-0.44795,0.075672,-0.16141,-0.14812,0.021423,-0.29015,0.40482,-0.085079,0.31831,-0.12285,-0.010235,0.17629,-0.20139,-0.12252,-0.098059,0.22381,0.24471,0.19594,-0.13665,0.21365,-0.36699,0.2581,0.28938,0.069623,-0.21009,0.26471,0.2484,-0.34975,-0.053959,-0.14313,0.14682,-0.20398,0.068298,0.20045,-0.081789,0.073374,0.016249,-0.25117,-0.029624,0.4095,-0.1091,0.18092,0.24758,0.10661,-0.2501,0.16327,0.032422,-0.01742,-0.23335,-0.071503,0.10792,0.1988,-0.1012,0.26965,0.53236000000000006,-0.17586,-0.13881,0.21082,0.30074,0.018433,-0.085639,0.094583,-0.091301,-0.30251,-0.16495,0.14053,0.34959,-0.15655,-0.0058164,0.037147,-0.22662,-0.19996,-0.087107,-0.075031,0.083199,-0.26334,0.14734,0.17611,-0.15424,0.17187,0.074615,0.37686,-0.0332,-0.19735,0.013454,0.016545,-0.24184,-0.15313,-0.18419,0.067872,-0.1022,-0.088198,-0.1178,0.092086,-0.106,-0.25146,0.37894,-0.024058,-0.34951,0.2927,-0.059282,0.17515,-0.20867,0.052531,0.097105,0.1973,0.017466,-0.16818,0.014449,-0.12058,0.25896,0.28711,0.18693,-0.10889,-0.053177,-0.036388,0.28864,0.27758,-0.12679,0.12212,-0.12015,0.2992,-0.037214,-0.10662,-0.42421,-0.26656,0.073942,-0.23752,-0.37212,-0.07852,0.10248,0.25751,0.15328,0.0056557,0.062798,0.13497,0.094985,0.3117,-0.21704,0.046296,0.10183,0.014666,0.32381,0.24658,0.08224,0.021264,0.14368,-0.1681,0.071848,0.27401,0.31656,-0.080918,-0.52213,0.29557,0.50192,-0.42597,0.02347,0.097727,0.21414,0.2698,-0.063612,-0.10177,0.21194,-0.30098,-0.24624,-0.27173,-0.027162,-0.17885,-0.045583,-0.18116,0.26082,0.53303,-0.070713,-0.0053487,0.087987,-0.032575,-0.024624,-0.11429,-0.49005,-0.058574,-0.048067,0.46245000000000003,0.15105,-0.019522,-0.23611,-0.28464,0.10472,-0.22204,-0.12738,0.1542,0.44138,0.031605,-0.14083,0.32327,0.22963,-0.063654,-0.04036,0.077095,-0.20805,-0.54484,-0.26135,-0.34373,0.81904,0.1032,-0.39027,0.21198,0.16664,-5.2418e-4,-0.14036,-0.21783,0.083385,-0.19828,0.19384,-0.22315,-0.55319,-0.28866000000000003,0.098301,-0.080103,0.11847,0.11011,0.056846,0.01982,-0.011155,-0.094192,-0.26544,-0.2135,0.0074777,-0.16045,-0.097666,0.11962,0.033028,-0.13054,-0.10661,-0.18182,-0.26162,0.017982,-0.030198,0.4458,-0.17016,0.022161,0.043335,0.087268,0.16491,0.37788,0.17919,-0.28635,-0.27419,0.25548,0.38076,0.31182,0.038269,-0.29995,-0.15057,-0.066202,0.1766,0.29267,0.25806
feet,0.021299,0.24772,-0.38964,-0.082125,0.23943,-0.41143,0.050004,0.25302,0.32597,-0.2268,-0.12075,0.13985,-0.1621,0.37682,-0.09619,0.11653,0.0026236,-0.15374,-0.12298,0.2628,-0.14836,0.025185,-0.32814,-0.08066,-0.2243,-0.32975,-0.1166,-0.033836,0.40877,-0.20471,0.21776,0.40699,0.25291,0.14638,0.026988,0.13035,-0.07563,0.24856,0.10738,-0.24319,0.10668,0.10521,0.39169,-0.41613,-0.42569,-0.28233,0.061948,-0.037834,-0.32791,0.48308,-0.12406,0.30157,0.091197,0.082791,0.14468,-0.27997,0.15772,-0.0031162,0.10492,-0.0013836,0.059182,-0.05897,0.048276,-0.2159,0.13085,-0.006011,0.091297,-0.15854,-0.0875,0.019773,-0.1885,0.091632,-0.045321,0.22328,0.025889,0.04646,0.29179,0.38226,0.41307,0.063946,-0.13411,0.049291,0.38505,-0.4058,-0.049046,0.27776,0.21967,-0.31423,0.02946,0.16505,0.0106,-0.053245,-0.16057,-0.22283,0.089774,-0.16716,-0.36675,0.67548,0.080591,0.050554,0.23967,0.10347,0.30038,0.06827,-0.070656,-0.3048,-0.020114,0.14745,0.21353,0.34478,-0.27965,-0.16496,0.076415,-0.01589,-0.059325,-0.36853,-0.08838,0.34947,0.057423,0.064207,-0.11392,0.091254,-0.11341,-0.26448,0.35184,-0.25754,-0.012804,-0.087467,7.3679e-5,-0.23058,-0.024342,-0.48071,0.075721,0.071176,-0.32815,-0.12163,0.025578,-0.056148000000000003,-0.18099,0.10394,0.095226,-0.25537,0.46113,0.18626,-0.03472,-0.10556,0.022168,0.18001,-0.051765,-0.13976,-0.091784,-0.044199,0.083368,0.42528,0.31464,0.22009,0.13242,0.092132,0.10043,0.27768,0.46136,0.092446,0.17819,-0.25568,-0.033549,-0.24335,-0.066625,-0.14446,-0.022166,0.16219,-0.23944,-0.13976,0.03481,-0.070522,-0.086519,0.39385,0.10923,-0.081245,0.44292,0.18731,-0.55162,-0.48863,0.049417,0.25145,0.078605,0.30662,0.30747,-0.11588,0.28873,-0.10184,0.072493,-0.53676,0.065993,0.058835,-0.062559,-0.27619,0.12715,0.16562,-0.44399,-0.016293,-0.23406,0.52713,0.054623,0.38003,0.15735,0.2215,-0.013545,0.16434000000000001,0.13649,0.090904,0.063098,-0.20864,-0.09366,-0.13398,0.24465,-0.078777,0.091119,-0.030638,0.060887,0.17419,0.4162,-0.25249,-0.16811,-0.33487,0.43034,2.6164e-4,-0.19764,-0.25624,-0.21208,-0.058919,-0.078165,-0.38041,0.085336,0.039611,0.16831,0.24677,0.35784,0.1442,-0.32393,-0.097071,0.088423,-0.18636,-0.30596,-0.15758,-0.38261,1.0117,0.06827,-0.047113,0.3077,-0.06634,-0.044694,-0.080342,-0.15249,0.21275,0.39916,0.12813,-0.35559,-0.42088,-0.055464,0.59105,-0.026485,-0.052027,-0.31416,0.047734,0.58699,0.19897,0.15288,-0.16792,0.044021,0.012762,0.016713,0.01138,0.15696,-0.2995,-0.22643,-0.24796,-0.21117,-0.477,-0.16594,0.28824,0.088525,-0.34352,0.0045537,-0.14247,-0.023767,0.25016,0.19487,0.3379,-0.13095,-0.40272,0.2227,0.075,0.39233,-0.048716,-0.34676,0.034024,-0.164,-0.054161,0.19865,0.61036
hair,0.36573,-0.054748,-0.061445,0.012059,-0.1914,-0.10406,0.24022,0.16277,0.20045,0.083506,-0.30358,-0.054946,-0.22613,0.65682,-0.28894,0.40927,0.12306,0.024299,-0.0067362,0.2163,-0.10908,0.13432,0.12269,0.010988,-0.15638,-0.37947,0.21414,0.18984,0.22748,-0.48875,0.18038,-0.023559,0.048394,-0.057259,0.29053,0.14746,-0.038422,0.34028,0.13935,0.078465,-0.08053,0.1235,0.25817,-0.59965,-0.024221,-0.25115,-0.12929,-0.21516,-0.14116,0.010705,0.091166,0.32935,0.01185,0.17807,0.24446,-0.23721,0.31602,-0.32664,0.030782,-0.35112,-0.037045,0.10489,-0.095346,-0.19429,-0.23307,0.24,0.17194,-0.22634,-0.099006,0.32497,-0.23127,-0.28622,0.024595,-0.14974,-0.2107,0.17359,-0.24499,-0.071847,0.23858,-0.2412,-0.12377,-0.20726,0.17676,0.0080344,0.30725,-0.091546,0.061012,0.21391,0.44664,0.014859,-0.46179,-0.16982,-0.14348,0.0055072,0.04552,0.11773,-0.03766,0.10751,-0.29117,0.12336,0.43873,0.34686,-0.0037848,0.13583,0.33528,-0.41294,-0.12198,0.17534,-0.174,0.37589,-0.18033,0.046767,-0.036336,0.21631,-0.15127,0.26832,-0.12448,0.34679,-0.38255,-0.14979,-0.045183,-0.1741,-0.030235,0.22175,0.21144,0.0032022,-0.29841,-0.056703,-0.061459,-0.31701,0.30837,-0.21773,-0.051339,-0.0059482,0.074095,-0.15009,-0.035583,-0.0033334,-0.30414,0.15904,0.035558,0.132,0.35779,0.033414,0.15563,-0.2362,0.075153,-0.10805,0.29526,-0.13131,-0.3385,-0.051672,0.21908,0.10986,0.065811,0.12749,-0.079344,0.22449,0.14295,0.31016,0.54279,-0.18941,0.037223,-0.049337,0.33356,-0.23841,0.11317,-0.27859,-0.13294,-0.13655,-0.58026,-0.22828,-0.20363,-0.10265,-0.076983,0.031427,-0.17444,0.17246,0.12031,0.31571,0.039361,-0.22433,0.22156,0.22182,0.20173,0.64473,0.13537,0.24903,-0.26238,0.1408,0.066032,-0.18159,0.26414,-0.071098,0.17461,-0.47513,-0.0026082,0.28604,0.072679,-0.394,-0.22759,-0.092691,0.11122,-0.062295,-0.023033,0.29844,0.04386,-0.26234,0.17883,0.26409,-0.28001,0.072319,-0.27883,0.020456,0.044135,-0.020419,0.062947,-0.19908,-0.13799,0.021169,-0.072297,-0.33686,0.14914,-0.34505,0.1238,0.38095,-0.2095,0.17957,-0.40469,-0.10664,0.09203,-0.21607,0.13945,0.39058,-0.45376,-0.35644,0.29023,0.6058,-0.099236,0.39265,-0.27736,-0.23623,-0.26622,0.053772,-0.37213,0.58437,0.061282,-0.71867,0.35838,0.30857,-0.52857,-0.14886,-0.34751,0.10461,-0.13573,0.075153,-0.081146,-0.3047,-0.27667,0.12387,-0.12539,0.10388,0.45544,0.11138,0.56432,0.14816,-0.37354,-0.59111,-0.16068,0.13549,-0.12606,0.051978,-0.1451,0.35045,0.1,-0.15,-0.19343,-0.30346,-0.28843,-0.24233,0.32929,-0.21184,-0.10706,0.018511,0.17136,-0.10663,0.19867,0.29882,-0.3361,0.021857,0.24974,0.28172,0.30707,0.078371,-0.23492,-0.45626,0.24291,0.15772,0.36763,0.24464
ground,-0.21086,0.36914,-0.22772,-0.0827,0.17297,-0.29602,0.1797,0.22029,0.23121,0.30043,-0.052624,0.18459,-0.28306,0.31933,-0.022724,-0.038396,-0.19358,0.14468,-0.16536,0.1756,-0.0081027,-0.0043796,-0.10443,0.019878,-0.033421,0.19014,0.049619,0.20028,0.32617,0.26847,-0.23875,0.17098,0.28262,0.50057,0.18748,-0.16003,0.1767,0.12832,0.024723,-0.32508,0.044508,0.25757,0.090614,-0.24051,-0.17617,-0.36396,-0.042283,-0.21673,-0.14361,0.50253,0.057076,0.40044,0.01774,-0.21737,0.11642,-0.024143,0.21641,-0.095492,0.25517,-0.16916,0.08161,0.069326,0.33395,-0.37285,0.13842,-0.13078,-0.20244,-0.38978,-0.13947,-0.15035,-0.18963,-0.056705,0.046099,0.068523,-0.01705,0.028057,0.063449,0.050566,-0.0080832,0.33163,-0.15524,-0.2596,0.39509,-0.27482,0.062713,0.15812,0.24621,-0.16058,0.15228,0.30301,-0.13178,-0.0060615,0.033391,-0.14316,0.60345,-0.17144,-0.10799,0.10001,0.15589,0.17535,0.071719,0.29266,0.13491,0.066077,0.36865,-0.14261,-0.31867,0.11393,0.031713,0.16016,-0.34423,0.20906,0.22969,-0.11665,0.085369,0.026511,0.093008,0.033041,-0.18318,0.21648,0.325,-0.023007,0.21154,-0.1098,0.41175,-0.031698,0.11127,0.18781,0.24189,-0.078006,-0.025339,-0.25173,0.22453,0.034848,-0.49824,-0.16733,0.29392,-0.34341,-0.35348,0.31254,0.29065,-0.082594,0.10816,-0.19247,0.29626,-0.042843,-0.28648,0.18953,0.22784,-0.30543,-0.051046,-0.010102,-0.13366,0.23496,0.30832,0.11856,0.0081223,0.042056,0.055387,0.10197,0.47907,0.049282,0.25718,0.0039471,0.33896,0.070564,-0.39814,-0.17444,0.12348,0.36969,-0.19035,-0.0095428,-0.19414,0.29999,0.18848,0.15231,-0.02426,0.15643,0.33564,-0.043634,-0.30888,-0.41263,-0.14453,0.37078,-0.13812,0.29403,0.43378,0.21367,0.16879,0.078666,0.093848,-0.43332,0.17098,0.18822,0.038528,-0.11946,-0.21039,0.23146,-0.25938,0.16055,0.08815,0.48254,0.11172,-0.20415,-0.069544,0.19922,0.10896,0.14679,0.19725,0.27238,-0.16561,0.029137,-0.10712,0.37866,0.24949,-0.1476,-0.12029,0.048879,-0.014229,-0.062206,0.018473,-0.26198,-0.2827,-0.092748,0.26429,0.13938,0.20118,-0.21639,-0.28244,0.072509,-0.042249,-0.042822,-0.05743,0.36149,0.087402,0.21477,0.0097748,0.11362,-0.0081341,0.031074,0.083581,-0.18436,-0.41176,-0.43023,-0.13978,0.91703,-0.098401,-0.51292,0.15829,-0.25854,0.14159,-0.094374,0.13681,0.055928,0.1211,0.34976,-0.3936,-0.79839,-0.37673,0.10264,-0.11114,-0.075571,-0.13192,0.16802,0.11307,0.29025,0.041655,-0.24374,-0.23597,0.091582,0.12147,0.15951,0.099824,0.083261,-0.25992,0.0039665,0.013856,-0.40467,-0.022159,0.4324,0.10069,-0.27261,-0.27053,0.33818,0.094351,0.1564,0.21407,0.048389,-0.07468,0.075418,0.014714,-0.18866,0.26729,-0.16427,-0.3634,0.11049,-0.44746,-0.055571,0.25125,0.14118
strong,-0.20561,0.023378,-0.11844,-0.21518,0.057735,-0.025337,0.20417,0.18068,-0.094941,0.29298,-0.33414,-0.13207,-0.073089,-0.033407,-0.32425,-0.12793,-0.15731,-0.19793,-0.21408,0.36034,0.071962,-0.22118,0.12615,0.28058,-0.54383,0.099453,0.11429,0.0050869,0.32799,0.20013,-0.0018648,0.060907,0.21076,0.097808,0.057208,-0.079886,0.029048,0.1483,-0.1945,0.10476,-0.13416,0.25647,0.1204,-0.29953,0.11195,-0.030966,-0.017066,-0.12386,-0.26955,0.094472,0.20063,0.22414,-0.24633,-0.19633,-0.14106,-0.13245,-0.0036536,-0.22529,0.29125,0.018361,-0.033808,0.2551,0.41408,-0.47606,-0.069278,0.12925,-0.1295,-0.26423,0.25422,-0.23762,-0.30756,-0.12799,0.20165,-0.29791,-0.12643,0.044376,0.058701,0.062996,0.051396,0.027347,-0.17266,-0.1103,0.17976,-0.22463,-0.043953,0.024006,0.20256,-0.63272,0.38291,0.095021,0.31299,-0.051695,0.13697,0.24884,0.071614,0.10543,0.18699,-0.073831,-0.019527,0.02557,-0.24242,0.083802,0.14536,-0.22709,0.1737,-0.13396,-0.032665,-0.076088,0.2052,0.086657,-0.44448,-0.1103,0.20792,-0.12545,0.15896,0.24036,-0.21585,-0.013407,-0.45234,0.35691,0.25015,-0.22739,-0.17043,-0.15631,0.39795,0.10127,0.073078,0.20004,-0.014948,-0.28611,0.00527,-0.40243,0.3439,0.057367,-0.12047,-0.12401,-0.05237,-0.059057,-0.46742,0.12679,0.35575,-0.06124,0.31437,-0.23844,0.27305,0.13253,0.013586,-0.23595,0.028043,-0.096898,-0.11464,-0.16617,0.053689,-0.049449,-0.12955,0.15936,0.04087,-0.13576,-0.19154,-0.054073,0.47477,-0.23914,0.23571,-0.34797,0.24853,-0.20562,-0.10163,-0.10403,0.12423,0.30516,-0.59079,-0.18186,-0.28056,0.0081496,-0.21749,-0.13071,0.053112,-0.060134,0.046999,0.12777,0.20729,-0.19593,0.083367,0.51834,0.24654,0.23877,0.11195,0.18496,-0.030625,-0.14216,0.25304,0.021285,0.087089,-0.07651,-0.24082,-0.35468,0.020632,0.42133,-0.11027,-0.089696,0.098382,-0.065044,-0.011699,0.06498,0.26,0.10066,0.26986,-0.097295,-0.06886,-0.088731,0.21429,-0.32263,0.14211,0.10639,0.41594,-0.11582,-0.029691,-0.12338,-0.0063177,-0.32962,0.038409,0.082044,-0.042415,-0.050295,0.24226,0.073606,0.15235,-0.14541,-0.093465,0.22725,0.25488,-0.35525,-0.15757,0.65001,0.090286,0.15652,0.02287,0.04693,0.10487,0.21867,0.29411,-0.3565,-0.14972,0.023749,-0.25733,0.58674,0.1175,-0.40828,0.22522,0.052583,0.20874,0.16254,-0.47855,0.026969,-0.34109,0.052257,-0.28664,-0.48137,0.014644,-0.006714,-0.3929,0.25539,0.084208,-0.18839,-0.08906,0.13776,0.30232,-0.2611,0.17503,-0.049,-0.19122,-0.29646,0.17996,-0.23647,0.11807,0.0099042,-0.011543,-0.17546,0.079043,-0.057273,0.11889,-0.1518,-0.049825,0.24633,-0.084638,0.051658,0.17096,0.36135,-0.29288,0.072084,0.28309,0.22992,0.27246,0.061732,0.040491,-0.15401,-0.47701,-0.14801,0.21823,0.12925
single,-0.013434,7.3779e-4,-0.28104,-0.070553,0.13869,-0.12638,7.0205e-4,0.31278,0.06021,0.21337,-0.33582,0.095319,-0.18384,0.36699,-0.27019,-0.14739,-0.17002,0.010692,0.12273,0.17085,-0.08116,-0.095287,0.0088138,0.21079,-0.057323,-0.087325,0.39849,-1.8925e-4,0.13726,0.10535,-0.25213,0.099473,0.3055,0.29085,-0.24785,-0.23553,0.048676,0.20158,0.11099,-0.089771,-0.051917,0.12614,0.043697,-0.29951,0.23021,0.087892,-0.49311,-0.20655,-0.13282,-0.053287,0.15806,0.54753,-0.23173,-0.204,0.0055647,-0.12627,-0.076108,-0.27015,0.007993,0.058851,-0.046408,0.25896,-0.14985,-0.28721,0.16957,0.093097,-0.10526,-0.34549,0.22667,-0.086726,0.11274,-0.016064,0.037168,-0.091274,0.1269,0.0085203,-0.018145,-0.056385,0.24084,0.22397,0.054087,0.10444,0.23835,-0.25397,-0.16741,-0.14756,0.11526,-0.1184,0.052843,0.19221,0.019782,0.11241,-0.061174,-0.15557000000000001,-0.028424,-0.054246,0.15143,0.17404,-0.21996,0.012963,0.081055,0.35776,0.039356,0.16093,0.13448,-0.1241,-0.14103,-0.11572,0.15113,0.013141,-0.36727,0.11192,0.26518,-0.18579,0.11701,-0.0036675,0.28104,-0.065499,-0.10384,0.14853,0.022986,0.13245,-0.024577,0.30158,0.16975,0.048886,-0.1194,0.49047,-0.043826,-0.032622,0.20524,-0.40025,0.15098,-0.11991,-0.057169,0.076097,0.22584,0.30741,-0.040748,0.068856,0.18901,0.14048,0.026613,0.1069,0.11736,-0.022166,0.095831,-0.26238,0.051685,0.015249,-0.24373,-0.077247,-0.29649,0.53894,0.17769,-0.38035,-0.13968,-0.067547,-0.069822,0.14727,0.52154,0.13,0.25938,-0.20772,0.0395,-0.035823,-0.14908,-0.04893,0.15507,0.50121,-0.26167,-0.078033,-0.15357,-0.16937,-0.36104,0.046164,0.02564,-0.014736,0.11801,0.22179,0.030215,-0.20762,0.22124,0.43961,0.14138,0.11959,0.047048,-0.036824,0.0077719,-0.18445,0.16044,0.096487,-0.052888,-0.011922,-0.16867,0.04796,0.17919,0.1487,-0.063594,-0.053668,0.4502,-0.064813,0.13808,-0.13461,0.087273,0.20811,-0.089729,-9.0989e-4,-0.12657,-0.039867,0.025725,-0.11303,0.102,-0.042778,0.28705,0.16503,-0.086538,0.1125,-0.014415,-0.02455,0.068354,-0.013296,0.038928,-0.048397,0.12137,-0.076603,0.033828,-0.015642,-0.0086216,-0.098895,-0.065289,-0.093937,-0.13938999999999999,0.10802,-0.054105,-0.13893,0.35001,-0.060319,0.03692,0.13055,0.091502,-0.24437,-0.33325,0.0040725,0.036711,0.21571,0.0063859,-0.2444,-0.042199,0.023334,0.11448,-0.1667,-0.12453,-0.19593,-0.37065,0.37427,-0.039387,-0.34029,-0.21416,0.22036,-0.32608,0.22402,0.11914,-0.24681,-0.083681,0.030073,0.22885,-0.69566,-0.1863,0.11566,-0.081043,-0.31895,0.30726,0.12386,0.16859,-0.035571,-0.22779,-0.19189,0.06224,0.11258,0.16721,-0.2828,-0.18231,0.16032,-0.35622,0.067946,0.41589,0.27806,-0.097248,-0.034311,-0.085664,-0.32973,-0.0027172,-0.13347,0.11016,-0.080195,-0.19884,0.096111,0.0064667,0.25098
short,-0.11973,-0.19595,-0.14596,-0.18976,0.051206,-0.052764,0.016718,0.25232,0.28033,0.12294,-0.16304,-2.0104e-4,0.19968,0.70439,-0.46555,0.14387,-0.16699,-0.057982,-0.023577,0.39005,-0.23131,0.16001,-0.0071698,0.29368,-0.19077,0.016756,0.26533,-0.098048,0.06,-0.0089597,0.049201,0.023921,0.33784,0.073907,0.047245,0.28226,-0.01939,0.36301,0.044125,-0.25976,-0.090364,0.0056464,-0.22517,-0.33553,0.36108,-0.13877,-0.099067,-0.024045,-0.15236,0.093701,0.018595,0.33402,-0.43108,-0.2425,-0.097331,-0.20317,0.20198,-0.11469,0.0013095,-0.043036,-0.17022,0.09251,0.38612,-0.24659,0.030412,-0.15886,-0.18842,-0.225,0.29412,0.012273,-0.3023,-0.18131,0.068869,-0.041507,0.10769,0.0036158,-0.16953,-0.027671,0.13189,-0.064095,0.053345,0.054858,0.17952,0.0057828,0.015841,-0.33987,0.27453,-0.083823,0.30709,-0.072501,-0.040551,0.31589,-0.10797,-0.16317,0.40541,0.023325,-0.17832,0.42408,-0.023165,0.27706,0.071773,0.28401,-0.046813,-0.029193,0.37457,-0.11808,-0.21509,-0.10781,0.14313,0.34322,-0.17453,0.14152,-0.089942,-0.072128,-0.019302,0.2884,-0.014227,0.29573,-0.2221,3.429e-4,0.43783,0.0012616,-0.2369,0.14334,0.043444,-0.07451,-0.21075,0.26047,0.15561,-0.22976,-0.061764,-0.18381,-0.011157,0.27355,0.074817,-0.13155,0.1172,-0.058347,-0.33138,0.19595,0.20349,-0.088301,0.33357,-0.056052,-0.18987,-0.04998,0.29419,-0.2222,0.30412,-0.21719,-0.13527,0.011387,0.15384,0.46166,-0.063672,0.082776,0.092731,0.053091,0.17938,0.3165,0.74789,0.069516,0.46082,-0.21554,0.12858,-0.092291,0.033492,-0.44163,-0.069217,0.19593,-0.24829,-0.52263,-0.15834,-0.0024678,-0.25282,-0.1135,-0.0023286,0.12976,0.10964,0.07376,-0.15334,-0.32406,0.076241,0.15483,0.22847,0.21245,0.41752,-0.033466,0.10097,0.25306,0.028711,-0.018176,-0.025354,0.056807,-0.17211,-0.37808,0.067969,0.13056,0.0072664,-0.24118,0.02957,0.080493,0.47931,-0.059486,0.11546,0.05345,-0.062399,-0.41946,-0.18865,-0.079951,-0.078963,0.052457,0.085984,0.12259,0.25466,0.040825,0.056605,-0.37111,-0.18395,0.11833,0.090665,0.16411,-0.21234,-0.0035886,0.28498,0.017839,0.069072,0.061889,-0.044632,0.32822,0.072117,-0.152,-0.15926,0.3028,-0.015095,0.17497,0.38316,0.072559,-0.2825,0.19634,-0.053944,-0.046503,-0.21813,-0.029649,-0.064614,0.43648,-0.19893,-0.27059,0.14052,-0.037556,-0.13724,0.22317,-0.2682,0.0094799,-0.10391,0.041437,-0.37143,-0.22779,0.0093952,0.29,-0.2817,0.18642,0.055634,-0.43998,-0.080027,0.17418,0.080007,-0.21643,0.046201,0.22562,-0.092738,5.3199e-4,-0.1206,-0.079605,0.1937,0.0020436,-0.25016,-0.099572,0.072462,0.12121,0.11695,-0.24536,-0.17006,0.28038,-0.0019894,-0.047558,0.17357,0.031929,-0.18361,-0.020221,0.21306,0.13749,-0.029233,-0.077182,-0.022804,-0.039741,-0.056898,0.26047,0.037837,-7.4461e-4
low,0.10557,-0.020413,-0.066229,-0.14135,0.17524,-0.44843,0.074951,0.087511,0.23722,0.29082,0.015698,0.036633,0.28768,0.54554,-0.064039,-0.093015,0.35153,0.11595,-0.15034,0.3792,-0.13899,0.15935,-0.25834,0.041585,-0.49375,0.11315,-0.083479,0.08497,0.1123,0.0028356,-0.079157,0.064066,0.43454,0.057681,0.59132,-0.010622,-0.32314,-0.16393,-0.018077,0.027549,0.28249,-0.013623,0.15676,-0.37784,-0.11875,0.08741,0.011986,-0.064215,-0.16683,0.11344,0.091938,0.63642,-0.41779,-0.10708,-0.16725,-0.15205,0.258,-0.42677,0.19457,-0.15609,-0.21275,0.66278,0.71765,-0.30697,0.055588,-0.20197,-0.14501,-0.27549,0.59987,-0.13523,0.15776,-0.15548,-0.026247,0.07089,0.12499,0.089444,-0.52518,0.12005,0.39752,0.28683,-0.21132,-0.43997000000000003,-0.11187,-0.082881,0.0391,-0.14395,0.24009,-0.32493,0.33441,0.33531,0.70557,0.097007,0.065864,-0.16455,0.19473,-0.0051349,-0.03319,0.06648,0.3733,0.45075,-0.030195,0.21593,-0.071263,-0.29251,0.3376,0.19598,-0.027093,-0.10311,0.1477,0.24635,-0.4513,0.047642,0.43422,0.18099,0.26671,0.3397,-0.2357,0.10354,-0.09734,0.26796,-0.064212,0.21957,-0.024484,0.079254,0.61362,-0.063893,0.4757,0.09187,-0.14991,-0.46178,0.18884,-0.45017,0.21186,0.10483,-0.57772,-0.12878,0.32094,-0.19051,-0.44547,0.10803,0.29956,0.27915,0.25017,-0.0032136,0.23457,-0.14635,0.19697,-0.27735,0.29942,-0.40287,-0.12772,0.23147,-0.09585,0.35227,0.13935,0.050359,0.20063,0.031125,-0.13558,0.11422,0.62938,0.3009,0.23334,-0.29579,0.25628,-0.27868,-0.268,-0.22228,-0.26268,0.34391,-0.34858,-0.1195,-0.33463,-0.051837,-0.31192,0.14244,0.15752,0.067977,-0.11222,0.095695,-0.24935,-0.15439,-0.029701,0.2314,0.41667,0.093548,0.27194,0.0098284,0.0042198,-0.15291,-0.071492,-0.053516,0.0018336,0.057132,-0.1469,-0.4088,-0.028115,0.41788,-0.04002,-0.32019,0.051707,0.03525,-0.10925,0.059863,0.15491,-0.16954,-0.13836,0.011586,0.12088,-0.0077693,-0.0076362,-0.2158,0.24837,0.15553,0.20487,-0.054869,0.13486,-0.019246,-0.19319,-0.066939,-0.076651,0.15803,-0.091466,-0.23375,0.24434,0.18665,0.14425,0.010156,-0.23287,0.29413,0.35283,-0.19049,-0.094886,0.49193,0.19256,0.087271,0.53789,0.27979,0.11811,-0.18705,0.41047,-0.4478,-0.23359,-0.02566,-0.024844,0.30048,-0.033876,-0.39102,0.017484,-0.25132,-0.074334,0.083438,-0.37268,-0.28288,-0.36355,0.059567,-0.4546,-0.57517,-0.42915,0.032673,-0.28401,0.0039311,-0.079159,-0.1287,-0.30374,0.050861,0.1714,-0.56651,0.22599,0.084915,0.018666,-0.34581,0.48484,-0.13415,-0.099028,0.090863,-0.17649,-0.35051,0.15732,0.069804,0.12145,-0.38687,-0.45265,0.13036,0.29692,0.099816,0.32561,0.34626,-0.20002,-0.32595,-0.013095,0.041984,0.27475,-0.078899,-0.22594,-0.11783,-0.31891,0.16985,0.11031,0.43308
red,-0.4384,-0.027531,-0.058845,0.29374,0.26858,0.24264,-0.51636,0.20678,0.6202,0.47665,-0.28857,0.11291,-0.2091,0.42683,-0.092625,0.1285,0.78779,-0.059041,0.064186000000000007,0.11773,0.049288,0.11083,0.53877,-0.018397,-0.4383,0.013275,-0.2629,-7.5991e-4,-0.17686,0.036799,0.0065112,0.20246,0.32471,0.5258,0.73378,-0.017869,-0.62632,0.39829,0.22665,-0.25567,-0.002853,0.084049,0.065067,-0.50564,0.74908,0.25845,-0.17821,-0.67127,0.36679,0.22734,0.038137,0.56965,-0.571,-0.095152,0.022957,0.51217,0.17814,-0.40244,0.32636,-0.053054,-0.10307,0.37687,0.28696,-0.33157,-0.14222,0.19511,-0.42239,-0.98331,0.1289,-0.26586,-0.082635,-0.30728,0.45395,0.42661,0.022081,0.67765,-0.067541,-0.012059,0.044688,0.11353,0.20514,-0.33831,0.90075,-0.081706,-0.38088,0.062559,-0.15744,-0.29884,0.60887,0.24465,-0.28717,0.35626,-0.4484,-0.33265,0.79159,-0.034621,0.30685,0.21986,0.53651,0.070249,0.81334,0.70096,-0.16613,0.26663,0.58493,0.21327,-0.53086,-0.18972,-0.023978,0.6889,-0.51674,0.18501,0.68238,-0.069584,-5.727e-4,-0.2276,-0.046884,0.032937,-0.40501,0.2051,0.087502,-0.17453,-0.079644,-0.032299,0.68159,0.69075,0.91892,0.2415,-0.36164,-0.13904,-0.30197,-0.37703,0.18006,0.18605,-0.13165,-0.0059454,0.075131,-0.19291,-0.1864,0.73132,0.069062,-0.26585,0.088447,-0.11791,0.21821,-0.25497,-0.10264,-0.051499,0.94577,0.1322,0.16315,0.26606,-0.70181,0.37091,0.3489,-0.23069,0.1622,-0.35905,0.07832,0.32487,0.68708,-0.0090401,-0.24712,-0.2885,0.12132,-0.70203,-0.2038,-0.16987,-0.084845,0.45411,-1.0124,-0.35378,-0.085916,0.1753,-0.23836,0.13377,0.38215,-0.27806,0.09832,0.094221,0.021797,-0.55212,-0.093957,-0.037275,0.13599,0.68376,0.60754,-0.24133,0.092504,0.27413,0.074855,-0.054118,-0.1511,0.64405,0.59375,-0.57567,-0.19757,0.51088,-0.21244,-0.25059,0.11565,0.30912,0.10364,0.11489,0.12079,-0.16542,-0.074338,0.1144,0.091288,0.47528,0.33726,0.0039943,-0.49015,0.71761,0.19063,0.077092,0.14533,-0.54019,0.073009,-0.28421,-0.17261,0.18616,-0.35116000000000003,0.39125,0.57093,-0.071429,-0.40611,-0.064313,-0.43678,-0.044461,-0.363,0.11784,-0.73806,0.57002,0.12763,0.13195,-0.2685,0.3377,0.0043921,-0.20465,0.050377,-0.021967,-0.5862,-0.3892,0.18951,1.0747,0.13403,-0.52323,-0.14428,0.40846,0.10332,0.77837,-0.036827,-0.16504,-0.2839,0.39713,-0.46534,-0.76948,-0.65594,0.21683,-0.34079,0.30967,0.2192,0.081989,-0.10015,-0.24673,-0.03613,-0.82453,0.30814,0.28894,-0.22868,-0.4684,0.30523,-0.23035,0.30534,-0.37595,-0.47688,-0.75015,-0.18694,0.091531,0.26093,0.17937,-0.30757,0.22222,-0.16092,-0.18795,0.47477,0.083329,0.033401,0.42642,0.041196,-0.045713,0.075925,-0.082238,-0.38877,0.51684,-0.67187,0.070679,0.62262,0.6969
dark,0.082862,-0.073718,-0.26341,-0.13082,0.079837,-0.20464,-0.041573,-0.046289,0.13467,0.13719,-0.16812,-0.0044836,-0.30337,0.3718,-0.12818,0.39183,-0.16064,-0.26239,-0.027296,0.08412,0.050706,0.040341,0.25581,-0.13534,-0.0012923,0.14117,0.14359,0.3514,0.23811,-0.34563,-0.015221,0.11777,0.275,0.024017,0.18246,-0.054232,-0.14578,0.083499,-0.10761,-0.18492,0.060017,0.20654,0.24736,-0.28078,-0.0061986,-0.2063,-0.023518,0.16576,-0.13213,0.085109,0.30068,0.44276,-0.055554,0.23428,0.27955,8.428e-4,0.26606,-0.19091,0.088746,-0.26105,0.012953,0.20475,0.014228,-0.096853,0.40112,0.15101,0.12756,-0.31571,0.19728,0.001029,-0.27482,-0.086622,0.23746,0.060766,0.063263,0.14996,-0.16622,0.056325,0.035328,0.068316,-0.28945,-0.14078,-0.076127,-0.15442,0.12091,0.15419,0.27438,-0.07477,0.30142,-0.060119,-0.16526,0.083254,-0.11823,0.062251,0.033365,0.064355,-0.056518,0.49257,-0.1213,0.27364,0.12876,0.39308,-0.20856,-3.3516e-4,0.23367,-0.29955,-0.3843,0.13977,0.044061,0.26327,-0.22188,0.26659,-0.1043,0.010706,0.031238,0.074448,-0.046628,0.22593,-0.32982,-0.011454,0.23973,0.18415,-0.30028,-0.13252,0.12166,0.11111,0.15638,-0.05841,-0.26157,-0.32401,0.41683,-0.15956,-0.055844,0.032447,-0.35472,0.16987,-0.088646,-0.047579,-0.070894,0.24687,-0.075466,0.16847,0.094805,0.02511,0.075683,-0.075326,0.088626,0.098165,0.11605,-0.25874,-0.1443,0.1811,-0.070006,0.29738,-0.016389,-0.11539,0.14219,0.26413,0.066427,-0.15833,0.24903,0.15042,0.28273,-0.011818,0.092326,0.054473,0.016603,-0.26862,-0.067129,-0.18756,-0.29565,-0.15297,-0.36985,0.1071,-0.34716,-0.25892,-0.040106,0.10562,0.22081,0.042466,-0.031123,-0.29797,-0.18055,0.28441,0.11098,0.41294,0.26332,-0.20459,0.0022691,0.11678,-0.073721,0.063733,-0.027298,-0.10083,0.12012,-0.16475,0.065277,0.31686,-0.11294,-0.013138,0.089761,0.18216,-0.098794,0.19115,0.080042,0.38107,0.33715,0.0087508,-0.28433,0.31497000000000003,-0.22509,-0.030432,0.042007,0.22042,0.10295,-0.28812,-0.089898,-0.17149,0.16271,-0.11786,0.14597,-0.0072534,-0.089448,-0.19685,0.031752,0.20934,-0.085648,0.069495,-0.29573,-0.056602,0.41211,-0.22528,-0.019032,0.28599,-0.39675,-0.0014242,0.14608,0.30628,-0.15647,0.20531,0.039832,0.19594,-0.25816,0.012134,0.065821,0.46498,-0.26052,-0.66851,0.097503,0.18223,-0.21402,0.048747,-0.20282,0.0027153,0.048833,-0.06431,-0.08044,-0.50277,-0.13782,-0.092273,-0.14751,0.13248,0.20625,-0.16001,0.71378,0.11619,0.061164,-0.38502,-0.22199,0.17964,-0.14376,-0.16252,0.24014,0.16985,-0.042668,0.0037432,-0.19779,-0.2175,-0.069957,-0.066834,0.29081,-0.047931,0.032235,-0.024271,-0.044312,0.10206,0.15895,0.35737,0.14595,0.077267,0.14863,0.14179,-0.013151,0.11723,-0.11095,-0.19797,-0.15065,0.12592,0.30255,0.27418
arms,-0.12499,0.080899,-0.16335,-0.015919,0.21296,0.12441,0.33775,0.062957,0.12006,0.2113,0.28816,0.021299,-0.085701,0.37626,0.25022,0.3293,-0.14286,0.098518,-0.33095,0.37343,0.22094,0.061126,-0.20584,0.0043587,-0.14457,-0.17234,-0.094348,-0.0017661,0.38468,-0.27365,0.073187,0.18613,-0.093788,0.055843,0.26724,0.019678,-0.042712,0.2126,0.19996,-0.27627,0.062519,0.040032,-0.14699,-0.54611,0.17019,-0.48235,-0.022175,0.1625,-0.36043,0.66593,0.099506,0.33312,-0.028676,0.091428,0.29461,-0.16711,-0.11892,-0.11183,0.13176,0.1043,0.17247,-0.094361,0.032772,-0.41898,0.22965,0.13886,0.052334,0.017249,0.10723,0.21745,-0.4011,0.071517,-0.10863,-0.19582,-0.17016,0.16505,0.2558,-0.086359,0.13378,-0.054989,-0.2954,-0.29901,0.32679,-0.11808,0.024183,0.1013,0.086342,-0.11858,0.04213,-0.089546,-0.021879,-0.30655,-0.0058304,0.04796,0.050468,-0.037041,0.31145,0.46142,-0.21264,-0.1773,0.25039,0.2679,-0.075007,-0.12851,0.13753,-0.058515,-0.084166,-0.091458,0.28127,0.25775,0.0045451,0.050568,0.19451,-0.42989,-0.14129,0.22231,0.40546,0.16665,-0.076036,0.12218999999999999,0.11025,0.12712,0.18719,0.26266,0.37591,0.10129,-0.51084,0.099077,0.19062,-0.43388,0.041004,-0.18354,0.51385,-0.27134,-0.32475,-0.26564,-0.099486,-0.31227,-0.51059,0.20929,0.099089,-0.39292,0.526,0.16594,-0.088452,-0.41113,-0.15146,0.14209,0.13052,-0.26903,-0.10813,0.0069155,0.041762,0.33122,0.30216,0.14546,0.1279,-0.050745,0.19303,-0.014426,0.39082,-0.18747,0.11057,-0.16789,0.1174,0.027316,-0.10926,-0.22985,-0.024014,0.14141,-5.9013e-4,-0.28939,-0.10343,-0.075061,0.16536,0.080827,0.17039,0.22799,0.23985,0.026593,0.30715,-0.30667,0.12639,0.35255,0.16657,0.26976,0.048411,0.2247,-0.14779,0.35614,-0.33203,0.15777,0.21099,-0.15332,-0.27013,-0.71446,0.41844,0.4612,-0.43959,-0.15243,0.33648,0.27535,0.21416,0.30061,-0.288,0.18583,-0.26416,-0.092277,-0.38591,0.092951,0.068798,-0.048843,-0.14632,-0.18175,0.38335,-0.12149,-0.02534,0.33269,-0.12024,-0.27206,0.12458,-0.53178,0.36388,-0.2457,0.31715,0.12051,-0.16357,-0.20158,-0.30232,0.16711,-0.021014,-0.069596,-0.20029,0.54198,-0.2086,0.057143,0.23526,0.02828,-0.018506,0.07905,0.086567,-0.13912,-0.35062,-0.13268,-0.30602,0.6535,0.19021,-0.39921,0.57945,0.093788,0.045344,-0.060113,-0.39661,-0.0024132,0.071946,0.28567,-0.15374,-0.27496,-0.28209,0.01856,-0.1503,-0.043856,-0.031797,0.03558,0.40232,0.062453,0.26599,-0.20295,-0.43256,-0.23173,-0.10234,-0.20458,0.24239,0.15895,0.029216,-0.15273,-0.016153,-0.29608,0.31749,0.020914,0.41648,-0.32972,0.12215,-0.085763,0.13976,0.11307,0.11557,0.32342,-0.3047,-0.28565,0.12401,0.26466,0.061026,-0.090166,-0.12813,-0.40854,0.10788,0.18205,0.10134,0.28233
fine,0.10317,-0.0123,-0.080856,-0.089701,0.079618,-0.0058004,-0.034449,0.18593,0.076908,0.047286,-0.58112,-0.057593,0.21628,0.33103,0.031866,-0.21795,-0.0041696,-0.24028,0.01473,0.32441,-0.37863,0.25559,0.26678,0.13099,-0.35625,0.0024249,0.17934,-0.13356,0.19421,0.1572,-3.1728e-4,0.25446,0.18461,0.14328,0.39139,0.12698,-0.13021,-0.016739,-0.083897,0.36235,-0.13547,0.29146,0.11912,-0.36651,-0.064644,-0.14011,0.033429,-0.059805,0.22767,0.048827,0.19476,0.24489,-0.23624,-0.0021248,0.11717,-0.11414,0.092747,-0.21861,0.086371,-0.016502,-0.12927,0.38472,0.061746,-0.32729,0.016324,0.058209,0.016455,-0.37569,0.099455,-0.11485,-0.38741,-0.046328,-0.19462,-0.0033703,-0.11709,0.056258,0.045832,0.10859,0.13351,-0.091743,0.13603,0.071949,0.016637,-0.16126,0.11105,0.092951,0.11595,-0.4601,0.093842,-0.21223,-0.10423,0.068477,0.19422,-0.27806,0.17544,-0.086332,-0.025704,0.28678,0.043256,-0.013117,-0.033634,0.57637,-0.21546,-0.062654,-0.073174,-0.13877,-0.62738,-0.10842,0.088379,0.1697,-0.30903,0.1852,0.28542,-0.37571,0.039898,0.14277,-0.062995,-0.20301,-0.38879,-0.2733,0.13225,0.034768,0.10108,0.11015,0.15013,-0.20679,0.31771,-0.15109,-0.071361,-0.33885,0.24311,-0.3915,-0.023544,-0.13887,-0.063276,-0.30829,0.34144,-0.060731,-0.11648,0.39516,3.0027e-4,0.035606,0.091383,-0.52115,0.24179,0.010464,0.084181,-0.25084,0.26308,-0.22308,-0.27696,-0.10153,-0.078786,0.41123,0.22831,-0.0075366,0.14442,0.20924,-0.11854,0.033318,0.34106,0.21051,0.1801,-0.14638,0.026151,-0.33035,-0.18624,-0.086906,0.24455,0.32047,-0.034856,-0.24825,-0.40334,0.24969,-0.045431,-0.049128,0.13517,0.10805,-0.093929,-0.049378,0.10687,-0.49953,0.33042,-0.0073072,-0.13506,0.34057,0.03592,-0.024847,-0.089486,0.017499,0.089362,-0.24662,0.14202,0.3106,0.08608,-0.23538,0.10602,0.42981,-0.12967,-0.044412,-0.027651,0.14157,0.17534,0.1392,0.14325,0.045599,0.062691,-0.27532,-0.17896,0.22956,-0.039834,-0.11175,0.039999,0.31924,0.29857,0.032768,0.054614,-0.10107,-0.020546,-0.24377,0.19319,-0.097055,-0.30286,-0.053125,9.8767e-4,0.14655,0.17369,-0.061032,-0.25497,0.018255,0.075168,-0.18084,-0.39866,0.47509,0.11607,-0.24892,0.15253,0.20605,0.035931,0.11457,0.026944,-0.37922,-0.10836,0.034411,-0.16491,0.35179,0.14574,-0.25884,0.31184,-0.029674,0.025676,-0.0090582,-0.090724,0.013039,-0.21938,0.25597,-0.14974,-0.4934,-0.35638,0.40955,-0.17934,0.043065,0.0090043,-0.22183,0.014964,-0.05403,-0.14098,-0.28096,-0.046595,-0.038157,-0.068522,-0.23265,0.06731,-0.044011,-0.21513,-0.12172,0.075259,-0.089363,-0.22933,0.041472,0.0897,-0.044695,-0.37019,0.31332,-0.077027,-0.19726,0.18716,0.38202,-0.15214,-0.1755,0.085895,0.26393,0.24028,0.086263,0.087352,-0.062478,-0.18007,0.077003,0.37674,0.36812
size,0.041721,0.12822,-0.7851,-0.13816,-0.10911,-0.080852,0.54752,0.22493,0.1061,-0.2003,-0.21869,0.22891,-0.087719,0.46076,0.022294,-0.24782,-0.090743,0.084803,-0.085094,-0.063005,-0.27703,-0.053576,-0.044931,-0.16935,-0.39213,-0.2264,0.15678,0.048141,0.021718,0.032349,-0.023813,0.48814,0.32761,0.13812,0.30266,-0.23701,-0.14774,0.19677,0.2283,0.12859,0.35863,0.14606,0.30533,-0.056226,-0.055057,-0.18867,-0.21560000000000001,0.02539,-0.40658,0.11144,0.38162,0.33519,-0.34785,-0.063312,0.19226,-0.29325,-0.16455,-0.14658,0.15444,-0.088771,0.063198,0.11141,-0.0045479,-0.29494,-0.025965,-0.023386,0.17113,-0.37162,0.28467,0.26213,-0.073431,-0.31405,0.17245,-0.36434,0.048797,-0.11093,-0.13785,0.40817,0.1432,0.28677,0.001653,-0.2406,0.29723,0.032199,-0.20991,0.042982,-0.14006,-0.31927,0.09759,0.4984,0.20683000000000001,0.2974,-0.49784,-0.24221,0.10826,-0.064805,0.11935,0.53799,0.030672,0.11723,-0.27978,0.30933,0.12493,-0.28608,-0.016064,0.01081,-0.15343,-0.10361,0.099739,-0.033946,-0.13292,0.31174,0.28375,-0.10706,-0.05437,-0.16621,-0.3387,0.13516,-0.069937,-0.16402,-0.020073,0.10433,-0.012431,0.28648,0.30024,0.076943,-0.21426,0.17364,0.050377,-0.35711,0.3969,-0.099209,0.054268,0.027495,-0.2484,-0.11489,0.10724,0.16417,-0.0019733,0.35334,0.30484,0.26937,-0.0011509,0.28614,0.30197,0.45846,-0.25459,-0.61231,-0.057917,-0.4605,-0.14307,0.19207,-0.016302,0.35514,0.073845,0.31404,0.092632,0.50987,-0.041092,0.041924,0.54327,0.067213,0.34386,-0.23609,-0.40592,0.085315,0.16121,0.31765,0.058953,0.35188,-0.41387,-0.078041,0.0018134,-0.048307,-0.23437,0.027606,0.17093,-0.03525,0.1732,0.15179,-0.25333,-0.41209,0.051808,-0.027328,0.2019,0.060628,0.35789,0.21712,-0.13295,-0.18055,0.27718,0.32086,-0.14485,-0.15113,-0.23102,-0.046057,0.015817,0.21758,-0.1946,-0.23358,0.078886,0.12059,0.23495,0.26283,0.15241,0.3935,0.22517,-0.24624,0.12463,-0.23871,-0.1187,-0.49977,0.020869,0.013096,-0.022658,-0.24852,-0.094979,0.068586,0.34305,-0.26069,-0.086231,0.017235,-0.13677,-0.52196,0.41991,-0.27526,0.036259,4.0007e-4,-0.12569,-0.15334,-0.13454,-0.20785,-0.087643,0.22788,0.010506,-0.2147,0.27047,0.16823,0.20611,0.059578,-0.19243,-0.43039,-0.23498,0.15012,-0.34888,0.50206,-0.40447,-0.25274,0.25887,0.15669,-0.19039,0.13686,-0.14976,0.013436,0.076137,0.13378,-0.37084,-0.19901,0.066069,0.34212,-5.0427e-4,-0.253,-0.16619,-0.61734,0.28992,0.15106,0.032382,-0.19706,-0.037007,0.25457,-0.6098,-0.2725,0.028902,0.26884,0.16324,-0.11791,-0.31614,-0.41131,0.023952,0.30868,0.04859,-0.34433,-0.12495,-0.29073,-0.28188,0.33971,0.20353,0.14478,0.19295,-0.04261,0.19723,0.055559,0.11474,-0.40538,-0.12361,-0.048537,0.087266,0.039764,-0.019566,0.40414
huge,0.1028,-0.11064,-0.22626,-0.25561,0.23048,0.21083,0.4486,0.14215,-0.13372,-0.16585,-0.14962,0.11814,0.15177,0.48369,0.18091,0.16769,-0.19802,-0.11532,-0.13058,0.02793,-0.1215,-0.10369,-0.09232,0.085978,-0.35148,-0.047419,-0.030873,0.070086,0.23513,0.26772,0.11863,-0.021475,0.14744,0.11883,-0.24572,0.091493,-0.072413,0.10105,-0.13753,-0.023127,0.060466,-0.056118,0.25368,-0.020043,0.079755,0.25392,-0.088132,0.02345,-0.26146,-0.18825,0.3044,0.2558,-0.28912,-0.11094,0.43872,-0.07098,0.099055,-0.27975,0.36247,-0.23585,0.033026,-0.039016,0.3365,-0.11427,0.26404,0.18747,-0.074563,-0.042162,0.27604,-0.025133,-0.067935,0.051273,5.88e-4,-0.14384,0.086411,-0.28581,-0.029798,0.19297,0.17583,0.09576,-0.29299,-0.29642,-0.041112,0.016387,-0.31943,0.13654,0.1653,0.098843,0.43482,0.24527,-0.093202,0.23776,-0.23884,-0.12006,0.076802,-0.12468,-0.0046374,0.28004,-0.22765,-0.016457,-0.19808,0.33483,0.042562,-0.21266,0.023141,-0.074856,-0.22519,-0.14528,0.0098678,-0.17253,-0.084465,-0.033494,0.16416,0.095309,0.0091522,0.068584,-0.12021,0.016478,-0.061075,-0.25181,0.20979,0.044007,0.13531,0.20188999999999999,0.54458,0.041374,0.021384,0.055795,-0.25551,-0.30939,-0.060853,-0.23035,0.29452,-0.11543,-0.068358,-0.14276,-0.14013,-0.093232,-0.33801,0.056469,0.54007,0.060598,0.023402,-0.062935,0.35182,-0.054989,0.039666,0.10651,0.13961,-0.17573,-0.03999,0.075935,-0.29607,0.19918,0.18165,0.32909,0.071931,0.26036,0.14863,0.086533,0.45977,0.021610999999999998,0.18941,-0.014515,0.1828,0.067055,-0.21804,-0.18832,-0.13907,0.30653,0.1399,-0.35287,-0.030446,-0.07769,-0.10879,-0.18912,0.17471,-0.058591,0.0066995,-0.10322,-0.021891,-0.49309,-0.25783,0.46401,-0.044296,0.20646,0.32638,0.12501,-0.096295,-0.14958,0.038582,0.14666,0.0060009,-0.039422,-0.11824,-0.19143,0.039236,0.15319,-0.13109,0.13716,0.30819,0.24846,0.059053,0.25947,0.018009,0.14913,0.23031,-0.16718,-0.050082,-0.08841,-0.085579,-0.19273,0.050204,-0.087814,0.021471,0.34967,-0.068377,0.057112,0.12072,-0.043503,-0.021603,-0.094716,0.094813,-0.098123,0.08212,0.0024624,0.1502,-0.002161,0.22977,-0.14845,0.078492,-0.39185,-0.2458,-0.054315,-0.024704,-0.044731,0.23748,0.1631,0.21392,0.29497,0.24501,-0.15572,-0.23675,0.098929,-0.36591,0.50167,-0.21163,-0.31628,0.023609,0.041576,-0.10611,0.35108,-0.27548,0.19858,-0.039804,0.063007,-0.16904,-0.2844,-0.30465,0.0054338,-0.022932,0.13545,0.014209,-0.24867,0.1134,0.096346,0.25724,-0.15242,-0.12994,0.12204,-0.268,-0.29002,0.13262,0.14647,0.25063,0.067238,-0.17524,-0.53163,0.33356,0.11227,0.31797,-0.0084979,-0.18646,0.071588,-0.21544,0.40419,0.060898,0.48845,-0.052354,0.010177,0.11022,-0.0098175,0.17558000000000001,0.11652,0.1043,-0.12134,-0.04271,0.19594,0.051407,0.29464
blue,0.075595,-0.085436,-0.19948,-0.047836,-0.051333,0.10542,0.074223,-0.21885,0.040675,-0.10455,0.066168,-0.12731,-0.10957,0.4009,0.10149,0.15943,-0.094433,-0.040487,0.060948,-0.061002,-0.094957,0.16614,0.25198,-0.10388,0.13092,-0.050562,0.29465,0.36392,0.2226,-0.30287,0.11444,0.080033000000000007,0.30929,-0.12969,-0.015574,0.073424,-0.1983,-0.0037075,-0.0050394,-0.41291,0.29322,0.13607,0.1389,-0.52785,0.10971,0.049603,0.035859,-0.16678,-0.033558,0.17956,0.34333,0.35405,-0.14052,0.23229,0.60221,-0.0055148,0.23857,0.052362,0.11364,-0.065288,-0.23571,0.15161,0.033674,-0.17767,0.23888,0.14247,0.23883,-0.31452,-0.043869,0.22125,-0.31243,0.28949,0.14468,0.074173,0.047738,0.43252,-0.037496,0.040489,-0.091443,0.2143,-0.068486,-0.079547,0.10036,-0.25805,0.049646,0.11554,0.18999,-0.27181,0.38676,0.21774,-0.1187,-0.093443,-0.28767,0.12247,-0.17206,0.028566,-0.065978,0.45701,0.17796,0.4268,0.20613,0.81578,-0.28908,-0.073212,0.24046,-0.35944,-0.34145,0.1343,0.26941,0.23214,-0.083223,0.3195,0.3176,0.048646,0.23878,0.11465,0.02397,0.025692,-0.18374,-0.081708,0.21969,0.11079,-0.29793,-0.11222,-0.0012067,0.12454,0.028159,0.059437,-0.29237,-0.10678,0.24804,-0.37108,-0.065073,0.2556,-0.19041,8.3575e-4,-0.12348,-0.21405,-0.0097959,0.065964,-0.063407,0.16323,0.09628,0.083504,0.27757,-0.1005,0.14198,0.006047,0.69265,-0.28297,-0.24499,0.17499,-0.25567,0.29082,0.25566,-0.049734,0.31088,-0.13763,0.042574,-0.01415,0.55981,-0.083619,0.20442,-0.18537,-0.22126,-0.11302,-0.064209,-0.1873,-0.16294,0.23919,-0.55733,-0.17791,-0.39481,-0.02331,-0.34198,-0.16433,0.16622,0.14097,0.045077,-0.034033,0.23427,-0.037186,0.055691,0.27662,0.36799,0.26232,0.42292,-0.14541,-0.11846,-0.19882,-0.16805,0.16092,-0.31857,0.071541,-0.0035348,-0.31732,-0.081556,0.24807,-0.15576,-0.035334,0.251,0.24241,-0.087132,0.2462,0.08219,0.53563,0.13499,0.024008,-0.038161,0.20623,-0.032335,-0.23153,0.051703,-0.017112,-0.0091769,-0.25474,-0.26946,0.037659,0.31432,-0.13137,-0.022613,-0.14809,-0.020332,-0.38639,0.093644,-0.18141,-0.2032,0.037453,0.025144,-0.041681,0.13699,-0.17364,-0.32414,0.58294,-0.17817,-0.10259,0.17531,0.62838,0.029306,0.062594,0.18912,0.17648,-0.021922,-0.1402,-0.23033,0.58089,0.12079,-0.34384,0.080178,0.28575,-0.30076,-0.058737,0.013133,-0.16627,0.20945,-0.094893,-0.18513,-0.34027,-0.16659,0.10787,-0.075227,0.14783,-0.010359,-0.017764,0.414,0.14104,0.042895,-0.4359,0.16023,0.29604,-0.3688,-0.24457,0.11133,0.42329,0.12985,-0.094504,-0.20035,-0.27529,0.0030622,0.068163,0.22459,-0.28302,-0.15426,-0.12755,0.0090208,0.12532,0.13425,0.044747,0.093985,0.10371,0.30788,0.11553,0.010862,-0.085977,-0.25696,-0.15977,-0.19691,0.17311000000000001,0.26322,0.35901
skin,0.23371,0.35936,-0.14006,-0.19387,-0.20584,-0.38611,0.387,0.26018,0.58367,0.31465,-0.3082,-0.085221,-0.10379,0.48331,0.03379,0.33432,-0.13168,0.072609,-0.092619,0.050472,0.1669,-0.016701,0.32922,-0.036693,-0.23479,-0.15836,-0.15267,0.67044,0.17542,-0.27539,0.26388,0.40069,-0.23627,-0.11814,0.33752,-0.13063,0.33497,0.20526,-0.028155,-0.15815,0.12702,0.013093,0.030762,-0.56272,-0.069721,-0.18933,-0.28941,0.04815,-0.26382,0.39672,0.26755,0.19196,0.14548,0.16354,0.23776,0.0094547,0.22527,-0.021406,-0.045356,0.01815,0.1127,0.55437,0.044419,-0.46132,-0.29779,0.269,0.14176,0.0078692,-0.0066227,0.086519,-0.13691,-0.20354,-0.18186,-0.36685,0.074913,0.2616,0.1556,0.18532,0.3316,-0.0062347,-0.14369,-0.23302,0.25646,-0.024478,0.42985,0.022564,-0.16427,-0.40627,0.32502,0.10254,-0.36159,-0.21355,-0.10294,0.052627,0.031466,0.21129,0.15565,0.2373,-0.19393,0.47412,0.52277,0.4459,-0.082905,-0.22202,0.12983,-0.1908,-0.26527,0.11037,0.18815,0.03375,-0.086426,-0.098331,-0.063068,0.13438,-0.11476,0.43335,-0.13911,0.24367,-0.50343,-0.15233,-0.18056,0.29168,0.050978,0.1541,0.30465,0.030979,-0.24395,0.15425,-0.23857,-0.27666,0.22497,-0.28788,-0.10974,9.8963e-4,-0.039332,0.054241,0.038514,-0.006481,-0.12008,0.30703,0.16857,0.38519,0.38224,0.032118,0.13264,-0.012078,-0.25426,-0.039669,-0.09791,-0.1533,-0.28892,0.098892,0.2084,0.095246,0.036137,0.030028,-0.081458,0.26797,0.14822,0.057915,0.28827,-0.34773,0.22952,0.063766,-0.065946,-0.11032,0.25098,-0.095863,-0.15479,0.10694,-0.11774,0.12433,-0.29978,0.14965,-0.23471,-0.091385,0.10145,-0.13991,0.16503,0.17385,0.075066,0.02254,-0.082054,0.054142,0.37248,0.20087,0.3488,0.16502,-0.1199,-0.21167,-0.11422,-0.24392,-0.21025,0.21598,0.21272,-0.50481,-0.019596,0.46133,-0.22755,-0.37653,-0.036598,0.0364,-0.094851,-0.25527,-0.12655,0.53849,-0.10064,-0.091416,0.25991,0.38287,-0.24496,-0.046772,-0.1088,-0.033532,-0.020465,-0.13599,-0.36584,0.12238,-0.056163,-0.33381,0.057675,-0.31662,0.21033,-0.19954,0.18216,0.47436,-0.10956,0.05537,-0.038846,-0.01886,0.29886,-0.11512,-0.24538,0.35832,-0.1666,-0.30139,0.16521,0.60227,0.12411,0.1847,-0.30177,-0.14234,-0.15204,-0.065932,-0.49725,0.35257,0.064731,-0.48989,0.17556,0.40814,-0.29094,-0.0096273,-0.43412,0.22527,0.093797,-0.055506,-0.026996,-0.59659,-0.44047,0.35674,-0.10191,0.13268,0.27034,-0.1166,0.58684,0.17952,-0.080682,-0.4935,-0.29602,-0.0094551,-0.021917,0.02951,-0.11786,0.027828,-0.12424,0.060377,-0.3063,-0.21644,-0.17393,-0.20238,0.2347,-0.15089,-0.055125,-0.035429,-0.034913,-0.22125,0.15193,0.42145,-0.30967,-0.20826,0.25973,0.028028,0.091794,-0.15912,-0.26318,-0.51232,0.15289,0.097482,0.39453,0.40923
sit,-0.06737,-0.063945,-0.19125,-0.13096,-0.065112,0.073672,-0.16195,0.16243,0.44542,0.21582,-0.18364,-0.13026,0.040881,0.40678,-0.019202,-0.13422,0.025416,-0.10474,-0.43199,0.60393,-0.21481,-0.0018237,-0.039678,0.014071,-0.054066,0.12221,0.058766,-0.10069,0.48805,-0.19854,0.10188,0.25065,0.034755,0.19246,0.27969,0.13839,-0.38541,0.1018,0.20691,-0.079489,0.066177,-0.11345,0.0020906,-0.19566,0.1011,0.13905,-0.11115,0.31709,0.13804,0.43484,0.28558,0.16379,-0.094685,-0.11953,0.0048436,-0.1283,-0.073356,-0.20092,0.32266,0.0035576,0.056967,0.016571,0.1557,-0.3919,0.33238,-0.14039,0.11341,-0.33927,0.25479,-0.10208,0.049827,0.029669,-0.083905,0.35446,-0.28286,-0.15162,0.30119,0.13511,0.054107,0.20821,0.030335,-0.047815,0.19187,-0.25637,-0.067644,0.10789,0.29245,-0.18187999999999999,0.30689,0.092564,-0.11764,-0.14484,-0.073826,-0.43001,0.31776,0.01322,-0.21426,0.33806,-0.31865,-0.054917,0.27539,0.30527,-0.05872,-0.23513,0.12355,-0.1951,-0.31128,0.1562,0.047966,0.1708,-0.28176,-0.11821,0.21056,-0.023749,0.0076906,0.0033171,0.18086,-0.018618,-0.094242,-0.1077,0.24463,-0.14445,-0.017733,-0.189,0.65618,-0.068796,0.17487,0.068804,-0.15435,-0.37614,0.18974,-0.12378,-0.041919,0.28557,-0.52217,-0.39377,-0.051846,0.22757,0.073319,0.29579,-0.065455,-0.071764,0.26476,-0.092728,0.048696,-0.14028,-0.079771,-0.08226,0.17477,-0.1633,-0.16815,-0.14393,-0.034289,0.46496,0.40901,0.075229,0.14482,0.2432,-0.30422,0.084538,0.34469,0.203,0.37394,-0.1051,0.12191,-0.059331,0.04806,-0.4292,0.059482,0.29819,-0.027131,-0.22936,-0.18819,0.011414,-0.27474,-0.095379,0.084403,-0.010517,-0.14402,-0.05667,0.12773,-0.016396,-0.2226,-0.0061566,-0.018225,0.077612,0.26355,0.23209,0.31549,0.01992,-0.02278,-0.078041,0.16949,0.20384,-0.27994,-0.42534,0.17996,0.26322,-0.23747,-0.0080553,0.26731,0.1478,0.065524,0.20344,-0.013583,0.089702,0.042521,-0.025571,-0.16841,-0.028388,-0.25383,-0.23572,0.025804,-0.018864,0.34352,0.21742,-0.078424,-0.24085,-0.1134,-0.38941,-0.16485,-0.26689,0.17369,0.061992,0.12668,0.33184,0.1585,-0.18981,-0.38664,0.085252,-0.067158,-0.28752,0.12476,0.35962,-0.038064,-0.1987,0.22857,0.28793,0.062003,-0.1284,-0.011127,-0.018338,-0.45105,0.050644,0.034161,0.66221,-0.011496,-0.44344,0.018027,-0.0089279,-0.24679,-0.44403,-0.039343,-0.14306,0.23839,0.073522,-0.36313,-0.36663,-0.040451,0.12083,0.18673,0.15209,0.23672,-0.21118,-0.061208,-0.033288,0.40251,-0.39746,-0.16204,-0.27442,-0.049106,-0.19685,0.27609,-0.13543,-0.15386,-0.15217,0.11089,-0.067544,-0.13159,0.17153,0.50686,-0.12784,-0.12686,0.10634,-0.34789,-0.023463,0.46086,0.23061,0.020463,0.12408,0.059296,0.39357,0.52009,-0.32437,-0.0080178,0.11707,-0.041538,0.019973,0.061366,0.28404
larger,-0.066154,0.048811,-0.3769,-0.26289,0.03519,0.12303,0.51261,0.32748,0.12381,0.012908,-0.22477,0.069229,0.023599,0.38063,0.053672,-0.11632,0.089762,-0.075318,-0.15067,0.096834,-0.18194,-0.31652,0.04541,-0.066942,-0.18182,-0.16207,0.12805,-0.049433,-0.10565,0.3183,-0.24721,0.16989,0.2348,0.23389,0.17401,-0.083311,-0.25561,-0.02625,0.048499,0.029644,0.10393,0.34105,0.10176,-0.1978,0.039737,-0.19298,-0.2651,-0.25793,-0.37791,-0.14362,0.42413,0.29842,-0.51813,-0.024852,-0.14929,-0.15447,-0.10269,-0.001989,0.31722,-0.19017,-0.0615,0.074897,0.17199,-0.11138,0.051141,0.072582,0.0049802,-0.29927,0.2376,0.08653,0.16723,-0.20658,0.017343,-0.16673,0.056947,-0.26625,-0.17434,0.20832,0.061928,0.025644,-0.13474,-0.38599,-0.039736,0.19415,-0.4105,0.039926,-0.094617,-0.30851,0.087911,0.15712,0.0050202,0.33101,-0.2168,-0.35983,0.14703,0.13737,0.1885,0.30926,-0.051323,0.11354,0.14375,0.41488,0.05202,-0.061996,0.15745,0.081961,-0.30176,-0.1737,0.076955,-0.079014,-0.016939,0.32439,0.36566,0.21093,0.14133,0.057098,-0.070654,-0.039818,-0.097994,-0.11234,0.074287,-0.013337,-0.19269,-0.1068,0.49049,0.18177,0.14584,0.20499,0.10582,-0.36298,-0.090778,-0.31055,0.17063999999999999,0.018368,-0.12982,-0.32773,-0.047547,0.0046726,-0.23966,0.31988,0.18112,0.057672,0.080701,-0.060618,0.20686,0.038185,0.05819,-0.23676,-0.020352,-0.29567,0.16866,-0.060402,-0.2237,0.39517,0.26566,0.12455,-0.066588,0.36163,0.1859,0.22893,0.25851,-0.070381,0.37715,0.23715,0.036666,0.027396,-0.11322,-0.19327,0.14924,0.25793,-0.17206,-0.017969,-0.1607,0.059732,-0.2192,0.093809,-0.050474,-0.088538,0.19204,-0.19213,-0.19925,-0.31412,-0.030186,0.3081,0.1231,-0.11153,0.27163,0.17558000000000001,0.21491,-0.19765,0.21941,0.25224,0.048255,0.030773,-0.20953,-0.43139,0.15935,0.22387,0.0060057,-0.030392,0.2272,0.25533,0.23966,0.044141,0.47542,0.17734,0.0098481,0.081607,-0.13896,-0.029371,-0.044841,-0.21435,-0.1193,0.1027,0.022523,0.032195,-0.039811,-0.045017,0.096215,-0.0308,-0.14392,0.22945,-0.1964,-0.12435,0.1462,-0.036372,-0.024012,0.17055,-0.044529,-0.081493,-0.0062852,0.017536,-0.27755,0.066958,-0.14176,-0.017658,0.050029,-0.044377,0.053248,0.022918,0.31217,-0.53396,-0.38064,0.13976,-0.47249,0.52597,-0.37097,-0.12614,0.20955,0.11357,0.17222,0.16764,-0.34162,-0.09559,-0.14849,0.11024,-0.29167,-0.46413,-0.07046,0.27184,-0.083411,-0.067322,0.12249,-0.37898,0.010315,0.084397,0.13696,-0.40725,-0.12393,0.2639,-0.70969,-0.039129,0.15723,0.14815,0.1321,0.22801,-0.091861,-0.35722,0.18064,0.1871,0.017029,-0.22703,-0.22674,-0.13917,-0.41287,0.046531,0.22291,0.027282,-0.097847,-0.0072039,0.13008,-0.25992,-0.22824,-0.24929,-0.11152,0.2146,-0.20888,0.1267,0.095619,0.32715
wide,0.026383,0.067768,-0.47867,-0.026576,-0.026437,-0.15709,0.16539,0.30329,0.14444,-0.24417,-0.36962,0.32439,0.30125,0.3994,0.020224,0.028376,0.1079,-0.042916,-0.073477,0.33247,-0.0079348,0.067164,0.2132,0.2062,-0.40899,0.16171,-0.086669,0.050808,0.026197,0.074858,-0.16877,0.15401,0.30975,-0.10548,-0.25757,0.49909,0.043006,0.24749,0.22931000000000001,-0.16648,0.28253,0.011762,0.076534,-0.32509,0.11459,0.054085,0.10871,0.18933,-0.56817,0.29849,0.28763,0.3529,-0.42616,0.086843,0.085379,-0.058376,0.33478,0.013237,-0.012672,-0.32874,-0.02528,0.072278,0.56102,-0.18116,-0.10274,-0.083679,0.053964,-0.07711,0.28733,0.20156,-0.23263,-0.069736,0.20404,0.045986,0.14272,0.10451,-0.10517,0.25525,0.18495,0.14914,-0.075014,-0.011969,0.26913,-0.1334,0.06185,0.054713,0.33394,-0.3336,0.14159,0.15451,-0.15465,0.20321,-0.24048,-0.12791,0.25581,0.15287,0.15572,0.31338,-0.26611,0.33597,-0.078639,0.171,0.12896,-0.022806,-0.11237,-0.010746,-0.19477,0.19005,0.020895,0.44364,-0.19813,0.12866,0.39724,-0.53224,-0.046831,-0.031311,-0.19572,0.29384,-0.3751,0.22026,0.43355,0.026271,-0.16036,-0.052402,0.62135,-0.05529,0.098512,0.34344,0.12755,-0.22253,-0.072623,-0.58839,0.20509,0.08913,-0.29006,-0.13608,-0.055432,-0.078908,-0.31823,0.41687,0.16393,0.080678,-0.030964,0.20586,0.04752,-0.2135,-0.058257,-0.064593,0.24156,-0.19299,-0.11774,0.10166,-0.2579,0.3635,0.16782,0.301,0.0052263,0.29804,0.24407,-0.19378,0.40851,0.10225,0.43835,-0.12943,-0.052839,0.053957,-0.26179,-0.21373,-0.1426,0.18025,-0.26453,-0.22578,-0.197,-0.035595,-0.35796,-0.049948,0.084806,-0.050793,0.45131,-0.16173,-0.013918,-0.62412,-0.064653,0.21997,0.15294,0.16174,0.31662,0.056524,0.16566,-0.081712,-0.064951,-0.0044564,0.15222,-0.13117,0.09248,-0.55289,4.2327e-5,0.40942,-0.29809,-0.17971,0.067532,0.020207,-0.060967,0.31175,0.14121,0.028773,-0.16491,-0.086018,0.10413,0.11904000000000001,-0.22504,-0.45298,0.26634,-0.24545,0.36657,0.074506,-0.35884,-0.056762,-0.2144,0.070791,0.48467,0.039229,-0.34684,-0.52435,0.2261,0.073441,-0.1607,-0.14938,-0.20816,0.14205,0.071043,-0.058674,0.024594,0.34163,-0.056062,0.52559,0.15017,0.16056,-0.16198,0.074372,0.16376,-0.29026,-0.48506,0.023914,-0.24332,0.33613,0.14622,-0.33491,0.17099,-0.039513,-0.23642,0.27083,0.0045366,-0.33479,-0.15414,0.16095,-0.035098,-0.14068,-0.12448,0.50931,-0.1012,0.022071,0.017177,-0.32491,0.076347,0.043391,0.039243,-0.051417,0.076647,-0.15996,-0.15993,-0.71748,0.1099,-0.089432,0.2579,0.20047,-0.034607,-0.5429,-0.080281,0.26025,0.26431,-0.35774,0.020459,0.091217,0.14902,0.25242,0.29849,0.31745,-0.16696,-0.0258,0.18528,-0.04631,-0.0070822,-0.020419,-0.011467,-0.2488,-0.052673,-0.0038034,0.29353,0.65059
standard,-0.25304,0.08404,-0.5935,-0.074491,-0.023878,0.013823,0.063538,0.14123,0.16987,0.25329,-0.30045,0.43752,0.16797,0.35054,-0.24048,-0.37135,0.26411,0.10466,-0.18925,-0.045489,-0.11004,-0.12846,-0.27473,0.17246,-0.17989,0.025312,0.36005,0.068343,0.10606,0.36297,-0.044136,0.1578,0.16727,0.07096,0.14249,-0.0017037,-0.12736,0.14477,0.048394,0.011381,-0.057643,0.18952,-0.11022,-0.30176,0.33083,-0.18237,-0.11601,-0.098417,-0.0077504,0.16577,-0.053579,0.34151,-0.49337,-0.17666,-0.39797,-0.21932,-0.04982,0.052355,0.15707,-0.087817,-0.13088,0.017586,-3.2024e-5,-0.084621,0.054167,-0.0083678,-0.13102,-0.27221,-0.12757,0.23163,-0.034143,0.0039286,0.16932,-0.23292,0.20127,0.049504,-0.42715,0.068218,0.10486,0.59731,0.061787,0.31915,-0.044582,-0.13791,-0.16426,-0.22773,-0.13355,-0.47105,0.13896,-0.0094216,0.027726,0.21054,0.056575,-0.20235,0.17828,-0.077813,0.067473,0.14288,0.17989,0.080484,0.27617,0.35414,-0.014053,-0.070387,0.12777,0.10085,-0.20075,0.067754,0.13228,-0.063139,-0.33324,0.32935,0.48309,0.20366,0.22227,0.066503,-0.1878,0.020724,-0.16196,0.13499,-0.013027,-0.066818,-0.035364,0.1077,0.31195,-0.1331,0.13715,0.23879,0.065829,-0.19553,0.068689,-0.37585,0.1532,0.22492,-0.16334,-0.151,0.36396,0.053979,0.015852,0.40677,0.20696,0.30355,0.18487,-0.48338,0.19009,0.037615,0.051785,-0.46579,0.23378,-0.44527,-0.4463,0.042627,0.053399,0.5469,0.21037,-0.075193,-0.10262,0.35271,-0.0015671,-0.16132,0.30534,-0.15046,0.36531,-0.11905,-0.24932000000000001,-0.21368,-0.0035459,-0.18933,0.10502,0.40614,-0.01546,-0.1614,-0.23155,0.0029711,-0.10052,-0.032686,0.23961,0.062942,-0.19006,0.2987,-0.02007,-0.22435,0.17735,0.27564,-0.048716,-0.20793,0.37318,0.18011,-0.14424,-0.31713,0.35857,-0.12145,-0.26522,0.17403,-0.26737,-0.27437,-0.14676,0.41502,-0.46988,-0.12667,0.048968,0.07368,0.21282,0.22478,-0.012484,0.13102,0.2734,-0.086797,0.053371,0.0276,-0.018167,-0.21942,0.041687,-0.0594,0.18852,-0.13754,-0.20527,-0.061822,-0.15893,-0.26152,0.17252,0.10409,-0.13248,-0.088684,0.21691,-0.1865,-0.10755,0.24671,-0.27825,0.26304,-0.078018,0.14854,0.149,0.45986,0.022517,0.10239,0.12387,0.18904,0.097784,0.10012,0.12853,-0.36946,-0.13093,0.25813,-0.039023,0.35809,0.10265,-0.282,0.20536,-0.24203,0.053509,-0.30309,-0.087594,-0.17379,0.036786,-0.045584,-0.14727,-0.45469,-0.49817,0.24341,0.27855,-0.040754,-0.22023,0.0012435,0.077646,0.028874,0.19911,-0.69391,0.045588,-0.1575,-0.13882,-0.31571,-0.02289,-0.094774,0.096049,0.061315,-0.36693,-0.36793,-0.14001,0.22535,-0.16851,-0.016399,-0.074234,-0.17857,-0.21533,-0.047898,0.22375,0.2355,0.072462,0.051137,0.089449,-0.093589,-0.14366,-0.080447,0.14892,-0.034032,-0.091299,0.21973,-0.27757,0.19657
powerful,-0.11,-0.0069906,-0.4737,-0.054419,-0.059072,0.045439,0.28983,0.22146,-0.069804,-0.0054384,-0.13782,0.050908,-0.20228,0.20064,-0.24703,-0.045694,-0.33412,-0.29407,0.029806,0.26662,-0.058741,-0.39398,-2.0268e-4,0.25439,-0.036894,0.21269,0.13964,0.18515,0.19468,0.246,-0.060627,-0.015996,-0.21586,1.5772e-4,-0.40661,0.019763,0.045198,0.027714,-0.07869,-0.19293,-0.017893,0.23443,0.23287,-0.43449,0.2979,-0.077454,0.028404,-0.11624,-0.49424,-0.22797,0.33019,0.3547,-0.24211,-0.03081,0.12244,-0.38627,0.056649,-0.18282,0.31333,-0.23821,0.12491,0.024008,0.19511,-0.30167,-0.030795,0.30861,-0.0097863,-0.17668,0.23506,0.22884,-0.36421,-0.050589,-0.19877,-0.22606,0.094061,-0.025892,0.058908,-0.0080528,0.068965,-0.12525,-0.23557,-0.015971,-0.09419,-0.20908,-0.1832,0.019321,0.097833,-0.094106,0.053613,0.083741,0.15437,0.082068,0.10315,0.19106,0.23491,0.18152,0.082141,0.074525,0.027743,-0.275,-0.24146,0.1609,-0.032794,-0.19173,0.25767,-0.054267,-0.07691,-0.039094,0.41042,-0.24542,-0.49083,0.0015398,0.24869,-0.099073,-0.11412,0.061702,-0.1984,0.047539,-0.014166,0.023375,0.34678,-0.16359,-0.015559,0.080852,0.041695,-0.11381,-0.029172,0.43525,0.084869,-0.22374,0.20118,-0.34716,0.43101,-0.36954,-0.17318,0.15308,0.067579,0.13267,-0.21875,0.15894,0.4067,-0.33641,0.19373,0.01048,0.15883,0.11905,0.086612,-0.016206,-0.05153,-0.10522,-0.062866,0.1266,-0.091679,-0.22216,-0.21415,0.0852,-0.083386,0.31299,-0.046793,0.034522,0.19694,-0.20562,0.42097,-0.084777,0.1206,-0.046536,-0.026803,-0.11097,-0.11337,0.27686,-0.33548,-0.1205,-0.086907,0.22855,-0.069139,-0.20063,0.044003,0.11451,0.037352,0.12487,0.18181,0.051379,-0.0075561,0.42914,0.044759,0.05388,0.16592,0.24212,-0.097245,-0.22835,0.31062,-0.042293,0.129,0.26335,-0.51424,-0.25009,0.35143,0.25701,-0.16087,0.40657,0.25827,0.02122,-0.24559,0.15577,0.036877,0.55278,-0.01012,-0.04649,-0.23822,-0.27464,0.058519,-0.1494,0.17018,-0.015769,0.42347,-0.36957,-0.086744,-0.0069475,-0.18792,-0.27545,0.023601,0.11888,-0.083686,-0.067279,0.30842,0.09867,-0.0058214,0.042988,-0.082228,0.15811,0.47114,-0.37926,-0.13991,0.32381,0.18896,0.1969,-0.044632,0.24468,0.12465,0.059721,0.48982,-0.14031,-0.55133,0.18199,-0.051598,0.41168,-0.041458,-0.42552,0.20461,0.13424,0.049692,0.087217,-0.42523,0.097934,-0.087513,-0.08706,-0.082245,-0.48276,-0.064185,0.19092,-0.19946,0.27366,0.16865,-0.3758,0.19965,0.24214,0.39721,-0.15297,-0.061839,-0.23119,-0.47565,-0.25191,0.097431,0.02908,-0.049445,0.10131,-0.14062,0.10343,0.14792,-0.044203,-0.077023,-0.070823,-0.041556,-0.1356,-0.35256,0.058832,0.30261,0.32985,-0.41569,0.052406,0.23057,0.0087316,-0.040389,0.096606,-0.13348,0.0065661,-0.15199,-0.066154,-0.24021,0.12062
tough,-0.10312,-0.24034,-0.051233,-0.057202,-0.13375,0.15196,-8.3936e-4,0.21792,0.29242,0.32048,0.040805,-0.014738,0.2612,0.35555,0.033572,0.14403,-0.22956,-0.13317,-0.22106,0.28505,-0.10266,-0.14022,0.14451,0.062594,-0.39113,0.2068,0.11383,-0.043353,0.13133,0.19307,0.072291,0.054488,0.012413,0.075343,0.30719,0.028233,-0.18403,0.29842,-0.024856,0.069729,-0.34251,0.094611,0.31138,-0.19031,-0.0871,-0.086253,-0.011999,-0.017988,0.041206,0.077681,0.16198,0.0097211,0.067775,-0.50756,-0.13278,-0.073938,0.22811,-0.2561,0.32794,-0.023389,0.028359,-0.14222,-0.028315,-0.58139,0.149,-0.086432,-0.11701,-0.45981,0.089853,-0.50662,-0.45416,-0.21077,-0.051904,-0.20744,0.16677,-0.14874,-0.019858,0.31422,0.12746,-0.22487,-0.1063,0.042729,0.045241,-0.051817,-0.0055896,0.092211,0.032246,-0.34467,0.1934,0.16923,0.18831,0.20253,-0.32051,0.063869,0.51482000000000006,0.077338,0.12927,0.1138,0.012647,0.37264,-0.14928,0.14052,0.055168,-0.38827,0.19962,0.17379,-0.19023,-0.022877,0.066547,-0.05428,-0.27483,-0.17106,-0.21052,-0.23352,0.080542,0.20357,-0.046956,-0.14378,-0.40121,0.04812,0.27327,0.036114,0.2923,-0.024355,0.084342,0.066574,0.10767,-0.10827,-0.1274,-0.082726,0.095484,-0.17491,0.12222,-0.094891,-0.012727,-0.33698,0.24253,-0.19469,-0.20677,0.26976,0.19167,0.31914,0.052557,-0.39214,0.078568,0.014831,0.1151,0.019676,0.095606,-0.07745,0.030313,0.18886,-0.22395,0.24389,0.081039,-0.17641,0.12994,-0.30331,0.0068076,0.15144,0.43202,-0.0044838,0.32631,-0.15443,-0.13733,-0.2139,0.11742,-0.25681,0.10272,0.1972,-0.33574,-0.38991,-0.25354,-0.10101,0.087012,-0.12588,-0.038869,-0.16879,0.020607,-0.19577,0.42563,-0.25156,0.1128,0.27764,-0.050699,0.11637,0.18404,0.3207,-0.10753,-0.2477,0.25515,0.32256,-0.045584,-0.025881,-0.52398,-0.12839,0.1756,0.38773,-0.23018,-0.097636,0.13491,0.3775,0.025076,-0.011163,0.29789,0.0088849,0.51813,-0.057879,0.1881,0.17287,-0.071425,0.077162,0.28732,-0.13442,0.20645,-0.054426,-0.12465,-0.17545,-0.10741,-0.21302,0.13888,-0.11451,-0.085975,-0.18328,0.17253,-0.013518,0.29872,-0.24725,-0.032053,-0.13817,0.069937,-0.23594,0.17401,0.27931,0.096146,-0.082299,0.30777,0.21446,0.18209,0.081075,0.15836,-0.18496,-0.20242,0.12035,0.18295,0.41608,-0.14093,-0.3346,0.26336,-0.035719,0.0071622,-0.31015,-0.063654,0.2817,-0.10099,0.023812,-0.30989,-0.30822,-0.13822,0.29542,0.013297,0.060773,0.11511,-0.31388,0.032914,0.02522,0.25867,0.0013054,-0.21371,-0.18279,-0.15089,0.13597,-0.011359,-0.15083,0.16257,0.22787,0.10075,0.042712,-0.0071927,-0.15377,0.19465,-0.0046231,-0.093833,0.32716,-0.40881,0.061184,0.33675,0.28744,-0.22185,0.24202,0.3293,0.054045,-0.0023357,0.18312,-0.050989,-0.13211,-0.28057,0.055382,0.22302,0.26792
fat,-0.0065317,0.4988,-0.040104,0.072916,0.029527,-0.15586,-0.026503,0.40176,0.20039,0.50661,-0.077175,0.60042,0.069384,0.5518,-0.096007,0.45336,-0.16301,-0.083319,-0.13024,0.21919,-0.20114,0.067389,-0.27172,-0.33504,-0.75757,0.037032,-0.070095,0.12555,0.43154,-0.54846,0.084866,0.056173,0.52193,0.37762,0.71237,-0.0065913,-0.10017,-0.070608,0.093056,-0.10147,0.023927,0.19138,0.39727,-0.64149,-0.16377,0.13689,-0.24204,0.11747,-0.51451,-0.058765,-0.027143,0.34508,0.022379,-0.22121,0.31028,-0.23369,0.3517,0.098981,0.17592,0.0081792,0.3772,0.46718,-0.018436,-0.21452,-0.15094,-0.036524,0.096397,-0.16549,0.027261,0.21471,0.28705,-0.076117,0.08076,-0.28003,0.28511,0.16377,-0.2257,0.53524,0.35805,-0.16397,0.26381,-0.22876,-0.083849,-0.15667,-0.029585,0.032626,-0.13928,-0.19785,0.17036,0.17718,-0.18424,0.15105,0.051724,-0.22882,0.22876,-0.040696,-0.049547,0.04361,-0.29295,0.023176,-0.15904,-0.063043,-0.040296,-0.24471,0.13407,-0.15281,-0.28214,-0.012341,-0.20794,0.59568,-0.081087,-0.21274,0.27079,0.2131,-0.18444,0.017606,-0.047477,-0.0068775,-0.42812,-0.35948,-0.20467,0.23999,0.28233,-0.33742,0.39874,-0.030404,-0.13197,0.34045,0.048401,-0.54137,0.28534,-0.12407,-0.25391,-0.13265,0.47118,0.060767,-0.25633,-0.30382,-0.36371,0.52686,0.11589,0.24098,0.15741,0.098429,-3.0272e-4,0.035929,-0.029325,0.21814,0.1535,-0.15192,-0.53005,0.35912,0.205,0.31209,0.73878,-0.057917,0.2763,0.10442,0.067613,0.14626,0.3071,0.010854,-0.21427,-0.052456,-0.33404,-0.10745,0.17061,-0.047227,0.019984,0.33818,-0.0942,-0.21544,0.010095,0.33318,-0.23026,0.36328,-0.33566,0.048652,0.26339,0.31383,-0.45977,-0.34591,0.041126,-0.32919,0.23802,0.16681000000000001,0.4381,0.26445,-0.25877,0.18334,0.13724,-0.069672,-0.20607,0.29823,-0.34192,-0.19527,-0.020542,-0.01692,-0.040125,-0.2191,-0.10872,-0.07906,0.060682,0.066085,-0.06956,0.47202,0.13919,0.016176,-0.03246,0.079078,-0.018304,-0.23109,0.19959,-0.13198,0.027171,-0.15154,0.19817,-0.076561,0.19327,-0.10605,0.31194,0.50259,0.25646,-0.19706,0.17632,0.060899,-0.17795,-0.2276,0.15163,-0.034281,0.32951,-0.29157,-0.044661,0.39056,-0.083449,-0.26937,0.26056,0.24824,0.43441,-0.080538,-0.1642,-0.39453,-0.18495,-0.42544,0.15397,0.11899,-0.15164,-0.41382,0.1081,0.63544,-0.28575,0.16021,-0.57259,0.042734,0.13804,0.14497,-0.32483,-0.12882,-0.63611,-0.0052316,0.16002,0.30302,0.22348,-0.13415,0.32321,0.43589,0.58947,-0.46111,0.27203,-0.14224,-0.090869,0.068885,0.30632,0.12734,0.17333,0.024079,0.046932,-0.057288,0.33032,0.19873,-0.20557,-0.19183,0.077216,0.10473,-0.074006,-0.027995,0.22799,0.34275,0.020897,-0.39215,-0.25161,-0.10915,0.33722,-0.14481,-0.26752,0.028592,0.16521,-0.14754,0.23985,0.49279
normal,-0.16023,0.076636,-0.48256,-0.38347,0.01415,0.085835,0.20261,0.22487,-0.10524,0.12161,-0.11371,0.24445,0.25522,0.56618,0.2168,-0.16293,-0.058428,-0.14704,-0.38019,0.30544,-0.12997,-0.085171,0.15393,-0.17081,-0.32583,-0.10375,0.23804,0.11086,0.16562,-0.20855,-0.18853,0.092393,0.09228,0.082787,0.35917,0.18817,0.10311,0.15294,-0.073229,0.19433,-0.0069283,0.10879,0.13217,-0.60802,0.0384,-0.28558,-0.22421,-0.067716,0.11151,0.0442,0.30481,0.34471,-0.26357,-0.14709,-0.1714,-0.083295,-0.089919,0.075997,0.16418,0.16487,0.017646,0.52754,0.18261,-0.31694,-0.043111,-0.11932,0.17128,-0.044131,0.09471,0.06206,0.2408,-0.10802,-0.059445,-0.30935,0.10732,-0.15009,-0.12192,0.10547,0.16669,0.21369,-0.41032,-0.17866,-0.024356,-0.035602,-0.15201,0.043517,-0.10486,-0.48452,-0.023368,-0.033927,0.40725,0.14174,-0.065784,0.0085248,0.33915,-0.0027604,-0.32625,0.3027,0.15305,0.28286,0.0065357,0.4115,-0.28151,-0.16713,0.1171,-0.087716,-0.19936,-0.031972,0.066305,0.061075,-0.066628,0.024544,0.1789,0.20366,0.048247,0.30539,0.13811,0.12013,-0.077438,0.030409,-0.060263,0.27033,0.099554,0.14219,0.10275,-0.027,0.069546,0.044264,-0.025822,-0.41743,0.069345,0.012321,-0.030031,-0.064033,-0.13736,-0.22772,0.41556,0.057842,-0.17996,0.37265,0.13573,0.33248,0.31463,-0.010006,0.044878,-0.022206,0.15239,-0.20456,0.10279,-0.13592,-0.38752,-0.073801,0.17122,0.46933,0.32446,0.11476,0.18656,0.20119,0.047952,-0.12813,0.13577,0.0050656,0.18986,-0.0988,-0.14247,-0.093477,0.3584,-0.11581,0.1794,0.14578,-0.014965,-0.012512,-0.25705,0.066116,-0.43735,-0.041716,0.14405,0.10222,-0.14869,0.16733,-0.10451,-0.045281,0.12373,0.092814,0.028985,0.050917,0.11921,0.032039,0.13495,-0.10347,0.23834,0.016257,0.086053,-0.094898,-0.10477,-0.16996,-0.20088,0.44945,-0.18859,-0.054802,0.076212,-0.011941,0.22571,0.14929,0.052336,0.070957,0.23494,-0.038231,-0.058122,-0.087453,-0.055628,-0.076688,0.18091,-0.13478,0.048394,-0.10155,0.052542,-0.30803,-0.095782,-0.088737,0.10348,-0.1105,-0.1328,-0.17074,-0.10485,0.21174,-0.0083224,-0.056191,-0.28219,0.094169,0.040548,-0.084009,0.21806,0.2743,-0.23344,-0.21997,0.25735,0.21883,0.039295,0.31647,-0.23399,-0.28235,-0.28613,0.059871,-0.068131,0.28456,-0.081931,-0.3404,0.36205,0.065176,0.13455,-0.20928,-0.38987,-0.3077,-0.18466,0.16746,-0.046358,-0.34478,-0.22496,0.28916,0.17598,-0.027846,0.0097697,-0.1962,0.097464,0.19515,-0.30718,-0.41114,0.19702,-0.096989,0.019854,-0.21649,0.43512,-0.074221,-0.31363,0.13033,-0.2906,0.14729,-0.20996,0.12173,-0.279,-0.11425,-0.031709,-0.16147,-0.20602,-0.25404,0.20471,0.38167,-0.046109,0.072222,0.19714,-0.10183,0.035582,-0.26999,-0.18338,-0.25518,0.069049,0.17774,0.25642,0.40766
features,-0.13924,-0.24014,-0.073688,-0.075117,0.18082,-0.23173,-0.020022,0.047096,0.10869,0.0064951,-0.63116,0.25379,-0.16112,0.34219,-0.14092,0.14635,0.31604,0.24726,0.016689,-0.13365,0.2322,-0.17304,0.27873,0.27205,-0.4504,-0.072563,-0.045568,0.22621,-0.1865,0.25434,-0.23387,0.073785,0.28047,0.034367,0.40224,0.19473,-0.043842,0.31821,0.059301,-0.01327,0.10385,0.18572,-0.12613,-0.34578,0.16388,-0.29991,0.010569,0.33968,-0.30472,-0.047023,0.23916,0.31827,-0.51224,-0.094918,0.030403,-0.32949,-0.39627,-0.28684,0.30541,-0.08535,0.045101,0.35,0.39279,-0.26925,-0.064574,-0.22264,-0.3001,-0.17456,0.075893,0.27865,-0.22939,-0.10873,0.21135,-0.098566,0.13356,0.10217,0.1496,-0.21727,0.37641,0.1461,0.087574,-0.17446,0.38169,-0.34668,-0.12682,-0.27149,-0.039754,-0.12723,0.27144,0.035789,-0.36837,0.0017253,-0.25546,-0.21812,0.057335,-0.071735,0.17835,0.20121,0.13171,-0.094748,0.23542,0.22719,-0.024703,0.20258,-0.017033,-0.17733,-0.41299,0.032505,0.19658,-0.12748,-0.35098,0.12213,0.28182,-0.091531,-0.19088,-0.01466,-0.19439,-0.016332,-0.17062,0.17289,-0.061965,-0.22118,-0.35228,-0.24007,0.4426,-0.074807,0.17035,0.18109,-0.076192,-0.20076,-0.12274,-0.12563,0.27058,0.076457,0.024951,0.27603,0.074231,0.027557,-0.2052,0.48431,0.15837,0.027528,0.23861,-0.046835,0.0078967,-0.17627,0.027259,-0.38623,0.057787,-0.37476,-0.21353,-0.1193,-0.019128,0.1555,0.30485,-0.29234,-0.1776,0.16468,0.31431,0.19726,0.4817,-0.19959,0.091015,0.11321,-0.2105,-0.44584,-0.014347,-0.23055,0.12034,0.12605,-0.24866,-0.16602,-0.26895,0.11206,-0.19516,-0.23698,0.129,-0.056099,-0.03157,-0.29923,-0.027196,-0.36451,0.034884,-0.12528,0.33539,0.022884,0.20129,-0.16097,-0.24576,-0.2163,0.12457,0.26778,-0.043791,0.1536,0.071292,0.0025544,0.024361,-0.03382,0.0044151,-0.14814,-0.03893,0.044641,0.062488,0.28243,0.21343,0.22609,0.010877,0.10127,0.21138,-0.029862,-0.22708,-0.31326,-0.15448,0.20187,0.38638,-0.088542,-0.29409,-0.27529,0.087047,-0.058508,0.12796,0.013055,-0.16475,0.26496,0.25917,-0.0054865,-0.18758,0.2619,-0.27505,0.39174,0.032191,-0.099523,0.022808,0.1302,0.12204,-0.21336,0.25797,0.26711,-0.1162,-0.065778,0.30352,-0.49911,-0.38088,0.19855,-0.043771,0.14199,0.063452,-0.10296,-0.028094,0.028144,-0.041048,-0.073272,-0.24412,-0.01023,-0.12262,0.14063,-0.1716,-0.44648,-0.16103,0.25012,-0.22018,0.48218,-0.15136,-0.24219,0.20636,-0.13231,-0.069956,-0.045088,-0.093125,0.11541,-0.13846,-0.11254,-0.028685,-0.14037,0.2643,0.11751,-0.24071,-0.36897,-0.022426,0.04826,-0.11775,-0.21775,-0.022654,-0.13036,-0.11949,-0.037294,0.2674,0.1357,0.035742,0.014711,0.25824,0.14355,-0.0079164,-0.074856,0.15533,-0.12997,-0.015019,-0.18295,0.0013884,0.18692
legs,0.13053,0.24034,-0.31622,0.14275,0.076646,-0.27746,0.31347,0.097972,0.24453,0.08707,0.17685,-0.1014,-0.18662,0.37217,0.025921,0.43926,-0.3276,0.015194,-0.27185,0.16691,0.18353,0.095429,-0.059236,0.11529,-0.0027552,-0.14727,-0.14639,-0.049451,0.54022,-0.42468,0.15717,0.16959,0.027047,0.23851,0.1587,0.26905,0.13393,0.17676,-0.16089,-0.34668,0.046874,0.0040707,-0.11004,-0.42818,-0.14054,-0.14031,-0.025519,0.25681,-0.19864,0.41709,0.066433,0.1379,-0.028372,0.086003,0.38787,-0.30497,0.077993,0.066678,0.12497,0.11259,-0.25015,0.12765,-0.040901,-0.47139,0.060543,0.11742,0.33255,0.21667,-0.11738,0.43319,-0.51746,0.15732,-0.11838,0.12235,0.10302,0.19043,0.21192,0.09236,0.2133,0.048947,-0.20977,-0.23674,0.23808000000000001,-0.29254,0.10293,0.23205,0.1257,-0.15376,0.08242,-0.0016335,-0.18693,-0.27749,0.014794,0.026771,-0.10678,-0.11383,-0.12351,0.59145,0.0528,0.048131,0.23999,0.19521,0.042303,-0.20843,0.3695,-0.27932,-0.028556,0.054551,0.13755,0.04463,-0.06067,-0.051089,0.0089447,-0.063959,0.043248,-0.026899,0.19567,0.2885,-0.10226,-0.14626,0.083131,0.38289,0.0050475,0.19213,0.065646,-0.16887,-0.29163,0.056434,0.13536,-0.39927,0.096209,-0.39302,0.21299,0.059291,-0.20244,-0.18549,-0.19783,-0.24833,-0.38409,0.083956,0.045107,-0.055492,0.72667,0.23964,0.035715,0.040704,-0.1727,0.319,-0.058793,-0.088038,-0.21905,-0.096479,0.135,0.45561,0.34844,0.31725,0.082558,0.016716,0.18619,0.10038,0.4234,-0.37368,0.2721,-0.10772,0.060071,-0.22277,0.020298,-0.17887,0.080956,-0.17652,-0.084595,-0.19489,0.087884,0.12409,0.10838,0.24631,-0.10363,0.18307,0.54568,0.16297,0.11982,-0.24269,0.19741,-0.13244,0.089593,0.32223,0.3421,0.13238,-0.036847,0.041109,0.036869,-0.09705,0.24565,-0.020261,-0.21142,-0.52158,0.3791,-0.07822,-0.45376,-0.27497,0.11139,0.15108,0.13381,0.24412,-0.23024,0.30781,-0.13445,-0.051878,-0.20342,0.06916,-0.071467,-0.024118,-0.31968,0.10718,0.25475,0.1626,-0.033321,0.32083,-0.080941,-0.15503,0.29394,-0.36151,0.050509,-0.24123,0.26306,0.27975,-0.29592,-0.20527,-0.11098,-0.017775,0.12687,-0.17657,-0.041303,0.085768,-0.18006,0.090759,0.23588,0.27762,0.16606,0.19074,-0.17872,-0.17436,-0.1156,-0.057693,-0.4868,0.67491,-0.13613,-0.49358,0.16968,0.093621,-0.079616,-0.27749,-0.075069,0.15808,0.48354,-0.12287,-0.071972,-0.39896,-0.22755,0.24762,-0.25672,-0.029245,0.25445,-0.020968,0.54934,0.25413,0.38762,-0.14773,-0.28035,-0.055181,-0.0099404,-0.13168,0.28845,0.036859,0.0029069,-0.14486,-0.13252,-0.29078,0.052331,0.20388,0.24681,-0.20117,-0.055718,-0.057244,0.033049,-0.009105,0.18932,0.20208,-0.16499,-0.17274,0.24524,0.53789,0.158,-0.10819,-0.38842,-0.47788,0.036759,0.25469,0.030047,0.2216
